<?xml version="1.0"?>
<!-- DTD for the XMLBIF 0.3 format -->
<!DOCTYPE BIF [
	<!ELEMENT BIF ( NETWORK )*>
	      <!ATTLIST BIF VERSION CDATA #REQUIRED>
	<!ELEMENT NETWORK ( NAME, ( PROPERTY | VARIABLE | DEFINITION )* )>
	<!ELEMENT NAME (#PCDATA)>
	<!ELEMENT VARIABLE ( NAME, ( OUTCOME |  PROPERTY )* ) >
	      <!ATTLIST VARIABLE TYPE (nature|decision|utility) "nature">
	<!ELEMENT OUTCOME (#PCDATA)>
	<!ELEMENT DEFINITION ( FOR | GIVEN | TABLE | PROPERTY )* >
	<!ELEMENT FOR (#PCDATA)>
	<!ELEMENT GIVEN (#PCDATA)>
	<!ELEMENT TABLE (#PCDATA)>
	<!ELEMENT PROPERTY (#PCDATA)>
]>


<BIF VERSION="0.3">
<NETWORK>
<NAME>faces-weka.filters.supervised.attribute.Discretize-Rfirst-last-precision6-weka.filters.unsupervised.attribute.ReplaceMissingValues</NAME>
<VARIABLE TYPE="nature">
<NAME>emotion</NAME>
<OUTCOME>angry</OUTCOME>
<OUTCOME>disgust</OUTCOME>
<OUTCOME>fear</OUTCOME>
<OUTCOME>happy</OUTCOME>
<OUTCOME>neutral</OUTCOME>
<OUTCOME>sad</OUTCOME>
<OUTCOME>surprise</OUTCOME>
</VARIABLE>
<VARIABLE TYPE="nature">
<NAME>pixel0</NAME>
<OUTCOME>&apos;\&apos;(-inf-0.448039]\&apos;&apos;</OUTCOME>
<OUTCOME>&apos;\&apos;(0.448039-0.688235]\&apos;&apos;</OUTCOME>
<OUTCOME>&apos;\&apos;(0.688235-0.789216]\&apos;&apos;</OUTCOME>
<OUTCOME>&apos;\&apos;(0.789216-inf)\&apos;&apos;</OUTCOME>
</VARIABLE>
<VARIABLE TYPE="nature">
<NAME>pixel1</NAME>
<OUTCOME>&apos;\&apos;(-inf-0.295588]\&apos;&apos;</OUTCOME>
<OUTCOME>&apos;\&apos;(0.295588-0.52451]\&apos;&apos;</OUTCOME>
<OUTCOME>&apos;\&apos;(0.52451-0.620098]\&apos;&apos;</OUTCOME>
<OUTCOME>&apos;\&apos;(0.620098-0.762745]\&apos;&apos;</OUTCOME>
<OUTCOME>&apos;\&apos;(0.762745-inf)\&apos;&apos;</OUTCOME>
</VARIABLE>
<VARIABLE TYPE="nature">
<NAME>pixel2</NAME>
<OUTCOME>&apos;\&apos;(-inf-0.152451]\&apos;&apos;</OUTCOME>
<OUTCOME>&apos;\&apos;(0.152451-0.40098]\&apos;&apos;</OUTCOME>
<OUTCOME>&apos;\&apos;(0.40098-0.657353]\&apos;&apos;</OUTCOME>
<OUTCOME>&apos;\&apos;(0.657353-0.768627]\&apos;&apos;</OUTCOME>
<OUTCOME>&apos;\&apos;(0.768627-inf)\&apos;&apos;</OUTCOME>
</VARIABLE>
<VARIABLE TYPE="nature">
<NAME>pixel3</NAME>
<OUTCOME>&apos;\&apos;(-inf-0.429412]\&apos;&apos;</OUTCOME>
<OUTCOME>&apos;\&apos;(0.429412-0.648529]\&apos;&apos;</OUTCOME>
<OUTCOME>&apos;\&apos;(0.648529-0.788235]\&apos;&apos;</OUTCOME>
<OUTCOME>&apos;\&apos;(0.788235-inf)\&apos;&apos;</OUTCOME>
</VARIABLE>
<VARIABLE TYPE="nature">
<NAME>pixel4</NAME>
<OUTCOME>&apos;\&apos;(-inf-0.408824]\&apos;&apos;</OUTCOME>
<OUTCOME>&apos;\&apos;(0.408824-0.705392]\&apos;&apos;</OUTCOME>
<OUTCOME>&apos;\&apos;(0.705392-0.794118]\&apos;&apos;</OUTCOME>
<OUTCOME>&apos;\&apos;(0.794118-inf)\&apos;&apos;</OUTCOME>
</VARIABLE>
<VARIABLE TYPE="nature">
<NAME>pixel5</NAME>
<OUTCOME>&apos;\&apos;(-inf-0.493627]\&apos;&apos;</OUTCOME>
<OUTCOME>&apos;\&apos;(0.493627-0.669608]\&apos;&apos;</OUTCOME>
<OUTCOME>&apos;\&apos;(0.669608-inf)\&apos;&apos;</OUTCOME>
</VARIABLE>
<VARIABLE TYPE="nature">
<NAME>pixel6</NAME>
<OUTCOME>&apos;\&apos;(-inf-0.080392]\&apos;&apos;</OUTCOME>
<OUTCOME>&apos;\&apos;(0.080392-0.542647]\&apos;&apos;</OUTCOME>
<OUTCOME>&apos;\&apos;(0.542647-0.663235]\&apos;&apos;</OUTCOME>
<OUTCOME>&apos;\&apos;(0.663235-inf)\&apos;&apos;</OUTCOME>
</VARIABLE>
<VARIABLE TYPE="nature">
<NAME>pixel7</NAME>
<OUTCOME>&apos;\&apos;(-inf-0.50098]\&apos;&apos;</OUTCOME>
<OUTCOME>&apos;\&apos;(0.50098-inf)\&apos;&apos;</OUTCOME>
</VARIABLE>
<VARIABLE TYPE="nature">
<NAME>pixel8</NAME>
<OUTCOME>&apos;\&apos;(-inf-0.181373]\&apos;&apos;</OUTCOME>
<OUTCOME>&apos;\&apos;(0.181373-0.565196]\&apos;&apos;</OUTCOME>
<OUTCOME>&apos;\&apos;(0.565196-inf)\&apos;&apos;</OUTCOME>
</VARIABLE>
<VARIABLE TYPE="nature">
<NAME>pixel9</NAME>
<OUTCOME>&apos;\&apos;(-inf-0.093137]\&apos;&apos;</OUTCOME>
<OUTCOME>&apos;\&apos;(0.093137-0.593137]\&apos;&apos;</OUTCOME>
<OUTCOME>&apos;\&apos;(0.593137-inf)\&apos;&apos;</OUTCOME>
</VARIABLE>
<VARIABLE TYPE="nature">
<NAME>pixel10</NAME>
<OUTCOME>&apos;\&apos;(-inf-0.020098]\&apos;&apos;</OUTCOME>
<OUTCOME>&apos;\&apos;(0.020098-0.435294]\&apos;&apos;</OUTCOME>
<OUTCOME>&apos;\&apos;(0.435294-0.735294]\&apos;&apos;</OUTCOME>
<OUTCOME>&apos;\&apos;(0.735294-0.972059]\&apos;&apos;</OUTCOME>
<OUTCOME>&apos;\&apos;(0.972059-inf)\&apos;&apos;</OUTCOME>
</VARIABLE>
<VARIABLE TYPE="nature">
<NAME>pixel11</NAME>
<OUTCOME>&apos;\&apos;(-inf-0.026961]\&apos;&apos;</OUTCOME>
<OUTCOME>&apos;\&apos;(0.026961-0.676471]\&apos;&apos;</OUTCOME>
<OUTCOME>&apos;\&apos;(0.676471-0.991667]\&apos;&apos;</OUTCOME>
<OUTCOME>&apos;\&apos;(0.991667-inf)\&apos;&apos;</OUTCOME>
</VARIABLE>
<VARIABLE TYPE="nature">
<NAME>pixel12</NAME>
<OUTCOME>&apos;\&apos;(-inf-0.603922]\&apos;&apos;</OUTCOME>
<OUTCOME>&apos;\&apos;(0.603922-0.976471]\&apos;&apos;</OUTCOME>
<OUTCOME>&apos;\&apos;(0.976471-inf)\&apos;&apos;</OUTCOME>
</VARIABLE>
<VARIABLE TYPE="nature">
<NAME>pixel13</NAME>
<OUTCOME>&apos;\&apos;(-inf-0.493137]\&apos;&apos;</OUTCOME>
<OUTCOME>&apos;\&apos;(0.493137-0.675]\&apos;&apos;</OUTCOME>
<OUTCOME>&apos;\&apos;(0.675-0.957353]\&apos;&apos;</OUTCOME>
<OUTCOME>&apos;\&apos;(0.957353-inf)\&apos;&apos;</OUTCOME>
</VARIABLE>
<VARIABLE TYPE="nature">
<NAME>pixel14</NAME>
<OUTCOME>&apos;\&apos;(-inf-0.585294]\&apos;&apos;</OUTCOME>
<OUTCOME>&apos;\&apos;(0.585294-0.985784]\&apos;&apos;</OUTCOME>
<OUTCOME>&apos;\&apos;(0.985784-inf)\&apos;&apos;</OUTCOME>
</VARIABLE>
<VARIABLE TYPE="nature">
<NAME>pixel15</NAME>
<OUTCOME>&apos;\&apos;(-inf-0.016176]\&apos;&apos;</OUTCOME>
<OUTCOME>&apos;\&apos;(0.016176-0.180392]\&apos;&apos;</OUTCOME>
<OUTCOME>&apos;\&apos;(0.180392-0.389216]\&apos;&apos;</OUTCOME>
<OUTCOME>&apos;\&apos;(0.389216-0.587255]\&apos;&apos;</OUTCOME>
<OUTCOME>&apos;\&apos;(0.587255-inf)\&apos;&apos;</OUTCOME>
</VARIABLE>
<VARIABLE TYPE="nature">
<NAME>pixel16</NAME>
<OUTCOME>&apos;\&apos;(-inf-0.161275]\&apos;&apos;</OUTCOME>
<OUTCOME>&apos;\&apos;(0.161275-0.362745]\&apos;&apos;</OUTCOME>
<OUTCOME>&apos;\&apos;(0.362745-0.498039]\&apos;&apos;</OUTCOME>
<OUTCOME>&apos;\&apos;(0.498039-0.606863]\&apos;&apos;</OUTCOME>
<OUTCOME>&apos;\&apos;(0.606863-inf)\&apos;&apos;</OUTCOME>
</VARIABLE>
<VARIABLE TYPE="nature">
<NAME>pixel17</NAME>
<OUTCOME>&apos;\&apos;(-inf-0.194608]\&apos;&apos;</OUTCOME>
<OUTCOME>&apos;\&apos;(0.194608-0.288725]\&apos;&apos;</OUTCOME>
<OUTCOME>&apos;\&apos;(0.288725-0.491667]\&apos;&apos;</OUTCOME>
<OUTCOME>&apos;\&apos;(0.491667-inf)\&apos;&apos;</OUTCOME>
</VARIABLE>
<VARIABLE TYPE="nature">
<NAME>pixel18</NAME>
<OUTCOME>&apos;\&apos;(-inf-0.151961]\&apos;&apos;</OUTCOME>
<OUTCOME>&apos;\&apos;(0.151961-0.334804]\&apos;&apos;</OUTCOME>
<OUTCOME>&apos;\&apos;(0.334804-0.541667]\&apos;&apos;</OUTCOME>
<OUTCOME>&apos;\&apos;(0.541667-inf)\&apos;&apos;</OUTCOME>
</VARIABLE>
<VARIABLE TYPE="nature">
<NAME>pixel19</NAME>
<OUTCOME>&apos;\&apos;(-inf-0.207843]\&apos;&apos;</OUTCOME>
<OUTCOME>&apos;\&apos;(0.207843-0.405392]\&apos;&apos;</OUTCOME>
<OUTCOME>&apos;\&apos;(0.405392-0.571078]\&apos;&apos;</OUTCOME>
<OUTCOME>&apos;\&apos;(0.571078-inf)\&apos;&apos;</OUTCOME>
</VARIABLE>
<VARIABLE TYPE="nature">
<NAME>pixel20</NAME>
<OUTCOME>&apos;\&apos;(-inf-0.090686]\&apos;&apos;</OUTCOME>
<OUTCOME>&apos;\&apos;(0.090686-0.337255]\&apos;&apos;</OUTCOME>
<OUTCOME>&apos;\&apos;(0.337255-inf)\&apos;&apos;</OUTCOME>
</VARIABLE>
<VARIABLE TYPE="nature">
<NAME>pixel21</NAME>
<OUTCOME>&apos;\&apos;(-inf-0.156373]\&apos;&apos;</OUTCOME>
<OUTCOME>&apos;\&apos;(0.156373-0.503431]\&apos;&apos;</OUTCOME>
<OUTCOME>&apos;\&apos;(0.503431-0.991667]\&apos;&apos;</OUTCOME>
<OUTCOME>&apos;\&apos;(0.991667-inf)\&apos;&apos;</OUTCOME>
</VARIABLE>
<VARIABLE TYPE="nature">
<NAME>pixel22</NAME>
<OUTCOME>&apos;\&apos;(-inf-0.355882]\&apos;&apos;</OUTCOME>
<OUTCOME>&apos;\&apos;(0.355882-0.978431]\&apos;&apos;</OUTCOME>
<OUTCOME>&apos;\&apos;(0.978431-inf)\&apos;&apos;</OUTCOME>
</VARIABLE>
<VARIABLE TYPE="nature">
<NAME>pixel23</NAME>
<OUTCOME>&apos;\&apos;(-inf-0.058333]\&apos;&apos;</OUTCOME>
<OUTCOME>&apos;\&apos;(0.058333-0.289706]\&apos;&apos;</OUTCOME>
<OUTCOME>&apos;\&apos;(0.289706-0.634314]\&apos;&apos;</OUTCOME>
<OUTCOME>&apos;\&apos;(0.634314-0.967157]\&apos;&apos;</OUTCOME>
<OUTCOME>&apos;\&apos;(0.967157-inf)\&apos;&apos;</OUTCOME>
</VARIABLE>
<VARIABLE TYPE="nature">
<NAME>pixel24</NAME>
<OUTCOME>&apos;\&apos;(-inf-0.159314]\&apos;&apos;</OUTCOME>
<OUTCOME>&apos;\&apos;(0.159314-0.546569]\&apos;&apos;</OUTCOME>
<OUTCOME>&apos;\&apos;(0.546569-0.960784]\&apos;&apos;</OUTCOME>
<OUTCOME>&apos;\&apos;(0.960784-inf)\&apos;&apos;</OUTCOME>
</VARIABLE>
<VARIABLE TYPE="nature">
<NAME>pixel25</NAME>
<OUTCOME>&apos;\&apos;(-inf-0.328431]\&apos;&apos;</OUTCOME>
<OUTCOME>&apos;\&apos;(0.328431-0.627451]\&apos;&apos;</OUTCOME>
<OUTCOME>&apos;\&apos;(0.627451-0.758824]\&apos;&apos;</OUTCOME>
<OUTCOME>&apos;\&apos;(0.758824-inf)\&apos;&apos;</OUTCOME>
</VARIABLE>
<VARIABLE TYPE="nature">
<NAME>pixel26</NAME>
<OUTCOME>&apos;\&apos;(-inf-0.419608]\&apos;&apos;</OUTCOME>
<OUTCOME>&apos;\&apos;(0.419608-0.614706]\&apos;&apos;</OUTCOME>
<OUTCOME>&apos;\&apos;(0.614706-0.761765]\&apos;&apos;</OUTCOME>
<OUTCOME>&apos;\&apos;(0.761765-inf)\&apos;&apos;</OUTCOME>
</VARIABLE>
<VARIABLE TYPE="nature">
<NAME>pixel27</NAME>
<OUTCOME>&apos;\&apos;(-inf-0.465686]\&apos;&apos;</OUTCOME>
<OUTCOME>&apos;\&apos;(0.465686-0.639216]\&apos;&apos;</OUTCOME>
<OUTCOME>&apos;\&apos;(0.639216-0.772059]\&apos;&apos;</OUTCOME>
<OUTCOME>&apos;\&apos;(0.772059-inf)\&apos;&apos;</OUTCOME>
</VARIABLE>
<VARIABLE TYPE="nature">
<NAME>pixel28</NAME>
<OUTCOME>&apos;\&apos;(-inf-0.466667]\&apos;&apos;</OUTCOME>
<OUTCOME>&apos;\&apos;(0.466667-0.684804]\&apos;&apos;</OUTCOME>
<OUTCOME>&apos;\&apos;(0.684804-0.77598]\&apos;&apos;</OUTCOME>
<OUTCOME>&apos;\&apos;(0.77598-inf)\&apos;&apos;</OUTCOME>
</VARIABLE>
<VARIABLE TYPE="nature">
<NAME>pixel29</NAME>
<OUTCOME>&apos;\&apos;(-inf-0.477451]\&apos;&apos;</OUTCOME>
<OUTCOME>&apos;\&apos;(0.477451-0.644608]\&apos;&apos;</OUTCOME>
<OUTCOME>&apos;\&apos;(0.644608-0.768137]\&apos;&apos;</OUTCOME>
<OUTCOME>&apos;\&apos;(0.768137-inf)\&apos;&apos;</OUTCOME>
</VARIABLE>
<VARIABLE TYPE="nature">
<NAME>pixel30</NAME>
<OUTCOME>&apos;\&apos;(-inf-0.22402]\&apos;&apos;</OUTCOME>
<OUTCOME>&apos;\&apos;(0.22402-0.405882]\&apos;&apos;</OUTCOME>
<OUTCOME>&apos;\&apos;(0.405882-0.676961]\&apos;&apos;</OUTCOME>
<OUTCOME>&apos;\&apos;(0.676961-0.822059]\&apos;&apos;</OUTCOME>
<OUTCOME>&apos;\&apos;(0.822059-inf)\&apos;&apos;</OUTCOME>
</VARIABLE>
<VARIABLE TYPE="nature">
<NAME>pixel31</NAME>
<OUTCOME>&apos;\&apos;(-inf-0.279412]\&apos;&apos;</OUTCOME>
<OUTCOME>&apos;\&apos;(0.279412-0.480882]\&apos;&apos;</OUTCOME>
<OUTCOME>&apos;\&apos;(0.480882-0.648039]\&apos;&apos;</OUTCOME>
<OUTCOME>&apos;\&apos;(0.648039-0.745098]\&apos;&apos;</OUTCOME>
<OUTCOME>&apos;\&apos;(0.745098-inf)\&apos;&apos;</OUTCOME>
</VARIABLE>
<VARIABLE TYPE="nature">
<NAME>pixel32</NAME>
<OUTCOME>&apos;\&apos;(-inf-0.448039]\&apos;&apos;</OUTCOME>
<OUTCOME>&apos;\&apos;(0.448039-0.688235]\&apos;&apos;</OUTCOME>
<OUTCOME>&apos;\&apos;(0.688235-0.789216]\&apos;&apos;</OUTCOME>
<OUTCOME>&apos;\&apos;(0.789216-inf)\&apos;&apos;</OUTCOME>
</VARIABLE>
<VARIABLE TYPE="nature">
<NAME>pixel33</NAME>
<OUTCOME>&apos;\&apos;(-inf-0.428922]\&apos;&apos;</OUTCOME>
<OUTCOME>&apos;\&apos;(0.428922-0.598039]\&apos;&apos;</OUTCOME>
<OUTCOME>&apos;\&apos;(0.598039-0.75]\&apos;&apos;</OUTCOME>
<OUTCOME>&apos;\&apos;(0.75-inf)\&apos;&apos;</OUTCOME>
</VARIABLE>
<VARIABLE TYPE="nature">
<NAME>pixel34</NAME>
<OUTCOME>&apos;\&apos;(-inf-0.477451]\&apos;&apos;</OUTCOME>
<OUTCOME>&apos;\&apos;(0.477451-0.644608]\&apos;&apos;</OUTCOME>
<OUTCOME>&apos;\&apos;(0.644608-0.768137]\&apos;&apos;</OUTCOME>
<OUTCOME>&apos;\&apos;(0.768137-inf)\&apos;&apos;</OUTCOME>
</VARIABLE>
<DEFINITION>
<FOR>emotion</FOR>
<TABLE>
0.13740923259094154 0.014853640273738833 0.14420046319675414 0.24955160464589826 0.17261915127030839 0.16958921761540738 0.11177669040695143 
</TABLE>
</DEFINITION>
<DEFINITION>
<FOR>pixel0</FOR>
<GIVEN>emotion</GIVEN>
<GIVEN>pixel31</GIVEN>
<TABLE>
0.9488950276243094 0.03729281767955801 0.009668508287292817 0.004143646408839779 
0.6953517587939698 0.2832914572864322 0.016959798994974875 0.0043969849246231155 
0.19243840271877655 0.7268479184367035 0.06414613423959219 0.01656754460492778 
0.04209844559585492 0.5667098445595855 0.35038860103626945 0.040803108808290155 
0.015919811320754717 0.15860849056603774 0.38266509433962265 0.4428066037735849 
0.8958333333333334 0.020833333333333332 0.0625 0.020833333333333332 
0.6325301204819277 0.3433734939759036 0.006024096385542169 0.018072289156626505 
0.14473684210526316 0.7675438596491229 0.04824561403508772 0.039473684210526314 
0.019230769230769232 0.75 0.1987179487179487 0.03205128205128205 
0.01824817518248175 0.2591240875912409 0.354014598540146 0.3686131386861314 
0.8904382470119522 0.10159362549800798 0.00597609561752988 0.00199203187250996 
0.6232993197278912 0.3494897959183674 0.01445578231292517 0.012755102040816327 
0.14598214285714287 0.7763392857142857 0.05848214285714286 0.019196428571428573 
0.036 0.5434285714285715 0.3902857142857143 0.030285714285714287 
0.007978723404255319 0.11208206686930092 0.3598024316109423 0.5201367781155015 
0.9091981132075472 0.08608490566037735 0.003537735849056604 0.0011792452830188679 
0.6459649122807017 0.3280701754385965 0.021403508771929824 0.004561403508771929 
0.15009337068160597 0.7649393090569561 0.0665266106442577 0.018440709617180206 
0.022033898305084745 0.5996610169491525 0.3277966101694915 0.05050847457627119 
0.001462843768285547 0.12960795787009946 0.3812170860152136 0.4877121123464014 
0.9418604651162791 0.04817275747508306 0.008305647840531562 0.0016611295681063123 
0.7194700460829493 0.26440092165898615 0.010944700460829493 0.005184331797235023 
0.14678543764523624 0.7858249419054996 0.05151045701006971 0.015879163439194422 
0.014300847457627119 0.5619703389830508 0.3744703389830508 0.04925847457627119 
0.0035211267605633804 0.08098591549295775 0.3204225352112676 0.5950704225352113 
0.8983228511530398 0.08490566037735849 0.011530398322851153 0.005241090146750524 
0.6781990521327014 0.2981042654028436 0.015639810426540283 0.008056872037914692 
0.14197976878612717 0.7857658959537572 0.05455202312138728 0.017702312138728325 
0.03125 0.51875 0.39034090909090907 0.05965909090909091 
0.012465373961218837 0.10018467220683287 0.36149584487534625 0.525854108956602 
0.8921568627450981 0.08823529411764706 0.00980392156862745 0.00980392156862745 
0.6703056768558951 0.31222707423580787 0.010917030567685589 0.006550218340611353 
0.11984126984126985 0.796031746031746 0.07222222222222222 0.011904761904761904 
0.006189821182943604 0.4986244841815681 0.44222833562585967 0.05295735900962861 
0.00347661188369153 0.06668773704171935 0.28729456384323643 0.6425410872313527 
</TABLE>
</DEFINITION>
<DEFINITION>
<FOR>pixel1</FOR>
<GIVEN>emotion</GIVEN>
<GIVEN>pixel26</GIVEN>
<TABLE>
0.3226022803487592 0.4151576123407109 0.11066398390342053 0.10663983903420524 0.04493628437290409 
0.11601235112483459 0.4265549183943538 0.23775915306572562 0.1733568592853992 0.04631671812968681 
0.05218498090793382 0.24310564276622826 0.2388629613915995 0.3610521849809079 0.1047942299533305 
0.04512534818941504 0.09860724233983287 0.13871866295264623 0.32144846796657384 0.396100278551532 
0.17073170731707318 0.4796747967479675 0.13821138211382114 0.10569105691056911 0.10569105691056911 
0.06598984771573604 0.49238578680203043 0.19796954314720813 0.16751269035532995 0.07614213197969544 
0.049773755656108594 0.1583710407239819 0.3031674208144796 0.3393665158371041 0.1493212669683258 
0.00906344410876133 0.11782477341389729 0.1540785498489426 0.3716012084592145 0.3474320241691843 
0.22749822820694543 0.3862508858965273 0.1481218993621545 0.15946137491141035 0.07866761162296244 
0.07542579075425791 0.34501216545012164 0.25547445255474455 0.22530413625304135 0.09878345498783454 
0.03175257731958763 0.14144329896907218 0.21484536082474226 0.42597938144329894 0.18597938144329898 
0.033623910336239106 0.0660024906600249 0.0859277708592777 0.32918223329182233 0.4852635948526359 
0.2627956989247312 0.43311827956989246 0.11827956989247312 0.1389247311827957 0.04688172043010753 
0.07444235420585864 0.48562214458478903 0.21418973394248858 0.15829078204783661 0.06745498521902714 
0.0289758902897589 0.2342402123424021 0.24529971245299712 0.38597655385976554 0.10550763105507631 
0.015596087761036215 0.08749669574411842 0.09542690985989954 0.3888448321438012 0.41263547449114457 
0.2621553884711779 0.38847117794486213 0.12280701754385964 0.14385964912280702 0.08270676691729323 
0.08274582560296846 0.4070500927643785 0.21113172541743971 0.21484230055658626 0.08423005565862708 
0.026080743122543767 0.14826723829939265 0.18756698821007503 0.43193997856377275 0.2061450518042158 
0.015963978714695046 0.06180925092099877 0.06672124437167418 0.31150225133033155 0.5440032746623005 
0.2413051272857655 0.42129795625672284 0.13087128002868412 0.13589100035855145 0.07063463607027609 
0.08485056681552731 0.3899003778770182 0.22706973548608725 0.21538990037787703 0.0827894194434902 
0.05995975855130785 0.20482897384305834 0.2056338028169014 0.3617706237424547 0.16780684104627766 
0.031150667514303877 0.08709472345835982 0.09726636999364272 0.3083280356007629 0.4761602034329307 
0.2135306553911205 0.38266384778012685 0.1331923890063425 0.1839323467230444 0.08668076109936575 
0.04117108874656908 0.3302836230558097 0.22598353156450138 0.29734675205855443 0.10521500457456541 
0.01701507049100632 0.1434127369956247 0.19008264462809918 0.4312105007292173 0.2182790471560525 
0.008880994671403197 0.03516873889875666 0.06785079928952042 0.2880994671403197 0.6 
</TABLE>
</DEFINITION>
<DEFINITION>
<FOR>pixel2</FOR>
<GIVEN>emotion</GIVEN>
<GIVEN>pixel0</GIVEN>
<TABLE>
0.12270200940572894 0.5604959384352287 0.28858486532706284 0.020094057289439932 0.008123129542539546 
0.0051005100510051 0.0927092709270927 0.6927692769276927 0.17371737173717372 0.035703570357035704 
0.002181818181818182 0.01818181818181818 0.3396363636363636 0.4152727272727273 0.22472727272727272 
0.0011587485515643105 0.008111239860950173 0.0984936268829664 0.26998841251448435 0.6222479721900348 
0.047619047619047616 0.5873015873015873 0.3439153439153439 0.015873015873015872 0.005291005291005291 
0.0023752969121140144 0.09738717339667459 0.6199524940617577 0.23040380047505937 0.0498812351543943 
0.006993006993006993 0.02097902097902098 0.24475524475524477 0.42657342657342656 0.3006993006993007 
0.008403361344537815 0.008403361344537815 0.09243697478991597 0.29411764705882354 0.5966386554621849 
0.09239472030169704 0.5700817096165933 0.30106851037083593 0.0295411690760528 0.0069138906348208675 
0.0020307513780098638 0.11575282854656223 0.6692776327241079 0.16042935886277923 0.05250942848854076 
0.0016844469399213925 0.021897810218978103 0.25210555867490175 0.5272318921953958 0.19708029197080293 
6.752194463200541E-4 0.004726536124240378 0.07089804186360567 0.23295070898041864 0.6907494935854153 
0.04360902255639098 0.5476691729323309 0.3798496240601504 0.021954887218045113 0.0069172932330827065 
0.0010774203478528552 0.060797291057411114 0.7127905187009389 0.19224257349545945 0.033092196398337693 
3.8182512409316535E-4 0.0057273768613974796 0.25162275677739593 0.5158457426498664 0.22642229858724705 
5.238344683080147E-4 0.003666841278156103 0.060240963855421686 0.21843897328444212 0.7171293871136721 
0.08732646663681147 0.619346171070309 0.27630989699955216 0.011195700850873265 0.005821764442454098 
0.0028713129731140694 0.10676063690942313 0.711824588880188 0.16053249804228661 0.018010963194988253 
0.0016085790884718498 0.014477211796246649 0.29115281501340484 0.503485254691689 0.18927613941018767 
0.0014977533699450823 0.008487269096355467 0.07239141288067898 0.23015476784822766 0.6874687968047928 
0.10749185667752444 0.564965617082881 0.3043792978646399 0.017010495837857402 0.006152732537097358 
0.0037359900373599006 0.12727272727272726 0.6826899128268992 0.1576587795765878 0.028642590286425903 
6.006006006006006E-4 0.022222222222222223 0.2840840840840841 0.49309309309309307 0.2 
7.604562737642585E-4 0.006844106463878327 0.06463878326996197 0.24258555133079848 0.685171102661597 
0.08611599297012303 0.6098418277680141 0.28998242530755713 0.012302284710017574 0.0017574692442882249 
0.008130081300813009 0.10760401721664276 0.6633189861310378 0.18029650884744142 0.04065040650406504 
6.064281382656155E-4 0.01879927228623408 0.26379624014554276 0.5451788963007883 0.1716191631291692 
4.697040864255519E-4 0.0023485204321277596 0.04462188821042743 0.20713950211366838 0.7454203851573509 
</TABLE>
</DEFINITION>
<DEFINITION>
<FOR>pixel3</FOR>
<GIVEN>emotion</GIVEN>
<GIVEN>pixel0</GIVEN>
<TABLE>
0.8036783575705732 0.17236954662104362 0.018391787852865698 0.005560307955517536 
0.13955582232893157 0.6617647058823529 0.18577430972388956 0.01290516206482593 
0.029839883551673944 0.17540029112081515 0.673216885007278 0.1215429403202329 
0.010440835266821345 0.0568445475638051 0.2703016241299304 0.6624129930394431 
0.8457446808510638 0.14361702127659576 0.005319148936170213 0.005319148936170213 
0.07380952380952381 0.6547619047619048 0.25476190476190474 0.016666666666666666 
0.04929577464788732 0.11971830985915492 0.6267605633802817 0.20422535211267606 
0.0423728813559322 0.00847457627118644 0.2627118644067797 0.6864406779661016 
0.789308176100629 0.18050314465408804 0.024528301886792454 0.005660377358490566 
0.1256529309344167 0.6694718514219384 0.18717353453279165 0.017701683110853163 
0.014044943820224719 0.1904494382022472 0.6758426966292135 0.1196629213483146 
0.007432432432432433 0.038513513513513516 0.28716216216216217 0.6668918918918919 
0.7728640192539109 0.20848375451263537 0.015342960288808664 0.003309265944645006 
0.14608990147783252 0.6722598522167488 0.17195197044334976 0.009698275862068966 
0.02559205500381971 0.23720397249809014 0.6405653170359052 0.09663865546218488 
0.0110062893081761 0.05712788259958071 0.3579664570230608 0.5738993710691824 
0.817652329749104 0.16980286738351255 0.011200716845878136 0.0013440860215053765 
0.106266318537859 0.6963446475195822 0.19138381201044385 0.0060052219321148825 
0.013412017167381975 0.12607296137339055 0.7719957081545065 0.08851931330472103 
0.0034965034965034965 0.025474525474525476 0.2152847152847153 0.7557442557442557 
0.8106444605358436 0.1777697320782042 0.0068790731354091235 0.004706734250543085 
0.13627304434479323 0.6858495266567015 0.16218236173393125 0.01569506726457399 
0.01622596153846154 0.18209134615384615 0.6941105769230769 0.10757211538461539 
0.00380517503805175 0.04946727549467275 0.2595129375951294 0.6872146118721462 
0.7693661971830986 0.20598591549295775 0.01584507042253521 0.008802816901408451 
0.08373205741626795 0.6808612440191387 0.21866028708133972 0.01674641148325359 
0.007888349514563107 0.13531553398058252 0.7870145631067961 0.06978155339805825 
0.005169172932330827 0.026785714285714284 0.23543233082706766 0.7326127819548872 
</TABLE>
</DEFINITION>
<DEFINITION>
<FOR>pixel4</FOR>
<GIVEN>emotion</GIVEN>
<GIVEN>pixel0</GIVEN>
<TABLE>
0.6086398631308811 0.37082976903336184 0.013259195893926433 0.007271171941830625 
0.0351140456182473 0.8016206482593037 0.12454981992797119 0.03871548619447779 
0.009461426491994178 0.2700145560407569 0.5087336244541485 0.21179039301310043 
0.012761020881670533 0.04524361948955916 0.16357308584686775 0.7784222737819025 
0.5904255319148937 0.3882978723404255 0.015957446808510637 0.005319148936170213 
0.04047619047619048 0.75 0.1595238095238095 0.05 
0.007042253521126761 0.2605633802816901 0.4295774647887324 0.3028169014084507 
0.00847457627118644 0.059322033898305086 0.11016949152542373 0.8220338983050848 
0.550314465408805 0.43836477987421385 0.006918238993710692 0.00440251572327044 
0.0351131746952989 0.7988972721996518 0.1395821242019733 0.02640742890307603 
0.008426966292134831 0.1960674157303371 0.5623595505617978 0.23314606741573032 
0.002027027027027027 0.03175675675675676 0.13445945945945945 0.8317567567567568 
0.5249699157641395 0.4527677496991576 0.018351383874849577 0.003910950661853189 
0.03432881773399015 0.7680110837438424 0.16302339901477833 0.034636699507389165 
0.007257448433919022 0.2203972498090145 0.529029793735676 0.24331550802139038 
0.003668763102725367 0.04035639412997904 0.1640461215932914 0.7919287211740041 
0.646505376344086 0.34274193548387094 0.005824372759856631 0.00492831541218638 
0.03629242819843342 0.8362924281984334 0.11044386422976502 0.016971279373368148 
0.0037553648068669528 0.1968884120171674 0.6089055793991416 0.19045064377682402 
0.005494505494505495 0.032467532467532464 0.11638361638361638 0.8456543456543456 
0.6412020275162925 0.34866039102099927 0.006154960173787111 0.0039826212889210715 
0.04708520179372197 0.830842052815147 0.09940209267563528 0.022670652715495766 
0.006610576923076923 0.2566105769230769 0.5354567307692307 0.2013221153846154 
0.00380517503805175 0.05098934550989345 0.12557077625570776 0.819634703196347 
0.5158450704225352 0.4735915492957746 0.00528169014084507 0.00528169014084507 
0.02631578947368421 0.762200956937799 0.1813397129186603 0.03014354066985646 
0.0018203883495145632 0.16444174757281554 0.5794902912621359 0.254247572815534 
4.6992481203007516E-4 0.01550751879699248 0.11231203007518797 0.8717105263157895 
</TABLE>
</DEFINITION>
<DEFINITION>
<FOR>pixel5</FOR>
<GIVEN>emotion</GIVEN>
<GIVEN>pixel6</GIVEN>
<TABLE>
0.975975975975976 0.015015015015015015 0.009009009009009009 
0.8396021137705937 0.13459745104134285 0.025800435188063412 
0.15985130111524162 0.6446096654275093 0.19553903345724907 
0.03225806451612903 0.15530428999002327 0.8124376454938477 
0.7142857142857143 0.14285714285714285 0.14285714285714285 
0.8222222222222222 0.09333333333333334 0.08444444444444445 
0.1493212669683258 0.7013574660633484 0.1493212669683258 
0.0170316301703163 0.0948905109489051 0.8880778588807786 
0.9857651245551602 0.0035587188612099642 0.010676156583629894 
0.7976896659381829 0.16703090852325944 0.035279425538557604 
0.20250521920668058 0.6228253305497564 0.17466945024356298 
0.029368140017798874 0.15692672797389498 0.8137051320083062 
0.983640081799591 0.014314928425357873 0.002044989775051125 
0.8328530259365994 0.13951517206306155 0.027631802000339042 
0.18923136948888022 0.666796722590714 0.14397190792040576 
0.03209052123910221 0.17232424411055464 0.7955852346503431 
0.9862306368330465 0.012048192771084338 0.0017211703958691911 
0.8592484949138468 0.11978409798629852 0.02096740709985468 
0.19603960396039605 0.6607260726072607 0.14323432343234324 
0.03287944204583195 0.1650614413816008 0.8020591165725672 
0.9810246679316889 0.017077798861480076 0.0018975332068311196 
0.824847250509165 0.14369766915591764 0.0314550803349174 
0.16423144360023378 0.6598480420806546 0.17592051431911163 
0.04364694471387003 0.16133204009052698 0.795021015195603 
0.9813084112149533 0.009345794392523364 0.009345794392523364 
0.8212005108556832 0.1528309919114517 0.02596849723286505 
0.18620689655172415 0.6413793103448275 0.1724137931034483 
0.04021628928692126 0.1402500844880027 0.8195336262250761 
</TABLE>
</DEFINITION>
<DEFINITION>
<FOR>pixel6</FOR>
<GIVEN>emotion</GIVEN>
<GIVEN>pixel28</GIVEN>
<TABLE>
0.09478935698447893 0.6313747228381374 0.11141906873614191 0.16241685144124168 
0.027036516853932584 0.44276685393258425 0.2601825842696629 0.2700140449438202 
0.02679738562091503 0.2856209150326797 0.1588235294117647 0.5287581699346405 
0.026102088167053363 0.22099767981438515 0.09338747099767981 0.6595127610208816 
0.022058823529411766 0.5955882352941176 0.11029411764705882 0.27205882352941174 
0.011111111111111112 0.337037037037037 0.44074074074074077 0.2111111111111111 
0.007042253521126761 0.09154929577464789 0.3028169014084507 0.5985915492957746 
0.003125 0.128125 0.140625 0.728125 
0.0844311377245509 0.6161676646706586 0.13592814371257486 0.16347305389221556 
0.029937791601866253 0.4475116640746501 0.25544323483670295 0.26710730948678074 
0.012252042007001166 0.29346557759626607 0.18611435239206534 0.5081680280046674 
0.018376068376068377 0.22264957264957264 0.10042735042735043 0.6585470085470085 
0.09041394335511982 0.6423384168482208 0.11365286855482934 0.15359477124183007 
0.029549319727891158 0.4840561224489796 0.25744047619047616 0.22895408163265307 
0.019335142469470826 0.32869742198100405 0.21540027137042062 0.43656716417910446 
0.011421319796954314 0.22461928934010153 0.10279187817258884 0.6611675126903553 
0.1151639344262295 0.7168032786885246 0.07991803278688525 0.08811475409836066 
0.05541319666880205 0.5480461242793081 0.21236386931454196 0.18417680973734785 
0.03590568060021436 0.357449088960343 0.1902465166130761 0.41639871382636656 
0.0244 0.2764 0.1212 0.578 
0.10492307692307692 0.6353846153846154 0.12215384615384615 0.13753846153846153 
0.035454545454545454 0.44696969696969696 0.25303030303030305 0.26454545454545453 
0.018170426065162906 0.300125313283208 0.20488721804511278 0.4768170426065163 
0.025497512437810944 0.2493781094527363 0.09514925373134328 0.6299751243781094 
0.07014925373134329 0.7238805970149254 0.09402985074626866 0.11194029850746269 
0.01650366748166259 0.5152811735941321 0.2169926650366748 0.25122249388753054 
0.008586525759577279 0.31109643328929987 0.19352708058124174 0.4867899603698811 
0.008033664881407804 0.21078806426931906 0.11667941851568478 0.6644988523335884 
</TABLE>
</DEFINITION>
<DEFINITION>
<FOR>pixel7</FOR>
<GIVEN>emotion</GIVEN>
<GIVEN>pixel5</GIVEN>
<TABLE>
0.901378896882494 0.09862110311750599 
0.10451977401129943 0.8954802259887006 
0.005376344086021506 0.9946236559139785 
0.8728070175438597 0.12719298245614036 
0.07009345794392523 0.9299065420560748 
0.021634615384615384 0.9783653846153846 
0.9059006211180124 0.09409937888198758 
0.10367722165474974 0.8963227783452502 
0.00933075933075933 0.9906692406692407 
0.9069421487603305 0.09305785123966942 
0.1070398153491056 0.8929601846508944 
0.006431535269709543 0.9935684647302905 
0.935957696827262 0.06404230317273796 
0.13028846153846155 0.8697115384615385 
0.009882869692532943 0.9901171303074671 
0.9101835664335665 0.08981643356643357 
0.11145374449339207 0.8885462555066079 
0.010006901311249138 0.9899930986887508 
0.8824786324786325 0.11752136752136752 
0.11587078651685394 0.8841292134831461 
0.008646616541353383 0.9913533834586467 
</TABLE>
</DEFINITION>
<DEFINITION>
<FOR>pixel8</FOR>
<GIVEN>emotion</GIVEN>
<GIVEN>pixel6</GIVEN>
<TABLE>
0.9819819819819819 0.015015015015015015 0.003003003003003003 
0.17127758781473423 0.7743239042586261 0.05439850792663973 
7.434944237918215E-4 0.28178438661710037 0.7174721189591078 
3.325573661456601E-4 0.016960425673428665 0.9827070169604257 
0.7142857142857143 0.14285714285714285 0.14285714285714285 
0.19111111111111112 0.7955555555555556 0.013333333333333334 
0.004524886877828055 0.13122171945701358 0.8642533936651584 
0.0024330900243309003 0.012165450121654502 0.9854014598540146 
0.9644128113879004 0.03202846975088968 0.0035587188612099642 
0.16952856696846708 0.771464252263503 0.05900718076802997 
0.0020876826722338203 0.24843423799582465 0.7494780793319415 
2.966478789676654E-4 0.02046870364876891 0.9792346484722634 
0.967280163599182 0.03067484662576687 0.002044989775051125 
0.17714866926597728 0.7769113409052382 0.04593998982878454 
0.0011705033164260631 0.25087787748731954 0.7479516191962544 
1.854943424225561E-4 0.009089222778705249 0.9907252828788722 
0.9724612736660929 0.025817555938037865 0.0017211703958691911 
0.22192235831430351 0.742993564459207 0.03508407722648951 
6.600660066006601E-4 0.2382838283828383 0.761056105610561 
3.3211557622052476E-4 0.016273663234805714 0.9833942211889738 
0.969639468690702 0.028462998102466792 0.0018975332068311196 
0.1767368182846798 0.7741570491061326 0.0491061326091876 
0.0017533606078316774 0.29748684979544127 0.700759789596727 
3.2331070158422246E-4 0.01972195279663757 0.9799547365017782 
0.9626168224299065 0.028037383177570093 0.009345794392523364 
0.1673052362707535 0.7709663686675181 0.06172839506172839 
9.852216748768472E-4 0.25517241379310346 0.7438423645320197 
3.379520108144643E-4 0.010476512335248395 0.9891855356539372 
</TABLE>
</DEFINITION>
<DEFINITION>
<FOR>pixel9</FOR>
<GIVEN>emotion</GIVEN>
<GIVEN>pixel5</GIVEN>
<TABLE>
0.13814803715912496 0.8405753670961942 0.02127659574468085 
5.64652738565782E-4 0.5911914172783738 0.4082439299830604 
3.5829451809387314E-4 0.031171623074166967 0.9684700824077391 
0.039301310043668124 0.9563318777292577 0.004366812227074236 
0.004651162790697674 0.6 0.3953488372093023 
0.002398081534772182 0.016786570743405275 0.9808153477218226 
0.11828624650729587 0.8702266376901583 0.011487115802545793 
0.002552322613578356 0.6110260336906586 0.38642164369576315 
3.21646831778707E-4 0.03312962367320682 0.9665487294950145 
0.11816228722525203 0.8625020657742521 0.019335647000495785 
2.8843380444188056E-4 0.6434958177098355 0.3562157484857225 
2.0742584526031943E-4 0.03920348475420037 0.9605890894005393 
0.16115136087722734 0.8261210103779126 0.012727628744859996 
0.0014416146083613647 0.6597789524267179 0.3387794329649207 
3.6589828027808267E-4 0.04207830223197951 0.9575557994877424 
0.15053528512125847 0.8361372077780206 0.013327507100720996 
4.4033465433729633E-4 0.6081021576398062 0.39145750770585647 
3.4494653328734045E-4 0.03966885132804415 0.9599862021386685 
0.10636480136693721 0.881247330200769 0.012387868432293891 
7.017543859649122E-4 0.6056140350877193 0.3936842105263158 
3.757985719654265E-4 0.048478015783540024 0.9511461856444946 
</TABLE>
</DEFINITION>
<DEFINITION>
<FOR>pixel10</FOR>
<GIVEN>emotion</GIVEN>
<GIVEN>pixel23</GIVEN>
<TABLE>
0.3144758735440932 0.540765391014975 0.1048252911813644 0.021630615640599003 0.018302828618968387 
0.03126268777913114 0.7198538367844093 0.15956151035322777 0.06455542021924482 0.02476654486398701 
0.015906680805938492 0.4513962530929657 0.391304347826087 0.11134676564156946 0.030045952633439378 
0.005491153142159854 0.16168395363026236 0.3605857230018304 0.4057352043929225 0.06650396583282489 
0.018276762402088774 0.06527415143603134 0.07049608355091384 0.16971279373368145 0.6762402088772846 
0.22388059701492538 0.6417910447761194 0.1044776119402985 0.014925373134328358 0.014925373134328358 
0.014492753623188406 0.7391304347826086 0.1826086956521739 0.043478260869565216 0.020289855072463767 
0.011320754716981131 0.42641509433962266 0.4188679245283019 0.08679245283018867 0.05660377358490566 
0.01675977653631285 0.027932960893854747 0.36312849162011174 0.4301675977653631 0.16201117318435754 
0.047619047619047616 0.047619047619047616 0.14285714285714285 0.14285714285714285 0.6190476190476191 
0.31663685152057247 0.5599284436493739 0.08050089445438283 0.03398926654740608 0.008944543828264758 
0.020683832840861123 0.6901646264246517 0.17855635289151542 0.08569016462642465 0.024905023216547067 
0.007248878149810148 0.4263030721435968 0.382119433897135 0.1467034863652054 0.037625129444252677 
0.006289308176100629 0.12723754233188195 0.34107402031930334 0.45428156748911463 0.07111756168359942 
0.007263922518159807 0.026634382566585957 0.07506053268765134 0.14769975786924938 0.7433414043583535 
0.2054483541430193 0.6549375709421112 0.10102156640181612 0.03518728717366629 0.00340522133938706 
0.027159485399224016 0.7888503165203186 0.13293853379620177 0.04267919134163774 0.008372472942617929 
0.00641399416909621 0.524198250728863 0.37531584062196305 0.07949465500485908 0.014577259475218658 
0.0030560271646859084 0.17419354838709677 0.3935483870967742 0.38471986417657045 0.044482173174872665 
0.002053388090349076 0.055441478439425054 0.09650924024640657 0.2032854209445585 0.6427104722792608 
0.2744479495268139 0.6109358569926393 0.07255520504731862 0.03259726603575184 0.00946372239747634 
0.024944430723635464 0.7490738453939244 0.16868362558656458 0.04964188688565078 0.007656211410224747 
0.006186909801367633 0.4594594594594595 0.393682839465972 0.1162487788993813 0.024422012373819604 
0.004467134652201659 0.1742182514358647 0.35928525845564774 0.41033822590938096 0.05169112954690491 
0.0033444816053511705 0.06354515050167224 0.07692307692307693 0.17725752508361203 0.6789297658862876 
0.2609137055837564 0.6142131979695431 0.06802030456852792 0.049746192893401014 0.007106598984771574 
0.029402048232573506 0.7561942517343905 0.16286752560290718 0.044598612487611496 0.006937561942517344 
0.010141987829614604 0.4749348015068096 0.4042306577803535 0.1028687337003767 0.007823819182845552 
0.009209888511875909 0.16335433834222007 0.3969946679592826 0.3911778962675715 0.03926320891904993 
0.004219409282700422 0.046413502109704644 0.046413502109704644 0.22362869198312235 0.679324894514768 
0.14776632302405499 0.7250859106529209 0.058419243986254296 0.05154639175257732 0.01718213058419244 
0.013974287311347122 0.6802683063163779 0.1727221911682504 0.08552263834544438 0.047512576858580215 
0.004160887656033287 0.42764678687008784 0.3592233009708738 0.14748035136384652 0.061488673139158574 
0.004072134962187318 0.0924956369982548 0.314717859220477 0.49040139616055844 0.0983129726585224 
0.002079002079002079 0.0395010395010395 0.05197505197505198 0.15176715176715178 0.7546777546777547 
</TABLE>
</DEFINITION>
<DEFINITION>
<FOR>pixel11</FOR>
<GIVEN>emotion</GIVEN>
<GIVEN>pixel10</GIVEN>
<TABLE>
0.8926380368098159 0.10122699386503067 0.003067484662576687 0.003067484662576687 
0.028657205240174673 0.9615174672489083 0.00955240174672489 2.729257641921397E-4 
0.0013761467889908258 0.7729357798165137 0.22522935779816514 4.5871559633027525E-4 
8.223684210526315E-4 0.0649671052631579 0.915296052631579 0.018914473684210526 
0.0019083969465648854 0.009541984732824428 0.30343511450381677 0.6851145038167938 
0.4230769230769231 0.5 0.038461538461538464 0.038461538461538464 
0.002403846153846154 0.9879807692307693 0.007211538461538462 0.002403846153846154 
0.004032258064516129 0.6733870967741935 0.3185483870967742 0.004032258064516129 
0.00847457627118644 0.059322033898305086 0.923728813559322 0.00847457627118644 
0.015625 0.015625 0.171875 0.796875 
0.8358778625954199 0.15648854961832062 0.003816793893129771 0.003816793893129771 
0.02459490740740741 0.9684606481481481 0.006655092592592593 2.8935185185185184E-4 
4.329004329004329E-4 0.7891774891774892 0.20995670995670995 4.329004329004329E-4 
6.075334143377885E-4 0.06865127582017011 0.9240583232077765 0.006682867557715674 
0.001597444089456869 0.001597444089456869 0.2763578274760383 0.7204472843450479 
0.8455056179775281 0.14887640449438203 0.0028089887640449437 0.0028089887640449437 
0.016545075560187597 0.978764981761334 0.004559666492965086 1.3027618551328816E-4 
2.5799793601651185E-4 0.794891640866873 0.20459236326109392 2.5799793601651185E-4 
5.319148936170213E-4 0.07287234042553191 0.9228723404255319 0.003723404255319149 
0.0017793594306049821 0.005338078291814947 0.34341637010676157 0.6494661921708185 
0.8067010309278351 0.18814432989690721 0.002577319587628866 0.002577319587628866 
0.01598946576373213 0.9783671933784801 0.00545522949586155 1.8811136192626034E-4 
3.9277297721916735E-4 0.8095051060487038 0.18970934799685782 3.9277297721916735E-4 
7.78816199376947E-4 0.05685358255451713 0.9369158878504673 0.005451713395638629 
0.002512562814070352 0.007537688442211055 0.30402010050251255 0.6859296482412061 
0.8975 0.0975 0.0025 0.0025 
0.026024590163934425 0.967827868852459 0.005942622950819672 2.0491803278688525E-4 
0.0010775862068965517 0.7848419540229885 0.2122844827586207 0.0017959770114942528 
7.15307582260372E-4 0.08082975679542204 0.9163090128755365 0.002145922746781116 
0.0033783783783783786 0.0033783783783783786 0.375 0.6182432432432432 
0.8214285714285714 0.15476190476190477 0.011904761904761904 0.011904761904761904 
0.01699604743083004 0.975098814229249 0.007509881422924901 3.952569169960474E-4 
5.995203836930455E-4 0.7428057553956835 0.2559952038369305 5.995203836930455E-4 
7.132667617689016E-4 0.05064194008559201 0.9350927246790299 0.01355206847360913 
0.001326259946949602 0.003978779840848806 0.25596816976127323 0.7387267904509284 
</TABLE>
</DEFINITION>
<DEFINITION>
<FOR>pixel12</FOR>
<GIVEN>emotion</GIVEN>
<GIVEN>pixel22</GIVEN>
<TABLE>
0.845859524460235 0.13418966930855425 0.019950806231210712 
0.5639950678175093 0.3884093711467324 0.04759556103575832 
0.05945945945945946 0.1783783783783784 0.7621621621621621 
0.8018018018018018 0.16516516516516516 0.03303303303303303 
0.5238095238095238 0.45904761904761904 0.017142857142857144 
0.3333333333333333 0.3333333333333333 0.3333333333333333 
0.7990430622009569 0.17421896988460456 0.026737967914438502 
0.47775542141739324 0.4719427677174156 0.05030181086519115 
0.10266159695817491 0.10266159695817491 0.7946768060836502 
0.8845198070457535 0.10510159333430785 0.010378599619938606 
0.5984901439955264 0.371172934433105 0.030336921571368657 
0.13623188405797101 0.263768115942029 0.6 
0.8524792659255338 0.13569790012352215 0.011822833950944063 
0.5674748959098702 0.3940729855498408 0.038452118540289 
0.09941520467836257 0.21637426900584794 0.6842105263157895 
0.8732240437158469 0.11737704918032787 0.009398907103825137 
0.5724220147029605 0.4047287899860918 0.022849195310947746 
0.1510791366906475 0.2805755395683453 0.5683453237410072 
0.7757553694939935 0.18602111394248272 0.038223516563523845 
0.4525007398638651 0.46788990825688076 0.07960935187925422 
0.05647840531561462 0.20930232558139536 0.7342192691029901 
</TABLE>
</DEFINITION>
<DEFINITION>
<FOR>pixel13</FOR>
<GIVEN>emotion</GIVEN>
<GIVEN>pixel10</GIVEN>
<TABLE>
0.9723926380368099 0.015337423312883436 0.003067484662576687 0.009202453987730062 
0.8594432314410481 0.10780567685589519 0.03138646288209607 0.0013646288209606986 
0.31146788990825686 0.45091743119266053 0.23440366972477064 0.003211009174311927 
0.13404605263157895 0.140625 0.6636513157894737 0.061677631578947366 
0.03625954198473282 0.05916030534351145 0.20801526717557253 0.6965648854961832 
0.8076923076923077 0.038461538461538464 0.11538461538461539 0.038461538461538464 
0.8245192307692307 0.12740384615384615 0.04567307692307692 0.002403846153846154 
0.1814516129032258 0.375 0.4314516129032258 0.012096774193548387 
0.211864406779661 0.07627118644067797 0.635593220338983 0.07627118644067797 
0.015625 0.046875 0.203125 0.734375 
0.9732824427480916 0.019083969465648856 0.003816793893129771 0.003816793893129771 
0.8226273148148148 0.12644675925925927 0.04832175925925926 0.0026041666666666665 
0.30173160173160174 0.42467532467532465 0.2696969696969697 0.003896103896103896 
0.11239368165249089 0.15613608748481167 0.6749696233292831 0.056500607533414335 
0.023961661341853034 0.07507987220447285 0.2731629392971246 0.6277955271565495 
0.952247191011236 0.019662921348314606 0.025280898876404494 0.0028089887640449437 
0.8688118811881188 0.09940072954663888 0.03061490359562272 0.0011724856696195935 
0.34855521155830754 0.4130546955624355 0.23452012383900928 0.003869969040247678 
0.1345744680851064 0.14414893617021277 0.6898936170212766 0.03138297872340425 
0.05516014234875445 0.06227758007117438 0.2580071174377224 0.6245551601423488 
0.9510309278350515 0.028350515463917526 0.01804123711340206 0.002577319587628866 
0.8575996990218209 0.10402558314522198 0.03743416102332581 9.405568096313017E-4 
0.3523173605655931 0.4253731343283582 0.21956009426551454 0.0027494108405341712 
0.09735202492211838 0.1394080996884735 0.7235202492211839 0.0397196261682243 
0.03768844221105527 0.0829145728643216 0.20854271356783918 0.6708542713567839 
0.9725 0.0175 0.0075 0.0025 
0.8600409836065573 0.10348360655737705 0.035860655737704916 6.147540983606558E-4 
0.3171695402298851 0.42780172413793105 0.24748563218390804 0.007543103448275862 
0.10371959942775394 0.13376251788268956 0.7203147353361946 0.04220314735336195 
0.04391891891891892 0.07094594594594594 0.23986486486486486 0.6452702702702703 
0.8928571428571429 0.08333333333333333 0.011904761904761904 0.011904761904761904 
0.8043478260869565 0.13715415019762847 0.05810276679841897 3.952569169960474E-4 
0.3147482014388489 0.3723021582733813 0.30995203836930457 0.002997601918465228 
0.13195435092724678 0.1362339514978602 0.681169757489301 0.05064194008559201 
0.038461538461538464 0.07559681697612732 0.29045092838196285 0.5954907161803713 
</TABLE>
</DEFINITION>
<DEFINITION>
<FOR>pixel14</FOR>
<GIVEN>emotion</GIVEN>
<GIVEN>pixel13</GIVEN>
<TABLE>
0.9606936416184971 0.03815028901734104 0.0011560693641618498 
0.5704358812381554 0.42893240682248895 6.317119393556538E-4 
0.13692407527579495 0.8429591174561972 0.020116807268007787 
0.05077262693156733 0.39514348785871967 0.5540838852097131 
0.9445727482678984 0.053117782909930716 0.0023094688221709007 
0.5414012738853503 0.4394904458598726 0.01910828025477707 
0.17209302325581396 0.8232558139534883 0.004651162790697674 
0.05084745762711865 0.3559322033898305 0.5932203389830508 
0.9549211119459053 0.04332582018532432 0.001753067868770348 
0.5710144927536231 0.42492753623188406 0.004057971014492754 
0.13664896185417671 0.852245292129406 0.01110574601641719 
0.02186878727634195 0.4194831013916501 0.558648111332008 
0.9657447054739035 0.033908112486980675 3.471820391158431E-4 
0.6029906542056075 0.3958878504672897 0.0011214953271028037 
0.1407635942923255 0.8457385268029309 0.01349787890474354 
0.03926096997690531 0.3579676674364896 0.6027713625866051 
0.9761864833137682 0.023645815864497734 1.677008217340265E-4 
0.6467420570813139 0.3505654281098546 0.0026925148088314485 
0.15492957746478872 0.8354929577464789 0.009577464788732394 
0.05167173252279635 0.3191489361702128 0.6291793313069909 
0.9704888888888888 0.028622222222222223 8.888888888888889E-4 
0.5882661079099005 0.4112100576217915 5.238344683080147E-4 
0.13432835820895522 0.8579516212043232 0.007720020586721565 
0.040293040293040296 0.4945054945054945 0.4652014652014652 
0.9592553565156305 0.039690902704601336 0.001053740779768177 
0.6232596232596233 0.3726453726453726 0.004095004095004095 
0.12901469787697334 0.8562874251497006 0.014697876973326075 
0.013333333333333334 0.3676190476190476 0.6190476190476191 
</TABLE>
</DEFINITION>
<DEFINITION>
<FOR>pixel15</FOR>
<GIVEN>emotion</GIVEN>
<GIVEN>pixel19</GIVEN>
<TABLE>
0.09932497589199614 0.5756991321118612 0.29026036644165865 0.03182256509161042 0.0028929604628736743 
4.589261128958238E-4 0.05002294630564479 0.6631482331344654 0.26755392381826526 0.018815970628728775 
0.0013083296990841692 0.007413868294810292 0.10684692542520716 0.7383340601831662 0.14609681639773223 
4.1649312786339027E-4 0.0012494793835901709 0.019575177009579343 0.19950020824656392 0.7792586422324032 
0.06382978723404255 0.48936170212765956 0.40425531914893614 0.02127659574468085 0.02127659574468085 
0.004405286343612335 0.039647577092511016 0.6916299559471366 0.22466960352422907 0.039647577092511016 
0.0036900369003690036 0.0036900369003690036 0.09225092250922509 0.6162361623616236 0.28413284132841327 
0.0030581039755351682 0.0030581039755351682 0.0030581039755351682 0.1926605504587156 0.7981651376146789 
0.05426356589147287 0.512735326688815 0.3864894795127353 0.03211517165005537 0.014396456256921373 
5.063291139240507E-4 0.053164556962025315 0.6313924050632911 0.28607594936708863 0.028860759493670885 
3.862495171881035E-4 0.01660872923908845 0.12244109694862881 0.7157203553495558 0.14484356894553882 
3.5298270384751147E-4 0.0010589481115425344 0.023649841157783267 0.19308153900458877 0.7818566890222379 
0.00648508430609598 0.569390402075227 0.36964980544747084 0.042801556420233464 0.011673151750972763 
3.707823507601038E-4 0.0389321468298109 0.6329254727474972 0.3147942157953281 0.012977382276603633 
2.3121387283236994E-4 0.0020809248554913293 0.0876300578034682 0.7271676300578035 0.18289017341040462 
1.5250876925423213E-4 1.5250876925423213E-4 0.006862894616440445 0.16211682171724875 0.8307152661278023 
0.017377567140600316 0.5007898894154819 0.4470774091627172 0.030015797788309637 0.004739336492890996 
3.645643456069996E-4 0.035362741523878964 0.6988698505286183 0.25191396281443673 0.013488880787458987 
3.3101621979476995E-4 0.0029791459781529296 0.09963588215822575 0.7735849056603774 0.1234690499834492 
2.828854314002829E-4 2.828854314002829E-4 0.006506364922206506 0.18528995756718528 0.8076379066478077 
0.02822273073989321 0.5804729214340199 0.35469107551487417 0.02822273073989321 0.008390541571319604 
0.0017140898183064792 0.05862187178608159 0.7072334590332533 0.21220431950634214 0.020226259856016456 
3.5676061362825543E-4 0.00392436674991081 0.12879058151980022 0.7381377095968605 0.12879058151980022 
3.667033370003667E-4 0.0018335166850018336 0.021635496883021636 0.22405573890722405 0.7521085441877521 
0.03933054393305439 0.606694560669456 0.3054393305439331 0.042677824267782424 0.005857740585774059 
6.285355122564425E-4 0.12005028284098052 0.6404776869893148 0.2143306096794469 0.02451288497800126 
6.71591672263264E-4 0.03425117528542646 0.18200134318334452 0.6145063801208865 0.16856950973807924 
4.623208506703652E-4 0.003236245954692557 0.020804438280166437 0.17891816920943135 0.7965788257050394 
</TABLE>
</DEFINITION>
<DEFINITION>
<FOR>pixel16</FOR>
<GIVEN>emotion</GIVEN>
<GIVEN>pixel15</GIVEN>
<TABLE>
0.8899082568807339 0.06422018348623854 0.027522935779816515 0.009174311926605505 0.009174311926605505 
0.5845942228335625 0.3562585969738652 0.037138927097661624 0.017881705639614855 0.0041265474552957355 
0.045610593428151054 0.6606179499754782 0.22805296714075526 0.049534085335948996 0.016184404119666502 
0.011832197920401577 0.09788454643241305 0.4126927214055217 0.38257439942631766 0.095016134815346 
0.003109729009329187 0.01821412705464238 0.047534429142603286 0.185250999555753 0.7458907152376721 
0.42857142857142855 0.14285714285714285 0.14285714285714285 0.14285714285714285 0.14285714285714285 
0.42857142857142855 0.42857142857142855 0.08571428571428572 0.02857142857142857 0.02857142857142857 
0.06403940886699508 0.6650246305418719 0.2413793103448276 0.014778325123152709 0.014778325123152709 
0.0035335689045936395 0.08833922261484099 0.4840989399293286 0.3498233215547703 0.07420494699646643 
0.0028653295128939827 0.0028653295128939827 0.0028653295128939827 0.16332378223495703 0.828080229226361 
0.8867924528301887 0.05660377358490566 0.018867924528301886 0.018867924528301886 0.018867924528301886 
0.6390243902439025 0.3040650406504065 0.03739837398373984 0.014634146341463415 0.004878048780487805 
0.06612821807168097 0.6294800605754669 0.2407874810701666 0.03685007571933367 0.02675416456335184 
0.009015025041736227 0.10450751252086811 0.4270450751252087 0.3402337228714524 0.11919866444073456 
0.0011273957158962795 0.009394964299135663 0.051484404359263436 0.17474633596392333 0.7632468996617813 
0.5555555555555556 0.1111111111111111 0.1111111111111111 0.1111111111111111 0.1111111111111111 
0.6108108108108108 0.3621621621621622 0.012612612612612612 0.012612612612612612 0.0018018018018018018 
0.03103020273065784 0.6367397600330988 0.2718245759205627 0.049234588332643776 0.011170872983036822 
0.0025535258298958947 0.07090944804557062 0.42565311333726186 0.3891180514633667 0.11176586132390492 
1.591596371160274E-4 0.0046156294763647935 0.02530638230144835 0.16886837498010504 0.8010504536049657 
0.7333333333333333 0.06666666666666667 0.06666666666666667 0.06666666666666667 0.06666666666666667 
0.6047058823529412 0.3552941176470588 0.02588235294117647 0.011764705882352941 0.002352941176470588 
0.030495049504950494 0.6998019801980198 0.23564356435643563 0.027326732673267327 0.006732673267326733 
0.0024304617877396704 0.06886308398595734 0.47285984337024034 0.36807993518768567 0.087766675668377 
0.0021413276231263384 0.0039767513000917715 0.03273172223921689 0.1960844294891404 0.7650657693484246 
0.8222222222222222 0.1111111111111111 0.022222222222222223 0.022222222222222223 0.022222222222222223 
0.6080084299262382 0.3466807165437302 0.03477344573234984 0.005268703898840885 0.005268703898840885 
0.04374364191251272 0.6771787046456426 0.23838589352322823 0.027466937945066123 0.013224821973550356 
0.006293077614623914 0.0943961642193587 0.466586754569973 0.33593047647587654 0.09679352712016781 
0.002819170358437374 0.016512283527990335 0.04712041884816754 0.1945227547321788 0.739025372533226 
0.8823529411764706 0.058823529411764705 0.0196078431372549 0.0196078431372549 0.0196078431372549 
0.6964102564102564 0.26974358974358975 0.015384615384615385 0.013333333333333334 0.005128205128205128 
0.09465020576131687 0.6637272192827748 0.18400940623162845 0.03350970017636684 0.024103468547912992 
0.004129793510324484 0.12330383480825959 0.4265486725663717 0.3144542772861357 0.13156342182890857 
0.002474022761009401 0.022266204849084613 0.05096486887679367 0.13706086095992084 0.7872340425531915 
</TABLE>
</DEFINITION>
<DEFINITION>
<FOR>pixel17</FOR>
<GIVEN>emotion</GIVEN>
<GIVEN>pixel18</GIVEN>
<TABLE>
0.8363309352517986 0.09892086330935251 0.044964028776978415 0.019784172661870502 
0.1978643216080402 0.3888190954773869 0.3925879396984925 0.0207286432160804 
0.008524833209785025 0.03669384729429207 0.6356560415122313 0.3191252779836916 
0.003594771241830065 0.0022875816993464053 0.07352941176470588 0.9205882352941176 
0.8863636363636364 0.06818181818181818 0.022727272727272728 0.022727272727272728 
0.09649122807017543 0.4824561403508772 0.37719298245614036 0.043859649122807015 
0.003289473684210526 0.01644736842105263 0.6546052631578947 0.3256578947368421 
0.0024630541871921183 0.0024630541871921183 0.04187192118226601 0.9532019704433498 
0.8400673400673401 0.10942760942760943 0.02861952861952862 0.021885521885521887 
0.20211267605633804 0.3457746478873239 0.4119718309859155 0.04014084507042254 
0.011348005502063274 0.0484869325997249 0.6014442916093535 0.33872077028885833 
0.008595139300533492 0.005038529934795495 0.07142857142857142 0.9149377593360996 
0.843558282208589 0.08282208588957055 0.046012269938650305 0.027607361963190184 
0.1468058968058968 0.3409090909090909 0.4785012285012285 0.033783783783783786 
0.004961173425366695 0.02523727351164797 0.5990077653149266 0.37079378774805866 
3.8679731820526046E-4 0.002191851469829809 0.04061371841155235 0.9568076328004126 
0.7946428571428571 0.16964285714285715 0.03273809523809524 0.002976190476190476 
0.14772727272727273 0.4264354066985646 0.4049043062200957 0.020933014354066987 
0.007058159232072276 0.0251270468661773 0.6535855448898927 0.3142292490118577 
6.852444038373687E-4 0.004339881224303335 0.04408405664687072 0.9508908177249886 
0.8462532299741602 0.1124031007751938 0.03229974160206718 0.00904392764857881 
0.19393647738209818 0.39220404234841194 0.3845043310875842 0.02935514918190568 
0.021651270207852194 0.050519630484988455 0.6244226327944573 0.3034064665127021 
0.0037812681791739382 0.005526468877254218 0.07068062827225131 0.9200116346713205 
0.8955399061032864 0.05516431924882629 0.04342723004694836 0.005868544600938967 
0.2525167785234899 0.33808724832214765 0.3649328859060403 0.044463087248322146 
0.02092274678111588 0.049892703862660946 0.6013948497854077 0.32778969957081544 
0.0059382422802850355 0.0059382422802850355 0.058986539984164685 0.9291369754552652 
</TABLE>
</DEFINITION>
<DEFINITION>
<FOR>pixel18</FOR>
<GIVEN>emotion</GIVEN>
<GIVEN>pixel16</GIVEN>
<TABLE>
0.46636085626911317 0.3379204892966361 0.1452599388379205 0.05045871559633028 
0.08463136033229492 0.46053997923156803 0.34008307372793356 0.11474558670820353 
0.027968036529680364 0.16267123287671234 0.5656392694063926 0.2437214611872146 
0.009386733416770964 0.08197747183979975 0.41614518147684604 0.4924906132665832 
0.012626262626262626 0.03484848484848485 0.147979797979798 0.8045454545454546 
0.28125 0.46875 0.09375 0.15625 
0.09659090909090909 0.32386363636363635 0.4715909090909091 0.10795454545454546 
0.04736842105263158 0.13157894736842105 0.531578947368421 0.2894736842105263 
0.01875 0.08125 0.31875 0.58125 
0.022292993630573247 0.01592356687898089 0.21337579617834396 0.7484076433121019 
0.47833333333333333 0.31833333333333336 0.16833333333333333 0.035 
0.08286358511837655 0.415445321307779 0.3906426155580609 0.11104847801578353 
0.042275574112734866 0.14561586638830898 0.5381002087682673 0.2740083507306889 
0.014687100893997445 0.07471264367816093 0.4016602809706258 0.5089399744572158 
0.023322422258592473 0.03968903436988543 0.18617021276595744 0.7508183306055647 
0.30787037037037035 0.44212962962962965 0.18287037037037038 0.06712962962962964 
0.055868544600938964 0.4107981220657277 0.41737089201877936 0.115962441314554 
0.014381270903010033 0.11337792642140468 0.6003344481605352 0.2719063545150502 
0.004734848484848485 0.03377525252525253 0.35637626262626265 0.6051136363636364 
0.003019538188277087 0.02078152753108348 0.13232682060390763 0.8438721136767318 
0.44166666666666665 0.3861111111111111 0.11944444444444445 0.05277777777777778 
0.0535224153705398 0.4377859103385178 0.41674290942360476 0.0919487648673376 
0.013392857142857142 0.1416396103896104 0.5629058441558441 0.2820616883116883 
0.008180943214629451 0.07074109720885467 0.37584215591915304 0.5452358036573628 
0.003867791842475387 0.028481012658227847 0.1480309423347398 0.819620253164557 
0.5103896103896104 0.3155844155844156 0.14675324675324675 0.02727272727272727 
0.12099776619508563 0.45085629188384213 0.3324646314221891 0.0956813104988831 
0.012863070539419087 0.17634854771784234 0.5887966804979253 0.22199170124481327 
0.01242603550295858 0.06923076923076923 0.4242603550295858 0.4940828402366864 
0.002270663033605813 0.037693006357856496 0.14668483197093551 0.8133514986376021 
0.4296875 0.32254464285714285 0.19084821428571427 0.056919642857142856 
0.17657766990291263 0.3088592233009709 0.35254854368932037 0.16201456310679613 
0.08405545927209705 0.1464471403812825 0.4462738301559792 0.32322357019064124 
0.05568181818181818 0.1215909090909091 0.34204545454545454 0.48068181818181815 
0.016666666666666666 0.06397849462365592 0.1596774193548387 0.7596774193548387 
</TABLE>
</DEFINITION>
<DEFINITION>
<FOR>pixel19</FOR>
<GIVEN>emotion</GIVEN>
<GIVEN>pixel1</GIVEN>
<TABLE>
0.35548523206751054 0.3744725738396624 0.15928270042194093 0.11075949367088607 
0.15881849315068494 0.418236301369863 0.2898116438356164 0.1331335616438356 
0.07717678100263853 0.2843007915567282 0.379287598944591 0.25923482849604224 
0.08131313131313131 0.1409090909090909 0.3338383838383838 0.44393939393939397 
0.04513274336283186 0.12123893805309735 0.20265486725663717 0.6309734513274337 
0.2708333333333333 0.6041666666666666 0.0625 0.0625 
0.10869565217391304 0.47391304347826085 0.3173913043478261 0.1 
0.005747126436781609 0.25862068965517243 0.5 0.23563218390804597 
0.012295081967213115 0.10245901639344263 0.3237704918032787 0.5614754098360656 
0.028409090909090908 0.10795454545454546 0.16477272727272727 0.6988636363636364 
0.3548895899053628 0.3801261829652997 0.14353312302839116 0.12145110410094637 
0.15546697038724375 0.4083143507972665 0.2898633257403189 0.14635535307517084 
0.09233926128590972 0.2496580027359781 0.42476060191518467 0.2332421340629275 
0.061654733492442326 0.1865552903739061 0.3520286396181384 0.3997613365155131 
0.0594622543950362 0.09462254395036195 0.24974146845915202 0.5961737331954499 
0.22727272727272727 0.44434137291280146 0.2012987012987013 0.12708719851576994 
0.06731684110371075 0.2923406279733587 0.3922454804947669 0.24809705042816366 
0.03029110936270653 0.16325727773406767 0.37647521636506687 0.42997639653815894 
0.029796511627906978 0.09568798449612403 0.27301356589147285 0.6015019379844961 
0.01793160967472894 0.07464553794829024 0.15638031693077564 0.7510425354462051 
0.32517482517482516 0.47202797202797203 0.12937062937062938 0.07342657342657342 
0.0840853158326497 0.5082034454470877 0.2908121410992617 0.11689909762100081 
0.043275632490013316 0.27097203728362185 0.4387483355525965 0.2470039946737683 
0.02009873060648801 0.16819464033850492 0.37270803949224257 0.43899858956276444 
0.01174934725848564 0.09355961705831158 0.21105308964316796 0.6836379460400348 
0.43023255813953487 0.3819320214669052 0.13506261180679785 0.052772808586762074 
0.16813261163734777 0.4428281461434371 0.27841677943166443 0.11062246278755074 
0.08461538461538462 0.30591715976331363 0.38284023668639056 0.22662721893491125 
0.05397489539748954 0.20376569037656903 0.33765690376569035 0.40460251046025103 
0.038029925187032416 0.11034912718204488 0.23379052369077308 0.6178304239401496 
0.441747572815534 0.4029126213592233 0.09223300970873786 0.06310679611650485 
0.2702991452991453 0.40705128205128205 0.23397435897435898 0.08867521367521368 
0.1827354260089686 0.29932735426008966 0.3374439461883408 0.1804932735426009 
0.16066350710900473 0.23459715639810427 0.24691943127962085 0.3578199052132701 
0.15213600697471666 0.15911072362685266 0.18700959023539668 0.501743679163034 
</TABLE>
</DEFINITION>
<DEFINITION>
<FOR>pixel20</FOR>
<GIVEN>emotion</GIVEN>
<GIVEN>pixel8</GIVEN>
<TABLE>
0.3560864618885097 0.4402730375426621 0.2036405005688282 
0.08581196581196582 0.4181196581196581 0.49606837606837606 
0.027106227106227107 0.15311355311355312 0.8197802197802198 
0.22448979591836735 0.7551020408163265 0.02040816326530612 
0.07042253521126761 0.47417840375586856 0.45539906103286387 
0.008347245409015025 0.18196994991652754 0.8096828046744574 
0.34149326805385555 0.42472460220318237 0.23378212974296206 
0.07332185886402753 0.4134251290877797 0.5132530120481927 
0.02255309831399168 0.17407488504488725 0.8033720166411211 
0.32807363576594345 0.4779750164365549 0.19395134779750164 
0.07997731140102099 0.45131404802420116 0.46870864057477785 
0.02722805153406827 0.20626909284101475 0.7665028556249169 
0.3651376146788991 0.4960244648318043 0.13883792048929663 
0.09767674244316762 0.49887584311766175 0.40344741443917065 
0.03478869950968947 0.2098996030819519 0.7553116974083586 
0.40540540540540543 0.4038610038610039 0.19073359073359072 
0.09013732833957554 0.39675405742821473 0.5131086142322098 
0.03575444119631212 0.1553856532493816 0.8088599055543063 
0.2796780684104628 0.47283702213279677 0.24748490945674045 
0.06609605325725154 0.41797432239657634 0.5159296243461722 
0.022733211392735823 0.16279069767441862 0.8144760909328456 
</TABLE>
</DEFINITION>
<DEFINITION>
<FOR>pixel21</FOR>
<GIVEN>emotion</GIVEN>
<GIVEN>pixel23</GIVEN>
<TABLE>
0.965 0.028333333333333332 0.005 0.0016666666666666668 
0.38220958570268077 0.6039805036555645 0.013403736799350122 4.0617384240454913E-4 
0.013790664780763792 0.6361386138613861 0.3497171145685997 3.536067892503536E-4 
0.004273504273504274 0.0641025641025641 0.9273504273504274 0.004273504273504274 
0.002617801047120419 0.002617801047120419 0.39528795811518325 0.599476439790576 
0.9545454545454546 0.015151515151515152 0.015151515151515152 0.015151515151515152 
0.3226744186046512 0.6715116279069767 0.0029069767441860465 0.0029069767441860465 
0.011363636363636364 0.5871212121212122 0.3977272727272727 0.003787878787878788 
0.0056179775280898875 0.028089887640449437 0.9606741573033708 0.0056179775280898875 
0.05 0.05 0.25 0.65 
0.9623655913978495 0.034050179211469536 0.0017921146953405018 0.0017921146953405018 
0.4311655405405405 0.559543918918919 0.008868243243243243 4.222972972972973E-4 
0.0162292817679558 0.6039364640883977 0.3794889502762431 3.453038674033149E-4 
0.001452081316553727 0.043078412391093904 0.9540174249757987 0.001452081316553727 
0.0024271844660194173 0.007281553398058253 0.42475728155339804 0.5655339805825242 
0.9784090909090909 0.019318181818181818 0.0011363636363636363 0.0011363636363636363 
0.4507761437908497 0.5414624183006536 0.00755718954248366 2.042483660130719E-4 
0.010692068429237946 0.6467729393468118 0.34234059097978226 1.9440124416796267E-4 
0.004415760869565217 0.04789402173913043 0.9459918478260869 0.0016983695652173913 
0.00205761316872428 0.0102880658436214 0.38477366255144035 0.602880658436214 
0.9715789473684211 0.024210526315789474 0.003157894736842105 0.0010526315789473684 
0.4641798418972332 0.5323616600790514 0.0032114624505928855 2.4703557312252963E-4 
0.015960912052117263 0.6804560260586319 0.303257328990228 3.257328990228013E-4 
0.0031928480204342275 0.05172413793103448 0.9444444444444444 6.385696040868455E-4 
0.003355704697986577 0.010067114093959731 0.37919463087248323 0.6073825503355704 
0.9623983739837398 0.03556910569105691 0.0010162601626016261 0.0010162601626016261 
0.42134831460674155 0.5641110376734964 0.014210178453403834 3.3046926635822867E-4 
0.008985507246376812 0.6327536231884058 0.35797101449275365 2.898550724637681E-4 
0.001454898157129001 0.036372453928225024 0.9587778855480117 0.0033947623666343357 
0.00423728813559322 0.00423728813559322 0.5042372881355932 0.4872881355932203 
0.9413793103448276 0.05172413793103448 0.0034482758620689655 0.0034482758620689655 
0.3786353467561521 0.610178970917226 0.009507829977628635 0.0016778523489932886 
0.014338575393154487 0.6609620721554117 0.3242368177613321 4.6253469010175765E-4 
5.820721769499418E-4 0.05413271245634459 0.9435389988358557 0.0017462165308498253 
0.0020833333333333333 0.0020833333333333333 0.41458333333333336 0.58125 
</TABLE>
</DEFINITION>
<DEFINITION>
<FOR>pixel22</FOR>
<GIVEN>emotion</GIVEN>
<GIVEN>pixel9</GIVEN>
<TABLE>
0.8099352051835853 0.16198704103671707 0.028077753779697623 
0.607006854531607 0.3775069814673775 0.015486164001015486 
0.2553617386331141 0.7128967686588504 0.03174149270803546 
0.45454545454545453 0.45454545454545453 0.09090909090909091 
0.5887323943661972 0.4084507042253521 0.0028169014084507044 
0.2404040404040404 0.7575757575757576 0.00202020202020202 
0.8036175710594315 0.1731266149870801 0.023255813953488372 
0.5715330246161345 0.3999512551791372 0.028515720204728246 
0.23611476704395892 0.7278231113450908 0.03606212161095025 
0.8131101813110181 0.17712691771269176 0.009762900976290097 
0.6093729545752061 0.3794999345464066 0.011127110878387223 
0.26792578973758985 0.68978773190707 0.04228647835534013 
0.8597339782345829 0.13180169286577992 0.008464328899637243 
0.6817942877168389 0.3033117224461188 0.014893989837042229 
0.31443755535872453 0.6622379687038678 0.023324475937407736 
0.869753979739508 0.1287988422575977 0.001447178002894356 
0.5855720458388127 0.40785271463460454 0.006575239526582754 
0.22957406911331368 0.7428341816233592 0.02759174926332708 
0.896414342629482 0.09163346613545817 0.01195219123505976 
0.5829787234042553 0.36824877250409166 0.04877250409165303 
0.237423902595322 0.7148349887856457 0.047741108619032364 
</TABLE>
</DEFINITION>
<DEFINITION>
<FOR>pixel23</FOR>
<GIVEN>emotion</GIVEN>
<GIVEN>pixel20</GIVEN>
<TABLE>
0.4948301329394387 0.34416543574593794 0.0930576070901034 0.05760709010339734 0.0103397341211226 
0.06922733363108531 0.5873157659669496 0.2443054935238946 0.07994640464493077 0.019205002233139794 
0.021848065744638205 0.18300260573261173 0.444377630787733 0.28442573662056525 0.06634596111445179 
0.5151515151515151 0.3333333333333333 0.09090909090909091 0.030303030303030304 0.030303030303030304 
0.09236947791164658 0.6305220883534136 0.17269076305220885 0.09236947791164658 0.012048192771084338 
0.042735042735042736 0.29914529914529914 0.37094017094017095 0.26153846153846155 0.02564102564102564 
0.48743718592964824 0.34003350083752093 0.11557788944723618 0.04187604690117253 0.01507537688442211 
0.07377398720682303 0.5872068230277185 0.23070362473347547 0.08656716417910448 0.021748400852878463 
0.01737343545675322 0.14702036241359986 0.42686344106108726 0.34317205305436205 0.06557070801419765 
0.3870682019486271 0.4348981399468556 0.1054030115146147 0.06997342781222321 0.002657218777679362 
0.06789462411651317 0.6071964017991005 0.24180766759477404 0.07303491111587064 0.010066395373741701 
0.014625014625014626 0.18357318357318358 0.45571545571545574 0.29519129519129517 0.05089505089505089 
0.4679543459174715 0.4064969271290606 0.08516242317822652 0.0324846356453029 0.007901668129938543 
0.0795362631437045 0.6333243461849555 0.20463736856295497 0.07090860070099757 0.011593421407387436 
0.023823587320338648 0.24315810198858043 0.4357156920653672 0.24906477653081316 0.04823784209490057 
0.5663801337153773 0.29512893982808025 0.08500477554918816 0.04871060171919771 0.004775549188156638 
0.09875222816399287 0.5971479500891266 0.24919786096256685 0.04670231729055258 0.00819964349376114 
0.019149296729367903 0.17641077783426537 0.4509405185561769 0.3184206066768344 0.03507880020335536 
0.4114441416893733 0.3787465940054496 0.1553133514986376 0.035422343324250684 0.01907356948228883 
0.05117883841288096 0.5250143760782059 0.2903967797584819 0.09258194364577343 0.04082806210465785 
0.011324243124566674 0.1698636468685001 0.36954009706494106 0.35659810492257915 0.09267390801941298 
</TABLE>
</DEFINITION>
<DEFINITION>
<FOR>pixel24</FOR>
<GIVEN>emotion</GIVEN>
<GIVEN>pixel23</GIVEN>
<TABLE>
0.9716666666666667 0.018333333333333333 0.008333333333333333 0.0016666666666666668 
0.43338748984565395 0.549553208773355 0.016653127538586516 4.0617384240454913E-4 
0.00884016973125884 0.7351485148514851 0.25565770862800563 3.536067892503536E-4 
0.0018315018315018315 0.045787545787545784 0.8907203907203908 0.061660561660561664 
0.002617801047120419 0.007853403141361256 0.03926701570680628 0.9502617801047121 
0.9545454545454546 0.015151515151515152 0.015151515151515152 0.015151515151515152 
0.42151162790697677 0.5668604651162791 0.00872093023255814 0.0029069767441860465 
0.026515151515151516 0.8068181818181818 0.16287878787878787 0.003787878787878788 
0.0056179775280898875 0.03932584269662921 0.8595505617977528 0.09550561797752809 
0.05 0.05 0.15 0.75 
0.9802867383512545 0.012544802867383513 0.005376344086021506 0.0017921146953405018 
0.4345439189189189 0.5451858108108109 0.01984797297297297 4.222972972972973E-4 
0.02106353591160221 0.700621546961326 0.2724447513812155 0.005870165745856353 
4.84027105517909E-4 0.04211035818005808 0.8920619554695063 0.06534365924491771 
0.0024271844660194173 0.007281553398058253 0.0412621359223301 0.9490291262135923 
0.9761363636363637 0.02159090909090909 0.0011363636363636363 0.0011363636363636363 
0.4401552287581699 0.5475898692810458 0.012050653594771242 2.042483660130719E-4 
0.010692068429237946 0.7276438569206843 0.2606920684292379 9.720062208398134E-4 
0.002377717391304348 0.051290760869565216 0.9086277173913043 0.03770380434782609 
0.00205761316872428 0.00205761316872428 0.06378600823045268 0.9320987654320988 
0.9821052631578947 0.015789473684210527 0.0010526315789473684 0.0010526315789473684 
0.4933300395256917 0.4943181818181818 0.012104743083003952 2.4703557312252963E-4 
0.014006514657980456 0.760586319218241 0.22312703583061888 0.002280130293159609 
0.0031928480204342275 0.05555555555555555 0.8716475095785441 0.06960408684546615 
0.003355704697986577 0.003355704697986577 0.030201342281879196 0.9630872483221476 
0.9806910569105691 0.01524390243902439 0.003048780487804878 0.0010162601626016261 
0.47818902842035693 0.5125578321216127 0.008922670191672175 3.3046926635822867E-4 
0.01536231884057971 0.7336231884057971 0.24956521739130436 0.0014492753623188406 
0.004364694471387003 0.0518913676042677 0.9190106692531523 0.024733268671193017 
0.00423728813559322 0.00423728813559322 0.038135593220338986 0.9533898305084746 
0.9758620689655172 0.017241379310344827 0.0034482758620689655 0.0034482758620689655 
0.3674496644295302 0.6191275167785235 0.012863534675615212 5.592841163310962E-4 
0.004162812210915819 0.6665124884366328 0.32608695652173914 0.0032377428307123032 
0.0017462165308498253 0.03317811408614668 0.8830034924330618 0.08207217694994179 
0.0020833333333333333 0.0020833333333333333 0.04375 0.9520833333333333 
</TABLE>
</DEFINITION>
<DEFINITION>
<FOR>pixel25</FOR>
<GIVEN>emotion</GIVEN>
<GIVEN>pixel29</GIVEN>
<TABLE>
0.3728448275862069 0.5668103448275862 0.04870689655172414 0.01163793103448276 
0.02889908256880734 0.6188073394495412 0.30688073394495413 0.04541284403669725 
0.007763975155279503 0.12060041407867494 0.5957556935817805 0.275879917184265 
0.0047489823609226595 0.03867028493894165 0.11465400271370421 0.8419267299864315 
0.2388888888888889 0.6833333333333333 0.05 0.027777777777777776 
0.01293103448275862 0.6681034482758621 0.2543103448275862 0.06465517241379311 
0.0049504950495049506 0.11386138613861387 0.4603960396039604 0.4207920792079208 
0.003937007874015748 0.03543307086614173 0.1141732283464567 0.8464566929133859 
0.3537956888472352 0.5927835051546392 0.03795688847235239 0.015463917525773196 
0.024056603773584907 0.6146226415094339 0.3231132075471698 0.03820754716981132 
0.00423728813559322 0.12099811676082863 0.6002824858757062 0.2744821092278719 
0.0015641293013555788 0.020333680917622523 0.10375391032325339 0.8743482794577685 
0.3249148694665153 0.6183314415437003 0.04965947786606129 0.007094211123723042 
0.020864015709376533 0.6119293078055965 0.3271968581246932 0.04000981836033382 
0.004889346371590325 0.08980957282552754 0.616829644879053 0.2884714359238291 
0.0010482180293501049 0.01642208245981831 0.06464011180992313 0.9178895877009084 
0.33879254977520873 0.6034039820166988 0.04849068721901092 0.009312780989081566 
0.023716951788491446 0.5828149300155521 0.3417573872472784 0.05171073094867807 
0.010390689941812137 0.11014131338320865 0.5806317539484622 0.29883624272651704 
0.0016339869281045752 0.02559912854030501 0.09313725490196079 0.8796296296296297 
0.4324252136752137 0.5146901709401709 0.04567307692307692 0.007211538461538462 
0.044853963838664815 0.6498609179415855 0.27016689847009734 0.0351182197496523 
0.005807814149947202 0.1726504751847941 0.5686378035902852 0.2529039070749736 
0.0024193548387096775 0.05241935483870968 0.14919354838709678 0.7959677419354839 
0.32916666666666666 0.6125 0.0375 0.020833333333333332 
0.01902587519025875 0.58675799086758 0.3599695585996956 0.03424657534246575 
0.004994450610432853 0.07047724750277469 0.6409544950055494 0.28357380688124306 
0.0011547344110854503 0.008852963818321785 0.0804464973056197 0.909545804464973 
</TABLE>
</DEFINITION>
<DEFINITION>
<FOR>pixel26</FOR>
<GIVEN>emotion</GIVEN>
<GIVEN>pixel25</GIVEN>
<TABLE>
0.9 0.08526315789473685 0.007368421052631579 0.007368421052631579 
0.2075152335815843 0.6198375084631009 0.15741367637102235 0.015233581584292485 
0.008087535680304472 0.14985727878211227 0.7169362511893435 0.12511893434823979 
0.002631578947368421 0.020526315789473684 0.19842105263157894 0.7784210526315789 
0.7291666666666666 0.22916666666666666 0.020833333333333332 0.020833333333333332 
0.267741935483871 0.5387096774193548 0.15806451612903225 0.035483870967741936 
0.015789473684210527 0.08947368421052632 0.6157894736842106 0.2789473684210526 
0.003125 0.003125 0.165625 0.828125 
0.8594132029339854 0.11858190709046455 0.018337408312958436 0.003667481662591687 
0.23568435754189945 0.5750698324022346 0.16864525139664804 0.020600558659217876 
0.011160714285714286 0.12098214285714286 0.7004464285714286 0.16741071428571427 
0.0029486099410278013 0.016427969671440605 0.15037910699241785 0.8302443133951137 
0.8905750798722045 0.09664536741214058 0.005591054313099041 0.00718849840255591 
0.23066298342541436 0.5992501973164956 0.15765588003157063 0.012430939226519336 
0.0070904645476772615 0.11907090464547677 0.7542787286063569 0.119559902200489 
0.0027947154471544716 0.019054878048780487 0.1598069105691057 0.8183434959349594 
0.8942307692307693 0.09178321678321678 0.009615384615384616 0.004370629370629371 
0.25663956639566393 0.5899728997289972 0.14119241192411924 0.012195121951219513 
0.007313317936874519 0.13818321785989224 0.724788298691301 0.12971516551193227 
0.002003205128205128 0.02123397435897436 0.15344551282051283 0.8233173076923077 
0.898410896708286 0.09023836549375709 0.010783200908059024 5.675368898978433E-4 
0.27960840496657113 0.5642311365807068 0.139207258834766 0.016953199617956063 
0.011312217194570135 0.1588235294117647 0.7 0.12986425339366517 
0.0056461731493099125 0.023212045169385194 0.21016311166875784 0.760978670012547 
0.8211678832116789 0.12773722627737227 0.032846715328467155 0.01824817518248175 
0.1593245227606461 0.5807635829662261 0.2327459618208517 0.027165932452276064 
0.01555793991416309 0.12285407725321888 0.7076180257510729 0.15396995708154507 
3.4083162917518747E-4 0.012610770279481936 0.14008179959100203 0.8469665985003408 
</TABLE>
</DEFINITION>
<DEFINITION>
<FOR>pixel27</FOR>
<GIVEN>emotion</GIVEN>
<GIVEN>pixel28</GIVEN>
<TABLE>
0.7965631929046563 0.1812638580931264 0.01607538802660754 0.006097560975609756 
0.09726123595505617 0.5607443820224719 0.31776685393258425 0.02422752808988764 
0.01241830065359477 0.09084967320261438 0.7352941176470589 0.16143790849673204 
0.004060324825986079 0.02262180974477958 0.12470997679814386 0.8486078886310905 
0.7867647058823529 0.18382352941176472 0.022058823529411766 0.007352941176470588 
0.1962962962962963 0.5074074074074074 0.24074074074074073 0.05555555555555555 
0.04929577464788732 0.09154929577464789 0.6690140845070423 0.19014084507042253 
0.003125 0.015625 0.109375 0.871875 
0.811377245508982 0.16826347305389222 0.01976047904191617 5.988023952095808E-4 
0.11003110419906688 0.5719284603421462 0.2943234836702955 0.023716951788491446 
0.009918319719953326 0.061260210035005834 0.7275379229871646 0.2012835472578763 
0.0038461538461538464 0.009829059829059829 0.10128205128205128 0.885042735042735 
0.8173565722585331 0.16085693536673928 0.019970951343500364 0.0018155410312273058 
0.09332482993197279 0.6001275510204082 0.29102891156462585 0.015518707482993197 
0.00508819538670285 0.06546811397557666 0.7744233378561737 0.1550203527815468 
0.0012690355329949238 0.010406091370558375 0.09213197969543147 0.8961928934010153 
0.865983606557377 0.1168032786885246 0.015163934426229509 0.0020491803278688526 
0.08744394618834081 0.6217168481742473 0.27065983344010247 0.020179372197309416 
0.006966773847802787 0.06913183279742766 0.755091103965702 0.16881028938906753 
0.002 0.014 0.0956 0.8884 
0.868 0.1196923076923077 0.011384615384615385 9.230769230769231E-4 
0.12757575757575756 0.5960606060606061 0.2596969696969697 0.016666666666666666 
0.013157894736842105 0.09335839598997493 0.7349624060150376 0.15852130325814537 
0.004353233830845771 0.021766169154228857 0.1449004975124378 0.8289800995024875 
0.7626865671641792 0.1865671641791045 0.04029850746268657 0.010447761194029851 
0.08251833740831296 0.5226161369193154 0.36246943765281175 0.0323960880195599 
0.00726552179656539 0.056142668428005284 0.725891677675033 0.21070013210039631 
0.0026778882938026014 0.0072685539403213465 0.06847742922723794 0.9215761285386381 
</TABLE>
</DEFINITION>
<DEFINITION>
<FOR>pixel28</FOR>
<GIVEN>emotion</GIVEN>
<GIVEN>pixel26</GIVEN>
<TABLE>
0.8302013422818791 0.15771812080536912 0.010067114093959731 0.0020134228187919465 
0.22815533980582525 0.6977052074139453 0.059576345984112974 0.014563106796116505 
0.01740237691001698 0.4121392190152801 0.4698641765704584 0.10059422750424449 
0.005016722408026756 0.03400222965440357 0.15217391304347827 0.8088071348940914 
0.7622950819672131 0.1721311475409836 0.05737704918032787 0.00819672131147541 
0.20918367346938777 0.7295918367346939 0.04591836734693878 0.015306122448979591 
0.004545454545454545 0.4318181818181818 0.4409090909090909 0.12272727272727273 
0.0030303030303030303 0.03333333333333333 0.08787878787878788 0.8757575757575757 
0.823404255319149 0.16382978723404254 0.009219858156028368 0.0035460992907801418 
0.22249269717624148 0.6684518013631938 0.08617332035053554 0.022882181110029213 
0.016914191419141914 0.36757425742574257 0.4905115511551155 0.125 
0.004568106312292359 0.03197674418604651 0.13911960132890366 0.8243355481727574 
0.8179862306368331 0.16308089500860584 0.01161790017211704 0.007314974182444062 
0.19811827956989247 0.7163978494623656 0.05994623655913978 0.025537634408602152 
0.02190265486725664 0.34668141592920354 0.48960176991150445 0.1418141592920354 
0.004494976203067161 0.02459016393442623 0.12823902696985723 0.8426758328926494 
0.8630892678034102 0.11785356068204614 0.01053159478435306 0.008525576730190571 
0.21714922048997773 0.6945063103192279 0.06347438752783964 0.024870081662954714 
0.03752680486061472 0.33631165117941386 0.49356683345246605 0.13259471050750535 
0.011875511875511875 0.030712530712530713 0.11998361998361998 0.8374283374283374 
0.8662123385939742 0.11657101865136299 0.012553802008608322 0.004662840746054519 
0.2470790378006873 0.6697594501718213 0.06151202749140893 0.021649484536082474 
0.03904991948470209 0.3884863123993559 0.45128824476650564 0.12117552334943639 
0.012086513994910942 0.03880407124681934 0.16603053435114504 0.7830788804071247 
0.8495762711864406 0.1419491525423729 0.006355932203389831 0.00211864406779661 
0.1858974358974359 0.7463369963369964 0.057692307692307696 0.010073260073260074 
0.022859922178988325 0.3438715953307393 0.517023346303502 0.11624513618677043 
0.006751954513148543 0.016702203269367447 0.13681592039800994 0.839729921819474 
</TABLE>
</DEFINITION>
<DEFINITION>
<FOR>pixel29</FOR>
<GIVEN>emotion</GIVEN>
<TABLE>
0.29351406131238916 0.27577907271345325 0.24436280719533823 0.18634405877881935 
0.20677570093457945 0.2675233644859813 0.2324766355140187 0.2932242990654206 
0.25724287783679384 0.2555528730082086 0.2560357315306615 0.23116851762433607 
0.24563973768661923 0.28401004604437 0.27089437700572067 0.19945583926329008 
0.313735377168213 0.259076240419524 0.24233561920129085 0.18485276321097216 
0.38400739067953193 0.2949086429891193 0.19410798603982754 0.12697598029152124 
0.111647461849891 0.20414201183431951 0.28013080037371535 0.40407972594207414 
</TABLE>
</DEFINITION>
<DEFINITION>
<FOR>pixel30</FOR>
<GIVEN>emotion</GIVEN>
<GIVEN>pixel31</GIVEN>
<TABLE>
0.6275862068965518 0.31310344827586206 0.05379310344827586 0.004137931034482759 0.001379310344827586 
0.06591337099811675 0.5116133082234777 0.4124293785310734 0.008160703075957313 0.0018832391713747645 
0.010615711252653927 0.08025477707006369 0.8496815286624204 0.0505307855626327 0.008917197452229299 
0.003236245954692557 0.005825242718446602 0.5365695792880258 0.4368932038834951 0.017475728155339806 
0.0076605774896876845 0.010017678255745434 0.09133765468473777 0.586328815556865 0.30465527401296405 
0.5102040816326531 0.42857142857142855 0.02040816326530612 0.02040816326530612 0.02040816326530612 
0.017964071856287425 0.5329341317365269 0.4251497005988024 0.017964071856287425 0.005988023952095809 
0.021834061135371178 0.056768558951965066 0.834061135371179 0.07423580786026202 0.013100436681222707 
0.006369426751592357 0.01910828025477707 0.643312101910828 0.31210191082802546 0.01910828025477707 
0.0036363636363636364 0.0036363636363636364 0.08363636363636363 0.5636363636363636 0.34545454545454546 
0.5785288270377733 0.3518886679920477 0.061630218687872766 0.005964214711729622 0.0019880715705765406 
0.055225148683092605 0.5191163976210705 0.4103653355989805 0.012744265080713678 0.002548853016142736 
0.012048192771084338 0.06381079875055778 0.856314145470772 0.06291834002677377 0.0049085229808121375 
0.0017133066818960593 0.011993146773272416 0.5225585379782981 0.451741861793261 0.011993146773272416 
3.7979491074819596E-4 0.004937333839726547 0.08393467527535131 0.5579187238890999 0.35282947208507404 
0.5500588928150766 0.392226148409894 0.053003533568904596 0.001177856301531213 0.0035335689045936395 
0.04875482286916871 0.5741844966678359 0.3595229743949491 0.016485443703963522 0.001052262364082778 
0.00676779463243874 0.10245040840140024 0.8291715285880981 0.05810968494749125 0.003500583430571762 
0.0016943409013893595 0.013215859030837005 0.642832937987123 0.3297187394103694 0.01253812267028126 
8.774495466510676E-4 0.006142146826557473 0.13951447791751975 0.6022228721848494 0.25124305352442233 
0.5621890547263682 0.36650082918739635 0.06467661691542288 0.004975124378109453 0.001658374792703151 
0.03742084052964882 0.5532527345998849 0.39666090961427747 0.010938399539435808 0.0017271157167530224 
0.005032907471931862 0.05071622144792876 0.8885017421602788 0.05226480836236934 0.003484320557491289 
5.293806246691371E-4 0.004764425622022234 0.517204870301747 0.4695606140815246 0.007940709370037057 
3.2E-4 0.00288 0.04896 0.5296 0.41824 
0.5979057591623037 0.3319371727748691 0.06806282722513089 0.0010471204188481676 0.0010471204188481676 
0.07153008053055424 0.5689246802463288 0.34722880151586927 0.011842728564661297 4.737091425864519E-4 
0.004694835680751174 0.06825568797399784 0.8678223185265439 0.05308775731310943 0.0061394005055976884 
0.0028392958546280523 0.021010789324247586 0.5002839295854627 0.4559909142532652 0.019875070982396367 
0.0013844023996308261 0.004153207198892478 0.07060452238117212 0.5560682971850485 0.3677895708352561 
0.6116504854368932 0.32038834951456313 0.02912621359223301 0.02912621359223301 0.009708737864077669 
0.015250544662309368 0.5119825708061002 0.4466230936819172 0.0196078431372549 0.006535947712418301 
0.0055511498810467885 0.03727200634417129 0.873116574147502 0.07850911974623315 0.0055511498810467885 
0.002061855670103093 0.007560137457044674 0.49553264604811 0.4859106529209622 0.008934707903780068 
9.478672985781991E-4 0.0034755134281200632 0.04391785150078989 0.5450236966824644 0.4066350710900474 
</TABLE>
</DEFINITION>
<DEFINITION>
<FOR>pixel31</FOR>
<GIVEN>emotion</GIVEN>
<GIVEN>pixel27</GIVEN>
<TABLE>
0.24411257897759908 0.3509477311889719 0.24526134405514072 0.07754164273406089 0.08213670304422746 
0.07941036614360437 0.26676176890156916 0.39705183071802186 0.1821207798383262 0.07465525439847837 
0.03912087912087912 0.13142857142857142 0.35384615384615387 0.28 0.1956043956043956 
0.02400893355667225 0.06756002233389168 0.16024567280848687 0.2171970965940815 0.5309882747068677 
0.15976331360946747 0.4319526627218935 0.24260355029585798 0.0650887573964497 0.10059171597633136 
0.049723756906077346 0.3812154696132597 0.3812154696132597 0.03867403314917127 0.14917127071823205 
0.04522613065326633 0.06532663316582915 0.2964824120603015 0.32663316582914576 0.2663316582914573 
0.009287925696594427 0.034055727554179564 0.1826625386996904 0.2260061919504644 0.5479876160990712 
0.15915915915915915 0.3009009009009009 0.27087087087087086 0.15075075075075076 0.11831831831831832 
0.05901116427432217 0.20893141945773525 0.4502923976608187 0.16002126528442318 0.1217437533227007 
0.03472527472527472 0.08835164835164835 0.3037362637362637 0.31956043956043956 0.25362637362637364 
0.018959257765227916 0.0326744655102864 0.10125050423557887 0.1899959661153691 0.6571198063735377 
0.183327185540391 0.41645149391368497 0.23718185171523423 0.08299520472150498 0.0800442641091848 
0.05969722936303913 0.3116252499285918 0.4218794630105684 0.12882033704655813 0.0779777206512425 
0.023335789732252518 0.10881847211987226 0.38197003193318596 0.31613854089904203 0.16973716531564725 
0.011556429800835996 0.04597983771821982 0.14974182444061962 0.24268502581755594 0.5500368822227686 
0.16756756756756758 0.3738045738045738 0.22245322245322247 0.10602910602910603 0.13014553014553015 
0.05227938101212882 0.22040987034713508 0.4236721037222919 0.16269343370974487 0.1409452112086993 
0.01619913077834848 0.08968787040695378 0.3196365073093639 0.3077834847886211 0.26669300671671275 
0.012667946257197697 0.031861804222648754 0.08637236084452975 0.1785028790786948 0.690595009596929 
0.19657597065117702 0.34454295322531336 0.25833078569244877 0.10424946499541425 0.0963008254356466 
0.07831562377016922 0.23415977961432508 0.40968122786304606 0.16646989374262103 0.11137347500983864 
0.030856149500217298 0.11864406779661017 0.3202955236853542 0.29248152976966535 0.23772272924815296 
0.02492401215805471 0.06990881458966565 0.08814589665653495 0.19635258358662613 0.6206686930091185 
0.1037593984962406 0.281203007518797 0.2721804511278195 0.14285714285714285 0.2 
0.01935483870967742 0.1447004608294931 0.3880184331797235 0.2073732718894009 0.24055299539170508 
0.004739336492890996 0.04476040021063718 0.24170616113744076 0.3565034228541338 0.3522906793048973 
0.0010756543564001434 0.010397992111868053 0.07135173897454285 0.16385801362495517 0.7533166009322337 
</TABLE>
</DEFINITION>
<DEFINITION>
<FOR>pixel32</FOR>
<GIVEN>emotion</GIVEN>
<GIVEN>pixel0</GIVEN>
<TABLE>
0.9987168520102652 4.27715996578272E-4 4.27715996578272E-4 4.27715996578272E-4 
3.0012004801920766E-4 0.9990996398559424 3.0012004801920766E-4 3.0012004801920766E-4 
7.27802037845706E-4 7.27802037845706E-4 0.9978165938864629 7.27802037845706E-4 
0.001160092807424594 0.001160092807424594 0.001160092807424594 0.9965197215777262 
0.9840425531914894 0.005319148936170213 0.005319148936170213 0.005319148936170213 
0.002380952380952381 0.9928571428571429 0.002380952380952381 0.002380952380952381 
0.007042253521126761 0.007042253521126761 0.9788732394366197 0.007042253521126761 
0.00847457627118644 0.00847457627118644 0.00847457627118644 0.9745762711864406 
0.9981132075471698 6.289308176100629E-4 6.289308176100629E-4 6.289308176100629E-4 
2.901915264074289E-4 0.9991294254207778 2.901915264074289E-4 2.901915264074289E-4 
5.617977528089888E-4 5.617977528089888E-4 0.998314606741573 5.617977528089888E-4 
6.756756756756757E-4 6.756756756756757E-4 6.756756756756757E-4 0.9979729729729729 
0.9990974729241877 3.0084235860409147E-4 3.0084235860409147E-4 3.0084235860409147E-4 
1.539408866995074E-4 0.9995381773399015 1.539408866995074E-4 1.539408866995074E-4 
3.819709702062643E-4 3.819709702062643E-4 0.9988540870893812 3.819709702062643E-4 
5.241090146750524E-4 5.241090146750524E-4 5.241090146750524E-4 0.9984276729559748 
0.9986559139784946 4.4802867383512545E-4 4.4802867383512545E-4 4.4802867383512545E-4 
2.610966057441253E-4 0.9992167101827676 2.610966057441253E-4 2.610966057441253E-4 
5.36480686695279E-4 5.36480686695279E-4 0.9983905579399142 5.36480686695279E-4 
4.995004995004995E-4 4.995004995004995E-4 4.995004995004995E-4 0.9985014985014985 
0.998913830557567 3.620564808110065E-4 3.620564808110065E-4 3.620564808110065E-4 
2.4912805181863477E-4 0.9992526158445441 2.4912805181863477E-4 2.4912805181863477E-4 
6.009615384615385E-4 6.009615384615385E-4 0.9981971153846154 6.009615384615385E-4 
7.6103500761035E-4 7.6103500761035E-4 7.6103500761035E-4 0.997716894977169 
0.9947183098591549 0.0017605633802816902 0.0017605633802816902 0.0017605633802816902 
4.784688995215311E-4 0.9985645933014354 4.784688995215311E-4 4.784688995215311E-4 
6.067961165048543E-4 6.067961165048543E-4 0.9981796116504854 6.067961165048543E-4 
4.6992481203007516E-4 4.6992481203007516E-4 4.6992481203007516E-4 0.9985902255639098 
</TABLE>
</DEFINITION>
<DEFINITION>
<FOR>pixel33</FOR>
<GIVEN>emotion</GIVEN>
<GIVEN>pixel29</GIVEN>
<TABLE>
0.684051724137931 0.2512931034482759 0.05646551724137931 0.008189655172413794 
0.13348623853211009 0.5123853211009174 0.32247706422018346 0.03165137614678899 
0.03985507246376811 0.13923395445134576 0.6319875776397516 0.18892339544513456 
0.011533242876526458 0.029172320217096336 0.1919945725915875 0.7672998643147897 
0.6944444444444444 0.17222222222222222 0.09444444444444444 0.03888888888888889 
0.07327586206896551 0.5646551724137931 0.3577586206896552 0.004310344827586207 
0.0049504950495049506 0.10396039603960396 0.6683168316831684 0.22277227722772278 
0.003937007874015748 0.011811023622047244 0.21653543307086615 0.7677165354330708 
0.6696344892221181 0.2703842549203374 0.05014058106841612 0.009840674789128397 
0.10707547169811321 0.5221698113207547 0.33726415094339623 0.03349056603773585 
0.022128060263653482 0.12005649717514125 0.629472693032015 0.2283427495291902 
0.0036496350364963502 0.013034410844629822 0.13607924921793535 0.8472367049009385 
0.6688422247446084 0.286322360953462 0.03603859250851305 0.008796821793416572 
0.10432007854688267 0.5726558664702994 0.3001963672066765 0.022827687776141383 
0.02341739577972208 0.11760164693772517 0.6873391662377767 0.17164179104477612 
0.004542278127183787 0.0143256464011181 0.15059399021663172 0.8305380852550663 
0.7260757867694284 0.2296082209377007 0.03564547206165703 0.008670520231213872 
0.11936236391912908 0.55248833592535 0.3005443234836703 0.0276049766718507 
0.028678304239401497 0.11097256857855362 0.6471321695760599 0.21321695760598502 
0.01579520697167756 0.039760348583877995 0.14324618736383443 0.80119825708061 
0.7096688034188035 0.25080128205128205 0.032852564102564104 0.006677350427350427 
0.12273991655076495 0.5239916550764951 0.32232267037552154 0.030945757997218357 
0.02903907074973601 0.1293558606124604 0.6087645195353749 0.2328405491024287 
0.012096774193548387 0.03306451612903226 0.14112903225806453 0.8137096774193548 
0.6152777777777778 0.3125 0.06805555555555555 0.004166666666666667 
0.06012176560121765 0.5060882800608828 0.3904109589041096 0.04337899543378995 
0.013873473917869035 0.07824639289678136 0.6709211986681465 0.2369589345172031 
0.0026943802925327174 0.008083140877598153 0.09353348729792148 0.8956889915319477 
</TABLE>
</DEFINITION>
<DEFINITION>
<FOR>pixel34</FOR>
<GIVEN>emotion</GIVEN>
<GIVEN>pixel29</GIVEN>
<TABLE>
0.9987068965517242 4.310344827586207E-4 4.310344827586207E-4 4.310344827586207E-4 
4.5871559633027525E-4 0.9986238532110092 4.5871559633027525E-4 4.5871559633027525E-4 
5.175983436853002E-4 5.175983436853002E-4 0.9984472049689441 5.175983436853002E-4 
6.784260515603799E-4 6.784260515603799E-4 6.784260515603799E-4 0.9979647218453188 
0.9833333333333333 0.005555555555555556 0.005555555555555556 0.005555555555555556 
0.004310344827586207 0.9870689655172413 0.004310344827586207 0.004310344827586207 
0.0049504950495049506 0.0049504950495049506 0.9851485148514851 0.0049504950495049506 
0.003937007874015748 0.003937007874015748 0.003937007874015748 0.9881889763779528 
0.9985941893158388 4.6860356138706655E-4 4.6860356138706655E-4 4.6860356138706655E-4 
4.716981132075472E-4 0.9985849056603774 4.716981132075472E-4 4.716981132075472E-4 
4.7080979284369113E-4 4.7080979284369113E-4 0.998587570621469 4.7080979284369113E-4 
5.213764337851929E-4 5.213764337851929E-4 5.213764337851929E-4 0.9984358706986444 
0.9991486946651532 2.8376844494892167E-4 2.8376844494892167E-4 2.8376844494892167E-4 
2.454590083456063E-4 0.9992636229749632 2.454590083456063E-4 2.454590083456063E-4 
2.573340195573855E-4 2.573340195573855E-4 0.9992279979413279 2.573340195573855E-4 
3.4940600978336826E-4 3.4940600978336826E-4 3.4940600978336826E-4 0.9989517819706499 
0.9990366088631984 3.211303789338471E-4 3.211303789338471E-4 3.211303789338471E-4 
3.8880248833592535E-4 0.9988335925349923 3.8880248833592535E-4 3.8880248833592535E-4 
4.1562759767248546E-4 4.1562759767248546E-4 0.9987531172069826 4.1562759767248546E-4 
5.446623093681918E-4 5.446623093681918E-4 5.446623093681918E-4 0.9983660130718954 
0.999198717948718 2.670940170940171E-4 2.670940170940171E-4 2.670940170940171E-4 
3.477051460361613E-4 0.9989568845618915 3.477051460361613E-4 3.477051460361613E-4 
5.279831045406547E-4 5.279831045406547E-4 0.9984160506863781 5.279831045406547E-4 
8.064516129032258E-4 8.064516129032258E-4 8.064516129032258E-4 0.9975806451612903 
0.9958333333333333 0.001388888888888889 0.001388888888888889 0.001388888888888889 
7.6103500761035E-4 0.997716894977169 7.6103500761035E-4 7.6103500761035E-4 
5.549389567147614E-4 5.549389567147614E-4 0.9983351831298557 5.549389567147614E-4 
3.8491147036181676E-4 3.8491147036181676E-4 3.8491147036181676E-4 0.9988452655889145 
</TABLE>
</DEFINITION>
</NETWORK>
</BIF>
