<?xml version="1.0"?>
<!-- DTD for the XMLBIF 0.3 format -->
<!DOCTYPE BIF [
	<!ELEMENT BIF ( NETWORK )*>
	      <!ATTLIST BIF VERSION CDATA #REQUIRED>
	<!ELEMENT NETWORK ( NAME, ( PROPERTY | VARIABLE | DEFINITION )* )>
	<!ELEMENT NAME (#PCDATA)>
	<!ELEMENT VARIABLE ( NAME, ( OUTCOME |  PROPERTY )* ) >
	      <!ATTLIST VARIABLE TYPE (nature|decision|utility) "nature">
	<!ELEMENT OUTCOME (#PCDATA)>
	<!ELEMENT DEFINITION ( FOR | GIVEN | TABLE | PROPERTY )* >
	<!ELEMENT FOR (#PCDATA)>
	<!ELEMENT GIVEN (#PCDATA)>
	<!ELEMENT TABLE (#PCDATA)>
	<!ELEMENT PROPERTY (#PCDATA)>
]>


<BIF VERSION="0.3">
<NETWORK>
<NAME>faces-weka.filters.supervised.attribute.Discretize-Rfirst-last-precision6-weka.filters.unsupervised.attribute.ReplaceMissingValues</NAME>
<VARIABLE TYPE="nature">
<NAME>emotion</NAME>
<OUTCOME>angry</OUTCOME>
<OUTCOME>disgust</OUTCOME>
<OUTCOME>fear</OUTCOME>
<OUTCOME>happy</OUTCOME>
<OUTCOME>neutral</OUTCOME>
<OUTCOME>sad</OUTCOME>
<OUTCOME>surprise</OUTCOME>
</VARIABLE>
<VARIABLE TYPE="nature">
<NAME>pixel0</NAME>
<OUTCOME>&apos;\&apos;(-inf-0.448039]\&apos;&apos;</OUTCOME>
<OUTCOME>&apos;\&apos;(0.448039-0.688235]\&apos;&apos;</OUTCOME>
<OUTCOME>&apos;\&apos;(0.688235-0.789216]\&apos;&apos;</OUTCOME>
<OUTCOME>&apos;\&apos;(0.789216-inf)\&apos;&apos;</OUTCOME>
</VARIABLE>
<VARIABLE TYPE="nature">
<NAME>pixel1</NAME>
<OUTCOME>&apos;\&apos;(-inf-0.295588]\&apos;&apos;</OUTCOME>
<OUTCOME>&apos;\&apos;(0.295588-0.52451]\&apos;&apos;</OUTCOME>
<OUTCOME>&apos;\&apos;(0.52451-0.620098]\&apos;&apos;</OUTCOME>
<OUTCOME>&apos;\&apos;(0.620098-0.762745]\&apos;&apos;</OUTCOME>
<OUTCOME>&apos;\&apos;(0.762745-inf)\&apos;&apos;</OUTCOME>
</VARIABLE>
<VARIABLE TYPE="nature">
<NAME>pixel2</NAME>
<OUTCOME>&apos;\&apos;(-inf-0.152451]\&apos;&apos;</OUTCOME>
<OUTCOME>&apos;\&apos;(0.152451-0.40098]\&apos;&apos;</OUTCOME>
<OUTCOME>&apos;\&apos;(0.40098-0.657353]\&apos;&apos;</OUTCOME>
<OUTCOME>&apos;\&apos;(0.657353-0.768627]\&apos;&apos;</OUTCOME>
<OUTCOME>&apos;\&apos;(0.768627-inf)\&apos;&apos;</OUTCOME>
</VARIABLE>
<VARIABLE TYPE="nature">
<NAME>pixel3</NAME>
<OUTCOME>&apos;\&apos;(-inf-0.429412]\&apos;&apos;</OUTCOME>
<OUTCOME>&apos;\&apos;(0.429412-0.648529]\&apos;&apos;</OUTCOME>
<OUTCOME>&apos;\&apos;(0.648529-0.788235]\&apos;&apos;</OUTCOME>
<OUTCOME>&apos;\&apos;(0.788235-inf)\&apos;&apos;</OUTCOME>
</VARIABLE>
<VARIABLE TYPE="nature">
<NAME>pixel4</NAME>
<OUTCOME>&apos;\&apos;(-inf-0.408824]\&apos;&apos;</OUTCOME>
<OUTCOME>&apos;\&apos;(0.408824-0.705392]\&apos;&apos;</OUTCOME>
<OUTCOME>&apos;\&apos;(0.705392-0.794118]\&apos;&apos;</OUTCOME>
<OUTCOME>&apos;\&apos;(0.794118-inf)\&apos;&apos;</OUTCOME>
</VARIABLE>
<VARIABLE TYPE="nature">
<NAME>pixel5</NAME>
<OUTCOME>&apos;\&apos;(-inf-0.493627]\&apos;&apos;</OUTCOME>
<OUTCOME>&apos;\&apos;(0.493627-0.669608]\&apos;&apos;</OUTCOME>
<OUTCOME>&apos;\&apos;(0.669608-inf)\&apos;&apos;</OUTCOME>
</VARIABLE>
<VARIABLE TYPE="nature">
<NAME>pixel6</NAME>
<OUTCOME>&apos;\&apos;(-inf-0.080392]\&apos;&apos;</OUTCOME>
<OUTCOME>&apos;\&apos;(0.080392-0.542647]\&apos;&apos;</OUTCOME>
<OUTCOME>&apos;\&apos;(0.542647-0.663235]\&apos;&apos;</OUTCOME>
<OUTCOME>&apos;\&apos;(0.663235-inf)\&apos;&apos;</OUTCOME>
</VARIABLE>
<VARIABLE TYPE="nature">
<NAME>pixel7</NAME>
<OUTCOME>&apos;\&apos;(-inf-0.50098]\&apos;&apos;</OUTCOME>
<OUTCOME>&apos;\&apos;(0.50098-inf)\&apos;&apos;</OUTCOME>
</VARIABLE>
<VARIABLE TYPE="nature">
<NAME>pixel8</NAME>
<OUTCOME>&apos;\&apos;(-inf-0.181373]\&apos;&apos;</OUTCOME>
<OUTCOME>&apos;\&apos;(0.181373-0.565196]\&apos;&apos;</OUTCOME>
<OUTCOME>&apos;\&apos;(0.565196-inf)\&apos;&apos;</OUTCOME>
</VARIABLE>
<VARIABLE TYPE="nature">
<NAME>pixel9</NAME>
<OUTCOME>&apos;\&apos;(-inf-0.093137]\&apos;&apos;</OUTCOME>
<OUTCOME>&apos;\&apos;(0.093137-0.593137]\&apos;&apos;</OUTCOME>
<OUTCOME>&apos;\&apos;(0.593137-inf)\&apos;&apos;</OUTCOME>
</VARIABLE>
<VARIABLE TYPE="nature">
<NAME>pixel10</NAME>
<OUTCOME>&apos;\&apos;(-inf-0.020098]\&apos;&apos;</OUTCOME>
<OUTCOME>&apos;\&apos;(0.020098-0.435294]\&apos;&apos;</OUTCOME>
<OUTCOME>&apos;\&apos;(0.435294-0.735294]\&apos;&apos;</OUTCOME>
<OUTCOME>&apos;\&apos;(0.735294-0.972059]\&apos;&apos;</OUTCOME>
<OUTCOME>&apos;\&apos;(0.972059-inf)\&apos;&apos;</OUTCOME>
</VARIABLE>
<VARIABLE TYPE="nature">
<NAME>pixel11</NAME>
<OUTCOME>&apos;\&apos;(-inf-0.026961]\&apos;&apos;</OUTCOME>
<OUTCOME>&apos;\&apos;(0.026961-0.676471]\&apos;&apos;</OUTCOME>
<OUTCOME>&apos;\&apos;(0.676471-0.991667]\&apos;&apos;</OUTCOME>
<OUTCOME>&apos;\&apos;(0.991667-inf)\&apos;&apos;</OUTCOME>
</VARIABLE>
<VARIABLE TYPE="nature">
<NAME>pixel12</NAME>
<OUTCOME>&apos;\&apos;(-inf-0.603922]\&apos;&apos;</OUTCOME>
<OUTCOME>&apos;\&apos;(0.603922-0.976471]\&apos;&apos;</OUTCOME>
<OUTCOME>&apos;\&apos;(0.976471-inf)\&apos;&apos;</OUTCOME>
</VARIABLE>
<VARIABLE TYPE="nature">
<NAME>pixel13</NAME>
<OUTCOME>&apos;\&apos;(-inf-0.493137]\&apos;&apos;</OUTCOME>
<OUTCOME>&apos;\&apos;(0.493137-0.675]\&apos;&apos;</OUTCOME>
<OUTCOME>&apos;\&apos;(0.675-0.957353]\&apos;&apos;</OUTCOME>
<OUTCOME>&apos;\&apos;(0.957353-inf)\&apos;&apos;</OUTCOME>
</VARIABLE>
<VARIABLE TYPE="nature">
<NAME>pixel14</NAME>
<OUTCOME>&apos;\&apos;(-inf-0.585294]\&apos;&apos;</OUTCOME>
<OUTCOME>&apos;\&apos;(0.585294-0.985784]\&apos;&apos;</OUTCOME>
<OUTCOME>&apos;\&apos;(0.985784-inf)\&apos;&apos;</OUTCOME>
</VARIABLE>
<VARIABLE TYPE="nature">
<NAME>pixel15</NAME>
<OUTCOME>&apos;\&apos;(-inf-0.016176]\&apos;&apos;</OUTCOME>
<OUTCOME>&apos;\&apos;(0.016176-0.180392]\&apos;&apos;</OUTCOME>
<OUTCOME>&apos;\&apos;(0.180392-0.389216]\&apos;&apos;</OUTCOME>
<OUTCOME>&apos;\&apos;(0.389216-0.587255]\&apos;&apos;</OUTCOME>
<OUTCOME>&apos;\&apos;(0.587255-inf)\&apos;&apos;</OUTCOME>
</VARIABLE>
<VARIABLE TYPE="nature">
<NAME>pixel16</NAME>
<OUTCOME>&apos;\&apos;(-inf-0.161275]\&apos;&apos;</OUTCOME>
<OUTCOME>&apos;\&apos;(0.161275-0.362745]\&apos;&apos;</OUTCOME>
<OUTCOME>&apos;\&apos;(0.362745-0.498039]\&apos;&apos;</OUTCOME>
<OUTCOME>&apos;\&apos;(0.498039-0.606863]\&apos;&apos;</OUTCOME>
<OUTCOME>&apos;\&apos;(0.606863-inf)\&apos;&apos;</OUTCOME>
</VARIABLE>
<VARIABLE TYPE="nature">
<NAME>pixel17</NAME>
<OUTCOME>&apos;\&apos;(-inf-0.194608]\&apos;&apos;</OUTCOME>
<OUTCOME>&apos;\&apos;(0.194608-0.288725]\&apos;&apos;</OUTCOME>
<OUTCOME>&apos;\&apos;(0.288725-0.491667]\&apos;&apos;</OUTCOME>
<OUTCOME>&apos;\&apos;(0.491667-inf)\&apos;&apos;</OUTCOME>
</VARIABLE>
<VARIABLE TYPE="nature">
<NAME>pixel18</NAME>
<OUTCOME>&apos;\&apos;(-inf-0.151961]\&apos;&apos;</OUTCOME>
<OUTCOME>&apos;\&apos;(0.151961-0.334804]\&apos;&apos;</OUTCOME>
<OUTCOME>&apos;\&apos;(0.334804-0.541667]\&apos;&apos;</OUTCOME>
<OUTCOME>&apos;\&apos;(0.541667-inf)\&apos;&apos;</OUTCOME>
</VARIABLE>
<VARIABLE TYPE="nature">
<NAME>pixel19</NAME>
<OUTCOME>&apos;\&apos;(-inf-0.207843]\&apos;&apos;</OUTCOME>
<OUTCOME>&apos;\&apos;(0.207843-0.405392]\&apos;&apos;</OUTCOME>
<OUTCOME>&apos;\&apos;(0.405392-0.571078]\&apos;&apos;</OUTCOME>
<OUTCOME>&apos;\&apos;(0.571078-inf)\&apos;&apos;</OUTCOME>
</VARIABLE>
<VARIABLE TYPE="nature">
<NAME>pixel20</NAME>
<OUTCOME>&apos;\&apos;(-inf-0.090686]\&apos;&apos;</OUTCOME>
<OUTCOME>&apos;\&apos;(0.090686-0.337255]\&apos;&apos;</OUTCOME>
<OUTCOME>&apos;\&apos;(0.337255-inf)\&apos;&apos;</OUTCOME>
</VARIABLE>
<VARIABLE TYPE="nature">
<NAME>pixel21</NAME>
<OUTCOME>&apos;\&apos;(-inf-0.156373]\&apos;&apos;</OUTCOME>
<OUTCOME>&apos;\&apos;(0.156373-0.503431]\&apos;&apos;</OUTCOME>
<OUTCOME>&apos;\&apos;(0.503431-0.991667]\&apos;&apos;</OUTCOME>
<OUTCOME>&apos;\&apos;(0.991667-inf)\&apos;&apos;</OUTCOME>
</VARIABLE>
<VARIABLE TYPE="nature">
<NAME>pixel22</NAME>
<OUTCOME>&apos;\&apos;(-inf-0.355882]\&apos;&apos;</OUTCOME>
<OUTCOME>&apos;\&apos;(0.355882-0.978431]\&apos;&apos;</OUTCOME>
<OUTCOME>&apos;\&apos;(0.978431-inf)\&apos;&apos;</OUTCOME>
</VARIABLE>
<VARIABLE TYPE="nature">
<NAME>pixel23</NAME>
<OUTCOME>&apos;\&apos;(-inf-0.058333]\&apos;&apos;</OUTCOME>
<OUTCOME>&apos;\&apos;(0.058333-0.289706]\&apos;&apos;</OUTCOME>
<OUTCOME>&apos;\&apos;(0.289706-0.634314]\&apos;&apos;</OUTCOME>
<OUTCOME>&apos;\&apos;(0.634314-0.967157]\&apos;&apos;</OUTCOME>
<OUTCOME>&apos;\&apos;(0.967157-inf)\&apos;&apos;</OUTCOME>
</VARIABLE>
<VARIABLE TYPE="nature">
<NAME>pixel24</NAME>
<OUTCOME>&apos;\&apos;(-inf-0.159314]\&apos;&apos;</OUTCOME>
<OUTCOME>&apos;\&apos;(0.159314-0.546569]\&apos;&apos;</OUTCOME>
<OUTCOME>&apos;\&apos;(0.546569-0.960784]\&apos;&apos;</OUTCOME>
<OUTCOME>&apos;\&apos;(0.960784-inf)\&apos;&apos;</OUTCOME>
</VARIABLE>
<VARIABLE TYPE="nature">
<NAME>pixel25</NAME>
<OUTCOME>&apos;\&apos;(-inf-0.328431]\&apos;&apos;</OUTCOME>
<OUTCOME>&apos;\&apos;(0.328431-0.627451]\&apos;&apos;</OUTCOME>
<OUTCOME>&apos;\&apos;(0.627451-0.758824]\&apos;&apos;</OUTCOME>
<OUTCOME>&apos;\&apos;(0.758824-inf)\&apos;&apos;</OUTCOME>
</VARIABLE>
<VARIABLE TYPE="nature">
<NAME>pixel26</NAME>
<OUTCOME>&apos;\&apos;(-inf-0.419608]\&apos;&apos;</OUTCOME>
<OUTCOME>&apos;\&apos;(0.419608-0.614706]\&apos;&apos;</OUTCOME>
<OUTCOME>&apos;\&apos;(0.614706-0.761765]\&apos;&apos;</OUTCOME>
<OUTCOME>&apos;\&apos;(0.761765-inf)\&apos;&apos;</OUTCOME>
</VARIABLE>
<VARIABLE TYPE="nature">
<NAME>pixel27</NAME>
<OUTCOME>&apos;\&apos;(-inf-0.465686]\&apos;&apos;</OUTCOME>
<OUTCOME>&apos;\&apos;(0.465686-0.639216]\&apos;&apos;</OUTCOME>
<OUTCOME>&apos;\&apos;(0.639216-0.772059]\&apos;&apos;</OUTCOME>
<OUTCOME>&apos;\&apos;(0.772059-inf)\&apos;&apos;</OUTCOME>
</VARIABLE>
<VARIABLE TYPE="nature">
<NAME>pixel28</NAME>
<OUTCOME>&apos;\&apos;(-inf-0.466667]\&apos;&apos;</OUTCOME>
<OUTCOME>&apos;\&apos;(0.466667-0.684804]\&apos;&apos;</OUTCOME>
<OUTCOME>&apos;\&apos;(0.684804-0.77598]\&apos;&apos;</OUTCOME>
<OUTCOME>&apos;\&apos;(0.77598-inf)\&apos;&apos;</OUTCOME>
</VARIABLE>
<VARIABLE TYPE="nature">
<NAME>pixel29</NAME>
<OUTCOME>&apos;\&apos;(-inf-0.477451]\&apos;&apos;</OUTCOME>
<OUTCOME>&apos;\&apos;(0.477451-0.644608]\&apos;&apos;</OUTCOME>
<OUTCOME>&apos;\&apos;(0.644608-0.768137]\&apos;&apos;</OUTCOME>
<OUTCOME>&apos;\&apos;(0.768137-inf)\&apos;&apos;</OUTCOME>
</VARIABLE>
<VARIABLE TYPE="nature">
<NAME>pixel30</NAME>
<OUTCOME>&apos;\&apos;(-inf-0.22402]\&apos;&apos;</OUTCOME>
<OUTCOME>&apos;\&apos;(0.22402-0.405882]\&apos;&apos;</OUTCOME>
<OUTCOME>&apos;\&apos;(0.405882-0.676961]\&apos;&apos;</OUTCOME>
<OUTCOME>&apos;\&apos;(0.676961-0.822059]\&apos;&apos;</OUTCOME>
<OUTCOME>&apos;\&apos;(0.822059-inf)\&apos;&apos;</OUTCOME>
</VARIABLE>
<VARIABLE TYPE="nature">
<NAME>pixel31</NAME>
<OUTCOME>&apos;\&apos;(-inf-0.279412]\&apos;&apos;</OUTCOME>
<OUTCOME>&apos;\&apos;(0.279412-0.480882]\&apos;&apos;</OUTCOME>
<OUTCOME>&apos;\&apos;(0.480882-0.648039]\&apos;&apos;</OUTCOME>
<OUTCOME>&apos;\&apos;(0.648039-0.745098]\&apos;&apos;</OUTCOME>
<OUTCOME>&apos;\&apos;(0.745098-inf)\&apos;&apos;</OUTCOME>
</VARIABLE>
<VARIABLE TYPE="nature">
<NAME>pixel32</NAME>
<OUTCOME>&apos;\&apos;(-inf-0.448039]\&apos;&apos;</OUTCOME>
<OUTCOME>&apos;\&apos;(0.448039-0.688235]\&apos;&apos;</OUTCOME>
<OUTCOME>&apos;\&apos;(0.688235-0.789216]\&apos;&apos;</OUTCOME>
<OUTCOME>&apos;\&apos;(0.789216-inf)\&apos;&apos;</OUTCOME>
</VARIABLE>
<VARIABLE TYPE="nature">
<NAME>pixel33</NAME>
<OUTCOME>&apos;\&apos;(-inf-0.428922]\&apos;&apos;</OUTCOME>
<OUTCOME>&apos;\&apos;(0.428922-0.598039]\&apos;&apos;</OUTCOME>
<OUTCOME>&apos;\&apos;(0.598039-0.75]\&apos;&apos;</OUTCOME>
<OUTCOME>&apos;\&apos;(0.75-inf)\&apos;&apos;</OUTCOME>
</VARIABLE>
<VARIABLE TYPE="nature">
<NAME>pixel34</NAME>
<OUTCOME>&apos;\&apos;(-inf-0.477451]\&apos;&apos;</OUTCOME>
<OUTCOME>&apos;\&apos;(0.477451-0.644608]\&apos;&apos;</OUTCOME>
<OUTCOME>&apos;\&apos;(0.644608-0.768137]\&apos;&apos;</OUTCOME>
<OUTCOME>&apos;\&apos;(0.768137-inf)\&apos;&apos;</OUTCOME>
</VARIABLE>
<DEFINITION>
<FOR>emotion</FOR>
<TABLE>
0.13740923259094154 0.014853640273738833 0.14420046319675414 0.24955160464589826 0.17261915127030839 0.16958921761540738 0.11177669040695143 
</TABLE>
</DEFINITION>
<DEFINITION>
<FOR>pixel0</FOR>
<GIVEN>pixel32</GIVEN>
<TABLE>
0.9997688395746648 7.705347511172754E-5 7.705347511172754E-5 7.705347511172754E-5 
4.236570072869005E-5 0.9998729028978139 4.236570072869005E-5 4.236570072869005E-5 
9.036688957166094E-5 9.036688957166094E-5 0.9997288993312851 9.036688957166094E-5 
1.021659174499387E-4 1.021659174499387E-4 1.021659174499387E-4 0.9996935022476502 
</TABLE>
</DEFINITION>
<DEFINITION>
<FOR>pixel1</FOR>
<GIVEN>pixel26</GIVEN>
<GIVEN>pixel19</GIVEN>
<GIVEN>pixel0</GIVEN>
<TABLE>
0.5772994129158513 0.3411611219830398 0.038486627527723416 0.02674494455316373 0.016307893020221786 
0.40047961630695444 0.36211031175059955 0.11270983213429256 0.08393285371702638 0.0407673860911271 
0.22522522522522523 0.44144144144144143 0.11711711711711711 0.13513513513513514 0.08108108108108109 
0.2631578947368421 0.3333333333333333 0.05263157894736842 0.12280701754385964 0.22807017543859648 
0.340007701193685 0.5333076626877166 0.07431651906045438 0.04274162495186754 0.009626492106276472 
0.2142266335814723 0.5153019023986766 0.1315136476426799 0.11827956989247312 0.0206782464846981 
0.1297071129707113 0.4811715481171548 0.1297071129707113 0.20502092050209206 0.05439330543933055 
0.14728682170542637 0.3488372093023256 0.17829457364341086 0.1937984496124031 0.13178294573643412 
0.16548223350253807 0.49441624365482234 0.16751269035532995 0.12284263959390863 0.049746192893401014 
0.10134529147982063 0.4260089686098655 0.24663677130044842 0.18923766816143497 0.036771300448430494 
0.10861423220973783 0.1760299625468165 0.27340823970037453 0.3333333333333333 0.10861423220973783 
0.0847457627118644 0.2994350282485876 0.096045197740113 0.3333333333333333 0.1864406779661017 
0.1288056206088993 0.34894613583138173 0.14285714285714285 0.2505854800936768 0.1288056206088993 
0.056865464632454926 0.22052704576976423 0.217753120665742 0.3509015256588072 0.1539528432732316 
0.04788732394366197 0.1267605633802817 0.13802816901408452 0.36901408450704226 0.3183098591549296 
0.07348242811501597 0.14376996805111822 0.07348242811501597 0.2715654952076677 0.43769968051118213 
0.25467625899280577 0.49928057553956834 0.11079136690647481 0.1079136690647482 0.027338129496402876 
0.17004680187207488 0.42589703588143524 0.1981279251170047 0.17628705148205928 0.029641185647425898 
0.22875816993464052 0.38562091503267976 0.1503267973856209 0.17647058823529413 0.058823529411764705 
0.2982456140350877 0.3333333333333333 0.12280701754385964 0.12280701754385964 0.12280701754385964 
0.1562323745064862 0.601804850535815 0.14156796390298929 0.07614213197969544 0.024252679075014102 
0.07764338665626219 0.5458447132266875 0.2298088177916504 0.1314865392118611 0.015216543113538821 
0.08051948051948052 0.41818181818181815 0.2 0.21558441558441557 0.08571428571428572 
0.15789473684210525 0.2631578947368421 0.14832535885167464 0.2535885167464115 0.17703349282296652 
0.0640176600441501 0.506990434142752 0.2582781456953642 0.13760117733627666 0.033112582781456956 
0.0342488979315022 0.40183112919633773 0.3136656493726687 0.21668362156663276 0.0335707019328586 
0.03350970017636684 0.30511463844797176 0.24514991181657847 0.32275132275132273 0.09347442680776014 
0.06912442396313365 0.2534562211981567 0.16129032258064516 0.22580645161290322 0.2903225806451613 
0.04748201438848921 0.3381294964028777 0.22877697841726619 0.2517985611510791 0.13381294964028778 
0.04445761707172496 0.21280379371665678 0.2732661529342027 0.3396561944279787 0.12981624184943688 
0.021848739495798318 0.1361344537815126 0.16302521008403362 0.4218487394957983 0.2571428571428571 
0.025056947608200455 0.05694760820045558 0.08428246013667426 0.2984054669703872 0.5353075170842825 
0.16587677725118483 0.4028436018957346 0.11848341232227488 0.22274881516587677 0.09004739336492891 
0.11323763955342903 0.291866028708134 0.2503987240829346 0.266347687400319 0.07814992025518341 
0.13015873015873017 0.18095238095238095 0.16825396825396827 0.346031746031746 0.1746031746031746 
0.09433962264150944 0.27044025157232704 0.15723270440251572 0.22012578616352202 0.2578616352201258 
0.07099391480730223 0.38336713995943206 0.20892494929006086 0.23732251521298176 0.09939148073022312 
0.05403899721448468 0.27019498607242337 0.3080779944289694 0.30473537604456824 0.06295264623955432 
0.04817518248175182 0.19708029197080293 0.2 0.4510948905109489 0.10364963503649635 
0.08635097493036212 0.21448467966573817 0.14206128133704735 0.30362116991643456 0.25348189415041783 
0.057902973395931145 0.352112676056338 0.2269170579029734 0.27699530516431925 0.08607198748043818 
0.02289584005159626 0.2073524669461464 0.308610125765882 0.39374395356336667 0.06739761367300871 
0.01749475157452764 0.15465360391882435 0.20223932820153953 0.47795661301609516 0.14765570328901328 
0.023853211009174313 0.1706422018348624 0.1779816513761468 0.3577981651376147 0.26972477064220185 
0.033093525179856115 0.22014388489208633 0.17697841726618704 0.33237410071942447 0.23741007194244604 
0.01468189233278956 0.12039151712887439 0.22218597063621534 0.4760195758564437 0.166721044045677 
0.008156606851549755 0.09733550842849374 0.12561174551386622 0.533442088091354 0.23545405111473627 
0.022035676810073453 0.10598111227701994 0.07240293809024134 0.33683105981112277 0.4627492130115425 
0.21904761904761905 0.14285714285714285 0.06666666666666667 0.3142857142857143 0.2571428571428571 
0.10679611650485436 0.13915857605177995 0.11326860841423948 0.4110032362459547 0.2297734627831715 
0.04568527918781726 0.09644670050761421 0.09644670050761421 0.4010152284263959 0.3604060913705584 
0.0647887323943662 0.08732394366197183 0.09295774647887324 0.16619718309859155 0.5887323943661972 
0.15254237288135594 0.23163841807909605 0.12994350282485875 0.23163841807909605 0.2542372881355932 
0.05242718446601942 0.1262135922330097 0.23106796116504855 0.3048543689320388 0.2854368932038835 
0.019955654101995565 0.07317073170731707 0.1130820399113082 0.4811529933481153 0.31263858093126384 
0.04654088050314465 0.11949685534591195 0.08176100628930817 0.25534591194968553 0.4968553459119497 
0.05726872246696035 0.2422907488986784 0.11013215859030837 0.29515418502202645 0.29515418502202645 
0.022364217252396165 0.09904153354632587 0.19914802981895632 0.4483493077742279 0.23109691160809373 
0.01253616200578592 0.08775313404050145 0.09546769527483125 0.446480231436837 0.35776277724204436 
0.013250194855806703 0.0646921278254092 0.060015588464536244 0.2969602494154326 0.5650818394388153 
0.05191873589164785 0.10609480812641084 0.0835214446952596 0.255079006772009 0.5033860045146726 
0.013320177602368031 0.06561420818944252 0.12777503700049334 0.3764183522446966 0.4168722249629995 
0.007548669050456893 0.04648390941597139 0.0687326181962654 0.3913388955105284 0.4858959078267779 
0.006549646319098768 0.03694000523971706 0.04584752423369138 0.24128897039559863 0.6693738538118942 
</TABLE>
</DEFINITION>
<DEFINITION>
<FOR>pixel2</FOR>
<GIVEN>pixel0</GIVEN>
<GIVEN>pixel3</GIVEN>
<GIVEN>pixel4</GIVEN>
<TABLE>
0.1332836932241251 0.6896500372300819 0.16872673119880863 0.006403574087862993 0.00193596425912137 
0.03739105988192297 0.5153219004779308 0.41973573235872924 0.019398369412426203 0.008152937868990722 
0.03896103896103896 0.35064935064935066 0.5064935064935064 0.06493506493506493 0.03896103896103896 
0.18518518518518517 0.4074074074074074 0.18518518518518517 0.1111111111111111 0.1111111111111111 
0.04994192799070848 0.454123112659698 0.4610917537746806 0.024390243902439025 0.010452961672473868 
0.022433718558803536 0.29979605710401086 0.6152277362338545 0.04962610469068661 0.01291638341264446 
0.018867924528301886 0.39622641509433965 0.4339622641509434 0.1320754716981132 0.018867924528301886 
0.04 0.12 0.52 0.2 0.12 
0.1232876712328767 0.4794520547945205 0.2876712328767123 0.0958904109589041 0.0136986301369863 
0.07368421052631578 0.28421052631578947 0.45263157894736844 0.1368421052631579 0.05263157894736842 
0.07692307692307693 0.23076923076923078 0.38461538461538464 0.23076923076923078 0.07692307692307693 
0.05263157894736842 0.15789473684210525 0.5789473684210527 0.15789473684210525 0.05263157894736842 
0.12 0.44 0.36 0.04 0.04 
0.034482758620689655 0.3793103448275862 0.3793103448275862 0.10344827586206896 0.10344827586206896 
0.1111111111111111 0.1111111111111111 0.5555555555555556 0.1111111111111111 0.1111111111111111 
0.2 0.2 0.2 0.2 0.2 
0.0273224043715847 0.21311475409836064 0.6502732240437158 0.08196721311475409 0.0273224043715847 
0.011378002528445006 0.26000842815002106 0.6342182890855457 0.08301727770754319 0.011378002528445006 
0.015015015015015015 0.23723723723723725 0.5255255255255256 0.14114114114114115 0.08108108108108109 
0.06870229007633588 0.20610687022900764 0.45038167938931295 0.1450381679389313 0.1297709923664122 
0.005870841487279843 0.2054794520547945 0.6908023483365949 0.07240704500978473 0.025440313111545987 
0.0012715984740818312 0.08175630189243772 0.7901114518662578 0.1134714638342434 0.01338918393297928 
0.001651073197578426 0.040176114474408366 0.6378646119977985 0.2746285085305449 0.04567969179966978 
0.003194888178913738 0.07348242811501597 0.5335463258785943 0.24600638977635783 0.14376996805111822 
0.019867549668874173 0.12582781456953643 0.4966887417218543 0.23178807947019867 0.12582781456953643 
0.0016750418760469012 0.05058626465661641 0.5403685092127303 0.3507537688442211 0.05661641541038526 
9.891196834817012E-4 0.028684470820969338 0.410484668644906 0.4638971315529179 0.09594460929772503 
0.005128205128205128 0.02564102564102564 0.3435897435897436 0.37435897435897436 0.2512820512820513 
0.034482758620689655 0.2413793103448276 0.3103448275862069 0.2413793103448276 0.1724137931034483 
0.006896551724137931 0.1310344827586207 0.33793103448275863 0.18620689655172415 0.33793103448275863 
0.013333333333333334 0.09333333333333334 0.36 0.28 0.25333333333333335 
0.01694915254237288 0.0847457627118644 0.288135593220339 0.423728813559322 0.1864406779661017 
0.07692307692307693 0.07692307692307693 0.23076923076923078 0.23076923076923078 0.38461538461538464 
0.015384615384615385 0.07692307692307693 0.35384615384615387 0.4461538461538462 0.1076923076923077 
0.013333333333333334 0.09333333333333334 0.30666666666666664 0.38666666666666666 0.2 
0.015384615384615385 0.13846153846153847 0.35384615384615387 0.26153846153846155 0.23076923076923078 
0.05263157894736842 0.15789473684210525 0.15789473684210525 0.47368421052631576 0.15789473684210525 
0.006423982869379015 0.027837259100642397 0.42184154175588867 0.4346895074946467 0.10920770877944326 
0.0029615004935834156 0.02665350444225074 0.49654491609081935 0.3464955577492596 0.12734452122408688 
0.002028397565922921 0.02231237322515213 0.44016227180527384 0.3509127789046653 0.1845841784989858 
0.04 0.04 0.36 0.52 0.04 
6.333122229259025E-4 0.015832805573147563 0.31982267257758074 0.5516149461684611 0.11209626345788473 
2.1867483052700635E-4 0.009840367373715285 0.24032363874917997 0.5722720314891756 0.17734528755740214 
6.169031462060457E-4 0.012954966070326958 0.1782850092535472 0.5077112893275756 0.3004318322023442 
0.04 0.04 0.2 0.2 0.52 
0.0033222591362126247 0.016611295681063124 0.1893687707641196 0.3554817275747508 0.43521594684385384 
0.0020876826722338203 0.018789144050104383 0.1649269311064718 0.4488517745302714 0.3653444676409186 
0.00911854103343465 0.00911854103343465 0.10638297872340426 0.3799392097264438 0.49544072948328266 
0.14285714285714285 0.14285714285714285 0.14285714285714285 0.14285714285714285 0.42857142857142855 
0.05263157894736842 0.05263157894736842 0.05263157894736842 0.2631578947368421 0.5789473684210527 
0.047619047619047616 0.047619047619047616 0.23809523809523808 0.3333333333333333 0.3333333333333333 
0.02857142857142857 0.08571428571428572 0.08571428571428572 0.2 0.6 
0.14285714285714285 0.14285714285714285 0.14285714285714285 0.14285714285714285 0.42857142857142855 
0.02127659574468085 0.02127659574468085 0.10638297872340426 0.2765957446808511 0.574468085106383 
0.014925373134328358 0.04477611940298507 0.19402985074626866 0.373134328358209 0.373134328358209 
0.0035587188612099642 0.03202846975088968 0.21708185053380782 0.33807829181494664 0.4092526690391459 
0.14285714285714285 0.14285714285714285 0.14285714285714285 0.14285714285714285 0.42857142857142855 
0.012345679012345678 0.037037037037037035 0.13580246913580246 0.30864197530864196 0.5061728395061729 
0.0021321961620469083 0.010660980810234541 0.11300639658848614 0.44562899786780386 0.42857142857142855 
0.0014278914802475012 0.0033317467872441696 0.09186101856258924 0.3622084721561161 0.5411708710138029 
0.03225806451612903 0.03225806451612903 0.0967741935483871 0.2903225806451613 0.5483870967741935 
0.004975124378109453 0.004975124378109453 0.07462686567164178 0.2736318407960199 0.6417910447761194 
0.0013175230566534915 0.006587615283267457 0.10144927536231885 0.2727272727272727 0.6179183135704874 
1.7448961786773688E-4 0.0033153027394870007 0.03611935089862153 0.14639678939103123 0.8139940673529925 
</TABLE>
</DEFINITION>
<DEFINITION>
<FOR>pixel3</FOR>
<GIVEN>pixel0</GIVEN>
<GIVEN>pixel30</GIVEN>
<GIVEN>pixel31</GIVEN>
<TABLE>
0.9754335260115607 0.02167630057803468 0.001445086705202312 0.001445086705202312 
0.9051282051282051 0.07435897435897436 0.017948717948717947 0.002564102564102564 
0.8529411764705882 0.08823529411764706 0.029411764705882353 0.029411764705882353 
0.5 0.16666666666666666 0.16666666666666666 0.16666666666666666 
0.5 0.16666666666666666 0.16666666666666666 0.16666666666666666 
0.9158496732026143 0.07598039215686274 0.005718954248366013 0.0024509803921568627 
0.9076332429990966 0.08965672990063234 0.0020325203252032522 6.775067750677507E-4 
0.747148288973384 0.2338403041825095 0.013307984790874524 0.005703422053231939 
0.45 0.35 0.15 0.05 
0.16666666666666666 0.5 0.16666666666666666 0.16666666666666666 
0.4876543209876543 0.46296296296296297 0.043209876543209874 0.006172839506172839 
0.5835084033613446 0.3944327731092437 0.019432773109243698 0.0026260504201680674 
0.5913793103448276 0.38448275862068965 0.021264367816091954 0.0028735632183908046 
0.5159574468085106 0.3776595744680851 0.06914893617021277 0.03723404255319149 
0.20588235294117646 0.5588235294117647 0.20588235294117646 0.029411764705882353 
0.125 0.375 0.375 0.125 
0.2777777777777778 0.42592592592592593 0.2037037037037037 0.09259259259259259 
0.25 0.5131578947368421 0.14473684210526316 0.09210526315789473 
0.2361111111111111 0.4861111111111111 0.2638888888888889 0.013888888888888888 
0.6875 0.1875 0.0625 0.0625 
0.16666666666666666 0.16666666666666666 0.16666666666666666 0.5 
0.5 0.1 0.3 0.1 
0.0625 0.6875 0.0625 0.1875 
0.21428571428571427 0.07142857142857142 0.35714285714285715 0.35714285714285715 
0.2692307692307692 0.19230769230769232 0.2692307692307692 0.2692307692307692 
0.6111111111111112 0.3253968253968254 0.05555555555555555 0.007936507936507936 
0.5703125 0.3671875 0.0078125 0.0546875 
0.796875 0.171875 0.015625 0.015625 
0.6428571428571429 0.21428571428571427 0.07142857142857142 0.07142857142857142 
0.7 0.1 0.1 0.1 
0.4019607843137255 0.5 0.029411764705882353 0.06862745098039216 
0.4491525423728814 0.5056497175141242 0.04048964218455744 0.004708097928436911 
0.5778985507246377 0.375 0.04528985507246377 0.0018115942028985507 
0.46774193548387094 0.46774193548387094 0.04838709677419355 0.016129032258064516 
0.4230769230769231 0.34615384615384615 0.19230769230769232 0.038461538461538464 
0.2391304347826087 0.41304347826086957 0.2391304347826087 0.10869565217391304 
0.14540540540540542 0.778918918918919 0.06756756756756757 0.008108108108108109 
0.09796554252199413 0.7944464809384164 0.10529692082111437 0.0022910557184750734 
0.0809024612579763 0.6829990884229717 0.22903372835004557 0.007064721969006381 
0.15145228215767634 0.6203319502074689 0.2012448132780083 0.026970954356846474 
0.5 0.16666666666666666 0.16666666666666666 0.16666666666666666 
0.06 0.3 0.5 0.14 
0.026881720430107527 0.35304659498207885 0.553763440860215 0.06630824372759857 
0.043229166666666666 0.4421875 0.4973958333333333 0.0171875 
0.03185328185328185 0.4951737451737452 0.44884169884169883 0.02413127413127413 
0.25 0.25 0.25 0.25 
0.125 0.125 0.375 0.375 
0.027777777777777776 0.25 0.25 0.4722222222222222 
0.025 0.375 0.225 0.375 
0.05963302752293578 0.24311926605504589 0.42660550458715596 0.2706422018348624 
0.4166666666666667 0.25 0.25 0.08333333333333333 
0.5625 0.1875 0.1875 0.0625 
0.2777777777777778 0.5 0.16666666666666666 0.05555555555555555 
0.625 0.125 0.125 0.125 
0.3 0.5 0.1 0.1 
0.16666666666666666 0.16666666666666666 0.16666666666666666 0.5 
0.25 0.4318181818181818 0.1590909090909091 0.1590909090909091 
0.22413793103448276 0.39655172413793105 0.3620689655172414 0.017241379310344827 
0.41304347826086957 0.32608695652173914 0.1956521739130435 0.06521739130434782 
0.34375 0.15625 0.46875 0.03125 
0.16666666666666666 0.16666666666666666 0.16666666666666666 0.5 
0.07954545454545454 0.2840909090909091 0.48863636363636365 0.14772727272727273 
0.04824561403508772 0.3669590643274854 0.5219298245614035 0.06286549707602339 
0.022264631043257 0.3008905852417303 0.6507633587786259 0.02608142493638677 
0.05018587360594796 0.4739776951672863 0.42936802973977695 0.046468401486988845 
0.16666666666666666 0.16666666666666666 0.16666666666666666 0.5 
0.041666666666666664 0.2916666666666667 0.5416666666666666 0.125 
0.026041666666666668 0.140625 0.546875 0.2864583333333333 
0.001926040061633282 0.10670261941448382 0.8285824345146379 0.062788906009245 
0.0037643932683790967 0.12112488928255093 0.7734720992028343 0.1016386182462356 
0.25 0.25 0.25 0.25 
0.25 0.25 0.25 0.25 
0.07142857142857142 0.07142857142857142 0.07142857142857142 0.7857142857142857 
0.02 0.14 0.14 0.7 
0.0049504950495049506 0.06105610561056106 0.5099009900990099 0.4240924092409241 
0.16666666666666666 0.5 0.16666666666666666 0.16666666666666666 
0.5 0.1 0.3 0.1 
0.4166666666666667 0.08333333333333333 0.4166666666666667 0.08333333333333333 
0.25 0.25 0.25 0.25 
0.125 0.125 0.375 0.375 
0.16666666666666666 0.16666666666666666 0.16666666666666666 0.5 
0.20833333333333334 0.20833333333333334 0.375 0.20833333333333334 
0.2916666666666667 0.041666666666666664 0.5416666666666666 0.125 
0.3 0.5 0.1 0.1 
0.34615384615384615 0.34615384615384615 0.038461538461538464 0.2692307692307692 
0.16666666666666666 0.16666666666666666 0.16666666666666666 0.5 
0.03333333333333333 0.23333333333333334 0.23333333333333334 0.5 
0.051470588235294115 0.19852941176470587 0.375 0.375 
0.027472527472527472 0.19230769230769232 0.46703296703296704 0.3131868131868132 
0.03985507246376811 0.3079710144927536 0.4384057971014493 0.213768115942029 
0.25 0.25 0.25 0.25 
0.08333333333333333 0.08333333333333333 0.25 0.5833333333333334 
0.011111111111111112 0.1 0.3 0.5888888888888889 
0.0032679738562091504 0.042483660130718956 0.4477124183006536 0.5065359477124183 
0.0029956427015250544 0.04003267973856209 0.44907407407407407 0.5078976034858388 
0.25 0.25 0.25 0.25 
0.25 0.25 0.25 0.25 
0.038461538461538464 0.038461538461538464 0.11538461538461539 0.8076923076923077 
0.017857142857142856 0.05357142857142857 0.16071428571428573 0.7678571428571429 
0.00101010101010101 0.009494949494949495 0.10686868686868686 0.8826262626262626 
</TABLE>
</DEFINITION>
<DEFINITION>
<FOR>pixel4</FOR>
<GIVEN>pixel31</GIVEN>
<GIVEN>pixel30</GIVEN>
<GIVEN>pixel16</GIVEN>
<TABLE>
0.8441358024691358 0.13734567901234568 0.010802469135802469 0.007716049382716049 
0.9247191011235955 0.06629213483146068 0.0033707865168539327 0.0056179775280898875 
0.7545454545454545 0.21515151515151515 0.015151515151515152 0.015151515151515152 
0.75 0.18877551020408162 0.025510204081632654 0.03571428571428571 
0.69375 0.25625 0.04375 0.00625 
0.8031914893617021 0.18617021276595744 0.005319148936170213 0.005319148936170213 
0.8890675241157556 0.09807073954983923 0.001607717041800643 0.011254019292604502 
0.7366412213740458 0.22519083969465647 0.026717557251908396 0.011450381679389313 
0.6159420289855072 0.34057971014492755 0.036231884057971016 0.007246376811594203 
0.7196969696969697 0.2196969696969697 0.03787878787878788 0.022727272727272728 
0.5 0.22727272727272727 0.22727272727272727 0.045454545454545456 
0.6029411764705882 0.27941176470588236 0.04411764705882353 0.07352941176470588 
0.5689655172413793 0.3620689655172414 0.017241379310344827 0.05172413793103448 
0.5869565217391305 0.2826086956521739 0.10869565217391304 0.021739130434782608 
0.35714285714285715 0.4523809523809524 0.11904761904761904 0.07142857142857142 
0.25 0.25 0.25 0.25 
0.25 0.25 0.25 0.25 
0.5 0.16666666666666666 0.16666666666666666 0.16666666666666666 
0.16666666666666666 0.5 0.16666666666666666 0.16666666666666666 
0.375 0.375 0.125 0.125 
0.25 0.25 0.25 0.25 
0.5 0.16666666666666666 0.16666666666666666 0.16666666666666666 
0.25 0.25 0.25 0.25 
0.25 0.25 0.25 0.25 
0.25 0.25 0.25 0.25 
0.4868421052631579 0.40789473684210525 0.09210526315789473 0.013157894736842105 
0.5324074074074074 0.38425925925925924 0.06018518518518518 0.023148148148148147 
0.4537037037037037 0.4537037037037037 0.06481481481481481 0.027777777777777776 
0.32142857142857145 0.5357142857142857 0.10714285714285714 0.03571428571428571 
0.359375 0.390625 0.203125 0.046875 
0.6839285714285714 0.29464285714285715 0.01607142857142857 0.005357142857142857 
0.6365478119935171 0.3585899513776337 0.003646677471636953 0.0012155591572123178 
0.46116504854368934 0.5263522884882108 0.0062413314840499305 0.0062413314840499305 
0.35139318885448917 0.5835913312693498 0.04179566563467492 0.02321981424148607 
0.3923766816143498 0.5224215246636771 0.04708520179372197 0.03811659192825112 
0.3317757009345794 0.6401869158878505 0.014018691588785047 0.014018691588785047 
0.39555921052631576 0.5863486842105263 0.013980263157894737 0.004111842105263158 
0.27554438860971525 0.7010050251256281 0.010887772194304857 0.01256281407035176 
0.22934472934472935 0.7364672364672364 0.024216524216524215 0.009971509971509971 
0.18727272727272729 0.7036363636363636 0.06363636363636363 0.045454545454545456 
0.25 0.25 0.25 0.25 
0.25 0.5833333333333334 0.08333333333333333 0.08333333333333333 
0.38636363636363635 0.4772727272727273 0.11363636363636363 0.022727272727272728 
0.1 0.5666666666666667 0.23333333333333334 0.1 
0.24074074074074073 0.42592592592592593 0.12962962962962962 0.2037037037037037 
0.25 0.25 0.25 0.25 
0.16666666666666666 0.16666666666666666 0.5 0.16666666666666666 
0.125 0.625 0.125 0.125 
0.25 0.25 0.25 0.25 
0.375 0.125 0.375 0.125 
0.25 0.08333333333333333 0.25 0.4166666666666667 
0.20833333333333334 0.5416666666666666 0.20833333333333334 0.041666666666666664 
0.21875 0.59375 0.09375 0.09375 
0.1 0.43333333333333335 0.23333333333333334 0.23333333333333334 
0.08823529411764706 0.5 0.20588235294117646 0.20588235294117646 
0.18627450980392157 0.7156862745098039 0.08823529411764706 0.00980392156862745 
0.10576923076923077 0.8108974358974359 0.060897435897435896 0.022435897435897436 
0.08630952380952381 0.8065476190476191 0.09226190476190477 0.01488095238095238 
0.07653061224489796 0.7806122448979592 0.11734693877551021 0.025510204081632654 
0.06880733944954129 0.6834862385321101 0.16055045871559634 0.0871559633027523 
0.1 0.8142857142857143 0.06507936507936508 0.020634920634920634 
0.05174686882003955 0.9021094264996704 0.03724456163480554 0.008899143045484509 
0.05146693187468921 0.9057682744903033 0.037543510691198406 0.00522128294380905 
0.02818239392020266 0.9053198226725776 0.05288157061431285 0.013616212792906902 
0.03913373860182371 0.8043313069908815 0.12044072948328267 0.03609422492401216 
0.16666666666666666 0.6333333333333333 0.16666666666666666 0.03333333333333333 
0.125 0.5808823529411765 0.19852941176470587 0.09558823529411764 
0.12755102040816327 0.6479591836734694 0.1683673469387755 0.05612244897959184 
0.08928571428571429 0.7083333333333334 0.19642857142857142 0.005952380952380952 
0.0641025641025641 0.6435897435897436 0.21794871794871795 0.07435897435897436 
0.125 0.625 0.125 0.125 
0.28125 0.34375 0.15625 0.21875 
0.05 0.55 0.15 0.25 
0.0625 0.6875 0.1875 0.0625 
0.05 0.55 0.25 0.15 
0.375 0.375 0.125 0.125 
0.125 0.375 0.375 0.125 
0.16666666666666666 0.5 0.16666666666666666 0.16666666666666666 
0.25 0.25 0.25 0.25 
0.3 0.5 0.1 0.1 
0.1 0.5 0.3 0.1 
0.16666666666666666 0.5 0.1 0.23333333333333334 
0.045454545454545456 0.3181818181818182 0.3181818181818182 0.3181818181818182 
0.125 0.2916666666666667 0.2916666666666667 0.2916666666666667 
0.05357142857142857 0.5178571428571429 0.30357142857142855 0.125 
0.04885057471264368 0.5258620689655172 0.3994252873563218 0.02586206896551724 
0.015 0.547 0.397 0.041 
0.01390728476821192 0.6350993377483444 0.29602649006622517 0.05496688741721854 
0.018096514745308313 0.589142091152815 0.34785522788203754 0.044906166219839144 
0.009576612903225807 0.4682459677419355 0.4430443548387097 0.07913306451612903 
0.02577319587628866 0.5618556701030928 0.31443298969072164 0.0979381443298969 
0.02365930599369085 0.47791798107255523 0.41798107255520506 0.0804416403785489 
0.0051440329218107 0.5092592592592593 0.43106995884773663 0.05452674897119342 
0.010586319218241042 0.5154723127035831 0.4226384364820847 0.05130293159609121 
0.014438502673796792 0.4443850267379679 0.44331550802139036 0.09786096256684491 
0.375 0.125 0.125 0.375 
0.10714285714285714 0.25 0.32142857142857145 0.32142857142857145 
0.10714285714285714 0.32142857142857145 0.32142857142857145 0.25 
0.125 0.2916666666666667 0.2916666666666667 0.2916666666666667 
0.039473684210526314 0.35526315789473684 0.35526315789473684 0.25 
0.25 0.25 0.25 0.25 
0.25 0.5833333333333334 0.08333333333333333 0.08333333333333333 
0.125 0.375 0.375 0.125 
0.125 0.625 0.125 0.125 
0.16666666666666666 0.16666666666666666 0.16666666666666666 0.5 
0.07142857142857142 0.35714285714285715 0.35714285714285715 0.21428571428571427 
0.21428571428571427 0.21428571428571427 0.35714285714285715 0.21428571428571427 
0.07142857142857142 0.35714285714285715 0.35714285714285715 0.21428571428571427 
0.08333333333333333 0.08333333333333333 0.4166666666666667 0.4166666666666667 
0.025 0.175 0.175 0.625 
0.013888888888888888 0.041666666666666664 0.4583333333333333 0.4861111111111111 
0.04411764705882353 0.19117647058823528 0.35784313725490197 0.4068627450980392 
0.0049504950495049506 0.15346534653465346 0.4504950495049505 0.3910891089108911 
0.003968253968253968 0.15476190476190477 0.376984126984127 0.4642857142857143 
0.004966887417218543 0.11092715231788079 0.35927152317880795 0.5248344370860927 
0.01201923076923077 0.15144230769230768 0.2956730769230769 0.5408653846153846 
0.006097560975609756 0.11062717770034843 0.37369337979094075 0.509581881533101 
0.011659807956104253 0.11591220850480109 0.41906721536351166 0.453360768175583 
0.005926724137931034 0.11045258620689655 0.46282327586206895 0.4207974137931034 
0.0025011368804001817 0.08117326057298772 0.3726693951796271 0.543656207366985 
0.0211864406779661 0.07203389830508475 0.09745762711864407 0.809322033898305 
0.0189873417721519 0.04008438818565401 0.07383966244725738 0.8670886075949367 
0.013513513513513514 0.05555555555555555 0.17567567567567569 0.7552552552552553 
0.0033783783783783786 0.06418918918918919 0.10247747747747747 0.829954954954955 
0.0031073446327683617 0.04209039548022599 0.11384180790960452 0.8409604519774011 
</TABLE>
</DEFINITION>
<DEFINITION>
<FOR>pixel5</FOR>
<GIVEN>pixel6</GIVEN>
<GIVEN>pixel1</GIVEN>
<TABLE>
0.9837067209775967 0.014256619144602852 0.002036659877800407 
0.9871175523349437 0.008051529790660225 0.004830917874396135 
0.9766763848396501 0.014577259475218658 0.008746355685131196 
0.9887429643527205 0.009380863039399626 0.001876172607879925 
0.9758308157099698 0.021148036253776436 0.0030211480362537764 
0.9060493409935789 0.0834741466711727 0.010476512335248395 
0.8477371357718537 0.13477991320520769 0.017482951022938623 
0.7989444584066349 0.18019602915305352 0.020859512440311635 
0.80878461809843 0.15470100546833657 0.036514376433233374 
0.8064329179947841 0.13126629962329758 0.06230078238191829 
0.2663316582914573 0.6013400335008375 0.1323283082077052 
0.19443478260869565 0.6980869565217391 0.10747826086956522 
0.14597544338335608 0.7298772169167803 0.12414733969986358 
0.1638700464119957 0.6351303106033559 0.20099964298464834 
0.21896162528216703 0.4928517682468021 0.28818660647103084 
0.06166868198307134 0.26481257557436516 0.6735187424425635 
0.04910033546813053 0.2400121988411101 0.7108874656907593 
0.02622647331070657 0.21258870718913916 0.7611848195001543 
0.03382987609633858 0.15160796324655437 0.8145621606571071 
0.027881318025943045 0.08781869688385269 0.8842999850902042 
</TABLE>
</DEFINITION>
<DEFINITION>
<FOR>pixel6</FOR>
<GIVEN>pixel28</GIVEN>
<GIVEN>pixel20</GIVEN>
<GIVEN>pixel33</GIVEN>
<TABLE>
0.38636363636363635 0.5765993265993266 0.01936026936026936 0.017676767676767676 
0.393048128342246 0.5374331550802139 0.02406417112299465 0.045454545454545456 
0.3860759493670886 0.5126582278481012 0.056962025316455694 0.04430379746835443 
0.49 0.31 0.05 0.15 
0.06790992258972554 0.8631245601688952 0.04257565095003519 0.026389866291344124 
0.07818532818532818 0.7866795366795367 0.08976833976833977 0.045366795366795366 
0.07649253731343283 0.7518656716417911 0.0914179104477612 0.08022388059701492 
0.06333333333333334 0.7566666666666667 0.06333333333333334 0.11666666666666667 
0.037204450625869266 0.6589012517385258 0.14638386648122392 0.1575104311543811 
0.024752475247524754 0.5132013201320133 0.2403740374037404 0.22167216721672167 
0.024752475247524754 0.4188118811881188 0.16336633663366337 0.3930693069306931 
0.021739130434782608 0.3458498023715415 0.12845849802371542 0.5039525691699605 
0.2329059829059829 0.5747863247863247 0.11324786324786325 0.07905982905982906 
0.20833333333333334 0.592391304347826 0.1431159420289855 0.05615942028985507 
0.19086021505376344 0.5994623655913979 0.12634408602150538 0.08333333333333333 
0.25 0.5462962962962963 0.06481481481481481 0.1388888888888889 
0.025 0.6801282051282052 0.20448717948717948 0.09038461538461538 
0.016441821247892074 0.7086846543001686 0.18507588532883643 0.08979763912310287 
0.05577956989247312 0.605510752688172 0.20900537634408603 0.1297043010752688 
0.06367924528301887 0.6863207547169812 0.09669811320754718 0.15330188679245282 
0.01127141568981064 0.4170423805229937 0.28990081154192965 0.281785392245266 
0.00868544600938967 0.3823943661971831 0.3415492957746479 0.26737089201877934 
0.012023460410557185 0.3164222873900293 0.2906158357771261 0.3809384164222874 
0.004032258064516129 0.29758064516129035 0.1620967741935484 0.5362903225806451 
0.08461538461538462 0.5 0.19230769230769232 0.2230769230769231 
0.11666666666666667 0.5611111111111111 0.15 0.17222222222222222 
0.18571428571428572 0.4714285714285714 0.18571428571428572 0.15714285714285714 
0.23846153846153847 0.46923076923076923 0.11538461538461539 0.17692307692307693 
0.023809523809523808 0.42063492063492064 0.21428571428571427 0.3412698412698413 
0.028 0.48933333333333334 0.236 0.24666666666666667 
0.021712158808933003 0.4795285359801489 0.23387096774193547 0.2648883374689826 
0.030035335689045935 0.5353356890459364 0.16784452296819788 0.2667844522968198 
0.008620689655172414 0.25 0.16379310344827586 0.5775862068965517 
0.004629629629629629 0.2175925925925926 0.23743386243386244 0.5403439153439153 
0.0014459224985540775 0.2032967032967033 0.186524002313476 0.6087333718912666 
0.004156769596199525 0.22149643705463182 0.15380047505938244 0.6205463182897862 
0.1375 0.4125 0.2375 0.2125 
0.08870967741935484 0.4596774193548387 0.1693548387096774 0.28225806451612906 
0.1125 0.5125 0.1375 0.2375 
0.16163793103448276 0.41594827586206895 0.07543103448275862 0.34698275862068967 
0.026717557251908396 0.4312977099236641 0.11068702290076336 0.4312977099236641 
0.01948051948051948 0.4523809523809524 0.1277056277056277 0.4004329004329004 
0.020695364238410598 0.429635761589404 0.15811258278145696 0.39155629139072845 
0.01659959758551308 0.37474849094567403 0.12424547283702213 0.4844064386317907 
0.011111111111111112 0.18444444444444444 0.08666666666666667 0.7177777777777777 
0.010688836104513063 0.18883610451306412 0.13657957244655583 0.663895486935867 
0.00684931506849315 0.15825522710886805 0.10490266762797404 0.7299927901946648 
0.005022683084899547 0.13010369410239792 0.08635774465327284 0.7785158781594297 
</TABLE>
</DEFINITION>
<DEFINITION>
<FOR>pixel7</FOR>
<GIVEN>pixel5</GIVEN>
<GIVEN>pixel6</GIVEN>
<TABLE>
0.9995610184372257 4.389815627743635E-4 
0.9684478117834713 0.03155218821652876 
0.4428891377379619 0.5571108622620381 
0.1643646408839779 0.835635359116022 
0.8846153846153846 0.11538461538461539 
0.3821788040260509 0.6178211959739491 
0.01796313651983755 0.9820368634801625 
0.009198813056379823 0.9908011869436202 
0.8333333333333334 0.16666666666666666 
0.1913946587537092 0.8086053412462908 
0.003117206982543641 0.9968827930174564 
0.001225633243842652 0.9987743667561574 
</TABLE>
</DEFINITION>
<DEFINITION>
<FOR>pixel8</FOR>
<GIVEN>pixel6</GIVEN>
<GIVEN>pixel20</GIVEN>
<GIVEN>pixel7</GIVEN>
<TABLE>
0.9858823529411764 0.013333333333333334 7.84313725490196E-4 
0.6 0.2 0.2 
0.9669172932330827 0.031578947368421054 0.0015037593984962407 
0.3333333333333333 0.3333333333333333 0.3333333333333333 
0.9407008086253369 0.05660377358490566 0.0026954177897574125 
0.3333333333333333 0.3333333333333333 0.3333333333333333 
0.4425689584191025 0.543845203787567 0.013585837793330589 
0.09787234042553192 0.8893617021276595 0.01276595744680851 
0.24171679070241614 0.7357528800081558 0.022530329289428077 
0.03746877601998335 0.9050791007493755 0.05745212323064113 
0.10084716258558662 0.8314958802367414 0.06765695717767205 
0.0223433242506812 0.8365122615803815 0.14114441416893733 
0.02702702702702703 0.35135135135135137 0.6216216216216216 
0.007058823529411765 0.4541176470588235 0.5388235294117647 
0.00392156862745098 0.28627450980392155 0.7098039215686275 
0.00209819555182543 0.36382710868652957 0.634074695761645 
0.0016 0.1712 0.8272 
1.6450074025333114E-4 0.21105444974502385 0.7887810495147228 
0.06666666666666667 0.2 0.7333333333333333 
0.0017953321364452424 0.06642728904847396 0.9317773788150808 
0.02127659574468085 0.10638297872340426 0.8723404255319149 
2.957704821058858E-4 0.03164744158532978 0.9680567879325643 
0.008695652173913044 0.0782608695652174 0.9130434782608695 
5.839416058394161E-5 0.008934306569343065 0.991007299270073 
</TABLE>
</DEFINITION>
<DEFINITION>
<FOR>pixel9</FOR>
<GIVEN>pixel5</GIVEN>
<GIVEN>pixel6</GIVEN>
<GIVEN>pixel8</GIVEN>
<TABLE>
0.7168539325842697 0.2746067415730337 0.00853932584269663 
0.543859649122807 0.43859649122807015 0.017543859649122806 
0.3333333333333333 0.3333333333333333 0.3333333333333333 
0.195243757431629 0.7950059453032104 0.009750297265160524 
0.048519134775374374 0.9377038269550749 0.013777038269550748 
0.05363528009535161 0.9165673420738975 0.029797377830750895 
0.14285714285714285 0.42857142857142855 0.42857142857142855 
0.012658227848101266 0.9645569620253165 0.02278481012658228 
0.03666427030913012 0.9396117900790798 0.02372393961179008 
0.3333333333333333 0.3333333333333333 0.3333333333333333 
0.04 0.6 0.36 
0.07254623044096728 0.8748221906116643 0.05263157894736842 
0.037037037037037035 0.48148148148148145 0.48148148148148145 
0.3333333333333333 0.3333333333333333 0.3333333333333333 
0.3333333333333333 0.3333333333333333 0.3333333333333333 
0.006993006993006993 0.4825174825174825 0.5104895104895105 
3.332222592469177E-4 0.6814395201599467 0.3182272575808064 
0.004149377593360996 0.6680497925311203 0.3278008298755187 
0.2 0.6 0.2 
0.001866832607342875 0.6104542626011201 0.38767890479153705 
2.0846362309776944E-4 0.6347717323327079 0.36501980404419426 
0.3333333333333333 0.3333333333333333 0.3333333333333333 
0.014084507042253521 0.6338028169014085 0.352112676056338 
0.0015137753557372085 0.563427187405389 0.43505903723887374 
0.2 0.6 0.2 
0.2 0.6 0.2 
0.3333333333333333 0.3333333333333333 0.3333333333333333 
0.012658227848101266 0.06329113924050633 0.9240506329113924 
0.0019569471624266144 0.08806262230919765 0.9099804305283757 
0.01098901098901099 0.14285714285714285 0.8461538461538461 
0.3333333333333333 0.3333333333333333 0.3333333333333333 
0.00186219739292365 0.07635009310986965 0.9217877094972067 
9.337068160597573E-4 0.047619047619047616 0.9514472455648926 
0.3333333333333333 0.3333333333333333 0.3333333333333333 
0.004524886877828055 0.10407239819004525 0.8914027149321267 
5.9112135721463615E-5 0.033280132411184014 0.9666607554530945 
</TABLE>
</DEFINITION>
<DEFINITION>
<FOR>pixel10</FOR>
<GIVEN>pixel11</GIVEN>
<TABLE>
0.7306428906616612 0.2660722665415298 0.002346316283435007 4.692632566870014E-4 4.692632566870014E-4 
0.0064314270815226835 0.6749025353231854 0.30381664224876465 0.014576245933798516 2.731494127287626E-4 
7.853608733212911E-5 0.013115526584465562 0.2625461399513076 0.6492578339747114 0.0750019634021833 
4.338394793926247E-4 4.338394793926247E-4 0.0021691973969631237 0.028199566160520606 0.968763557483731 
</TABLE>
</DEFINITION>
<DEFINITION>
<FOR>pixel11</FOR>
<GIVEN>emotion</GIVEN>
<GIVEN>pixel2</GIVEN>
<TABLE>
0.21103896103896103 0.6525974025974026 0.11363636363636363 0.022727272727272728 
0.05387409200968523 0.7524213075060533 0.17372881355932204 0.019975786924939468 
0.046097285067873306 0.7067307692307693 0.20107466063348417 0.046097285067873306 
0.032867132867132866 0.5979020979020979 0.30699300699300697 0.062237762237762236 
0.037601626016260166 0.5355691056910569 0.3323170731707317 0.09451219512195122 
0.08333333333333333 0.75 0.08333333333333333 0.08333333333333333 
0.019230769230769232 0.8141025641025641 0.1346153846153846 0.03205128205128205 
0.013440860215053764 0.771505376344086 0.18010752688172044 0.03494623655913978 
0.025510204081632654 0.5459183673469388 0.34183673469387754 0.08673469387755102 
0.007352941176470588 0.5073529411764706 0.34558823529411764 0.13970588235294118 
0.13291139240506328 0.6518987341772152 0.14556962025316456 0.06962025316455696 
0.05251479289940828 0.7655325443786982 0.15902366863905326 0.022928994082840236 
0.03562874251497006 0.6745508982035928 0.2410179640718563 0.04880239520958084 
0.027070063694267517 0.5748407643312102 0.3105095541401274 0.0875796178343949 
0.028735632183908046 0.5434227330779055 0.36717752234993617 0.06066411238825032 
0.14935064935064934 0.6038961038961039 0.24025974025974026 0.006493506493506494 
0.04602323503127793 0.8020554066130474 0.13181411974977658 0.020107238605898123 
0.03014397120575885 0.7856928614277144 0.16571685662867428 0.01844631073785243 
0.020388349514563107 0.7226537216828479 0.2203883495145631 0.03656957928802589 
0.018636363636363635 0.6486363636363637 0.29045454545454547 0.042272727272727274 
0.18396226415094338 0.7028301886792453 0.08018867924528301 0.0330188679245283 
0.056100217864923745 0.8131808278867102 0.11819172113289761 0.01252723311546841 
0.03249007936507937 0.7889384920634921 0.16046626984126985 0.018105158730158732 
0.027941176470588237 0.721078431372549 0.20833333333333334 0.04264705882352941 
0.039183222958057394 0.6164459161147903 0.29304635761589404 0.05132450331125828 
0.18152866242038215 0.7292993630573248 0.08598726114649681 0.0031847133757961785 
0.07129367327667611 0.7936732766761095 0.12322946175637393 0.011803588290840416 
0.035024154589371984 0.7615942028985507 0.1891304347826087 0.014251207729468598 
0.03131868131868132 0.6730769230769231 0.2653846153846154 0.03021978021978022 
0.05929721815519766 0.5658857979502196 0.33601756954612005 0.038799414348462666 
0.1323529411764706 0.6617647058823529 0.1323529411764706 0.07352941176470588 
0.044407894736842105 0.7680921052631579 0.15625 0.03125 
0.014889529298751201 0.665225744476465 0.24543707973102785 0.074447646493756 
0.012180974477958236 0.5794663573085846 0.29988399071925753 0.10846867749419954 
0.013803680981595092 0.45858895705521474 0.4187116564417178 0.10889570552147239 
</TABLE>
</DEFINITION>
<DEFINITION>
<FOR>pixel12</FOR>
<GIVEN>pixel22</GIVEN>
<GIVEN>pixel11</GIVEN>
<GIVEN>pixel13</GIVEN>
<TABLE>
0.9308050565535595 0.06453759148369927 0.004657351962741184 
0.8947368421052632 0.05263157894736842 0.05263157894736842 
0.7777777777777778 0.1111111111111111 0.1111111111111111 
0.3333333333333333 0.3333333333333333 0.3333333333333333 
0.9084466577284045 0.0838281299878695 0.007725212283725978 
0.8202567760342369 0.16633380884450785 0.013409415121255349 
0.7776012708498808 0.19777601270849882 0.024622716441620333 
0.6774193548387096 0.2903225806451613 0.03225806451612903 
0.7116843702579666 0.25948406676783003 0.028831562974203338 
0.6874135546334716 0.2835408022130014 0.029045643153526972 
0.6922556645248563 0.2789989854582347 0.02874535001690903 
0.6230031948881789 0.2715654952076677 0.10543130990415335 
0.45454545454545453 0.2727272727272727 0.2727272727272727 
0.7142857142857143 0.22448979591836735 0.061224489795918366 
0.6209150326797386 0.22875816993464052 0.1503267973856209 
0.636697247706422 0.22201834862385322 0.14128440366972478 
0.6899488926746167 0.30153321976149916 0.008517887563884156 
0.5555555555555556 0.3333333333333333 0.1111111111111111 
0.2 0.6 0.2 
0.3333333333333333 0.3333333333333333 0.3333333333333333 
0.660518404160234 0.3169740797919883 0.022507516047777686 
0.5600076321312727 0.406983400114482 0.033008967754245375 
0.4726952436876101 0.4938344098649442 0.03347034644744568 
0.6 0.36 0.04 
0.4240231548480463 0.487698986975398 0.08827785817655572 
0.42028985507246375 0.5270785659801678 0.05263157894736842 
0.38919431279620853 0.5677725118483412 0.04303317535545024 
0.3288590604026846 0.5794183445190156 0.09172259507829977 
0.23076923076923078 0.5384615384615384 0.23076923076923078 
0.38181818181818183 0.34545454545454546 0.2727272727272727 
0.3112033195020747 0.44398340248962653 0.24481327800829875 
0.3398773006134969 0.4110429447852761 0.249079754601227 
0.38461538461538464 0.38461538461538464 0.23076923076923078 
0.3333333333333333 0.3333333333333333 0.3333333333333333 
0.6 0.2 0.2 
0.3333333333333333 0.3333333333333333 0.3333333333333333 
0.1761194029850746 0.2716417910447761 0.5522388059701493 
0.11409395973154363 0.16778523489932887 0.7181208053691275 
0.09090909090909091 0.2727272727272727 0.6363636363636364 
0.14285714285714285 0.14285714285714285 0.7142857142857143 
0.058823529411764705 0.2549019607843137 0.6862745098039216 
0.19148936170212766 0.14893617021276595 0.6595744680851063 
0.057777777777777775 0.30666666666666664 0.6355555555555555 
0.015384615384615385 0.4153846153846154 0.5692307692307692 
0.3333333333333333 0.1111111111111111 0.5555555555555556 
0.16129032258064516 0.16129032258064516 0.6774193548387096 
0.037037037037037035 0.06172839506172839 0.9012345679012346 
0.057057057057057055 0.08108108108108109 0.8618618618618619 
</TABLE>
</DEFINITION>
<DEFINITION>
<FOR>pixel13</FOR>
<GIVEN>pixel14</GIVEN>
<GIVEN>pixel10</GIVEN>
<GIVEN>pixel11</GIVEN>
<TABLE>
0.9826478149100257 0.013496143958868894 0.003213367609254499 6.426735218508997E-4 
0.87890625 0.06640625 0.04296875 0.01171875 
0.25 0.25 0.25 0.25 
0.25 0.25 0.25 0.25 
0.9875886524822695 0.005319148936170213 0.005319148936170213 0.0017730496453900709 
0.8855152774570922 0.09662895405218194 0.017355499114908027 5.00269375817748E-4 
0.2803030303030303 0.25 0.4318181818181818 0.03787878787878788 
0.25 0.25 0.25 0.25 
0.5 0.16666666666666666 0.16666666666666666 0.16666666666666666 
0.5374020722769776 0.41003285317159466 0.05066969926712156 0.0018953752843062926 
0.33238636363636365 0.3778409090909091 0.2793560606060606 0.010416666666666666 
0.16666666666666666 0.16666666666666666 0.16666666666666666 0.5 
0.25 0.25 0.25 0.25 
0.6932773109243697 0.1722689075630252 0.13025210084033614 0.004201680672268907 
0.4457928802588997 0.28398058252427183 0.2580906148867314 0.012135922330097087 
0.1875 0.1875 0.3125 0.3125 
0.25 0.25 0.25 0.25 
0.16666666666666666 0.16666666666666666 0.5 0.16666666666666666 
0.3208955223880597 0.15671641791044777 0.4253731343283582 0.09701492537313433 
0.125 0.3522727272727273 0.42045454545454547 0.10227272727272728 
0.625 0.125 0.125 0.125 
0.3 0.1 0.5 0.1 
0.25 0.25 0.25 0.25 
0.25 0.25 0.25 0.25 
0.5 0.1 0.3 0.1 
0.15133779264214048 0.4188963210702341 0.4222408026755853 0.007525083612040134 
0.07142857142857142 0.07142857142857142 0.7857142857142857 0.07142857142857142 
0.25 0.25 0.25 0.25 
0.16666666666666666 0.16666666666666666 0.5 0.16666666666666666 
0.08672525439407956 0.5682238667900092 0.34204440333024977 0.0030064754856614245 
0.03977272727272727 0.19624125874125875 0.7583041958041958 0.005681818181818182 
0.16666666666666666 0.16666666666666666 0.16666666666666666 0.5 
0.25 0.25 0.25 0.25 
0.2344632768361582 0.3361581920903955 0.4209039548022599 0.00847457627118644 
0.039240867579908675 0.10573630136986302 0.8069349315068494 0.048087899543379 
0.021739130434782608 0.1956521739130435 0.2826086956521739 0.5 
0.25 0.25 0.25 0.25 
0.7 0.1 0.1 0.1 
0.06342182890855458 0.11356932153392331 0.3938053097345133 0.42920353982300885 
0.004273504273504274 0.10968660968660969 0.44871794871794873 0.4373219373219373 
0.25 0.25 0.25 0.25 
0.25 0.25 0.25 0.25 
0.25 0.25 0.25 0.25 
0.25 0.25 0.25 0.25 
0.25 0.25 0.25 0.25 
0.125 0.125 0.625 0.125 
0.25 0.25 0.25 0.25 
0.25 0.25 0.25 0.25 
0.25 0.25 0.25 0.25 
0.375 0.125 0.125 0.375 
0.1 0.1 0.1 0.7 
0.25 0.25 0.25 0.25 
0.25 0.25 0.25 0.25 
0.16666666666666666 0.16666666666666666 0.16666666666666666 0.5 
0.08823529411764706 0.029411764705882353 0.2647058823529412 0.6176470588235294 
0.07142857142857142 0.07142857142857142 0.07142857142857142 0.7857142857142857 
0.25 0.25 0.25 0.25 
0.16666666666666666 0.5 0.16666666666666666 0.16666666666666666 
0.032467532467532464 0.045454545454545456 0.2012987012987013 0.7207792207792207 
0.007565337001375516 0.007565337001375516 0.06946354883081156 0.9154057771664375 
</TABLE>
</DEFINITION>
<DEFINITION>
<FOR>pixel14</FOR>
<GIVEN>pixel10</GIVEN>
<GIVEN>pixel21</GIVEN>
<GIVEN>pixel11</GIVEN>
<TABLE>
0.996802557953637 0.002398081534772182 7.993605115907274E-4 
0.9884393063583815 0.005780346820809248 0.005780346820809248 
0.3333333333333333 0.3333333333333333 0.3333333333333333 
0.3333333333333333 0.3333333333333333 0.3333333333333333 
0.9906103286384976 0.004694835680751174 0.004694835680751174 
0.9701492537313433 0.014925373134328358 0.014925373134328358 
0.3333333333333333 0.3333333333333333 0.3333333333333333 
0.3333333333333333 0.3333333333333333 0.3333333333333333 
0.9603960396039604 0.0297029702970297 0.009900990099009901 
0.7037037037037037 0.25925925925925924 0.037037037037037035 
0.3333333333333333 0.3333333333333333 0.3333333333333333 
0.3333333333333333 0.3333333333333333 0.3333333333333333 
0.3333333333333333 0.3333333333333333 0.3333333333333333 
0.3333333333333333 0.3333333333333333 0.3333333333333333 
0.3333333333333333 0.3333333333333333 0.3333333333333333 
0.3333333333333333 0.3333333333333333 0.3333333333333333 
0.9945504087193461 0.0027247956403269754 0.0027247956403269754 
0.9764113134089087 0.023474178403755867 1.1450818733539448E-4 
0.8367346938775511 0.14285714285714285 0.02040816326530612 
0.3333333333333333 0.3333333333333333 0.3333333333333333 
0.9874213836477987 0.006289308176100629 0.006289308176100629 
0.9697852449021069 0.03014700901022966 6.774608766343743E-5 
0.7647058823529411 0.2235294117647059 0.011764705882352941 
0.3333333333333333 0.3333333333333333 0.3333333333333333 
0.8367346938775511 0.14285714285714285 0.02040816326530612 
0.8505590400872648 0.14807744750477228 0.0013635124079629125 
0.6097560975609756 0.36585365853658536 0.024390243902439025 
0.3333333333333333 0.3333333333333333 0.3333333333333333 
0.3333333333333333 0.3333333333333333 0.3333333333333333 
0.8620689655172413 0.10344827586206896 0.034482758620689655 
0.3333333333333333 0.3333333333333333 0.3333333333333333 
0.3333333333333333 0.3333333333333333 0.3333333333333333 
0.42857142857142855 0.42857142857142855 0.14285714285714285 
0.8021133525456292 0.19692603266090297 9.606147934678194E-4 
0.5728155339805825 0.42394822006472493 0.003236245954692557 
0.6 0.2 0.2 
0.3333333333333333 0.3333333333333333 0.3333333333333333 
0.7741615399880929 0.22564000793808295 1.9845207382417147E-4 
0.46215494211932323 0.5369545859305432 8.904719501335708E-4 
0.3333333333333333 0.3333333333333333 0.3333333333333333 
0.3333333333333333 0.3333333333333333 0.3333333333333333 
0.5138230001635858 0.48535907083265173 8.179290037624734E-4 
0.1859612362493452 0.8103719224724987 0.003666841278156103 
0.2 0.6 0.2 
0.3333333333333333 0.3333333333333333 0.3333333333333333 
0.6981132075471698 0.2830188679245283 0.018867924528301886 
0.38461538461538464 0.5384615384615384 0.07692307692307693 
0.3333333333333333 0.3333333333333333 0.3333333333333333 
0.3333333333333333 0.3333333333333333 0.3333333333333333 
0.5111111111111111 0.4666666666666667 0.022222222222222223 
0.36794582392776526 0.6297968397291196 0.002257336343115124 
0.6363636363636364 0.2727272727272727 0.09090909090909091 
0.3333333333333333 0.3333333333333333 0.3333333333333333 
0.5794871794871795 0.40512820512820513 0.015384615384615385 
0.31820637493246895 0.6812533765532145 5.402485143165856E-4 
0.28 0.68 0.04 
0.3333333333333333 0.3333333333333333 0.3333333333333333 
0.27761194029850744 0.7194029850746269 0.0029850746268656717 
0.07976088812980359 0.9169940222032451 0.0032450896669513236 
0.030303030303030304 0.7575757575757576 0.21212121212121213 
0.3333333333333333 0.3333333333333333 0.3333333333333333 
0.391304347826087 0.5652173913043478 0.043478260869565216 
0.13178294573643412 0.7674418604651163 0.10077519379844961 
0.14285714285714285 0.14285714285714285 0.7142857142857143 
0.3333333333333333 0.3333333333333333 0.3333333333333333 
0.3333333333333333 0.3333333333333333 0.3333333333333333 
0.4782608695652174 0.4782608695652174 0.043478260869565216 
0.16129032258064516 0.4838709677419355 0.3548387096774194 
0.3333333333333333 0.3333333333333333 0.3333333333333333 
0.2 0.6 0.2 
0.248868778280543 0.665158371040724 0.08597285067873303 
0.0948509485094851 0.5447154471544715 0.3604336043360434 
0.3333333333333333 0.3333333333333333 0.3333333333333333 
0.14285714285714285 0.7142857142857143 0.14285714285714285 
0.06764168190127971 0.7842778793418648 0.1480804387568556 
0.03939008894536213 0.4332909783989835 0.5273189326556544 
0.3333333333333333 0.3333333333333333 0.3333333333333333 
0.42857142857142855 0.14285714285714285 0.42857142857142855 
0.06976744186046512 0.5348837209302325 0.3953488372093023 
0.007035175879396985 0.11557788944723618 0.8773869346733668 
</TABLE>
</DEFINITION>
<DEFINITION>
<FOR>pixel15</FOR>
<GIVEN>emotion</GIVEN>
<TABLE>
0.013299556681443952 0.0915769474350855 0.2577580747308423 0.35275490816972765 0.2846105129829006 
0.003500583430571762 0.03617269544924154 0.2322053675612602 0.32555425904317387 0.4025670945157526 
0.0059143029571514785 0.07374773687386843 0.23862401931200966 0.3610138805069403 0.3207000603500302 
3.487966515521451E-4 0.038437391001046387 0.16832926403906523 0.35486571328915245 0.4380188350191838 
0.0011092064132298073 0.04245235454270445 0.2542099425229404 0.37299586568518706 0.3292326308359383 
0.004208149440624038 0.09699271271682233 0.3022682951862876 0.34209175818536386 0.2544390844709022 
0.007317452903627588 0.15117546317919975 0.2642067569671493 0.26327261404328195 0.3140277129067414 
</TABLE>
</DEFINITION>
<DEFINITION>
<FOR>pixel16</FOR>
<GIVEN>pixel15</GIVEN>
<GIVEN>pixel17</GIVEN>
<TABLE>
0.9248826291079812 0.06103286384976526 0.004694835680751174 0.004694835680751174 0.004694835680751174 
0.7142857142857143 0.14285714285714285 0.047619047619047616 0.047619047619047616 0.047619047619047616 
0.6 0.06666666666666667 0.2 0.06666666666666667 0.06666666666666667 
0.84 0.04 0.04 0.04 0.04 
0.694535263895376 0.2713685193834657 0.021018215787015414 0.009808500700607193 0.003269500233535731 
0.5919335705812574 0.37841043890865955 0.020166073546856466 0.005931198102016607 0.0035587188612099642 
0.5389830508474577 0.39887005649717516 0.03954802259887006 0.0192090395480226 0.003389830508474576 
0.5516372795969773 0.37531486146095716 0.04785894206549118 0.017632241813602016 0.007556675062972292 
0.1314156796390299 0.6852791878172588 0.13931190073322053 0.026508742244782856 0.01748448956570784 
0.054667162513945704 0.7694310152473038 0.14689475641502417 0.024172554853105245 0.004834510970621049 
0.03162944086343877 0.6702143606655674 0.25918153200419725 0.02983061010343277 0.009144056363363814 
0.031871016122984624 0.5260592425946756 0.33183352080989875 0.07086614173228346 0.03937007874015748 
0.02556390977443609 0.20300751879699247 0.4857142857142857 0.19398496240601504 0.09172932330827067 
0.013612565445026177 0.16649214659685863 0.45968586387434557 0.2607329842931937 0.09947643979057591 
0.005608451806443198 0.10603886787530976 0.5268031824703274 0.296987087517934 0.06456241032998565 
0.003304692663582287 0.060523085638749884 0.3739967897271268 0.42724955150599564 0.13492588046454537 
0.0037735849056603774 0.026415094339622643 0.08679245283018867 0.22264150943396227 0.660377358490566 
0.010169491525423728 0.04406779661016949 0.07796610169491526 0.1864406779661017 0.6813559322033899 
0.0031042128603104213 0.013747228381374724 0.06784922394678493 0.25055432372505543 0.6647450110864745 
0.0010311154242736702 0.008552192636622795 0.032085885849457145 0.16491781403530054 0.7934129920543459 
</TABLE>
</DEFINITION>
<DEFINITION>
<FOR>pixel17</FOR>
<GIVEN>pixel15</GIVEN>
<GIVEN>pixel19</GIVEN>
<TABLE>
0.8134920634920635 0.05952380952380952 0.04365079365079365 0.08333333333333333 
0.625 0.125 0.125 0.125 
0.16666666666666666 0.5 0.16666666666666666 0.16666666666666666 
0.25 0.25 0.25 0.25 
0.5421432871763998 0.18994581577363034 0.1893437688139675 0.07856712823600241 
0.3711734693877551 0.24107142857142858 0.26658163265306123 0.1211734693877551 
0.3115942028985507 0.13768115942028986 0.2971014492753623 0.2536231884057971 
0.2777777777777778 0.16666666666666666 0.2777777777777778 0.2777777777777778 
0.3066860465116279 0.251453488372093 0.3125 0.12936046511627908 
0.09767587939698492 0.20571608040201006 0.5279522613065326 0.16865577889447236 
0.0859704641350211 0.09862869198312237 0.4762658227848101 0.3391350210970464 
0.15140845070422534 0.05985915492957746 0.27816901408450706 0.5105633802816901 
0.195 0.085 0.325 0.395 
0.06358225108225109 0.0928030303030303 0.5143398268398268 0.3292748917748918 
0.022749671484888306 0.039175427069645205 0.39577858081471745 0.5422963206307491 
0.02972119936875329 0.030773277222514467 0.23172014729089951 0.7077853761178328 
0.25 0.06818181818181818 0.29545454545454547 0.38636363636363635 
0.04744525547445255 0.040145985401459854 0.2518248175182482 0.6605839416058394 
0.027734375 0.023828125 0.234765625 0.713671875 
0.010292326431181486 0.013337393422655299 0.09567600487210719 0.8806942752740561 
</TABLE>
</DEFINITION>
<DEFINITION>
<FOR>pixel18</FOR>
<GIVEN>pixel17</GIVEN>
<GIVEN>pixel16</GIVEN>
<GIVEN>pixel15</GIVEN>
<TABLE>
0.925 0.065 0.005 0.005 
0.7389261744966443 0.23825503355704697 0.02080536912751678 0.0020134228187919465 
0.7754237288135594 0.19915254237288135 0.0211864406779661 0.00423728813559322 
0.65 0.25 0.05 0.05 
0.25 0.25 0.25 0.25 
0.4375 0.1875 0.3125 0.0625 
0.4469178082191781 0.4845890410958904 0.05650684931506849 0.011986301369863013 
0.506568144499179 0.46551724137931033 0.025451559934318555 0.0024630541871921183 
0.6884057971014492 0.2246376811594203 0.07971014492753623 0.007246376811594203 
0.3 0.5 0.1 0.1 
0.25 0.25 0.25 0.25 
0.1875 0.3125 0.3125 0.1875 
0.308 0.532 0.116 0.044 
0.5184049079754601 0.41411042944785276 0.03987730061349693 0.027607361963190184 
0.5 0.4230769230769231 0.038461538461538464 0.038461538461538464 
0.25 0.25 0.25 0.25 
0.125 0.20833333333333334 0.20833333333333334 0.4583333333333333 
0.18 0.58 0.18 0.06 
0.5681818181818182 0.3409090909090909 0.06818181818181818 0.022727272727272728 
0.46774193548387094 0.43548387096774194 0.04838709677419355 0.04838709677419355 
0.25 0.25 0.25 0.25 
0.1 0.3 0.1 0.5 
0.2647058823529412 0.2647058823529412 0.2647058823529412 0.20588235294117646 
0.296875 0.484375 0.140625 0.078125 
0.5561797752808989 0.3651685393258427 0.06179775280898876 0.016853932584269662 
0.05555555555555555 0.7222222222222222 0.16666666666666666 0.05555555555555555 
0.15338645418326693 0.7749003984063745 0.0697211155378486 0.00199203187250996 
0.31333333333333335 0.62 0.06 0.006666666666666667 
0.4375 0.4375 0.0625 0.0625 
0.5 0.16666666666666666 0.16666666666666666 0.16666666666666666 
0.16666666666666666 0.16666666666666666 0.16666666666666666 0.5 
0.09627329192546584 0.7298136645962733 0.14596273291925466 0.027950310559006212 
0.04198841698841699 0.875 0.07673745173745174 0.006274131274131274 
0.11728395061728394 0.808641975308642 0.05555555555555555 0.018518518518518517 
0.1875 0.1875 0.5625 0.0625 
0.25 0.25 0.25 0.25 
0.05 0.25 0.45 0.25 
0.04773869346733668 0.5753768844221105 0.3391959798994975 0.03768844221105527 
0.042986425339366516 0.7579185520361991 0.1832579185520362 0.01583710407239819 
0.19230769230769232 0.5 0.19230769230769232 0.11538461538461539 
0.25 0.25 0.25 0.25 
0.375 0.125 0.125 0.375 
0.04411764705882353 0.4264705882352941 0.45588235294117646 0.07352941176470588 
0.027777777777777776 0.5436507936507936 0.4087301587301587 0.01984126984126984 
0.08620689655172414 0.7413793103448276 0.15517241379310345 0.017241379310344827 
0.25 0.25 0.25 0.25 
0.16666666666666666 0.16666666666666666 0.16666666666666666 0.5 
0.0625 0.5625 0.3125 0.0625 
0.05102040816326531 0.3979591836734694 0.4387755102040816 0.11224489795918367 
0.05392156862745098 0.6813725490196079 0.18137254901960784 0.08333333333333333 
0.08333333333333333 0.5833333333333334 0.25 0.08333333333333333 
0.035416666666666666 0.3729166666666667 0.5729166666666666 0.01875 
0.08878504672897196 0.5093457943925234 0.3878504672897196 0.014018691588785047 
0.15217391304347827 0.5434782608695652 0.2391304347826087 0.06521739130434782 
0.3 0.1 0.5 0.1 
0.25 0.25 0.25 0.25 
0.0028089887640449437 0.28370786516853935 0.5926966292134831 0.12078651685393259 
0.0033527045149754136 0.36410371032632993 0.60818059901654 0.024362986142154673 
0.03799019607843137 0.41299019607843135 0.5183823529411765 0.030637254901960783 
0.029411764705882353 0.5588235294117647 0.38235294117647056 0.029411764705882353 
0.16666666666666666 0.16666666666666666 0.5 0.16666666666666666 
0.07894736842105263 0.13157894736842105 0.4473684210526316 0.34210526315789475 
0.0040415704387990765 0.16570438799076212 0.7615473441108545 0.0687066974595843 
0.0032162295893122216 0.15066798614547253 0.8097476496783771 0.0363681345868382 
0.03205128205128205 0.25 0.5833333333333334 0.1346153846153846 
0.25 0.25 0.25 0.25 
0.05 0.05 0.15 0.75 
0.0049504950495049506 0.10396039603960396 0.6089108910891089 0.28217821782178215 
0.0030701754385964912 0.10043859649122808 0.7828947368421053 0.11359649122807018 
0.008802816901408451 0.20950704225352113 0.6848591549295775 0.09683098591549295 
0.25 0.25 0.25 0.25 
0.16666666666666666 0.16666666666666666 0.16666666666666666 0.5 
0.046875 0.171875 0.234375 0.546875 
0.002008032128514056 0.05421686746987952 0.572289156626506 0.3714859437751004 
0.0019973368841544607 0.13382157123834887 0.6691078561917443 0.19507323568575233 
0.041666666666666664 0.041666666666666664 0.2916666666666667 0.625 
0.013513513513513514 0.04954954954954955 0.44594594594594594 0.49099099099099097 
0.056818181818181816 0.26136363636363635 0.32954545454545453 0.3522727272727273 
0.13157894736842105 0.39473684210526316 0.39473684210526316 0.07894736842105263 
0.25 0.35 0.15 0.25 
0.25 0.25 0.25 0.25 
0.019736842105263157 0.05921052631578947 0.28289473684210525 0.6381578947368421 
7.112375533428165E-4 0.019203413940256046 0.4445234708392603 0.5355618776671408 
0.010869565217391304 0.04813664596273292 0.5077639751552795 0.4332298136645963 
0.04861111111111111 0.13194444444444445 0.3263888888888889 0.4930555555555556 
0.25 0.25 0.25 0.25 
0.045454545454545456 0.045454545454545456 0.22727272727272727 0.6818181818181818 
0.007882882882882882 0.012387387387387387 0.33896396396396394 0.6407657657657657 
7.568113017154389E-4 0.007820383451059535 0.4412209889001009 0.5502018163471241 
0.0018796992481203006 0.039473684210526314 0.3815789473684211 0.5770676691729323 
0.25 0.25 0.25 0.25 
0.1 0.1 0.3 0.5 
0.005208333333333333 0.005208333333333333 0.203125 0.7864583333333334 
2.2084805653710247E-4 0.005521201413427562 0.25640459363957596 0.7378533568904594 
3.673769287288758E-4 0.012858192505510653 0.22373254959588537 0.7630418809698751 
0.25 0.25 0.25 0.25 
0.16666666666666666 0.16666666666666666 0.16666666666666666 0.5 
0.009259259259259259 0.046296296296296294 0.12037037037037036 0.8240740740740741 
6.983240223463687E-4 0.0034916201117318434 0.10824022346368715 0.8875698324022346 
3.821461326811373E-4 0.002522164475695506 0.07788138184041578 0.9192143075512076 
</TABLE>
</DEFINITION>
<DEFINITION>
<FOR>pixel19</FOR>
<GIVEN>pixel15</GIVEN>
<TABLE>
0.9651162790697675 0.01937984496124031 0.011627906976744186 0.003875968992248062 
0.7809411764705882 0.18376470588235294 0.03176470588235294 0.0035294117647058825 
0.14952118398142775 0.6927597214161346 0.13733313987231574 0.02038595473012188 
0.009918437216795892 0.1859329372671433 0.6128788641627227 0.19126976135333804 
0.0021258944311936118 0.014051643679352898 0.13258322098931868 0.8512392409001348 
</TABLE>
</DEFINITION>
<DEFINITION>
<FOR>pixel20</FOR>
<GIVEN>pixel23</GIVEN>
<GIVEN>pixel21</GIVEN>
<GIVEN>pixel27</GIVEN>
<TABLE>
0.6733185513673319 0.25942350332594233 0.0672579453067258 
0.5280898876404494 0.34014300306435136 0.1317671092951992 
0.48615725359911405 0.3289036544850498 0.1849390919158361 
0.46065057712486884 0.32214060860440713 0.21720881427072403 
0.3333333333333333 0.45454545454545453 0.21212121212121213 
0.3142857142857143 0.42857142857142855 0.2571428571428571 
0.5675675675675675 0.24324324324324326 0.1891891891891892 
0.25925925925925924 0.1111111111111111 0.6296296296296297 
0.3333333333333333 0.3333333333333333 0.3333333333333333 
0.2 0.2 0.6 
0.6 0.2 0.2 
0.3333333333333333 0.3333333333333333 0.3333333333333333 
0.3333333333333333 0.3333333333333333 0.3333333333333333 
0.3333333333333333 0.3333333333333333 0.3333333333333333 
0.3333333333333333 0.3333333333333333 0.3333333333333333 
0.3333333333333333 0.3333333333333333 0.3333333333333333 
0.2368543508608655 0.65565379246161 0.10749185667752444 
0.19546157813305828 0.6162970603403817 0.18824136152656007 
0.15431807456347332 0.608305804624823 0.23737612081170364 
0.13253012048192772 0.5505500261917234 0.31691985332634887 
0.056723522411741376 0.6509321697738992 0.2923443078143594 
0.02921168467386955 0.5638255302120848 0.4069627851140456 
0.028980565973406067 0.4708489601091033 0.5001704739174906 
0.02482400889218229 0.44053353093738423 0.5346424601704335 
0.2413793103448276 0.2413793103448276 0.5172413793103449 
0.1794871794871795 0.3333333333333333 0.48717948717948717 
0.058823529411764705 0.37254901960784315 0.5686274509803921 
0.0196078431372549 0.4117647058823529 0.5686274509803921 
0.3333333333333333 0.3333333333333333 0.3333333333333333 
0.3333333333333333 0.3333333333333333 0.3333333333333333 
0.3333333333333333 0.3333333333333333 0.3333333333333333 
0.2 0.6 0.2 
0.2727272727272727 0.6 0.12727272727272726 
0.2631578947368421 0.40350877192982454 0.3333333333333333 
0.16883116883116883 0.37662337662337664 0.45454545454545453 
0.1267605633802817 0.352112676056338 0.5211267605633803 
0.04674273095325727 0.3235185866764814 0.6297386823702613 
0.02150863374734929 0.2578006664647077 0.7206906997879431 
0.02127659574468085 0.24045467793646166 0.7382687263188574 
0.022208700943109217 0.23821113477334957 0.7395801642835412 
0.02779984114376489 0.1517077045274027 0.8204924543288324 
0.016580903373356205 0.12750142938822184 0.855917667238422 
0.007194244604316547 0.10311750599520383 0.8896882494004796 
0.015579919215233698 0.08713214079630698 0.8972879399884593 
0.3333333333333333 0.3333333333333333 0.3333333333333333 
0.3333333333333333 0.3333333333333333 0.3333333333333333 
0.3333333333333333 0.3333333333333333 0.3333333333333333 
0.3333333333333333 0.3333333333333333 0.3333333333333333 
0.5555555555555556 0.3333333333333333 0.1111111111111111 
0.09090909090909091 0.45454545454545453 0.45454545454545453 
0.14285714285714285 0.7142857142857143 0.14285714285714285 
0.09090909090909091 0.09090909090909091 0.8181818181818182 
0.11504424778761062 0.3805309734513274 0.504424778761062 
0.04 0.248 0.712 
0.12418300653594772 0.39869281045751637 0.477124183006536 
0.054187192118226604 0.33004926108374383 0.6157635467980296 
0.030025445292620866 0.10229007633587786 0.8676844783715013 
0.01770956316410862 0.10743801652892562 0.8748524203069658 
0.020369790034471952 0.08617988091507364 0.8934503290504544 
0.006525711302531976 0.08796658835813104 0.905507700339337 
0.1111111111111111 0.3333333333333333 0.5555555555555556 
0.14285714285714285 0.42857142857142855 0.42857142857142855 
0.14285714285714285 0.14285714285714285 0.7142857142857143 
0.1111111111111111 0.1111111111111111 0.7777777777777778 
0.3333333333333333 0.3333333333333333 0.3333333333333333 
0.3333333333333333 0.3333333333333333 0.3333333333333333 
0.3333333333333333 0.3333333333333333 0.3333333333333333 
0.3333333333333333 0.3333333333333333 0.3333333333333333 
0.2727272727272727 0.2727272727272727 0.45454545454545453 
0.3333333333333333 0.3333333333333333 0.3333333333333333 
0.3333333333333333 0.3333333333333333 0.3333333333333333 
0.3333333333333333 0.3333333333333333 0.3333333333333333 
0.03664921465968586 0.09947643979057591 0.8638743455497382 
0.02857142857142857 0.12 0.8514285714285714 
0.03139013452914798 0.20179372197309417 0.7668161434977578 
0.0136986301369863 0.15616438356164383 0.8301369863013699 
0.013452914798206279 0.13004484304932734 0.8565022421524664 
0.012987012987012988 0.10822510822510822 0.8787878787878788 
0.02654867256637168 0.12094395280235988 0.8525073746312685 
0.0018018018018018018 0.07747747747747748 0.9207207207207208 
</TABLE>
</DEFINITION>
<DEFINITION>
<FOR>pixel21</FOR>
<GIVEN>pixel23</GIVEN>
<GIVEN>pixel24</GIVEN>
<GIVEN>pixel10</GIVEN>
<TABLE>
0.9900900900900901 0.008108108108108109 9.009009009009009E-4 9.009009009009009E-4 
0.9773773006134969 0.021088957055214724 0.0011503067484662577 3.834355828220859E-4 
0.9051724137931034 0.08908045977011494 0.0028735632183908046 0.0028735632183908046 
0.86 0.11333333333333333 0.02 0.006666666666666667 
0.7666666666666667 0.16666666666666666 0.03333333333333333 0.03333333333333333 
0.375 0.375 0.125 0.125 
0.8913043478260869 0.06521739130434782 0.021739130434782608 0.021739130434782608 
0.5 0.3 0.1 0.1 
0.7 0.1 0.1 0.1 
0.5833333333333334 0.25 0.08333333333333333 0.08333333333333333 
0.7 0.1 0.1 0.1 
0.5 0.16666666666666666 0.16666666666666666 0.16666666666666666 
0.25 0.25 0.25 0.25 
0.25 0.25 0.25 0.25 
0.25 0.25 0.25 0.25 
0.25 0.25 0.25 0.25 
0.25 0.25 0.25 0.25 
0.25 0.25 0.25 0.25 
0.25 0.25 0.25 0.25 
0.25 0.25 0.25 0.25 
0.6611842105263158 0.2993421052631579 0.03618421052631579 0.003289473684210526 
0.6964394400486914 0.2977784540474741 0.005629945222154595 1.5216068167985393E-4 
0.531523642732049 0.45096322241681264 0.016637478108581436 8.756567425569177E-4 
0.5653266331658291 0.3793969849246231 0.052763819095477386 0.002512562814070352 
0.6063829787234043 0.35106382978723405 0.031914893617021274 0.010638297872340425 
0.5059523809523809 0.4583333333333333 0.02976190476190476 0.005952380952380952 
0.23426478567552902 0.7624796527400977 0.0031199131850244166 1.3564839934888768E-4 
0.20077007700770078 0.7816281628162817 0.017051705170517052 5.5005500550055E-4 
0.1619496855345912 0.8160377358490566 0.020440251572327043 0.0015723270440251573 
0.2474747474747475 0.7222222222222222 0.015151515151515152 0.015151515151515152 
0.75 0.08333333333333333 0.08333333333333333 0.08333333333333333 
0.4523809523809524 0.5317460317460317 0.007936507936507936 0.007936507936507936 
0.5166666666666667 0.4166666666666667 0.05 0.016666666666666666 
0.41304347826086957 0.5434782608695652 0.021739130434782608 0.021739130434782608 
0.3888888888888889 0.5 0.05555555555555555 0.05555555555555555 
0.25 0.25 0.25 0.25 
0.25 0.25 0.25 0.25 
0.25 0.25 0.25 0.25 
0.25 0.25 0.25 0.25 
0.25 0.25 0.25 0.25 
0.21428571428571427 0.21428571428571427 0.5 0.07142857142857142 
0.034722222222222224 0.5763888888888888 0.3819444444444444 0.006944444444444444 
0.015625 0.421875 0.546875 0.015625 
0.025 0.275 0.675 0.025 
0.25 0.25 0.25 0.25 
0.02727272727272727 0.7181818181818181 0.24545454545454545 0.00909090909090909 
0.011010878217033697 0.8244892544441497 0.1643672061554789 1.3266118333775536E-4 
0.0025580480125934673 0.6436442345533254 0.35360094451003543 1.967729240456513E-4 
0.004978662873399715 0.6052631578947368 0.3890469416785206 7.112375533428165E-4 
0.004032258064516129 0.6975806451612904 0.29435483870967744 0.004032258064516129 
0.29545454545454547 0.38636363636363635 0.29545454545454547 0.022727272727272728 
0.05286069651741294 0.48569651741293535 0.4608208955223881 6.218905472636816E-4 
0.006033789219629927 0.27715205148833466 0.7164119066773934 4.0225261464199515E-4 
0.009308510638297872 0.46143617021276595 0.5279255319148937 0.0013297872340425532 
0.05555555555555555 0.6407407407407407 0.3 0.003703703703703704 
0.5 0.16666666666666666 0.16666666666666666 0.16666666666666666 
0.4375 0.4375 0.0625 0.0625 
0.21428571428571427 0.5 0.21428571428571427 0.07142857142857142 
0.07142857142857142 0.5 0.35714285714285715 0.07142857142857142 
0.16666666666666666 0.16666666666666666 0.5 0.16666666666666666 
0.25 0.25 0.25 0.25 
0.1 0.1 0.7 0.1 
0.08333333333333333 0.08333333333333333 0.75 0.08333333333333333 
0.125 0.125 0.625 0.125 
0.125 0.125 0.375 0.375 
0.08333333333333333 0.08333333333333333 0.75 0.08333333333333333 
0.005747126436781609 0.13218390804597702 0.8563218390804598 0.005747126436781609 
0.004672897196261682 0.02336448598130841 0.9672897196261683 0.004672897196261682 
0.006172839506172839 0.043209876543209874 0.9444444444444444 0.006172839506172839 
0.045454545454545456 0.045454545454545456 0.7727272727272727 0.13636363636363635 
0.05555555555555555 0.05555555555555555 0.8703703703703703 0.018518518518518517 
0.008463541666666666 0.099609375 0.8912760416666666 6.510416666666666E-4 
0.0012165450121654502 0.038199513381995134 0.959367396593674 0.0012165450121654502 
2.1150592216582064E-4 0.024323181049069373 0.9748307952622673 6.345177664974619E-4 
0.0020325203252032522 0.06300813008130081 0.9207317073170732 0.014227642276422764 
0.16666666666666666 0.16666666666666666 0.5 0.16666666666666666 
0.04807692307692308 0.3942307692307692 0.5480769230769231 0.009615384615384616 
0.008620689655172414 0.11206896551724138 0.8706896551724138 0.008620689655172414 
0.0045871559633027525 0.10550458715596331 0.8853211009174312 0.0045871559633027525 
0.021367521367521368 0.09829059829059829 0.8589743589743589 0.021367521367521368 
0.25 0.25 0.25 0.25 
0.25 0.25 0.25 0.25 
0.25 0.25 0.25 0.25 
0.25 0.25 0.25 0.25 
0.25 0.25 0.25 0.25 
0.25 0.25 0.25 0.25 
0.25 0.25 0.25 0.25 
0.25 0.25 0.25 0.25 
0.16666666666666666 0.16666666666666666 0.5 0.16666666666666666 
0.16666666666666666 0.16666666666666666 0.5 0.16666666666666666 
0.25 0.25 0.25 0.25 
0.05555555555555555 0.05555555555555555 0.8333333333333334 0.05555555555555555 
0.05 0.15 0.65 0.15 
0.029411764705882353 0.029411764705882353 0.7352941176470589 0.20588235294117646 
0.023809523809523808 0.023809523809523808 0.5 0.4523809523809524 
0.08333333333333333 0.08333333333333333 0.75 0.08333333333333333 
0.010416666666666666 0.03125 0.6770833333333334 0.28125 
0.006756756756756757 0.02027027027027027 0.6013513513513513 0.3716216216216216 
0.002688172043010753 0.002688172043010753 0.6102150537634409 0.3844086021505376 
6.345177664974619E-4 0.0019035532994923859 0.30647208121827413 0.690989847715736 
</TABLE>
</DEFINITION>
<DEFINITION>
<FOR>pixel22</FOR>
<GIVEN>pixel9</GIVEN>
<GIVEN>pixel23</GIVEN>
<GIVEN>pixel20</GIVEN>
<TABLE>
0.8971583220568335 0.09878213802435724 0.0040595399188092015 
0.9172413793103448 0.07586206896551724 0.006896551724137931 
0.9069767441860465 0.06976744186046512 0.023255813953488372 
0.8805394990366089 0.11753371868978806 0.0019267822736030828 
0.8437978560490046 0.14854517611026033 0.007656967840735069 
0.8674033149171271 0.11602209944751381 0.016574585635359115 
0.7687074829931972 0.2108843537414966 0.02040816326530612 
0.8091286307053942 0.18672199170124482 0.004149377593360996 
0.8042553191489362 0.19148936170212766 0.00425531914893617 
0.6338028169014085 0.352112676056338 0.014084507042253521 
0.5421686746987951 0.42168674698795183 0.03614457831325301 
0.7931034482758621 0.1921182266009852 0.014778325123152709 
0.4666666666666667 0.2 0.3333333333333333 
0.7142857142857143 0.23809523809523808 0.047619047619047616 
0.6533333333333333 0.12 0.22666666666666666 
0.7888799355358582 0.2054794520547945 0.0056406124093473006 
0.8360655737704918 0.1626733921815889 0.0012610340479192938 
0.7402597402597403 0.2554112554112554 0.004329004329004329 
0.7725024727992087 0.2166172106824926 0.010880316518298714 
0.7434519811954332 0.24754869039623908 0.008999328408327737 
0.6722386102917076 0.3169452638479187 0.010816125860373648 
0.7381818181818182 0.2581818181818182 0.0036363636363636364 
0.6178343949044586 0.364398256788468 0.017767348307073418 
0.4746790802651996 0.5138947665397094 0.011426153195090986 
0.7446808510638298 0.20567375886524822 0.04964539007092199 
0.5719381688466112 0.40784780023781214 0.020214030915576695 
0.4455893440562956 0.5420960040211108 0.012314651922593617 
0.5294117647058824 0.29411764705882354 0.17647058823529413 
0.5532994923857868 0.24873096446700507 0.19796954314720813 
0.38660399529964745 0.41245593419506466 0.2009400705052879 
0.49340369393139843 0.48812664907651715 0.018469656992084433 
0.46564885496183206 0.5267175572519084 0.007633587786259542 
0.509641873278237 0.4820936639118457 0.008264462809917356 
0.5514018691588785 0.42679127725856697 0.021806853582554516 
0.46534653465346537 0.5120792079207921 0.022574257425742573 
0.40837209302325583 0.5807751937984497 0.010852713178294573 
0.4025974025974026 0.5844155844155844 0.012987012987012988 
0.35064935064935066 0.6283716283716284 0.02097902097902098 
0.19768190598840954 0.7823567289117836 0.019961365099806824 
0.2 0.7142857142857143 0.08571428571428572 
0.39313984168865435 0.5989445910290238 0.0079155672823219 
0.12191334058083553 0.848113061034322 0.029973598384842367 
0.6363636363636364 0.09090909090909091 0.2727272727272727 
0.26153846153846155 0.6307692307692307 0.1076923076923077 
0.07257304429783223 0.6041470311027333 0.3232799245994345 
</TABLE>
</DEFINITION>
<DEFINITION>
<FOR>pixel23</FOR>
<GIVEN>pixel24</GIVEN>
<GIVEN>pixel10</GIVEN>
<TABLE>
0.7790288529204785 0.21182266009852216 0.007741027445460943 7.037297677691766E-4 7.037297677691766E-4 
0.27941649683578246 0.7046015231148772 0.015123887160785155 7.508312774857878E-4 1.0726161106939826E-4 
0.22186495176848875 0.732475884244373 0.03922829581993569 0.005787781350482315 6.430868167202572E-4 
0.2512820512820513 0.6752136752136753 0.06324786324786325 0.008547008547008548 0.0017094017094017094 
0.216 0.728 0.008 0.04 0.008 
0.017421602787456445 0.5749128919860628 0.37282229965156793 0.0313588850174216 0.003484320557491289 
0.0028441034459951056 0.4873999603148356 0.49837952245518885 0.011310271843375885 6.614194060453734E-5 
9.841135948263741E-4 0.25516659637283845 0.7140447068747364 0.029663995501194994 1.4058765640376775E-4 
0.0031746031746031746 0.2870748299319728 0.636281179138322 0.07210884353741497 0.0013605442176870747 
0.01910828025477707 0.4140127388535032 0.5201698513800425 0.040339702760084924 0.006369426751592357 
0.06422018348623854 0.08256880733944955 0.3761467889908257 0.46788990825688076 0.009174311926605505 
9.149130832570906E-4 0.03751143641354071 0.48947849954254347 0.46752058554437326 0.004574565416285453 
1.5003750937734434E-4 0.008552138034508628 0.372543135783946 0.6162040510127532 0.0025506376594148536 
1.8021265092809516E-4 0.007749143989908091 0.13497927554514327 0.8515047756352496 0.00558659217877095 
0.0012330456226880395 0.018495684340320593 0.32922318125770655 0.6029593094944513 0.04808877928483354 
0.058823529411764705 0.058823529411764705 0.17647058823529413 0.17647058823529413 0.5294117647058824 
0.004784688995215311 0.004784688995215311 0.06220095693779904 0.48325358851674644 0.4449760765550239 
0.0036900369003690036 0.0036900369003690036 0.04059040590405904 0.41697416974169743 0.5350553505535055 
0.0016750418760469012 0.0016750418760469012 0.018425460636515914 0.3601340033500838 0.6180904522613065 
5.52791597567717E-4 5.52791597567717E-4 0.001658374792703151 0.12769485903814262 0.8695411829740188 
</TABLE>
</DEFINITION>
<DEFINITION>
<FOR>pixel24</FOR>
<GIVEN>pixel10</GIVEN>
<GIVEN>pixel11</GIVEN>
<TABLE>
0.7955128205128205 0.14423076923076922 0.05448717948717949 0.0057692307692307696 
0.6755725190839694 0.22519083969465647 0.08015267175572519 0.019083969465648856 
0.25 0.25 0.25 0.25 
0.25 0.25 0.25 0.25 
0.643859649122807 0.2754385964912281 0.07543859649122807 0.005263157894736842 
0.32753292620116253 0.5474578765359429 0.11776175410197925 0.007247443160915312 
0.3 0.4647058823529412 0.19411764705882353 0.041176470588235294 
0.25 0.25 0.25 0.25 
0.625 0.125 0.125 0.125 
0.0971563981042654 0.48382088576564797 0.40259846380127473 0.016424252328811898 
0.10669456066945607 0.3553496712492528 0.517931858936043 0.020023909145248056 
0.375 0.125 0.375 0.125 
0.25 0.25 0.25 0.25 
0.08644067796610169 0.3135593220338983 0.5135593220338983 0.08644067796610169 
0.06372430471584038 0.2407496977025393 0.6313180169286579 0.06420798065296252 
0.07352941176470588 0.39705882352941174 0.3382352941176471 0.19117647058823528 
0.25 0.25 0.25 0.25 
0.07142857142857142 0.35714285714285715 0.07142857142857142 0.5 
0.049060542797494784 0.1847599164926931 0.33924843423799583 0.42693110647181626 
0.03354203935599284 0.1283542039355993 0.21601073345259392 0.622093023255814 
</TABLE>
</DEFINITION>
<DEFINITION>
<FOR>pixel25</FOR>
<GIVEN>pixel29</GIVEN>
<GIVEN>pixel4</GIVEN>
<GIVEN>pixel33</GIVEN>
<TABLE>
0.5258105802047781 0.46053754266211605 0.011305460750853242 0.00234641638225256 
0.289010989010989 0.6912087912087912 0.01868131868131868 0.001098901098901099 
0.47959183673469385 0.41836734693877553 0.09183673469387756 0.01020408163265306 
0.2916666666666667 0.5416666666666666 0.125 0.041666666666666664 
0.3093454258675079 0.6338722397476341 0.04672712933753943 0.010055205047318612 
0.22127139364303178 0.7290138549307253 0.04686226568867156 0.0028524857375713123 
0.40062111801242234 0.5186335403726708 0.052795031055900624 0.027950310559006212 
0.4807692307692308 0.25 0.25 0.019230769230769232 
0.3544891640866873 0.5092879256965944 0.11919504643962849 0.017027863777089782 
0.2709251101321586 0.5881057268722467 0.10352422907488987 0.037444933920704845 
0.4318181818181818 0.44696969696969696 0.11363636363636363 0.007575757575757576 
0.2692307692307692 0.6538461538461539 0.038461538461538464 0.038461538461538464 
0.34415584415584416 0.44372294372294374 0.15367965367965367 0.05844155844155844 
0.21851851851851853 0.5888888888888889 0.13703703703703704 0.05555555555555555 
0.2540983606557377 0.48360655737704916 0.1721311475409836 0.09016393442622951 
0.375 0.425 0.075 0.125 
0.05102040816326531 0.6768707482993197 0.20068027210884354 0.07142857142857142 
0.025 0.787 0.173 0.015 
0.07333333333333333 0.7 0.21555555555555556 0.011111111111111112 
0.175 0.575 0.225 0.025 
0.016129032258064516 0.5455407969639469 0.38045540796963945 0.05787476280834915 
0.013748694744169856 0.698746954403063 0.2758440654368256 0.011660285415941524 
0.029896907216494847 0.5865979381443299 0.36323024054982816 0.02027491408934708 
0.15822784810126583 0.6012658227848101 0.1962025316455696 0.04430379746835443 
0.015 0.365 0.475 0.145 
0.0166015625 0.4853515625 0.4111328125 0.0869140625 
0.0517578125 0.5068359375 0.4072265625 0.0341796875 
0.09285714285714286 0.4928571428571429 0.29285714285714287 0.12142857142857143 
0.00625 0.24375 0.39375 0.35625 
0.01730769230769231 0.4480769230769231 0.3596153846153846 0.175 
0.037366548042704624 0.45373665480427045 0.3896797153024911 0.11921708185053381 
0.1721311475409836 0.38524590163934425 0.23770491803278687 0.20491803278688525 
0.020833333333333332 0.22916666666666666 0.4375 0.3125 
0.010416666666666666 0.13541666666666666 0.6145833333333334 0.23958333333333334 
0.015909090909090907 0.2431818181818182 0.6204545454545455 0.12045454545454545 
0.04375 0.40625 0.46875 0.08125 
0.005952380952380952 0.20833333333333334 0.49404761904761907 0.2916666666666667 
0.005720823798627002 0.09954233409610984 0.6601830663615561 0.2345537757437071 
0.0028799291094373063 0.0999113867966327 0.73349579087284 0.16371289322108995 
0.012974051896207584 0.21656686626746507 0.5379241516966068 0.23253493013972057 
0.03409090909090909 0.2159090909090909 0.4431818181818182 0.3068181818181818 
0.0023584905660377358 0.06367924528301887 0.5448113207547169 0.3891509433962264 
0.0024171270718232043 0.06388121546961326 0.6246546961325967 0.3090469613259669 
0.008177570093457943 0.13434579439252337 0.4894859813084112 0.3679906542056075 
0.014285714285714285 0.1 0.3 0.5857142857142857 
0.018518518518518517 0.04814814814814815 0.3 0.6333333333333333 
0.0034674063800277394 0.06449375866851595 0.4334257975034674 0.4986130374479889 
0.022483940042826552 0.15524625267665954 0.41862955032119914 0.40364025695931477 
0.125 0.375 0.125 0.375 
0.038461538461538464 0.11538461538461539 0.11538461538461539 0.7307692307692307 
0.013157894736842105 0.09210526315789473 0.19736842105263158 0.6973684210526315 
0.00974025974025974 0.08766233766233766 0.19805194805194806 0.7045454545454546 
0.027777777777777776 0.1388888888888889 0.08333333333333333 0.75 
0.012195121951219513 0.012195121951219513 0.25609756097560976 0.7195121951219512 
0.001976284584980237 0.037549407114624504 0.10474308300395258 0.8557312252964426 
0.0049504950495049506 0.034653465346534656 0.13806380638063806 0.8223322332233224 
0.08333333333333333 0.08333333333333333 0.08333333333333333 0.75 
0.015625 0.078125 0.140625 0.765625 
0.001953125 0.017578125 0.091796875 0.888671875 
4.2918454935622315E-4 0.016738197424892704 0.1128755364806867 0.8699570815450643 
0.023809523809523808 0.16666666666666666 0.023809523809523808 0.7857142857142857 
0.011904761904761904 0.08333333333333333 0.05952380952380952 0.8452380952380952 
0.001597444089456869 0.023961661341853034 0.07188498402555911 0.902555910543131 
0.0012306610407876231 0.014943741209563995 0.06627988748241913 0.9175457102672293 
</TABLE>
</DEFINITION>
<DEFINITION>
<FOR>pixel26</FOR>
<GIVEN>pixel25</GIVEN>
<GIVEN>pixel29</GIVEN>
<GIVEN>pixel4</GIVEN>
<TABLE>
0.9435657800143782 0.04852624011502516 0.005391804457225018 0.0025161754133716753 
0.8715798764342454 0.11606354810238305 0.011915269196822596 4.41306266548985E-4 
0.8100961538461539 0.1658653846153846 0.01201923076923077 0.01201923076923077 
0.8371212121212122 0.11742424242424243 0.026515151515151516 0.01893939393939394 
0.6875 0.2875 0.0125 0.0125 
0.7932692307692307 0.1875 0.014423076923076924 0.004807692307692308 
0.8023255813953488 0.12790697674418605 0.03488372093023256 0.03488372093023256 
0.6730769230769231 0.21153846153846154 0.09615384615384616 0.019230769230769232 
0.4375 0.3125 0.0625 0.1875 
0.59375 0.34375 0.03125 0.03125 
0.5 0.3888888888888889 0.05555555555555555 0.05555555555555555 
0.71875 0.15625 0.09375 0.03125 
0.5 0.16666666666666666 0.16666666666666666 0.16666666666666666 
0.08333333333333333 0.25 0.08333333333333333 0.5833333333333334 
0.25 0.25 0.25 0.25 
0.3 0.3 0.3 0.1 
0.49366643209007743 0.4605911330049261 0.0390570021111893 0.006685432793807178 
0.3211805555555556 0.5962577160493827 0.07889660493827161 0.0036651234567901233 
0.3229166666666667 0.5223214285714286 0.14136904761904762 0.013392857142857142 
0.3840909090909091 0.42045454545454547 0.14772727272727273 0.04772727272727273 
0.15181268882175228 0.6442598187311178 0.17900302114803626 0.024924471299093656 
0.09590112640801002 0.7019712140175219 0.19571339173967459 0.006414267834793492 
0.14766839378238342 0.572538860103627 0.25647668393782386 0.023316062176165803 
0.21080139372822299 0.4547038327526132 0.28397212543554007 0.050522648083623695 
0.1989795918367347 0.5051020408163265 0.22959183673469388 0.0663265306122449 
0.14810126582278482 0.49493670886075947 0.3227848101265823 0.03417721518987342 
0.13583815028901733 0.42485549132947975 0.3786127167630058 0.06069364161849711 
0.2131782945736434 0.32170542635658916 0.36046511627906974 0.10465116279069768 
0.375 0.275 0.225 0.125 
0.17045454545454544 0.375 0.32954545454545453 0.125 
0.16666666666666666 0.2777777777777778 0.35185185185185186 0.2037037037037037 
0.23684210526315788 0.37719298245614036 0.14912280701754385 0.23684210526315788 
0.06097560975609756 0.2804878048780488 0.573170731707317 0.08536585365853659 
0.013089005235602094 0.23821989528795812 0.6675392670157068 0.08115183246073299 
0.05 0.10714285714285714 0.6357142857142857 0.20714285714285716 
0.022727272727272728 0.1893939393939394 0.553030303030303 0.23484848484848486 
0.008875739644970414 0.2692307692307692 0.5887573964497042 0.13313609467455623 
0.006180871828236825 0.17664281067013662 0.7667534157449577 0.05042290175666884 
0.007186858316221766 0.11601642710472279 0.7731006160164271 0.10369609856262833 
0.02610441767068273 0.1827309236947791 0.5522088353413654 0.2389558232931727 
0.02570093457943925 0.15654205607476634 0.6004672897196262 0.21728971962616822 
0.0033259423503325942 0.10044345898004435 0.7824833702882483 0.11374722838137473 
0.0028022417934347476 0.08686949559647718 0.767413931144916 0.14291433146517213 
0.009838998211091235 0.13327370304114491 0.6270125223613596 0.2298747763864043 
0.0875 0.2875 0.3125 0.3125 
0.03353658536585366 0.10670731707317073 0.5884146341463414 0.27134146341463417 
0.040625 0.128125 0.546875 0.284375 
0.04439252336448598 0.1425233644859813 0.4462616822429907 0.36682242990654207 
0.07142857142857142 0.07142857142857142 0.5 0.35714285714285715 
0.04411764705882353 0.10294117647058823 0.36764705882352944 0.4852941176470588 
0.03333333333333333 0.16666666666666666 0.16666666666666666 0.6333333333333333 
0.017241379310344827 0.05172413793103448 0.1896551724137931 0.7413793103448276 
0.023809523809523808 0.16666666666666666 0.21428571428571427 0.5952380952380952 
0.005154639175257732 0.04639175257731959 0.4484536082474227 0.5 
0.0058823529411764705 0.041176470588235294 0.2647058823529412 0.6882352941176471 
0.004166666666666667 0.07083333333333333 0.19583333333333333 0.7291666666666666 
0.009615384615384616 0.10576923076923077 0.3173076923076923 0.5673076923076923 
0.004078303425774877 0.02365415986949429 0.3254486133768352 0.6468189233278956 
0.004992867332382311 0.016405135520684736 0.2703281027104137 0.7082738944365192 
0.00382262996941896 0.023700305810397553 0.22859327217125383 0.7438837920489296 
0.003424657534246575 0.03767123287671233 0.18835616438356165 0.7705479452054794 
0.0024826216484607746 0.02333664349553128 0.1772591857000993 0.7969215491559086 
0.0011811023622047244 0.00905511811023622 0.12244094488188977 0.8673228346456693 
0.0018682065217391305 0.010020380434782608 0.08237092391304347 0.9057404891304348 
</TABLE>
</DEFINITION>
<DEFINITION>
<FOR>pixel27</FOR>
<GIVEN>pixel28</GIVEN>
<GIVEN>pixel25</GIVEN>
<GIVEN>pixel26</GIVEN>
<TABLE>
0.97301024428684 0.02462568951930654 0.0017730496453900709 5.91016548463357E-4 
0.907051282051282 0.08012820512820513 0.009615384615384616 0.003205128205128205 
0.6428571428571429 0.21428571428571427 0.07142857142857142 0.07142857142857142 
0.5 0.3 0.1 0.1 
0.8229166666666666 0.16372863247863248 0.012553418803418804 8.012820512820513E-4 
0.7052830188679245 0.28867924528301886 0.004905660377358491 0.0011320754716981133 
0.7473118279569892 0.20967741935483872 0.03763440860215054 0.005376344086021506 
0.75 0.10714285714285714 0.10714285714285714 0.03571428571428571 
0.23958333333333334 0.4270833333333333 0.28125 0.052083333333333336 
0.30223880597014924 0.5186567164179104 0.16791044776119404 0.011194029850746268 
