<?xml version="1.0"?>
<!-- DTD for the XMLBIF 0.3 format -->
<!DOCTYPE BIF [
	<!ELEMENT BIF ( NETWORK )*>
	      <!ATTLIST BIF VERSION CDATA #REQUIRED>
	<!ELEMENT NETWORK ( NAME, ( PROPERTY | VARIABLE | DEFINITION )* )>
	<!ELEMENT NAME (#PCDATA)>
	<!ELEMENT VARIABLE ( NAME, ( OUTCOME |  PROPERTY )* ) >
	      <!ATTLIST VARIABLE TYPE (nature|decision|utility) "nature">
	<!ELEMENT OUTCOME (#PCDATA)>
	<!ELEMENT DEFINITION ( FOR | GIVEN | TABLE | PROPERTY )* >
	<!ELEMENT FOR (#PCDATA)>
	<!ELEMENT GIVEN (#PCDATA)>
	<!ELEMENT TABLE (#PCDATA)>
	<!ELEMENT PROPERTY (#PCDATA)>
]>


<BIF VERSION="0.3">
<NETWORK>
<NAME>faces-weka.filters.supervised.attribute.Discretize-Rfirst-last-precision6-weka.filters.unsupervised.attribute.ReplaceMissingValues</NAME>
<VARIABLE TYPE="nature">
<NAME>emotion</NAME>
<OUTCOME>angry</OUTCOME>
<OUTCOME>disgust</OUTCOME>
<OUTCOME>fear</OUTCOME>
<OUTCOME>happy</OUTCOME>
<OUTCOME>neutral</OUTCOME>
<OUTCOME>sad</OUTCOME>
<OUTCOME>surprise</OUTCOME>
</VARIABLE>
<VARIABLE TYPE="nature">
<NAME>pixel0</NAME>
<OUTCOME>&apos;\&apos;(-inf-0.448039]\&apos;&apos;</OUTCOME>
<OUTCOME>&apos;\&apos;(0.448039-0.688235]\&apos;&apos;</OUTCOME>
<OUTCOME>&apos;\&apos;(0.688235-0.789216]\&apos;&apos;</OUTCOME>
<OUTCOME>&apos;\&apos;(0.789216-inf)\&apos;&apos;</OUTCOME>
</VARIABLE>
<VARIABLE TYPE="nature">
<NAME>pixel1</NAME>
<OUTCOME>&apos;\&apos;(-inf-0.295588]\&apos;&apos;</OUTCOME>
<OUTCOME>&apos;\&apos;(0.295588-0.52451]\&apos;&apos;</OUTCOME>
<OUTCOME>&apos;\&apos;(0.52451-0.620098]\&apos;&apos;</OUTCOME>
<OUTCOME>&apos;\&apos;(0.620098-0.762745]\&apos;&apos;</OUTCOME>
<OUTCOME>&apos;\&apos;(0.762745-inf)\&apos;&apos;</OUTCOME>
</VARIABLE>
<VARIABLE TYPE="nature">
<NAME>pixel2</NAME>
<OUTCOME>&apos;\&apos;(-inf-0.152451]\&apos;&apos;</OUTCOME>
<OUTCOME>&apos;\&apos;(0.152451-0.40098]\&apos;&apos;</OUTCOME>
<OUTCOME>&apos;\&apos;(0.40098-0.657353]\&apos;&apos;</OUTCOME>
<OUTCOME>&apos;\&apos;(0.657353-0.768627]\&apos;&apos;</OUTCOME>
<OUTCOME>&apos;\&apos;(0.768627-inf)\&apos;&apos;</OUTCOME>
</VARIABLE>
<VARIABLE TYPE="nature">
<NAME>pixel3</NAME>
<OUTCOME>&apos;\&apos;(-inf-0.429412]\&apos;&apos;</OUTCOME>
<OUTCOME>&apos;\&apos;(0.429412-0.648529]\&apos;&apos;</OUTCOME>
<OUTCOME>&apos;\&apos;(0.648529-0.788235]\&apos;&apos;</OUTCOME>
<OUTCOME>&apos;\&apos;(0.788235-inf)\&apos;&apos;</OUTCOME>
</VARIABLE>
<VARIABLE TYPE="nature">
<NAME>pixel4</NAME>
<OUTCOME>&apos;\&apos;(-inf-0.408824]\&apos;&apos;</OUTCOME>
<OUTCOME>&apos;\&apos;(0.408824-0.705392]\&apos;&apos;</OUTCOME>
<OUTCOME>&apos;\&apos;(0.705392-0.794118]\&apos;&apos;</OUTCOME>
<OUTCOME>&apos;\&apos;(0.794118-inf)\&apos;&apos;</OUTCOME>
</VARIABLE>
<VARIABLE TYPE="nature">
<NAME>pixel5</NAME>
<OUTCOME>&apos;\&apos;(-inf-0.493627]\&apos;&apos;</OUTCOME>
<OUTCOME>&apos;\&apos;(0.493627-0.669608]\&apos;&apos;</OUTCOME>
<OUTCOME>&apos;\&apos;(0.669608-inf)\&apos;&apos;</OUTCOME>
</VARIABLE>
<VARIABLE TYPE="nature">
<NAME>pixel6</NAME>
<OUTCOME>&apos;\&apos;(-inf-0.080392]\&apos;&apos;</OUTCOME>
<OUTCOME>&apos;\&apos;(0.080392-0.542647]\&apos;&apos;</OUTCOME>
<OUTCOME>&apos;\&apos;(0.542647-0.663235]\&apos;&apos;</OUTCOME>
<OUTCOME>&apos;\&apos;(0.663235-inf)\&apos;&apos;</OUTCOME>
</VARIABLE>
<VARIABLE TYPE="nature">
<NAME>pixel7</NAME>
<OUTCOME>&apos;\&apos;(-inf-0.50098]\&apos;&apos;</OUTCOME>
<OUTCOME>&apos;\&apos;(0.50098-inf)\&apos;&apos;</OUTCOME>
</VARIABLE>
<VARIABLE TYPE="nature">
<NAME>pixel8</NAME>
<OUTCOME>&apos;\&apos;(-inf-0.181373]\&apos;&apos;</OUTCOME>
<OUTCOME>&apos;\&apos;(0.181373-0.565196]\&apos;&apos;</OUTCOME>
<OUTCOME>&apos;\&apos;(0.565196-inf)\&apos;&apos;</OUTCOME>
</VARIABLE>
<VARIABLE TYPE="nature">
<NAME>pixel9</NAME>
<OUTCOME>&apos;\&apos;(-inf-0.093137]\&apos;&apos;</OUTCOME>
<OUTCOME>&apos;\&apos;(0.093137-0.593137]\&apos;&apos;</OUTCOME>
<OUTCOME>&apos;\&apos;(0.593137-inf)\&apos;&apos;</OUTCOME>
</VARIABLE>
<VARIABLE TYPE="nature">
<NAME>pixel10</NAME>
<OUTCOME>&apos;\&apos;(-inf-0.020098]\&apos;&apos;</OUTCOME>
<OUTCOME>&apos;\&apos;(0.020098-0.435294]\&apos;&apos;</OUTCOME>
<OUTCOME>&apos;\&apos;(0.435294-0.735294]\&apos;&apos;</OUTCOME>
<OUTCOME>&apos;\&apos;(0.735294-0.972059]\&apos;&apos;</OUTCOME>
<OUTCOME>&apos;\&apos;(0.972059-inf)\&apos;&apos;</OUTCOME>
</VARIABLE>
<VARIABLE TYPE="nature">
<NAME>pixel11</NAME>
<OUTCOME>&apos;\&apos;(-inf-0.026961]\&apos;&apos;</OUTCOME>
<OUTCOME>&apos;\&apos;(0.026961-0.676471]\&apos;&apos;</OUTCOME>
<OUTCOME>&apos;\&apos;(0.676471-0.991667]\&apos;&apos;</OUTCOME>
<OUTCOME>&apos;\&apos;(0.991667-inf)\&apos;&apos;</OUTCOME>
</VARIABLE>
<VARIABLE TYPE="nature">
<NAME>pixel12</NAME>
<OUTCOME>&apos;\&apos;(-inf-0.603922]\&apos;&apos;</OUTCOME>
<OUTCOME>&apos;\&apos;(0.603922-0.976471]\&apos;&apos;</OUTCOME>
<OUTCOME>&apos;\&apos;(0.976471-inf)\&apos;&apos;</OUTCOME>
</VARIABLE>
<VARIABLE TYPE="nature">
<NAME>pixel13</NAME>
<OUTCOME>&apos;\&apos;(-inf-0.493137]\&apos;&apos;</OUTCOME>
<OUTCOME>&apos;\&apos;(0.493137-0.675]\&apos;&apos;</OUTCOME>
<OUTCOME>&apos;\&apos;(0.675-0.957353]\&apos;&apos;</OUTCOME>
<OUTCOME>&apos;\&apos;(0.957353-inf)\&apos;&apos;</OUTCOME>
</VARIABLE>
<VARIABLE TYPE="nature">
<NAME>pixel14</NAME>
<OUTCOME>&apos;\&apos;(-inf-0.585294]\&apos;&apos;</OUTCOME>
<OUTCOME>&apos;\&apos;(0.585294-0.985784]\&apos;&apos;</OUTCOME>
<OUTCOME>&apos;\&apos;(0.985784-inf)\&apos;&apos;</OUTCOME>
</VARIABLE>
<VARIABLE TYPE="nature">
<NAME>pixel15</NAME>
<OUTCOME>&apos;\&apos;(-inf-0.016176]\&apos;&apos;</OUTCOME>
<OUTCOME>&apos;\&apos;(0.016176-0.180392]\&apos;&apos;</OUTCOME>
<OUTCOME>&apos;\&apos;(0.180392-0.389216]\&apos;&apos;</OUTCOME>
<OUTCOME>&apos;\&apos;(0.389216-0.587255]\&apos;&apos;</OUTCOME>
<OUTCOME>&apos;\&apos;(0.587255-inf)\&apos;&apos;</OUTCOME>
</VARIABLE>
<VARIABLE TYPE="nature">
<NAME>pixel16</NAME>
<OUTCOME>&apos;\&apos;(-inf-0.161275]\&apos;&apos;</OUTCOME>
<OUTCOME>&apos;\&apos;(0.161275-0.362745]\&apos;&apos;</OUTCOME>
<OUTCOME>&apos;\&apos;(0.362745-0.498039]\&apos;&apos;</OUTCOME>
<OUTCOME>&apos;\&apos;(0.498039-0.606863]\&apos;&apos;</OUTCOME>
<OUTCOME>&apos;\&apos;(0.606863-inf)\&apos;&apos;</OUTCOME>
</VARIABLE>
<VARIABLE TYPE="nature">
<NAME>pixel17</NAME>
<OUTCOME>&apos;\&apos;(-inf-0.194608]\&apos;&apos;</OUTCOME>
<OUTCOME>&apos;\&apos;(0.194608-0.288725]\&apos;&apos;</OUTCOME>
<OUTCOME>&apos;\&apos;(0.288725-0.491667]\&apos;&apos;</OUTCOME>
<OUTCOME>&apos;\&apos;(0.491667-inf)\&apos;&apos;</OUTCOME>
</VARIABLE>
<VARIABLE TYPE="nature">
<NAME>pixel18</NAME>
<OUTCOME>&apos;\&apos;(-inf-0.151961]\&apos;&apos;</OUTCOME>
<OUTCOME>&apos;\&apos;(0.151961-0.334804]\&apos;&apos;</OUTCOME>
<OUTCOME>&apos;\&apos;(0.334804-0.541667]\&apos;&apos;</OUTCOME>
<OUTCOME>&apos;\&apos;(0.541667-inf)\&apos;&apos;</OUTCOME>
</VARIABLE>
<VARIABLE TYPE="nature">
<NAME>pixel19</NAME>
<OUTCOME>&apos;\&apos;(-inf-0.207843]\&apos;&apos;</OUTCOME>
<OUTCOME>&apos;\&apos;(0.207843-0.405392]\&apos;&apos;</OUTCOME>
<OUTCOME>&apos;\&apos;(0.405392-0.571078]\&apos;&apos;</OUTCOME>
<OUTCOME>&apos;\&apos;(0.571078-inf)\&apos;&apos;</OUTCOME>
</VARIABLE>
<VARIABLE TYPE="nature">
<NAME>pixel20</NAME>
<OUTCOME>&apos;\&apos;(-inf-0.090686]\&apos;&apos;</OUTCOME>
<OUTCOME>&apos;\&apos;(0.090686-0.337255]\&apos;&apos;</OUTCOME>
<OUTCOME>&apos;\&apos;(0.337255-inf)\&apos;&apos;</OUTCOME>
</VARIABLE>
<VARIABLE TYPE="nature">
<NAME>pixel21</NAME>
<OUTCOME>&apos;\&apos;(-inf-0.156373]\&apos;&apos;</OUTCOME>
<OUTCOME>&apos;\&apos;(0.156373-0.503431]\&apos;&apos;</OUTCOME>
<OUTCOME>&apos;\&apos;(0.503431-0.991667]\&apos;&apos;</OUTCOME>
<OUTCOME>&apos;\&apos;(0.991667-inf)\&apos;&apos;</OUTCOME>
</VARIABLE>
<VARIABLE TYPE="nature">
<NAME>pixel22</NAME>
<OUTCOME>&apos;\&apos;(-inf-0.355882]\&apos;&apos;</OUTCOME>
<OUTCOME>&apos;\&apos;(0.355882-0.978431]\&apos;&apos;</OUTCOME>
<OUTCOME>&apos;\&apos;(0.978431-inf)\&apos;&apos;</OUTCOME>
</VARIABLE>
<VARIABLE TYPE="nature">
<NAME>pixel23</NAME>
<OUTCOME>&apos;\&apos;(-inf-0.058333]\&apos;&apos;</OUTCOME>
<OUTCOME>&apos;\&apos;(0.058333-0.289706]\&apos;&apos;</OUTCOME>
<OUTCOME>&apos;\&apos;(0.289706-0.634314]\&apos;&apos;</OUTCOME>
<OUTCOME>&apos;\&apos;(0.634314-0.967157]\&apos;&apos;</OUTCOME>
<OUTCOME>&apos;\&apos;(0.967157-inf)\&apos;&apos;</OUTCOME>
</VARIABLE>
<VARIABLE TYPE="nature">
<NAME>pixel24</NAME>
<OUTCOME>&apos;\&apos;(-inf-0.159314]\&apos;&apos;</OUTCOME>
<OUTCOME>&apos;\&apos;(0.159314-0.546569]\&apos;&apos;</OUTCOME>
<OUTCOME>&apos;\&apos;(0.546569-0.960784]\&apos;&apos;</OUTCOME>
<OUTCOME>&apos;\&apos;(0.960784-inf)\&apos;&apos;</OUTCOME>
</VARIABLE>
<VARIABLE TYPE="nature">
<NAME>pixel25</NAME>
<OUTCOME>&apos;\&apos;(-inf-0.328431]\&apos;&apos;</OUTCOME>
<OUTCOME>&apos;\&apos;(0.328431-0.627451]\&apos;&apos;</OUTCOME>
<OUTCOME>&apos;\&apos;(0.627451-0.758824]\&apos;&apos;</OUTCOME>
<OUTCOME>&apos;\&apos;(0.758824-inf)\&apos;&apos;</OUTCOME>
</VARIABLE>
<VARIABLE TYPE="nature">
<NAME>pixel26</NAME>
<OUTCOME>&apos;\&apos;(-inf-0.419608]\&apos;&apos;</OUTCOME>
<OUTCOME>&apos;\&apos;(0.419608-0.614706]\&apos;&apos;</OUTCOME>
<OUTCOME>&apos;\&apos;(0.614706-0.761765]\&apos;&apos;</OUTCOME>
<OUTCOME>&apos;\&apos;(0.761765-inf)\&apos;&apos;</OUTCOME>
</VARIABLE>
<VARIABLE TYPE="nature">
<NAME>pixel27</NAME>
<OUTCOME>&apos;\&apos;(-inf-0.465686]\&apos;&apos;</OUTCOME>
<OUTCOME>&apos;\&apos;(0.465686-0.639216]\&apos;&apos;</OUTCOME>
<OUTCOME>&apos;\&apos;(0.639216-0.772059]\&apos;&apos;</OUTCOME>
<OUTCOME>&apos;\&apos;(0.772059-inf)\&apos;&apos;</OUTCOME>
</VARIABLE>
<VARIABLE TYPE="nature">
<NAME>pixel28</NAME>
<OUTCOME>&apos;\&apos;(-inf-0.466667]\&apos;&apos;</OUTCOME>
<OUTCOME>&apos;\&apos;(0.466667-0.684804]\&apos;&apos;</OUTCOME>
<OUTCOME>&apos;\&apos;(0.684804-0.77598]\&apos;&apos;</OUTCOME>
<OUTCOME>&apos;\&apos;(0.77598-inf)\&apos;&apos;</OUTCOME>
</VARIABLE>
<VARIABLE TYPE="nature">
<NAME>pixel29</NAME>
<OUTCOME>&apos;\&apos;(-inf-0.477451]\&apos;&apos;</OUTCOME>
<OUTCOME>&apos;\&apos;(0.477451-0.644608]\&apos;&apos;</OUTCOME>
<OUTCOME>&apos;\&apos;(0.644608-0.768137]\&apos;&apos;</OUTCOME>
<OUTCOME>&apos;\&apos;(0.768137-inf)\&apos;&apos;</OUTCOME>
</VARIABLE>
<VARIABLE TYPE="nature">
<NAME>pixel30</NAME>
<OUTCOME>&apos;\&apos;(-inf-0.22402]\&apos;&apos;</OUTCOME>
<OUTCOME>&apos;\&apos;(0.22402-0.405882]\&apos;&apos;</OUTCOME>
<OUTCOME>&apos;\&apos;(0.405882-0.676961]\&apos;&apos;</OUTCOME>
<OUTCOME>&apos;\&apos;(0.676961-0.822059]\&apos;&apos;</OUTCOME>
<OUTCOME>&apos;\&apos;(0.822059-inf)\&apos;&apos;</OUTCOME>
</VARIABLE>
<VARIABLE TYPE="nature">
<NAME>pixel31</NAME>
<OUTCOME>&apos;\&apos;(-inf-0.279412]\&apos;&apos;</OUTCOME>
<OUTCOME>&apos;\&apos;(0.279412-0.480882]\&apos;&apos;</OUTCOME>
<OUTCOME>&apos;\&apos;(0.480882-0.648039]\&apos;&apos;</OUTCOME>
<OUTCOME>&apos;\&apos;(0.648039-0.745098]\&apos;&apos;</OUTCOME>
<OUTCOME>&apos;\&apos;(0.745098-inf)\&apos;&apos;</OUTCOME>
</VARIABLE>
<VARIABLE TYPE="nature">
<NAME>pixel32</NAME>
<OUTCOME>&apos;\&apos;(-inf-0.448039]\&apos;&apos;</OUTCOME>
<OUTCOME>&apos;\&apos;(0.448039-0.688235]\&apos;&apos;</OUTCOME>
<OUTCOME>&apos;\&apos;(0.688235-0.789216]\&apos;&apos;</OUTCOME>
<OUTCOME>&apos;\&apos;(0.789216-inf)\&apos;&apos;</OUTCOME>
</VARIABLE>
<VARIABLE TYPE="nature">
<NAME>pixel33</NAME>
<OUTCOME>&apos;\&apos;(-inf-0.428922]\&apos;&apos;</OUTCOME>
<OUTCOME>&apos;\&apos;(0.428922-0.598039]\&apos;&apos;</OUTCOME>
<OUTCOME>&apos;\&apos;(0.598039-0.75]\&apos;&apos;</OUTCOME>
<OUTCOME>&apos;\&apos;(0.75-inf)\&apos;&apos;</OUTCOME>
</VARIABLE>
<VARIABLE TYPE="nature">
<NAME>pixel34</NAME>
<OUTCOME>&apos;\&apos;(-inf-0.477451]\&apos;&apos;</OUTCOME>
<OUTCOME>&apos;\&apos;(0.477451-0.644608]\&apos;&apos;</OUTCOME>
<OUTCOME>&apos;\&apos;(0.644608-0.768137]\&apos;&apos;</OUTCOME>
<OUTCOME>&apos;\&apos;(0.768137-inf)\&apos;&apos;</OUTCOME>
</VARIABLE>
<DEFINITION>
<FOR>emotion</FOR>
<TABLE>
0.13740923259094154 0.014853640273738833 0.14420046319675414 0.24955160464589826 0.17261915127030839 0.16958921761540738 0.11177669040695143 
</TABLE>
</DEFINITION>
<DEFINITION>
<FOR>pixel0</FOR>
<GIVEN>emotion</GIVEN>
<TABLE>
0.29579427413225234 0.42171269318469723 0.17367620977957943 0.10881682290347099 
0.2161214953271028 0.4871495327102804 0.16238317757009346 0.13434579439252337 
0.19157411878319652 0.415620473201352 0.21450989859971029 0.17829550941574118 
0.23168689828380076 0.45297893121250177 0.18243337519185154 0.13290079531184595 
0.22478822105687776 0.38594191206131506 0.18767648245260185 0.20159338442920532 
0.2832067337302402 0.41172243892424554 0.17049887086840484 0.13457195647710943 
0.08797882279663656 0.324976642790408 0.25615073185923387 0.3308938025537216 
</TABLE>
</DEFINITION>
<DEFINITION>
<FOR>pixel1</FOR>
<GIVEN>emotion</GIVEN>
<GIVEN>pixel0</GIVEN>
<TABLE>
0.23728088926891835 0.430525865754596 0.14493373236425822 0.12612227447627192 0.061137238135955535 
0.08070807080708071 0.2901290129012901 0.2565256525652565 0.2901290129012901 0.08250825082508251 
0.05309090909090909 0.19127272727272726 0.16945454545454544 0.3658181818181818 0.22036363636363637 
0.05909617612977984 0.11471610660486674 0.10312862108922363 0.24913093858632676 0.473928157589803 
0.13227513227513227 0.5132275132275133 0.13227513227513227 0.164021164021164 0.0582010582010582 
0.030878859857482184 0.23990498812351543 0.27315914489311166 0.33016627078384797 0.12589073634204276 
0.04895104895104895 0.16083916083916083 0.11888111888111888 0.3706293706293706 0.3006993006993007 
0.025210084033613446 0.07563025210084033 0.14285714285714285 0.17647058823529413 0.5798319327731093 
0.17661847894406035 0.37774984286612195 0.17410433689503457 0.16027655562539284 0.11125078566939033 
0.0670147954743255 0.240498984624311 0.240498984624311 0.3130258195532347 0.13896141572381782 
0.03425042111173498 0.10724312184166199 0.14093206064008984 0.42167321729365526 0.29590117911285796 
0.041188386225523295 0.09115462525320729 0.07089804186360567 0.28966914247130315 0.5070898041863605 
0.20962406015037593 0.4959398496240601 0.13022556390977444 0.11218045112781955 0.052030075187969926 
0.04540557180237032 0.30983530860397107 0.24519008773279977 0.3042942896721564 0.09527474218870248 
0.019473081328751432 0.13402061855670103 0.14012982054219167 0.46926307751050017 0.23711340206185566 
0.018334206390780514 0.1000523834468308 0.07805133577789418 0.28758512310110007 0.5159769512833945 
0.23063143752798926 0.432154052843708 0.11957008508732647 0.1330049261083744 0.08463949843260188 
0.058731401722787784 0.27695118767945703 0.23936309057687288 0.30566431741059774 0.11929000261028452 
0.02520107238605898 0.14316353887399463 0.09919571045576407 0.44235924932975873 0.2900804289544236 
0.03544682975536695 0.07239141288067898 0.06640039940089865 0.2710933599600599 0.5546679980029955 
0.2211364458921462 0.43467245747376043 0.1328266377126312 0.13716974303293522 0.07419471588852697 
0.08692403486924034 0.3165628891656289 0.2323785803237858 0.26425902864259027 0.09987546699875467 
0.05225225225225225 0.18078078078078078 0.16756756756756758 0.3621621621621622 0.23723723723723725 
0.05399239543726236 0.1391634980988593 0.0844106463878327 0.26387832699619773 0.4585551330798479 
0.14586994727592267 0.28646748681898065 0.15289982425307558 0.24428822495606328 0.1704745166959578 
0.031085604973696796 0.18507890961262555 0.20899091343854614 0.3648971783835485 0.209947393591583 
0.01758641600970285 0.10733778047301394 0.12916919345057612 0.41297756215888415 0.3329290479078229 
0.013621418506341005 0.09816815406294034 0.07280413339596055 0.24753405354626584 0.5678722404884923 
</TABLE>
</DEFINITION>
<DEFINITION>
<FOR>pixel2</FOR>
<GIVEN>emotion</GIVEN>
<GIVEN>pixel0</GIVEN>
<TABLE>
0.12270200940572894 0.5604959384352287 0.28858486532706284 0.020094057289439932 0.008123129542539546 
0.0051005100510051 0.0927092709270927 0.6927692769276927 0.17371737173717372 0.035703570357035704 
0.002181818181818182 0.01818181818181818 0.3396363636363636 0.4152727272727273 0.22472727272727272 
0.0011587485515643105 0.008111239860950173 0.0984936268829664 0.26998841251448435 0.6222479721900348 
0.047619047619047616 0.5873015873015873 0.3439153439153439 0.015873015873015872 0.005291005291005291 
0.0023752969121140144 0.09738717339667459 0.6199524940617577 0.23040380047505937 0.0498812351543943 
0.006993006993006993 0.02097902097902098 0.24475524475524477 0.42657342657342656 0.3006993006993007 
0.008403361344537815 0.008403361344537815 0.09243697478991597 0.29411764705882354 0.5966386554621849 
0.09239472030169704 0.5700817096165933 0.30106851037083593 0.0295411690760528 0.0069138906348208675 
0.0020307513780098638 0.11575282854656223 0.6692776327241079 0.16042935886277923 0.05250942848854076 
0.0016844469399213925 0.021897810218978103 0.25210555867490175 0.5272318921953958 0.19708029197080293 
6.752194463200541E-4 0.004726536124240378 0.07089804186360567 0.23295070898041864 0.6907494935854153 
0.04360902255639098 0.5476691729323309 0.3798496240601504 0.021954887218045113 0.0069172932330827065 
0.0010774203478528552 0.060797291057411114 0.7127905187009389 0.19224257349545945 0.033092196398337693 
3.8182512409316535E-4 0.0057273768613974796 0.25162275677739593 0.5158457426498664 0.22642229858724705 
5.238344683080147E-4 0.003666841278156103 0.060240963855421686 0.21843897328444212 0.7171293871136721 
0.08732646663681147 0.619346171070309 0.27630989699955216 0.011195700850873265 0.005821764442454098 
0.0028713129731140694 0.10676063690942313 0.711824588880188 0.16053249804228661 0.018010963194988253 
0.0016085790884718498 0.014477211796246649 0.29115281501340484 0.503485254691689 0.18927613941018767 
0.0014977533699450823 0.008487269096355467 0.07239141288067898 0.23015476784822766 0.6874687968047928 
0.10749185667752444 0.564965617082881 0.3043792978646399 0.017010495837857402 0.006152732537097358 
0.0037359900373599006 0.12727272727272726 0.6826899128268992 0.1576587795765878 0.028642590286425903 
6.006006006006006E-4 0.022222222222222223 0.2840840840840841 0.49309309309309307 0.2 
7.604562737642585E-4 0.006844106463878327 0.06463878326996197 0.24258555133079848 0.685171102661597 
0.08611599297012303 0.6098418277680141 0.28998242530755713 0.012302284710017574 0.0017574692442882249 
0.008130081300813009 0.10760401721664276 0.6633189861310378 0.18029650884744142 0.04065040650406504 
6.064281382656155E-4 0.01879927228623408 0.26379624014554276 0.5451788963007883 0.1716191631291692 
4.697040864255519E-4 0.0023485204321277596 0.04462188821042743 0.20713950211366838 0.7454203851573509 
</TABLE>
</DEFINITION>
<DEFINITION>
<FOR>pixel3</FOR>
<GIVEN>emotion</GIVEN>
<GIVEN>pixel0</GIVEN>
<GIVEN>pixel2</GIVEN>
<TABLE>
0.9206896551724137 0.06551724137931035 0.010344827586206896 0.0034482758620689655 
0.8531202435312024 0.13318112633181126 0.01141552511415525 0.00228310502283105 
0.6769911504424779 0.27876106194690264 0.028023598820058997 0.016224188790560472 
0.46 0.34 0.18 0.02 
0.5909090909090909 0.3181818181818182 0.045454545454545456 0.045454545454545456 
0.45 0.45 0.05 0.05 
0.41346153846153844 0.49038461538461536 0.07371794871794872 0.022435897435897436 
0.12326989619377163 0.7469723183391004 0.12067474048442907 0.009083044982698962 
0.05670103092783505 0.47594501718213056 0.4518900343642612 0.015463917525773196 
0.10655737704918032 0.3524590163934426 0.4672131147540984 0.07377049180327869 
0.16666666666666666 0.5 0.16666666666666666 0.16666666666666666 
0.10714285714285714 0.25 0.5357142857142857 0.10714285714285714 
0.04042553191489362 0.274468085106383 0.6319148936170212 0.05319148936170213 
0.02264808362369338 0.13066202090592335 0.740418118466899 0.10627177700348432 
0.028846153846153848 0.09935897435897435 0.6121794871794872 0.25961538461538464 
0.25 0.25 0.25 0.25 
0.1 0.5 0.1 0.3 
0.011363636363636364 0.23863636363636365 0.3977272727272727 0.3522727272727273 
0.012711864406779662 0.05508474576271186 0.3855932203389831 0.5466101694915254 
0.012962962962962963 0.024074074074074074 0.20185185185185187 0.7611111111111111 
0.75 0.08333333333333333 0.08333333333333333 0.08333333333333333 
0.8859649122807017 0.09649122807017543 0.008771929824561403 0.008771929824561403 
0.7205882352941176 0.25 0.014705882352941176 0.014705882352941176 
0.5 0.16666666666666666 0.16666666666666666 0.16666666666666666 
0.25 0.25 0.25 0.25 
0.25 0.25 0.25 0.25 
0.38636363636363635 0.5681818181818182 0.022727272727272728 0.022727272727272728 
0.04924242424242424 0.7537878787878788 0.19318181818181818 0.003787878787878788 
0.03 0.49 0.47 0.01 
0.041666666666666664 0.20833333333333334 0.4583333333333333 0.2916666666666667 
0.25 0.25 0.25 0.25 
0.16666666666666666 0.5 0.16666666666666666 0.16666666666666666 
0.07894736842105263 0.18421052631578946 0.7105263157894737 0.02631578947368421 
0.046875 0.078125 0.671875 0.203125 
0.06521739130434782 0.10869565217391304 0.45652173913043476 0.3695652173913043 
0.25 0.25 0.25 0.25 
0.25 0.25 0.25 0.25 
0.07142857142857142 0.07142857142857142 0.21428571428571427 0.6428571428571429 
0.07894736842105263 0.02631578947368421 0.4473684210526316 0.4473684210526316 
0.04054054054054054 0.013513513513513514 0.17567567567567569 0.7702702702702703 
0.7933333333333333 0.15333333333333332 0.04666666666666667 0.006666666666666667 
0.8406593406593407 0.13076923076923078 0.023076923076923078 0.005494505494505495 
0.7157676348547718 0.25933609958506226 0.01867219917012448 0.006224066390041493 
0.42 0.46 0.1 0.02 
0.6428571428571429 0.07142857142857142 0.07142857142857142 0.21428571428571427 
0.7 0.1 0.1 0.1 
0.2562189054726368 0.6243781094527363 0.11194029850746269 0.007462686567164179 
0.11038961038961038 0.7415584415584415 0.14415584415584415 0.003896103896103896 
0.10611510791366907 0.4982014388489209 0.36510791366906475 0.030575539568345324 
0.07065217391304347 0.375 0.3641304347826087 0.19021739130434784 
0.16666666666666666 0.5 0.16666666666666666 0.16666666666666666 
0.11904761904761904 0.4523809523809524 0.40476190476190477 0.023809523809523808 
0.015486725663716814 0.31194690265486724 0.6172566371681416 0.05530973451327434 
0.0074309978768577496 0.14968152866242038 0.7569002123142251 0.08598726114649681 
0.025423728813559324 0.11016949152542373 0.556497175141243 0.307909604519774 
0.25 0.25 0.25 0.25 
0.1 0.3 0.1 0.5 
0.027777777777777776 0.1388888888888889 0.3055555555555556 0.5277777777777778 
0.014367816091954023 0.04885057471264368 0.5431034482758621 0.3936781609195402 
0.004873294346978557 0.024366471734892786 0.19980506822612085 0.7709551656920078 
0.9391891891891891 0.0472972972972973 0.006756756756756757 0.006756756756756757 
0.8766447368421053 0.10910087719298246 0.010416666666666666 0.003837719298245614 
0.6184834123222749 0.3578199052132701 0.02132701421800948 0.002369668246445498 
0.5131578947368421 0.3815789473684211 0.06578947368421052 0.039473684210526314 
0.5 0.34615384615384615 0.11538461538461539 0.038461538461538464 
0.1 0.5 0.3 0.1 
0.38944723618090454 0.5251256281407035 0.0728643216080402 0.01256281407035176 
0.14738886491152353 0.73651273198101 0.11242986620630126 0.0036685369011653 
0.07587859424920128 0.5263578274760383 0.3777955271565495 0.019968051118210862 
0.0871559633027523 0.38990825688073394 0.43577981651376146 0.0871559633027523 
0.25 0.25 0.25 0.25 
0.16666666666666666 0.3888888888888889 0.3888888888888889 0.05555555555555555 
0.04078549848942598 0.41842900302114805 0.4879154078549849 0.052870090634441085 
0.019940915805022157 0.18537666174298376 0.7274741506646972 0.0672082717872969 
0.02181208053691275 0.1493288590604027 0.6124161073825504 0.21644295302013422 
0.25 0.25 0.25 0.25 
0.1 0.1 0.5 0.3 
0.00847457627118644 0.1440677966101695 0.5169491525423728 0.3305084745762712 
0.011904761904761904 0.0880952380952381 0.5833333333333334 0.31666666666666665 
0.01239067055393586 0.04154518950437318 0.27332361516034986 0.672740524781341 
0.9040404040404041 0.06565656565656566 0.025252525252525252 0.005050505050505051 
0.9025974025974026 0.09163059163059163 0.005050505050505051 7.215007215007215E-4 
0.6080645161290322 0.36935483870967745 0.017741935483870968 0.004838709677419355 
0.5357142857142857 0.25 0.17857142857142858 0.03571428571428571 
0.4375 0.4375 0.0625 0.0625 
0.6428571428571429 0.21428571428571427 0.07142857142857142 0.07142857142857142 
0.3179611650485437 0.5655339805825242 0.10436893203883495 0.012135922330097087 
0.08681318681318681 0.7564102564102564 0.15274725274725276 0.00402930402930403 
0.05016181229773463 0.558252427184466 0.38673139158576053 0.0048543689320388345 
0.041666666666666664 0.3472222222222222 0.5138888888888888 0.09722222222222222 
0.16666666666666666 0.16666666666666666 0.16666666666666666 0.5 
0.1 0.16666666666666666 0.6333333333333333 0.1 
0.01282051282051282 0.19230769230769232 0.7197802197802198 0.07509157509157509 
0.01167728237791932 0.10084925690021232 0.8205944798301487 0.06687898089171974 
0.019662921348314606 0.09269662921348315 0.7219101123595506 0.16573033707865167 
0.16666666666666666 0.16666666666666666 0.5 0.16666666666666666 
0.05 0.25 0.35 0.35 
0.033783783783783786 0.0472972972972973 0.38513513513513514 0.5337837837837838 
0.00646551724137931 0.032327586206896554 0.3081896551724138 0.6530172413793104 
7.246376811594203E-4 0.01956521739130435 0.16304347826086957 0.8166666666666667 
0.9433333333333334 0.03666666666666667 0.01 0.01 
0.8753196930946292 0.1170076726342711 0.00319693094629156 0.004475703324808184 
0.669431279620853 0.31398104265402843 0.01066350710900474 0.005924170616113744 
0.38 0.54 0.06 0.02 
0.35 0.45 0.15 0.05 
0.3888888888888889 0.2777777777777778 0.2777777777777778 0.05555555555555555 
0.32490272373540857 0.5622568093385214 0.08365758754863813 0.029182879377431907 
0.11115160349854228 0.7496355685131195 0.12572886297376093 0.01348396501457726 
0.08647798742138364 0.5487421383647799 0.3474842767295597 0.01729559748427673 
0.1440677966101695 0.4830508474576271 0.3474576271186441 0.025423728813559324 
0.25 0.25 0.25 0.25 
0.175 0.275 0.475 0.075 
0.014705882352941176 0.296218487394958 0.6071428571428571 0.0819327731092437 
0.015776699029126214 0.12742718446601942 0.758495145631068 0.0983009708737864 
0.008928571428571428 0.14583333333333334 0.6696428571428571 0.17559523809523808 
0.25 0.25 0.25 0.25 
0.08333333333333333 0.08333333333333333 0.25 0.5833333333333334 
0.011363636363636364 0.125 0.2840909090909091 0.5795454545454546 
0.009316770186335404 0.08385093167701864 0.40683229813664595 0.5 
0.00331858407079646 0.032079646017699116 0.20464601769911506 0.7599557522123894 
0.8269230769230769 0.1346153846153846 0.019230769230769232 0.019230769230769232 
0.8542857142857143 0.12857142857142856 0.008571428571428572 0.008571428571428572 
0.5654761904761905 0.375 0.041666666666666664 0.017857142857142856 
0.3 0.5 0.1 0.1 
0.25 0.25 0.25 0.25 
0.75 0.15 0.05 0.05 
0.27631578947368424 0.6008771929824561 0.10087719298245613 0.021929824561403508 
0.05971223021582734 0.7705035971223022 0.16330935251798562 0.006474820143884892 
0.013157894736842105 0.46578947368421053 0.4763157894736842 0.04473684210526316 
0.14772727272727273 0.4431818181818182 0.32954545454545453 0.07954545454545454 
0.25 0.25 0.25 0.25 
0.08823529411764706 0.14705882352941177 0.5 0.2647058823529412 
0.01141552511415525 0.2808219178082192 0.678082191780822 0.02968036529680365 
0.007760532150776054 0.07427937915742794 0.8458980044345898 0.07206208425720621 
0.0034965034965034965 0.10839160839160839 0.7797202797202797 0.10839160839160839 
0.25 0.25 0.25 0.25 
0.375 0.125 0.125 0.375 
0.01020408163265306 0.11224489795918367 0.47959183673469385 0.3979591836734694 
0.0022522522522522522 0.060810810810810814 0.41216216216216217 0.5247747747747747 
0.005660377358490566 0.013207547169811321 0.17169811320754716 0.809433962264151 
</TABLE>
</DEFINITION>
<DEFINITION>
<FOR>pixel4</FOR>
<GIVEN>emotion</GIVEN>
<GIVEN>pixel0</GIVEN>
<GIVEN>pixel2</GIVEN>
<TABLE>
0.7896551724137931 0.1896551724137931 0.0034482758620689655 0.017241379310344827 
0.682648401826484 0.3051750380517504 0.00684931506849315 0.00532724505327245 
0.4144542772861357 0.5442477876106194 0.030973451327433628 0.01032448377581121 
0.22 0.7 0.06 0.02 
0.4090909090909091 0.5 0.045454545454545456 0.045454545454545456 
0.05 0.55 0.35 0.05 
0.0673076923076923 0.7788461538461539 0.125 0.028846153846153848 
0.03503460207612457 0.8455882352941176 0.0921280276816609 0.027249134948096887 
0.018900343642611683 0.7027491408934707 0.211340206185567 0.06701030927835051 
0.05737704918032787 0.4672131147540984 0.30327868852459017 0.1721311475409836 
0.16666666666666666 0.16666666666666666 0.5 0.16666666666666666 
0.03571428571428571 0.4642857142857143 0.32142857142857145 0.17857142857142858 
0.010638297872340425 0.30851063829787234 0.4787234042553192 0.20212765957446807 
0.008710801393728223 0.259581881533101 0.5871080139372822 0.1445993031358885 
0.016025641025641024 0.21474358974358973 0.41346153846153844 0.3557692307692308 
0.25 0.25 0.25 0.25 
0.1 0.1 0.1 0.7 
0.011363636363636364 0.03409090909090909 0.26136363636363635 0.6931818181818182 
0.012711864406779662 0.08050847457627118 0.19915254237288135 0.7076271186440678 
0.016666666666666666 0.03518518518518519 0.13518518518518519 0.812962962962963 
0.75 0.08333333333333333 0.08333333333333333 0.08333333333333333 
0.6929824561403509 0.2894736842105263 0.008771929824561403 0.008771929824561403 
0.3382352941176471 0.6029411764705882 0.04411764705882353 0.014705882352941176 
0.5 0.16666666666666666 0.16666666666666666 0.16666666666666666 
0.25 0.25 0.25 0.25 
0.25 0.25 0.25 0.25 
0.11363636363636363 0.7045454545454546 0.06818181818181818 0.11363636363636363 
0.04924242424242424 0.7765151515151515 0.14015151515151514 0.03409090909090909 
0.01 0.75 0.19 0.05 
0.041666666666666664 0.2916666666666667 0.4583333333333333 0.20833333333333334 
0.25 0.25 0.25 0.25 
0.16666666666666666 0.16666666666666666 0.5 0.16666666666666666 
0.02631578947368421 0.13157894736842105 0.4473684210526316 0.39473684210526316 
0.015625 0.328125 0.453125 0.203125 
0.021739130434782608 0.2826086956521739 0.32608695652173914 0.3695652173913043 
0.25 0.25 0.25 0.25 
0.25 0.25 0.25 0.25 
0.07142857142857142 0.21428571428571427 0.07142857142857142 0.6428571428571429 
0.02631578947368421 0.07894736842105263 0.13157894736842105 0.7631578947368421 
0.013513513513513514 0.04054054054054054 0.12162162162162163 0.8243243243243243 
0.7533333333333333 0.23333333333333334 0.006666666666666667 0.006666666666666667 
0.6296703296703297 0.35934065934065934 0.007692307692307693 0.0032967032967032967 
0.3755186721991701 0.6203319502074689 0.002074688796680498 0.002074688796680498 
0.18 0.66 0.06 0.1 
0.21428571428571427 0.5 0.21428571428571427 0.07142857142857142 
0.3 0.3 0.1 0.3 
0.08208955223880597 0.8084577114427861 0.08208955223880597 0.02736318407960199 
0.026406926406926406 0.841991341991342 0.11558441558441558 0.016017316017316017 
0.03776978417266187 0.7068345323741008 0.21762589928057555 0.03776978417266187 
0.03804347826086957 0.4945652173913043 0.3423913043478261 0.125 
0.16666666666666666 0.5 0.16666666666666666 0.16666666666666666 
0.07142857142857142 0.21428571428571427 0.4523809523809524 0.2619047619047619 
0.015486725663716814 0.21902654867256638 0.5508849557522124 0.21460176991150443 
0.005307855626326964 0.17940552016985137 0.6125265392781316 0.20276008492569003 
0.00847457627118644 0.2062146892655367 0.4491525423728814 0.3361581920903955 
0.25 0.25 0.25 0.25 
0.1 0.1 0.3 0.5 
0.009259259259259259 0.027777777777777776 0.25 0.7129629629629629 
0.0028735632183908046 0.031609195402298854 0.23850574712643677 0.7270114942528736 
0.0029239766081871343 0.0341130604288499 0.08674463937621832 0.8762183235867447 
0.8445945945945946 0.12837837837837837 0.02027027027027027 0.006756756756756757 
0.6441885964912281 0.3404605263157895 0.013706140350877192 0.001644736842105263 
0.3341232227488152 0.6374407582938388 0.022906793048973143 0.005529225908372828 
0.27631578947368424 0.5921052631578947 0.09210526315789473 0.039473684210526314 
0.19230769230769232 0.6538461538461539 0.038461538461538464 0.11538461538461539 
0.3 0.5 0.1 0.1 
0.0829145728643216 0.7864321608040201 0.10301507537688442 0.02763819095477387 
0.03560638757013379 0.8077255071212776 0.1335779024600777 0.023090202848511005 
0.013578274760383386 0.6493610223642172 0.2787539936102236 0.05830670926517572 
0.04128440366972477 0.5458715596330275 0.24311926605504589 0.16972477064220184 
0.25 0.25 0.25 0.25 
0.05555555555555555 0.16666666666666666 0.2777777777777778 0.5 
0.0075528700906344415 0.21299093655589124 0.5634441087613293 0.21601208459214502 
0.00812407680945347 0.2533234859675037 0.516248153618907 0.2223042836041359 
0.008389261744966443 0.15604026845637584 0.5218120805369127 0.313758389261745 
0.25 0.25 0.25 0.25 
0.1 0.1 0.3 0.5 
0.00847457627118644 0.09322033898305085 0.211864406779661 0.6864406779661016 
0.007142857142857143 0.04047619047619048 0.2261904761904762 0.7261904761904762 
0.0036443148688046646 0.03717201166180758 0.14067055393586006 0.8185131195335277 
0.9343434343434344 0.05555555555555555 0.005050505050505051 0.005050505050505051 
0.715007215007215 0.2777777777777778 0.006493506493506494 7.215007215007215E-4 
0.41451612903225804 0.5629032258064516 0.008064516129032258 0.014516129032258065 
0.39285714285714285 0.5357142857142857 0.03571428571428571 0.03571428571428571 
0.1875 0.5625 0.0625 0.1875 
0.07142857142857142 0.7857142857142857 0.07142857142857142 0.07142857142857142 
0.06553398058252427 0.8519417475728155 0.055825242718446605 0.02669902912621359 
0.03333333333333333 0.8670329670329671 0.08681318681318681 0.01282051282051282 
0.02750809061488673 0.6974110032362459 0.25728155339805825 0.01779935275080906 
0.09722222222222222 0.6527777777777778 0.09722222222222222 0.1527777777777778 
0.16666666666666666 0.16666666666666666 0.16666666666666666 0.5 
0.03333333333333333 0.1 0.5666666666666667 0.3 
0.005494505494505495 0.22527472527472528 0.6758241758241759 0.09340659340659341 
0.0031847133757961785 0.2070063694267516 0.5912951167728238 0.19851380042462846 
0.008426966292134831 0.13764044943820225 0.547752808988764 0.3061797752808989 
0.16666666666666666 0.16666666666666666 0.16666666666666666 0.5 
0.05 0.15 0.15 0.65 
0.006756756756756757 0.0472972972972973 0.23648648648648649 0.7094594594594594 
0.010775862068965518 0.028017241379310345 0.14439655172413793 0.8168103448275862 
0.005072463768115942 0.03260869565217391 0.09492753623188406 0.8673913043478261 
0.8566666666666667 0.13666666666666666 0.0033333333333333335 0.0033333333333333335 
0.7333759590792839 0.2615089514066496 0.0019181585677749361 0.00319693094629156 
0.41113744075829384 0.5651658767772512 0.017772511848341232 0.005924170616113744 
0.38 0.54 0.02 0.06 
0.25 0.65 0.05 0.05 
0.16666666666666666 0.6111111111111112 0.05555555555555555 0.16666666666666666 
0.08754863813229571 0.8229571984435797 0.06809338521400778 0.021400778210116732 
0.04045189504373178 0.8647959183673469 0.07762390670553936 0.017128279883381923 
0.036163522012578615 0.7342767295597484 0.19339622641509435 0.036163522012578615 
0.09322033898305085 0.5508474576271186 0.2627118644067797 0.09322033898305085 
0.25 0.25 0.25 0.25 
0.025 0.375 0.475 0.125 
0.0021008403361344537 0.35084033613445376 0.49369747899159666 0.15336134453781514 
0.006067961165048544 0.2366504854368932 0.5813106796116505 0.17597087378640777 
0.020833333333333332 0.15773809523809523 0.4791666666666667 0.34226190476190477 
0.25 0.25 0.25 0.25 
0.08333333333333333 0.08333333333333333 0.4166666666666667 0.4166666666666667 
0.03409090909090909 0.07954545454545454 0.14772727272727273 0.7386363636363636 
0.003105590062111801 0.09627329192546584 0.20186335403726707 0.6987577639751553 
0.00331858407079646 0.034292035398230086 0.09402654867256637 0.8683628318584071 
0.6730769230769231 0.28846153846153844 0.019230769230769232 0.019230769230769232 
0.5971428571428572 0.39714285714285713 0.002857142857142857 0.002857142857142857 
0.30357142857142855 0.6726190476190477 0.005952380952380952 0.017857142857142856 
0.1 0.5 0.3 0.1 
0.25 0.25 0.25 0.25 
0.15 0.55 0.05 0.25 
0.039473684210526314 0.8640350877192983 0.07456140350877193 0.021929824561403508 
0.026618705035971222 0.8237410071942446 0.13884892086330936 0.01079136690647482 
0.018421052631578946 0.5342105263157895 0.3815789473684211 0.06578947368421052 
0.03409090909090909 0.4659090909090909 0.3068181818181818 0.19318181818181818 
0.25 0.25 0.25 0.25 
0.029411764705882353 0.20588235294117646 0.5588235294117647 0.20588235294117646 
0.00228310502283105 0.23972602739726026 0.545662100456621 0.21232876712328766 
0.0033259423503325942 0.15631929046563192 0.5953436807095344 0.24501108647450112 
0.0034965034965034965 0.07342657342657342 0.5699300699300699 0.3531468531468531 
0.25 0.25 0.25 0.25 
0.125 0.125 0.125 0.625 
0.01020408163265306 0.01020408163265306 0.2755102040816326 0.7040816326530612 
0.0022522522522522522 0.015765765765765764 0.20045045045045046 0.7815315315315315 
6.289308176100629E-4 0.016981132075471698 0.07861635220125786 0.9037735849056604 
</TABLE>
</DEFINITION>
<DEFINITION>
<FOR>pixel5</FOR>
<GIVEN>emotion</GIVEN>
<GIVEN>pixel1</GIVEN>
<TABLE>
0.6346356916578669 0.18479408658922913 0.1805702217529039 
0.49721627408993574 0.2616702355460385 0.24111349036402568 
0.3768976897689769 0.266006600660066 0.3570957095709571 
0.3218797372410308 0.2177867609903992 0.46033350176856996 
0.32683790965456155 0.1355181576616475 0.537643932683791 
0.6595744680851063 0.3191489361702128 0.02127659574468085 
0.3624454148471616 0.32751091703056767 0.31004366812227074 
0.32947976878612717 0.26011560693641617 0.41040462427745666 
0.13580246913580246 0.29218106995884774 0.5720164609053497 
0.15428571428571428 0.06285714285714286 0.7828571428571428 
0.655608214849921 0.1627172195892575 0.18167456556082148 
0.5361823361823361 0.25584045584045584 0.20797720797720798 
0.35660506502395617 0.3483915126625599 0.2950034223134839 
0.33147632311977715 0.24154397134898528 0.42697970553123754 
0.26539058458354886 0.15157785825142267 0.5830315571650284 
0.6787372330547818 0.16434540389972144 0.15691736304549675 
0.5308113252438734 0.2790863668807994 0.19010230787532714 
0.3970877607241244 0.3254624163715073 0.27744982290436837 
0.3477102011146111 0.2318875696631936 0.4204022292221953 
0.26992073425114727 0.13975803087192323 0.5903212348769294 
0.7829638273045507 0.14352392065344224 0.073512252042007 
0.6569552728764875 0.2170701682396389 0.12597455888387363 
0.48567621585609594 0.2911392405063291 0.22318454363757495 
0.4271604938271605 0.2345679012345679 0.33827160493827163 
0.39050936003482806 0.14323030039181542 0.46626033957335655 
0.7188898836168308 0.1674127126230976 0.11369740376007162 
0.5722504230118444 0.256175972927242 0.1715736040609137 
0.39372409709887507 0.3191237418590882 0.2871521610420367 
0.374633737965676 0.22812892423608205 0.39723733779824194 
0.32751091703056767 0.15283842794759825 0.519650655021834 
0.6097560975609756 0.2682926829268293 0.12195121951219512 
0.49732620320855614 0.3155080213903743 0.18716577540106952 
0.4163860830527497 0.29068462401795736 0.29292929292929293 
0.3665244191559981 0.22617354196301565 0.40730203888098626 
0.26559092891408637 0.14871347579590058 0.5856955952900131 
</TABLE>
</DEFINITION>
<DEFINITION>
<FOR>pixel6</FOR>
<GIVEN>emotion</GIVEN>
<GIVEN>pixel5</GIVEN>
<GIVEN>pixel4</GIVEN>
<TABLE>
0.1423529411764706 0.8176470588235294 0.027058823529411764 0.012941176470588235 
0.07678571428571429 0.8303571428571429 0.07083333333333333 0.022023809523809525 
0.09698275862068965 0.7650862068965517 0.07543103448275862 0.0625 
0.09269662921348315 0.7275280898876404 0.1151685393258427 0.06460674157303371 
0.0029411764705882353 0.36764705882352944 0.43823529411764706 0.19117647058823528 
0.001002004008016032 0.23146292585170342 0.5480961923847696 0.21943887775551102 
0.004201680672268907 0.20588235294117646 0.4579831932773109 0.3319327731092437 
0.02403846153846154 0.14903846153846154 0.3125 0.5144230769230769 
0.002617801047120419 0.07068062827225131 0.14397905759162305 0.7827225130890052 
0.002347417840375587 0.024256651017214397 0.08841940532081377 0.8849765258215962 
0.0016891891891891893 0.018581081081081082 0.10304054054054054 0.8766891891891891 
0.0018115942028985507 0.030797101449275364 0.06702898550724638 0.9003623188405797 
0.015625 0.953125 0.015625 0.015625 
0.04716981132075472 0.8018867924528302 0.10377358490566038 0.04716981132075472 
0.023809523809523808 0.5476190476190477 0.35714285714285715 0.07142857142857142 
0.03333333333333333 0.6333333333333333 0.3 0.03333333333333333 
0.02631578947368421 0.18421052631578946 0.7631578947368421 0.02631578947368421 
0.007352941176470588 0.08088235294117647 0.8014705882352942 0.11029411764705882 
0.038461538461538464 0.19230769230769232 0.34615384615384615 0.4230769230769231 
0.03571428571428571 0.03571428571428571 0.39285714285714285 0.5357142857142857 
0.027777777777777776 0.08333333333333333 0.3055555555555556 0.5833333333333334 
0.005050505050505051 0.05555555555555555 0.09595959595959595 0.8434343434343434 
0.011904761904761904 0.011904761904761904 0.03571428571428571 0.9404761904761905 
0.008928571428571428 0.0625 0.026785714285714284 0.9017857142857143 
0.099609375 0.853515625 0.029296875 0.017578125 
0.08698453608247422 0.8073453608247423 0.08698453608247422 0.018685567010309278 
0.07230769230769231 0.7861538461538462 0.09384615384615384 0.047692307692307694 
0.09038461538461538 0.6865384615384615 0.1596153846153846 0.06346153846153846 
0.003875968992248062 0.49224806201550386 0.36046511627906974 0.1434108527131783 
9.107468123861566E-4 0.2686703096539162 0.5382513661202186 0.19216757741347906 
0.0029585798816568047 0.19230769230769232 0.3698224852071006 0.4349112426035503 
0.0035971223021582736 0.18345323741007194 0.32014388489208634 0.49280575539568344 
0.003968253968253968 0.05952380952380952 0.19444444444444445 0.7420634920634921 
0.0024916943521594683 0.050664451827242524 0.10548172757475083 0.8413621262458472 
0.0014044943820224719 0.023876404494382022 0.05758426966292135 0.9171348314606742 
0.0010482180293501049 0.02410901467505241 0.03878406708595388 0.9360587002096437 
0.1130952380952381 0.842687074829932 0.03486394557823129 0.00935374149659864 
0.07353846153846154 0.8292307692307692 0.07661538461538461 0.020615384615384615 
0.06421052631578947 0.7842105263157895 0.10842105263157895 0.0431578947368421 
0.07412790697674419 0.7049418604651163 0.1380813953488372 0.08284883720930232 
0.0021929824561403508 0.43640350877192985 0.4407894736842105 0.1206140350877193 
0.0025380710659898475 0.2147208121827411 0.5527918781725888 0.22994923857868022 
0.001483679525222552 0.17655786350148367 0.4495548961424332 0.3724035608308605 
0.007894736842105263 0.2236842105263158 0.3131578947368421 0.45526315789473687 
0.002702702702702703 0.07297297297297298 0.13783783783783785 0.7864864864864864 
5.165289256198347E-4 0.033574380165289255 0.1131198347107438 0.8527892561983471 
8.319467554076539E-4 0.03577371048252912 0.04742096505823627 0.9159733777038269 
7.541478129713424E-4 0.023378582202111614 0.033936651583710405 0.9419306184012066 
0.13927335640138408 0.8313148788927336 0.023356401384083045 0.006055363321799308 
0.11257434154630416 0.8126593033135089 0.06074766355140187 0.014018691588785047 
0.07493188010899182 0.8215258855585831 0.08310626702997276 0.020435967302452316 
0.10844748858447488 0.7591324200913242 0.07876712328767123 0.05365296803652968 
0.019230769230769232 0.40384615384615385 0.4653846153846154 0.11153846153846154 
0.0027223230490018148 0.28402903811252267 0.5471869328493648 0.16606170598911071 
0.0025380710659898475 0.21065989847715735 0.43908629441624364 0.3477157360406091 
0.0029585798816568047 0.23372781065088757 0.3165680473372781 0.4467455621301775 
0.005208333333333333 0.06770833333333333 0.19270833333333334 0.734375 
0.0010504201680672268 0.051470588235294115 0.1207983193277311 0.8266806722689075 
0.0014619883040935672 0.03070175438596491 0.05116959064327485 0.9166666666666666 
0.0010893246187363835 0.02287581699346405 0.03594771241830065 0.9400871459694989 
0.13012618296529968 0.832018927444795 0.02917981072555205 0.008675078864353312 
0.1073321554770318 0.7954946996466431 0.0719964664310954 0.02517667844522968 
0.1105072463768116 0.7192028985507246 0.09963768115942029 0.07065217391304347 
0.1007905138339921 0.7806324110671937 0.05731225296442688 0.06126482213438735 
0.007177033492822967 0.44258373205741625 0.42822966507177035 0.12200956937799043 
0.00529500756429652 0.26550680786686837 0.5408472012102874 0.18835098335854766 
0.003125 0.171875 0.490625 0.334375 
0.004464285714285714 0.20982142857142858 0.36160714285714285 0.42410714285714285 
0.003355704697986577 0.09731543624161074 0.1912751677852349 0.7080536912751678 
8.237232289950577E-4 0.04695222405271829 0.1326194398682043 0.8196046128500823 
0.001644736842105263 0.054276315789473686 0.06085526315789474 0.8832236842105263 
0.0012626262626262627 0.02904040404040404 0.06186868686868687 0.9078282828282829 
0.13372093023255813 0.8313953488372093 0.01744186046511628 0.01744186046511628 
0.034523809523809526 0.8845238095238095 0.060714285714285714 0.02023809523809524 
0.03993055555555555 0.8003472222222222 0.10243055555555555 0.057291666666666664 
0.04308093994778068 0.7637075718015666 0.1031331592689295 0.09007832898172324 
0.011111111111111112 0.45555555555555555 0.5 0.03333333333333333 
0.0015822784810126582 0.3022151898734177 0.42563291139240506 0.27056962025316456 
0.0031446540880503146 0.1540880503144654 0.5566037735849056 0.2861635220125786 
0.002512562814070352 0.20351758793969849 0.40954773869346733 0.3844221105527638 
0.01020408163265306 0.09183673469387756 0.07142857142857142 0.826530612244898 
0.0014245014245014246 0.029914529914529916 0.11823361823361823 0.8504273504273504 
0.0014492753623188406 0.01884057971014493 0.06231884057971015 0.9173913043478261 
8.445945945945946E-4 0.017736486486486486 0.03800675675675676 0.9434121621621622 
</TABLE>
</DEFINITION>
<DEFINITION>
<FOR>pixel7</FOR>
<GIVEN>emotion</GIVEN>
<GIVEN>pixel5</GIVEN>
<GIVEN>pixel6</GIVEN>
<TABLE>
0.9969325153374233 0.003067484662576687 
0.96039970392302 0.03960029607698001 
0.375 0.625 
0.09183673469387756 0.9081632653061225 
0.8333333333333334 0.16666666666666666 
0.37557603686635943 0.6244239631336406 
0.014976958525345621 0.9850230414746544 
0.014957264957264958 0.9850427350427351 
0.75 0.25 
0.15476190476190477 0.8452380952380952 
0.003787878787878788 0.9962121212121212 
4.091653027823241E-4 0.9995908346972177 
0.8333333333333334 0.16666666666666666 
0.9731182795698925 0.026881720430107527 
0.4411764705882353 0.5588235294117647 
0.125 0.875 
0.5 0.5 
0.6818181818181818 0.3181818181818182 
0.00641025641025641 0.9935897435897436 
0.025 0.975 
0.5 0.5 
0.45 0.55 
0.029411764705882353 0.9705882352941176 
0.00273224043715847 0.9972677595628415 
0.9964028776978417 0.0035971223021582736 
0.9698748043818466 0.030125195618153366 
0.4965753424657534 0.5034246575342466 
0.19 0.81 
0.5 0.5 
0.34888059701492535 0.6511194029850746 
0.012276785714285714 0.9877232142857143 
0.013207547169811321 0.9867924528301887 
0.75 0.25 
0.16666666666666666 0.8333333333333334 
0.003968253968253968 0.996031746031746 
0.0032798833819241984 0.9967201166180758 
0.9979253112033195 0.002074688796680498 
0.9692714692714692 0.03072853072853073 
0.42592592592592593 0.5740740740740741 
0.22413793103448276 0.7758620689655172 
0.875 0.125 
0.39441747572815533 0.6055825242718447 
0.02046783625730994 0.97953216374269 
0.007526881720430108 0.9924731182795699 
0.5 0.5 
0.16463414634146342 0.8353658536585366 
0.002702702702702703 0.9972972972972973 
0.0011655011655011655 0.9988344988344988 
0.9982578397212544 0.0017421602787456446 
0.9780193236714976 0.021980676328502414 
0.47315436241610737 0.5268456375838926 
0.19 0.81 
0.625 0.375 
0.4100346020761246 0.5899653979238755 
0.0249500998003992 0.9750499001996008 
0.014056224899598393 0.9859437751004017 
0.5 0.5 
0.24509803921568626 0.7549019607843137 
0.0045871559633027525 0.9954128440366973 
0.0012417218543046358 0.9987582781456954 
0.9980694980694981 0.0019305019305019305 
0.9646187602852441 0.035381239714755895 
0.4078014184397163 0.5921985815602837 
0.13970588235294118 0.8602941176470589 
0.9 0.1 
0.3411949685534591 0.6588050314465409 
0.020353982300884955 0.9796460176991151 
0.014 0.986 
0.5 0.5 
0.16428571428571428 0.8357142857142857 
0.016556291390728478 0.9834437086092715 
0.0012195121951219512 0.998780487804878 
0.9905660377358491 0.009433962264150943 
0.9590673575129534 0.04093264248704663 
0.48947368421052634 0.5105263157894737 
0.15833333333333333 0.8416666666666667 
0.5 0.5 
0.425 0.575 
0.019938650306748466 0.9800613496932515 
0.002403846153846154 0.9975961538461539 
0.5 0.5 
0.3064516129032258 0.6935483870967742 
0.005681818181818182 0.9943181818181818 
0.002061005770816158 0.9979389942291839 
</TABLE>
</DEFINITION>
<DEFINITION>
<FOR>pixel8</FOR>
<GIVEN>emotion</GIVEN>
<GIVEN>pixel6</GIVEN>
<GIVEN>pixel7</GIVEN>
<TABLE>
0.9819819819819819 0.015015015015015015 0.003003003003003003 
0.3333333333333333 0.3333333333333333 0.3333333333333333 
0.1945146156622158 0.7589317935763262 0.04655359076145796 
0.028953229398663696 0.8663697104677061 0.10467706013363029 
0.010526315789473684 0.24210526315789474 0.7473684210526316 
7.980845969672786E-4 0.2849162011173184 0.7142857142857143 
0.058823529411764705 0.058823529411764705 0.8823529411764706 
3.341129301703976E-4 0.017039759438690277 0.9826261276311393 
0.7142857142857143 0.14285714285714285 0.14285714285714285 
0.3333333333333333 0.3333333333333333 0.3333333333333333 
0.2097560975609756 0.775609756097561 0.014634146341463415 
0.043478260869565216 0.9130434782608695 0.043478260869565216 
0.058823529411764705 0.058823529411764705 0.8823529411764706 
0.004830917874396135 0.14009661835748793 0.855072463768116 
0.3333333333333333 0.3333333333333333 0.3333333333333333 
0.0024330900243309003 0.012165450121654502 0.9854014598540146 
0.9644128113879004 0.03202846975088968 0.0035587188612099642 
0.3333333333333333 0.3333333333333333 0.3333333333333333 
0.1985102420856611 0.7497206703910615 0.05176908752327747 
0.02111324376199616 0.8809980806142035 0.09788867562380038 
0.006369426751592357 0.18471337579617833 0.8089171974522293 
0.002338269680436477 0.2564302416212003 0.7412314886983632 
0.02857142857142857 0.2 0.7714285714285715 
2.994908655286014E-4 0.018867924528301886 0.9808325846061695 
0.967280163599182 0.03067484662576687 0.002044989775051125 
0.3333333333333333 0.3333333333333333 0.3333333333333333 
0.1992179863147605 0.7634408602150538 0.037341153470185726 
0.03430749682337993 0.8627700127064803 0.10292249047013977 
0.00411522633744856 0.25925925925925924 0.7366255144032922 
0.0012914334911752045 0.2501076194575979 0.7486009470512268 
0.0196078431372549 0.058823529411764705 0.9215686274509803 
1.8716077110237696E-4 0.008796556241811717 0.9910162829870859 
0.9723661485319517 0.025906735751295335 0.0017271157167530224 
0.6 0.2 0.2 
0.2410113662723266 0.7286012526096033 0.030387381118070052 
0.060903732809430254 0.862475442043222 0.07662082514734773 
0.005988023952095809 0.2215568862275449 0.7724550898203593 
7.401924500370096E-4 0.24056254626202814 0.7586972612879349 
0.034482758620689655 0.034482758620689655 0.9310344827586207 
3.3500837520938025E-4 0.01641541038525963 0.983249581239531 
0.969639468690702 0.028462998102466792 0.0018975332068311196 
0.3333333333333333 0.3333333333333333 0.3333333333333333 
0.20255523023689115 0.7577854671280276 0.03965930263508118 
0.031578947368421054 0.8646616541353384 0.1037593984962406 
0.006993006993006993 0.1888111888111888 0.8041958041958042 
0.0019096117122851686 0.30744748567791214 0.6906429026098027 
0.034482758620689655 0.2413793103448276 0.7241379310344828 
3.2605151613955004E-4 0.01793283338767525 0.9817411150961852 
0.9626168224299065 0.028037383177570093 0.009345794392523364 
0.3333333333333333 0.3333333333333333 0.3333333333333333 
0.1903114186851211 0.7607513593672763 0.04893722194760257 
0.02735562310030395 0.8297872340425532 0.14285714285714285 
0.009345794392523364 0.1588785046728972 0.8317757009345794 
0.0010976948408342481 0.2667398463227223 0.7321624588364435 
0.04 0.04 0.92 
3.4048348655090226E-4 0.010554988083077971 0.9891045284303711 
</TABLE>
</DEFINITION>
<DEFINITION>
<FOR>pixel9</FOR>
<GIVEN>emotion</GIVEN>
<GIVEN>pixel5</GIVEN>
<GIVEN>pixel6</GIVEN>
<TABLE>
0.7064220183486238 0.28440366972477066 0.009174311926605505 
0.08028116907140215 0.901590825009249 0.01812800591934887 
0.041474654377880185 0.9170506912442397 0.041474654377880185 
0.0707070707070707 0.797979797979798 0.13131313131313133 
0.14285714285714285 0.42857142857142855 0.42857142857142855 
0.0022988505747126436 0.6 0.39770114942528734 
0.0011507479861910242 0.5512082853855006 0.4476409666283084 
0.0021321961620469083 0.6545842217484008 0.34328358208955223 
0.2 0.6 0.2 
0.011764705882352941 0.058823529411764705 0.9294117647058824 
0.0037735849056603774 0.06415094339622641 0.9320754716981132 
4.0899795501022495E-4 0.026584867075664622 0.9730061349693252 
0.42857142857142855 0.42857142857142855 0.14285714285714285 
0.0374331550802139 0.9572192513368984 0.0053475935828877 
0.02857142857142857 0.9428571428571428 0.02857142857142857 
0.1111111111111111 0.7777777777777778 0.1111111111111111 
0.3333333333333333 0.3333333333333333 0.3333333333333333 
0.043478260869565216 0.5652173913043478 0.391304347826087 
0.006369426751592357 0.6305732484076433 0.3630573248407643 
0.024390243902439025 0.4634146341463415 0.5121951219512195 
0.3333333333333333 0.3333333333333333 0.3333333333333333 
0.047619047619047616 0.047619047619047616 0.9047619047619048 
0.02857142857142857 0.02857142857142857 0.9428571428571428 
0.0027247956403269754 0.01907356948228883 0.9782016348773842 
0.7491039426523297 0.24731182795698925 0.0035842293906810036 
0.06452874462260462 0.9241298396558467 0.01134141572154869 
0.023890784982935155 0.9658703071672355 0.010238907849829351 
0.0297029702970297 0.900990099009901 0.06930693069306931 
0.3333333333333333 0.3333333333333333 0.3333333333333333 
0.00186219739292365 0.702048417132216 0.29608938547486036 
0.0033444816053511705 0.600891861761427 0.3957636566332218 
0.005649717514124294 0.5329566854990584 0.4613935969868173 
0.2 0.6 0.2 
0.008695652173913044 0.043478260869565216 0.9478260869565217 
0.003952569169960474 0.02766798418972332 0.9683794466403162 
3.6429872495446266E-4 0.033151183970856105 0.9664845173041894 
0.6935817805383023 0.2836438923395445 0.022774327122153208 
0.07426246185147507 0.9084435401831129 0.017293997965412006 
0.014373716632443531 0.9630390143737166 0.022587268993839837 
0.06285714285714286 0.8628571428571429 0.07428571428571429 
0.1111111111111111 0.1111111111111111 0.7777777777777778 
0.0012121212121212121 0.68 0.3187878787878788 
5.844535359438924E-4 0.6703682057276447 0.32904734073641145 
0.0010741138560687433 0.5639097744360902 0.43501611170784105 
0.3333333333333333 0.3333333333333333 0.3333333333333333 
0.006060606060606061 0.06666666666666667 0.9272727272727272 
0.0026954177897574125 0.06199460916442048 0.9353099730458221 
2.3304591004427873E-4 0.03658820787695176 0.9631787462130039 
0.7495652173913043 0.24521739130434783 0.0052173913043478265 
0.09055783627143202 0.8985752233759962 0.010866940352571842 
0.030100334448160536 0.9331103678929766 0.03678929765886288 
0.10891089108910891 0.801980198019802 0.0891089108910891 
0.1111111111111111 0.5555555555555556 0.3333333333333333 
0.0017271157167530224 0.696027633851468 0.3022452504317789 
9.970089730807576E-4 0.6630109670987039 0.33599202392821537 
0.006012024048096192 0.6072144288577155 0.3867735470941884 
0.3333333333333333 0.3333333333333333 0.3333333333333333 
0.009708737864077669 0.10679611650485436 0.883495145631068 
0.0045662100456621 0.0776255707762557 0.9178082191780822 
4.137360364087712E-4 0.036822507240380636 0.9627637567232106 
0.653179190751445 0.3371868978805395 0.009633911368015413 
0.08746915272826981 0.9012887304633945 0.011242116808335619 
0.0812720848056537 0.8798586572438163 0.038869257950530034 
0.08029197080291971 0.8686131386861314 0.051094890510948905 
0.09090909090909091 0.6363636363636364 0.2727272727272727 
0.0015698587127158557 0.6797488226059655 0.31868131868131866 
8.841732979664014E-4 0.6074270557029178 0.3916887709991158 
0.001996007984031936 0.5129740518962076 0.48502994011976047 
0.3333333333333333 0.3333333333333333 0.3333333333333333 
0.0070921985815602835 0.16312056737588654 0.8297872340425532 
0.0033003300330033004 0.0627062706270627 0.933993399339934 
4.063388866314506E-4 0.030475416497358798 0.9691182446160097 
0.7757009345794392 0.21495327102803738 0.009345794392523364 
0.07819782496116003 0.9078197824961161 0.013982392542723977 
0.02617801047120419 0.9581151832460733 0.015706806282722512 
0.10743801652892562 0.8842975206611571 0.008264462809917356 
0.3333333333333333 0.3333333333333333 0.3333333333333333 
0.002770083102493075 0.6398891966759003 0.3573407202216066 
0.0015313935681470138 0.6385911179173047 0.35987748851454826 
0.002398081534772182 0.5203836930455635 0.47721822541966424 
0.3333333333333333 0.3333333333333333 0.3333333333333333 
0.015873015873015872 0.1746031746031746 0.8095238095238095 
0.005649717514124294 0.07344632768361582 0.9209039548022598 
4.1203131437989287E-4 0.044087350638648534 0.9555006180469716 
</TABLE>
</DEFINITION>
<DEFINITION>
<FOR>pixel10</FOR>
<GIVEN>emotion</GIVEN>
<GIVEN>pixel2</GIVEN>
<TABLE>
0.21035598705501618 0.4692556634304207 0.22330097087378642 0.04854368932038835 0.04854368932038835 
0.04295220810647308 0.5559588626739262 0.249848759830611 0.11070780399274047 0.04053236539624924 
0.035340684195646024 0.48770144189991516 0.2875318066157761 0.12864009047215155 0.06078597681651117 
0.023060796645702306 0.35709294199860236 0.32354996505939904 0.21593291404612158 0.0803633822501747 
0.03350253807106599 0.37055837563451777 0.22233502538071065 0.25888324873096447 0.11472081218274112 
0.23076923076923078 0.5384615384615384 0.07692307692307693 0.07692307692307693 0.07692307692307693 
0.044585987261146494 0.5286624203821656 0.28662420382165604 0.08280254777070063 0.05732484076433121 
0.01876675603217158 0.5924932975871313 0.26541554959785524 0.0777479892761394 0.045576407506702415 
0.025380710659898477 0.350253807106599 0.350253807106599 0.17766497461928935 0.09644670050761421 
0.0364963503649635 0.27007299270072993 0.25547445255474455 0.29927007299270075 0.1386861313868613 
0.14465408805031446 0.44654088050314467 0.24528301886792453 0.09433962264150944 0.06918238993710692 
0.04951958610495196 0.581670362158167 0.21507760532150777 0.11751662971175167 0.03621581670362158 
0.030829093085902426 0.41454654295121224 0.30859024244238253 0.17569589943130798 0.07033822208919485 
0.019628647214854113 0.3549071618037135 0.2901856763925729 0.22546419098143236 0.10981432360742706 
0.021059349074664963 0.34779834077855776 0.25717932354818124 0.29419272495213783 0.0797702616464582 
0.12258064516129032 0.5225806451612903 0.16129032258064516 0.17419354838709677 0.01935483870967742 
0.04064314426083073 0.6212594908441268 0.22286735149620365 0.09066547565877624 0.02456453774006253 
0.026240815714499925 0.563052931473984 0.2706552706552707 0.1081121607437397 0.031938821412505626 
0.011970236169524426 0.472662568747978 0.3134907796829505 0.154318990617923 0.04755742478162407 
0.01590186278964107 0.449341208541572 0.263062244434348 0.20581553839164016 0.06587914584279873 
0.20187793427230047 0.5868544600938967 0.11737089201877934 0.06103286384976526 0.03286384976525822 
0.05062602068590093 0.6418072945019053 0.20631464344039194 0.08111050626020685 0.020141535111594992 
0.029506570790974462 0.5472353087031986 0.28043639970245476 0.11529878502355567 0.027522935779816515 
0.033806957373836356 0.48358647721705045 0.2954434100930916 0.13179813816756492 0.05536501714845664 
0.035852178709321565 0.4517374517374517 0.22559293987865417 0.214561500275786 0.07225592939878654 
0.1365079365079365 0.6253968253968254 0.1746031746031746 0.05396825396825397 0.009523809523809525 
0.05427088249174139 0.6168003775365739 0.21849929211892402 0.09013685700802265 0.020292590844738084 
0.031634870804153586 0.4977058681477904 0.3122434194638976 0.13595749818884328 0.02245834339531514 
0.02471169686985173 0.4255903349807798 0.34980779791323446 0.15540911587040088 0.044481054365733116 
0.04901243599122165 0.39575713240673005 0.246525237746891 0.25237746891002194 0.056327724945135334 
0.07246376811594203 0.5362318840579711 0.21739130434782608 0.10144927536231885 0.07246376811594203 
0.031198686371100164 0.5829228243021346 0.22824302134646962 0.11658456486042693 0.041050903119868636 
0.010081613058089293 0.41814690350456074 0.3154104656745079 0.1531445031204993 0.10321651464234277 
0.011014492753623189 0.38666666666666666 0.2544927536231884 0.21507246376811595 0.1327536231884058 
0.010730710270822688 0.30710270822687785 0.21410321921308126 0.32447623914154317 0.14358712314767502 
</TABLE>
</DEFINITION>
<DEFINITION>
<FOR>pixel11</FOR>
<GIVEN>emotion</GIVEN>
<GIVEN>pixel10</GIVEN>
<TABLE>
0.8926380368098159 0.10122699386503067 0.003067484662576687 0.003067484662576687 
0.028657205240174673 0.9615174672489083 0.00955240174672489 2.729257641921397E-4 
0.0013761467889908258 0.7729357798165137 0.22522935779816514 4.5871559633027525E-4 
8.223684210526315E-4 0.0649671052631579 0.915296052631579 0.018914473684210526 
0.0019083969465648854 0.009541984732824428 0.30343511450381677 0.6851145038167938 
0.4230769230769231 0.5 0.038461538461538464 0.038461538461538464 
0.002403846153846154 0.9879807692307693 0.007211538461538462 0.002403846153846154 
0.004032258064516129 0.6733870967741935 0.3185483870967742 0.004032258064516129 
0.00847457627118644 0.059322033898305086 0.923728813559322 0.00847457627118644 
0.015625 0.015625 0.171875 0.796875 
0.8358778625954199 0.15648854961832062 0.003816793893129771 0.003816793893129771 
0.02459490740740741 0.9684606481481481 0.006655092592592593 2.8935185185185184E-4 
4.329004329004329E-4 0.7891774891774892 0.20995670995670995 4.329004329004329E-4 
6.075334143377885E-4 0.06865127582017011 0.9240583232077765 0.006682867557715674 
0.001597444089456869 0.001597444089456869 0.2763578274760383 0.7204472843450479 
0.8455056179775281 0.14887640449438203 0.0028089887640449437 0.0028089887640449437 
0.016545075560187597 0.978764981761334 0.004559666492965086 1.3027618551328816E-4 
2.5799793601651185E-4 0.794891640866873 0.20459236326109392 2.5799793601651185E-4 
5.319148936170213E-4 0.07287234042553191 0.9228723404255319 0.003723404255319149 
0.0017793594306049821 0.005338078291814947 0.34341637010676157 0.6494661921708185 
0.8067010309278351 0.18814432989690721 0.002577319587628866 0.002577319587628866 
0.01598946576373213 0.9783671933784801 0.00545522949586155 1.8811136192626034E-4 
3.9277297721916735E-4 0.8095051060487038 0.18970934799685782 3.9277297721916735E-4 
7.78816199376947E-4 0.05685358255451713 0.9369158878504673 0.005451713395638629 
0.002512562814070352 0.007537688442211055 0.30402010050251255 0.6859296482412061 
0.8975 0.0975 0.0025 0.0025 
0.026024590163934425 0.967827868852459 0.005942622950819672 2.0491803278688525E-4 
0.0010775862068965517 0.7848419540229885 0.2122844827586207 0.0017959770114942528 
7.15307582260372E-4 0.08082975679542204 0.9163090128755365 0.002145922746781116 
0.0033783783783783786 0.0033783783783783786 0.375 0.6182432432432432 
0.8214285714285714 0.15476190476190477 0.011904761904761904 0.011904761904761904 
0.01699604743083004 0.975098814229249 0.007509881422924901 3.952569169960474E-4 
5.995203836930455E-4 0.7428057553956835 0.2559952038369305 5.995203836930455E-4 
7.132667617689016E-4 0.05064194008559201 0.9350927246790299 0.01355206847360913 
0.001326259946949602 0.003978779840848806 0.25596816976127323 0.7387267904509284 
</TABLE>
</DEFINITION>
<DEFINITION>
<FOR>pixel12</FOR>
<GIVEN>emotion</GIVEN>
<GIVEN>pixel10</GIVEN>
<GIVEN>pixel9</GIVEN>
<TABLE>
0.9452054794520548 0.0410958904109589 0.0136986301369863 
0.8646616541353384 0.11278195488721804 0.022556390977443608 
0.856 0.136 0.008 
0.8851674641148325 0.11004784688995216 0.004784688995215311 
0.8428940568475453 0.1297157622739018 0.02739018087855297 
0.7206557377049181 0.25245901639344265 0.026885245901639345 
0.8681318681318682 0.12087912087912088 0.01098901098901099 
0.7313707451701932 0.24563017479300828 0.022999080036798528 
0.5491559086395233 0.394240317775571 0.05660377358490566 
0.5471698113207547 0.39622641509433965 0.05660377358490566 
0.5443478260869565 0.3947826086956522 0.06086956521739131 
0.38954468802698144 0.5345699831365935 0.07588532883642496 
0.42857142857142855 0.30612244897959184 0.2653061224489796 
0.45701357466063347 0.2579185520361991 0.2850678733031674 
0.2972972972972973 0.40540540540540543 0.2972972972972973 
0.3333333333333333 0.3333333333333333 0.3333333333333333 
0.6363636363636364 0.2727272727272727 0.09090909090909091 
0.4117647058823529 0.5294117647058824 0.058823529411764705 
0.14285714285714285 0.7142857142857143 0.14285714285714285 
0.8536585365853658 0.14146341463414633 0.004878048780487805 
0.7511961722488039 0.22488038277511962 0.023923444976076555 
0.6 0.2 0.2 
0.7241379310344828 0.19540229885057472 0.08045977011494253 
0.391304347826087 0.5900621118012422 0.018633540372670808 
0.6 0.2 0.2 
0.7333333333333333 0.24444444444444444 0.022222222222222223 
0.3150684931506849 0.6712328767123288 0.0136986301369863 
0.3333333333333333 0.3333333333333333 0.3333333333333333 
0.2631578947368421 0.3684210526315789 0.3684210526315789 
0.2765957446808511 0.7021276595744681 0.02127659574468085 
0.7647058823529411 0.21568627450980393 0.0196078431372549 
0.904 0.088 0.008 
0.7142857142857143 0.23076923076923078 0.054945054945054944 
0.7828571428571428 0.21142857142857144 0.005714285714285714 
0.7990379476215927 0.17156600748262962 0.02939604489577766 
0.6551236749116608 0.3102473498233215 0.03462897526501767 
0.7662337662337663 0.19480519480519481 0.03896103896103896 
0.6957746478873239 0.2619718309859155 0.04225352112676056 
0.4356351236146633 0.5123614663256607 0.05200341005967604 
0.40298507462686567 0.4925373134328358 0.1044776119402985 
0.5648535564853556 0.37517433751743373 0.0599721059972106 
0.328719723183391 0.6239907727797002 0.04728950403690888 
0.3793103448275862 0.2413793103448276 0.3793103448275862 
0.40059347181008903 0.2403560830860534 0.3590504451038576 
0.24528301886792453 0.3886792452830189 0.3660377358490566 
0.9154929577464789 0.07042253521126761 0.014084507042253521 
0.8057142857142857 0.18857142857142858 0.005714285714285714 
0.7391304347826086 0.25217391304347825 0.008695652173913044 
0.8702460850111857 0.11409395973154363 0.015659955257270694 
0.8501003792103502 0.13183136292661166 0.018068257863038145 
0.737549981824791 0.2351872046528535 0.027262813522355506 
0.7557251908396947 0.2366412213740458 0.007633587786259542 
0.7684210526315789 0.21704260651629073 0.014536340852130326 
0.5817663817663817 0.3766381766381766 0.041595441595441596 
0.4915254237288136 0.3898305084745763 0.11864406779661017 
0.642023346303502 0.3203631647211414 0.03761348897535668 
0.4369668246445498 0.5052132701421801 0.05781990521327014 
0.5238095238095238 0.3333333333333333 0.14285714285714285 
0.4889867841409692 0.21585903083700442 0.29515418502202645 
0.34796238244514105 0.42946708463949845 0.2225705329153605 
0.9354838709677419 0.053763440860215055 0.010752688172043012 
0.9104477611940298 0.07462686567164178 0.014925373134328358 
0.6565656565656566 0.31313131313131315 0.030303030303030304 
0.8698224852071006 0.1242603550295858 0.005917159763313609 
0.8361564521096396 0.1438250692947336 0.02001847859562673 
0.7255902999361837 0.2393107849393746 0.03509891512444161 
0.7293233082706767 0.2631578947368421 0.007518796992481203 
0.7346791636625811 0.24441240086517663 0.02090843547224225 
0.5460717749757517 0.4180407371483996 0.03588748787584869 
0.5421686746987951 0.42168674698795183 0.03614457831325301 
0.6006240249609984 0.36037441497659906 0.0390015600624025 
0.44424778761061945 0.5008849557522124 0.05486725663716814 
0.4782608695652174 0.13043478260869565 0.391304347826087 
0.522633744855967 0.30864197530864196 0.16872427983539096 
0.3722627737226277 0.2846715328467153 0.34306569343065696 
0.788235294117647 0.17647058823529413 0.03529411764705882 
0.9162303664921466 0.07853403141361257 0.005235602094240838 
0.813953488372093 0.17829457364341086 0.007751937984496124 
0.8740157480314961 0.12335958005249344 0.0026246719160104987 
0.8219319353729804 0.1687865245788931 0.009281540048126504 
0.6727272727272727 0.30783699059561126 0.019435736677115987 
0.8461538461538461 0.11888111888111888 0.03496503496503497 
0.7456567060458652 0.221681723419041 0.03266157053509382 
0.5492957746478874 0.4183927091963546 0.03231151615575808 
0.6883116883116883 0.2987012987012987 0.012987012987012988 
0.6875957120980092 0.3016845329249617 0.010719754977029096 
0.4086181277860327 0.5512630014858841 0.04011887072808321 
0.4117647058823529 0.29411764705882354 0.29411764705882354 
0.5104895104895105 0.32867132867132864 0.16083916083916083 
0.3617021276595745 0.41843971631205673 0.2198581560283688 
0.8823529411764706 0.058823529411764705 0.058823529411764705 
0.8604651162790697 0.11627906976744186 0.023255813953488372 
0.6551724137931034 0.3103448275862069 0.034482758620689655 
0.896774193548387 0.07096774193548387 0.03225806451612903 
0.7983569828230023 0.14712471994025392 0.05451829723674384 
0.6426512968299711 0.30835734870317005 0.04899135446685879 
0.6129032258064516 0.2903225806451613 0.0967741935483871 
0.6190476190476191 0.3306122448979592 0.050340136054421766 
0.4906284454244763 0.44432194046306506 0.06504961411245866 
0.5428571428571428 0.42857142857142855 0.02857142857142857 
0.4902654867256637 0.44424778761061945 0.06548672566371681 
0.32342007434944237 0.5786864931846345 0.09789343246592318 
0.52 0.12 0.36 
0.4077922077922078 0.2727272727272727 0.3194805194805195 
0.2722063037249284 0.3638968481375358 0.3638968481375358 
</TABLE>
</DEFINITION>
<DEFINITION>
<FOR>pixel13</FOR>
<GIVEN>emotion</GIVEN>
<GIVEN>pixel10</GIVEN>
<GIVEN>pixel11</GIVEN>
<TABLE>
0.9829931972789115 0.01020408163265306 0.003401360544217687 0.003401360544217687 
0.8055555555555556 0.08333333333333333 0.027777777777777776 0.08333333333333333 
0.25 0.25 0.25 0.25 
0.25 0.25 0.25 0.25 
0.9537037037037037 0.027777777777777776 0.009259259259259259 0.009259259259259259 
0.861883153715258 0.11032331253545094 0.026375496313102667 0.0014180374361883153 
0.23684210526315788 0.13157894736842105 0.6052631578947368 0.02631578947368421 
0.25 0.25 0.25 0.25 
0.5 0.16666666666666666 0.16666666666666666 0.16666666666666666 
0.3584123222748815 0.4958530805687204 0.14395734597156398 0.0017772511848341231 
0.14777327935222673 0.2975708502024291 0.5445344129554656 0.010121457489878543 
0.25 0.25 0.25 0.25 
0.25 0.25 0.25 0.25 
0.45121951219512196 0.2804878048780488 0.25609756097560976 0.012195121951219513 
0.11379928315412187 0.12634408602150538 0.7016129032258065 0.05824372759856631 
0.038461538461538464 0.34615384615384615 0.19230769230769232 0.4230769230769231 
0.25 0.25 0.25 0.25 
0.375 0.125 0.375 0.125 
0.08024691358024691 0.10493827160493827 0.2654320987654321 0.5493827160493827 
0.013812154696132596 0.04143646408839779 0.17955801104972377 0.7651933701657458 
0.7857142857142857 0.07142857142857142 0.07142857142857142 0.07142857142857142 
0.6875 0.0625 0.1875 0.0625 
0.25 0.25 0.25 0.25 
0.25 0.25 0.25 0.25 
0.25 0.25 0.25 0.25 
0.8285024154589372 0.1280193236714976 0.04106280193236715 0.0024154589371980675 
0.16666666666666666 0.16666666666666666 0.5 0.16666666666666666 
0.25 0.25 0.25 0.25 
0.25 0.25 0.25 0.25 
0.22941176470588234 0.48823529411764705 0.2647058823529412 0.01764705882352941 
0.08536585365853659 0.13414634146341464 0.7682926829268293 0.012195121951219513 
0.25 0.25 0.25 0.25 
0.25 0.25 0.25 0.25 
0.1 0.3 0.5 0.1 
0.22321428571428573 0.0625 0.6339285714285714 0.08035714285714286 
0.25 0.25 0.25 0.25 
0.25 0.25 0.25 0.25 
0.25 0.25 0.25 0.25 
0.07142857142857142 0.07142857142857142 0.35714285714285715 0.5 
0.018518518518518517 0.05555555555555555 0.16666666666666666 0.7592592592592593 
0.9774774774774775 0.013513513513513514 0.0045045045045045045 0.0045045045045045045 
0.8863636363636364 0.06818181818181818 0.022727272727272728 0.022727272727272728 
0.25 0.25 0.25 0.25 
0.25 0.25 0.25 0.25 
0.9431818181818182 0.011363636363636364 0.03409090909090909 0.011363636363636364 
0.8223880597014925 0.12985074626865672 0.04567164179104478 0.00208955223880597 
0.2692307692307692 0.11538461538461539 0.5 0.11538461538461539 
0.25 0.25 0.25 0.25 
0.25 0.25 0.25 0.25 
0.3466593647316539 0.4693318729463308 0.18127053669222343 0.002738225629791895 
0.13319672131147542 0.25614754098360654 0.6004098360655737 0.010245901639344262 
0.25 0.25 0.25 0.25 
0.25 0.25 0.25 0.25 
0.35344827586206895 0.31896551724137934 0.28448275862068967 0.04310344827586207 
0.09514435695538058 0.14501312335958005 0.7066929133858267 0.0531496062992126 
0.07142857142857142 0.07142857142857142 0.21428571428571427 0.6428571428571429 
0.25 0.25 0.25 0.25 
0.25 0.25 0.25 0.25 
0.05113636363636364 0.08522727272727272 0.42613636363636365 0.4375 
0.015418502202643172 0.07268722466960352 0.21365638766519823 0.698237885462555 
0.9769736842105263 0.01644736842105263 0.003289473684210526 0.003289473684210526 
0.7678571428571429 0.05357142857142857 0.16071428571428573 0.017857142857142856 
0.25 0.25 0.25 0.25 
0.25 0.25 0.25 0.25 
0.9769230769230769 0.007692307692307693 0.007692307692307693 0.007692307692307693 
0.8694784459819053 0.10151676423629591 0.028339542309739223 6.652474720596061E-4 
0.23684210526315788 0.02631578947368421 0.6052631578947368 0.13157894736842105 
0.25 0.25 0.25 0.25 
0.25 0.25 0.25 0.25 
0.39915693904020755 0.4575226977950713 0.14105058365758755 0.002269779507133593 
0.15201005025125627 0.2399497487437186 0.5967336683417085 0.011306532663316583 
0.25 0.25 0.25 0.25 
0.25 0.25 0.25 0.25 
0.5214285714285715 0.17857142857142858 0.29285714285714287 0.007142857142857143 
0.10414269275028769 0.14211737629459148 0.7220943613348677 0.03164556962025317 
0.1 0.1 0.3 0.5 
0.25 0.25 0.25 0.25 
0.5 0.16666666666666666 0.16666666666666666 0.16666666666666666 
0.1377551020408163 0.09693877551020408 0.3622448979591837 0.4030612244897959 
0.008152173913043478 0.04619565217391304 0.20380434782608695 0.7418478260869565 
0.9715189873417721 0.015822784810126583 0.00949367088607595 0.0031645569620253164 
0.8289473684210527 0.09210526315789473 0.06578947368421052 0.013157894736842105 
0.25 0.25 0.25 0.25 
0.25 0.25 0.25 0.25 
0.9659090909090909 0.011363636363636364 0.011363636363636364 0.011363636363636364 
0.8591468101460416 0.10357417371252882 0.036318216756341275 9.607993850883935E-4 
0.15625 0.46875 0.34375 0.03125 
0.25 0.25 0.25 0.25 
0.25 0.25 0.25 0.25 
0.3997093023255814 0.4675387596899225 0.1303294573643411 0.0024224806201550387 
0.15020576131687244 0.2448559670781893 0.5987654320987654 0.006172839506172839 
0.25 0.25 0.25 0.25 
0.25 0.25 0.25 0.25 
0.3815789473684211 0.3815789473684211 0.2236842105263158 0.013157894736842105 
0.08043117744610281 0.12354892205638475 0.7570480928689884 0.03897180762852405 
0.1 0.3 0.1 0.5 
0.25 0.25 0.25 0.25 
0.5 0.16666666666666666 0.16666666666666666 0.16666666666666666 
0.056451612903225805 0.18548387096774194 0.33064516129032256 0.4274193548387097 
0.025362318840579712 0.03985507246376811 0.15579710144927536 0.7789855072463768 
0.9696132596685083 0.019337016574585635 0.008287292817679558 0.0027624309392265192 
0.9285714285714286 0.023809523809523808 0.023809523809523808 0.023809523809523808 
0.25 0.25 0.25 0.25 
0.25 0.25 0.25 0.25 
0.9769230769230769 0.007692307692307693 0.007692307692307693 0.007692307692307693 
0.8597122302158273 0.10643250105797715 0.03322048243757935 6.347862886161659E-4 
0.28125 0.09375 0.59375 0.03125 
0.25 0.25 0.25 0.25 
0.16666666666666666 0.16666666666666666 0.5 0.16666666666666666 
0.37614259597806216 0.4803473491773309 0.13848263254113347 0.005027422303473492 
0.1026936026936027 0.23737373737373738 0.6481481481481481 0.011784511784511785 
0.125 0.125 0.125 0.625 
0.25 0.25 0.25 0.25 
0.4224137931034483 0.28448275862068967 0.28448275862068967 0.008620689655172414 
0.07554517133956386 0.12071651090342679 0.7593457943925234 0.04439252336448598 
0.16666666666666666 0.16666666666666666 0.16666666666666666 0.5 
0.25 0.25 0.25 0.25 
0.25 0.25 0.25 0.25 
0.07894736842105263 0.11403508771929824 0.30701754385964913 0.5 
0.026881720430107527 0.04838709677419355 0.1989247311827957 0.7258064516129032 
0.9305555555555556 0.041666666666666664 0.013888888888888888 0.013888888888888888 
0.5625 0.3125 0.0625 0.0625 
0.25 0.25 0.25 0.25 
0.25 0.25 0.25 0.25 
0.8913043478260869 0.021739130434782608 0.06521739130434782 0.021739130434782608 
0.8060728744939272 0.13562753036437247 0.05789473684210526 4.048582995951417E-4 
0.22727272727272727 0.5909090909090909 0.13636363636363635 0.045454545454545456 
0.25 0.25 0.25 0.25 
0.25 0.25 0.25 0.25 
0.3856682769726248 0.40499194847020936 0.20853462157809985 8.051529790660225E-4 
0.10930232558139535 0.27674418604651163 0.6023255813953489 0.011627906976744186 
0.25 0.25 0.25 0.25 
0.25 0.25 0.25 0.25 
0.3108108108108108 0.20270270270270271 0.47297297297297297 0.013513513513513514 
0.12252663622526636 0.13470319634703196 0.6948249619482496 0.04794520547945205 
0.13636363636363635 0.045454545454545456 0.4090909090909091 0.4090909090909091 
0.25 0.25 0.25 0.25 
0.16666666666666666 0.5 0.16666666666666666 0.16666666666666666 
0.14795918367346939 0.10714285714285714 0.45408163265306123 0.29081632653061223 
0.0017857142857142857 0.0625 0.23392857142857143 0.7017857142857142 
</TABLE>
</DEFINITION>
<DEFINITION>
<FOR>pixel14</FOR>
<GIVEN>emotion</GIVEN>
<GIVEN>pixel13</GIVEN>
<GIVEN>pixel10</GIVEN>
<TABLE>
0.987460815047022 0.009404388714733543 0.003134796238244514 
0.9879403364011425 0.011742304030466518 3.1735956839098697E-4 
0.9030837004405287 0.09544787077826726 0.0014684287812041115 
0.6484848484848484 0.34545454545454546 0.006060606060606061 
0.42857142857142855 0.3333333333333333 0.23809523809523808 
0.7142857142857143 0.14285714285714285 0.14285714285714285 
0.7934508816120907 0.2040302267002519 0.0025188916876574307 
0.5350253807106599 0.4639593908629442 0.0010152284263959391 
0.2947976878612717 0.6994219653179191 0.005780346820809248 
0.2727272727272727 0.696969696969697 0.030303030303030304 
0.3333333333333333 0.3333333333333333 0.3333333333333333 
0.5042735042735043 0.452991452991453 0.042735042735042736 
0.1617933723196881 0.8362573099415205 0.001949317738791423 
0.07292954264524104 0.9258343634116193 0.0012360939431396785 
0.11711711711711711 0.6396396396396397 0.24324324324324326 
0.6 0.2 0.2 
0.42857142857142855 0.42857142857142855 0.14285714285714285 
0.3333333333333333 0.5555555555555556 0.1111111111111111 
0.09090909090909091 0.8181818181818182 0.09090909090909091 
0.02997275204359673 0.3024523160762943 0.667574931880109 
0.8260869565217391 0.13043478260869565 0.043478260869565216 
0.9652173913043478 0.03188405797101449 0.002898550724637681 
0.8723404255319149 0.10638297872340426 0.02127659574468085 
0.7037037037037037 0.25925925925925924 0.037037037037037035 
0.3333333333333333 0.3333333333333333 0.3333333333333333 
0.3333333333333333 0.3333333333333333 0.3333333333333333 
0.6 0.38181818181818183 0.01818181818181818 
0.5368421052631579 0.45263157894736844 0.010526315789473684 
0.2727272727272727 0.6363636363636364 0.09090909090909091 
0.2 0.2 0.6 
0.2 0.6 0.2 
0.6190476190476191 0.3333333333333333 0.047619047619047616 
0.21100917431192662 0.7798165137614679 0.009174311926605505 
0.03896103896103896 0.948051948051948 0.012987012987012988 
0.06666666666666667 0.8666666666666667 0.06666666666666667 
0.3333333333333333 0.3333333333333333 0.3333333333333333 
0.3333333333333333 0.3333333333333333 0.3333333333333333 
0.6 0.2 0.2 
0.09090909090909091 0.6363636363636364 0.2727272727272727 
0.02040816326530612 0.30612244897959184 0.673469387755102 
0.9922178988326849 0.0038910505836575876 0.0038910505836575876 
0.9887521968365554 0.010896309314586995 3.51493848857645E-4 
0.894134477825465 0.10157367668097282 0.004291845493562232 
0.6256684491978609 0.3689839572192513 0.0053475935828877 
0.4117647058823529 0.29411764705882354 0.29411764705882354 
0.7142857142857143 0.14285714285714285 0.14285714285714285 
0.7813211845102506 0.2164009111617312 0.002277904328018223 
0.5198372329603256 0.47914547304170907 0.001017293997965412 
0.4362934362934363 0.5598455598455598 0.003861003861003861 
0.3469387755102041 0.5102040816326531 0.14285714285714285 
0.3333333333333333 0.3333333333333333 0.3333333333333333 
0.4556213017751479 0.5384615384615384 0.005917159763313609 
0.1744 0.824 0.0016 
0.06199460916442048 0.9371069182389937 8.984725965858042E-4 
0.1791907514450867 0.6878612716763006 0.1329479768786127 
0.3333333333333333 0.3333333333333333 0.3333333333333333 
0.45454545454545453 0.45454545454545453 0.09090909090909091 
0.2727272727272727 0.45454545454545453 0.2727272727272727 
0.05263157894736842 0.8947368421052632 0.05263157894736842 
0.002531645569620253 0.3012658227848101 0.6962025316455697 
0.9941348973607038 0.002932551319648094 0.002932551319648094 
0.991905261579973 0.00794483585669315 1.4990256333383302E-4 
0.9053954175905395 0.09386548410938655 7.390983000739098E-4 
0.6235294117647059 0.37254901960784315 0.00392156862745098 
0.2727272727272727 0.6363636363636364 0.09090909090909091 
0.7777777777777778 0.1111111111111111 0.1111111111111111 
0.8431372549019608 0.15555555555555556 0.00130718954248366 
0.5520898315658141 0.4472863381160324 6.238303181534623E-4 
0.2673992673992674 0.7289377289377289 0.003663003663003663 
0.1891891891891892 0.7297297297297297 0.08108108108108109 
0.6363636363636364 0.2727272727272727 0.09090909090909091 
0.4430379746835443 0.5527426160337553 0.004219409282700422 
0.19209659714599342 0.8068057080131723 0.0010976948408342481 
0.053117782909930716 0.9445727482678984 0.0023094688221709007 
0.08843537414965986 0.6870748299319728 0.22448979591836735 
0.3333333333333333 0.3333333333333333 0.3333333333333333 
0.6363636363636364 0.2727272727272727 0.09090909090909091 
0.4117647058823529 0.4117647058823529 0.17647058823529413 
0.01639344262295082 0.8688524590163934 0.11475409836065574 
0.014164305949008499 0.26912181303116145 0.71671388101983 
0.9892183288409704 0.008086253369272238 0.0026954177897574125 
0.9938609953957466 0.00591975443981583 2.1925016443762334E-4 
0.9132369299221357 0.08565072302558398 0.0011123470522803114 
0.7480314960629921 0.2440944881889764 0.007874015748031496 
0.5294117647058824 0.4117647058823529 0.058823529411764705 
0.8461538461538461 0.07692307692307693 0.07692307692307693 
0.8846846846846846 0.11351351351351352 0.0018018018018018018 
0.5926267281105991 0.4064516129032258 9.216589861751152E-4 
0.281767955801105 0.712707182320442 0.0055248618784530384 
0.2571428571428571 0.6 0.14285714285714285 
0.7777777777777778 0.1111111111111111 0.1111111111111111 
0.4626865671641791 0.5323383084577115 0.004975124378109453 
0.18716577540106952 0.8110516934046346 0.0017825311942959 
0.07411385606874328 0.9226638023630505 0.00322234156820623 
0.058823529411764705 0.7647058823529411 0.17647058823529413 
0.3333333333333333 0.3333333333333333 0.3333333333333333 
0.42857142857142855 0.42857142857142855 0.14285714285714285 
0.7777777777777778 0.1111111111111111 0.1111111111111111 
0.1320754716981132 0.8113207547169812 0.05660377358490566 
0.011152416356877323 0.22676579925650558 0.7620817843866171 
0.9948849104859335 0.0025575447570332483 0.0025575447570332483 
0.9938080495356038 0.005953798523457966 2.3815194093831864E-4 
0.911864406779661 0.08700564971751412 0.0011299435028248588 
0.5918367346938775 0.4013605442176871 0.006802721088435374 
0.4666666666666667 0.2 0.3333333333333333 
0.7777777777777778 0.1111111111111111 0.1111111111111111 
0.8382642998027613 0.15976331360946747 0.0019723865877712033 
0.5473595976529757 0.451802179379715 8.382229673093043E-4 
0.20634920634920634 0.7883597883597884 0.005291005291005291 
0.13043478260869565 0.8260869565217391 0.043478260869565216 
0.6 0.2 0.2 
0.536723163841808 0.4576271186440678 0.005649717514124294 
0.17221418234442837 0.8263386396526773 0.001447178002894356 
0.044598612487611496 0.9544103072348861 9.910802775024777E-4 
0.0410958904109589 0.7534246575342466 0.2054794520547945 
0.3333333333333333 0.3333333333333333 0.3333333333333333 
0.6 0.2 0.2 
0.30434782608695654 0.4782608695652174 0.21739130434782608 
0.04918032786885246 0.9344262295081968 0.01639344262295082 
0.0051813471502590676 0.35751295336787564 0.6373056994818653 
0.974025974025974 0.012987012987012988 0.012987012987012988 
0.9950908198330879 0.004418262150220913 4.909180166912126E-4 
0.905123339658444 0.09297912713472485 0.0018975332068311196 
0.7433155080213903 0.24064171122994651 0.016042780748663103 
0.5483870967741935 0.41935483870967744 0.03225806451612903 
0.7777777777777778 0.1111111111111111 0.1111111111111111 
0.8567335243553008 0.14040114613180515 0.0028653295128939827 
0.608346709470305 0.3900481540930979 0.0016051364365971107 
0.35751295336787564 0.6373056994818653 0.0051813471502590676 
0.1864406779661017 0.7288135593220338 0.0847457627118644 
0.3333333333333333 0.3333333333333333 0.3333333333333333 
0.4899328859060403 0.5033557046979866 0.006711409395973154 
0.1676300578034682 0.8304431599229287 0.0019267822736030828 
0.047021943573667714 0.9477533960292581 0.00522466039707419 
0.1583710407239819 0.7375565610859729 0.10407239819004525 
0.3333333333333333 0.3333333333333333 0.3333333333333333 
0.3333333333333333 0.3333333333333333 0.3333333333333333 
0.42857142857142855 0.42857142857142855 0.14285714285714285 
0.0136986301369863 0.8082191780821918 0.1780821917808219 
0.011086474501108648 0.29490022172949004 0.6940133037694013 
</TABLE>
</DEFINITION>
<DEFINITION>
<FOR>pixel15</FOR>
<GIVEN>emotion</GIVEN>
<GIVEN>pixel1</GIVEN>
<GIVEN>pixel2</GIVEN>
<TABLE>
0.1559633027522936 0.41284403669724773 0.28440366972477066 0.06422018348623854 0.08256880733944955 
0.029490616621983913 0.34048257372654156 0.44235924932975873 0.1260053619302949 0.06166219839142091 
0.022364217252396165 0.16293929712460065 0.3546325878594249 0.3546325878594249 0.10543130990415335 
0.009708737864077669 0.1262135922330097 0.24271844660194175 0.4174757281553398 0.20388349514563106 
0.014084507042253521 0.1267605633802817 0.29577464788732394 0.18309859154929578 0.38028169014084506 
0.03296703296703297 0.25274725274725274 0.42857142857142855 0.23076923076923078 0.054945054945054944 
0.017881705639614855 0.1856946354883081 0.47455295735900965 0.2627235213204952 0.059147180192572216 
0.004468275245755138 0.0902591599642538 0.3351206434316354 0.4584450402144772 0.11170688114387846 
0.038869257950530034 0.038869257950530034 0.3003533568904594 0.27208480565371024 0.3498233215547703 
0.0072992700729927005 0.021897810218978103 0.19708029197080293 0.27007299270072993 0.5036496350364964 
0.02127659574468085 0.10638297872340426 0.44680851063829785 0.2765957446808511 0.14893617021276595 
0.021645021645021644 0.08225108225108226 0.36796536796536794 0.3593073593073593 0.16883116883116883 
0.005875440658049354 0.045828437132784956 0.2502937720329025 0.4712103407755582 0.22679200940070504 
0.0038022813688212928 0.06463878326996197 0.12547528517110265 0.4068441064638783 0.39923954372623577 
0.006896551724137931 0.06206896551724138 0.2 0.3103448275862069 0.4206896551724138 
0.02040816326530612 0.14285714285714285 0.061224489795918366 0.3877551020408163 0.3877551020408163 
0.013452914798206279 0.08520179372197309 0.22869955156950672 0.3721973094170404 0.3004484304932735 
0.02023429179978701 0.058572949946751864 0.20340788072417465 0.42705005324813633 0.29073482428115016 
0.00546448087431694 0.020036429872495445 0.09289617486338798 0.3879781420765027 0.4936247723132969 
0.012448132780082987 0.03734439834024896 0.0954356846473029 0.3360995850622407 0.5186721991701245 
0.15151515151515152 0.09090909090909091 0.15151515151515152 0.09090909090909091 0.5151515151515151 
0.008403361344537815 0.07563025210084033 0.14285714285714285 0.3277310924369748 0.44537815126050423 
0.020895522388059702 0.03283582089552239 0.16417910447761194 0.2656716417910448 0.5164179104477612 
0.003952569169960474 0.011857707509881422 0.09881422924901186 0.35177865612648224 0.5335968379446641 
0.0072992700729927005 0.031630170316301706 0.08029197080291971 0.20194647201946472 0.6788321167883211 
0.14285714285714285 0.42857142857142855 0.14285714285714285 0.14285714285714285 0.14285714285714285 
0.034482758620689655 0.2413793103448276 0.5862068965517241 0.034482758620689655 0.10344827586206896 
0.06666666666666667 0.06666666666666667 0.3333333333333333 0.4666666666666667 0.06666666666666667 
0.3333333333333333 0.1111111111111111 0.3333333333333333 0.1111111111111111 0.1111111111111111 
0.1111111111111111 0.3333333333333333 0.3333333333333333 0.1111111111111111 0.1111111111111111 
0.14285714285714285 0.14285714285714285 0.42857142857142855 0.14285714285714285 0.14285714285714285 
0.0136986301369863 0.0684931506849315 0.5068493150684932 0.3150684931506849 0.0958904109589041 
0.008849557522123894 0.061946902654867256 0.4690265486725664 0.34513274336283184 0.11504424778761062 
0.030303030303030304 0.15151515151515152 0.2727272727272727 0.3333333333333333 0.21212121212121213 
0.04 0.04 0.36 0.44 0.12 
0.14285714285714285 0.14285714285714285 0.42857142857142855 0.14285714285714285 0.14285714285714285 
0.030303030303030304 0.09090909090909091 0.2727272727272727 0.45454545454545453 0.15151515151515152 
0.012658227848101266 0.012658227848101266 0.11392405063291139 0.4936708860759494 0.3670886075949367 
0.02040816326530612 0.02040816326530612 0.14285714285714285 0.14285714285714285 0.673469387755102 
0.037037037037037035 0.037037037037037035 0.18518518518518517 0.1111111111111111 0.6296296296296297 
0.2 0.2 0.2 0.2 0.2 
0.043478260869565216 0.043478260869565216 0.30434782608695654 0.30434782608695654 0.30434782608695654 
0.007874015748031496 0.023622047244094488 0.13385826771653545 0.3543307086614173 0.48031496062992124 
0.0136986301369863 0.0136986301369863 0.0684931506849315 0.3424657534246575 0.5616438356164384 
0.02702702702702703 0.02702702702702703 0.08108108108108109 0.40540540540540543 0.4594594594594595 
0.14285714285714285 0.14285714285714285 0.14285714285714285 0.42857142857142855 0.14285714285714285 
0.05263157894736842 0.05263157894736842 0.15789473684210525 0.3684210526315789 0.3684210526315789 
0.01694915254237288 0.05084745762711865 0.0847457627118644 0.2542372881355932 0.5932203389830508 
0.018867924528301886 0.018867924528301886 0.05660377358490566 0.2830188679245283 0.6226415094339622 
0.01694915254237288 0.01694915254237288 0.0847457627118644 0.15254237288135594 0.7288135593220338 
0.06382978723404255 0.23404255319148937 0.5319148936170213 0.10638297872340426 0.06382978723404255 
0.05531914893617021 0.3021276595744681 0.40425531914893614 0.13191489361702127 0.10638297872340426 
0.004484304932735426 0.20179372197309417 0.3542600896860987 0.3183856502242152 0.1210762331838565 
0.011764705882352941 0.08235294117647059 0.36470588235294116 0.29411764705882354 0.24705882352941178 
0.1076923076923077 0.07692307692307693 0.38461538461538464 0.13846153846153847 0.2923076923076923 
0.0196078431372549 0.21568627450980393 0.49019607843137253 0.17647058823529413 0.09803921568627451 
0.00683371298405467 0.16173120728929385 0.5854214123006833 0.18906605922551253 0.05694760820045558 
0.010380622837370242 0.09803921568627451 0.356401384083045 0.4209919261822376 0.11418685121107267 
0.004048582995951417 0.08502024291497975 0.27125506072874495 0.41700404858299595 0.22267206477732793 
0.017341040462427744 0.06358381502890173 0.2023121387283237 0.26011560693641617 0.45664739884393063 
0.037037037037037035 0.3333333333333333 0.18518518518518517 0.3333333333333333 0.1111111111111111 
0.014084507042253521 0.107981220657277 0.38028169014084506 0.38967136150234744 0.107981220657277 
0.0013003901170351106 0.055916775032509754 0.2535760728218466 0.5240572171651495 0.16514954486345904 
0.0031746031746031746 0.047619047619047616 0.19365079365079366 0.49206349206349204 0.2634920634920635 
0.018867924528301886 0.031446540880503145 0.18238993710691823 0.3081761006289308 0.4591194968553459 
0.08108108108108109 0.08108108108108109 0.24324324324324326 0.2972972972972973 0.2972972972972973 
0.0036900369003690036 0.09225092250922509 0.2915129151291513 0.42435424354243545 0.1881918819188192 
0.007106598984771574 0.047715736040609136 0.18984771573604062 0.44771573604060916 0.30761421319796955 
0.0012738853503184713 0.034394904458598725 0.16178343949044585 0.38089171974522296 0.42165605095541403 
0.006564551422319475 0.03282275711159737 0.1422319474835886 0.3347921225382932 0.48358862144420134 
0.058823529411764705 0.17647058823529413 0.17647058823529413 0.17647058823529413 0.4117647058823529 
0.004651162790697674 0.07906976744186046 0.24651162790697675 0.3395348837209302 0.3302325581395349 
0.005802707930367505 0.04061895551257253 0.12572533849129594 0.3307543520309478 0.49709864603481624 
0.0021141649048625794 0.023255813953488372 0.07399577167019028 0.28118393234672306 0.6194503171247357 
0.001364256480218281 0.045020463847203276 0.08049113233287858 0.23328785811732605 0.6398362892223738 
0.03896103896103896 0.4025974025974026 0.2987012987012987 0.16883116883116883 0.09090909090909091 
0.0019120458891013384 0.1701720841300191 0.5181644359464627 0.24282982791587 0.06692160611854685 
0.0027397260273972603 0.1178082191780822 0.40821917808219177 0.3041095890410959 0.16712328767123288 
0.011235955056179775 0.12359550561797752 0.21348314606741572 0.2808988764044944 0.3707865168539326 
0.022222222222222223 0.06666666666666667 0.4222222222222222 0.2 0.28888888888888886 
0.02127659574468085 0.10638297872340426 0.44680851063829785 0.3191489361702128 0.10638297872340426 
9.319664492078285E-4 0.09226467847157502 0.3699906803355079 0.39422180801491147 0.14259086672879775 
4.2607584149978694E-4 0.027694929697486152 0.2194290583723903 0.5185342991052407 0.23391563698338305 
0.002004008016032064 0.03807615230460922 0.17034068136272545 0.3627254509018036 0.42685370741482964 
0.003861003861003861 0.05791505791505792 0.14285714285714285 0.3590733590733591 0.4362934362934363 
0.05263157894736842 0.2631578947368421 0.2631578947368421 0.2631578947368421 0.15789473684210525 
0.003663003663003663 0.040293040293040296 0.25274725274725274 0.4945054945054945 0.2087912087912088 
6.373486297004461E-4 0.012109623964308477 0.14467813894200127 0.46335245379222434 0.3792224346717655 
0.005893909626719057 0.01768172888015717 0.11198428290766209 0.3713163064833006 0.4931237721021611 
0.0051813471502590676 0.025906735751295335 0.07772020725388601 0.29533678756476683 0.5958549222797928 
0.05263157894736842 0.15789473684210525 0.2631578947368421 0.2631578947368421 0.2631578947368421 
0.003745318352059925 0.04868913857677903 0.250936329588015 0.35580524344569286 0.3408239700374532 
5.571030640668524E-4 0.02618384401114206 0.07966573816155989 0.37493036211699166 0.5186629526462395 
7.401924500370096E-4 0.011102886750555145 0.07772020725388601 0.2923760177646188 0.6180606957809031 
0.001394700139470014 0.01813110181311018 0.05718270571827057 0.24686192468619247 0.6764295676429568 
0.07692307692307693 0.07692307692307693 0.38461538461538464 0.07692307692307693 0.38461538461538464 
0.008130081300813009 0.024390243902439025 0.23577235772357724 0.3008130081300813 0.43089430894308944 
0.0016313213703099511 0.04404567699836868 0.08319738988580751 0.2039151712887439 0.66721044045677 
0.0015082956259426848 0.016591251885369532 0.07390648567119155 0.18552036199095023 0.722473604826546 
9.930486593843098E-4 0.012909632571996028 0.03277060575968222 0.1519364448857994 0.8013902681231381 
0.13043478260869565 0.2463768115942029 0.4782608695652174 0.07246376811594203 0.07246376811594203 
0.002288329519450801 0.21739130434782608 0.620137299771167 0.13501144164759726 0.02517162471395881 
0.00398406374501992 0.17131474103585656 0.41832669322709165 0.3147410358565737 0.09163346613545817 
0.018867924528301886 0.16981132075471697 0.20754716981132076 0.4339622641509434 0.16981132075471697 
0.014492753623188406 0.13043478260869565 0.10144927536231885 0.391304347826087 0.36231884057971014 
0.017543859649122806 0.15789473684210525 0.543859649122807 0.15789473684210525 0.12280701754385964 
0.0012738853503184713 0.08025477707006369 0.6229299363057325 0.26369426751592356 0.03184713375796178 
8.51063829787234E-4 0.04 0.39914893617021274 0.4553191489361702 0.1046808510638298 
0.0038314176245210726 0.04980842911877394 0.2796934865900383 0.42528735632183906 0.2413793103448276 
0.0055248618784530384 0.049723756906077346 0.19337016574585636 0.34806629834254144 0.40331491712707185 
0.034482758620689655 0.2413793103448276 0.4482758620689655 0.2413793103448276 0.034482758620689655 
0.004366812227074236 0.056768558951965066 0.4410480349344978 0.39737991266375544 0.10043668122270742 
0.0011534025374855825 0.01730103806228374 0.2502883506343714 0.5501730103806228 0.18108419838523646 
0.0037174721189591076 0.026022304832713755 0.1895910780669145 0.4275092936802974 0.35315985130111527 
0.007751937984496124 0.03875968992248062 0.16279069767441862 0.3023255813953488 0.4883720930232558 
0.06666666666666667 0.24444444444444444 0.28888888888888886 0.24444444444444444 0.15555555555555556 
0.004484304932735426 0.09417040358744394 0.3273542600896861 0.3004484304932735 0.273542600896861 
8.298755186721991E-4 0.007468879668049793 0.15684647302904564 0.4987551867219917 0.3360995850622407 
0.0011325028312570782 0.01245753114382786 0.11211778029445074 0.41562853907134767 0.45866364665911663 
0.001996007984031936 0.001996007984031936 0.07784431137724551 0.3333333333333333 0.5848303393213573 
0.030303030303030304 0.21212121212121213 0.030303030303030304 0.21212121212121213 0.5151515151515151 
0.00546448087431694 0.01639344262295082 0.15846994535519127 0.3442622950819672 0.47540983606557374 
0.0018018018018018018 0.009009009009009009 0.11351351351351352 0.3225225225225225 0.5531531531531532 
0.0016806722689075631 0.018487394957983194 0.08571428571428572 0.30084033613445377 0.5932773109243697 
0.001049317943336831 0.005246589716684155 0.06400839454354669 0.2465897166841553 0.683105981112277 
0.009708737864077669 0.5145631067961165 0.33980582524271846 0.10679611650485436 0.02912621359223301 
0.011037527593818985 0.3465783664459161 0.5275938189845475 0.09933774834437085 0.01545253863134658 
0.013333333333333334 0.22133333333333333 0.42933333333333334 0.23733333333333334 0.09866666666666667 
0.02608695652173913 0.16521739130434782 0.40869565217391307 0.25217391304347825 0.14782608695652175 
0.03225806451612903 0.13978494623655913 0.3548387096774194 0.24731182795698925 0.22580645161290322 
0.031578947368421054 0.22105263157894736 0.47368421052631576 0.2 0.07368421052631578 
0.0033370411568409346 0.1946607341490545 0.5617352614015573 0.19688542825361513 0.04338153503893215 
0.002117148906139732 0.10515172900494002 0.4100211714890614 0.37755822159491886 0.10515172900494002 
0.00804289544235925 0.07238605898123325 0.29222520107238603 0.4262734584450402 0.20107238605898123 
0.05699481865284974 0.046632124352331605 0.13989637305699482 0.36787564766839376 0.38860103626943004 
0.02127659574468085 0.10638297872340426 0.6170212765957447 0.23404255319148937 0.02127659574468085 
0.003663003663003663 0.12087912087912088 0.4432234432234432 0.3772893772893773 0.054945054945054944 
0.0010649627263045794 0.054313099041533544 0.2971246006389776 0.48242811501597443 0.1650692225772098 
0.0033444816053511705 0.06354515050167224 0.24414715719063546 0.431438127090301 0.25752508361204013 
0.006535947712418301 0.032679738562091505 0.17647058823529413 0.21568627450980393 0.5686274509803921 
0.01694915254237288 0.15254237288135594 0.3559322033898305 0.3220338983050847 0.15254237288135594 
0.008797653958944282 0.07331378299120235 0.3782991202346041 0.36656891495601174 0.17302052785923755 
0.00508646998982706 0.04170905391658189 0.17395727365208546 0.5055951169888098 0.2736520854526958 
