<?xml version="1.0"?>
<!-- DTD for the XMLBIF 0.3 format -->
<!DOCTYPE BIF [
	<!ELEMENT BIF ( NETWORK )*>
	      <!ATTLIST BIF VERSION CDATA #REQUIRED>
	<!ELEMENT NETWORK ( NAME, ( PROPERTY | VARIABLE | DEFINITION )* )>
	<!ELEMENT NAME (#PCDATA)>
	<!ELEMENT VARIABLE ( NAME, ( OUTCOME |  PROPERTY )* ) >
	      <!ATTLIST VARIABLE TYPE (nature|decision|utility) "nature">
	<!ELEMENT OUTCOME (#PCDATA)>
	<!ELEMENT DEFINITION ( FOR | GIVEN | TABLE | PROPERTY )* >
	<!ELEMENT FOR (#PCDATA)>
	<!ELEMENT GIVEN (#PCDATA)>
	<!ELEMENT TABLE (#PCDATA)>
	<!ELEMENT PROPERTY (#PCDATA)>
]>


<BIF VERSION="0.3">
<NETWORK>
<NAME>faces-weka.filters.supervised.attribute.Discretize-Rfirst-last-precision6-weka.filters.unsupervised.attribute.ReplaceMissingValues</NAME>
<VARIABLE TYPE="nature">
<NAME>emotion</NAME>
<OUTCOME>angry</OUTCOME>
<OUTCOME>disgust</OUTCOME>
<OUTCOME>fear</OUTCOME>
<OUTCOME>happy</OUTCOME>
<OUTCOME>neutral</OUTCOME>
<OUTCOME>sad</OUTCOME>
<OUTCOME>surprise</OUTCOME>
</VARIABLE>
<VARIABLE TYPE="nature">
<NAME>pixel0</NAME>
<OUTCOME>&apos;\&apos;(-inf-0.448039]\&apos;&apos;</OUTCOME>
<OUTCOME>&apos;\&apos;(0.448039-0.688235]\&apos;&apos;</OUTCOME>
<OUTCOME>&apos;\&apos;(0.688235-0.789216]\&apos;&apos;</OUTCOME>
<OUTCOME>&apos;\&apos;(0.789216-inf)\&apos;&apos;</OUTCOME>
</VARIABLE>
<VARIABLE TYPE="nature">
<NAME>pixel1</NAME>
<OUTCOME>&apos;\&apos;(-inf-0.295588]\&apos;&apos;</OUTCOME>
<OUTCOME>&apos;\&apos;(0.295588-0.52451]\&apos;&apos;</OUTCOME>
<OUTCOME>&apos;\&apos;(0.52451-0.620098]\&apos;&apos;</OUTCOME>
<OUTCOME>&apos;\&apos;(0.620098-0.762745]\&apos;&apos;</OUTCOME>
<OUTCOME>&apos;\&apos;(0.762745-inf)\&apos;&apos;</OUTCOME>
</VARIABLE>
<VARIABLE TYPE="nature">
<NAME>pixel2</NAME>
<OUTCOME>&apos;\&apos;(-inf-0.152451]\&apos;&apos;</OUTCOME>
<OUTCOME>&apos;\&apos;(0.152451-0.40098]\&apos;&apos;</OUTCOME>
<OUTCOME>&apos;\&apos;(0.40098-0.657353]\&apos;&apos;</OUTCOME>
<OUTCOME>&apos;\&apos;(0.657353-0.768627]\&apos;&apos;</OUTCOME>
<OUTCOME>&apos;\&apos;(0.768627-inf)\&apos;&apos;</OUTCOME>
</VARIABLE>
<VARIABLE TYPE="nature">
<NAME>pixel3</NAME>
<OUTCOME>&apos;\&apos;(-inf-0.429412]\&apos;&apos;</OUTCOME>
<OUTCOME>&apos;\&apos;(0.429412-0.648529]\&apos;&apos;</OUTCOME>
<OUTCOME>&apos;\&apos;(0.648529-0.788235]\&apos;&apos;</OUTCOME>
<OUTCOME>&apos;\&apos;(0.788235-inf)\&apos;&apos;</OUTCOME>
</VARIABLE>
<VARIABLE TYPE="nature">
<NAME>pixel4</NAME>
<OUTCOME>&apos;\&apos;(-inf-0.408824]\&apos;&apos;</OUTCOME>
<OUTCOME>&apos;\&apos;(0.408824-0.705392]\&apos;&apos;</OUTCOME>
<OUTCOME>&apos;\&apos;(0.705392-0.794118]\&apos;&apos;</OUTCOME>
<OUTCOME>&apos;\&apos;(0.794118-inf)\&apos;&apos;</OUTCOME>
</VARIABLE>
<VARIABLE TYPE="nature">
<NAME>pixel5</NAME>
<OUTCOME>&apos;\&apos;(-inf-0.493627]\&apos;&apos;</OUTCOME>
<OUTCOME>&apos;\&apos;(0.493627-0.669608]\&apos;&apos;</OUTCOME>
<OUTCOME>&apos;\&apos;(0.669608-inf)\&apos;&apos;</OUTCOME>
</VARIABLE>
<VARIABLE TYPE="nature">
<NAME>pixel6</NAME>
<OUTCOME>&apos;\&apos;(-inf-0.080392]\&apos;&apos;</OUTCOME>
<OUTCOME>&apos;\&apos;(0.080392-0.542647]\&apos;&apos;</OUTCOME>
<OUTCOME>&apos;\&apos;(0.542647-0.663235]\&apos;&apos;</OUTCOME>
<OUTCOME>&apos;\&apos;(0.663235-inf)\&apos;&apos;</OUTCOME>
</VARIABLE>
<VARIABLE TYPE="nature">
<NAME>pixel7</NAME>
<OUTCOME>&apos;\&apos;(-inf-0.50098]\&apos;&apos;</OUTCOME>
<OUTCOME>&apos;\&apos;(0.50098-inf)\&apos;&apos;</OUTCOME>
</VARIABLE>
<VARIABLE TYPE="nature">
<NAME>pixel8</NAME>
<OUTCOME>&apos;\&apos;(-inf-0.181373]\&apos;&apos;</OUTCOME>
<OUTCOME>&apos;\&apos;(0.181373-0.565196]\&apos;&apos;</OUTCOME>
<OUTCOME>&apos;\&apos;(0.565196-inf)\&apos;&apos;</OUTCOME>
</VARIABLE>
<VARIABLE TYPE="nature">
<NAME>pixel9</NAME>
<OUTCOME>&apos;\&apos;(-inf-0.093137]\&apos;&apos;</OUTCOME>
<OUTCOME>&apos;\&apos;(0.093137-0.593137]\&apos;&apos;</OUTCOME>
<OUTCOME>&apos;\&apos;(0.593137-inf)\&apos;&apos;</OUTCOME>
</VARIABLE>
<VARIABLE TYPE="nature">
<NAME>pixel10</NAME>
<OUTCOME>&apos;\&apos;(-inf-0.020098]\&apos;&apos;</OUTCOME>
<OUTCOME>&apos;\&apos;(0.020098-0.435294]\&apos;&apos;</OUTCOME>
<OUTCOME>&apos;\&apos;(0.435294-0.735294]\&apos;&apos;</OUTCOME>
<OUTCOME>&apos;\&apos;(0.735294-0.972059]\&apos;&apos;</OUTCOME>
<OUTCOME>&apos;\&apos;(0.972059-inf)\&apos;&apos;</OUTCOME>
</VARIABLE>
<VARIABLE TYPE="nature">
<NAME>pixel11</NAME>
<OUTCOME>&apos;\&apos;(-inf-0.026961]\&apos;&apos;</OUTCOME>
<OUTCOME>&apos;\&apos;(0.026961-0.676471]\&apos;&apos;</OUTCOME>
<OUTCOME>&apos;\&apos;(0.676471-0.991667]\&apos;&apos;</OUTCOME>
<OUTCOME>&apos;\&apos;(0.991667-inf)\&apos;&apos;</OUTCOME>
</VARIABLE>
<VARIABLE TYPE="nature">
<NAME>pixel12</NAME>
<OUTCOME>&apos;\&apos;(-inf-0.603922]\&apos;&apos;</OUTCOME>
<OUTCOME>&apos;\&apos;(0.603922-0.976471]\&apos;&apos;</OUTCOME>
<OUTCOME>&apos;\&apos;(0.976471-inf)\&apos;&apos;</OUTCOME>
</VARIABLE>
<VARIABLE TYPE="nature">
<NAME>pixel13</NAME>
<OUTCOME>&apos;\&apos;(-inf-0.493137]\&apos;&apos;</OUTCOME>
<OUTCOME>&apos;\&apos;(0.493137-0.675]\&apos;&apos;</OUTCOME>
<OUTCOME>&apos;\&apos;(0.675-0.957353]\&apos;&apos;</OUTCOME>
<OUTCOME>&apos;\&apos;(0.957353-inf)\&apos;&apos;</OUTCOME>
</VARIABLE>
<VARIABLE TYPE="nature">
<NAME>pixel14</NAME>
<OUTCOME>&apos;\&apos;(-inf-0.585294]\&apos;&apos;</OUTCOME>
<OUTCOME>&apos;\&apos;(0.585294-0.985784]\&apos;&apos;</OUTCOME>
<OUTCOME>&apos;\&apos;(0.985784-inf)\&apos;&apos;</OUTCOME>
</VARIABLE>
<VARIABLE TYPE="nature">
<NAME>pixel15</NAME>
<OUTCOME>&apos;\&apos;(-inf-0.016176]\&apos;&apos;</OUTCOME>
<OUTCOME>&apos;\&apos;(0.016176-0.180392]\&apos;&apos;</OUTCOME>
<OUTCOME>&apos;\&apos;(0.180392-0.389216]\&apos;&apos;</OUTCOME>
<OUTCOME>&apos;\&apos;(0.389216-0.587255]\&apos;&apos;</OUTCOME>
<OUTCOME>&apos;\&apos;(0.587255-inf)\&apos;&apos;</OUTCOME>
</VARIABLE>
<VARIABLE TYPE="nature">
<NAME>pixel16</NAME>
<OUTCOME>&apos;\&apos;(-inf-0.161275]\&apos;&apos;</OUTCOME>
<OUTCOME>&apos;\&apos;(0.161275-0.362745]\&apos;&apos;</OUTCOME>
<OUTCOME>&apos;\&apos;(0.362745-0.498039]\&apos;&apos;</OUTCOME>
<OUTCOME>&apos;\&apos;(0.498039-0.606863]\&apos;&apos;</OUTCOME>
<OUTCOME>&apos;\&apos;(0.606863-inf)\&apos;&apos;</OUTCOME>
</VARIABLE>
<VARIABLE TYPE="nature">
<NAME>pixel17</NAME>
<OUTCOME>&apos;\&apos;(-inf-0.194608]\&apos;&apos;</OUTCOME>
<OUTCOME>&apos;\&apos;(0.194608-0.288725]\&apos;&apos;</OUTCOME>
<OUTCOME>&apos;\&apos;(0.288725-0.491667]\&apos;&apos;</OUTCOME>
<OUTCOME>&apos;\&apos;(0.491667-inf)\&apos;&apos;</OUTCOME>
</VARIABLE>
<VARIABLE TYPE="nature">
<NAME>pixel18</NAME>
<OUTCOME>&apos;\&apos;(-inf-0.151961]\&apos;&apos;</OUTCOME>
<OUTCOME>&apos;\&apos;(0.151961-0.334804]\&apos;&apos;</OUTCOME>
<OUTCOME>&apos;\&apos;(0.334804-0.541667]\&apos;&apos;</OUTCOME>
<OUTCOME>&apos;\&apos;(0.541667-inf)\&apos;&apos;</OUTCOME>
</VARIABLE>
<VARIABLE TYPE="nature">
<NAME>pixel19</NAME>
<OUTCOME>&apos;\&apos;(-inf-0.207843]\&apos;&apos;</OUTCOME>
<OUTCOME>&apos;\&apos;(0.207843-0.405392]\&apos;&apos;</OUTCOME>
<OUTCOME>&apos;\&apos;(0.405392-0.571078]\&apos;&apos;</OUTCOME>
<OUTCOME>&apos;\&apos;(0.571078-inf)\&apos;&apos;</OUTCOME>
</VARIABLE>
<VARIABLE TYPE="nature">
<NAME>pixel20</NAME>
<OUTCOME>&apos;\&apos;(-inf-0.090686]\&apos;&apos;</OUTCOME>
<OUTCOME>&apos;\&apos;(0.090686-0.337255]\&apos;&apos;</OUTCOME>
<OUTCOME>&apos;\&apos;(0.337255-inf)\&apos;&apos;</OUTCOME>
</VARIABLE>
<VARIABLE TYPE="nature">
<NAME>pixel21</NAME>
<OUTCOME>&apos;\&apos;(-inf-0.156373]\&apos;&apos;</OUTCOME>
<OUTCOME>&apos;\&apos;(0.156373-0.503431]\&apos;&apos;</OUTCOME>
<OUTCOME>&apos;\&apos;(0.503431-0.991667]\&apos;&apos;</OUTCOME>
<OUTCOME>&apos;\&apos;(0.991667-inf)\&apos;&apos;</OUTCOME>
</VARIABLE>
<VARIABLE TYPE="nature">
<NAME>pixel22</NAME>
<OUTCOME>&apos;\&apos;(-inf-0.355882]\&apos;&apos;</OUTCOME>
<OUTCOME>&apos;\&apos;(0.355882-0.978431]\&apos;&apos;</OUTCOME>
<OUTCOME>&apos;\&apos;(0.978431-inf)\&apos;&apos;</OUTCOME>
</VARIABLE>
<VARIABLE TYPE="nature">
<NAME>pixel23</NAME>
<OUTCOME>&apos;\&apos;(-inf-0.058333]\&apos;&apos;</OUTCOME>
<OUTCOME>&apos;\&apos;(0.058333-0.289706]\&apos;&apos;</OUTCOME>
<OUTCOME>&apos;\&apos;(0.289706-0.634314]\&apos;&apos;</OUTCOME>
<OUTCOME>&apos;\&apos;(0.634314-0.967157]\&apos;&apos;</OUTCOME>
<OUTCOME>&apos;\&apos;(0.967157-inf)\&apos;&apos;</OUTCOME>
</VARIABLE>
<VARIABLE TYPE="nature">
<NAME>pixel24</NAME>
<OUTCOME>&apos;\&apos;(-inf-0.159314]\&apos;&apos;</OUTCOME>
<OUTCOME>&apos;\&apos;(0.159314-0.546569]\&apos;&apos;</OUTCOME>
<OUTCOME>&apos;\&apos;(0.546569-0.960784]\&apos;&apos;</OUTCOME>
<OUTCOME>&apos;\&apos;(0.960784-inf)\&apos;&apos;</OUTCOME>
</VARIABLE>
<VARIABLE TYPE="nature">
<NAME>pixel25</NAME>
<OUTCOME>&apos;\&apos;(-inf-0.328431]\&apos;&apos;</OUTCOME>
<OUTCOME>&apos;\&apos;(0.328431-0.627451]\&apos;&apos;</OUTCOME>
<OUTCOME>&apos;\&apos;(0.627451-0.758824]\&apos;&apos;</OUTCOME>
<OUTCOME>&apos;\&apos;(0.758824-inf)\&apos;&apos;</OUTCOME>
</VARIABLE>
<VARIABLE TYPE="nature">
<NAME>pixel26</NAME>
<OUTCOME>&apos;\&apos;(-inf-0.419608]\&apos;&apos;</OUTCOME>
<OUTCOME>&apos;\&apos;(0.419608-0.614706]\&apos;&apos;</OUTCOME>
<OUTCOME>&apos;\&apos;(0.614706-0.761765]\&apos;&apos;</OUTCOME>
<OUTCOME>&apos;\&apos;(0.761765-inf)\&apos;&apos;</OUTCOME>
</VARIABLE>
<VARIABLE TYPE="nature">
<NAME>pixel27</NAME>
<OUTCOME>&apos;\&apos;(-inf-0.465686]\&apos;&apos;</OUTCOME>
<OUTCOME>&apos;\&apos;(0.465686-0.639216]\&apos;&apos;</OUTCOME>
<OUTCOME>&apos;\&apos;(0.639216-0.772059]\&apos;&apos;</OUTCOME>
<OUTCOME>&apos;\&apos;(0.772059-inf)\&apos;&apos;</OUTCOME>
</VARIABLE>
<VARIABLE TYPE="nature">
<NAME>pixel28</NAME>
<OUTCOME>&apos;\&apos;(-inf-0.466667]\&apos;&apos;</OUTCOME>
<OUTCOME>&apos;\&apos;(0.466667-0.684804]\&apos;&apos;</OUTCOME>
<OUTCOME>&apos;\&apos;(0.684804-0.77598]\&apos;&apos;</OUTCOME>
<OUTCOME>&apos;\&apos;(0.77598-inf)\&apos;&apos;</OUTCOME>
</VARIABLE>
<VARIABLE TYPE="nature">
<NAME>pixel29</NAME>
<OUTCOME>&apos;\&apos;(-inf-0.477451]\&apos;&apos;</OUTCOME>
<OUTCOME>&apos;\&apos;(0.477451-0.644608]\&apos;&apos;</OUTCOME>
<OUTCOME>&apos;\&apos;(0.644608-0.768137]\&apos;&apos;</OUTCOME>
<OUTCOME>&apos;\&apos;(0.768137-inf)\&apos;&apos;</OUTCOME>
</VARIABLE>
<VARIABLE TYPE="nature">
<NAME>pixel30</NAME>
<OUTCOME>&apos;\&apos;(-inf-0.22402]\&apos;&apos;</OUTCOME>
<OUTCOME>&apos;\&apos;(0.22402-0.405882]\&apos;&apos;</OUTCOME>
<OUTCOME>&apos;\&apos;(0.405882-0.676961]\&apos;&apos;</OUTCOME>
<OUTCOME>&apos;\&apos;(0.676961-0.822059]\&apos;&apos;</OUTCOME>
<OUTCOME>&apos;\&apos;(0.822059-inf)\&apos;&apos;</OUTCOME>
</VARIABLE>
<VARIABLE TYPE="nature">
<NAME>pixel31</NAME>
<OUTCOME>&apos;\&apos;(-inf-0.279412]\&apos;&apos;</OUTCOME>
<OUTCOME>&apos;\&apos;(0.279412-0.480882]\&apos;&apos;</OUTCOME>
<OUTCOME>&apos;\&apos;(0.480882-0.648039]\&apos;&apos;</OUTCOME>
<OUTCOME>&apos;\&apos;(0.648039-0.745098]\&apos;&apos;</OUTCOME>
<OUTCOME>&apos;\&apos;(0.745098-inf)\&apos;&apos;</OUTCOME>
</VARIABLE>
<VARIABLE TYPE="nature">
<NAME>pixel32</NAME>
<OUTCOME>&apos;\&apos;(-inf-0.448039]\&apos;&apos;</OUTCOME>
<OUTCOME>&apos;\&apos;(0.448039-0.688235]\&apos;&apos;</OUTCOME>
<OUTCOME>&apos;\&apos;(0.688235-0.789216]\&apos;&apos;</OUTCOME>
<OUTCOME>&apos;\&apos;(0.789216-inf)\&apos;&apos;</OUTCOME>
</VARIABLE>
<VARIABLE TYPE="nature">
<NAME>pixel33</NAME>
<OUTCOME>&apos;\&apos;(-inf-0.428922]\&apos;&apos;</OUTCOME>
<OUTCOME>&apos;\&apos;(0.428922-0.598039]\&apos;&apos;</OUTCOME>
<OUTCOME>&apos;\&apos;(0.598039-0.75]\&apos;&apos;</OUTCOME>
<OUTCOME>&apos;\&apos;(0.75-inf)\&apos;&apos;</OUTCOME>
</VARIABLE>
<VARIABLE TYPE="nature">
<NAME>pixel34</NAME>
<OUTCOME>&apos;\&apos;(-inf-0.477451]\&apos;&apos;</OUTCOME>
<OUTCOME>&apos;\&apos;(0.477451-0.644608]\&apos;&apos;</OUTCOME>
<OUTCOME>&apos;\&apos;(0.644608-0.768137]\&apos;&apos;</OUTCOME>
<OUTCOME>&apos;\&apos;(0.768137-inf)\&apos;&apos;</OUTCOME>
</VARIABLE>
<DEFINITION>
<FOR>emotion</FOR>
<TABLE>
0.13740923259094154 0.014853640273738833 0.14420046319675414 0.24955160464589826 0.17261915127030839 0.16958921761540738 0.11177669040695143 
</TABLE>
</DEFINITION>
<DEFINITION>
<FOR>pixel0</FOR>
<GIVEN>emotion</GIVEN>
<TABLE>
0.29579427413225234 0.42171269318469723 0.17367620977957943 0.10881682290347099 
0.2161214953271028 0.4871495327102804 0.16238317757009346 0.13434579439252337 
0.19157411878319652 0.415620473201352 0.21450989859971029 0.17829550941574118 
0.23168689828380076 0.45297893121250177 0.18243337519185154 0.13290079531184595 
0.22478822105687776 0.38594191206131506 0.18767648245260185 0.20159338442920532 
0.2832067337302402 0.41172243892424554 0.17049887086840484 0.13457195647710943 
0.08797882279663656 0.324976642790408 0.25615073185923387 0.3308938025537216 
</TABLE>
</DEFINITION>
<DEFINITION>
<FOR>pixel1</FOR>
<GIVEN>emotion</GIVEN>
<GIVEN>pixel0</GIVEN>
<TABLE>
0.23728088926891835 0.430525865754596 0.14493373236425822 0.12612227447627192 0.061137238135955535 
0.08070807080708071 0.2901290129012901 0.2565256525652565 0.2901290129012901 0.08250825082508251 
0.05309090909090909 0.19127272727272726 0.16945454545454544 0.3658181818181818 0.22036363636363637 
0.05909617612977984 0.11471610660486674 0.10312862108922363 0.24913093858632676 0.473928157589803 
0.13227513227513227 0.5132275132275133 0.13227513227513227 0.164021164021164 0.0582010582010582 
0.030878859857482184 0.23990498812351543 0.27315914489311166 0.33016627078384797 0.12589073634204276 
0.04895104895104895 0.16083916083916083 0.11888111888111888 0.3706293706293706 0.3006993006993007 
0.025210084033613446 0.07563025210084033 0.14285714285714285 0.17647058823529413 0.5798319327731093 
0.17661847894406035 0.37774984286612195 0.17410433689503457 0.16027655562539284 0.11125078566939033 
0.0670147954743255 0.240498984624311 0.240498984624311 0.3130258195532347 0.13896141572381782 
0.03425042111173498 0.10724312184166199 0.14093206064008984 0.42167321729365526 0.29590117911285796 
0.041188386225523295 0.09115462525320729 0.07089804186360567 0.28966914247130315 0.5070898041863605 
0.20962406015037593 0.4959398496240601 0.13022556390977444 0.11218045112781955 0.052030075187969926 
0.04540557180237032 0.30983530860397107 0.24519008773279977 0.3042942896721564 0.09527474218870248 
0.019473081328751432 0.13402061855670103 0.14012982054219167 0.46926307751050017 0.23711340206185566 
0.018334206390780514 0.1000523834468308 0.07805133577789418 0.28758512310110007 0.5159769512833945 
0.23063143752798926 0.432154052843708 0.11957008508732647 0.1330049261083744 0.08463949843260188 
0.058731401722787784 0.27695118767945703 0.23936309057687288 0.30566431741059774 0.11929000261028452 
0.02520107238605898 0.14316353887399463 0.09919571045576407 0.44235924932975873 0.2900804289544236 
0.03544682975536695 0.07239141288067898 0.06640039940089865 0.2710933599600599 0.5546679980029955 
0.2211364458921462 0.43467245747376043 0.1328266377126312 0.13716974303293522 0.07419471588852697 
0.08692403486924034 0.3165628891656289 0.2323785803237858 0.26425902864259027 0.09987546699875467 
0.05225225225225225 0.18078078078078078 0.16756756756756758 0.3621621621621622 0.23723723723723725 
0.05399239543726236 0.1391634980988593 0.0844106463878327 0.26387832699619773 0.4585551330798479 
0.14586994727592267 0.28646748681898065 0.15289982425307558 0.24428822495606328 0.1704745166959578 
0.031085604973696796 0.18507890961262555 0.20899091343854614 0.3648971783835485 0.209947393591583 
0.01758641600970285 0.10733778047301394 0.12916919345057612 0.41297756215888415 0.3329290479078229 
0.013621418506341005 0.09816815406294034 0.07280413339596055 0.24753405354626584 0.5678722404884923 
</TABLE>
</DEFINITION>
<DEFINITION>
<FOR>pixel2</FOR>
<GIVEN>emotion</GIVEN>
<GIVEN>pixel0</GIVEN>
<TABLE>
0.12270200940572894 0.5604959384352287 0.28858486532706284 0.020094057289439932 0.008123129542539546 
0.0051005100510051 0.0927092709270927 0.6927692769276927 0.17371737173717372 0.035703570357035704 
0.002181818181818182 0.01818181818181818 0.3396363636363636 0.4152727272727273 0.22472727272727272 
0.0011587485515643105 0.008111239860950173 0.0984936268829664 0.26998841251448435 0.6222479721900348 
0.047619047619047616 0.5873015873015873 0.3439153439153439 0.015873015873015872 0.005291005291005291 
0.0023752969121140144 0.09738717339667459 0.6199524940617577 0.23040380047505937 0.0498812351543943 
0.006993006993006993 0.02097902097902098 0.24475524475524477 0.42657342657342656 0.3006993006993007 
0.008403361344537815 0.008403361344537815 0.09243697478991597 0.29411764705882354 0.5966386554621849 
0.09239472030169704 0.5700817096165933 0.30106851037083593 0.0295411690760528 0.0069138906348208675 
0.0020307513780098638 0.11575282854656223 0.6692776327241079 0.16042935886277923 0.05250942848854076 
0.0016844469399213925 0.021897810218978103 0.25210555867490175 0.5272318921953958 0.19708029197080293 
6.752194463200541E-4 0.004726536124240378 0.07089804186360567 0.23295070898041864 0.6907494935854153 
0.04360902255639098 0.5476691729323309 0.3798496240601504 0.021954887218045113 0.0069172932330827065 
0.0010774203478528552 0.060797291057411114 0.7127905187009389 0.19224257349545945 0.033092196398337693 
3.8182512409316535E-4 0.0057273768613974796 0.25162275677739593 0.5158457426498664 0.22642229858724705 
5.238344683080147E-4 0.003666841278156103 0.060240963855421686 0.21843897328444212 0.7171293871136721 
0.08732646663681147 0.619346171070309 0.27630989699955216 0.011195700850873265 0.005821764442454098 
0.0028713129731140694 0.10676063690942313 0.711824588880188 0.16053249804228661 0.018010963194988253 
0.0016085790884718498 0.014477211796246649 0.29115281501340484 0.503485254691689 0.18927613941018767 
0.0014977533699450823 0.008487269096355467 0.07239141288067898 0.23015476784822766 0.6874687968047928 
0.10749185667752444 0.564965617082881 0.3043792978646399 0.017010495837857402 0.006152732537097358 
0.0037359900373599006 0.12727272727272726 0.6826899128268992 0.1576587795765878 0.028642590286425903 
6.006006006006006E-4 0.022222222222222223 0.2840840840840841 0.49309309309309307 0.2 
7.604562737642585E-4 0.006844106463878327 0.06463878326996197 0.24258555133079848 0.685171102661597 
0.08611599297012303 0.6098418277680141 0.28998242530755713 0.012302284710017574 0.0017574692442882249 
0.008130081300813009 0.10760401721664276 0.6633189861310378 0.18029650884744142 0.04065040650406504 
6.064281382656155E-4 0.01879927228623408 0.26379624014554276 0.5451788963007883 0.1716191631291692 
4.697040864255519E-4 0.0023485204321277596 0.04462188821042743 0.20713950211366838 0.7454203851573509 
</TABLE>
</DEFINITION>
<DEFINITION>
<FOR>pixel3</FOR>
<GIVEN>emotion</GIVEN>
<GIVEN>pixel0</GIVEN>
<TABLE>
0.8036783575705732 0.17236954662104362 0.018391787852865698 0.005560307955517536 
0.13955582232893157 0.6617647058823529 0.18577430972388956 0.01290516206482593 
0.029839883551673944 0.17540029112081515 0.673216885007278 0.1215429403202329 
0.010440835266821345 0.0568445475638051 0.2703016241299304 0.6624129930394431 
0.8457446808510638 0.14361702127659576 0.005319148936170213 0.005319148936170213 
0.07380952380952381 0.6547619047619048 0.25476190476190474 0.016666666666666666 
0.04929577464788732 0.11971830985915492 0.6267605633802817 0.20422535211267606 
0.0423728813559322 0.00847457627118644 0.2627118644067797 0.6864406779661016 
0.789308176100629 0.18050314465408804 0.024528301886792454 0.005660377358490566 
0.1256529309344167 0.6694718514219384 0.18717353453279165 0.017701683110853163 
0.014044943820224719 0.1904494382022472 0.6758426966292135 0.1196629213483146 
0.007432432432432433 0.038513513513513516 0.28716216216216217 0.6668918918918919 
0.7728640192539109 0.20848375451263537 0.015342960288808664 0.003309265944645006 
0.14608990147783252 0.6722598522167488 0.17195197044334976 0.009698275862068966 
0.02559205500381971 0.23720397249809014 0.6405653170359052 0.09663865546218488 
0.0110062893081761 0.05712788259958071 0.3579664570230608 0.5738993710691824 
0.817652329749104 0.16980286738351255 0.011200716845878136 0.0013440860215053765 
0.106266318537859 0.6963446475195822 0.19138381201044385 0.0060052219321148825 
0.013412017167381975 0.12607296137339055 0.7719957081545065 0.08851931330472103 
0.0034965034965034965 0.025474525474525476 0.2152847152847153 0.7557442557442557 
0.8106444605358436 0.1777697320782042 0.0068790731354091235 0.004706734250543085 
0.13627304434479323 0.6858495266567015 0.16218236173393125 0.01569506726457399 
0.01622596153846154 0.18209134615384615 0.6941105769230769 0.10757211538461539 
0.00380517503805175 0.04946727549467275 0.2595129375951294 0.6872146118721462 
0.7693661971830986 0.20598591549295775 0.01584507042253521 0.008802816901408451 
0.08373205741626795 0.6808612440191387 0.21866028708133972 0.01674641148325359 
0.007888349514563107 0.13531553398058252 0.7870145631067961 0.06978155339805825 
0.005169172932330827 0.026785714285714284 0.23543233082706766 0.7326127819548872 
</TABLE>
</DEFINITION>
<DEFINITION>
<FOR>pixel4</FOR>
<GIVEN>emotion</GIVEN>
<GIVEN>pixel0</GIVEN>
<TABLE>
0.6086398631308811 0.37082976903336184 0.013259195893926433 0.007271171941830625 
0.0351140456182473 0.8016206482593037 0.12454981992797119 0.03871548619447779 
0.009461426491994178 0.2700145560407569 0.5087336244541485 0.21179039301310043 
0.012761020881670533 0.04524361948955916 0.16357308584686775 0.7784222737819025 
0.5904255319148937 0.3882978723404255 0.015957446808510637 0.005319148936170213 
0.04047619047619048 0.75 0.1595238095238095 0.05 
0.007042253521126761 0.2605633802816901 0.4295774647887324 0.3028169014084507 
0.00847457627118644 0.059322033898305086 0.11016949152542373 0.8220338983050848 
0.550314465408805 0.43836477987421385 0.006918238993710692 0.00440251572327044 
0.0351131746952989 0.7988972721996518 0.1395821242019733 0.02640742890307603 
0.008426966292134831 0.1960674157303371 0.5623595505617978 0.23314606741573032 
0.002027027027027027 0.03175675675675676 0.13445945945945945 0.8317567567567568 
0.5249699157641395 0.4527677496991576 0.018351383874849577 0.003910950661853189 
0.03432881773399015 0.7680110837438424 0.16302339901477833 0.034636699507389165 
0.007257448433919022 0.2203972498090145 0.529029793735676 0.24331550802139038 
0.003668763102725367 0.04035639412997904 0.1640461215932914 0.7919287211740041 
0.646505376344086 0.34274193548387094 0.005824372759856631 0.00492831541218638 
0.03629242819843342 0.8362924281984334 0.11044386422976502 0.016971279373368148 
0.0037553648068669528 0.1968884120171674 0.6089055793991416 0.19045064377682402 
0.005494505494505495 0.032467532467532464 0.11638361638361638 0.8456543456543456 
0.6412020275162925 0.34866039102099927 0.006154960173787111 0.0039826212889210715 
0.04708520179372197 0.830842052815147 0.09940209267563528 0.022670652715495766 
0.006610576923076923 0.2566105769230769 0.5354567307692307 0.2013221153846154 
0.00380517503805175 0.05098934550989345 0.12557077625570776 0.819634703196347 
0.5158450704225352 0.4735915492957746 0.00528169014084507 0.00528169014084507 
0.02631578947368421 0.762200956937799 0.1813397129186603 0.03014354066985646 
0.0018203883495145632 0.16444174757281554 0.5794902912621359 0.254247572815534 
4.6992481203007516E-4 0.01550751879699248 0.11231203007518797 0.8717105263157895 
</TABLE>
</DEFINITION>
<DEFINITION>
<FOR>pixel5</FOR>
<GIVEN>emotion</GIVEN>
<GIVEN>pixel1</GIVEN>
<TABLE>
0.6346356916578669 0.18479408658922913 0.1805702217529039 
0.49721627408993574 0.2616702355460385 0.24111349036402568 
0.3768976897689769 0.266006600660066 0.3570957095709571 
0.3218797372410308 0.2177867609903992 0.46033350176856996 
0.32683790965456155 0.1355181576616475 0.537643932683791 
0.6595744680851063 0.3191489361702128 0.02127659574468085 
0.3624454148471616 0.32751091703056767 0.31004366812227074 
0.32947976878612717 0.26011560693641617 0.41040462427745666 
0.13580246913580246 0.29218106995884774 0.5720164609053497 
0.15428571428571428 0.06285714285714286 0.7828571428571428 
0.655608214849921 0.1627172195892575 0.18167456556082148 
0.5361823361823361 0.25584045584045584 0.20797720797720798 
0.35660506502395617 0.3483915126625599 0.2950034223134839 
0.33147632311977715 0.24154397134898528 0.42697970553123754 
0.26539058458354886 0.15157785825142267 0.5830315571650284 
0.6787372330547818 0.16434540389972144 0.15691736304549675 
0.5308113252438734 0.2790863668807994 0.19010230787532714 
0.3970877607241244 0.3254624163715073 0.27744982290436837 
0.3477102011146111 0.2318875696631936 0.4204022292221953 
0.26992073425114727 0.13975803087192323 0.5903212348769294 
0.7829638273045507 0.14352392065344224 0.073512252042007 
0.6569552728764875 0.2170701682396389 0.12597455888387363 
0.48567621585609594 0.2911392405063291 0.22318454363757495 
0.4271604938271605 0.2345679012345679 0.33827160493827163 
0.39050936003482806 0.14323030039181542 0.46626033957335655 
0.7188898836168308 0.1674127126230976 0.11369740376007162 
0.5722504230118444 0.256175972927242 0.1715736040609137 
0.39372409709887507 0.3191237418590882 0.2871521610420367 
0.374633737965676 0.22812892423608205 0.39723733779824194 
0.32751091703056767 0.15283842794759825 0.519650655021834 
0.6097560975609756 0.2682926829268293 0.12195121951219512 
0.49732620320855614 0.3155080213903743 0.18716577540106952 
0.4163860830527497 0.29068462401795736 0.29292929292929293 
0.3665244191559981 0.22617354196301565 0.40730203888098626 
0.26559092891408637 0.14871347579590058 0.5856955952900131 
</TABLE>
</DEFINITION>
<DEFINITION>
<FOR>pixel6</FOR>
<GIVEN>emotion</GIVEN>
<GIVEN>pixel5</GIVEN>
<TABLE>
0.09736369083283403 0.8091671659676453 0.06440982624325944 0.029059316956261235 
0.0028216704288939053 0.2443566591422122 0.48927765237020315 0.26354401805869077 
0.0010744985673352436 0.02972779369627507 0.09419770773638969 0.875 
0.021739130434782608 0.8043478260869565 0.14347826086956522 0.030434782608695653 
0.004629629629629629 0.09722222222222222 0.7175925925925926 0.18055555555555555 
0.0023923444976076554 0.045454545454545456 0.07894736842105263 0.8732057416267942 
0.08597144630664184 0.7929857231533209 0.09031657355679702 0.030726256983240222 
5.102040816326531E-4 0.2729591836734694 0.45663265306122447 0.2698979591836735 
9.646302250803858E-4 0.036334405144694534 0.08070739549839229 0.8819935691318328 
0.079477858559154 0.8117977528089888 0.08013879709187045 0.02858559153998678 
0.002018454440599769 0.2373125720876586 0.49279123414071513 0.26787773933102654 
2.0738282870178348E-4 0.03380340107839071 0.07652426379095811 0.8894649523019494 
0.11217697729052467 0.8102975724353955 0.058144087705559906 0.01938136256851997 
0.0033621517771373678 0.2771373679154659 0.4807877041306436 0.23871277617675313 
3.65764447695684E-4 0.036942209217264085 0.07937088514996342 0.8833211411850768 
0.11293141109654871 0.7961992136304062 0.061380515508955874 0.02948885976408912 
0.003961267605633803 0.2794894366197183 0.49691901408450706 0.21963028169014084 
3.448275862068965E-4 0.04793103448275862 0.10379310344827586 0.8479310344827586 
0.0448334756618275 0.8236549957301452 0.0807002561912895 0.05081127241673783 
7.012622720897616E-4 0.2517531556802244 0.45652173913043476 0.29102384291725103 
3.756574004507889E-4 0.02291510142749812 0.06574004507888806 0.9109691960931631 
</TABLE>
</DEFINITION>
<DEFINITION>
<FOR>pixel7</FOR>
<GIVEN>emotion</GIVEN>
<GIVEN>pixel5</GIVEN>
<TABLE>
0.901378896882494 0.09862110311750599 
0.10451977401129943 0.8954802259887006 
0.005376344086021506 0.9946236559139785 
0.8728070175438597 0.12719298245614036 
0.07009345794392523 0.9299065420560748 
0.021634615384615384 0.9783653846153846 
0.9059006211180124 0.09409937888198758 
0.10367722165474974 0.8963227783452502 
0.00933075933075933 0.9906692406692407 
0.9069421487603305 0.09305785123966942 
0.1070398153491056 0.8929601846508944 
0.006431535269709543 0.9935684647302905 
0.935957696827262 0.06404230317273796 
0.13028846153846155 0.8697115384615385 
0.009882869692532943 0.9901171303074671 
0.9101835664335665 0.08981643356643357 
0.11145374449339207 0.8885462555066079 
0.010006901311249138 0.9899930986887508 
0.8824786324786325 0.11752136752136752 
0.11587078651685394 0.8841292134831461 
0.008646616541353383 0.9913533834586467 
</TABLE>
</DEFINITION>
<DEFINITION>
<FOR>pixel8</FOR>
<GIVEN>emotion</GIVEN>
<GIVEN>pixel6</GIVEN>
<TABLE>
0.9819819819819819 0.015015015015015015 0.003003003003003003 
0.17127758781473423 0.7743239042586261 0.05439850792663973 
7.434944237918215E-4 0.28178438661710037 0.7174721189591078 
3.325573661456601E-4 0.016960425673428665 0.9827070169604257 
0.7142857142857143 0.14285714285714285 0.14285714285714285 
0.19111111111111112 0.7955555555555556 0.013333333333333334 
0.004524886877828055 0.13122171945701358 0.8642533936651584 
0.0024330900243309003 0.012165450121654502 0.9854014598540146 
0.9644128113879004 0.03202846975088968 0.0035587188612099642 
0.16952856696846708 0.771464252263503 0.05900718076802997 
0.0020876826722338203 0.24843423799582465 0.7494780793319415 
2.966478789676654E-4 0.02046870364876891 0.9792346484722634 
0.967280163599182 0.03067484662576687 0.002044989775051125 
0.17714866926597728 0.7769113409052382 0.04593998982878454 
0.0011705033164260631 0.25087787748731954 0.7479516191962544 
1.854943424225561E-4 0.009089222778705249 0.9907252828788722 
0.9724612736660929 0.025817555938037865 0.0017211703958691911 
0.22192235831430351 0.742993564459207 0.03508407722648951 
6.600660066006601E-4 0.2382838283828383 0.761056105610561 
3.3211557622052476E-4 0.016273663234805714 0.9833942211889738 
0.969639468690702 0.028462998102466792 0.0018975332068311196 
0.1767368182846798 0.7741570491061326 0.0491061326091876 
0.0017533606078316774 0.29748684979544127 0.700759789596727 
3.2331070158422246E-4 0.01972195279663757 0.9799547365017782 
0.9626168224299065 0.028037383177570093 0.009345794392523364 
0.1673052362707535 0.7709663686675181 0.06172839506172839 
9.852216748768472E-4 0.25517241379310346 0.7438423645320197 
3.379520108144643E-4 0.010476512335248395 0.9891855356539372 
</TABLE>
</DEFINITION>
<DEFINITION>
<FOR>pixel9</FOR>
<GIVEN>emotion</GIVEN>
<GIVEN>pixel5</GIVEN>
<TABLE>
0.13814803715912496 0.8405753670961942 0.02127659574468085 
5.64652738565782E-4 0.5911914172783738 0.4082439299830604 
3.5829451809387314E-4 0.031171623074166967 0.9684700824077391 
0.039301310043668124 0.9563318777292577 0.004366812227074236 
0.004651162790697674 0.6 0.3953488372093023 
0.002398081534772182 0.016786570743405275 0.9808153477218226 
0.11828624650729587 0.8702266376901583 0.011487115802545793 
0.002552322613578356 0.6110260336906586 0.38642164369576315 
3.21646831778707E-4 0.03312962367320682 0.9665487294950145 
0.11816228722525203 0.8625020657742521 0.019335647000495785 
2.8843380444188056E-4 0.6434958177098355 0.3562157484857225 
2.0742584526031943E-4 0.03920348475420037 0.9605890894005393 
0.16115136087722734 0.8261210103779126 0.012727628744859996 
0.0014416146083613647 0.6597789524267179 0.3387794329649207 
3.6589828027808267E-4 0.04207830223197951 0.9575557994877424 
0.15053528512125847 0.8361372077780206 0.013327507100720996 
4.4033465433729633E-4 0.6081021576398062 0.39145750770585647 
3.4494653328734045E-4 0.03966885132804415 0.9599862021386685 
0.10636480136693721 0.881247330200769 0.012387868432293891 
7.017543859649122E-4 0.6056140350877193 0.3936842105263158 
3.757985719654265E-4 0.048478015783540024 0.9511461856444946 
</TABLE>
</DEFINITION>
<DEFINITION>
<FOR>pixel10</FOR>
<GIVEN>emotion</GIVEN>
<GIVEN>pixel2</GIVEN>
<TABLE>
0.21035598705501618 0.4692556634304207 0.22330097087378642 0.04854368932038835 0.04854368932038835 
0.04295220810647308 0.5559588626739262 0.249848759830611 0.11070780399274047 0.04053236539624924 
0.035340684195646024 0.48770144189991516 0.2875318066157761 0.12864009047215155 0.06078597681651117 
0.023060796645702306 0.35709294199860236 0.32354996505939904 0.21593291404612158 0.0803633822501747 
0.03350253807106599 0.37055837563451777 0.22233502538071065 0.25888324873096447 0.11472081218274112 
0.23076923076923078 0.5384615384615384 0.07692307692307693 0.07692307692307693 0.07692307692307693 
0.044585987261146494 0.5286624203821656 0.28662420382165604 0.08280254777070063 0.05732484076433121 
0.01876675603217158 0.5924932975871313 0.26541554959785524 0.0777479892761394 0.045576407506702415 
0.025380710659898477 0.350253807106599 0.350253807106599 0.17766497461928935 0.09644670050761421 
0.0364963503649635 0.27007299270072993 0.25547445255474455 0.29927007299270075 0.1386861313868613 
0.14465408805031446 0.44654088050314467 0.24528301886792453 0.09433962264150944 0.06918238993710692 
0.04951958610495196 0.581670362158167 0.21507760532150777 0.11751662971175167 0.03621581670362158 
0.030829093085902426 0.41454654295121224 0.30859024244238253 0.17569589943130798 0.07033822208919485 
0.019628647214854113 0.3549071618037135 0.2901856763925729 0.22546419098143236 0.10981432360742706 
0.021059349074664963 0.34779834077855776 0.25717932354818124 0.29419272495213783 0.0797702616464582 
0.12258064516129032 0.5225806451612903 0.16129032258064516 0.17419354838709677 0.01935483870967742 
0.04064314426083073 0.6212594908441268 0.22286735149620365 0.09066547565877624 0.02456453774006253 
0.026240815714499925 0.563052931473984 0.2706552706552707 0.1081121607437397 0.031938821412505626 
0.011970236169524426 0.472662568747978 0.3134907796829505 0.154318990617923 0.04755742478162407 
0.01590186278964107 0.449341208541572 0.263062244434348 0.20581553839164016 0.06587914584279873 
0.20187793427230047 0.5868544600938967 0.11737089201877934 0.06103286384976526 0.03286384976525822 
0.05062602068590093 0.6418072945019053 0.20631464344039194 0.08111050626020685 0.020141535111594992 
0.029506570790974462 0.5472353087031986 0.28043639970245476 0.11529878502355567 0.027522935779816515 
0.033806957373836356 0.48358647721705045 0.2954434100930916 0.13179813816756492 0.05536501714845664 
0.035852178709321565 0.4517374517374517 0.22559293987865417 0.214561500275786 0.07225592939878654 
0.1365079365079365 0.6253968253968254 0.1746031746031746 0.05396825396825397 0.009523809523809525 
0.05427088249174139 0.6168003775365739 0.21849929211892402 0.09013685700802265 0.020292590844738084 
0.031634870804153586 0.4977058681477904 0.3122434194638976 0.13595749818884328 0.02245834339531514 
0.02471169686985173 0.4255903349807798 0.34980779791323446 0.15540911587040088 0.044481054365733116 
0.04901243599122165 0.39575713240673005 0.246525237746891 0.25237746891002194 0.056327724945135334 
0.07246376811594203 0.5362318840579711 0.21739130434782608 0.10144927536231885 0.07246376811594203 
0.031198686371100164 0.5829228243021346 0.22824302134646962 0.11658456486042693 0.041050903119868636 
0.010081613058089293 0.41814690350456074 0.3154104656745079 0.1531445031204993 0.10321651464234277 
0.011014492753623189 0.38666666666666666 0.2544927536231884 0.21507246376811595 0.1327536231884058 
0.010730710270822688 0.30710270822687785 0.21410321921308126 0.32447623914154317 0.14358712314767502 
</TABLE>
</DEFINITION>
<DEFINITION>
<FOR>pixel11</FOR>
<GIVEN>emotion</GIVEN>
<GIVEN>pixel10</GIVEN>
<TABLE>
0.8926380368098159 0.10122699386503067 0.003067484662576687 0.003067484662576687 
0.028657205240174673 0.9615174672489083 0.00955240174672489 2.729257641921397E-4 
0.0013761467889908258 0.7729357798165137 0.22522935779816514 4.5871559633027525E-4 
8.223684210526315E-4 0.0649671052631579 0.915296052631579 0.018914473684210526 
0.0019083969465648854 0.009541984732824428 0.30343511450381677 0.6851145038167938 
0.4230769230769231 0.5 0.038461538461538464 0.038461538461538464 
0.002403846153846154 0.9879807692307693 0.007211538461538462 0.002403846153846154 
0.004032258064516129 0.6733870967741935 0.3185483870967742 0.004032258064516129 
0.00847457627118644 0.059322033898305086 0.923728813559322 0.00847457627118644 
0.015625 0.015625 0.171875 0.796875 
0.8358778625954199 0.15648854961832062 0.003816793893129771 0.003816793893129771 
0.02459490740740741 0.9684606481481481 0.006655092592592593 2.8935185185185184E-4 
4.329004329004329E-4 0.7891774891774892 0.20995670995670995 4.329004329004329E-4 
6.075334143377885E-4 0.06865127582017011 0.9240583232077765 0.006682867557715674 
0.001597444089456869 0.001597444089456869 0.2763578274760383 0.7204472843450479 
0.8455056179775281 0.14887640449438203 0.0028089887640449437 0.0028089887640449437 
0.016545075560187597 0.978764981761334 0.004559666492965086 1.3027618551328816E-4 
2.5799793601651185E-4 0.794891640866873 0.20459236326109392 2.5799793601651185E-4 
5.319148936170213E-4 0.07287234042553191 0.9228723404255319 0.003723404255319149 
0.0017793594306049821 0.005338078291814947 0.34341637010676157 0.6494661921708185 
0.8067010309278351 0.18814432989690721 0.002577319587628866 0.002577319587628866 
0.01598946576373213 0.9783671933784801 0.00545522949586155 1.8811136192626034E-4 
3.9277297721916735E-4 0.8095051060487038 0.18970934799685782 3.9277297721916735E-4 
7.78816199376947E-4 0.05685358255451713 0.9369158878504673 0.005451713395638629 
0.002512562814070352 0.007537688442211055 0.30402010050251255 0.6859296482412061 
0.8975 0.0975 0.0025 0.0025 
0.026024590163934425 0.967827868852459 0.005942622950819672 2.0491803278688525E-4 
0.0010775862068965517 0.7848419540229885 0.2122844827586207 0.0017959770114942528 
7.15307582260372E-4 0.08082975679542204 0.9163090128755365 0.002145922746781116 
0.0033783783783783786 0.0033783783783783786 0.375 0.6182432432432432 
0.8214285714285714 0.15476190476190477 0.011904761904761904 0.011904761904761904 
0.01699604743083004 0.975098814229249 0.007509881422924901 3.952569169960474E-4 
5.995203836930455E-4 0.7428057553956835 0.2559952038369305 5.995203836930455E-4 
7.132667617689016E-4 0.05064194008559201 0.9350927246790299 0.01355206847360913 
0.001326259946949602 0.003978779840848806 0.25596816976127323 0.7387267904509284 
</TABLE>
</DEFINITION>
<DEFINITION>
<FOR>pixel12</FOR>
<GIVEN>emotion</GIVEN>
<GIVEN>pixel10</GIVEN>
<TABLE>
0.8892307692307693 0.10153846153846154 0.009230769230769232 
0.7952497952497952 0.17936117936117937 0.025389025389025387 
0.6539697108765489 0.3088572739788894 0.03717301514456173 
0.4699588477366255 0.4633744855967078 0.06666666666666667 
0.37667304015296366 0.33460803059273425 0.2887189292543021 
0.52 0.44 0.04 
0.7975903614457831 0.19036144578313252 0.012048192771084338 
0.5141700404858299 0.4493927125506073 0.03643724696356275 
0.48717948717948717 0.5042735042735043 0.008547008547008548 
0.2698412698412698 0.6190476190476191 0.1111111111111111 
0.8237547892720306 0.15708812260536398 0.019157088122605363 
0.7400868306801737 0.2301013024602026 0.029811866859623733 
0.56691208315288 0.38674750974447814 0.04634040710264184 
0.43465045592705165 0.5112462006079027 0.05410334346504559 
0.3344 0.3024 0.3632 
0.8140845070422535 0.18309859154929578 0.0028169014084507044 
0.8113355048859935 0.1676872964169381 0.020977198697068405 
0.6841290322580645 0.28980645161290325 0.026064516129032256 
0.5231506120276743 0.4262905800957956 0.05055880787653007 
0.4117647058823529 0.3404634581105169 0.24777183600713013 
0.8604651162790697 0.12661498708010335 0.012919896640826873 
0.8073377234242709 0.16989651928504235 0.022765757290686736 
0.6589390962671906 0.3155206286836935 0.025540275049115914 
0.5292283710054559 0.426344505066251 0.044427123928293066 
0.47103274559193953 0.28967254408060455 0.23929471032745592 
0.8646616541353384 0.12781954887218044 0.007518796992481203 
0.777823324451732 0.2104939536790326 0.0116827218692355 
0.6665468918433345 0.30147323032698525 0.0319798778296802 
0.5547602004294918 0.42161775232641374 0.023622047244094488 
0.43728813559322033 0.3694915254237288 0.19322033898305085 
0.8313253012048193 0.1566265060240964 0.012048192771084338 
0.741399762752076 0.20838275998418349 0.05021747726374061 
0.5500899820035993 0.39172165566886624 0.05818836232753449 
0.3961456102783726 0.5217701641684511 0.08208422555317631 
0.34926958831341304 0.3094289508632138 0.34130146082337315 
</TABLE>
</DEFINITION>
<DEFINITION>
<FOR>pixel13</FOR>
<GIVEN>emotion</GIVEN>
<GIVEN>pixel10</GIVEN>
<TABLE>
0.9723926380368099 0.015337423312883436 0.003067484662576687 0.009202453987730062 
0.8594432314410481 0.10780567685589519 0.03138646288209607 0.0013646288209606986 
0.31146788990825686 0.45091743119266053 0.23440366972477064 0.003211009174311927 
0.13404605263157895 0.140625 0.6636513157894737 0.061677631578947366 
0.03625954198473282 0.05916030534351145 0.20801526717557253 0.6965648854961832 
0.8076923076923077 0.038461538461538464 0.11538461538461539 0.038461538461538464 
0.8245192307692307 0.12740384615384615 0.04567307692307692 0.002403846153846154 
0.1814516129032258 0.375 0.4314516129032258 0.012096774193548387 
0.211864406779661 0.07627118644067797 0.635593220338983 0.07627118644067797 
0.015625 0.046875 0.203125 0.734375 
0.9732824427480916 0.019083969465648856 0.003816793893129771 0.003816793893129771 
0.8226273148148148 0.12644675925925927 0.04832175925925926 0.0026041666666666665 
0.30173160173160174 0.42467532467532465 0.2696969696969697 0.003896103896103896 
0.11239368165249089 0.15613608748481167 0.6749696233292831 0.056500607533414335 
0.023961661341853034 0.07507987220447285 0.2731629392971246 0.6277955271565495 
0.952247191011236 0.019662921348314606 0.025280898876404494 0.0028089887640449437 
0.8688118811881188 0.09940072954663888 0.03061490359562272 0.0011724856696195935 
0.34855521155830754 0.4130546955624355 0.23452012383900928 0.003869969040247678 
0.1345744680851064 0.14414893617021277 0.6898936170212766 0.03138297872340425 
0.05516014234875445 0.06227758007117438 0.2580071174377224 0.6245551601423488 
0.9510309278350515 0.028350515463917526 0.01804123711340206 0.002577319587628866 
0.8575996990218209 0.10402558314522198 0.03743416102332581 9.405568096313017E-4 
0.3523173605655931 0.4253731343283582 0.21956009426551454 0.0027494108405341712 
0.09735202492211838 0.1394080996884735 0.7235202492211839 0.0397196261682243 
0.03768844221105527 0.0829145728643216 0.20854271356783918 0.6708542713567839 
0.9725 0.0175 0.0075 0.0025 
0.8600409836065573 0.10348360655737705 0.035860655737704916 6.147540983606558E-4 
0.3171695402298851 0.42780172413793105 0.24748563218390804 0.007543103448275862 
0.10371959942775394 0.13376251788268956 0.7203147353361946 0.04220314735336195 
0.04391891891891892 0.07094594594594594 0.23986486486486486 0.6452702702702703 
0.8928571428571429 0.08333333333333333 0.011904761904761904 0.011904761904761904 
0.8043478260869565 0.13715415019762847 0.05810276679841897 3.952569169960474E-4 
0.3147482014388489 0.3723021582733813 0.30995203836930457 0.002997601918465228 
0.13195435092724678 0.1362339514978602 0.681169757489301 0.05064194008559201 
0.038461538461538464 0.07559681697612732 0.29045092838196285 0.5954907161803713 
</TABLE>
</DEFINITION>
<DEFINITION>
<FOR>pixel14</FOR>
<GIVEN>emotion</GIVEN>
<GIVEN>pixel13</GIVEN>
<TABLE>
0.9606936416184971 0.03815028901734104 0.0011560693641618498 
0.5704358812381554 0.42893240682248895 6.317119393556538E-4 
0.13692407527579495 0.8429591174561972 0.020116807268007787 
0.05077262693156733 0.39514348785871967 0.5540838852097131 
0.9445727482678984 0.053117782909930716 0.0023094688221709007 
0.5414012738853503 0.4394904458598726 0.01910828025477707 
0.17209302325581396 0.8232558139534883 0.004651162790697674 
0.05084745762711865 0.3559322033898305 0.5932203389830508 
0.9549211119459053 0.04332582018532432 0.001753067868770348 
0.5710144927536231 0.42492753623188406 0.004057971014492754 
0.13664896185417671 0.852245292129406 0.01110574601641719 
0.02186878727634195 0.4194831013916501 0.558648111332008 
0.9657447054739035 0.033908112486980675 3.471820391158431E-4 
0.6029906542056075 0.3958878504672897 0.0011214953271028037 
0.1407635942923255 0.8457385268029309 0.01349787890474354 
0.03926096997690531 0.3579676674364896 0.6027713625866051 
0.9761864833137682 0.023645815864497734 1.677008217340265E-4 
0.6467420570813139 0.3505654281098546 0.0026925148088314485 
0.15492957746478872 0.8354929577464789 0.009577464788732394 
0.05167173252279635 0.3191489361702128 0.6291793313069909 
0.9704888888888888 0.028622222222222223 8.888888888888889E-4 
0.5882661079099005 0.4112100576217915 5.238344683080147E-4 
0.13432835820895522 0.8579516212043232 0.007720020586721565 
0.040293040293040296 0.4945054945054945 0.4652014652014652 
0.9592553565156305 0.039690902704601336 0.001053740779768177 
0.6232596232596233 0.3726453726453726 0.004095004095004095 
0.12901469787697334 0.8562874251497006 0.014697876973326075 
0.013333333333333334 0.3676190476190476 0.6190476190476191 
</TABLE>
</DEFINITION>
<DEFINITION>
<FOR>pixel15</FOR>
<GIVEN>emotion</GIVEN>
<GIVEN>pixel1</GIVEN>
<TABLE>
0.03477344573234984 0.25395152792413067 0.3677555321390938 0.22866174920969443 0.1148577449947313 
0.012409071459135643 0.11510483525887891 0.37098844672657255 0.35729567821994007 0.14420196833547283 
0.005932762030323006 0.05603164139749506 0.24851680949241925 0.42518127883981544 0.2643375082399473 
0.012619888944977285 0.048965169106511865 0.15901060070671377 0.40030287733467945 0.37910146390711763 
0.011494252873563218 0.03094606542882405 0.11582670203359859 0.26436781609195403 0.5773651635720601 
0.061224489795918366 0.22448979591836735 0.5102040816326531 0.14285714285714285 0.061224489795918366 
0.004329004329004329 0.06493506493506493 0.46320346320346323 0.35064935064935066 0.11688311688311688 
0.005714285714285714 0.017142857142857144 0.1657142857142857 0.3485714285714286 0.46285714285714286 
0.004081632653061225 0.012244897959183673 0.11836734693877551 0.363265306122449 0.5020408163265306 
0.005649717514124294 0.01694915254237288 0.07344632768361582 0.2542372881355932 0.6497175141242938 
0.03307086614173228 0.2125984251968504 0.3952755905511811 0.215748031496063 0.14330708661417324 
0.007398975526465566 0.1109846328969835 0.39214570290267503 0.34206033010813885 0.14741035856573706 
0.003417634996582365 0.06220095693779904 0.2508544087491456 0.4750512645249487 0.20847573479152426 
0.00437375745526839 0.04493041749502982 0.18409542743538768 0.40357852882703776 0.3630218687872763 
0.0015503875968992248 0.04186046511627907 0.10904392764857881 0.28268733850129196 0.5648578811369509 
0.0027803521779425394 0.1603336422613531 0.44207599629286376 0.26042632066728455 0.13438368860055608 
2.3781212841854935E-4 0.04732461355529132 0.24994054696789536 0.4577883472057075 0.2447086801426873 
0.0011797090051120724 0.017695635076681086 0.1451042076287849 0.4360990955564294 0.3999213527329925 
2.421893921046258E-4 0.021070477113102445 0.08646161298135141 0.32477597481230325 0.5674497457011383 
4.1684035014589413E-4 0.0212588578574406 0.06794497707378074 0.18132555231346395 0.7290537724051688 
0.010477299185098952 0.19674039580908032 0.49243306169965073 0.220023282887078 0.08032596041909197 
4.100041000410004E-4 0.05617056170561706 0.44813448134481343 0.37761377613776137 0.11767117671176712 
6.653359946773121E-4 0.028609447771124417 0.2654690618762475 0.4823685961410512 0.22288755821689954 
0.0010574550581600281 0.017271765949947126 0.14416637292915052 0.42615438843849135 0.411350017624251 
4.3497172683775554E-4 0.0117442366246194 0.08742931709438886 0.2866463679860809 0.6137451065680731 
0.01161751563896336 0.2868632707774799 0.45665773011617516 0.17247542448614836 0.07238605898123325 
0.006425431180250254 0.1274940818397024 0.42712208319242473 0.32363882313155223 0.11531958065607034 
5.913660555884093E-4 0.06445890005913661 0.31046717918391487 0.42874039030159666 0.19574216439976344 
0.0029276453366792136 0.04140526976160602 0.19531576746131327 0.4203262233375157 0.34002509410288584 
0.003115264797507788 0.02679127725856698 0.11401869158878504 0.28473520249221185 0.5713395638629284 
0.043478260869565216 0.2560386473429952 0.45893719806763283 0.178743961352657 0.06280193236714976 
0.011739594450373533 0.21878335112059766 0.3810032017075774 0.26147278548559233 0.12700106723585913 
0.012318029115341545 0.13997760358342665 0.29003359462486 0.3527435610302352 0.20492721164613661 
0.005210800568450971 0.11984841307437233 0.2780672666982473 0.27427759355755565 0.3225959261013738 
0.00392156862745098 0.1477124183006536 0.17559912854030502 0.2261437908496732 0.4466230936819172 
</TABLE>
</DEFINITION>
<DEFINITION>
<FOR>pixel16</FOR>
<GIVEN>emotion</GIVEN>
<GIVEN>pixel15</GIVEN>
<TABLE>
0.8899082568807339 0.06422018348623854 0.027522935779816515 0.009174311926605505 0.009174311926605505 
0.5845942228335625 0.3562585969738652 0.037138927097661624 0.017881705639614855 0.0041265474552957355 
0.045610593428151054 0.6606179499754782 0.22805296714075526 0.049534085335948996 0.016184404119666502 
0.011832197920401577 0.09788454643241305 0.4126927214055217 0.38257439942631766 0.095016134815346 
0.003109729009329187 0.01821412705464238 0.047534429142603286 0.185250999555753 0.7458907152376721 
0.42857142857142855 0.14285714285714285 0.14285714285714285 0.14285714285714285 0.14285714285714285 
0.42857142857142855 0.42857142857142855 0.08571428571428572 0.02857142857142857 0.02857142857142857 
0.06403940886699508 0.6650246305418719 0.2413793103448276 0.014778325123152709 0.014778325123152709 
0.0035335689045936395 0.08833922261484099 0.4840989399293286 0.3498233215547703 0.07420494699646643 
0.0028653295128939827 0.0028653295128939827 0.0028653295128939827 0.16332378223495703 0.828080229226361 
0.8867924528301887 0.05660377358490566 0.018867924528301886 0.018867924528301886 0.018867924528301886 
0.6390243902439025 0.3040650406504065 0.03739837398373984 0.014634146341463415 0.004878048780487805 
0.06612821807168097 0.6294800605754669 0.2407874810701666 0.03685007571933367 0.02675416456335184 
0.009015025041736227 0.10450751252086811 0.4270450751252087 0.3402337228714524 0.11919866444073456 
0.0011273957158962795 0.009394964299135663 0.051484404359263436 0.17474633596392333 0.7632468996617813 
0.5555555555555556 0.1111111111111111 0.1111111111111111 0.1111111111111111 0.1111111111111111 
0.6108108108108108 0.3621621621621622 0.012612612612612612 0.012612612612612612 0.0018018018018018018 
0.03103020273065784 0.6367397600330988 0.2718245759205627 0.049234588332643776 0.011170872983036822 
0.0025535258298958947 0.07090944804557062 0.42565311333726186 0.3891180514633667 0.11176586132390492 
1.591596371160274E-4 0.0046156294763647935 0.02530638230144835 0.16886837498010504 0.8010504536049657 
0.7333333333333333 0.06666666666666667 0.06666666666666667 0.06666666666666667 0.06666666666666667 
0.6047058823529412 0.3552941176470588 0.02588235294117647 0.011764705882352941 0.002352941176470588 
0.030495049504950494 0.6998019801980198 0.23564356435643563 0.027326732673267327 0.006732673267326733 
0.0024304617877396704 0.06886308398595734 0.47285984337024034 0.36807993518768567 0.087766675668377 
0.0021413276231263384 0.0039767513000917715 0.03273172223921689 0.1960844294891404 0.7650657693484246 
0.8222222222222222 0.1111111111111111 0.022222222222222223 0.022222222222222223 0.022222222222222223 
0.6080084299262382 0.3466807165437302 0.03477344573234984 0.005268703898840885 0.005268703898840885 
0.04374364191251272 0.6771787046456426 0.23838589352322823 0.027466937945066123 0.013224821973550356 
0.006293077614623914 0.0943961642193587 0.466586754569973 0.33593047647587654 0.09679352712016781 
0.002819170358437374 0.016512283527990335 0.04712041884816754 0.1945227547321788 0.739025372533226 
0.8823529411764706 0.058823529411764705 0.0196078431372549 0.0196078431372549 0.0196078431372549 
0.6964102564102564 0.26974358974358975 0.015384615384615385 0.013333333333333334 0.005128205128205128 
0.09465020576131687 0.6637272192827748 0.18400940623162845 0.03350970017636684 0.024103468547912992 
0.004129793510324484 0.12330383480825959 0.4265486725663717 0.3144542772861357 0.13156342182890857 
0.002474022761009401 0.022266204849084613 0.05096486887679367 0.13706086095992084 0.7872340425531915 
</TABLE>
</DEFINITION>
<DEFINITION>
<FOR>pixel17</FOR>
<GIVEN>emotion</GIVEN>
<GIVEN>pixel15</GIVEN>
<TABLE>
0.7314814814814815 0.08333333333333333 0.027777777777777776 0.1574074074074074 
0.4834710743801653 0.21349862258953167 0.21074380165289255 0.09228650137741047 
0.11530912659470069 0.2222767419038273 0.47939156035328756 0.1830225711481845 
0.03837876614060258 0.05200860832137733 0.4164275466284075 0.4931850789096126 
0.01911111111111111 0.008444444444444444 0.132 0.8404444444444444 
0.5 0.16666666666666666 0.16666666666666666 0.16666666666666666 
0.3235294117647059 0.14705882352941177 0.38235294117647056 0.14705882352941177 
0.11386138613861387 0.19306930693069307 0.4900990099009901 0.20297029702970298 
0.024822695035460994 0.0673758865248227 0.34397163120567376 0.5638297872340425 
0.02586206896551724 0.0028735632183908046 0.14655172413793102 0.8247126436781609 
0.8269230769230769 0.057692307692307696 0.057692307692307696 0.057692307692307696 
0.503257328990228 0.1970684039087948 0.1970684039087948 0.10260586319218241 
0.1409090909090909 0.18131313131313131 0.4762626262626263 0.2015151515151515 
0.047762191048764197 0.04909819639278557 0.3997995991983968 0.5033400133600534 
0.02819548872180451 0.03195488721804511 0.12368421052631579 0.8161654135338345 
0.625 0.125 0.125 0.125 
0.43862815884476536 0.16787003610108303 0.26534296028880866 0.12815884476534295 
0.06995033112582781 0.18004966887417218 0.5376655629139073 0.2123344370860927 
0.01355599214145383 0.029273084479371315 0.3711198428290766 0.5860510805500982 
0.008755173511620503 0.0062082139446036294 0.08771092008914358 0.8973256924546322 
0.7857142857142857 0.07142857142857142 0.07142857142857142 0.07142857142857142 
0.5212264150943396 0.23349056603773585 0.20047169811320756 0.04481132075471698 
0.08518225039619651 0.21354992076069731 0.5249603803486529 0.17630744849445326 
0.02025931928687196 0.0526742301458671 0.37682333873581847 0.5502431118314425 
0.006425948592411261 0.013769889840881273 0.11964504283965728 0.8601591187270502 
0.7954545454545454 0.06818181818181818 0.11363636363636363 0.022727272727272728 
0.5643459915611815 0.2120253164556962 0.169831223628692 0.05379746835443038 
0.15637720488466758 0.22150610583446403 0.45420624151967437 0.16791044776119404 
0.02907673860911271 0.05845323741007194 0.4115707434052758 0.5008992805755396 
0.007655116841257051 0.01813053988718775 0.14222401289282838 0.8319903303787268 
0.78 0.1 0.06 0.06 
0.4856262833675565 0.175564681724846 0.21252566735112938 0.12628336755646818 
0.2311764705882353 0.12529411764705883 0.40647058823529414 0.23705882352941177 
0.09976387249114523 0.06316410861865407 0.32880755608028334 0.5082644628099173 
0.022277227722772276 0.031188118811881188 0.14108910891089108 0.8054455445544555 
</TABLE>
</DEFINITION>
<DEFINITION>
<FOR>pixel18</FOR>
<GIVEN>emotion</GIVEN>
<GIVEN>pixel17</GIVEN>
<TABLE>
0.5712530712530712 0.386977886977887 0.028255528255528257 0.013513513513513514 
0.07051282051282051 0.7935897435897435 0.12692307692307692 0.008974358974358974 
0.009652509652509652 0.2413127413127413 0.6621621621621622 0.08687258687258688 
0.002955400322407308 0.008866200967221924 0.23132724341751745 0.7568511552928533 
0.75 0.21153846153846154 0.019230769230769232 0.019230769230769232 
0.046875 0.859375 0.078125 0.015625 
0.0038461538461538464 0.16538461538461538 0.7653846153846153 0.06538461538461539 
0.0020325203252032522 0.01016260162601626 0.20121951219512196 0.7865853658536586 
0.5884433962264151 0.3384433962264151 0.03891509433962264 0.03419811320754717 
0.09103641456582633 0.6876750700280112 0.19747899159663865 0.023809523809523808 
0.006558641975308642 0.22569444444444445 0.6747685185185185 0.09297839506172839 
0.0031385803959439883 0.013761467889908258 0.23780782230806374 0.745292129406084 
0.5092592592592593 0.4425925925925926 0.04259259259259259 0.005555555555555556 
0.03770949720670391 0.7751396648044693 0.1634078212290503 0.023743016759776536 
0.0038600102933607824 0.20046320123520328 0.7146165723108595 0.08106021616057643 
9.778357235984355E-4 0.005975662755323772 0.18676662320730117 0.8062798783137766 
0.492619926199262 0.45571955719557194 0.046125461254612546 0.005535055350553505 
0.06492027334851937 0.8120728929384966 0.10136674259681093 0.02164009111617312 
0.00344180225281602 0.2118272841051314 0.7243429286608261 0.060387984981226536 
1.8825301204819278E-4 0.006588855421686747 0.20952560240963855 0.7836972891566265 
0.5715532286212914 0.35165794066317624 0.06544502617801047 0.011343804537521814 
0.07937956204379562 0.7436131386861314 0.15967153284671534 0.017335766423357664 
0.007739938080495356 0.24736842105263157 0.6696594427244582 0.07523219814241486 
0.0016347501167678655 0.014245679588977114 0.24544605324614666 0.7386735170481084 
0.682468694096601 0.2692307692307692 0.03488372093023256 0.013416815742397137 
0.08422939068100359 0.7222222222222222 0.16666666666666666 0.026881720430107527 
0.02123995407577497 0.24971297359357061 0.6435132032146957 0.08553386911595867 
0.0016578249336870027 0.017572944297082227 0.2025862068965517 0.778183023872679 
</TABLE>
</DEFINITION>
<DEFINITION>
<FOR>pixel19</FOR>
<GIVEN>emotion</GIVEN>
<GIVEN>pixel15</GIVEN>
<TABLE>
0.9537037037037037 0.009259259259259259 0.027777777777777776 0.009259259259259259 
0.8223140495867769 0.15013774104683195 0.023415977961432508 0.004132231404958678 
0.14769381746810598 0.7090284592737979 0.12021589793915603 0.023061825318940136 
0.011836441893830704 0.20911047345767575 0.607245337159254 0.1718077474892396 
0.0013333333333333333 0.018222222222222223 0.14888888888888888 0.8315555555555556 
0.5 0.16666666666666666 0.16666666666666666 0.16666666666666666 
0.6764705882352942 0.2647058823529412 0.029411764705882353 0.029411764705882353 
0.09405940594059406 0.7772277227722773 0.12376237623762376 0.0049504950495049506 
0.0035460992907801418 0.18085106382978725 0.5921985815602837 0.22340425531914893 
0.0028735632183908046 0.02586206896551724 0.22126436781609196 0.75 
0.9423076923076923 0.019230769230769232 0.019230769230769232 0.019230769230769232 
0.754071661237785 0.17100977198697068 0.07003257328990228 0.004885993485342019 
0.17626262626262626 0.6297979797979798 0.1601010101010101 0.03383838383838384 
0.009686038744154976 0.18871075484301938 0.6189044756179025 0.1826987307949232 
0.004887218045112782 0.02142857142857143 0.14097744360902256 0.8327067669172933 
0.625 0.125 0.125 0.125 
0.7924187725631769 0.18953068592057762 0.016245487364620937 0.0018050541516245488 
0.1179635761589404 0.7065397350993378 0.15687086092715233 0.018625827814569538 
0.006483300589390962 0.1667976424361493 0.6178781925343811 0.20884086444007857 
0.0014326647564469914 0.005571474052849411 0.1259153135943967 0.8670805475963069 
0.7857142857142857 0.07142857142857142 0.07142857142857142 0.07142857142857142 
0.7476415094339622 0.22877358490566038 0.02122641509433962 0.0023584905660377358 
0.11212361331220286 0.7595087163232963 0.11925515055467512 0.009112519809825673 
0.005132360886007563 0.18665586169638035 0.6312803889789304 0.17693138843868178 
9.179926560587516E-4 0.011321909424724603 0.11413708690330478 0.8736230110159119 
0.8409090909090909 0.11363636363636363 0.022727272727272728 0.022727272727272728 
0.8027426160337553 0.18037974683544303 0.011603375527426161 0.005274261603375527 
0.15773405698778833 0.6997964721845319 0.12245590230664857 0.020013568521031207 
0.011091127098321343 0.18555155875299761 0.6202038369304557 0.18315347721822542 
0.004431909750201451 0.023771152296535054 0.14544721998388396 0.8263497179693795 
0.94 0.02 0.02 0.02 
0.74435318275154 0.19609856262833675 0.052361396303901436 0.007186858316221766 
0.21470588235294116 0.5994117647058823 0.15941176470588236 0.026470588235294117 
0.03010625737898465 0.2012987012987013 0.5401416765053129 0.22845336481700118 
0.0034653465346534654 0.019306930693069307 0.12425742574257426 0.852970297029703 
</TABLE>
</DEFINITION>
<DEFINITION>
<FOR>pixel20</FOR>
<GIVEN>emotion</GIVEN>
<GIVEN>pixel8</GIVEN>
<TABLE>
0.3560864618885097 0.4402730375426621 0.2036405005688282 
0.08581196581196582 0.4181196581196581 0.49606837606837606 
0.027106227106227107 0.15311355311355312 0.8197802197802198 
0.22448979591836735 0.7551020408163265 0.02040816326530612 
0.07042253521126761 0.47417840375586856 0.45539906103286387 
0.008347245409015025 0.18196994991652754 0.8096828046744574 
0.34149326805385555 0.42472460220318237 0.23378212974296206 
0.07332185886402753 0.4134251290877797 0.5132530120481927 
0.02255309831399168 0.17407488504488725 0.8033720166411211 
0.32807363576594345 0.4779750164365549 0.19395134779750164 
0.07997731140102099 0.45131404802420116 0.46870864057477785 
0.02722805153406827 0.20626909284101475 0.7665028556249169 
0.3651376146788991 0.4960244648318043 0.13883792048929663 
0.09767674244316762 0.49887584311766175 0.40344741443917065 
0.03478869950968947 0.2098996030819519 0.7553116974083586 
0.40540540540540543 0.4038610038610039 0.19073359073359072 
0.09013732833957554 0.39675405742821473 0.5131086142322098 
0.03575444119631212 0.1553856532493816 0.8088599055543063 
0.2796780684104628 0.47283702213279677 0.24748490945674045 
0.06609605325725154 0.41797432239657634 0.5159296243461722 
0.022733211392735823 0.16279069767441862 0.8144760909328456 
</TABLE>
</DEFINITION>
<DEFINITION>
<FOR>pixel21</FOR>
<GIVEN>emotion</GIVEN>
<GIVEN>pixel10</GIVEN>
<TABLE>
0.7208588957055214 0.19938650306748465 0.07668711656441718 0.003067484662576687 
0.29503275109170307 0.5521288209606987 0.150382096069869 0.0024563318777292577 
0.07568807339449542 0.4123853211009174 0.5077981651376147 0.004128440366972477 
0.04851973684210526 0.26069078947368424 0.6669407894736842 0.023848684210526317 
0.05152671755725191 0.20038167938931298 0.383587786259542 0.36450381679389315 
0.5769230769230769 0.19230769230769232 0.19230769230769232 0.038461538461538464 
0.3293269230769231 0.5793269230769231 0.0889423076923077 0.002403846153846154 
0.0846774193548387 0.4475806451612903 0.45564516129032256 0.012096774193548387 
0.025423728813559324 0.2288135593220339 0.7372881355932204 0.00847457627118644 
0.046875 0.140625 0.640625 0.171875 
0.8358778625954199 0.08015267175572519 0.08015267175572519 0.003816793893129771 
0.30005787037037035 0.5298032407407407 0.16927083333333334 8.680555555555555E-4 
0.09307359307359307 0.3632034632034632 0.5380952380952381 0.005627705627705628 
0.056500607533414335 0.23268529769137303 0.695625759416768 0.015188335358444714 
0.07188498402555911 0.17731629392971246 0.43610223642172524 0.3146964856230032 
0.7387640449438202 0.199438202247191 0.05898876404494382 0.0028089887640449437 
0.3153986451276707 0.5439030745179781 0.13926524231370505 0.0014330380406461698 
0.08126934984520123 0.37899896800825594 0.5353457172342622 0.0043859649122807015 
0.056914893617021275 0.1920212765957447 0.7324468085106383 0.018617021276595744 
0.05516014234875445 0.11565836298932385 0.40747330960854095 0.42170818505338076 
0.8376288659793815 0.1211340206185567 0.03865979381443299 0.002577319587628866 
0.3922121896162528 0.513732129420617 0.09349134687735139 5.64334085778781E-4 
0.12450903377847604 0.44893951296150825 0.4230164964650432 0.003534956794972506 
0.08333333333333333 0.2749221183800623 0.6222741433021807 0.019470404984423675 
0.05778894472361809 0.1934673366834171 0.3793969849246231 0.3693467336683417 
0.7675 0.1575 0.0725 0.0025 
0.3350409836065574 0.5223360655737705 0.1415983606557377 0.0010245901639344263 
0.08297413793103449 0.38110632183908044 0.5341235632183908 0.0017959770114942528 
0.05507868383404864 0.21101573676680974 0.7260371959942775 0.007868383404864092 
0.02364864864864865 0.11148648648648649 0.5168918918918919 0.34797297297297297 
0.7261904761904762 0.10714285714285714 0.15476190476190477 0.011904761904761904 
0.2968379446640316 0.5743083003952569 0.12845849802371542 3.952569169960474E-4 
0.05575539568345324 0.3842925659472422 0.5533573141486811 0.006594724220623501 
0.03637660485021398 0.23751783166904422 0.7039942938659058 0.02211126961483595 
0.03580901856763926 0.25596816976127323 0.3859416445623342 0.3222811671087533 
</TABLE>
</DEFINITION>
<DEFINITION>
<FOR>pixel22</FOR>
<GIVEN>emotion</GIVEN>
<GIVEN>pixel12</GIVEN>
<TABLE>
0.573892082328945 0.4240682366030039 0.0020396810680511773 
0.23392091472129586 0.7503573130061935 0.01572177227251072 
0.17936117936117937 0.4742014742014742 0.3464373464373464 
0.49171270718232046 0.5064456721915286 0.001841620626151013 
0.18518518518518517 0.8114478114478114 0.003367003367003367 
0.5238095238095238 0.42857142857142855 0.047619047619047616 
0.5674595242854288 0.42714371377173693 0.005396761942834299 
0.22451940515052593 0.7656873413130214 0.009793253536452665 
0.17958412098298676 0.42533081285444235 0.3950850661625709 
0.5830041429810193 0.4124674824164178 0.004528374602562868 
0.2075036075036075 0.7662337662337663 0.026262626262626262 
0.14343434343434344 0.4383838383838384 0.41818181818181815 
0.6742498255408235 0.32337752965806 0.0023726448011165387 
0.3184265010351967 0.6662525879917184 0.015320910973084885 
0.19648093841642228 0.4604105571847507 0.34310850439882695 
0.5792373495722778 0.4177178483398579 0.003044802087864289 
0.20551090700344432 0.7795637198622273 0.014925373134328358 
0.18143459915611815 0.48523206751054854 0.3333333333333333 
0.5795485450095186 0.41582812075061193 0.004623334239869459 
0.23712296983758702 0.7336426914153132 0.02923433874709977 
0.17647058823529413 0.45210084033613446 0.37142857142857144 
</TABLE>
</DEFINITION>
<DEFINITION>
<FOR>pixel23</FOR>
<GIVEN>emotion</GIVEN>
<GIVEN>pixel21</GIVEN>
<TABLE>
0.3694958519463944 0.6005105296745373 0.02488832163369496 0.004467134652201659 6.381620931716656E-4 
0.004986799647990613 0.43619829862129655 0.5277207392197125 0.030800821355236138 2.933411557641537E-4 
0.0011131725417439704 0.012244897959183673 0.3669758812615955 0.5636363636363636 0.05602968460111317 
0.0041841004184100415 0.0041841004184100415 0.0041841004184100415 0.029288702928870293 0.9581589958158996 
0.35195530726256985 0.6201117318435754 0.01675977653631285 0.00558659217877095 0.00558659217877095 
0.002544529262086514 0.5877862595419847 0.3944020356234097 0.01272264631043257 0.002544529262086514 
0.0035335689045936395 0.0035335689045936395 0.3710247349823322 0.6042402826855123 0.0176678445229682 
0.058823529411764705 0.058823529411764705 0.058823529411764705 0.058823529411764705 0.7647058823529411 
0.33374766935985084 0.63455562461156 0.029210689869484153 0.0018645121193287756 6.215040397762585E-4 
0.005965463108320251 0.41601255886970173 0.5491365777080063 0.02794348508634223 9.419152276295133E-4 
3.0609121518212427E-4 0.006427915518824609 0.33639424548515456 0.6033057851239669 0.053565962656871746 
0.0041841004184100415 0.0041841004184100415 0.0041841004184100415 0.012552301255230125 0.9748953974895398 
0.2744660503665923 0.7035384124960153 0.017532674529805548 0.004144086707044948 3.18775900541919E-4 
0.002768278781957336 0.43168865005699397 0.5417684416218856 0.022960429897410845 8.141996417521576E-4 
2.0959966464053657E-4 0.007755187591699853 0.36910500943198493 0.5837350660238944 0.03919513728778034 
0.0033222591362126247 0.0033222591362126247 0.0033222591362126247 0.016611295681063124 0.973421926910299 
0.32306615330766536 0.6576828841442072 0.017150857542877145 0.0017500875043752187 3.5001750087504374E-4 
0.005286141116984601 0.49528843943920936 0.48011951275568837 0.0186164100206849 6.89496667432774E-4 
0.0011815675462780622 0.005120126033871603 0.36667979519495864 0.5825128003150847 0.04450571090980701 
0.005405405405405406 0.005405405405405406 0.005405405405405406 0.005405405405405406 0.9783783783783784 
0.4195835179441737 0.5649091714665485 0.013735046521931768 0.001329198050509526 4.4306601683650863E-4 
0.008747813046738315 0.4266433391652087 0.5456135966008497 0.018745313671582105 2.4993751562109475E-4 
2.962962962962963E-4 0.01274074074074074 0.36592592592592593 0.5857777777777777 0.03525925925925926 
0.008 0.008 0.008 0.056 0.92 
0.2777212614445575 0.688708036622584 0.03153611393692777 0.001017293997965412 0.001017293997965412 
0.005705591479650057 0.41498668695321417 0.5435526816279954 0.03537466717383035 3.803727653100038E-4 
3.9385584875935406E-4 0.00669554942890902 0.2760929499803072 0.6384403308389129 0.07837731390311146 
0.003484320557491289 0.010452961672473868 0.003484320557491289 0.010452961672473868 0.9721254355400697 
</TABLE>
</DEFINITION>
<DEFINITION>
<FOR>pixel24</FOR>
<GIVEN>emotion</GIVEN>
<GIVEN>pixel23</GIVEN>
<TABLE>
0.9716666666666667 0.018333333333333333 0.008333333333333333 0.0016666666666666668 
0.43338748984565395 0.549553208773355 0.016653127538586516 4.0617384240454913E-4 
0.00884016973125884 0.7351485148514851 0.25565770862800563 3.536067892503536E-4 
0.0018315018315018315 0.045787545787545784 0.8907203907203908 0.061660561660561664 
0.002617801047120419 0.007853403141361256 0.03926701570680628 0.9502617801047121 
0.9545454545454546 0.015151515151515152 0.015151515151515152 0.015151515151515152 
0.42151162790697677 0.5668604651162791 0.00872093023255814 0.0029069767441860465 
0.026515151515151516 0.8068181818181818 0.16287878787878787 0.003787878787878788 
0.0056179775280898875 0.03932584269662921 0.8595505617977528 0.09550561797752809 
0.05 0.05 0.15 0.75 
0.9802867383512545 0.012544802867383513 0.005376344086021506 0.0017921146953405018 
0.4345439189189189 0.5451858108108109 0.01984797297297297 4.222972972972973E-4 
0.02106353591160221 0.700621546961326 0.2724447513812155 0.005870165745856353 
4.84027105517909E-4 0.04211035818005808 0.8920619554695063 0.06534365924491771 
0.0024271844660194173 0.007281553398058253 0.0412621359223301 0.9490291262135923 
0.9761363636363637 0.02159090909090909 0.0011363636363636363 0.0011363636363636363 
0.4401552287581699 0.5475898692810458 0.012050653594771242 2.042483660130719E-4 
0.010692068429237946 0.7276438569206843 0.2606920684292379 9.720062208398134E-4 
0.002377717391304348 0.051290760869565216 0.9086277173913043 0.03770380434782609 
0.00205761316872428 0.00205761316872428 0.06378600823045268 0.9320987654320988 
0.9821052631578947 0.015789473684210527 0.0010526315789473684 0.0010526315789473684 
0.4933300395256917 0.4943181818181818 0.012104743083003952 2.4703557312252963E-4 
0.014006514657980456 0.760586319218241 0.22312703583061888 0.002280130293159609 
0.0031928480204342275 0.05555555555555555 0.8716475095785441 0.06960408684546615 
0.003355704697986577 0.003355704697986577 0.030201342281879196 0.9630872483221476 
0.9806910569105691 0.01524390243902439 0.003048780487804878 0.0010162601626016261 
0.47818902842035693 0.5125578321216127 0.008922670191672175 3.3046926635822867E-4 
0.01536231884057971 0.7336231884057971 0.24956521739130436 0.0014492753623188406 
0.004364694471387003 0.0518913676042677 0.9190106692531523 0.024733268671193017 
0.00423728813559322 0.00423728813559322 0.038135593220338986 0.9533898305084746 
0.9758620689655172 0.017241379310344827 0.0034482758620689655 0.0034482758620689655 
0.3674496644295302 0.6191275167785235 0.012863534675615212 5.592841163310962E-4 
0.004162812210915819 0.6665124884366328 0.32608695652173914 0.0032377428307123032 
0.0017462165308498253 0.03317811408614668 0.8830034924330618 0.08207217694994179 
0.0020833333333333333 0.0020833333333333333 0.04375 0.9520833333333333 
</TABLE>
</DEFINITION>
<DEFINITION>
<FOR>pixel25</FOR>
<GIVEN>emotion</GIVEN>
<GIVEN>pixel4</GIVEN>
<TABLE>
0.32672634271099743 0.4648337595907928 0.14514066496163683 0.0632992327365729 
0.08839918946301925 0.45415400202634243 0.30217831813576496 0.15526849037487336 
0.048989113530326596 0.22161741835147744 0.35069984447900465 0.3786936236391913 
0.024368231046931407 0.13447653429602888 0.20848375451263537 0.6326714801444043 
0.13076923076923078 0.7 0.08461538461538462 0.08461538461538462 
0.0625 0.3912037037037037 0.28935185185185186 0.2569444444444444 
0.006944444444444444 0.1736111111111111 0.2708333333333333 0.5486111111111112 
0.018518518518518517 0.15432098765432098 0.09259259259259259 0.7345679012345679 
0.30078895463510846 0.4960552268244576 0.1232741617357002 0.07988165680473373 
0.09594383775351015 0.4672386895475819 0.3013520540821633 0.13546541861674466 
0.057328605200945626 0.21808510638297873 0.374113475177305 0.35047281323877066 
0.02694954128440367 0.11181192660550458 0.18520642201834864 0.6760321100917431 
0.31444332998996993 0.5391173520561685 0.10180541624874624 0.044633901705115345 
0.06561275881365417 0.45565193060996084 0.3470900951315053 0.1316452154448797 
0.03584102200141945 0.17494677075940382 0.36231369765791344 0.4268985095812633 
0.02305113160100587 0.10184409052808047 0.16135792120704107 0.7137468566638726 
0.348125 0.543125 0.081875 0.026875 
0.0915909090909091 0.4925 0.30568181818181817 0.11022727272727273 
0.05266075388026607 0.20343680709534367 0.3763858093126386 0.36751662971175164 
0.04190207156308851 0.13512241054613935 0.2085687382297552 0.614406779661017 
0.38714574898785425 0.48228744939271256 0.08755060728744939 0.0430161943319838 
0.1592237061769616 0.5156510851419032 0.2431135225375626 0.08201168614357263 
0.08899456521739131 0.31453804347826086 0.344429347826087 0.25203804347826086 
0.06803170409511229 0.19881109643328929 0.24108322324966974 0.49207397622192867 
0.26420454545454547 0.4971590909090909 0.13920454545454544 0.09943181818181818 
0.05955678670360111 0.3651892890120037 0.37719298245614036 0.19806094182825484 
0.01713197969543147 0.13895939086294415 0.3762690355329949 0.4676395939086294 
0.010683760683760684 0.07564102564102564 0.17307692307692307 0.7405982905982906 
</TABLE>
</DEFINITION>
<DEFINITION>
<FOR>pixel26</FOR>
<GIVEN>emotion</GIVEN>
<GIVEN>pixel25</GIVEN>
<TABLE>
0.9 0.08526315789473685 0.007368421052631579 0.007368421052631579 
0.2075152335815843 0.6198375084631009 0.15741367637102235 0.015233581584292485 
0.008087535680304472 0.14985727878211227 0.7169362511893435 0.12511893434823979 
0.002631578947368421 0.020526315789473684 0.19842105263157894 0.7784210526315789 
0.7291666666666666 0.22916666666666666 0.020833333333333332 0.020833333333333332 
0.267741935483871 0.5387096774193548 0.15806451612903225 0.035483870967741936 
0.015789473684210527 0.08947368421052632 0.6157894736842106 0.2789473684210526 
0.003125 0.003125 0.165625 0.828125 
0.8594132029339854 0.11858190709046455 0.018337408312958436 0.003667481662591687 
0.23568435754189945 0.5750698324022346 0.16864525139664804 0.020600558659217876 
0.011160714285714286 0.12098214285714286 0.7004464285714286 0.16741071428571427 
0.0029486099410278013 0.016427969671440605 0.15037910699241785 0.8302443133951137 
0.8905750798722045 0.09664536741214058 0.005591054313099041 0.00718849840255591 
0.23066298342541436 0.5992501973164956 0.15765588003157063 0.012430939226519336 
0.0070904645476772615 0.11907090464547677 0.7542787286063569 0.119559902200489 
0.0027947154471544716 0.019054878048780487 0.1598069105691057 0.8183434959349594 
0.8942307692307693 0.09178321678321678 0.009615384615384616 0.004370629370629371 
0.25663956639566393 0.5899728997289972 0.14119241192411924 0.012195121951219513 
0.007313317936874519 0.13818321785989224 0.724788298691301 0.12971516551193227 
0.002003205128205128 0.02123397435897436 0.15344551282051283 0.8233173076923077 
0.898410896708286 0.09023836549375709 0.010783200908059024 5.675368898978433E-4 
0.27960840496657113 0.5642311365807068 0.139207258834766 0.016953199617956063 
0.011312217194570135 0.1588235294117647 0.7 0.12986425339366517 
0.0056461731493099125 0.023212045169385194 0.21016311166875784 0.760978670012547 
0.8211678832116789 0.12773722627737227 0.032846715328467155 0.01824817518248175 
0.1593245227606461 0.5807635829662261 0.2327459618208517 0.027165932452276064 
0.01555793991416309 0.12285407725321888 0.7076180257510729 0.15396995708154507 
3.4083162917518747E-4 0.012610770279481936 0.14008179959100203 0.8469665985003408 
</TABLE>
</DEFINITION>
<DEFINITION>
<FOR>pixel27</FOR>
<GIVEN>emotion</GIVEN>
<GIVEN>pixel25</GIVEN>
<TABLE>
0.8957894736842106 0.08315789473684211 0.015789473684210527 0.005263157894736842 
0.2880839539607312 0.54739336492891 0.15132024373730535 0.013202437373053487 
0.01569933396764986 0.17269267364414842 0.6969552806850619 0.11465271170313987 
0.002631578947368421 0.022631578947368423 0.18263157894736842 0.7921052631578948 
0.7708333333333334 0.14583333333333334 0.0625 0.020833333333333332 
0.3774193548387097 0.5 0.08064516129032258 0.041935483870967745 
0.06842105263157895 0.07894736842105263 0.6684210526315789 0.18421052631578946 
0.003125 0.009375 0.134375 0.853125 
0.9009779951100244 0.06723716381418093 0.023227383863080684 0.008557457212713936 
0.30691340782122906 0.5192039106145251 0.15328212290502793 0.020600558659217876 
0.01830357142857143 0.13616071428571427 0.6808035714285714 0.16473214285714285 
0.0029486099410278013 0.013900589721988205 0.12257792754844145 0.8605728727885426 
0.8746006389776357 0.09345047923322684 0.029552715654952075 0.0023961661341853034 
0.30406471981057615 0.5455801104972375 0.12687450670876085 0.023480662983425413 
0.01491442542787286 0.13667481662591688 0.7014669926650366 0.1469437652811736 
0.0033028455284552847 0.014989837398373984 0.13236788617886178 0.849339430894309 
0.916958041958042 0.05856643356643357 0.018356643356643356 0.006118881118881119 
0.33631436314363145 0.516260162601626 0.12222222222222222 0.025203252032520326 
0.032717474980754425 0.14049268668206313 0.670130869899923 0.15665896843725943 
0.011618589743589744 0.02123397435897436 0.12700320512820512 0.8401442307692307 
0.9222474460839954 0.06526674233825198 0.010783200908059024 0.00170261066969353 
0.36891117478510027 0.4811365807067813 0.13252148997134672 0.017430754536771727 
0.03665158371040724 0.16425339366515837 0.6601809954751131 0.13891402714932127 
0.01191969887076537 0.029485570890840654 0.16750313676286072 0.7910915934755333 
0.8941605839416058 0.07664233576642336 0.010948905109489052 0.01824817518248175 
0.2591776798825257 0.5513950073421439 0.18135095447870778 0.008076358296622614 
0.029506437768240343 0.14753218884120173 0.7054721030042919 0.1174892703862661 
0.003749147920927062 0.012610770279481936 0.11349693251533742 0.8701431492842536 
</TABLE>
</DEFINITION>
<DEFINITION>
<FOR>pixel28</FOR>
<GIVEN>emotion</GIVEN>
<GIVEN>pixel27</GIVEN>
<TABLE>
0.8258620689655173 0.15919540229885057 0.010919540229885057 0.004022988505747126 
0.1555661274976213 0.7597526165556613 0.06612749762131304 0.018553758325404377 
0.012752858399296393 0.39797713280562885 0.4947229551451187 0.09454705364995603 
0.006145251396648044 0.038547486033519554 0.13798882681564245 0.8173184357541899 
0.6369047619047619 0.31547619047619047 0.041666666666666664 0.005952380952380952 
0.1388888888888889 0.7611111111111111 0.07222222222222222 0.027777777777777776 
0.015151515151515152 0.3282828282828283 0.4797979797979798 0.17676767676767677 
0.003105590062111801 0.046583850931677016 0.08385093167701864 0.8664596273291926 
0.8143028846153846 0.1700721153846154 0.010216346153846154 0.005408653846153846 
0.149468085106383 0.7824468085106383 0.05585106382978723 0.01223404255319149 
0.014511873350923483 0.33289357959542654 0.548372911169745 0.10422163588390501 
4.035512510088781E-4 0.024616626311541566 0.13922518159806296 0.8357546408393866 
0.8306273062730627 0.16199261992619926 0.005535055350553505 0.0018450184501845018 
0.12657142857142858 0.8065714285714286 0.055142857142857146 0.011714285714285714 
0.013513513513513514 0.33636363636363636 0.5609336609336609 0.0891891891891892 
0.0012297097884899164 0.01795376291195278 0.11239547466797836 0.868421052631579 
0.8789517470881864 0.11356073211314476 0.005407653910149751 0.0020798668885191347 
0.1192468619246862 0.8121338912133891 0.05397489539748954 0.014644351464435146 
0.014624505928853756 0.3339920948616601 0.5569169960474308 0.09446640316205533 
0.0019201228878648233 0.024193548387096774 0.12096774193548387 0.8529185867895546 
0.862691131498471 0.12874617737003058 0.006422018348623854 0.0021406727828746177 
0.1531496062992126 0.7744094488188976 0.05866141732283465 0.013779527559055118 
0.01608695652173913 0.3726086956521739 0.51 0.10130434782608695 
0.0018248175182481751 0.03345498783454988 0.15389294403892945 0.8108272506082725 
0.7695783132530121 0.2033132530120482 0.016566265060240965 0.010542168674698794 
0.11531365313653137 0.7887453874538746 0.07841328413284133 0.017527675276752766 
0.01422550052687039 0.3124341412012645 0.5790305584826133 0.09430979978925184 
0.002510760401721664 0.019010043041606885 0.11441893830703014 0.8640602582496413 
</TABLE>
</DEFINITION>
<DEFINITION>
<FOR>pixel29</FOR>
<GIVEN>emotion</GIVEN>
<GIVEN>pixel25</GIVEN>
<TABLE>
0.9105263157894737 0.06631578947368422 0.015789473684210527 0.007368421052631579 
0.44515910629654704 0.456668923493568 0.07887610020311442 0.01929587000677048 
0.053758325404376785 0.31826831588962895 0.5475737392959087 0.08039961941008564 
0.014210526315789474 0.05210526315789474 0.2805263157894737 0.6531578947368422 
0.8958333333333334 0.0625 0.020833333333333332 0.020833333333333332 
0.3967741935483871 0.5 0.07419354838709677 0.02903225806451613 
0.04736842105263158 0.3105263157894737 0.48947368421052634 0.15263157894736842 
0.015625 0.046875 0.265625 0.671875 
0.9229828850855746 0.06234718826405868 0.011002444987775062 0.003667481662591687 
0.4416899441340782 0.4549581005586592 0.08973463687150839 0.01361731843575419 
0.03616071428571429 0.30580357142857145 0.5691964285714286 0.08883928571428572 
0.013900589721988205 0.03411962931760741 0.2455770850884583 0.706402695871946 
0.9145367412140575 0.06789137380191693 0.015175718849840255 0.0023961661341853034 
0.42995264404104183 0.4919100236779795 0.06886345698500394 0.009273875295974744 
0.042787286063569685 0.32591687041564793 0.5860635696821516 0.04523227383863081 
0.0063516260162601625 0.04141260162601626 0.2848069105691057 0.6674288617886179 
0.9222027972027972 0.05332167832167832 0.021853146853146852 0.0026223776223776225 
0.5092140921409214 0.4062330623306233 0.07181571815718157 0.012737127371273712 
0.058121632024634336 0.33833718244803695 0.537721324095458 0.06581986143187067 
0.011618589743589744 0.05328525641025641 0.2880608974358974 0.6470352564102564 
0.9188422247446084 0.07321225879682179 0.006242905788876277 0.00170261066969353 
0.4601241642788921 0.4462750716332378 0.07808022922636103 0.015520534861509073 
0.07737556561085973 0.35158371040723985 0.48733031674208144 0.083710407239819 
0.016938519447929738 0.06336260978670012 0.30050188205771644 0.6191969887076537 
0.864963503649635 0.09124087591240876 0.032846715328467155 0.010948905109489052 
0.3237885462555066 0.566079295154185 0.09324522760646109 0.016886930983847283 
0.014484978540772532 0.25375536480686695 0.6196351931330472 0.11212446351931331 
0.005112474437627812 0.015337423312883436 0.1741649625085208 0.8053851397409679 
</TABLE>
</DEFINITION>
<DEFINITION>
<FOR>pixel30</FOR>
<GIVEN>emotion</GIVEN>
<GIVEN>pixel3</GIVEN>
<TABLE>
0.2350730688935282 0.4279749478079332 0.31607515657620044 0.017954070981210855 0.0029227557411273487 
0.009313556398758192 0.06933425319075544 0.7813038978958261 0.13073473611590203 0.009313556398758192 
0.0060406370126304225 0.011532125205930808 0.3333333333333333 0.5815485996705108 0.06754530477759473 
0.0012578616352201257 0.011320754716981131 0.06415094339622641 0.40628930817610065 0.5169811320754717 
0.15270935960591134 0.4975369458128079 0.32019704433497537 0.024630541871921183 0.0049261083743842365 
0.003115264797507788 0.059190031152647975 0.8006230529595015 0.10903426791277258 0.028037383177570093 
0.004366812227074236 0.013100436681222707 0.24890829694323144 0.6244541484716157 0.1091703056768559 
0.008403361344537815 0.025210084033613446 0.058823529411764705 0.3445378151260504 0.5630252100840336 
0.20231884057971014 0.42840579710144927 0.34144927536231884 0.022608695652173914 0.0052173913043478265 
0.011033099297893681 0.06318956870611836 0.7499164159144099 0.1608157806753594 0.015045135406218655 
0.0012970168612191958 0.012537829658452227 0.2840466926070039 0.6247297881539127 0.07738867271941202 
7.867820613690008E-4 0.0055074744295830055 0.06215578284815106 0.35641227380015733 0.5751376868607396 
0.16495702800110895 0.5115054061546992 0.31355697255336845 0.009703354588300527 2.772387025228722E-4 
0.007079951649110689 0.09756518735969608 0.7827663615955793 0.10965290968744604 0.0029355897081678466 
0.0014168319637291016 0.015018418815528478 0.345423632757155 0.5874185321620856 0.05072258430150184 
7.027406886858749E-4 0.0035137034434293743 0.07940969782150387 0.4111033028812368 0.5052705551651441 
0.1664459161147903 0.506401766004415 0.3121412803532009 0.012803532008830023 0.002207505518763797 
0.0087008700870087 0.050705070507050705 0.8103810381038103 0.12331233123312331 0.006900690069006901 
0.003423354887790034 0.0041841004184100415 0.2712057816660327 0.6569037656903766 0.06428299733739064 
0.0017595307917888563 0.0017595307917888563 0.01818181818181818 0.3114369501466276 0.6668621700879765 
0.2373181979425328 0.4877616175948918 0.25363604114934374 0.02021993614757006 0.001064207165661582 
0.0168834763354553 0.08939939108773873 0.7669526709106006 0.11597010794353722 0.010794353722668144 
0.0023073373327180432 0.01799723119520074 0.3068758652514998 0.6059067835717582 0.06691278264882326 
0.0060396893874029335 0.012942191544434857 0.07161345987920621 0.3373597929249353 0.5720448662640207 
0.11459968602825746 0.4003139717425432 0.39717425431711145 0.0706436420722135 0.01726844583987441 
0.0027457440966501922 0.033498077979132346 0.7627677100494233 0.1872597473915431 0.013728720483250962 
4.415011037527594E-4 0.006622516556291391 0.21147902869757174 0.7103752759381898 0.07108167770419425 
0.001749271137026239 0.0029154518950437317 0.02740524781341108 0.3189504373177843 0.6489795918367347 
</TABLE>
</DEFINITION>
<DEFINITION>
<FOR>pixel31</FOR>
<GIVEN>emotion</GIVEN>
<GIVEN>pixel30</GIVEN>
<TABLE>
0.7545605306799337 0.17412935323383086 0.04145936981757877 0.008291873963515755 0.02155887230514096 
0.1805887032617343 0.6483691328560064 0.15035799522673032 0.007159904534606206 0.013524264120922832 
0.010594947025264874 0.1784841075794621 0.5436022819885901 0.2252105406139636 0.04210812279271937 
0.0016620498614958448 0.007202216066481994 0.06592797783933518 0.3739612188365651 0.5512465373961218 
0.0017574692442882249 0.005272407732864675 0.03690685413005272 0.04745166959578207 0.9086115992970123 
0.7142857142857143 0.08571428571428572 0.14285714285714285 0.02857142857142857 0.02857142857142857 
0.16535433070866143 0.7007874015748031 0.10236220472440945 0.023622047244094488 0.007874015748031496 
0.002583979328165375 0.1834625322997416 0.4935400516795866 0.26098191214470284 0.059431524547803614 
0.0044444444444444444 0.013333333333333334 0.07555555555555556 0.21777777777777776 0.6888888888888889 
0.009708737864077669 0.009708737864077669 0.02912621359223301 0.02912621359223301 0.9223300970873787 
0.751937984496124 0.16795865633074936 0.06976744186046512 0.007751937984496124 0.002583979328165375 
0.18341968911917098 0.633160621761658 0.14818652849740932 0.021761658031088083 0.013471502590673576 
0.008685906416363126 0.13533202577752873 0.5376856262258336 0.2563743345474923 0.061922107032782295 
0.0012401818933443572 0.0062009094667217855 0.05828854898718479 0.3269946258784622 0.6072757337742869 
0.0010362694300518134 0.0031088082901554403 0.011398963730569948 0.021761658031088083 0.9626943005181348 
0.7262830482115086 0.2161741835147745 0.04510108864696734 0.007776049766718507 0.004665629860031105 
0.13487241798298907 0.66302146618064 0.17780477926285945 0.015795868772782502 0.00850546780072904 
0.006431327711876518 0.14649135343718736 0.5077890524510504 0.27111619265399456 0.0681720737458911 
3.0039050765995795E-4 0.014118353860018024 0.07479723640732953 0.2922799639531391 0.6185040552718534 
0.003271537622682661 0.003271537622682661 0.016357688113413305 0.04034896401308615 0.9367502726281353 
0.8090692124105012 0.15513126491646778 0.031026252983293555 0.002386634844868735 0.002386634844868735 
0.16604057099924868 0.7220135236664162 0.09842223891810668 0.0067618332081141996 0.0067618332081141996 
0.009390801830002408 0.16590416566337587 0.5526125692270648 0.23525162533108596 0.036840837948470984 
0.0011115227862171174 0.007039644312708411 0.050018525379770286 0.32864023712486107 0.6131900703964431 
7.49063670411985E-4 0.0022471910112359553 0.006741573033707865 0.011235955056179775 0.9790262172284644 
0.7685060565275909 0.2032301480484522 0.017496635262449527 0.006729475100942127 0.004037685060565276 
0.18083285795778664 0.6851112378779236 0.10781517398745008 0.021106674272675412 0.00513405590416429 
0.015348288075560802 0.1730814639905549 0.5674144037780401 0.20802833530106257 0.03612750885478158 
4.585052728106373E-4 0.011462631820265932 0.06740027510316368 0.36817973406694177 0.552498853736818 
0.0011750881316098707 0.0011750881316098707 0.0199764982373678 0.041128084606345476 0.936545240893067 
0.7590361445783133 0.08433734939759036 0.08433734939759036 0.03614457831325301 0.03614457831325301 
0.09792284866468842 0.6973293768545994 0.1394658753709199 0.032640949554896145 0.032640949554896145 
0.0013831258644536654 0.09451360073766712 0.5076071922544951 0.33241124942369754 0.06408483171968649 
0.0011797090051120724 0.003539127015336217 0.03893039716869839 0.2780180888714117 0.6783326779394416 
7.627765064836003E-4 0.002288329519450801 0.005339435545385202 0.009916094584286803 0.9816933638443935 
</TABLE>
</DEFINITION>
<DEFINITION>
<FOR>pixel32</FOR>
<GIVEN>emotion</GIVEN>
<GIVEN>pixel0</GIVEN>
<TABLE>
0.9987168520102652 4.27715996578272E-4 4.27715996578272E-4 4.27715996578272E-4 
3.0012004801920766E-4 0.9990996398559424 3.0012004801920766E-4 3.0012004801920766E-4 
7.27802037845706E-4 7.27802037845706E-4 0.9978165938864629 7.27802037845706E-4 
0.001160092807424594 0.001160092807424594 0.001160092807424594 0.9965197215777262 
0.9840425531914894 0.005319148936170213 0.005319148936170213 0.005319148936170213 
0.002380952380952381 0.9928571428571429 0.002380952380952381 0.002380952380952381 
0.007042253521126761 0.007042253521126761 0.9788732394366197 0.007042253521126761 
0.00847457627118644 0.00847457627118644 0.00847457627118644 0.9745762711864406 
0.9981132075471698 6.289308176100629E-4 6.289308176100629E-4 6.289308176100629E-4 
2.901915264074289E-4 0.9991294254207778 2.901915264074289E-4 2.901915264074289E-4 
5.617977528089888E-4 5.617977528089888E-4 0.998314606741573 5.617977528089888E-4 
6.756756756756757E-4 6.756756756756757E-4 6.756756756756757E-4 0.9979729729729729 
0.9990974729241877 3.0084235860409147E-4 3.0084235860409147E-4 3.0084235860409147E-4 
1.539408866995074E-4 0.9995381773399015 1.539408866995074E-4 1.539408866995074E-4 
3.819709702062643E-4 3.819709702062643E-4 0.9988540870893812 3.819709702062643E-4 
5.241090146750524E-4 5.241090146750524E-4 5.241090146750524E-4 0.9984276729559748 
0.9986559139784946 4.4802867383512545E-4 4.4802867383512545E-4 4.4802867383512545E-4 
2.610966057441253E-4 0.9992167101827676 2.610966057441253E-4 2.610966057441253E-4 
5.36480686695279E-4 5.36480686695279E-4 0.9983905579399142 5.36480686695279E-4 
4.995004995004995E-4 4.995004995004995E-4 4.995004995004995E-4 0.9985014985014985 
0.998913830557567 3.620564808110065E-4 3.620564808110065E-4 3.620564808110065E-4 
2.4912805181863477E-4 0.9992526158445441 2.4912805181863477E-4 2.4912805181863477E-4 
6.009615384615385E-4 6.009615384615385E-4 0.9981971153846154 6.009615384615385E-4 
7.6103500761035E-4 7.6103500761035E-4 7.6103500761035E-4 0.997716894977169 
0.9947183098591549 0.0017605633802816902 0.0017605633802816902 0.0017605633802816902 
4.784688995215311E-4 0.9985645933014354 4.784688995215311E-4 4.784688995215311E-4 
6.067961165048543E-4 6.067961165048543E-4 0.9981796116504854 6.067961165048543E-4 
4.6992481203007516E-4 4.6992481203007516E-4 4.6992481203007516E-4 0.9985902255639098 
</TABLE>
</DEFINITION>
<DEFINITION>
<FOR>pixel33</FOR>
<GIVEN>emotion</GIVEN>
<GIVEN>pixel29</GIVEN>
<TABLE>
0.684051724137931 0.2512931034482759 0.05646551724137931 0.008189655172413794 
0.13348623853211009 0.5123853211009174 0.32247706422018346 0.03165137614678899 
0.03985507246376811 0.13923395445134576 0.6319875776397516 0.18892339544513456 
0.011533242876526458 0.029172320217096336 0.1919945725915875 0.7672998643147897 
0.6944444444444444 0.17222222222222222 0.09444444444444444 0.03888888888888889 
0.07327586206896551 0.5646551724137931 0.3577586206896552 0.004310344827586207 
0.0049504950495049506 0.10396039603960396 0.6683168316831684 0.22277227722772278 
0.003937007874015748 0.011811023622047244 0.21653543307086615 0.7677165354330708 
0.6696344892221181 0.2703842549203374 0.05014058106841612 0.009840674789128397 
0.10707547169811321 0.5221698113207547 0.33726415094339623 0.03349056603773585 
0.022128060263653482 0.12005649717514125 0.629472693032015 0.2283427495291902 
0.0036496350364963502 0.013034410844629822 0.13607924921793535 0.8472367049009385 
0.6688422247446084 0.286322360953462 0.03603859250851305 0.008796821793416572 
0.10432007854688267 0.5726558664702994 0.3001963672066765 0.022827687776141383 
0.02341739577972208 0.11760164693772517 0.6873391662377767 0.17164179104477612 
0.004542278127183787 0.0143256464011181 0.15059399021663172 0.8305380852550663 
0.7260757867694284 0.2296082209377007 0.03564547206165703 0.008670520231213872 
0.11936236391912908 0.55248833592535 0.3005443234836703 0.0276049766718507 
0.028678304239401497 0.11097256857855362 0.6471321695760599 0.21321695760598502 
0.01579520697167756 0.039760348583877995 0.14324618736383443 0.80119825708061 
0.7096688034188035 0.25080128205128205 0.032852564102564104 0.006677350427350427 
0.12273991655076495 0.5239916550764951 0.32232267037552154 0.030945757997218357 
0.02903907074973601 0.1293558606124604 0.6087645195353749 0.2328405491024287 
0.012096774193548387 0.03306451612903226 0.14112903225806453 0.8137096774193548 
0.6152777777777778 0.3125 0.06805555555555555 0.004166666666666667 
0.06012176560121765 0.5060882800608828 0.3904109589041096 0.04337899543378995 
0.013873473917869035 0.07824639289678136 0.6709211986681465 0.2369589345172031 
0.0026943802925327174 0.008083140877598153 0.09353348729792148 0.8956889915319477 
</TABLE>
</DEFINITION>
<DEFINITION>
<FOR>pixel34</FOR>
<GIVEN>emotion</GIVEN>
<GIVEN>pixel29</GIVEN>
<TABLE>
0.9987068965517242 4.310344827586207E-4 4.310344827586207E-4 4.310344827586207E-4 
4.5871559633027525E-4 0.9986238532110092 4.5871559633027525E-4 4.5871559633027525E-4 
5.175983436853002E-4 5.175983436853002E-4 0.9984472049689441 5.175983436853002E-4 
6.784260515603799E-4 6.784260515603799E-4 6.784260515603799E-4 0.9979647218453188 
0.9833333333333333 0.005555555555555556 0.005555555555555556 0.005555555555555556 
0.004310344827586207 0.9870689655172413 0.004310344827586207 0.004310344827586207 
0.0049504950495049506 0.0049504950495049506 0.9851485148514851 0.0049504950495049506 
0.003937007874015748 0.003937007874015748 0.003937007874015748 0.9881889763779528 
0.9985941893158388 4.6860356138706655E-4 4.6860356138706655E-4 4.6860356138706655E-4 
4.716981132075472E-4 0.9985849056603774 4.716981132075472E-4 4.716981132075472E-4 
4.7080979284369113E-4 4.7080979284369113E-4 0.998587570621469 4.7080979284369113E-4 
5.213764337851929E-4 5.213764337851929E-4 5.213764337851929E-4 0.9984358706986444 
0.9991486946651532 2.8376844494892167E-4 2.8376844494892167E-4 2.8376844494892167E-4 
2.454590083456063E-4 0.9992636229749632 2.454590083456063E-4 2.454590083456063E-4 
2.573340195573855E-4 2.573340195573855E-4 0.9992279979413279 2.573340195573855E-4 
3.4940600978336826E-4 3.4940600978336826E-4 3.4940600978336826E-4 0.9989517819706499 
0.9990366088631984 3.211303789338471E-4 3.211303789338471E-4 3.211303789338471E-4 
3.8880248833592535E-4 0.9988335925349923 3.8880248833592535E-4 3.8880248833592535E-4 
4.1562759767248546E-4 4.1562759767248546E-4 0.9987531172069826 4.1562759767248546E-4 
5.446623093681918E-4 5.446623093681918E-4 5.446623093681918E-4 0.9983660130718954 
0.999198717948718 2.670940170940171E-4 2.670940170940171E-4 2.670940170940171E-4 
3.477051460361613E-4 0.9989568845618915 3.477051460361613E-4 3.477051460361613E-4 
5.279831045406547E-4 5.279831045406547E-4 0.9984160506863781 5.279831045406547E-4 
8.064516129032258E-4 8.064516129032258E-4 8.064516129032258E-4 0.9975806451612903 
0.9958333333333333 0.001388888888888889 0.001388888888888889 0.001388888888888889 
7.6103500761035E-4 0.997716894977169 7.6103500761035E-4 7.6103500761035E-4 
5.549389567147614E-4 5.549389567147614E-4 0.9983351831298557 5.549389567147614E-4 
3.8491147036181676E-4 3.8491147036181676E-4 3.8491147036181676E-4 0.9988452655889145 
</TABLE>
</DEFINITION>
</NETWORK>
</BIF>
