J48 pruned tree
------------------

pixel23 <= 0.964706
|   pixel492 <= 0.286275
|   |   pixel180 <= 0.540196
|   |   |   pixel468 <= 0.079412
|   |   |   |   pixel535 <= 0.27549
|   |   |   |   |   pixel424 <= 0.403922
|   |   |   |   |   |   pixel503 <= 0.617647
|   |   |   |   |   |   |   pixel503 <= 0.346078
|   |   |   |   |   |   |   |   pixel344 <= 0.091176
|   |   |   |   |   |   |   |   |   pixel1 <= 0.00098: angry (14.0/5.0)
|   |   |   |   |   |   |   |   |   pixel1 > 0.00098: happy (5.0/2.0)
|   |   |   |   |   |   |   |   pixel344 > 0.091176
|   |   |   |   |   |   |   |   |   pixel552 <= 0.617647
|   |   |   |   |   |   |   |   |   |   pixel225 <= 0.019608: fear (4.0/1.0)
|   |   |   |   |   |   |   |   |   |   pixel225 > 0.019608
|   |   |   |   |   |   |   |   |   |   |   pixel515 <= 0.165686
|   |   |   |   |   |   |   |   |   |   |   |   pixel383 <= 0.043137: sad (20.0/2.0)
|   |   |   |   |   |   |   |   |   |   |   |   pixel383 > 0.043137
|   |   |   |   |   |   |   |   |   |   |   |   |   pixel351 <= 0.266667
|   |   |   |   |   |   |   |   |   |   |   |   |   |   pixel252 <= 0.191176: sad (5.0)
|   |   |   |   |   |   |   |   |   |   |   |   |   |   pixel252 > 0.191176: angry (8.0/2.0)
|   |   |   |   |   |   |   |   |   |   |   |   |   pixel351 > 0.266667: sad (10.0)
|   |   |   |   |   |   |   |   |   |   |   pixel515 > 0.165686
|   |   |   |   |   |   |   |   |   |   |   |   pixel560 <= 0.186275: angry (7.0/1.0)
|   |   |   |   |   |   |   |   |   |   |   |   pixel560 > 0.186275: sad (5.0/1.0)
|   |   |   |   |   |   |   |   |   pixel552 > 0.617647: angry (7.0/1.0)
|   |   |   |   |   |   |   pixel503 > 0.346078
|   |   |   |   |   |   |   |   pixel225 <= 0.185294: angry (6.0)
|   |   |   |   |   |   |   |   pixel225 > 0.185294: suprise (4.0/2.0)
|   |   |   |   |   |   pixel503 > 0.617647
|   |   |   |   |   |   |   pixel356 <= 0.667647
|   |   |   |   |   |   |   |   pixel59 <= 0.397059: fear (4.0/1.0)
|   |   |   |   |   |   |   |   pixel59 > 0.397059: happy (5.0/1.0)
|   |   |   |   |   |   |   pixel356 > 0.667647: sad (5.0/1.0)
|   |   |   |   |   pixel424 > 0.403922
|   |   |   |   |   |   pixel23 <= 0.09902: neutral (4.0)
|   |   |   |   |   |   pixel23 > 0.09902
|   |   |   |   |   |   |   pixel432 <= 0.334314
|   |   |   |   |   |   |   |   pixel491 <= 0.02549
|   |   |   |   |   |   |   |   |   pixel558 <= 0.053922: sad (5.0/1.0)
|   |   |   |   |   |   |   |   |   pixel558 > 0.053922: fear (4.0)
|   |   |   |   |   |   |   |   pixel491 > 0.02549: neutral (4.0/1.0)
|   |   |   |   |   |   |   pixel432 > 0.334314: sad (6.0)
|   |   |   |   pixel535 > 0.27549
|   |   |   |   |   pixel455 <= 0.045098
|   |   |   |   |   |   pixel491 <= 0.092157: fear (4.0/1.0)
|   |   |   |   |   |   pixel491 > 0.092157: sad (4.0)
|   |   |   |   |   pixel455 > 0.045098
|   |   |   |   |   |   pixel563 <= 0.087255
|   |   |   |   |   |   |   pixel37 <= 0.707843: neutral (4.0/2.0)
|   |   |   |   |   |   |   pixel37 > 0.707843: angry (4.0)
|   |   |   |   |   |   pixel563 > 0.087255
|   |   |   |   |   |   |   pixel23 <= 0.769608
|   |   |   |   |   |   |   |   pixel547 <= 0.115686
|   |   |   |   |   |   |   |   |   pixel59 <= 0.532353: happy (5.0/1.0)
|   |   |   |   |   |   |   |   |   pixel59 > 0.532353: angry (6.0)
|   |   |   |   |   |   |   |   pixel547 > 0.115686
|   |   |   |   |   |   |   |   |   pixel544 <= 0.139216: sad (8.0/2.0)
|   |   |   |   |   |   |   |   |   pixel544 > 0.139216
|   |   |   |   |   |   |   |   |   |   pixel228 <= 0.262745: angry (5.0/1.0)
|   |   |   |   |   |   |   |   |   |   pixel228 > 0.262745
|   |   |   |   |   |   |   |   |   |   |   pixel203 <= 0.623529
|   |   |   |   |   |   |   |   |   |   |   |   pixel155 <= 0.555882
|   |   |   |   |   |   |   |   |   |   |   |   |   pixel400 <= 0.301961: fear (7.0/2.0)
|   |   |   |   |   |   |   |   |   |   |   |   |   pixel400 > 0.301961
|   |   |   |   |   |   |   |   |   |   |   |   |   |   pixel317 <= 0.680392
|   |   |   |   |   |   |   |   |   |   |   |   |   |   |   pixel225 <= 0.398039: suprise (15.0/2.0)
|   |   |   |   |   |   |   |   |   |   |   |   |   |   |   pixel225 > 0.398039: sad (6.0/2.0)
|   |   |   |   |   |   |   |   |   |   |   |   |   |   pixel317 > 0.680392: happy (7.0/2.0)
|   |   |   |   |   |   |   |   |   |   |   |   pixel155 > 0.555882: angry (6.0/3.0)
|   |   |   |   |   |   |   |   |   |   |   pixel203 > 0.623529: angry (4.0/1.0)
|   |   |   |   |   |   |   pixel23 > 0.769608
|   |   |   |   |   |   |   |   pixel0 <= 0.502941: sad (4.0)
|   |   |   |   |   |   |   |   pixel0 > 0.502941: suprise (12.0/1.0)
|   |   |   pixel468 > 0.079412
|   |   |   |   pixel368 <= 0.32549
|   |   |   |   |   pixel554 <= 0.940196
|   |   |   |   |   |   pixel119 <= 0.92451
|   |   |   |   |   |   |   pixel444 <= 0.070588
|   |   |   |   |   |   |   |   pixel401 <= 0.127451
|   |   |   |   |   |   |   |   |   pixel567 <= 0.093137: sad (4.0/1.0)
|   |   |   |   |   |   |   |   |   pixel567 > 0.093137: happy (5.0)
|   |   |   |   |   |   |   |   pixel401 > 0.127451
|   |   |   |   |   |   |   |   |   pixel469 <= 0.117647
|   |   |   |   |   |   |   |   |   |   pixel401 <= 0.265686: angry (6.0)
|   |   |   |   |   |   |   |   |   |   pixel401 > 0.265686: fear (4.0)
|   |   |   |   |   |   |   |   |   pixel469 > 0.117647
|   |   |   |   |   |   |   |   |   |   pixel4 <= 0.310784: sad (9.0/1.0)
|   |   |   |   |   |   |   |   |   |   pixel4 > 0.310784: fear (5.0/3.0)
|   |   |   |   |   |   |   pixel444 > 0.070588
|   |   |   |   |   |   |   |   pixel544 <= 0.734314
|   |   |   |   |   |   |   |   |   pixel567 <= 0.540196
|   |   |   |   |   |   |   |   |   |   pixel368 <= 0.090196
|   |   |   |   |   |   |   |   |   |   |   pixel401 <= 0.235294
|   |   |   |   |   |   |   |   |   |   |   |   pixel200 <= 0.145098: sad (5.0)
|   |   |   |   |   |   |   |   |   |   |   |   pixel200 > 0.145098: angry (6.0/2.0)
|   |   |   |   |   |   |   |   |   |   |   pixel401 > 0.235294
|   |   |   |   |   |   |   |   |   |   |   |   pixel47 <= 0.009804: fear (5.0/2.0)
|   |   |   |   |   |   |   |   |   |   |   |   pixel47 > 0.009804
|   |   |   |   |   |   |   |   |   |   |   |   |   pixel225 <= 0.182353
|   |   |   |   |   |   |   |   |   |   |   |   |   |   pixel416 <= 0.052941: neutral (7.0)
|   |   |   |   |   |   |   |   |   |   |   |   |   |   pixel416 > 0.052941: angry (11.0/2.0)
|   |   |   |   |   |   |   |   |   |   |   |   |   pixel225 > 0.182353: angry (7.0/4.0)
|   |   |   |   |   |   |   |   |   |   pixel368 > 0.090196
|   |   |   |   |   |   |   |   |   |   |   pixel179 <= 0.064706
|   |   |   |   |   |   |   |   |   |   |   |   pixel468 <= 0.155882: happy (7.0/4.0)
|   |   |   |   |   |   |   |   |   |   |   |   pixel468 > 0.155882
|   |   |   |   |   |   |   |   |   |   |   |   |   pixel468 <= 0.202941: suprise (6.0/3.0)
|   |   |   |   |   |   |   |   |   |   |   |   |   pixel468 > 0.202941: sad (8.0)
|   |   |   |   |   |   |   |   |   |   |   pixel179 > 0.064706
|   |   |   |   |   |   |   |   |   |   |   |   pixel535 <= 0.060784
|   |   |   |   |   |   |   |   |   |   |   |   |   pixel400 <= 0.105882
|   |   |   |   |   |   |   |   |   |   |   |   |   |   pixel37 <= 0.277451: angry (4.0/1.0)
|   |   |   |   |   |   |   |   |   |   |   |   |   |   pixel37 > 0.277451: happy (4.0/2.0)
|   |   |   |   |   |   |   |   |   |   |   |   |   pixel400 > 0.105882
|   |   |   |   |   |   |   |   |   |   |   |   |   |   pixel490 <= 0.070588
|   |   |   |   |   |   |   |   |   |   |   |   |   |   |   pixel292 <= 0.212745: sad (7.0/2.0)
|   |   |   |   |   |   |   |   |   |   |   |   |   |   |   pixel292 > 0.212745: fear (4.0/1.0)
|   |   |   |   |   |   |   |   |   |   |   |   |   |   pixel490 > 0.070588
|   |   |   |   |   |   |   |   |   |   |   |   |   |   |   pixel550 <= 0.302941
|   |   |   |   |   |   |   |   |   |   |   |   |   |   |   |   pixel554 <= 0.129412
|   |   |   |   |   |   |   |   |   |   |   |   |   |   |   |   |   pixel467 <= 0.257843
|   |   |   |   |   |   |   |   |   |   |   |   |   |   |   |   |   |   pixel466 <= 0.110784: sad (4.0/2.0)
|   |   |   |   |   |   |   |   |   |   |   |   |   |   |   |   |   |   pixel466 > 0.110784
|   |   |   |   |   |   |   |   |   |   |   |   |   |   |   |   |   |   |   pixel294 <= 0.330392
|   |   |   |   |   |   |   |   |   |   |   |   |   |   |   |   |   |   |   |   pixel416 <= 0.229412: happy (4.0/1.0)
|   |   |   |   |   |   |   |   |   |   |   |   |   |   |   |   |   |   |   |   pixel416 > 0.229412: neutral (6.0)
|   |   |   |   |   |   |   |   |   |   |   |   |   |   |   |   |   |   |   pixel294 > 0.330392: happy (7.0)
|   |   |   |   |   |   |   |   |   |   |   |   |   |   |   |   |   pixel467 > 0.257843: sad (4.0)
|   |   |   |   |   |   |   |   |   |   |   |   |   |   |   |   pixel554 > 0.129412: sad (15.0/2.0)
|   |   |   |   |   |   |   |   |   |   |   |   |   |   |   pixel550 > 0.302941: sad (17.0/1.0)
|   |   |   |   |   |   |   |   |   |   |   |   pixel535 > 0.060784
|   |   |   |   |   |   |   |   |   |   |   |   |   pixel156 <= 0.145098
|   |   |   |   |   |   |   |   |   |   |   |   |   |   pixel351 <= 0.448039
|   |   |   |   |   |   |   |   |   |   |   |   |   |   |   pixel131 <= 0.090196
|   |   |   |   |   |   |   |   |   |   |   |   |   |   |   |   pixel552 <= 0.298039: happy (5.0)
|   |   |   |   |   |   |   |   |   |   |   |   |   |   |   |   pixel552 > 0.298039: neutral (4.0)
|   |   |   |   |   |   |   |   |   |   |   |   |   |   |   pixel131 > 0.090196
|   |   |   |   |   |   |   |   |   |   |   |   |   |   |   |   pixel59 <= 0.419608
|   |   |   |   |   |   |   |   |   |   |   |   |   |   |   |   |   pixel466 <= 0.116667
|   |   |   |   |   |   |   |   |   |   |   |   |   |   |   |   |   |   pixel179 <= 0.166667: happy (4.0/2.0)
|   |   |   |   |   |   |   |   |   |   |   |   |   |   |   |   |   |   pixel179 > 0.166667: suprise (4.0/1.0)
|   |   |   |   |   |   |   |   |   |   |   |   |   |   |   |   |   pixel466 > 0.116667
|   |   |   |   |   |   |   |   |   |   |   |   |   |   |   |   |   |   pixel481 <= 0.223529
|   |   |   |   |   |   |   |   |   |   |   |   |   |   |   |   |   |   |   pixel384 <= 0.082353: happy (5.0/1.0)
|   |   |   |   |   |   |   |   |   |   |   |   |   |   |   |   |   |   |   pixel384 > 0.082353: angry (11.0/1.0)
|   |   |   |   |   |   |   |   |   |   |   |   |   |   |   |   |   |   pixel481 > 0.223529
|   |   |   |   |   |   |   |   |   |   |   |   |   |   |   |   |   |   |   pixel1 <= 0.095098: sad (4.0/1.0)
|   |   |   |   |   |   |   |   |   |   |   |   |   |   |   |   |   |   |   pixel1 > 0.095098: happy (7.0)
|   |   |   |   |   |   |   |   |   |   |   |   |   |   |   |   pixel59 > 0.419608: sad (5.0/1.0)
|   |   |   |   |   |   |   |   |   |   |   |   |   |   pixel351 > 0.448039: sad (8.0)
|   |   |   |   |   |   |   |   |   |   |   |   |   pixel156 > 0.145098
|   |   |   |   |   |   |   |   |   |   |   |   |   |   pixel432 <= 0.935294
|   |   |   |   |   |   |   |   |   |   |   |   |   |   |   pixel492 <= 0.066667
|   |   |   |   |   |   |   |   |   |   |   |   |   |   |   |   pixel320 <= 0.331373: angry (6.0/4.0)
|   |   |   |   |   |   |   |   |   |   |   |   |   |   |   |   pixel320 > 0.331373: fear (7.0/2.0)
|   |   |   |   |   |   |   |   |   |   |   |   |   |   |   pixel492 > 0.066667
|   |   |   |   |   |   |   |   |   |   |   |   |   |   |   |   pixel467 <= 0.362745
|   |   |   |   |   |   |   |   |   |   |   |   |   |   |   |   |   pixel490 <= 0.048039: sad (8.0/2.0)
|   |   |   |   |   |   |   |   |   |   |   |   |   |   |   |   |   pixel490 > 0.048039
|   |   |   |   |   |   |   |   |   |   |   |   |   |   |   |   |   |   pixel59 <= 0.737255
|   |   |   |   |   |   |   |   |   |   |   |   |   |   |   |   |   |   |   pixel544 <= 0.090196
|   |   |   |   |   |   |   |   |   |   |   |   |   |   |   |   |   |   |   |   pixel227 <= 0.448039
|   |   |   |   |   |   |   |   |   |   |   |   |   |   |   |   |   |   |   |   |   pixel504 <= 0.034314: neutral (7.0)
|   |   |   |   |   |   |   |   |   |   |   |   |   |   |   |   |   |   |   |   |   pixel504 > 0.034314
|   |   |   |   |   |   |   |   |   |   |   |   |   |   |   |   |   |   |   |   |   |   pixel544 <= 0.083333
|   |   |   |   |   |   |   |   |   |   |   |   |   |   |   |   |   |   |   |   |   |   |   pixel563 <= 0.186275
|   |   |   |   |   |   |   |   |   |   |   |   |   |   |   |   |   |   |   |   |   |   |   |   pixel23 <= 0.720588
|   |   |   |   |   |   |   |   |   |   |   |   |   |   |   |   |   |   |   |   |   |   |   |   |   pixel567 <= 0.085294
|   |   |   |   |   |   |   |   |   |   |   |   |   |   |   |   |   |   |   |   |   |   |   |   |   |   pixel391 <= 0.32451: angry (9.0/1.0)
|   |   |   |   |   |   |   |   |   |   |   |   |   |   |   |   |   |   |   |   |   |   |   |   |   |   pixel391 > 0.32451: neutral (4.0/1.0)
|   |   |   |   |   |   |   |   |   |   |   |   |   |   |   |   |   |   |   |   |   |   |   |   |   pixel567 > 0.085294: neutral (7.0)
|   |   |   |   |   |   |   |   |   |   |   |   |   |   |   |   |   |   |   |   |   |   |   |   pixel23 > 0.720588: happy (4.0/1.0)
|   |   |   |   |   |   |   |   |   |   |   |   |   |   |   |   |   |   |   |   |   |   |   pixel563 > 0.186275
|   |   |   |   |   |   |   |   |   |   |   |   |   |   |   |   |   |   |   |   |   |   |   |   pixel401 <= 0.145098: sad (5.0/1.0)
|   |   |   |   |   |   |   |   |   |   |   |   |   |   |   |   |   |   |   |   |   |   |   |   pixel401 > 0.145098
|   |   |   |   |   |   |   |   |   |   |   |   |   |   |   |   |   |   |   |   |   |   |   |   |   pixel22 <= 0.223529: happy (5.0)
|   |   |   |   |   |   |   |   |   |   |   |   |   |   |   |   |   |   |   |   |   |   |   |   |   pixel22 > 0.223529: angry (5.0/1.0)
|   |   |   |   |   |   |   |   |   |   |   |   |   |   |   |   |   |   |   |   |   |   pixel544 > 0.083333: happy (6.0)
|   |   |   |   |   |   |   |   |   |   |   |   |   |   |   |   |   |   |   |   pixel227 > 0.448039: sad (5.0)
|   |   |   |   |   |   |   |   |   |   |   |   |   |   |   |   |   |   |   pixel544 > 0.090196
|   |   |   |   |   |   |   |   |   |   |   |   |   |   |   |   |   |   |   |   pixel351 <= 0.235294
|   |   |   |   |   |   |   |   |   |   |   |   |   |   |   |   |   |   |   |   |   pixel522 <= 0.47549
|   |   |   |   |   |   |   |   |   |   |   |   |   |   |   |   |   |   |   |   |   |   pixel383 <= 0.210784
|   |   |   |   |   |   |   |   |   |   |   |   |   |   |   |   |   |   |   |   |   |   |   pixel469 <= 0.15
|   |   |   |   |   |   |   |   |   |   |   |   |   |   |   |   |   |   |   |   |   |   |   |   pixel401 <= 0.167647: sad (7.0)
|   |   |   |   |   |   |   |   |   |   |   |   |   |   |   |   |   |   |   |   |   |   |   |   pixel401 > 0.167647: neutral (6.0/2.0)
|   |   |   |   |   |   |   |   |   |   |   |   |   |   |   |   |   |   |   |   |   |   |   pixel469 > 0.15
|   |   |   |   |   |   |   |   |   |   |   |   |   |   |   |   |   |   |   |   |   |   |   |   pixel173 <= 0.148039: sad (5.0/2.0)
|   |   |   |   |   |   |   |   |   |   |   |   |   |   |   |   |   |   |   |   |   |   |   |   pixel173 > 0.148039
|   |   |   |   |   |   |   |   |   |   |   |   |   |   |   |   |   |   |   |   |   |   |   |   |   pixel203 <= 0.336275
|   |   |   |   |   |   |   |   |   |   |   |   |   |   |   |   |   |   |   |   |   |   |   |   |   |   pixel0 <= 0.189216: fear (8.0/2.0)
|   |   |   |   |   |   |   |   |   |   |   |   |   |   |   |   |   |   |   |   |   |   |   |   |   |   pixel0 > 0.189216: happy (7.0)
|   |   |   |   |   |   |   |   |   |   |   |   |   |   |   |   |   |   |   |   |   |   |   |   |   pixel203 > 0.336275: sad (5.0/2.0)
|   |   |   |   |   |   |   |   |   |   |   |   |   |   |   |   |   |   |   |   |   |   pixel383 > 0.210784
|   |   |   |   |   |   |   |   |   |   |   |   |   |   |   |   |   |   |   |   |   |   |   pixel244 <= 0.257843
|   |   |   |   |   |   |   |   |   |   |   |   |   |   |   |   |   |   |   |   |   |   |   |   pixel368 <= 0.15098: angry (4.0/1.0)
|   |   |   |   |   |   |   |   |   |   |   |   |   |   |   |   |   |   |   |   |   |   |   |   pixel368 > 0.15098
|   |   |   |   |   |   |   |   |   |   |   |   |   |   |   |   |   |   |   |   |   |   |   |   |   pixel424 <= 0.264706
|   |   |   |   |   |   |   |   |   |   |   |   |   |   |   |   |   |   |   |   |   |   |   |   |   |   pixel416 <= 0.155882: happy (4.0/1.0)
|   |   |   |   |   |   |   |   |   |   |   |   |   |   |   |   |   |   |   |   |   |   |   |   |   |   pixel416 > 0.155882
|   |   |   |   |   |   |   |   |   |   |   |   |   |   |   |   |   |   |   |   |   |   |   |   |   |   |   pixel181 <= 0.305882: neutral (13.0)
|   |   |   |   |   |   |   |   |   |   |   |   |   |   |   |   |   |   |   |   |   |   |   |   |   |   |   pixel181 > 0.305882: happy (4.0/2.0)
|   |   |   |   |   |   |   |   |   |   |   |   |   |   |   |   |   |   |   |   |   |   |   |   |   pixel424 > 0.264706: happy (6.0/2.0)
|   |   |   |   |   |   |   |   |   |   |   |   |   |   |   |   |   |   |   |   |   |   |   pixel244 > 0.257843
|   |   |   |   |   |   |   |   |   |   |   |   |   |   |   |   |   |   |   |   |   |   |   |   pixel356 <= 0.45098
|   |   |   |   |   |   |   |   |   |   |   |   |   |   |   |   |   |   |   |   |   |   |   |   |   pixel179 <= 0.367647: happy (21.0/6.0)
|   |   |   |   |   |   |   |   |   |   |   |   |   |   |   |   |   |   |   |   |   |   |   |   |   pixel179 > 0.367647: angry (4.0/2.0)
|   |   |   |   |   |   |   |   |   |   |   |   |   |   |   |   |   |   |   |   |   |   |   |   pixel356 > 0.45098: angry (5.0)
|   |   |   |   |   |   |   |   |   |   |   |   |   |   |   |   |   |   |   |   |   pixel522 > 0.47549: sad (6.0/2.0)
|   |   |   |   |   |   |   |   |   |   |   |   |   |   |   |   |   |   |   |   pixel351 > 0.235294
|   |   |   |   |   |   |   |   |   |   |   |   |   |   |   |   |   |   |   |   |   pixel515 <= 0.083333: sad (7.0/4.0)
|   |   |   |   |   |   |   |   |   |   |   |   |   |   |   |   |   |   |   |   |   pixel515 > 0.083333
|   |   |   |   |   |   |   |   |   |   |   |   |   |   |   |   |   |   |   |   |   |   pixel558 <= 0.034314
|   |   |   |   |   |   |   |   |   |   |   |   |   |   |   |   |   |   |   |   |   |   |   pixel424 <= 0.35098: sad (6.0/2.0)
|   |   |   |   |   |   |   |   |   |   |   |   |   |   |   |   |   |   |   |   |   |   |   pixel424 > 0.35098
|   |   |   |   |   |   |   |   |   |   |   |   |   |   |   |   |   |   |   |   |   |   |   |   pixel225 <= 0.146078: fear (6.0)
|   |   |   |   |   |   |   |   |   |   |   |   |   |   |   |   |   |   |   |   |   |   |   |   pixel225 > 0.146078: angry (4.0/1.0)
|   |   |   |   |   |   |   |   |   |   |   |   |   |   |   |   |   |   |   |   |   |   pixel558 > 0.034314
|   |   |   |   |   |   |   |   |   |   |   |   |   |   |   |   |   |   |   |   |   |   |   pixel558 <= 0.112745
|   |   |   |   |   |   |   |   |   |   |   |   |   |   |   |   |   |   |   |   |   |   |   |   pixel400 <= 0.465686
|   |   |   |   |   |   |   |   |   |   |   |   |   |   |   |   |   |   |   |   |   |   |   |   |   pixel468 <= 0.257843
|   |   |   |   |   |   |   |   |   |   |   |   |   |   |   |   |   |   |   |   |   |   |   |   |   |   pixel192 <= 0.067647: fear (6.0/3.0)
|   |   |   |   |   |   |   |   |   |   |   |   |   |   |   |   |   |   |   |   |   |   |   |   |   |   pixel192 > 0.067647
|   |   |   |   |   |   |   |   |   |   |   |   |   |   |   |   |   |   |   |   |   |   |   |   |   |   |   pixel466 <= 0.191176: neutral (10.0)
|   |   |   |   |   |   |   |   |   |   |   |   |   |   |   |   |   |   |   |   |   |   |   |   |   |   |   pixel466 > 0.191176: happy (5.0/2.0)
|   |   |   |   |   |   |   |   |   |   |   |   |   |   |   |   |   |   |   |   |   |   |   |   |   pixel468 > 0.257843
|   |   |   |   |   |   |   |   |   |   |   |   |   |   |   |   |   |   |   |   |   |   |   |   |   |   pixel468 <= 0.293137: happy (6.0/2.0)
|   |   |   |   |   |   |   |   |   |   |   |   |   |   |   |   |   |   |   |   |   |   |   |   |   |   pixel468 > 0.293137: sad (6.0)
|   |   |   |   |   |   |   |   |   |   |   |   |   |   |   |   |   |   |   |   |   |   |   |   pixel400 > 0.465686
|   |   |   |   |   |   |   |   |   |   |   |   |   |   |   |   |   |   |   |   |   |   |   |   |   pixel181 <= 0.3: neutral (9.0/1.0)
|   |   |   |   |   |   |   |   |   |   |   |   |   |   |   |   |   |   |   |   |   |   |   |   |   pixel181 > 0.3
|   |   |   |   |   |   |   |   |   |   |   |   |   |   |   |   |   |   |   |   |   |   |   |   |   |   pixel493 <= 0.264706: neutral (5.0/1.0)
|   |   |   |   |   |   |   |   |   |   |   |   |   |   |   |   |   |   |   |   |   |   |   |   |   |   pixel493 > 0.264706: fear (4.0)
|   |   |   |   |   |   |   |   |   |   |   |   |   |   |   |   |   |   |   |   |   |   |   pixel558 > 0.112745
|   |   |   |   |   |   |   |   |   |   |   |   |   |   |   |   |   |   |   |   |   |   |   |   pixel220 <= 0.596078
|   |   |   |   |   |   |   |   |   |   |   |   |   |   |   |   |   |   |   |   |   |   |   |   |   pixel444 <= 0.122549
|   |   |   |   |   |   |   |   |   |   |   |   |   |   |   |   |   |   |   |   |   |   |   |   |   |   pixel4 <= 0.430392
|   |   |   |   |   |   |   |   |   |   |   |   |   |   |   |   |   |   |   |   |   |   |   |   |   |   |   pixel252 <= 0.418627: sad (7.0/1.0)
|   |   |   |   |   |   |   |   |   |   |   |   |   |   |   |   |   |   |   |   |   |   |   |   |   |   |   pixel252 > 0.418627: fear (4.0/1.0)
|   |   |   |   |   |   |   |   |   |   |   |   |   |   |   |   |   |   |   |   |   |   |   |   |   |   pixel4 > 0.430392: angry (4.0)
|   |   |   |   |   |   |   |   |   |   |   |   |   |   |   |   |   |   |   |   |   |   |   |   |   pixel444 > 0.122549
|   |   |   |   |   |   |   |   |   |   |   |   |   |   |   |   |   |   |   |   |   |   |   |   |   |   pixel203 <= 0.178431
|   |   |   |   |   |   |   |   |   |   |   |   |   |   |   |   |   |   |   |   |   |   |   |   |   |   |   pixel0 <= 0.483333
|   |   |   |   |   |   |   |   |   |   |   |   |   |   |   |   |   |   |   |   |   |   |   |   |   |   |   |   pixel559 <= 0.315686: sad (9.0/1.0)
|   |   |   |   |   |   |   |   |   |   |   |   |   |   |   |   |   |   |   |   |   |   |   |   |   |   |   |   pixel559 > 0.315686: happy (7.0/2.0)
|   |   |   |   |   |   |   |   |   |   |   |   |   |   |   |   |   |   |   |   |   |   |   |   |   |   |   pixel0 > 0.483333: neutral (5.0/2.0)
|   |   |   |   |   |   |   |   |   |   |   |   |   |   |   |   |   |   |   |   |   |   |   |   |   |   pixel203 > 0.178431
|   |   |   |   |   |   |   |   |   |   |   |   |   |   |   |   |   |   |   |   |   |   |   |   |   |   |   pixel490 <= 0.418627
|   |   |   |   |   |   |   |   |   |   |   |   |   |   |   |   |   |   |   |   |   |   |   |   |   |   |   |   pixel468 <= 0.120588
|   |   |   |   |   |   |   |   |   |   |   |   |   |   |   |   |   |   |   |   |   |   |   |   |   |   |   |   |   pixel173 <= 0.280392: fear (5.0/2.0)
|   |   |   |   |   |   |   |   |   |   |   |   |   |   |   |   |   |   |   |   |   |   |   |   |   |   |   |   |   pixel173 > 0.280392: sad (4.0/2.0)
|   |   |   |   |   |   |   |   |   |   |   |   |   |   |   |   |   |   |   |   |   |   |   |   |   |   |   |   pixel468 > 0.120588
|   |   |   |   |   |   |   |   |   |   |   |   |   |   |   |   |   |   |   |   |   |   |   |   |   |   |   |   |   pixel453 <= 0.573529
|   |   |   |   |   |   |   |   |   |   |   |   |   |   |   |   |   |   |   |   |   |   |   |   |   |   |   |   |   |   pixel192 <= 0.638235
|   |   |   |   |   |   |   |   |   |   |   |   |   |   |   |   |   |   |   |   |   |   |   |   |   |   |   |   |   |   |   pixel493 <= 0.107843: angry (4.0)
|   |   |   |   |   |   |   |   |   |   |   |   |   |   |   |   |   |   |   |   |   |   |   |   |   |   |   |   |   |   |   pixel493 > 0.107843
|   |   |   |   |   |   |   |   |   |   |   |   |   |   |   |   |   |   |   |   |   |   |   |   |   |   |   |   |   |   |   |   pixel415 <= 0.246078
|   |   |   |   |   |   |   |   |   |   |   |   |   |   |   |   |   |   |   |   |   |   |   |   |   |   |   |   |   |   |   |   |   pixel504 <= 0.141176: sad (11.0/2.0)
|   |   |   |   |   |   |   |   |   |   |   |   |   |   |   |   |   |   |   |   |   |   |   |   |   |   |   |   |   |   |   |   |   pixel504 > 0.141176
|   |   |   |   |   |   |   |   |   |   |   |   |   |   |   |   |   |   |   |   |   |   |   |   |   |   |   |   |   |   |   |   |   |   pixel344 <= 0.164706: angry (4.0/1.0)
|   |   |   |   |   |   |   |   |   |   |   |   |   |   |   |   |   |   |   |   |   |   |   |   |   |   |   |   |   |   |   |   |   |   pixel344 > 0.164706
|   |   |   |   |   |   |   |   |   |   |   |   |   |   |   |   |   |   |   |   |   |   |   |   |   |   |   |   |   |   |   |   |   |   |   pixel567 <= 0.284314
|   |   |   |   |   |   |   |   |   |   |   |   |   |   |   |   |   |   |   |   |   |   |   |   |   |   |   |   |   |   |   |   |   |   |   |   pixel391 <= 0.193137: happy (6.0/3.0)
|   |   |   |   |   |   |   |   |   |   |   |   |   |   |   |   |   |   |   |   |   |   |   |   |   |   |   |   |   |   |   |   |   |   |   |   pixel391 > 0.193137: neutral (25.0/4.0)
|   |   |   |   |   |   |   |   |   |   |   |   |   |   |   |   |   |   |   |   |   |   |   |   |   |   |   |   |   |   |   |   |   |   |   pixel567 > 0.284314
|   |   |   |   |   |   |   |   |   |   |   |   |   |   |   |   |   |   |   |   |   |   |   |   |   |   |   |   |   |   |   |   |   |   |   |   pixel37 <= 0.42549: angry (8.0/4.0)
|   |   |   |   |   |   |   |   |   |   |   |   |   |   |   |   |   |   |   |   |   |   |   |   |   |   |   |   |   |   |   |   |   |   |   |   pixel37 > 0.42549: neutral (6.0)
|   |   |   |   |   |   |   |   |   |   |   |   |   |   |   |   |   |   |   |   |   |   |   |   |   |   |   |   |   |   |   |   pixel415 > 0.246078
|   |   |   |   |   |   |   |   |   |   |   |   |   |   |   |   |   |   |   |   |   |   |   |   |   |   |   |   |   |   |   |   |   pixel466 <= 0.105882: disgust (5.0/3.0)
|   |   |   |   |   |   |   |   |   |   |   |   |   |   |   |   |   |   |   |   |   |   |   |   |   |   |   |   |   |   |   |   |   pixel466 > 0.105882
|   |   |   |   |   |   |   |   |   |   |   |   |   |   |   |   |   |   |   |   |   |   |   |   |   |   |   |   |   |   |   |   |   |   pixel0 <= 0.729412
|   |   |   |   |   |   |   |   |   |   |   |   |   |   |   |   |   |   |   |   |   |   |   |   |   |   |   |   |   |   |   |   |   |   |   pixel424 <= 0.2: disgust (5.0/2.0)
|   |   |   |   |   |   |   |   |   |   |   |   |   |   |   |   |   |   |   |   |   |   |   |   |   |   |   |   |   |   |   |   |   |   |   pixel424 > 0.2
|   |   |   |   |   |   |   |   |   |   |   |   |   |   |   |   |   |   |   |   |   |   |   |   |   |   |   |   |   |   |   |   |   |   |   |   pixel180 <= 0.272549
|   |   |   |   |   |   |   |   |   |   |   |   |   |   |   |   |   |   |   |   |   |   |   |   |   |   |   |   |   |   |   |   |   |   |   |   |   pixel467 <= 0.208824: angry (7.0/1.0)
|   |   |   |   |   |   |   |   |   |   |   |   |   |   |   |   |   |   |   |   |   |   |   |   |   |   |   |   |   |   |   |   |   |   |   |   |   pixel467 > 0.208824
|   |   |   |   |   |   |   |   |   |   |   |   |   |   |   |   |   |   |   |   |   |   |   |   |   |   |   |   |   |   |   |   |   |   |   |   |   |   pixel59 <= 0.287255: angry (5.0/2.0)
|   |   |   |   |   |   |   |   |   |   |   |   |   |   |   |   |   |   |   |   |   |   |   |   |   |   |   |   |   |   |   |   |   |   |   |   |   |   pixel59 > 0.287255: sad (5.0)
|   |   |   |   |   |   |   |   |   |   |   |   |   |   |   |   |   |   |   |   |   |   |   |   |   |   |   |   |   |   |   |   |   |   |   |   pixel180 > 0.272549
|   |   |   |   |   |   |   |   |   |   |   |   |   |   |   |   |   |   |   |   |   |   |   |   |   |   |   |   |   |   |   |   |   |   |   |   |   pixel383 <= 0.277451
|   |   |   |   |   |   |   |   |   |   |   |   |   |   |   |   |   |   |   |   |   |   |   |   |   |   |   |   |   |   |   |   |   |   |   |   |   |   pixel23 <= 0.402941
|   |   |   |   |   |   |   |   |   |   |   |   |   |   |   |   |   |   |   |   |   |   |   |   |   |   |   |   |   |   |   |   |   |   |   |   |   |   |   pixel312 <= 0.257843: angry (7.0/2.0)
|   |   |   |   |   |   |   |   |   |   |   |   |   |   |   |   |   |   |   |   |   |   |   |   |   |   |   |   |   |   |   |   |   |   |   |   |   |   |   pixel312 > 0.257843: neutral (5.0)
|   |   |   |   |   |   |   |   |   |   |   |   |   |   |   |   |   |   |   |   |   |   |   |   |   |   |   |   |   |   |   |   |   |   |   |   |   |   pixel23 > 0.402941: sad (5.0/1.0)
|   |   |   |   |   |   |   |   |   |   |   |   |   |   |   |   |   |   |   |   |   |   |   |   |   |   |   |   |   |   |   |   |   |   |   |   |   pixel383 > 0.277451
|   |   |   |   |   |   |   |   |   |   |   |   |   |   |   |   |   |   |   |   |   |   |   |   |   |   |   |   |   |   |   |   |   |   |   |   |   |   pixel227 <= 0.55098
|   |   |   |   |   |   |   |   |   |   |   |   |   |   |   |   |   |   |   |   |   |   |   |   |   |   |   |   |   |   |   |   |   |   |   |   |   |   |   pixel204 <= 0.347059
|   |   |   |   |   |   |   |   |   |   |   |   |   |   |   |   |   |   |   |   |   |   |   |   |   |   |   |   |   |   |   |   |   |   |   |   |   |   |   |   pixel294 <= 0.393137: neutral (7.0/1.0)
|   |   |   |   |   |   |   |   |   |   |   |   |   |   |   |   |   |   |   |   |   |   |   |   |   |   |   |   |   |   |   |   |   |   |   |   |   |   |   |   pixel294 > 0.393137: sad (4.0)
|   |   |   |   |   |   |   |   |   |   |   |   |   |   |   |   |   |   |   |   |   |   |   |   |   |   |   |   |   |   |   |   |   |   |   |   |   |   |   pixel204 > 0.347059: sad (21.0/1.0)
|   |   |   |   |   |   |   |   |   |   |   |   |   |   |   |   |   |   |   |   |   |   |   |   |   |   |   |   |   |   |   |   |   |   |   |   |   |   pixel227 > 0.55098: neutral (4.0)
|   |   |   |   |   |   |   |   |   |   |   |   |   |   |   |   |   |   |   |   |   |   |   |   |   |   |   |   |   |   |   |   |   |   pixel0 > 0.729412: fear (4.0/2.0)
|   |   |   |   |   |   |   |   |   |   |   |   |   |   |   |   |   |   |   |   |   |   |   |   |   |   |   |   |   |   pixel192 > 0.638235
|   |   |   |   |   |   |   |   |   |   |   |   |   |   |   |   |   |   |   |   |   |   |   |   |   |   |   |   |   |   |   pixel558 <= 0.191176: sad (4.0)
|   |   |   |   |   |   |   |   |   |   |   |   |   |   |   |   |   |   |   |   |   |   |   |   |   |   |   |   |   |   |   pixel558 > 0.191176
|   |   |   |   |   |   |   |   |   |   |   |   |   |   |   |   |   |   |   |   |   |   |   |   |   |   |   |   |   |   |   |   pixel180 <= 0.347059: angry (4.0)
|   |   |   |   |   |   |   |   |   |   |   |   |   |   |   |   |   |   |   |   |   |   |   |   |   |   |   |   |   |   |   |   pixel180 > 0.347059: happy (5.0/2.0)
|   |   |   |   |   |   |   |   |   |   |   |   |   |   |   |   |   |   |   |   |   |   |   |   |   |   |   |   |   pixel453 > 0.573529
|   |   |   |   |   |   |   |   |   |   |   |   |   |   |   |   |   |   |   |   |   |   |   |   |   |   |   |   |   |   pixel368 <= 0.29902
|   |   |   |   |   |   |   |   |   |   |   |   |   |   |   |   |   |   |   |   |   |   |   |   |   |   |   |   |   |   |   pixel320 <= 0.259804: angry (5.0/1.0)
|   |   |   |   |   |   |   |   |   |   |   |   |   |   |   |   |   |   |   |   |   |   |   |   |   |   |   |   |   |   |   pixel320 > 0.259804: neutral (23.0/3.0)
|   |   |   |   |   |   |   |   |   |   |   |   |   |   |   |   |   |   |   |   |   |   |   |   |   |   |   |   |   |   pixel368 > 0.29902: sad (4.0/2.0)
|   |   |   |   |   |   |   |   |   |   |   |   |   |   |   |   |   |   |   |   |   |   |   |   |   |   |   pixel490 > 0.418627: fear (5.0/3.0)
|   |   |   |   |   |   |   |   |   |   |   |   |   |   |   |   |   |   |   |   |   |   |   |   pixel220 > 0.596078
|   |   |   |   |   |   |   |   |   |   |   |   |   |   |   |   |   |   |   |   |   |   |   |   |   pixel356 <= 0.473529
|   |   |   |   |   |   |   |   |   |   |   |   |   |   |   |   |   |   |   |   |   |   |   |   |   |   pixel356 <= 0.240196: sad (4.0/1.0)
|   |   |   |   |   |   |   |   |   |   |   |   |   |   |   |   |   |   |   |   |   |   |   |   |   |   pixel356 > 0.240196
|   |   |   |   |   |   |   |   |   |   |   |   |   |   |   |   |   |   |   |   |   |   |   |   |   |   |   pixel312 <= 0.726471: fear (7.0)
|   |   |   |   |   |   |   |   |   |   |   |   |   |   |   |   |   |   |   |   |   |   |   |   |   |   |   pixel312 > 0.726471: neutral (4.0/1.0)
|   |   |   |   |   |   |   |   |   |   |   |   |   |   |   |   |   |   |   |   |   |   |   |   |   pixel356 > 0.473529: angry (5.0/3.0)
|   |   |   |   |   |   |   |   |   |   |   |   |   |   |   |   |   |   pixel59 > 0.737255
|   |   |   |   |   |   |   |   |   |   |   |   |   |   |   |   |   |   |   pixel228 <= 0.368627: angry (4.0/1.0)
|   |   |   |   |   |   |   |   |   |   |   |   |   |   |   |   |   |   |   pixel228 > 0.368627: happy (6.0/1.0)
|   |   |   |   |   |   |   |   |   |   |   |   |   |   |   |   pixel467 > 0.362745
|   |   |   |   |   |   |   |   |   |   |   |   |   |   |   |   |   pixel566 <= 0.418627
|   |   |   |   |   |   |   |   |   |   |   |   |   |   |   |   |   |   pixel493 <= 0.291176
|   |   |   |   |   |   |   |   |   |   |   |   |   |   |   |   |   |   |   pixel367 <= 0.397059
|   |   |   |   |   |   |   |   |   |   |   |   |   |   |   |   |   |   |   |   pixel0 <= 0.258824: happy (18.0/2.0)
|   |   |   |   |   |   |   |   |   |   |   |   |   |   |   |   |   |   |   |   pixel0 > 0.258824
|   |   |   |   |   |   |   |   |   |   |   |   |   |   |   |   |   |   |   |   |   pixel424 <= 0.143137: happy (4.0)
|   |   |   |   |   |   |   |   |   |   |   |   |   |   |   |   |   |   |   |   |   pixel424 > 0.143137
|   |   |   |   |   |   |   |   |   |   |   |   |   |   |   |   |   |   |   |   |   |   pixel179 <= 0.340196: neutral (6.0/2.0)
|   |   |   |   |   |   |   |   |   |   |   |   |   |   |   |   |   |   |   |   |   |   pixel179 > 0.340196: happy (5.0/2.0)
|   |   |   |   |   |   |   |   |   |   |   |   |   |   |   |   |   |   |   pixel367 > 0.397059: neutral (7.0/2.0)
|   |   |   |   |   |   |   |   |   |   |   |   |   |   |   |   |   |   pixel493 > 0.291176: angry (5.0/1.0)
|   |   |   |   |   |   |   |   |   |   |   |   |   |   |   |   |   pixel566 > 0.418627: disgust (7.0/5.0)
|   |   |   |   |   |   |   |   |   |   |   |   |   |   pixel432 > 0.935294
|   |   |   |   |   |   |   |   |   |   |   |   |   |   |   pixel312 <= 0.720588: angry (5.0/1.0)
|   |   |   |   |   |   |   |   |   |   |   |   |   |   |   pixel312 > 0.720588: sad (4.0)
|   |   |   |   |   |   |   |   |   pixel567 > 0.540196
|   |   |   |   |   |   |   |   |   |   pixel504 <= 0.07549: angry (7.0)
|   |   |   |   |   |   |   |   |   |   pixel504 > 0.07549
|   |   |   |   |   |   |   |   |   |   |   pixel481 <= 0.123529: sad (7.0/2.0)
|   |   |   |   |   |   |   |   |   |   |   pixel481 > 0.123529
|   |   |   |   |   |   |   |   |   |   |   |   pixel225 <= 0.168627: sad (11.0/5.0)
|   |   |   |   |   |   |   |   |   |   |   |   pixel225 > 0.168627: happy (20.0/3.0)
|   |   |   |   |   |   |   |   pixel544 > 0.734314
|   |   |   |   |   |   |   |   |   pixel504 <= 0.316667
|   |   |   |   |   |   |   |   |   |   pixel203 <= 0.546078: angry (4.0/2.0)
|   |   |   |   |   |   |   |   |   |   pixel203 > 0.546078: happy (4.0)
|   |   |   |   |   |   |   |   |   pixel504 > 0.316667: suprise (7.0/3.0)
|   |   |   |   |   |   pixel119 > 0.92451
|   |   |   |   |   |   |   pixel244 <= 0.227451: fear (8.0/2.0)
|   |   |   |   |   |   |   pixel244 > 0.227451: happy (6.0/3.0)
|   |   |   |   |   pixel554 > 0.940196
|   |   |   |   |   |   pixel563 <= 0.292157: neutral (8.0)
|   |   |   |   |   |   pixel563 > 0.292157: happy (6.0/2.0)
|   |   |   |   pixel368 > 0.32549
|   |   |   |   |   pixel550 <= 0.962745
|   |   |   |   |   |   pixel351 <= 0.729412
|   |   |   |   |   |   |   pixel560 <= 0.065686
|   |   |   |   |   |   |   |   pixel551 <= 0.928431
|   |   |   |   |   |   |   |   |   pixel192 <= 0.771569
|   |   |   |   |   |   |   |   |   |   pixel453 <= 0.484314
|   |   |   |   |   |   |   |   |   |   |   pixel294 <= 0.472549
|   |   |   |   |   |   |   |   |   |   |   |   pixel415 <= 0.318627
|   |   |   |   |   |   |   |   |   |   |   |   |   pixel493 <= 0.112745: angry (4.0/2.0)
|   |   |   |   |   |   |   |   |   |   |   |   |   pixel493 > 0.112745: sad (18.0/5.0)
|   |   |   |   |   |   |   |   |   |   |   |   pixel415 > 0.318627
|   |   |   |   |   |   |   |   |   |   |   |   |   pixel343 <= 0.433333: neutral (4.0/1.0)
|   |   |   |   |   |   |   |   |   |   |   |   |   pixel343 > 0.433333: happy (5.0/1.0)
|   |   |   |   |   |   |   |   |   |   |   pixel294 > 0.472549
|   |   |   |   |   |   |   |   |   |   |   |   pixel344 <= 0.442157: fear (5.0/2.0)
|   |   |   |   |   |   |   |   |   |   |   |   pixel344 > 0.442157: sad (13.0)
|   |   |   |   |   |   |   |   |   |   pixel453 > 0.484314
|   |   |   |   |   |   |   |   |   |   |   pixel558 <= 0.035294: sad (6.0/1.0)
|   |   |   |   |   |   |   |   |   |   |   pixel558 > 0.035294: disgust (7.0/3.0)
|   |   |   |   |   |   |   |   |   pixel192 > 0.771569: disgust (4.0/2.0)
|   |   |   |   |   |   |   |   pixel551 > 0.928431: angry (6.0)
|   |   |   |   |   |   |   pixel560 > 0.065686
|   |   |   |   |   |   |   |   pixel367 <= 0.27549
|   |   |   |   |   |   |   |   |   pixel416 <= 0.523529
|   |   |   |   |   |   |   |   |   |   pixel22 <= 0.347059
|   |   |   |   |   |   |   |   |   |   |   pixel59 <= 0.272549
|   |   |   |   |   |   |   |   |   |   |   |   pixel0 <= 0.183333: angry (4.0/2.0)
|   |   |   |   |   |   |   |   |   |   |   |   pixel0 > 0.183333: sad (4.0/2.0)
|   |   |   |   |   |   |   |   |   |   |   pixel59 > 0.272549
|   |   |   |   |   |   |   |   |   |   |   |   pixel181 <= 0.161765: angry (4.0/2.0)
|   |   |   |   |   |   |   |   |   |   |   |   pixel181 > 0.161765
|   |   |   |   |   |   |   |   |   |   |   |   |   pixel192 <= 0.10098: angry (4.0/2.0)
|   |   |   |   |   |   |   |   |   |   |   |   |   pixel192 > 0.10098
|   |   |   |   |   |   |   |   |   |   |   |   |   |   pixel558 <= 0.066667: sad (4.0/1.0)
|   |   |   |   |   |   |   |   |   |   |   |   |   |   pixel558 > 0.066667: happy (14.0)
|   |   |   |   |   |   |   |   |   |   pixel22 > 0.347059
|   |   |   |   |   |   |   |   |   |   |   pixel466 <= 0.331373: sad (15.0/2.0)
|   |   |   |   |   |   |   |   |   |   |   pixel466 > 0.331373: happy (4.0/1.0)
|   |   |   |   |   |   |   |   |   pixel416 > 0.523529: fear (4.0/2.0)
|   |   |   |   |   |   |   |   pixel367 > 0.27549
|   |   |   |   |   |   |   |   |   pixel312 <= 0.019608
|   |   |   |   |   |   |   |   |   |   pixel200 <= 0.385294
|   |   |   |   |   |   |   |   |   |   |   pixel415 <= 0.321569: sad (8.0/2.0)
|   |   |   |   |   |   |   |   |   |   |   pixel415 > 0.321569
|   |   |   |   |   |   |   |   |   |   |   |   pixel535 <= 0.418627: fear (12.0/1.0)
|   |   |   |   |   |   |   |   |   |   |   |   pixel535 > 0.418627: sad (4.0)
|   |   |   |   |   |   |   |   |   |   pixel200 > 0.385294: neutral (7.0/3.0)
|   |   |   |   |   |   |   |   |   pixel312 > 0.019608
|   |   |   |   |   |   |   |   |   |   pixel490 <= 0.181373
|   |   |   |   |   |   |   |   |   |   |   pixel504 <= 0.020588: angry (7.0/2.0)
|   |   |   |   |   |   |   |   |   |   |   pixel504 > 0.020588
|   |   |   |   |   |   |   |   |   |   |   |   pixel547 <= 0.004902: suprise (5.0)
|   |   |   |   |   |   |   |   |   |   |   |   pixel547 > 0.004902
|   |   |   |   |   |   |   |   |   |   |   |   |   pixel37 <= 0.623529
|   |   |   |   |   |   |   |   |   |   |   |   |   |   pixel312 <= 0.219608
|   |   |   |   |   |   |   |   |   |   |   |   |   |   |   pixel294 <= 0.627451
|   |   |   |   |   |   |   |   |   |   |   |   |   |   |   |   pixel131 <= 0.447059
|   |   |   |   |   |   |   |   |   |   |   |   |   |   |   |   |   pixel563 <= 0.208824: neutral (7.0/2.0)
|   |   |   |   |   |   |   |   |   |   |   |   |   |   |   |   |   pixel563 > 0.208824
|   |   |   |   |   |   |   |   |   |   |   |   |   |   |   |   |   |   pixel4 <= 0.110784: neutral (5.0/1.0)
|   |   |   |   |   |   |   |   |   |   |   |   |   |   |   |   |   |   pixel4 > 0.110784: sad (8.0)
|   |   |   |   |   |   |   |   |   |   |   |   |   |   |   |   pixel131 > 0.447059
|   |   |   |   |   |   |   |   |   |   |   |   |   |   |   |   |   pixel563 <= 0.271569: sad (7.0)
|   |   |   |   |   |   |   |   |   |   |   |   |   |   |   |   |   pixel563 > 0.271569
|   |   |   |   |   |   |   |   |   |   |   |   |   |   |   |   |   |   pixel569 <= 0.410784: suprise (5.0)
|   |   |   |   |   |   |   |   |   |   |   |   |   |   |   |   |   |   pixel569 > 0.410784: sad (5.0/1.0)
|   |   |   |   |   |   |   |   |   |   |   |   |   |   |   pixel294 > 0.627451: happy (6.0/2.0)
|   |   |   |   |   |   |   |   |   |   |   |   |   |   pixel312 > 0.219608
|   |   |   |   |   |   |   |   |   |   |   |   |   |   |   pixel444 <= 0.630392
|   |   |   |   |   |   |   |   |   |   |   |   |   |   |   |   pixel416 <= 0.465686
|   |   |   |   |   |   |   |   |   |   |   |   |   |   |   |   |   pixel563 <= 0.079412: sad (4.0)
|   |   |   |   |   |   |   |   |   |   |   |   |   |   |   |   |   pixel563 > 0.079412
|   |   |   |   |   |   |   |   |   |   |   |   |   |   |   |   |   |   pixel493 <= 0.234314
|   |   |   |   |   |   |   |   |   |   |   |   |   |   |   |   |   |   |   pixel48 <= 0.108824: fear (7.0/1.0)
|   |   |   |   |   |   |   |   |   |   |   |   |   |   |   |   |   |   |   pixel48 > 0.108824
|   |   |   |   |   |   |   |   |   |   |   |   |   |   |   |   |   |   |   |   pixel453 <= 0.610784
|   |   |   |   |   |   |   |   |   |   |   |   |   |   |   |   |   |   |   |   |   pixel490 <= 0.067647: fear (6.0/3.0)
|   |   |   |   |   |   |   |   |   |   |   |   |   |   |   |   |   |   |   |   |   pixel490 > 0.067647
|   |   |   |   |   |   |   |   |   |   |   |   |   |   |   |   |   |   |   |   |   |   pixel244 <= 0.361765
|   |   |   |   |   |   |   |   |   |   |   |   |   |   |   |   |   |   |   |   |   |   |   pixel391 <= 0.316667: happy (5.0/3.0)
|   |   |   |   |   |   |   |   |   |   |   |   |   |   |   |   |   |   |   |   |   |   |   pixel391 > 0.316667: neutral (5.0)
|   |   |   |   |   |   |   |   |   |   |   |   |   |   |   |   |   |   |   |   |   |   pixel244 > 0.361765
|   |   |   |   |   |   |   |   |   |   |   |   |   |   |   |   |   |   |   |   |   |   |   pixel252 <= 0.391176: angry (7.0/3.0)
|   |   |   |   |   |   |   |   |   |   |   |   |   |   |   |   |   |   |   |   |   |   |   pixel252 > 0.391176
|   |   |   |   |   |   |   |   |   |   |   |   |   |   |   |   |   |   |   |   |   |   |   |   pixel131 <= 0.392157: suprise (9.0)
|   |   |   |   |   |   |   |   |   |   |   |   |   |   |   |   |   |   |   |   |   |   |   |   pixel131 > 0.392157: angry (9.0/4.0)
|   |   |   |   |   |   |   |   |   |   |   |   |   |   |   |   |   |   |   |   pixel453 > 0.610784
|   |   |   |   |   |   |   |   |   |   |   |   |   |   |   |   |   |   |   |   |   pixel1 <= 0.64902: fear (6.0/1.0)
|   |   |   |   |   |   |   |   |   |   |   |   |   |   |   |   |   |   |   |   |   pixel1 > 0.64902: angry (5.0/2.0)
|   |   |   |   |   |   |   |   |   |   |   |   |   |   |   |   |   |   pixel493 > 0.234314
|   |   |   |   |   |   |   |   |   |   |   |   |   |   |   |   |   |   |   pixel155 <= 0.35: sad (5.0/1.0)
|   |   |   |   |   |   |   |   |   |   |   |   |   |   |   |   |   |   |   pixel155 > 0.35: fear (7.0/1.0)
|   |   |   |   |   |   |   |   |   |   |   |   |   |   |   |   pixel416 > 0.465686
|   |   |   |   |   |   |   |   |   |   |   |   |   |   |   |   |   pixel468 <= 0.104902: fear (4.0)
|   |   |   |   |   |   |   |   |   |   |   |   |   |   |   |   |   pixel468 > 0.104902
|   |   |   |   |   |   |   |   |   |   |   |   |   |   |   |   |   |   pixel376 <= 0.477451
|   |   |   |   |   |   |   |   |   |   |   |   |   |   |   |   |   |   |   pixel225 <= 0.518627
|   |   |   |   |   |   |   |   |   |   |   |   |   |   |   |   |   |   |   |   pixel383 <= 0.756863: sad (12.0)
|   |   |   |   |   |   |   |   |   |   |   |   |   |   |   |   |   |   |   |   pixel383 > 0.756863: suprise (4.0/1.0)
|   |   |   |   |   |   |   |   |   |   |   |   |   |   |   |   |   |   |   pixel225 > 0.518627: fear (5.0/3.0)
|   |   |   |   |   |   |   |   |   |   |   |   |   |   |   |   |   |   pixel376 > 0.477451: suprise (12.0/2.0)
|   |   |   |   |   |   |   |   |   |   |   |   |   |   |   pixel444 > 0.630392: sad (8.0/1.0)
|   |   |   |   |   |   |   |   |   |   |   |   |   pixel37 > 0.623529
|   |   |   |   |   |   |   |   |   |   |   |   |   |   pixel491 <= 0.155882
|   |   |   |   |   |   |   |   |   |   |   |   |   |   |   pixel356 <= 0.406863
|   |   |   |   |   |   |   |   |   |   |   |   |   |   |   |   pixel343 <= 0.507843: neutral (4.0/1.0)
|   |   |   |   |   |   |   |   |   |   |   |   |   |   |   |   pixel343 > 0.507843
|   |   |   |   |   |   |   |   |   |   |   |   |   |   |   |   |   pixel179 <= 0.280392: sad (4.0)
|   |   |   |   |   |   |   |   |   |   |   |   |   |   |   |   |   pixel179 > 0.280392: fear (4.0/1.0)
|   |   |   |   |   |   |   |   |   |   |   |   |   |   |   pixel356 > 0.406863
|   |   |   |   |   |   |   |   |   |   |   |   |   |   |   |   pixel156 <= 0.585294
|   |   |   |   |   |   |   |   |   |   |   |   |   |   |   |   |   pixel156 <= 0.406863: disgust (5.0/2.0)
|   |   |   |   |   |   |   |   |   |   |   |   |   |   |   |   |   pixel156 > 0.406863: happy (6.0/1.0)
|   |   |   |   |   |   |   |   |   |   |   |   |   |   |   |   pixel156 > 0.585294: angry (7.0/3.0)
|   |   |   |   |   |   |   |   |   |   |   |   |   |   pixel491 > 0.155882
|   |   |   |   |   |   |   |   |   |   |   |   |   |   |   pixel554 <= 0.204902: angry (6.0/2.0)
|   |   |   |   |   |   |   |   |   |   |   |   |   |   |   pixel554 > 0.204902: fear (8.0/2.0)
|   |   |   |   |   |   |   |   |   |   pixel490 > 0.181373
|   |   |   |   |   |   |   |   |   |   |   pixel415 <= 0.860784
|   |   |   |   |   |   |   |   |   |   |   |   pixel155 <= 0.685294
|   |   |   |   |   |   |   |   |   |   |   |   |   pixel490 <= 0.568627
|   |   |   |   |   |   |   |   |   |   |   |   |   |   pixel424 <= 0.480392
|   |   |   |   |   |   |   |   |   |   |   |   |   |   |   pixel203 <= 0.715686
|   |   |   |   |   |   |   |   |   |   |   |   |   |   |   |   pixel204 <= 0.638235
|   |   |   |   |   |   |   |   |   |   |   |   |   |   |   |   |   pixel467 <= 0.12549
|   |   |   |   |   |   |   |   |   |   |   |   |   |   |   |   |   |   pixel71 <= 0.111765: angry (5.0/2.0)
|   |   |   |   |   |   |   |   |   |   |   |   |   |   |   |   |   |   pixel71 > 0.111765
|   |   |   |   |   |   |   |   |   |   |   |   |   |   |   |   |   |   |   pixel469 <= 0.097059: suprise (4.0)
|   |   |   |   |   |   |   |   |   |   |   |   |   |   |   |   |   |   |   pixel469 > 0.097059
|   |   |   |   |   |   |   |   |   |   |   |   |   |   |   |   |   |   |   |   pixel4 <= 0.45098: fear (5.0)
|   |   |   |   |   |   |   |   |   |   |   |   |   |   |   |   |   |   |   |   pixel4 > 0.45098: happy (5.0/1.0)
|   |   |   |   |   |   |   |   |   |   |   |   |   |   |   |   |   pixel467 > 0.12549
|   |   |   |   |   |   |   |   |   |   |   |   |   |   |   |   |   |   pixel200 <= 0.12549
|   |   |   |   |   |   |   |   |   |   |   |   |   |   |   |   |   |   |   pixel469 <= 0.323529
|   |   |   |   |   |   |   |   |   |   |   |   |   |   |   |   |   |   |   |   pixel227 <= 0.289216: angry (7.0/3.0)
|   |   |   |   |   |   |   |   |   |   |   |   |   |   |   |   |   |   |   |   pixel227 > 0.289216
|   |   |   |   |   |   |   |   |   |   |   |   |   |   |   |   |   |   |   |   |   pixel490 <= 0.30098
|   |   |   |   |   |   |   |   |   |   |   |   |   |   |   |   |   |   |   |   |   |   pixel0 <= 0.097059: fear (4.0/2.0)
|   |   |   |   |   |   |   |   |   |   |   |   |   |   |   |   |   |   |   |   |   |   pixel0 > 0.097059: sad (12.0/2.0)
|   |   |   |   |   |   |   |   |   |   |   |   |   |   |   |   |   |   |   |   |   pixel490 > 0.30098
|   |   |   |   |   |   |   |   |   |   |   |   |   |   |   |   |   |   |   |   |   |   pixel491 <= 0.313725: angry (7.0)
|   |   |   |   |   |   |   |   |   |   |   |   |   |   |   |   |   |   |   |   |   |   pixel491 > 0.313725: sad (10.0/2.0)
|   |   |   |   |   |   |   |   |   |   |   |   |   |   |   |   |   |   |   pixel469 > 0.323529
|   |   |   |   |   |   |   |   |   |   |   |   |   |   |   |   |   |   |   |   pixel367 <= 0.401961: fear (4.0/2.0)
|   |   |   |   |   |   |   |   |   |   |   |   |   |   |   |   |   |   |   |   pixel367 > 0.401961
|   |   |   |   |   |   |   |   |   |   |   |   |   |   |   |   |   |   |   |   |   pixel23 <= 0.230392: angry (5.0/1.0)
|   |   |   |   |   |   |   |   |   |   |   |   |   |   |   |   |   |   |   |   |   pixel23 > 0.230392: neutral (4.0/1.0)
|   |   |   |   |   |   |   |   |   |   |   |   |   |   |   |   |   |   pixel200 > 0.12549
|   |   |   |   |   |   |   |   |   |   |   |   |   |   |   |   |   |   |   pixel292 <= 0.87549
|   |   |   |   |   |   |   |   |   |   |   |   |   |   |   |   |   |   |   |   pixel560 <= 0.382353
|   |   |   |   |   |   |   |   |   |   |   |   |   |   |   |   |   |   |   |   |   pixel383 <= 0.822549
|   |   |   |   |   |   |   |   |   |   |   |   |   |   |   |   |   |   |   |   |   |   pixel563 <= 0.09902
|   |   |   |   |   |   |   |   |   |   |   |   |   |   |   |   |   |   |   |   |   |   |   pixel119 <= 0.422549
|   |   |   |   |   |   |   |   |   |   |   |   |   |   |   |   |   |   |   |   |   |   |   |   pixel368 <= 0.410784: happy (6.0/3.0)
|   |   |   |   |   |   |   |   |   |   |   |   |   |   |   |   |   |   |   |   |   |   |   |   pixel368 > 0.410784: sad (11.0/1.0)
|   |   |   |   |   |   |   |   |   |   |   |   |   |   |   |   |   |   |   |   |   |   |   pixel119 > 0.422549: angry (4.0/1.0)
|   |   |   |   |   |   |   |   |   |   |   |   |   |   |   |   |   |   |   |   |   |   pixel563 > 0.09902
|   |   |   |   |   |   |   |   |   |   |   |   |   |   |   |   |   |   |   |   |   |   |   pixel491 <= 0.380392
|   |   |   |   |   |   |   |   |   |   |   |   |   |   |   |   |   |   |   |   |   |   |   |   pixel535 <= 0.396078
|   |   |   |   |   |   |   |   |   |   |   |   |   |   |   |   |   |   |   |   |   |   |   |   |   pixel179 <= 0.17549
|   |   |   |   |   |   |   |   |   |   |   |   |   |   |   |   |   |   |   |   |   |   |   |   |   |   pixel368 <= 0.40098: sad (4.0/2.0)
|   |   |   |   |   |   |   |   |   |   |   |   |   |   |   |   |   |   |   |   |   |   |   |   |   |   pixel368 > 0.40098: angry (4.0)
|   |   |   |   |   |   |   |   |   |   |   |   |   |   |   |   |   |   |   |   |   |   |   |   |   pixel179 > 0.17549
|   |   |   |   |   |   |   |   |   |   |   |   |   |   |   |   |   |   |   |   |   |   |   |   |   |   pixel544 <= 0.067647
|   |   |   |   |   |   |   |   |   |   |   |   |   |   |   |   |   |   |   |   |   |   |   |   |   |   |   pixel48 <= 0.144118: suprise (4.0/2.0)
|   |   |   |   |   |   |   |   |   |   |   |   |   |   |   |   |   |   |   |   |   |   |   |   |   |   |   pixel48 > 0.144118: angry (6.0/1.0)
|   |   |   |   |   |   |   |   |   |   |   |   |   |   |   |   |   |   |   |   |   |   |   |   |   |   pixel544 > 0.067647
|   |   |   |   |   |   |   |   |   |   |   |   |   |   |   |   |   |   |   |   |   |   |   |   |   |   |   pixel492 <= 0.282353
|   |   |   |   |   |   |   |   |   |   |   |   |   |   |   |   |   |   |   |   |   |   |   |   |   |   |   |   pixel173 <= 0.603922
|   |   |   |   |   |   |   |   |   |   |   |   |   |   |   |   |   |   |   |   |   |   |   |   |   |   |   |   |   pixel469 <= 0.148039
|   |   |   |   |   |   |   |   |   |   |   |   |   |   |   |   |   |   |   |   |   |   |   |   |   |   |   |   |   |   pixel491 <= 0.212745: happy (4.0/2.0)
|   |   |   |   |   |   |   |   |   |   |   |   |   |   |   |   |   |   |   |   |   |   |   |   |   |   |   |   |   |   pixel491 > 0.212745
|   |   |   |   |   |   |   |   |   |   |   |   |   |   |   |   |   |   |   |   |   |   |   |   |   |   |   |   |   |   |   pixel466 <= 0.270588: angry (6.0/2.0)
|   |   |   |   |   |   |   |   |   |   |   |   |   |   |   |   |   |   |   |   |   |   |   |   |   |   |   |   |   |   |   pixel466 > 0.270588: fear (4.0)
|   |   |   |   |   |   |   |   |   |   |   |   |   |   |   |   |   |   |   |   |   |   |   |   |   |   |   |   |   pixel469 > 0.148039
|   |   |   |   |   |   |   |   |   |   |   |   |   |   |   |   |   |   |   |   |   |   |   |   |   |   |   |   |   |   pixel292 <= 0.173529
|   |   |   |   |   |   |   |   |   |   |   |   |   |   |   |   |   |   |   |   |   |   |   |   |   |   |   |   |   |   |   pixel156 <= 0.338235: sad (4.0)
|   |   |   |   |   |   |   |   |   |   |   |   |   |   |   |   |   |   |   |   |   |   |   |   |   |   |   |   |   |   |   pixel156 > 0.338235: happy (4.0/2.0)
|   |   |   |   |   |   |   |   |   |   |   |   |   |   |   |   |   |   |   |   |   |   |   |   |   |   |   |   |   |   pixel292 > 0.173529
|   |   |   |   |   |   |   |   |   |   |   |   |   |   |   |   |   |   |   |   |   |   |   |   |   |   |   |   |   |   |   pixel560 <= 0.12549
|   |   |   |   |   |   |   |   |   |   |   |   |   |   |   |   |   |   |   |   |   |   |   |   |   |   |   |   |   |   |   |   pixel1 <= 0.288235: neutral (5.0/1.0)
|   |   |   |   |   |   |   |   |   |   |   |   |   |   |   |   |   |   |   |   |   |   |   |   |   |   |   |   |   |   |   |   pixel1 > 0.288235
|   |   |   |   |   |   |   |   |   |   |   |   |   |   |   |   |   |   |   |   |   |   |   |   |   |   |   |   |   |   |   |   |   pixel550 <= 0.278431: angry (4.0/2.0)
|   |   |   |   |   |   |   |   |   |   |   |   |   |   |   |   |   |   |   |   |   |   |   |   |   |   |   |   |   |   |   |   |   pixel550 > 0.278431: happy (4.0)
|   |   |   |   |   |   |   |   |   |   |   |   |   |   |   |   |   |   |   |   |   |   |   |   |   |   |   |   |   |   |   pixel560 > 0.12549
|   |   |   |   |   |   |   |   |   |   |   |   |   |   |   |   |   |   |   |   |   |   |   |   |   |   |   |   |   |   |   |   pixel204 <= 0.505882
|   |   |   |   |   |   |   |   |   |   |   |   |   |   |   |   |   |   |   |   |   |   |   |   |   |   |   |   |   |   |   |   |   pixel469 <= 0.457843
|   |   |   |   |   |   |   |   |   |   |   |   |   |   |   |   |   |   |   |   |   |   |   |   |   |   |   |   |   |   |   |   |   |   pixel181 <= 0.45098
|   |   |   |   |   |   |   |   |   |   |   |   |   |   |   |   |   |   |   |   |   |   |   |   |   |   |   |   |   |   |   |   |   |   |   pixel343 <= 0.493137
|   |   |   |   |   |   |   |   |   |   |   |   |   |   |   |   |   |   |   |   |   |   |   |   |   |   |   |   |   |   |   |   |   |   |   |   pixel432 <= 0.414706
|   |   |   |   |   |   |   |   |   |   |   |   |   |   |   |   |   |   |   |   |   |   |   |   |   |   |   |   |   |   |   |   |   |   |   |   |   pixel181 <= 0.322549
|   |   |   |   |   |   |   |   |   |   |   |   |   |   |   |   |   |   |   |   |   |   |   |   |   |   |   |   |   |   |   |   |   |   |   |   |   |   pixel563 <= 0.267647
|   |   |   |   |   |   |   |   |   |   |   |   |   |   |   |   |   |   |   |   |   |   |   |   |   |   |   |   |   |   |   |   |   |   |   |   |   |   |   pixel554 <= 0.140196: fear (5.0/1.0)
|   |   |   |   |   |   |   |   |   |   |   |   |   |   |   |   |   |   |   |   |   |   |   |   |   |   |   |   |   |   |   |   |   |   |   |   |   |   |   pixel554 > 0.140196: neutral (12.0)
|   |   |   |   |   |   |   |   |   |   |   |   |   |   |   |   |   |   |   |   |   |   |   |   |   |   |   |   |   |   |   |   |   |   |   |   |   |   pixel563 > 0.267647
|   |   |   |   |   |   |   |   |   |   |   |   |   |   |   |   |   |   |   |   |   |   |   |   |   |   |   |   |   |   |   |   |   |   |   |   |   |   |   pixel4 <= 0.276471: fear (10.0/1.0)
|   |   |   |   |   |   |   |   |   |   |   |   |   |   |   |   |   |   |   |   |   |   |   |   |   |   |   |   |   |   |   |   |   |   |   |   |   |   |   pixel4 > 0.276471: sad (4.0)
|   |   |   |   |   |   |   |   |   |   |   |   |   |   |   |   |   |   |   |   |   |   |   |   |   |   |   |   |   |   |   |   |   |   |   |   |   pixel181 > 0.322549
|   |   |   |   |   |   |   |   |   |   |   |   |   |   |   |   |   |   |   |   |   |   |   |   |   |   |   |   |   |   |   |   |   |   |   |   |   |   pixel155 <= 0.362745: sad (6.0/2.0)
|   |   |   |   |   |   |   |   |   |   |   |   |   |   |   |   |   |   |   |   |   |   |   |   |   |   |   |   |   |   |   |   |   |   |   |   |   |   pixel155 > 0.362745
|   |   |   |   |   |   |   |   |   |   |   |   |   |   |   |   |   |   |   |   |   |   |   |   |   |   |   |   |   |   |   |   |   |   |   |   |   |   |   pixel416 <= 0.362745: happy (4.0)
|   |   |   |   |   |   |   |   |   |   |   |   |   |   |   |   |   |   |   |   |   |   |   |   |   |   |   |   |   |   |   |   |   |   |   |   |   |   |   pixel416 > 0.362745: neutral (5.0/2.0)
|   |   |   |   |   |   |   |   |   |   |   |   |   |   |   |   |   |   |   |   |   |   |   |   |   |   |   |   |   |   |   |   |   |   |   |   pixel432 > 0.414706
|   |   |   |   |   |   |   |   |   |   |   |   |   |   |   |   |   |   |   |   |   |   |   |   |   |   |   |   |   |   |   |   |   |   |   |   |   pixel554 <= 0.205882: angry (5.0/2.0)
|   |   |   |   |   |   |   |   |   |   |   |   |   |   |   |   |   |   |   |   |   |   |   |   |   |   |   |   |   |   |   |   |   |   |   |   |   pixel554 > 0.205882
|   |   |   |   |   |   |   |   |   |   |   |   |   |   |   |   |   |   |   |   |   |   |   |   |   |   |   |   |   |   |   |   |   |   |   |   |   |   pixel384 <= 0.371569: angry (4.0/1.0)
|   |   |   |   |   |   |   |   |   |   |   |   |   |   |   |   |   |   |   |   |   |   |   |   |   |   |   |   |   |   |   |   |   |   |   |   |   |   pixel384 > 0.371569: neutral (25.0/4.0)
|   |   |   |   |   |   |   |   |   |   |   |   |   |   |   |   |   |   |   |   |   |   |   |   |   |   |   |   |   |   |   |   |   |   |   pixel343 > 0.493137
|   |   |   |   |   |   |   |   |   |   |   |   |   |   |   |   |   |   |   |   |   |   |   |   |   |   |   |   |   |   |   |   |   |   |   |   pixel468 <= 0.443137
|   |   |   |   |   |   |   |   |   |   |   |   |   |   |   |   |   |   |   |   |   |   |   |   |   |   |   |   |   |   |   |   |   |   |   |   |   pixel244 <= 0.223529: sad (7.0/3.0)
|   |   |   |   |   |   |   |   |   |   |   |   |   |   |   |   |   |   |   |   |   |   |   |   |   |   |   |   |   |   |   |   |   |   |   |   |   pixel244 > 0.223529: neutral (19.0)
|   |   |   |   |   |   |   |   |   |   |   |   |   |   |   |   |   |   |   |   |   |   |   |   |   |   |   |   |   |   |   |   |   |   |   |   pixel468 > 0.443137: sad (8.0/2.0)
|   |   |   |   |   |   |   |   |   |   |   |   |   |   |   |   |   |   |   |   |   |   |   |   |   |   |   |   |   |   |   |   |   |   pixel181 > 0.45098
|   |   |   |   |   |   |   |   |   |   |   |   |   |   |   |   |   |   |   |   |   |   |   |   |   |   |   |   |   |   |   |   |   |   |   pixel4 <= 0.545098
|   |   |   |   |   |   |   |   |   |   |   |   |   |   |   |   |   |   |   |   |   |   |   |   |   |   |   |   |   |   |   |   |   |   |   |   pixel131 <= 0.540196: angry (5.0)
|   |   |   |   |   |   |   |   |   |   |   |   |   |   |   |   |   |   |   |   |   |   |   |   |   |   |   |   |   |   |   |   |   |   |   |   pixel131 > 0.540196: neutral (5.0/1.0)
|   |   |   |   |   |   |   |   |   |   |   |   |   |   |   |   |   |   |   |   |   |   |   |   |   |   |   |   |   |   |   |   |   |   |   pixel4 > 0.545098: fear (4.0)
|   |   |   |   |   |   |   |   |   |   |   |   |   |   |   |   |   |   |   |   |   |   |   |   |   |   |   |   |   |   |   |   |   pixel469 > 0.457843: angry (5.0/1.0)
|   |   |   |   |   |   |   |   |   |   |   |   |   |   |   |   |   |   |   |   |   |   |   |   |   |   |   |   |   |   |   |   pixel204 > 0.505882
|   |   |   |   |   |   |   |   |   |   |   |   |   |   |   |   |   |   |   |   |   |   |   |   |   |   |   |   |   |   |   |   |   pixel59 <= 0.608824: sad (12.0/3.0)
|   |   |   |   |   |   |   |   |   |   |   |   |   |   |   |   |   |   |   |   |   |   |   |   |   |   |   |   |   |   |   |   |   pixel59 > 0.608824: neutral (5.0/1.0)
|   |   |   |   |   |   |   |   |   |   |   |   |   |   |   |   |   |   |   |   |   |   |   |   |   |   |   |   pixel173 > 0.603922
|   |   |   |   |   |   |   |   |   |   |   |   |   |   |   |   |   |   |   |   |   |   |   |   |   |   |   |   |   pixel1 <= 0.335294: sad (7.0/2.0)
|   |   |   |   |   |   |   |   |   |   |   |   |   |   |   |   |   |   |   |   |   |   |   |   |   |   |   |   |   pixel1 > 0.335294
|   |   |   |   |   |   |   |   |   |   |   |   |   |   |   |   |   |   |   |   |   |   |   |   |   |   |   |   |   |   pixel558 <= 0.247059: happy (4.0/1.0)
|   |   |   |   |   |   |   |   |   |   |   |   |   |   |   |   |   |   |   |   |   |   |   |   |   |   |   |   |   |   pixel558 > 0.247059: fear (6.0)
|   |   |   |   |   |   |   |   |   |   |   |   |   |   |   |   |   |   |   |   |   |   |   |   |   |   |   pixel492 > 0.282353
|   |   |   |   |   |   |   |   |   |   |   |   |   |   |   |   |   |   |   |   |   |   |   |   |   |   |   |   pixel1 <= 0.378431: fear (6.0/1.0)
|   |   |   |   |   |   |   |   |   |   |   |   |   |   |   |   |   |   |   |   |   |   |   |   |   |   |   |   pixel1 > 0.378431: sad (4.0/2.0)
|   |   |   |   |   |   |   |   |   |   |   |   |   |   |   |   |   |   |   |   |   |   |   |   pixel535 > 0.396078
|   |   |   |   |   |   |   |   |   |   |   |   |   |   |   |   |   |   |   |   |   |   |   |   |   pixel522 <= 0.320588
|   |   |   |   |   |   |   |   |   |   |   |   |   |   |   |   |   |   |   |   |   |   |   |   |   |   pixel252 <= 0.502941
|   |   |   |   |   |   |   |   |   |   |   |   |   |   |   |   |   |   |   |   |   |   |   |   |   |   |   pixel37 <= 0.351961: fear (4.0/2.0)
|   |   |   |   |   |   |   |   |   |   |   |   |   |   |   |   |   |   |   |   |   |   |   |   |   |   |   pixel37 > 0.351961: neutral (6.0)
|   |   |   |   |   |   |   |   |   |   |   |   |   |   |   |   |   |   |   |   |   |   |   |   |   |   pixel252 > 0.502941: sad (5.0)
|   |   |   |   |   |   |   |   |   |   |   |   |   |   |   |   |   |   |   |   |   |   |   |   |   pixel522 > 0.320588
|   |   |   |   |   |   |   |   |   |   |   |   |   |   |   |   |   |   |   |   |   |   |   |   |   |   pixel0 <= 0.335294: sad (4.0)
|   |   |   |   |   |   |   |   |   |   |   |   |   |   |   |   |   |   |   |   |   |   |   |   |   |   pixel0 > 0.335294: suprise (6.0/1.0)
|   |   |   |   |   |   |   |   |   |   |   |   |   |   |   |   |   |   |   |   |   |   |   pixel491 > 0.380392
|   |   |   |   |   |   |   |   |   |   |   |   |   |   |   |   |   |   |   |   |   |   |   |   pixel344 <= 0.498039: happy (5.0)
|   |   |   |   |   |   |   |   |   |   |   |   |   |   |   |   |   |   |   |   |   |   |   |   pixel344 > 0.498039: angry (4.0/1.0)
|   |   |   |   |   |   |   |   |   |   |   |   |   |   |   |   |   |   |   |   |   pixel383 > 0.822549
|   |   |   |   |   |   |   |   |   |   |   |   |   |   |   |   |   |   |   |   |   |   pixel4 <= 0.47549: sad (5.0)
|   |   |   |   |   |   |   |   |   |   |   |   |   |   |   |   |   |   |   |   |   |   pixel4 > 0.47549: happy (4.0/2.0)
|   |   |   |   |   |   |   |   |   |   |   |   |   |   |   |   |   |   |   |   pixel560 > 0.382353
|   |   |   |   |   |   |   |   |   |   |   |   |   |   |   |   |   |   |   |   |   pixel504 <= 0.052941
|   |   |   |   |   |   |   |   |   |   |   |   |   |   |   |   |   |   |   |   |   |   pixel4 <= 0.171569: sad (4.0/1.0)
|   |   |   |   |   |   |   |   |   |   |   |   |   |   |   |   |   |   |   |   |   |   pixel4 > 0.171569: fear (4.0)
|   |   |   |   |   |   |   |   |   |   |   |   |   |   |   |   |   |   |   |   |   pixel504 > 0.052941
|   |   |   |   |   |   |   |   |   |   |   |   |   |   |   |   |   |   |   |   |   |   pixel228 <= 0.207843
|   |   |   |   |   |   |   |   |   |   |   |   |   |   |   |   |   |   |   |   |   |   |   pixel552 <= 0.647059: sad (11.0/5.0)
|   |   |   |   |   |   |   |   |   |   |   |   |   |   |   |   |   |   |   |   |   |   |   pixel552 > 0.647059: fear (4.0/1.0)
|   |   |   |   |   |   |   |   |   |   |   |   |   |   |   |   |   |   |   |   |   |   pixel228 > 0.207843
|   |   |   |   |   |   |   |   |   |   |   |   |   |   |   |   |   |   |   |   |   |   |   pixel391 <= 0.545098
|   |   |   |   |   |   |   |   |   |   |   |   |   |   |   |   |   |   |   |   |   |   |   |   pixel343 <= 0.65
|   |   |   |   |   |   |   |   |   |   |   |   |   |   |   |   |   |   |   |   |   |   |   |   |   pixel220 <= 0.254902
|   |   |   |   |   |   |   |   |   |   |   |   |   |   |   |   |   |   |   |   |   |   |   |   |   |   pixel455 <= 0.420588: sad (8.0/1.0)
|   |   |   |   |   |   |   |   |   |   |   |   |   |   |   |   |   |   |   |   |   |   |   |   |   |   pixel455 > 0.420588: neutral (4.0/1.0)
|   |   |   |   |   |   |   |   |   |   |   |   |   |   |   |   |   |   |   |   |   |   |   |   |   pixel220 > 0.254902
|   |   |   |   |   |   |   |   |   |   |   |   |   |   |   |   |   |   |   |   |   |   |   |   |   |   pixel252 <= 0.684314
|   |   |   |   |   |   |   |   |   |   |   |   |   |   |   |   |   |   |   |   |   |   |   |   |   |   |   pixel173 <= 0.248039
|   |   |   |   |   |   |   |   |   |   |   |   |   |   |   |   |   |   |   |   |   |   |   |   |   |   |   |   pixel320 <= 0.407843
|   |   |   |   |   |   |   |   |   |   |   |   |   |   |   |   |   |   |   |   |   |   |   |   |   |   |   |   |   pixel503 <= 0.480392: suprise (4.0/2.0)
|   |   |   |   |   |   |   |   |   |   |   |   |   |   |   |   |   |   |   |   |   |   |   |   |   |   |   |   |   pixel503 > 0.480392: happy (5.0)
|   |   |   |   |   |   |   |   |   |   |   |   |   |   |   |   |   |   |   |   |   |   |   |   |   |   |   |   pixel320 > 0.407843
|   |   |   |   |   |   |   |   |   |   |   |   |   |   |   |   |   |   |   |   |   |   |   |   |   |   |   |   |   pixel492 <= 0.247059: fear (4.0)
|   |   |   |   |   |   |   |   |   |   |   |   |   |   |   |   |   |   |   |   |   |   |   |   |   |   |   |   |   pixel492 > 0.247059: neutral (4.0)
|   |   |   |   |   |   |   |   |   |   |   |   |   |   |   |   |   |   |   |   |   |   |   |   |   |   |   pixel173 > 0.248039
|   |   |   |   |   |   |   |   |   |   |   |   |   |   |   |   |   |   |   |   |   |   |   |   |   |   |   |   pixel312 <= 0.120588: neutral (5.0/1.0)
|   |   |   |   |   |   |   |   |   |   |   |   |   |   |   |   |   |   |   |   |   |   |   |   |   |   |   |   pixel312 > 0.120588
|   |   |   |   |   |   |   |   |   |   |   |   |   |   |   |   |   |   |   |   |   |   |   |   |   |   |   |   |   pixel559 <= 0.39902
|   |   |   |   |   |   |   |   |   |   |   |   |   |   |   |   |   |   |   |   |   |   |   |   |   |   |   |   |   |   pixel493 <= 0.233333: angry (5.0)
|   |   |   |   |   |   |   |   |   |   |   |   |   |   |   |   |   |   |   |   |   |   |   |   |   |   |   |   |   |   pixel493 > 0.233333
|   |   |   |   |   |   |   |   |   |   |   |   |   |   |   |   |   |   |   |   |   |   |   |   |   |   |   |   |   |   |   pixel552 <= 0.384314: disgust (4.0/1.0)
|   |   |   |   |   |   |   |   |   |   |   |   |   |   |   |   |   |   |   |   |   |   |   |   |   |   |   |   |   |   |   pixel552 > 0.384314: fear (4.0/1.0)
|   |   |   |   |   |   |   |   |   |   |   |   |   |   |   |   |   |   |   |   |   |   |   |   |   |   |   |   |   pixel559 > 0.39902
|   |   |   |   |   |   |   |   |   |   |   |   |   |   |   |   |   |   |   |   |   |   |   |   |   |   |   |   |   |   pixel312 <= 0.832353
|   |   |   |   |   |   |   |   |   |   |   |   |   |   |   |   |   |   |   |   |   |   |   |   |   |   |   |   |   |   |   pixel551 <= 0.086275: happy (6.0/1.0)
|   |   |   |   |   |   |   |   |   |   |   |   |   |   |   |   |   |   |   |   |   |   |   |   |   |   |   |   |   |   |   pixel551 > 0.086275
|   |   |   |   |   |   |   |   |   |   |   |   |   |   |   |   |   |   |   |   |   |   |   |   |   |   |   |   |   |   |   |   pixel416 <= 0.457843
|   |   |   |   |   |   |   |   |   |   |   |   |   |   |   |   |   |   |   |   |   |   |   |   |   |   |   |   |   |   |   |   |   pixel444 <= 0.160784: angry (4.0)
|   |   |   |   |   |   |   |   |   |   |   |   |   |   |   |   |   |   |   |   |   |   |   |   |   |   |   |   |   |   |   |   |   pixel444 > 0.160784
|   |   |   |   |   |   |   |   |   |   |   |   |   |   |   |   |   |   |   |   |   |   |   |   |   |   |   |   |   |   |   |   |   |   pixel367 <= 0.346078: angry (6.0/3.0)
|   |   |   |   |   |   |   |   |   |   |   |   |   |   |   |   |   |   |   |   |   |   |   |   |   |   |   |   |   |   |   |   |   |   pixel367 > 0.346078
|   |   |   |   |   |   |   |   |   |   |   |   |   |   |   |   |   |   |   |   |   |   |   |   |   |   |   |   |   |   |   |   |   |   |   pixel37 <= 0.486275
|   |   |   |   |   |   |   |   |   |   |   |   |   |   |   |   |   |   |   |   |   |   |   |   |   |   |   |   |   |   |   |   |   |   |   |   pixel59 <= 0.318627: happy (6.0/2.0)
|   |   |   |   |   |   |   |   |   |   |   |   |   |   |   |   |   |   |   |   |   |   |   |   |   |   |   |   |   |   |   |   |   |   |   |   pixel59 > 0.318627: sad (8.0)
|   |   |   |   |   |   |   |   |   |   |   |   |   |   |   |   |   |   |   |   |   |   |   |   |   |   |   |   |   |   |   |   |   |   |   pixel37 > 0.486275: happy (7.0/1.0)
|   |   |   |   |   |   |   |   |   |   |   |   |   |   |   |   |   |   |   |   |   |   |   |   |   |   |   |   |   |   |   |   pixel416 > 0.457843: angry (15.0/2.0)
|   |   |   |   |   |   |   |   |   |   |   |   |   |   |   |   |   |   |   |   |   |   |   |   |   |   |   |   |   |   pixel312 > 0.832353: happy (4.0/2.0)
|   |   |   |   |   |   |   |   |   |   |   |   |   |   |   |   |   |   |   |   |   |   |   |   |   |   pixel252 > 0.684314: neutral (4.0)
|   |   |   |   |   |   |   |   |   |   |   |   |   |   |   |   |   |   |   |   |   |   |   |   pixel343 > 0.65: angry (11.0/2.0)
|   |   |   |   |   |   |   |   |   |   |   |   |   |   |   |   |   |   |   |   |   |   |   pixel391 > 0.545098
|   |   |   |   |   |   |   |   |   |   |   |   |   |   |   |   |   |   |   |   |   |   |   |   pixel466 <= 0.509804
|   |   |   |   |   |   |   |   |   |   |   |   |   |   |   |   |   |   |   |   |   |   |   |   |   pixel1 <= 0.122549: angry (4.0/1.0)
|   |   |   |   |   |   |   |   |   |   |   |   |   |   |   |   |   |   |   |   |   |   |   |   |   pixel1 > 0.122549
|   |   |   |   |   |   |   |   |   |   |   |   |   |   |   |   |   |   |   |   |   |   |   |   |   |   pixel48 <= 0.771569
|   |   |   |   |   |   |   |   |   |   |   |   |   |   |   |   |   |   |   |   |   |   |   |   |   |   |   pixel181 <= 0.330392
|   |   |   |   |   |   |   |   |   |   |   |   |   |   |   |   |   |   |   |   |   |   |   |   |   |   |   |   pixel307 <= 0.342157: sad (6.0/1.0)
|   |   |   |   |   |   |   |   |   |   |   |   |   |   |   |   |   |   |   |   |   |   |   |   |   |   |   |   pixel307 > 0.342157: fear (4.0)
|   |   |   |   |   |   |   |   |   |   |   |   |   |   |   |   |   |   |   |   |   |   |   |   |   |   |   pixel181 > 0.330392: sad (11.0)
|   |   |   |   |   |   |   |   |   |   |   |   |   |   |   |   |   |   |   |   |   |   |   |   |   |   pixel48 > 0.771569: angry (6.0/2.0)
|   |   |   |   |   |   |   |   |   |   |   |   |   |   |   |   |   |   |   |   |   |   |   |   pixel466 > 0.509804
|   |   |   |   |   |   |   |   |   |   |   |   |   |   |   |   |   |   |   |   |   |   |   |   |   pixel481 <= 0.441176: angry (6.0)
|   |   |   |   |   |   |   |   |   |   |   |   |   |   |   |   |   |   |   |   |   |   |   |   |   pixel481 > 0.441176: happy (6.0/3.0)
|   |   |   |   |   |   |   |   |   |   |   |   |   |   |   |   |   |   |   pixel292 > 0.87549: sad (7.0)
|   |   |   |   |   |   |   |   |   |   |   |   |   |   |   |   pixel204 > 0.638235
|   |   |   |   |   |   |   |   |   |   |   |   |   |   |   |   |   pixel1 <= 0.495098: sad (4.0/1.0)
|   |   |   |   |   |   |   |   |   |   |   |   |   |   |   |   |   pixel1 > 0.495098: angry (6.0)
|   |   |   |   |   |   |   |   |   |   |   |   |   |   |   pixel203 > 0.715686
|   |   |   |   |   |   |   |   |   |   |   |   |   |   |   |   pixel59 <= 0.47451: neutral (5.0)
|   |   |   |   |   |   |   |   |   |   |   |   |   |   |   |   pixel59 > 0.47451: angry (5.0/1.0)
|   |   |   |   |   |   |   |   |   |   |   |   |   |   pixel424 > 0.480392
|   |   |   |   |   |   |   |   |   |   |   |   |   |   |   pixel203 <= 0.153922: happy (4.0/2.0)
|   |   |   |   |   |   |   |   |   |   |   |   |   |   |   pixel203 > 0.153922
|   |   |   |   |   |   |   |   |   |   |   |   |   |   |   |   pixel376 <= 0.708824
|   |   |   |   |   |   |   |   |   |   |   |   |   |   |   |   |   pixel551 <= 0.652941
|   |   |   |   |   |   |   |   |   |   |   |   |   |   |   |   |   |   pixel401 <= 0.745098
|   |   |   |   |   |   |   |   |   |   |   |   |   |   |   |   |   |   |   pixel317 <= 0.555882
|   |   |   |   |   |   |   |   |   |   |   |   |   |   |   |   |   |   |   |   pixel432 <= 0.198039
|   |   |   |   |   |   |   |   |   |   |   |   |   |   |   |   |   |   |   |   |   pixel244 <= 0.39902: sad (9.0)
|   |   |   |   |   |   |   |   |   |   |   |   |   |   |   |   |   |   |   |   |   pixel244 > 0.39902: fear (4.0/1.0)
|   |   |   |   |   |   |   |   |   |   |   |   |   |   |   |   |   |   |   |   pixel432 > 0.198039
|   |   |   |   |   |   |   |   |   |   |   |   |   |   |   |   |   |   |   |   |   pixel424 <= 0.691176
|   |   |   |   |   |   |   |   |   |   |   |   |   |   |   |   |   |   |   |   |   |   pixel180 <= 0.379412: fear (15.0/1.0)
|   |   |   |   |   |   |   |   |   |   |   |   |   |   |   |   |   |   |   |   |   |   pixel180 > 0.379412
|   |   |   |   |   |   |   |   |   |   |   |   |   |   |   |   |   |   |   |   |   |   |   pixel351 <= 0.52549: sad (7.0/2.0)
|   |   |   |   |   |   |   |   |   |   |   |   |   |   |   |   |   |   |   |   |   |   |   pixel351 > 0.52549: fear (14.0/3.0)
|   |   |   |   |   |   |   |   |   |   |   |   |   |   |   |   |   |   |   |   |   pixel424 > 0.691176: neutral (5.0/2.0)
|   |   |   |   |   |   |   |   |   |   |   |   |   |   |   |   |   |   |   pixel317 > 0.555882
|   |   |   |   |   |   |   |   |   |   |   |   |   |   |   |   |   |   |   |   pixel292 <= 0.585294: suprise (5.0/1.0)
|   |   |   |   |   |   |   |   |   |   |   |   |   |   |   |   |   |   |   |   pixel292 > 0.585294
|   |   |   |   |   |   |   |   |   |   |   |   |   |   |   |   |   |   |   |   |   pixel504 <= 0.096078: neutral (4.0)
|   |   |   |   |   |   |   |   |   |   |   |   |   |   |   |   |   |   |   |   |   pixel504 > 0.096078
|   |   |   |   |   |   |   |   |   |   |   |   |   |   |   |   |   |   |   |   |   |   pixel466 <= 0.609804
|   |   |   |   |   |   |   |   |   |   |   |   |   |   |   |   |   |   |   |   |   |   |   pixel320 <= 0.618627: angry (4.0)
|   |   |   |   |   |   |   |   |   |   |   |   |   |   |   |   |   |   |   |   |   |   |   pixel320 > 0.618627: sad (8.0/1.0)
|   |   |   |   |   |   |   |   |   |   |   |   |   |   |   |   |   |   |   |   |   |   pixel466 > 0.609804: fear (4.0/1.0)
|   |   |   |   |   |   |   |   |   |   |   |   |   |   |   |   |   |   pixel401 > 0.745098: happy (5.0/3.0)
|   |   |   |   |   |   |   |   |   |   |   |   |   |   |   |   |   pixel551 > 0.652941
|   |   |   |   |   |   |   |   |   |   |   |   |   |   |   |   |   |   pixel424 <= 0.530392: angry (6.0/2.0)
|   |   |   |   |   |   |   |   |   |   |   |   |   |   |   |   |   |   pixel424 > 0.530392
|   |   |   |   |   |   |   |   |   |   |   |   |   |   |   |   |   |   |   pixel493 <= 0.214706: suprise (5.0/2.0)
|   |   |   |   |   |   |   |   |   |   |   |   |   |   |   |   |   |   |   pixel493 > 0.214706: neutral (9.0)
|   |   |   |   |   |   |   |   |   |   |   |   |   |   |   |   pixel376 > 0.708824: sad (10.0/2.0)
|   |   |   |   |   |   |   |   |   |   |   |   |   pixel490 > 0.568627
|   |   |   |   |   |   |   |   |   |   |   |   |   |   pixel560 <= 0.520588
|   |   |   |   |   |   |   |   |   |   |   |   |   |   |   pixel554 <= 0.338235: fear (6.0/2.0)
|   |   |   |   |   |   |   |   |   |   |   |   |   |   |   pixel554 > 0.338235: happy (4.0/1.0)
|   |   |   |   |   |   |   |   |   |   |   |   |   |   pixel560 > 0.520588
|   |   |   |   |   |   |   |   |   |   |   |   |   |   |   pixel554 <= 0.533333: sad (10.0)
|   |   |   |   |   |   |   |   |   |   |   |   |   |   |   pixel554 > 0.533333: fear (5.0/3.0)
|   |   |   |   |   |   |   |   |   |   |   |   pixel155 > 0.685294
|   |   |   |   |   |   |   |   |   |   |   |   |   pixel22 <= 0.529412
|   |   |   |   |   |   |   |   |   |   |   |   |   |   pixel0 <= 0.122549: sad (4.0)
|   |   |   |   |   |   |   |   |   |   |   |   |   |   pixel0 > 0.122549
|   |   |   |   |   |   |   |   |   |   |   |   |   |   |   pixel493 <= 0.333333
|   |   |   |   |   |   |   |   |   |   |   |   |   |   |   |   pixel23 <= 0.090196: neutral (4.0/1.0)
|   |   |   |   |   |   |   |   |   |   |   |   |   |   |   |   pixel23 > 0.090196: angry (8.0/1.0)
|   |   |   |   |   |   |   |   |   |   |   |   |   |   |   pixel493 > 0.333333: suprise (5.0/2.0)
|   |   |   |   |   |   |   |   |   |   |   |   |   pixel22 > 0.529412
|   |   |   |   |   |   |   |   |   |   |   |   |   |   pixel244 <= 0.358824: angry (4.0/1.0)
|   |   |   |   |   |   |   |   |   |   |   |   |   |   pixel244 > 0.358824: happy (7.0)
|   |   |   |   |   |   |   |   |   |   |   pixel415 > 0.860784
|   |   |   |   |   |   |   |   |   |   |   |   pixel351 <= 0.673529: neutral (10.0/1.0)
|   |   |   |   |   |   |   |   |   |   |   |   pixel351 > 0.673529: sad (5.0/2.0)
|   |   |   |   |   |   pixel351 > 0.729412
|   |   |   |   |   |   |   pixel351 <= 0.766667
|   |   |   |   |   |   |   |   pixel320 <= 0.682353: happy (7.0/4.0)
|   |   |   |   |   |   |   |   pixel320 > 0.682353: neutral (9.0)
|   |   |   |   |   |   |   pixel351 > 0.766667
|   |   |   |   |   |   |   |   pixel344 <= 0.598039: sad (11.0/1.0)
|   |   |   |   |   |   |   |   pixel344 > 0.598039
|   |   |   |   |   |   |   |   |   pixel227 <= 0.656863: neutral (5.0/1.0)
|   |   |   |   |   |   |   |   |   pixel227 > 0.656863: fear (9.0/2.0)
|   |   |   |   |   pixel550 > 0.962745
|   |   |   |   |   |   pixel203 <= 0.358824
|   |   |   |   |   |   |   pixel37 <= 0.585294: neutral (6.0/2.0)
|   |   |   |   |   |   |   pixel37 > 0.585294: fear (4.0)
|   |   |   |   |   |   pixel203 > 0.358824
|   |   |   |   |   |   |   pixel356 <= 0.660784: happy (7.0/1.0)
|   |   |   |   |   |   |   pixel356 > 0.660784: suprise (7.0/1.0)
|   |   pixel180 > 0.540196
|   |   |   pixel566 <= 0.196078
|   |   |   |   pixel466 <= 0.734314
|   |   |   |   |   pixel179 <= 0.419608
|   |   |   |   |   |   pixel23 <= 0.162745: neutral (9.0/2.0)
|   |   |   |   |   |   pixel23 > 0.162745
|   |   |   |   |   |   |   pixel391 <= 0.226471: angry (5.0/3.0)
|   |   |   |   |   |   |   pixel391 > 0.226471: sad (7.0)
|   |   |   |   |   pixel179 > 0.419608
|   |   |   |   |   |   pixel367 <= 0.163725
|   |   |   |   |   |   |   pixel467 <= 0.22549
|   |   |   |   |   |   |   |   pixel71 <= 0.355882: sad (9.0)
|   |   |   |   |   |   |   |   pixel71 > 0.355882: happy (5.0/2.0)
|   |   |   |   |   |   |   pixel467 > 0.22549: angry (8.0/1.0)
|   |   |   |   |   |   pixel367 > 0.163725
|   |   |   |   |   |   |   pixel493 <= 0.390196
|   |   |   |   |   |   |   |   pixel4 <= 0.041176
|   |   |   |   |   |   |   |   |   pixel228 <= 0.560784: fear (6.0)
|   |   |   |   |   |   |   |   |   pixel228 > 0.560784
|   |   |   |   |   |   |   |   |   |   pixel294 <= 0.595098: fear (5.0/2.0)
|   |   |   |   |   |   |   |   |   |   pixel294 > 0.595098: angry (7.0/2.0)
|   |   |   |   |   |   |   |   pixel4 > 0.041176
|   |   |   |   |   |   |   |   |   pixel252 <= 0.920588
|   |   |   |   |   |   |   |   |   |   pixel468 <= 0.058824
|   |   |   |   |   |   |   |   |   |   |   pixel481 <= 0.362745
|   |   |   |   |   |   |   |   |   |   |   |   pixel415 <= 0.310784: angry (5.0/3.0)
|   |   |   |   |   |   |   |   |   |   |   |   pixel415 > 0.310784: sad (11.0)
|   |   |   |   |   |   |   |   |   |   |   pixel481 > 0.362745: fear (10.0/2.0)
|   |   |   |   |   |   |   |   |   |   pixel468 > 0.058824
|   |   |   |   |   |   |   |   |   |   |   pixel307 <= 0.173529
|   |   |   |   |   |   |   |   |   |   |   |   pixel535 <= 0.568627
|   |   |   |   |   |   |   |   |   |   |   |   |   pixel119 <= 0.321569
|   |   |   |   |   |   |   |   |   |   |   |   |   |   pixel563 <= 0.087255: neutral (9.0)
|   |   |   |   |   |   |   |   |   |   |   |   |   |   pixel563 > 0.087255
|   |   |   |   |   |   |   |   |   |   |   |   |   |   |   pixel203 <= 0.661765: neutral (5.0/1.0)
|   |   |   |   |   |   |   |   |   |   |   |   |   |   |   pixel203 > 0.661765: happy (6.0/2.0)
|   |   |   |   |   |   |   |   |   |   |   |   |   pixel119 > 0.321569: happy (6.0/1.0)
|   |   |   |   |   |   |   |   |   |   |   |   pixel535 > 0.568627: sad (7.0/3.0)
|   |   |   |   |   |   |   |   |   |   |   pixel307 > 0.173529
|   |   |   |   |   |   |   |   |   |   |   |   pixel415 <= 0.219608
|   |   |   |   |   |   |   |   |   |   |   |   |   pixel24 <= 0.837255
|   |   |   |   |   |   |   |   |   |   |   |   |   |   pixel59 <= 0.654902
|   |   |   |   |   |   |   |   |   |   |   |   |   |   |   pixel469 <= 0.348039: sad (16.0/4.0)
|   |   |   |   |   |   |   |   |   |   |   |   |   |   |   pixel469 > 0.348039: fear (7.0/2.0)
|   |   |   |   |   |   |   |   |   |   |   |   |   |   pixel59 > 0.654902
|   |   |   |   |   |   |   |   |   |   |   |   |   |   |   pixel119 <= 0.67549: angry (4.0/1.0)
|   |   |   |   |   |   |   |   |   |   |   |   |   |   |   pixel119 > 0.67549: fear (4.0)
|   |   |   |   |   |   |   |   |   |   |   |   |   pixel24 > 0.837255: happy (4.0)
|   |   |   |   |   |   |   |   |   |   |   |   pixel415 > 0.219608
|   |   |   |   |   |   |   |   |   |   |   |   |   pixel356 <= 0.863725
|   |   |   |   |   |   |   |   |   |   |   |   |   |   pixel453 <= 0.810784
|   |   |   |   |   |   |   |   |   |   |   |   |   |   |   pixel469 <= 0.082353: suprise (7.0/3.0)
|   |   |   |   |   |   |   |   |   |   |   |   |   |   |   pixel469 > 0.082353
|   |   |   |   |   |   |   |   |   |   |   |   |   |   |   |   pixel492 <= 0.039216: suprise (6.0/2.0)
|   |   |   |   |   |   |   |   |   |   |   |   |   |   |   |   pixel492 > 0.039216
|   |   |   |   |   |   |   |   |   |   |   |   |   |   |   |   |   pixel344 <= 0.780392
|   |   |   |   |   |   |   |   |   |   |   |   |   |   |   |   |   |   pixel453 <= 0.622549
|   |   |   |   |   |   |   |   |   |   |   |   |   |   |   |   |   |   |   pixel71 <= 0.044118: sad (8.0/1.0)
|   |   |   |   |   |   |   |   |   |   |   |   |   |   |   |   |   |   |   pixel71 > 0.044118
|   |   |   |   |   |   |   |   |   |   |   |   |   |   |   |   |   |   |   |   pixel155 <= 0.814706
|   |   |   |   |   |   |   |   |   |   |   |   |   |   |   |   |   |   |   |   |   pixel312 <= 0.805882
|   |   |   |   |   |   |   |   |   |   |   |   |   |   |   |   |   |   |   |   |   |   pixel376 <= 0.373529
|   |   |   |   |   |   |   |   |   |   |   |   |   |   |   |   |   |   |   |   |   |   |   pixel22 <= 0.535294
|   |   |   |   |   |   |   |   |   |   |   |   |   |   |   |   |   |   |   |   |   |   |   |   pixel503 <= 0.544118: angry (7.0)
|   |   |   |   |   |   |   |   |   |   |   |   |   |   |   |   |   |   |   |   |   |   |   |   pixel503 > 0.544118: neutral (4.0/1.0)
|   |   |   |   |   |   |   |   |   |   |   |   |   |   |   |   |   |   |   |   |   |   |   pixel22 > 0.535294: neutral (5.0/1.0)
|   |   |   |   |   |   |   |   |   |   |   |   |   |   |   |   |   |   |   |   |   |   pixel376 > 0.373529
|   |   |   |   |   |   |   |   |   |   |   |   |   |   |   |   |   |   |   |   |   |   |   pixel200 <= 0.138235: angry (4.0)
|   |   |   |   |   |   |   |   |   |   |   |   |   |   |   |   |   |   |   |   |   |   |   pixel200 > 0.138235
|   |   |   |   |   |   |   |   |   |   |   |   |   |   |   |   |   |   |   |   |   |   |   |   pixel228 <= 0.592157
|   |   |   |   |   |   |   |   |   |   |   |   |   |   |   |   |   |   |   |   |   |   |   |   |   pixel515 <= 0.140196: neutral (4.0/1.0)
|   |   |   |   |   |   |   |   |   |   |   |   |   |   |   |   |   |   |   |   |   |   |   |   |   pixel515 > 0.140196
|   |   |   |   |   |   |   |   |   |   |   |   |   |   |   |   |   |   |   |   |   |   |   |   |   |   pixel376 <= 0.591176: happy (8.0/1.0)
|   |   |   |   |   |   |   |   |   |   |   |   |   |   |   |   |   |   |   |   |   |   |   |   |   |   pixel376 > 0.591176: angry (4.0/2.0)
|   |   |   |   |   |   |   |   |   |   |   |   |   |   |   |   |   |   |   |   |   |   |   |   pixel228 > 0.592157
|   |   |   |   |   |   |   |   |   |   |   |   |   |   |   |   |   |   |   |   |   |   |   |   |   pixel467 <= 0.357843: sad (12.0)
|   |   |   |   |   |   |   |   |   |   |   |   |   |   |   |   |   |   |   |   |   |   |   |   |   pixel467 > 0.357843: angry (5.0/2.0)
|   |   |   |   |   |   |   |   |   |   |   |   |   |   |   |   |   |   |   |   |   pixel312 > 0.805882
|   |   |   |   |   |   |   |   |   |   |   |   |   |   |   |   |   |   |   |   |   |   pixel383 <= 0.420588: fear (4.0/1.0)
|   |   |   |   |   |   |   |   |   |   |   |   |   |   |   |   |   |   |   |   |   |   pixel383 > 0.420588: angry (4.0/2.0)
|   |   |   |   |   |   |   |   |   |   |   |   |   |   |   |   |   |   |   |   pixel155 > 0.814706: fear (6.0/2.0)
|   |   |   |   |   |   |   |   |   |   |   |   |   |   |   |   |   |   pixel453 > 0.622549
|   |   |   |   |   |   |   |   |   |   |   |   |   |   |   |   |   |   |   pixel566 <= 0.155882
|   |   |   |   |   |   |   |   |   |   |   |   |   |   |   |   |   |   |   |   pixel200 <= 0.42549: suprise (7.0/3.0)
|   |   |   |   |   |   |   |   |   |   |   |   |   |   |   |   |   |   |   |   pixel200 > 0.42549: sad (7.0/1.0)
|   |   |   |   |   |   |   |   |   |   |   |   |   |   |   |   |   |   |   pixel566 > 0.155882: angry (4.0/2.0)
|   |   |   |   |   |   |   |   |   |   |   |   |   |   |   |   |   pixel344 > 0.780392
|   |   |   |   |   |   |   |   |   |   |   |   |   |   |   |   |   |   pixel343 <= 0.833333: suprise (8.0/2.0)
|   |   |   |   |   |   |   |   |   |   |   |   |   |   |   |   |   |   pixel343 > 0.833333
|   |   |   |   |   |   |   |   |   |   |   |   |   |   |   |   |   |   |   pixel23 <= 0.22549: neutral (4.0/2.0)
|   |   |   |   |   |   |   |   |   |   |   |   |   |   |   |   |   |   |   pixel23 > 0.22549: sad (7.0)
|   |   |   |   |   |   |   |   |   |   |   |   |   |   pixel453 > 0.810784
|   |   |   |   |   |   |   |   |   |   |   |   |   |   |   pixel466 <= 0.445098: neutral (6.0/1.0)
|   |   |   |   |   |   |   |   |   |   |   |   |   |   |   pixel466 > 0.445098: angry (4.0/2.0)
|   |   |   |   |   |   |   |   |   |   |   |   |   pixel356 > 0.863725: happy (5.0/2.0)
|   |   |   |   |   |   |   |   |   pixel252 > 0.920588: fear (7.0/3.0)
|   |   |   |   |   |   |   pixel493 > 0.390196
|   |   |   |   |   |   |   |   pixel252 <= 0.707843
|   |   |   |   |   |   |   |   |   pixel173 <= 0.272549: sad (4.0)
|   |   |   |   |   |   |   |   |   pixel173 > 0.272549: fear (4.0/1.0)
|   |   |   |   |   |   |   |   pixel252 > 0.707843: suprise (6.0/1.0)
|   |   |   |   pixel466 > 0.734314
|   |   |   |   |   pixel37 <= 0.417647: neutral (5.0)
|   |   |   |   |   pixel37 > 0.417647: fear (8.0/2.0)
|   |   |   pixel566 > 0.196078
|   |   |   |   pixel367 <= 0.631373
|   |   |   |   |   pixel468 <= 0.044118
|   |   |   |   |   |   pixel367 <= 0.333333: angry (7.0/1.0)
|   |   |   |   |   |   pixel367 > 0.333333: suprise (27.0/6.0)
|   |   |   |   |   pixel468 > 0.044118
|   |   |   |   |   |   pixel492 <= 0.118627
|   |   |   |   |   |   |   pixel468 <= 0.054902: sad (5.0)
|   |   |   |   |   |   |   pixel468 > 0.054902
|   |   |   |   |   |   |   |   pixel560 <= 0.720588
|   |   |   |   |   |   |   |   |   pixel252 <= 0.573529
|   |   |   |   |   |   |   |   |   |   pixel492 <= 0.078431: happy (7.0/4.0)
|   |   |   |   |   |   |   |   |   |   pixel492 > 0.078431: fear (6.0/2.0)
|   |   |   |   |   |   |   |   |   pixel252 > 0.573529
|   |   |   |   |   |   |   |   |   |   pixel551 <= 0.072549
|   |   |   |   |   |   |   |   |   |   |   pixel220 <= 0.306863: fear (5.0/1.0)
|   |   |   |   |   |   |   |   |   |   |   pixel220 > 0.306863: angry (7.0/2.0)
|   |   |   |   |   |   |   |   |   |   pixel551 > 0.072549
|   |   |   |   |   |   |   |   |   |   |   pixel491 <= 0.146078
|   |   |   |   |   |   |   |   |   |   |   |   pixel351 <= 0.639216
|   |   |   |   |   |   |   |   |   |   |   |   |   pixel455 <= 0.142157: suprise (5.0)
|   |   |   |   |   |   |   |   |   |   |   |   |   pixel455 > 0.142157
|   |   |   |   |   |   |   |   |   |   |   |   |   |   pixel569 <= 0.402941: suprise (6.0/3.0)
|   |   |   |   |   |   |   |   |   |   |   |   |   |   pixel569 > 0.402941: fear (12.0/2.0)
|   |   |   |   |   |   |   |   |   |   |   |   pixel351 > 0.639216
|   |   |   |   |   |   |   |   |   |   |   |   |   pixel466 <= 0.257843: suprise (35.0/1.0)
|   |   |   |   |   |   |   |   |   |   |   |   |   pixel466 > 0.257843
|   |   |   |   |   |   |   |   |   |   |   |   |   |   pixel0 <= 0.623529: happy (5.0/1.0)
|   |   |   |   |   |   |   |   |   |   |   |   |   |   pixel0 > 0.623529: suprise (5.0/1.0)
|   |   |   |   |   |   |   |   |   |   |   pixel491 > 0.146078
|   |   |   |   |   |   |   |   |   |   |   |   pixel131 <= 0.609804: suprise (4.0/1.0)
|   |   |   |   |   |   |   |   |   |   |   |   pixel131 > 0.609804
|   |   |   |   |   |   |   |   |   |   |   |   |   pixel37 <= 0.704902: fear (6.0/1.0)
|   |   |   |   |   |   |   |   |   |   |   |   |   pixel37 > 0.704902: angry (4.0)
|   |   |   |   |   |   |   |   pixel560 > 0.720588: happy (5.0)
|   |   |   |   |   |   pixel492 > 0.118627
|   |   |   |   |   |   |   pixel351 <= 0.227451
|   |   |   |   |   |   |   |   pixel466 <= 0.317647
|   |   |   |   |   |   |   |   |   pixel131 <= 0.727451: angry (5.0)
|   |   |   |   |   |   |   |   |   pixel131 > 0.727451: sad (5.0/3.0)
|   |   |   |   |   |   |   |   pixel466 > 0.317647
|   |   |   |   |   |   |   |   |   pixel503 <= 0.196078
|   |   |   |   |   |   |   |   |   |   pixel384 <= 0.52549
|   |   |   |   |   |   |   |   |   |   |   pixel220 <= 0.428431: sad (7.0/1.0)
|   |   |   |   |   |   |   |   |   |   |   pixel220 > 0.428431: fear (5.0/1.0)
|   |   |   |   |   |   |   |   |   |   pixel384 > 0.52549: neutral (4.0/1.0)
|   |   |   |   |   |   |   |   |   pixel503 > 0.196078: sad (12.0)
|   |   |   |   |   |   |   pixel351 > 0.227451
|   |   |   |   |   |   |   |   pixel401 <= 0.280392
|   |   |   |   |   |   |   |   |   pixel252 <= 0.702941
|   |   |   |   |   |   |   |   |   |   pixel356 <= 0.378431
|   |   |   |   |   |   |   |   |   |   |   pixel22 <= 0.320588
|   |   |   |   |   |   |   |   |   |   |   |   pixel469 <= 0.192157: neutral (4.0/1.0)
|   |   |   |   |   |   |   |   |   |   |   |   pixel469 > 0.192157: angry (7.0/1.0)
|   |   |   |   |   |   |   |   |   |   |   pixel22 > 0.320588: happy (5.0)
|   |   |   |   |   |   |   |   |   |   pixel356 > 0.378431: neutral (8.0/1.0)
|   |   |   |   |   |   |   |   |   pixel252 > 0.702941
|   |   |   |   |   |   |   |   |   |   pixel204 <= 0.661765: happy (5.0/1.0)
|   |   |   |   |   |   |   |   |   |   pixel204 > 0.661765: sad (8.0/1.0)
|   |   |   |   |   |   |   |   pixel401 > 0.280392
|   |   |   |   |   |   |   |   |   pixel368 <= 0.711765
|   |   |   |   |   |   |   |   |   |   pixel444 <= 0.104902
|   |   |   |   |   |   |   |   |   |   |   pixel569 <= 0.645098
|   |   |   |   |   |   |   |   |   |   |   |   pixel320 <= 0.505882
|   |   |   |   |   |   |   |   |   |   |   |   |   pixel383 <= 0.652941: happy (5.0)
|   |   |   |   |   |   |   |   |   |   |   |   |   pixel383 > 0.652941: angry (5.0/1.0)
|   |   |   |   |   |   |   |   |   |   |   |   pixel320 > 0.505882: angry (14.0/2.0)
|   |   |   |   |   |   |   |   |   |   |   pixel569 > 0.645098
|   |   |   |   |   |   |   |   |   |   |   |   pixel444 <= 0.059804: happy (5.0)
|   |   |   |   |   |   |   |   |   |   |   |   pixel444 > 0.059804: suprise (5.0/1.0)
|   |   |   |   |   |   |   |   |   |   pixel444 > 0.104902
|   |   |   |   |   |   |   |   |   |   |   pixel491 <= 0.357843
|   |   |   |   |   |   |   |   |   |   |   |   pixel492 <= 0.277451
|   |   |   |   |   |   |   |   |   |   |   |   |   pixel563 <= 0.195098
|   |   |   |   |   |   |   |   |   |   |   |   |   |   pixel367 <= 0.205882: angry (7.0/2.0)
|   |   |   |   |   |   |   |   |   |   |   |   |   |   pixel367 > 0.205882
|   |   |   |   |   |   |   |   |   |   |   |   |   |   |   pixel490 <= 0.122549
|   |   |   |   |   |   |   |   |   |   |   |   |   |   |   |   pixel504 <= 0.417647: angry (4.0/2.0)
|   |   |   |   |   |   |   |   |   |   |   |   |   |   |   |   pixel504 > 0.417647: fear (7.0/2.0)
|   |   |   |   |   |   |   |   |   |   |   |   |   |   |   pixel490 > 0.122549
|   |   |   |   |   |   |   |   |   |   |   |   |   |   |   |   pixel351 <= 0.72549: sad (14.0/1.0)
|   |   |   |   |   |   |   |   |   |   |   |   |   |   |   |   pixel351 > 0.72549: fear (5.0/2.0)
|   |   |   |   |   |   |   |   |   |   |   |   |   pixel563 > 0.195098
|   |   |   |   |   |   |   |   |   |   |   |   |   |   pixel119 <= 0.045098
|   |   |   |   |   |   |   |   |   |   |   |   |   |   |   pixel204 <= 0.664706: neutral (6.0/3.0)
|   |   |   |   |   |   |   |   |   |   |   |   |   |   |   pixel204 > 0.664706: fear (7.0)
|   |   |   |   |   |   |   |   |   |   |   |   |   |   pixel119 > 0.045098
|   |   |   |   |   |   |   |   |   |   |   |   |   |   |   pixel466 <= 0.068627
|   |   |   |   |   |   |   |   |   |   |   |   |   |   |   |   pixel200 <= 0.312745: suprise (8.0/1.0)
|   |   |   |   |   |   |   |   |   |   |   |   |   |   |   |   pixel200 > 0.312745: happy (5.0/2.0)
|   |   |   |   |   |   |   |   |   |   |   |   |   |   |   pixel466 > 0.068627
|   |   |   |   |   |   |   |   |   |   |   |   |   |   |   |   pixel225 <= 0.173529
|   |   |   |   |   |   |   |   |   |   |   |   |   |   |   |   |   pixel131 <= 0.627451: happy (4.0/2.0)
|   |   |   |   |   |   |   |   |   |   |   |   |   |   |   |   |   pixel131 > 0.627451: angry (10.0)
|   |   |   |   |   |   |   |   |   |   |   |   |   |   |   |   pixel225 > 0.173529
|   |   |   |   |   |   |   |   |   |   |   |   |   |   |   |   |   pixel320 <= 0.276471
|   |   |   |   |   |   |   |   |   |   |   |   |   |   |   |   |   |   pixel453 <= 0.692157: neutral (4.0/1.0)
|   |   |   |   |   |   |   |   |   |   |   |   |   |   |   |   |   |   pixel453 > 0.692157: fear (6.0/2.0)
|   |   |   |   |   |   |   |   |   |   |   |   |   |   |   |   |   pixel320 > 0.276471
|   |   |   |   |   |   |   |   |   |   |   |   |   |   |   |   |   |   pixel490 <= 0.10098
|   |   |   |   |   |   |   |   |   |   |   |   |   |   |   |   |   |   |   pixel119 <= 0.567647: suprise (11.0)
|   |   |   |   |   |   |   |   |   |   |   |   |   |   |   |   |   |   |   pixel119 > 0.567647: sad (4.0/2.0)
|   |   |   |   |   |   |   |   |   |   |   |   |   |   |   |   |   |   pixel490 > 0.10098
|   |   |   |   |   |   |   |   |   |   |   |   |   |   |   |   |   |   |   pixel179 <= 0.778431
|   |   |   |   |   |   |   |   |   |   |   |   |   |   |   |   |   |   |   |   pixel455 <= 0.955882
|   |   |   |   |   |   |   |   |   |   |   |   |   |   |   |   |   |   |   |   |   pixel119 <= 0.854902
|   |   |   |   |   |   |   |   |   |   |   |   |   |   |   |   |   |   |   |   |   |   pixel155 <= 0.762745
|   |   |   |   |   |   |   |   |   |   |   |   |   |   |   |   |   |   |   |   |   |   |   pixel444 <= 0.141176
|   |   |   |   |   |   |   |   |   |   |   |   |   |   |   |   |   |   |   |   |   |   |   |   pixel432 <= 0.384314: suprise (8.0)
|   |   |   |   |   |   |   |   |   |   |   |   |   |   |   |   |   |   |   |   |   |   |   |   pixel432 > 0.384314: angry (4.0/1.0)
|   |   |   |   |   |   |   |   |   |   |   |   |   |   |   |   |   |   |   |   |   |   |   pixel444 > 0.141176
|   |   |   |   |   |   |   |   |   |   |   |   |   |   |   |   |   |   |   |   |   |   |   |   pixel415 <= 0.568627
|   |   |   |   |   |   |   |   |   |   |   |   |   |   |   |   |   |   |   |   |   |   |   |   |   pixel356 <= 0.7
|   |   |   |   |   |   |   |   |   |   |   |   |   |   |   |   |   |   |   |   |   |   |   |   |   |   pixel415 <= 0.538235
|   |   |   |   |   |   |   |   |   |   |   |   |   |   |   |   |   |   |   |   |   |   |   |   |   |   |   pixel481 <= 0.180392: angry (17.0/4.0)
|   |   |   |   |   |   |   |   |   |   |   |   |   |   |   |   |   |   |   |   |   |   |   |   |   |   |   pixel481 > 0.180392
|   |   |   |   |   |   |   |   |   |   |   |   |   |   |   |   |   |   |   |   |   |   |   |   |   |   |   |   pixel560 <= 0.480392
|   |   |   |   |   |   |   |   |   |   |   |   |   |   |   |   |   |   |   |   |   |   |   |   |   |   |   |   |   pixel317 <= 0.418627
|   |   |   |   |   |   |   |   |   |   |   |   |   |   |   |   |   |   |   |   |   |   |   |   |   |   |   |   |   |   pixel569 <= 0.362745: sad (7.0/1.0)
|   |   |   |   |   |   |   |   |   |   |   |   |   |   |   |   |   |   |   |   |   |   |   |   |   |   |   |   |   |   pixel569 > 0.362745: happy (4.0/1.0)
|   |   |   |   |   |   |   |   |   |   |   |   |   |   |   |   |   |   |   |   |   |   |   |   |   |   |   |   |   pixel317 > 0.418627
|   |   |   |   |   |   |   |   |   |   |   |   |   |   |   |   |   |   |   |   |   |   |   |   |   |   |   |   |   |   pixel294 <= 0.705882
|   |   |   |   |   |   |   |   |   |   |   |   |   |   |   |   |   |   |   |   |   |   |   |   |   |   |   |   |   |   |   pixel307 <= 0.589216
|   |   |   |   |   |   |   |   |   |   |   |   |   |   |   |   |   |   |   |   |   |   |   |   |   |   |   |   |   |   |   |   pixel558 <= 0.357843: neutral (8.0/2.0)
|   |   |   |   |   |   |   |   |   |   |   |   |   |   |   |   |   |   |   |   |   |   |   |   |   |   |   |   |   |   |   |   pixel558 > 0.357843: angry (4.0/2.0)
|   |   |   |   |   |   |   |   |   |   |   |   |   |   |   |   |   |   |   |   |   |   |   |   |   |   |   |   |   |   |   pixel307 > 0.589216
|   |   |   |   |   |   |   |   |   |   |   |   |   |   |   |   |   |   |   |   |   |   |   |   |   |   |   |   |   |   |   |   pixel204 <= 0.690196
|   |   |   |   |   |   |   |   |   |   |   |   |   |   |   |   |   |   |   |   |   |   |   |   |   |   |   |   |   |   |   |   |   pixel466 <= 0.27451: suprise (7.0/3.0)
|   |   |   |   |   |   |   |   |   |   |   |   |   |   |   |   |   |   |   |   |   |   |   |   |   |   |   |   |   |   |   |   |   pixel466 > 0.27451: angry (7.0)
|   |   |   |   |   |   |   |   |   |   |   |   |   |   |   |   |   |   |   |   |   |   |   |   |   |   |   |   |   |   |   |   pixel204 > 0.690196: suprise (6.0)
|   |   |   |   |   |   |   |   |   |   |   |   |   |   |   |   |   |   |   |   |   |   |   |   |   |   |   |   |   |   pixel294 > 0.705882: fear (5.0/3.0)
|   |   |   |   |   |   |   |   |   |   |   |   |   |   |   |   |   |   |   |   |   |   |   |   |   |   |   |   pixel560 > 0.480392
|   |   |   |   |   |   |   |   |   |   |   |   |   |   |   |   |   |   |   |   |   |   |   |   |   |   |   |   |   pixel294 <= 0.576471: fear (6.0)
|   |   |   |   |   |   |   |   |   |   |   |   |   |   |   |   |   |   |   |   |   |   |   |   |   |   |   |   |   pixel294 > 0.576471: sad (10.0/3.0)
|   |   |   |   |   |   |   |   |   |   |   |   |   |   |   |   |   |   |   |   |   |   |   |   |   |   pixel415 > 0.538235: angry (11.0)
|   |   |   |   |   |   |   |   |   |   |   |   |   |   |   |   |   |   |   |   |   |   |   |   |   pixel356 > 0.7
|   |   |   |   |   |   |   |   |   |   |   |   |   |   |   |   |   |   |   |   |   |   |   |   |   |   pixel415 <= 0.370588
|   |   |   |   |   |   |   |   |   |   |   |   |   |   |   |   |   |   |   |   |   |   |   |   |   |   |   pixel203 <= 0.581373: happy (5.0/1.0)
