J48 pruned tree
------------------

pixel23 <= 0.964706
|   pixel492 <= 0.286275
|   |   pixel180 <= 0.540196
|   |   |   pixel468 <= 0.079412
|   |   |   |   pixel535 <= 0.27549
|   |   |   |   |   pixel424 <= 0.403922
|   |   |   |   |   |   pixel503 <= 0.617647
|   |   |   |   |   |   |   pixel503 <= 0.346078
|   |   |   |   |   |   |   |   pixel344 <= 0.091176
|   |   |   |   |   |   |   |   |   pixel307 <= 0.30098
|   |   |   |   |   |   |   |   |   |   pixel1 <= 0.00098: angry (13.0/4.0)
|   |   |   |   |   |   |   |   |   |   pixel1 > 0.00098: happy (4.0/1.0)
|   |   |   |   |   |   |   |   |   pixel307 > 0.30098: fear (2.0/1.0)
|   |   |   |   |   |   |   |   pixel344 > 0.091176
|   |   |   |   |   |   |   |   |   pixel552 <= 0.617647
|   |   |   |   |   |   |   |   |   |   pixel225 <= 0.019608: fear (4.0/1.0)
|   |   |   |   |   |   |   |   |   |   pixel225 > 0.019608
|   |   |   |   |   |   |   |   |   |   |   pixel391 <= 0.097059
|   |   |   |   |   |   |   |   |   |   |   |   pixel59 <= 0.268627: neutral (2.0)
|   |   |   |   |   |   |   |   |   |   |   |   pixel59 > 0.268627: sad (3.0/1.0)
|   |   |   |   |   |   |   |   |   |   |   pixel391 > 0.097059
|   |   |   |   |   |   |   |   |   |   |   |   pixel424 <= 0.341176
|   |   |   |   |   |   |   |   |   |   |   |   |   pixel351 <= 0.241176
|   |   |   |   |   |   |   |   |   |   |   |   |   |   pixel515 <= 0.165686
|   |   |   |   |   |   |   |   |   |   |   |   |   |   |   pixel383 <= 0.093137: sad (10.0)
|   |   |   |   |   |   |   |   |   |   |   |   |   |   |   pixel383 > 0.093137
|   |   |   |   |   |   |   |   |   |   |   |   |   |   |   |   pixel181 <= 0.135294: sad (2.0)
|   |   |   |   |   |   |   |   |   |   |   |   |   |   |   |   pixel181 > 0.135294: angry (6.0/1.0)
|   |   |   |   |   |   |   |   |   |   |   |   |   |   pixel515 > 0.165686: angry (6.0/1.0)
|   |   |   |   |   |   |   |   |   |   |   |   |   pixel351 > 0.241176: sad (23.0)
|   |   |   |   |   |   |   |   |   |   |   |   pixel424 > 0.341176: angry (3.0/1.0)
|   |   |   |   |   |   |   |   |   pixel552 > 0.617647: angry (7.0/1.0)
|   |   |   |   |   |   |   pixel503 > 0.346078
|   |   |   |   |   |   |   |   pixel23 <= 0.568627: angry (8.0/1.0)
|   |   |   |   |   |   |   |   pixel23 > 0.568627: suprise (2.0)
|   |   |   |   |   |   pixel503 > 0.617647
|   |   |   |   |   |   |   pixel356 <= 0.667647
|   |   |   |   |   |   |   |   pixel401 <= 0.107843: fear (3.0/1.0)
|   |   |   |   |   |   |   |   pixel401 > 0.107843: happy (6.0/1.0)
|   |   |   |   |   |   |   pixel356 > 0.667647: sad (5.0/1.0)
|   |   |   |   |   pixel424 > 0.403922
|   |   |   |   |   |   pixel23 <= 0.09902: neutral (4.0)
|   |   |   |   |   |   pixel23 > 0.09902
|   |   |   |   |   |   |   pixel228 <= 0.173529: neutral (2.0)
|   |   |   |   |   |   |   pixel228 > 0.173529
|   |   |   |   |   |   |   |   pixel468 <= 0.003922: fear (3.0)
|   |   |   |   |   |   |   |   pixel468 > 0.003922
|   |   |   |   |   |   |   |   |   pixel228 <= 0.376471: fear (4.0/1.0)
|   |   |   |   |   |   |   |   |   pixel228 > 0.376471: sad (10.0/1.0)
|   |   |   |   pixel535 > 0.27549
|   |   |   |   |   pixel455 <= 0.045098
|   |   |   |   |   |   pixel491 <= 0.092157: fear (4.0/1.0)
|   |   |   |   |   |   pixel491 > 0.092157: sad (4.0)
|   |   |   |   |   pixel455 > 0.045098
|   |   |   |   |   |   pixel563 <= 0.087255
|   |   |   |   |   |   |   pixel37 <= 0.707843
|   |   |   |   |   |   |   |   pixel0 <= 0.35098: suprise (2.0)
|   |   |   |   |   |   |   |   pixel0 > 0.35098: neutral (2.0)
|   |   |   |   |   |   |   pixel37 > 0.707843: angry (4.0)
|   |   |   |   |   |   pixel563 > 0.087255
|   |   |   |   |   |   |   pixel23 <= 0.769608
|   |   |   |   |   |   |   |   pixel547 <= 0.115686
|   |   |   |   |   |   |   |   |   pixel59 <= 0.532353: happy (5.0/1.0)
|   |   |   |   |   |   |   |   |   pixel59 > 0.532353: angry (6.0)
|   |   |   |   |   |   |   |   pixel547 > 0.115686
|   |   |   |   |   |   |   |   |   pixel180 <= 0.528431
|   |   |   |   |   |   |   |   |   |   pixel466 <= 0.040196
|   |   |   |   |   |   |   |   |   |   |   pixel155 <= 0.388235: suprise (2.0)
|   |   |   |   |   |   |   |   |   |   |   pixel155 > 0.388235: happy (3.0)
|   |   |   |   |   |   |   |   |   |   pixel466 > 0.040196
|   |   |   |   |   |   |   |   |   |   |   pixel544 <= 0.139216: sad (7.0/1.0)
|   |   |   |   |   |   |   |   |   |   |   pixel544 > 0.139216
|   |   |   |   |   |   |   |   |   |   |   |   pixel490 <= 0.460784
|   |   |   |   |   |   |   |   |   |   |   |   |   pixel1 <= 0.657843
|   |   |   |   |   |   |   |   |   |   |   |   |   |   pixel71 <= 0.696078
|   |   |   |   |   |   |   |   |   |   |   |   |   |   |   pixel228 <= 0.262745: angry (4.0)
|   |   |   |   |   |   |   |   |   |   |   |   |   |   |   pixel228 > 0.262745
|   |   |   |   |   |   |   |   |   |   |   |   |   |   |   |   pixel59 <= 0.47451
|   |   |   |   |   |   |   |   |   |   |   |   |   |   |   |   |   pixel468 <= 0.047059: suprise (4.0)
|   |   |   |   |   |   |   |   |   |   |   |   |   |   |   |   |   pixel468 > 0.047059
|   |   |   |   |   |   |   |   |   |   |   |   |   |   |   |   |   |   pixel200 <= 0.218627: suprise (2.0)
|   |   |   |   |   |   |   |   |   |   |   |   |   |   |   |   |   |   pixel200 > 0.218627: fear (6.0)
|   |   |   |   |   |   |   |   |   |   |   |   |   |   |   |   pixel59 > 0.47451
|   |   |   |   |   |   |   |   |   |   |   |   |   |   |   |   |   pixel204 <= 0.461765: suprise (8.0)
|   |   |   |   |   |   |   |   |   |   |   |   |   |   |   |   |   pixel204 > 0.461765
|   |   |   |   |   |   |   |   |   |   |   |   |   |   |   |   |   |   pixel0 <= 0.334314: angry (4.0)
|   |   |   |   |   |   |   |   |   |   |   |   |   |   |   |   |   |   pixel0 > 0.334314: suprise (2.0)
|   |   |   |   |   |   |   |   |   |   |   |   |   |   pixel71 > 0.696078: sad (2.0)
|   |   |   |   |   |   |   |   |   |   |   |   |   pixel1 > 0.657843: sad (5.0/1.0)
|   |   |   |   |   |   |   |   |   |   |   |   pixel490 > 0.460784
|   |   |   |   |   |   |   |   |   |   |   |   |   pixel1 <= 0.511765: fear (3.0)
|   |   |   |   |   |   |   |   |   |   |   |   |   pixel1 > 0.511765: happy (3.0/1.0)
|   |   |   |   |   |   |   |   |   pixel180 > 0.528431: happy (3.0)
|   |   |   |   |   |   |   pixel23 > 0.769608
|   |   |   |   |   |   |   |   pixel0 <= 0.502941: sad (4.0)
|   |   |   |   |   |   |   |   pixel0 > 0.502941: suprise (12.0/1.0)
|   |   |   pixel468 > 0.079412
|   |   |   |   pixel368 <= 0.32549
|   |   |   |   |   pixel554 <= 0.940196
|   |   |   |   |   |   pixel119 <= 0.92451
|   |   |   |   |   |   |   pixel444 <= 0.070588
|   |   |   |   |   |   |   |   pixel1 <= 0.8
|   |   |   |   |   |   |   |   |   pixel401 <= 0.127451
|   |   |   |   |   |   |   |   |   |   pixel567 <= 0.093137: sad (4.0/1.0)
|   |   |   |   |   |   |   |   |   |   pixel567 > 0.093137: happy (5.0)
|   |   |   |   |   |   |   |   |   pixel401 > 0.127451
|   |   |   |   |   |   |   |   |   |   pixel469 <= 0.117647
|   |   |   |   |   |   |   |   |   |   |   pixel401 <= 0.265686: angry (6.0)
|   |   |   |   |   |   |   |   |   |   |   pixel401 > 0.265686: fear (4.0)
|   |   |   |   |   |   |   |   |   |   pixel469 > 0.117647
|   |   |   |   |   |   |   |   |   |   |   pixel59 <= 0.520588: sad (9.0/1.0)
|   |   |   |   |   |   |   |   |   |   |   pixel59 > 0.520588: fear (2.0)
|   |   |   |   |   |   |   |   pixel1 > 0.8: suprise (3.0/1.0)
|   |   |   |   |   |   |   pixel444 > 0.070588
|   |   |   |   |   |   |   |   pixel544 <= 0.734314
|   |   |   |   |   |   |   |   |   pixel567 <= 0.540196
|   |   |   |   |   |   |   |   |   |   pixel368 <= 0.090196
|   |   |   |   |   |   |   |   |   |   |   pixel401 <= 0.235294
|   |   |   |   |   |   |   |   |   |   |   |   pixel200 <= 0.145098: sad (5.0)
|   |   |   |   |   |   |   |   |   |   |   |   pixel200 > 0.145098
|   |   |   |   |   |   |   |   |   |   |   |   |   pixel37 <= 0.153922: suprise (2.0)
|   |   |   |   |   |   |   |   |   |   |   |   |   pixel37 > 0.153922: angry (4.0)
|   |   |   |   |   |   |   |   |   |   |   pixel401 > 0.235294
|   |   |   |   |   |   |   |   |   |   |   |   pixel47 <= 0.009804
|   |   |   |   |   |   |   |   |   |   |   |   |   pixel131 <= 0.389216: fear (3.0)
|   |   |   |   |   |   |   |   |   |   |   |   |   pixel131 > 0.389216: neutral (2.0/1.0)
|   |   |   |   |   |   |   |   |   |   |   |   pixel47 > 0.009804
|   |   |   |   |   |   |   |   |   |   |   |   |   pixel225 <= 0.182353
|   |   |   |   |   |   |   |   |   |   |   |   |   |   pixel416 <= 0.052941: neutral (7.0)
|   |   |   |   |   |   |   |   |   |   |   |   |   |   pixel416 > 0.052941
|   |   |   |   |   |   |   |   |   |   |   |   |   |   |   pixel455 <= 0.077451: neutral (2.0)
|   |   |   |   |   |   |   |   |   |   |   |   |   |   |   pixel455 > 0.077451: angry (9.0)
|   |   |   |   |   |   |   |   |   |   |   |   |   pixel225 > 0.182353
|   |   |   |   |   |   |   |   |   |   |   |   |   |   pixel181 <= 0.487255: happy (4.0/1.0)
|   |   |   |   |   |   |   |   |   |   |   |   |   |   pixel181 > 0.487255: angry (3.0)
|   |   |   |   |   |   |   |   |   |   pixel368 > 0.090196
|   |   |   |   |   |   |   |   |   |   |   pixel179 <= 0.064706
|   |   |   |   |   |   |   |   |   |   |   |   pixel468 <= 0.155882
|   |   |   |   |   |   |   |   |   |   |   |   |   pixel173 <= 0.154902: happy (4.0/1.0)
|   |   |   |   |   |   |   |   |   |   |   |   |   pixel173 > 0.154902: neutral (3.0/1.0)
|   |   |   |   |   |   |   |   |   |   |   |   pixel468 > 0.155882
|   |   |   |   |   |   |   |   |   |   |   |   |   pixel155 <= 0.111765: sad (12.0/2.0)
|   |   |   |   |   |   |   |   |   |   |   |   |   pixel155 > 0.111765: suprise (2.0)
|   |   |   |   |   |   |   |   |   |   |   pixel179 > 0.064706
|   |   |   |   |   |   |   |   |   |   |   |   pixel535 <= 0.060784
|   |   |   |   |   |   |   |   |   |   |   |   |   pixel400 <= 0.105882
|   |   |   |   |   |   |   |   |   |   |   |   |   |   pixel37 <= 0.277451: angry (4.0/1.0)
|   |   |   |   |   |   |   |   |   |   |   |   |   |   pixel37 > 0.277451
|   |   |   |   |   |   |   |   |   |   |   |   |   |   |   pixel4 <= 0.073529: happy (2.0)
|   |   |   |   |   |   |   |   |   |   |   |   |   |   |   pixel4 > 0.073529: neutral (2.0)
|   |   |   |   |   |   |   |   |   |   |   |   |   pixel400 > 0.105882
|   |   |   |   |   |   |   |   |   |   |   |   |   |   pixel490 <= 0.070588
|   |   |   |   |   |   |   |   |   |   |   |   |   |   |   pixel490 <= 0.037255: angry (2.0/1.0)
|   |   |   |   |   |   |   |   |   |   |   |   |   |   |   pixel490 > 0.037255
|   |   |   |   |   |   |   |   |   |   |   |   |   |   |   |   pixel23 <= 0.233333: sad (4.0)
|   |   |   |   |   |   |   |   |   |   |   |   |   |   |   |   pixel23 > 0.233333: fear (5.0/1.0)
|   |   |   |   |   |   |   |   |   |   |   |   |   |   pixel490 > 0.070588
|   |   |   |   |   |   |   |   |   |   |   |   |   |   |   pixel550 <= 0.302941
|   |   |   |   |   |   |   |   |   |   |   |   |   |   |   |   pixel554 <= 0.129412
|   |   |   |   |   |   |   |   |   |   |   |   |   |   |   |   |   pixel467 <= 0.257843
|   |   |   |   |   |   |   |   |   |   |   |   |   |   |   |   |   |   pixel467 <= 0.10098: sad (3.0/1.0)
|   |   |   |   |   |   |   |   |   |   |   |   |   |   |   |   |   |   pixel467 > 0.10098
|   |   |   |   |   |   |   |   |   |   |   |   |   |   |   |   |   |   |   pixel294 <= 0.330392
|   |   |   |   |   |   |   |   |   |   |   |   |   |   |   |   |   |   |   |   pixel552 <= 0.036275: neutral (9.0/1.0)
|   |   |   |   |   |   |   |   |   |   |   |   |   |   |   |   |   |   |   |   pixel552 > 0.036275: happy (2.0)
|   |   |   |   |   |   |   |   |   |   |   |   |   |   |   |   |   |   |   pixel294 > 0.330392: happy (7.0)
|   |   |   |   |   |   |   |   |   |   |   |   |   |   |   |   |   pixel467 > 0.257843: sad (4.0)
|   |   |   |   |   |   |   |   |   |   |   |   |   |   |   |   pixel554 > 0.129412
|   |   |   |   |   |   |   |   |   |   |   |   |   |   |   |   |   pixel0 <= 0.297059: sad (13.0)
|   |   |   |   |   |   |   |   |   |   |   |   |   |   |   |   |   pixel0 > 0.297059: happy (2.0/1.0)
|   |   |   |   |   |   |   |   |   |   |   |   |   |   |   pixel550 > 0.302941: sad (17.0/1.0)
|   |   |   |   |   |   |   |   |   |   |   |   pixel535 > 0.060784
|   |   |   |   |   |   |   |   |   |   |   |   |   pixel156 <= 0.145098
|   |   |   |   |   |   |   |   |   |   |   |   |   |   pixel351 <= 0.448039
|   |   |   |   |   |   |   |   |   |   |   |   |   |   |   pixel131 <= 0.090196
|   |   |   |   |   |   |   |   |   |   |   |   |   |   |   |   pixel552 <= 0.298039: happy (5.0)
|   |   |   |   |   |   |   |   |   |   |   |   |   |   |   |   pixel552 > 0.298039: neutral (4.0)
|   |   |   |   |   |   |   |   |   |   |   |   |   |   |   pixel131 > 0.090196
|   |   |   |   |   |   |   |   |   |   |   |   |   |   |   |   pixel59 <= 0.419608
|   |   |   |   |   |   |   |   |   |   |   |   |   |   |   |   |   pixel466 <= 0.116667
|   |   |   |   |   |   |   |   |   |   |   |   |   |   |   |   |   |   pixel179 <= 0.192157
|   |   |   |   |   |   |   |   |   |   |   |   |   |   |   |   |   |   |   pixel22 <= 0.341176: sad (3.0)
|   |   |   |   |   |   |   |   |   |   |   |   |   |   |   |   |   |   |   pixel22 > 0.341176: happy (2.0)
|   |   |   |   |   |   |   |   |   |   |   |   |   |   |   |   |   |   pixel179 > 0.192157: suprise (3.0)
|   |   |   |   |   |   |   |   |   |   |   |   |   |   |   |   |   pixel466 > 0.116667
|   |   |   |   |   |   |   |   |   |   |   |   |   |   |   |   |   |   pixel481 <= 0.223529
|   |   |   |   |   |   |   |   |   |   |   |   |   |   |   |   |   |   |   pixel384 <= 0.082353: happy (5.0/1.0)
|   |   |   |   |   |   |   |   |   |   |   |   |   |   |   |   |   |   |   pixel384 > 0.082353: angry (11.0/1.0)
|   |   |   |   |   |   |   |   |   |   |   |   |   |   |   |   |   |   pixel481 > 0.223529
|   |   |   |   |   |   |   |   |   |   |   |   |   |   |   |   |   |   |   pixel1 <= 0.095098: sad (4.0/1.0)
|   |   |   |   |   |   |   |   |   |   |   |   |   |   |   |   |   |   |   pixel1 > 0.095098: happy (7.0)
|   |   |   |   |   |   |   |   |   |   |   |   |   |   |   |   pixel59 > 0.419608: sad (5.0/1.0)
|   |   |   |   |   |   |   |   |   |   |   |   |   |   pixel351 > 0.448039: sad (8.0)
|   |   |   |   |   |   |   |   |   |   |   |   |   pixel156 > 0.145098
|   |   |   |   |   |   |   |   |   |   |   |   |   |   pixel432 <= 0.935294
|   |   |   |   |   |   |   |   |   |   |   |   |   |   |   pixel492 <= 0.066667
|   |   |   |   |   |   |   |   |   |   |   |   |   |   |   |   pixel320 <= 0.331373
|   |   |   |   |   |   |   |   |   |   |   |   |   |   |   |   |   pixel351 <= 0.336275: angry (3.0/1.0)
|   |   |   |   |   |   |   |   |   |   |   |   |   |   |   |   |   pixel351 > 0.336275: suprise (3.0/1.0)
|   |   |   |   |   |   |   |   |   |   |   |   |   |   |   |   pixel320 > 0.331373
|   |   |   |   |   |   |   |   |   |   |   |   |   |   |   |   |   pixel200 <= 0.379412: fear (5.0)
|   |   |   |   |   |   |   |   |   |   |   |   |   |   |   |   |   pixel200 > 0.379412: sad (2.0)
|   |   |   |   |   |   |   |   |   |   |   |   |   |   |   pixel492 > 0.066667
|   |   |   |   |   |   |   |   |   |   |   |   |   |   |   |   pixel467 <= 0.362745
|   |   |   |   |   |   |   |   |   |   |   |   |   |   |   |   |   pixel490 <= 0.048039
|   |   |   |   |   |   |   |   |   |   |   |   |   |   |   |   |   |   pixel294 <= 0.406863: sad (6.0)
|   |   |   |   |   |   |   |   |   |   |   |   |   |   |   |   |   |   pixel294 > 0.406863: disgust (2.0/1.0)
|   |   |   |   |   |   |   |   |   |   |   |   |   |   |   |   |   pixel490 > 0.048039
|   |   |   |   |   |   |   |   |   |   |   |   |   |   |   |   |   |   pixel59 <= 0.737255
|   |   |   |   |   |   |   |   |   |   |   |   |   |   |   |   |   |   |   pixel544 <= 0.090196
|   |   |   |   |   |   |   |   |   |   |   |   |   |   |   |   |   |   |   |   pixel227 <= 0.448039
|   |   |   |   |   |   |   |   |   |   |   |   |   |   |   |   |   |   |   |   |   pixel504 <= 0.034314: neutral (7.0)
|   |   |   |   |   |   |   |   |   |   |   |   |   |   |   |   |   |   |   |   |   pixel504 > 0.034314
|   |   |   |   |   |   |   |   |   |   |   |   |   |   |   |   |   |   |   |   |   |   pixel544 <= 0.083333
|   |   |   |   |   |   |   |   |   |   |   |   |   |   |   |   |   |   |   |   |   |   |   pixel563 <= 0.186275
|   |   |   |   |   |   |   |   |   |   |   |   |   |   |   |   |   |   |   |   |   |   |   |   pixel23 <= 0.760784
|   |   |   |   |   |   |   |   |   |   |   |   |   |   |   |   |   |   |   |   |   |   |   |   |   pixel391 <= 0.22451
|   |   |   |   |   |   |   |   |   |   |   |   |   |   |   |   |   |   |   |   |   |   |   |   |   |   pixel469 <= 0.123529: neutral (2.0)
|   |   |   |   |   |   |   |   |   |   |   |   |   |   |   |   |   |   |   |   |   |   |   |   |   |   pixel469 > 0.123529: angry (7.0)
|   |   |   |   |   |   |   |   |   |   |   |   |   |   |   |   |   |   |   |   |   |   |   |   |   pixel391 > 0.22451
|   |   |   |   |   |   |   |   |   |   |   |   |   |   |   |   |   |   |   |   |   |   |   |   |   |   pixel0 <= 0.057843: angry (2.0/1.0)
|   |   |   |   |   |   |   |   |   |   |   |   |   |   |   |   |   |   |   |   |   |   |   |   |   |   pixel0 > 0.057843: neutral (10.0)
|   |   |   |   |   |   |   |   |   |   |   |   |   |   |   |   |   |   |   |   |   |   |   |   pixel23 > 0.760784: happy (3.0)
|   |   |   |   |   |   |   |   |   |   |   |   |   |   |   |   |   |   |   |   |   |   |   pixel563 > 0.186275
|   |   |   |   |   |   |   |   |   |   |   |   |   |   |   |   |   |   |   |   |   |   |   |   pixel401 <= 0.145098: sad (5.0/1.0)
|   |   |   |   |   |   |   |   |   |   |   |   |   |   |   |   |   |   |   |   |   |   |   |   pixel401 > 0.145098
|   |   |   |   |   |   |   |   |   |   |   |   |   |   |   |   |   |   |   |   |   |   |   |   |   pixel22 <= 0.223529: happy (5.0)
|   |   |   |   |   |   |   |   |   |   |   |   |   |   |   |   |   |   |   |   |   |   |   |   |   pixel22 > 0.223529: angry (5.0/1.0)
|   |   |   |   |   |   |   |   |   |   |   |   |   |   |   |   |   |   |   |   |   |   pixel544 > 0.083333: happy (6.0)
|   |   |   |   |   |   |   |   |   |   |   |   |   |   |   |   |   |   |   |   pixel227 > 0.448039: sad (5.0)
|   |   |   |   |   |   |   |   |   |   |   |   |   |   |   |   |   |   |   pixel544 > 0.090196
|   |   |   |   |   |   |   |   |   |   |   |   |   |   |   |   |   |   |   |   pixel351 <= 0.235294
|   |   |   |   |   |   |   |   |   |   |   |   |   |   |   |   |   |   |   |   |   pixel522 <= 0.47549
|   |   |   |   |   |   |   |   |   |   |   |   |   |   |   |   |   |   |   |   |   |   pixel383 <= 0.210784
|   |   |   |   |   |   |   |   |   |   |   |   |   |   |   |   |   |   |   |   |   |   |   pixel204 <= 0.170588: neutral (3.0/1.0)
|   |   |   |   |   |   |   |   |   |   |   |   |   |   |   |   |   |   |   |   |   |   |   pixel204 > 0.170588
|   |   |   |   |   |   |   |   |   |   |   |   |   |   |   |   |   |   |   |   |   |   |   |   pixel469 <= 0.15
|   |   |   |   |   |   |   |   |   |   |   |   |   |   |   |   |   |   |   |   |   |   |   |   |   pixel493 <= 0.201961: sad (9.0)
|   |   |   |   |   |   |   |   |   |   |   |   |   |   |   |   |   |   |   |   |   |   |   |   |   pixel493 > 0.201961: neutral (2.0)
|   |   |   |   |   |   |   |   |   |   |   |   |   |   |   |   |   |   |   |   |   |   |   |   pixel469 > 0.15
|   |   |   |   |   |   |   |   |   |   |   |   |   |   |   |   |   |   |   |   |   |   |   |   |   pixel173 <= 0.148039
|   |   |   |   |   |   |   |   |   |   |   |   |   |   |   |   |   |   |   |   |   |   |   |   |   |   pixel200 <= 0.205882: sad (3.0)
|   |   |   |   |   |   |   |   |   |   |   |   |   |   |   |   |   |   |   |   |   |   |   |   |   |   pixel200 > 0.205882: neutral (2.0)
|   |   |   |   |   |   |   |   |   |   |   |   |   |   |   |   |   |   |   |   |   |   |   |   |   pixel173 > 0.148039
|   |   |   |   |   |   |   |   |   |   |   |   |   |   |   |   |   |   |   |   |   |   |   |   |   |   pixel203 <= 0.336275
|   |   |   |   |   |   |   |   |   |   |   |   |   |   |   |   |   |   |   |   |   |   |   |   |   |   |   pixel0 <= 0.189216
|   |   |   |   |   |   |   |   |   |   |   |   |   |   |   |   |   |   |   |   |   |   |   |   |   |   |   |   pixel131 <= 0.322549: fear (6.0)
|   |   |   |   |   |   |   |   |   |   |   |   |   |   |   |   |   |   |   |   |   |   |   |   |   |   |   |   pixel131 > 0.322549: happy (2.0)
|   |   |   |   |   |   |   |   |   |   |   |   |   |   |   |   |   |   |   |   |   |   |   |   |   |   |   pixel0 > 0.189216: happy (7.0)
|   |   |   |   |   |   |   |   |   |   |   |   |   |   |   |   |   |   |   |   |   |   |   |   |   |   pixel203 > 0.336275: sad (4.0/1.0)
|   |   |   |   |   |   |   |   |   |   |   |   |   |   |   |   |   |   |   |   |   |   pixel383 > 0.210784
|   |   |   |   |   |   |   |   |   |   |   |   |   |   |   |   |   |   |   |   |   |   |   pixel244 <= 0.257843
|   |   |   |   |   |   |   |   |   |   |   |   |   |   |   |   |   |   |   |   |   |   |   |   pixel368 <= 0.15098: angry (4.0/1.0)
|   |   |   |   |   |   |   |   |   |   |   |   |   |   |   |   |   |   |   |   |   |   |   |   pixel368 > 0.15098
|   |   |   |   |   |   |   |   |   |   |   |   |   |   |   |   |   |   |   |   |   |   |   |   |   pixel22 <= 0.039216: angry (2.0)
|   |   |   |   |   |   |   |   |   |   |   |   |   |   |   |   |   |   |   |   |   |   |   |   |   pixel22 > 0.039216
|   |   |   |   |   |   |   |   |   |   |   |   |   |   |   |   |   |   |   |   |   |   |   |   |   |   pixel424 <= 0.264706
|   |   |   |   |   |   |   |   |   |   |   |   |   |   |   |   |   |   |   |   |   |   |   |   |   |   |   pixel566 <= 0.10098: happy (3.0)
|   |   |   |   |   |   |   |   |   |   |   |   |   |   |   |   |   |   |   |   |   |   |   |   |   |   |   pixel566 > 0.10098
|   |   |   |   |   |   |   |   |   |   |   |   |   |   |   |   |   |   |   |   |   |   |   |   |   |   |   |   pixel225 <= 0.272549: neutral (14.0)
|   |   |   |   |   |   |   |   |   |   |   |   |   |   |   |   |   |   |   |   |   |   |   |   |   |   |   |   pixel225 > 0.272549: happy (2.0)
|   |   |   |   |   |   |   |   |   |   |   |   |   |   |   |   |   |   |   |   |   |   |   |   |   |   pixel424 > 0.264706
|   |   |   |   |   |   |   |   |   |   |   |   |   |   |   |   |   |   |   |   |   |   |   |   |   |   |   pixel244 <= 0.241176: happy (4.0)
|   |   |   |   |   |   |   |   |   |   |   |   |   |   |   |   |   |   |   |   |   |   |   |   |   |   |   pixel244 > 0.241176: fear (2.0)
|   |   |   |   |   |   |   |   |   |   |   |   |   |   |   |   |   |   |   |   |   |   |   pixel244 > 0.257843
|   |   |   |   |   |   |   |   |   |   |   |   |   |   |   |   |   |   |   |   |   |   |   |   pixel424 <= 0.296078
|   |   |   |   |   |   |   |   |   |   |   |   |   |   |   |   |   |   |   |   |   |   |   |   |   pixel317 <= 0.512745
|   |   |   |   |   |   |   |   |   |   |   |   |   |   |   |   |   |   |   |   |   |   |   |   |   |   pixel356 <= 0.45098
|   |   |   |   |   |   |   |   |   |   |   |   |   |   |   |   |   |   |   |   |   |   |   |   |   |   |   pixel400 <= 0.155882
|   |   |   |   |   |   |   |   |   |   |   |   |   |   |   |   |   |   |   |   |   |   |   |   |   |   |   |   pixel48 <= 0.207843: happy (2.0)
|   |   |   |   |   |   |   |   |   |   |   |   |   |   |   |   |   |   |   |   |   |   |   |   |   |   |   |   pixel48 > 0.207843: angry (4.0)
|   |   |   |   |   |   |   |   |   |   |   |   |   |   |   |   |   |   |   |   |   |   |   |   |   |   |   pixel400 > 0.155882: happy (14.0/1.0)
|   |   |   |   |   |   |   |   |   |   |   |   |   |   |   |   |   |   |   |   |   |   |   |   |   |   pixel356 > 0.45098: angry (5.0)
|   |   |   |   |   |   |   |   |   |   |   |   |   |   |   |   |   |   |   |   |   |   |   |   |   pixel317 > 0.512745: sad (3.0/1.0)
|   |   |   |   |   |   |   |   |   |   |   |   |   |   |   |   |   |   |   |   |   |   |   |   pixel424 > 0.296078: fear (2.0/1.0)
|   |   |   |   |   |   |   |   |   |   |   |   |   |   |   |   |   |   |   |   |   pixel522 > 0.47549
|   |   |   |   |   |   |   |   |   |   |   |   |   |   |   |   |   |   |   |   |   |   pixel558 <= 0.261765: disgust (2.0/1.0)
|   |   |   |   |   |   |   |   |   |   |   |   |   |   |   |   |   |   |   |   |   |   pixel558 > 0.261765: sad (4.0)
|   |   |   |   |   |   |   |   |   |   |   |   |   |   |   |   |   |   |   |   pixel351 > 0.235294
|   |   |   |   |   |   |   |   |   |   |   |   |   |   |   |   |   |   |   |   |   pixel515 <= 0.083333
|   |   |   |   |   |   |   |   |   |   |   |   |   |   |   |   |   |   |   |   |   |   pixel227 <= 0.437255
|   |   |   |   |   |   |   |   |   |   |   |   |   |   |   |   |   |   |   |   |   |   |   pixel1 <= 0.610784: sad (3.0)
|   |   |   |   |   |   |   |   |   |   |   |   |   |   |   |   |   |   |   |   |   |   |   pixel1 > 0.610784: suprise (2.0)
|   |   |   |   |   |   |   |   |   |   |   |   |   |   |   |   |   |   |   |   |   |   pixel227 > 0.437255: disgust (2.0/1.0)
|   |   |   |   |   |   |   |   |   |   |   |   |   |   |   |   |   |   |   |   |   pixel515 > 0.083333
|   |   |   |   |   |   |   |   |   |   |   |   |   |   |   |   |   |   |   |   |   |   pixel558 <= 0.034314
|   |   |   |   |   |   |   |   |   |   |   |   |   |   |   |   |   |   |   |   |   |   |   pixel424 <= 0.35098
|   |   |   |   |   |   |   |   |   |   |   |   |   |   |   |   |   |   |   |   |   |   |   |   pixel228 <= 0.284314: sad (4.0)
|   |   |   |   |   |   |   |   |   |   |   |   |   |   |   |   |   |   |   |   |   |   |   |   pixel228 > 0.284314: angry (2.0/1.0)
|   |   |   |   |   |   |   |   |   |   |   |   |   |   |   |   |   |   |   |   |   |   |   pixel424 > 0.35098
|   |   |   |   |   |   |   |   |   |   |   |   |   |   |   |   |   |   |   |   |   |   |   |   pixel225 <= 0.146078: fear (6.0)
|   |   |   |   |   |   |   |   |   |   |   |   |   |   |   |   |   |   |   |   |   |   |   |   pixel225 > 0.146078: angry (4.0/1.0)
|   |   |   |   |   |   |   |   |   |   |   |   |   |   |   |   |   |   |   |   |   |   pixel558 > 0.034314
|   |   |   |   |   |   |   |   |   |   |   |   |   |   |   |   |   |   |   |   |   |   |   pixel558 <= 0.112745
|   |   |   |   |   |   |   |   |   |   |   |   |   |   |   |   |   |   |   |   |   |   |   |   pixel400 <= 0.465686
|   |   |   |   |   |   |   |   |   |   |   |   |   |   |   |   |   |   |   |   |   |   |   |   |   pixel468 <= 0.257843
|   |   |   |   |   |   |   |   |   |   |   |   |   |   |   |   |   |   |   |   |   |   |   |   |   |   pixel192 <= 0.067647
|   |   |   |   |   |   |   |   |   |   |   |   |   |   |   |   |   |   |   |   |   |   |   |   |   |   |   pixel220 <= 0.055882: sad (2.0)
|   |   |   |   |   |   |   |   |   |   |   |   |   |   |   |   |   |   |   |   |   |   |   |   |   |   |   pixel220 > 0.055882: fear (4.0/1.0)
|   |   |   |   |   |   |   |   |   |   |   |   |   |   |   |   |   |   |   |   |   |   |   |   |   |   pixel192 > 0.067647
|   |   |   |   |   |   |   |   |   |   |   |   |   |   |   |   |   |   |   |   |   |   |   |   |   |   |   pixel200 <= 0.196078: neutral (10.0)
|   |   |   |   |   |   |   |   |   |   |   |   |   |   |   |   |   |   |   |   |   |   |   |   |   |   |   pixel200 > 0.196078
|   |   |   |   |   |   |   |   |   |   |   |   |   |   |   |   |   |   |   |   |   |   |   |   |   |   |   |   pixel0 <= 0.25: happy (3.0)
|   |   |   |   |   |   |   |   |   |   |   |   |   |   |   |   |   |   |   |   |   |   |   |   |   |   |   |   pixel0 > 0.25: neutral (2.0/1.0)
|   |   |   |   |   |   |   |   |   |   |   |   |   |   |   |   |   |   |   |   |   |   |   |   |   pixel468 > 0.257843
|   |   |   |   |   |   |   |   |   |   |   |   |   |   |   |   |   |   |   |   |   |   |   |   |   |   pixel252 <= 0.345098: happy (3.0)
|   |   |   |   |   |   |   |   |   |   |   |   |   |   |   |   |   |   |   |   |   |   |   |   |   |   pixel252 > 0.345098: sad (9.0/1.0)
|   |   |   |   |   |   |   |   |   |   |   |   |   |   |   |   |   |   |   |   |   |   |   |   pixel400 > 0.465686
|   |   |   |   |   |   |   |   |   |   |   |   |   |   |   |   |   |   |   |   |   |   |   |   |   pixel48 <= 0.058824: fear (2.0/1.0)
|   |   |   |   |   |   |   |   |   |   |   |   |   |   |   |   |   |   |   |   |   |   |   |   |   pixel48 > 0.058824
|   |   |   |   |   |   |   |   |   |   |   |   |   |   |   |   |   |   |   |   |   |   |   |   |   |   pixel493 <= 0.264706: neutral (9.0)
|   |   |   |   |   |   |   |   |   |   |   |   |   |   |   |   |   |   |   |   |   |   |   |   |   |   pixel493 > 0.264706
|   |   |   |   |   |   |   |   |   |   |   |   |   |   |   |   |   |   |   |   |   |   |   |   |   |   |   pixel48 <= 0.12451: neutral (3.0)
|   |   |   |   |   |   |   |   |   |   |   |   |   |   |   |   |   |   |   |   |   |   |   |   |   |   |   pixel48 > 0.12451: fear (4.0)
|   |   |   |   |   |   |   |   |   |   |   |   |   |   |   |   |   |   |   |   |   |   |   pixel558 > 0.112745
|   |   |   |   |   |   |   |   |   |   |   |   |   |   |   |   |   |   |   |   |   |   |   |   pixel220 <= 0.596078
|   |   |   |   |   |   |   |   |   |   |   |   |   |   |   |   |   |   |   |   |   |   |   |   |   pixel444 <= 0.122549
|   |   |   |   |   |   |   |   |   |   |   |   |   |   |   |   |   |   |   |   |   |   |   |   |   |   pixel292 <= 0.401961
|   |   |   |   |   |   |   |   |   |   |   |   |   |   |   |   |   |   |   |   |   |   |   |   |   |   |   pixel173 <= 0.291176: sad (8.0/2.0)
|   |   |   |   |   |   |   |   |   |   |   |   |   |   |   |   |   |   |   |   |   |   |   |   |   |   |   pixel173 > 0.291176: angry (4.0)
|   |   |   |   |   |   |   |   |   |   |   |   |   |   |   |   |   |   |   |   |   |   |   |   |   |   pixel292 > 0.401961: fear (3.0)
|   |   |   |   |   |   |   |   |   |   |   |   |   |   |   |   |   |   |   |   |   |   |   |   |   pixel444 > 0.122549
|   |   |   |   |   |   |   |   |   |   |   |   |   |   |   |   |   |   |   |   |   |   |   |   |   |   pixel203 <= 0.178431
|   |   |   |   |   |   |   |   |   |   |   |   |   |   |   |   |   |   |   |   |   |   |   |   |   |   |   pixel0 <= 0.483333
|   |   |   |   |   |   |   |   |   |   |   |   |   |   |   |   |   |   |   |   |   |   |   |   |   |   |   |   pixel155 <= 0.367647
|   |   |   |   |   |   |   |   |   |   |   |   |   |   |   |   |   |   |   |   |   |   |   |   |   |   |   |   |   pixel320 <= 0.248039: happy (7.0/1.0)
|   |   |   |   |   |   |   |   |   |   |   |   |   |   |   |   |   |   |   |   |   |   |   |   |   |   |   |   |   pixel320 > 0.248039: sad (7.0)
|   |   |   |   |   |   |   |   |   |   |   |   |   |   |   |   |   |   |   |   |   |   |   |   |   |   |   |   pixel155 > 0.367647: neutral (2.0/1.0)
|   |   |   |   |   |   |   |   |   |   |   |   |   |   |   |   |   |   |   |   |   |   |   |   |   |   |   pixel0 > 0.483333
|   |   |   |   |   |   |   |   |   |   |   |   |   |   |   |   |   |   |   |   |   |   |   |   |   |   |   |   pixel0 <= 0.7: neutral (3.0)
|   |   |   |   |   |   |   |   |   |   |   |   |   |   |   |   |   |   |   |   |   |   |   |   |   |   |   |   pixel0 > 0.7: angry (2.0/1.0)
|   |   |   |   |   |   |   |   |   |   |   |   |   |   |   |   |   |   |   |   |   |   |   |   |   |   pixel203 > 0.178431
|   |   |   |   |   |   |   |   |   |   |   |   |   |   |   |   |   |   |   |   |   |   |   |   |   |   |   pixel490 <= 0.418627
|   |   |   |   |   |   |   |   |   |   |   |   |   |   |   |   |   |   |   |   |   |   |   |   |   |   |   |   pixel468 <= 0.120588
|   |   |   |   |   |   |   |   |   |   |   |   |   |   |   |   |   |   |   |   |   |   |   |   |   |   |   |   |   pixel173 <= 0.280392
|   |   |   |   |   |   |   |   |   |   |   |   |   |   |   |   |   |   |   |   |   |   |   |   |   |   |   |   |   |   pixel292 <= 0.385294: happy (2.0)
|   |   |   |   |   |   |   |   |   |   |   |   |   |   |   |   |   |   |   |   |   |   |   |   |   |   |   |   |   |   pixel292 > 0.385294: fear (3.0)
|   |   |   |   |   |   |   |   |   |   |   |   |   |   |   |   |   |   |   |   |   |   |   |   |   |   |   |   |   pixel173 > 0.280392
|   |   |   |   |   |   |   |   |   |   |   |   |   |   |   |   |   |   |   |   |   |   |   |   |   |   |   |   |   |   pixel37 <= 0.320588: sad (2.0)
|   |   |   |   |   |   |   |   |   |   |   |   |   |   |   |   |   |   |   |   |   |   |   |   |   |   |   |   |   |   pixel37 > 0.320588: disgust (2.0/1.0)
|   |   |   |   |   |   |   |   |   |   |   |   |   |   |   |   |   |   |   |   |   |   |   |   |   |   |   |   pixel468 > 0.120588
|   |   |   |   |   |   |   |   |   |   |   |   |   |   |   |   |   |   |   |   |   |   |   |   |   |   |   |   |   pixel453 <= 0.573529
|   |   |   |   |   |   |   |   |   |   |   |   |   |   |   |   |   |   |   |   |   |   |   |   |   |   |   |   |   |   pixel192 <= 0.638235
|   |   |   |   |   |   |   |   |   |   |   |   |   |   |   |   |   |   |   |   |   |   |   |   |   |   |   |   |   |   |   pixel493 <= 0.107843: angry (4.0)
|   |   |   |   |   |   |   |   |   |   |   |   |   |   |   |   |   |   |   |   |   |   |   |   |   |   |   |   |   |   |   pixel493 > 0.107843
|   |   |   |   |   |   |   |   |   |   |   |   |   |   |   |   |   |   |   |   |   |   |   |   |   |   |   |   |   |   |   |   pixel415 <= 0.246078
|   |   |   |   |   |   |   |   |   |   |   |   |   |   |   |   |   |   |   |   |   |   |   |   |   |   |   |   |   |   |   |   |   pixel504 <= 0.141176
|   |   |   |   |   |   |   |   |   |   |   |   |   |   |   |   |   |   |   |   |   |   |   |   |   |   |   |   |   |   |   |   |   |   pixel1 <= 0.262745: sad (9.0)
|   |   |   |   |   |   |   |   |   |   |   |   |   |   |   |   |   |   |   |   |   |   |   |   |   |   |   |   |   |   |   |   |   |   pixel1 > 0.262745: angry (2.0/1.0)
|   |   |   |   |   |   |   |   |   |   |   |   |   |   |   |   |   |   |   |   |   |   |   |   |   |   |   |   |   |   |   |   |   pixel504 > 0.141176
|   |   |   |   |   |   |   |   |   |   |   |   |   |   |   |   |   |   |   |   |   |   |   |   |   |   |   |   |   |   |   |   |   |   pixel344 <= 0.164706: angry (4.0/1.0)
|   |   |   |   |   |   |   |   |   |   |   |   |   |   |   |   |   |   |   |   |   |   |   |   |   |   |   |   |   |   |   |   |   |   pixel344 > 0.164706
|   |   |   |   |   |   |   |   |   |   |   |   |   |   |   |   |   |   |   |   |   |   |   |   |   |   |   |   |   |   |   |   |   |   |   pixel416 <= 0.255882
|   |   |   |   |   |   |   |   |   |   |   |   |   |   |   |   |   |   |   |   |   |   |   |   |   |   |   |   |   |   |   |   |   |   |   |   pixel37 <= 0.666667
|   |   |   |   |   |   |   |   |   |   |   |   |   |   |   |   |   |   |   |   |   |   |   |   |   |   |   |   |   |   |   |   |   |   |   |   |   pixel468 <= 0.15098: angry (3.0/1.0)
|   |   |   |   |   |   |   |   |   |   |   |   |   |   |   |   |   |   |   |   |   |   |   |   |   |   |   |   |   |   |   |   |   |   |   |   |   pixel468 > 0.15098
|   |   |   |   |   |   |   |   |   |   |   |   |   |   |   |   |   |   |   |   |   |   |   |   |   |   |   |   |   |   |   |   |   |   |   |   |   |   pixel481 <= 0.118627: angry (2.0/1.0)
|   |   |   |   |   |   |   |   |   |   |   |   |   |   |   |   |   |   |   |   |   |   |   |   |   |   |   |   |   |   |   |   |   |   |   |   |   |   pixel481 > 0.118627
|   |   |   |   |   |   |   |   |   |   |   |   |   |   |   |   |   |   |   |   |   |   |   |   |   |   |   |   |   |   |   |   |   |   |   |   |   |   |   pixel424 <= 0.157843
|   |   |   |   |   |   |   |   |   |   |   |   |   |   |   |   |   |   |   |   |   |   |   |   |   |   |   |   |   |   |   |   |   |   |   |   |   |   |   |   pixel59 <= 0.382353: happy (3.0/1.0)
|   |   |   |   |   |   |   |   |   |   |   |   |   |   |   |   |   |   |   |   |   |   |   |   |   |   |   |   |   |   |   |   |   |   |   |   |   |   |   |   pixel59 > 0.382353: neutral (2.0)
|   |   |   |   |   |   |   |   |   |   |   |   |   |   |   |   |   |   |   |   |   |   |   |   |   |   |   |   |   |   |   |   |   |   |   |   |   |   |   pixel424 > 0.157843: neutral (26.0)
|   |   |   |   |   |   |   |   |   |   |   |   |   |   |   |   |   |   |   |   |   |   |   |   |   |   |   |   |   |   |   |   |   |   |   |   pixel37 > 0.666667: sad (2.0)
|   |   |   |   |   |   |   |   |   |   |   |   |   |   |   |   |   |   |   |   |   |   |   |   |   |   |   |   |   |   |   |   |   |   |   pixel416 > 0.255882
|   |   |   |   |   |   |   |   |   |   |   |   |   |   |   |   |   |   |   |   |   |   |   |   |   |   |   |   |   |   |   |   |   |   |   |   pixel493 <= 0.292157
|   |   |   |   |   |   |   |   |   |   |   |   |   |   |   |   |   |   |   |   |   |   |   |   |   |   |   |   |   |   |   |   |   |   |   |   |   pixel0 <= 0.34902: fear (3.0/1.0)
|   |   |   |   |   |   |   |   |   |   |   |   |   |   |   |   |   |   |   |   |   |   |   |   |   |   |   |   |   |   |   |   |   |   |   |   |   pixel0 > 0.34902: sad (2.0)
|   |   |   |   |   |   |   |   |   |   |   |   |   |   |   |   |   |   |   |   |   |   |   |   |   |   |   |   |   |   |   |   |   |   |   |   pixel493 > 0.292157: happy (2.0)
|   |   |   |   |   |   |   |   |   |   |   |   |   |   |   |   |   |   |   |   |   |   |   |   |   |   |   |   |   |   |   |   pixel415 > 0.246078
|   |   |   |   |   |   |   |   |   |   |   |   |   |   |   |   |   |   |   |   |   |   |   |   |   |   |   |   |   |   |   |   |   pixel515 <= 0.115686: fear (2.0)
|   |   |   |   |   |   |   |   |   |   |   |   |   |   |   |   |   |   |   |   |   |   |   |   |   |   |   |   |   |   |   |   |   pixel515 > 0.115686
|   |   |   |   |   |   |   |   |   |   |   |   |   |   |   |   |   |   |   |   |   |   |   |   |   |   |   |   |   |   |   |   |   |   pixel466 <= 0.105882
|   |   |   |   |   |   |   |   |   |   |   |   |   |   |   |   |   |   |   |   |   |   |   |   |   |   |   |   |   |   |   |   |   |   |   pixel0 <= 0.079412: angry (2.0/1.0)
|   |   |   |   |   |   |   |   |   |   |   |   |   |   |   |   |   |   |   |   |   |   |   |   |   |   |   |   |   |   |   |   |   |   |   pixel0 > 0.079412: disgust (2.0)
|   |   |   |   |   |   |   |   |   |   |   |   |   |   |   |   |   |   |   |   |   |   |   |   |   |   |   |   |   |   |   |   |   |   pixel466 > 0.105882
|   |   |   |   |   |   |   |   |   |   |   |   |   |   |   |   |   |   |   |   |   |   |   |   |   |   |   |   |   |   |   |   |   |   |   pixel384 <= 0.697059
|   |   |   |   |   |   |   |   |   |   |   |   |   |   |   |   |   |   |   |   |   |   |   |   |   |   |   |   |   |   |   |   |   |   |   |   pixel227 <= 0.55098
|   |   |   |   |   |   |   |   |   |   |   |   |   |   |   |   |   |   |   |   |   |   |   |   |   |   |   |   |   |   |   |   |   |   |   |   |   pixel179 <= 0.182353
|   |   |   |   |   |   |   |   |   |   |   |   |   |   |   |   |   |   |   |   |   |   |   |   |   |   |   |   |   |   |   |   |   |   |   |   |   |   pixel156 <= 0.220588: sad (2.0)
|   |   |   |   |   |   |   |   |   |   |   |   |   |   |   |   |   |   |   |   |   |   |   |   |   |   |   |   |   |   |   |   |   |   |   |   |   |   pixel156 > 0.220588: disgust (3.0)
|   |   |   |   |   |   |   |   |   |   |   |   |   |   |   |   |   |   |   |   |   |   |   |   |   |   |   |   |   |   |   |   |   |   |   |   |   pixel179 > 0.182353
|   |   |   |   |   |   |   |   |   |   |   |   |   |   |   |   |   |   |   |   |   |   |   |   |   |   |   |   |   |   |   |   |   |   |   |   |   |   pixel155 <= 0.238235: angry (4.0)
|   |   |   |   |   |   |   |   |   |   |   |   |   |   |   |   |   |   |   |   |   |   |   |   |   |   |   |   |   |   |   |   |   |   |   |   |   |   pixel155 > 0.238235
|   |   |   |   |   |   |   |   |   |   |   |   |   |   |   |   |   |   |   |   |   |   |   |   |   |   |   |   |   |   |   |   |   |   |   |   |   |   |   pixel551 <= 0.02451: angry (3.0)
|   |   |   |   |   |   |   |   |   |   |   |   |   |   |   |   |   |   |   |   |   |   |   |   |   |   |   |   |   |   |   |   |   |   |   |   |   |   |   pixel551 > 0.02451
|   |   |   |   |   |   |   |   |   |   |   |   |   |   |   |   |   |   |   |   |   |   |   |   |   |   |   |   |   |   |   |   |   |   |   |   |   |   |   |   pixel544 <= 0.290196
|   |   |   |   |   |   |   |   |   |   |   |   |   |   |   |   |   |   |   |   |   |   |   |   |   |   |   |   |   |   |   |   |   |   |   |   |   |   |   |   |   pixel481 <= 0.618627
|   |   |   |   |   |   |   |   |   |   |   |   |   |   |   |   |   |   |   |   |   |   |   |   |   |   |   |   |   |   |   |   |   |   |   |   |   |   |   |   |   |   pixel244 <= 0.288235
|   |   |   |   |   |   |   |   |   |   |   |   |   |   |   |   |   |   |   |   |   |   |   |   |   |   |   |   |   |   |   |   |   |   |   |   |   |   |   |   |   |   |   pixel131 <= 0.37451: sad (8.0/1.0)
|   |   |   |   |   |   |   |   |   |   |   |   |   |   |   |   |   |   |   |   |   |   |   |   |   |   |   |   |   |   |   |   |   |   |   |   |   |   |   |   |   |   |   pixel131 > 0.37451: neutral (10.0/1.0)
|   |   |   |   |   |   |   |   |   |   |   |   |   |   |   |   |   |   |   |   |   |   |   |   |   |   |   |   |   |   |   |   |   |   |   |   |   |   |   |   |   |   pixel244 > 0.288235: sad (10.0)
|   |   |   |   |   |   |   |   |   |   |   |   |   |   |   |   |   |   |   |   |   |   |   |   |   |   |   |   |   |   |   |   |   |   |   |   |   |   |   |   |   pixel481 > 0.618627: neutral (4.0/1.0)
|   |   |   |   |   |   |   |   |   |   |   |   |   |   |   |   |   |   |   |   |   |   |   |   |   |   |   |   |   |   |   |   |   |   |   |   |   |   |   |   pixel544 > 0.290196
|   |   |   |   |   |   |   |   |   |   |   |   |   |   |   |   |   |   |   |   |   |   |   |   |   |   |   |   |   |   |   |   |   |   |   |   |   |   |   |   |   pixel560 <= 0.40098
|   |   |   |   |   |   |   |   |   |   |   |   |   |   |   |   |   |   |   |   |   |   |   |   |   |   |   |   |   |   |   |   |   |   |   |   |   |   |   |   |   |   pixel344 <= 0.253922: disgust (3.0/1.0)
|   |   |   |   |   |   |   |   |   |   |   |   |   |   |   |   |   |   |   |   |   |   |   |   |   |   |   |   |   |   |   |   |   |   |   |   |   |   |   |   |   |   pixel344 > 0.253922
|   |   |   |   |   |   |   |   |   |   |   |   |   |   |   |   |   |   |   |   |   |   |   |   |   |   |   |   |   |   |   |   |   |   |   |   |   |   |   |   |   |   |   pixel131 <= 0.378431
|   |   |   |   |   |   |   |   |   |   |   |   |   |   |   |   |   |   |   |   |   |   |   |   |   |   |   |   |   |   |   |   |   |   |   |   |   |   |   |   |   |   |   |   pixel24 <= 0.116667: sad (2.0)
|   |   |   |   |   |   |   |   |   |   |   |   |   |   |   |   |   |   |   |   |   |   |   |   |   |   |   |   |   |   |   |   |   |   |   |   |   |   |   |   |   |   |   |   pixel24 > 0.116667: angry (2.0)
|   |   |   |   |   |   |   |   |   |   |   |   |   |   |   |   |   |   |   |   |   |   |   |   |   |   |   |   |   |   |   |   |   |   |   |   |   |   |   |   |   |   |   pixel131 > 0.378431: sad (15.0)
|   |   |   |   |   |   |   |   |   |   |   |   |   |   |   |   |   |   |   |   |   |   |   |   |   |   |   |   |   |   |   |   |   |   |   |   |   |   |   |   |   pixel560 > 0.40098: angry (4.0/1.0)
|   |   |   |   |   |   |   |   |   |   |   |   |   |   |   |   |   |   |   |   |   |   |   |   |   |   |   |   |   |   |   |   |   |   |   |   pixel227 > 0.55098: neutral (5.0)
|   |   |   |   |   |   |   |   |   |   |   |   |   |   |   |   |   |   |   |   |   |   |   |   |   |   |   |   |   |   |   |   |   |   |   pixel384 > 0.697059: angry (3.0/1.0)
|   |   |   |   |   |   |   |   |   |   |   |   |   |   |   |   |   |   |   |   |   |   |   |   |   |   |   |   |   |   pixel192 > 0.638235
|   |   |   |   |   |   |   |   |   |   |   |   |   |   |   |   |   |   |   |   |   |   |   |   |   |   |   |   |   |   |   pixel558 <= 0.191176: sad (4.0)
|   |   |   |   |   |   |   |   |   |   |   |   |   |   |   |   |   |   |   |   |   |   |   |   |   |   |   |   |   |   |   pixel558 > 0.191176
|   |   |   |   |   |   |   |   |   |   |   |   |   |   |   |   |   |   |   |   |   |   |   |   |   |   |   |   |   |   |   |   pixel424 <= 0.277451: happy (3.0/1.0)
|   |   |   |   |   |   |   |   |   |   |   |   |   |   |   |   |   |   |   |   |   |   |   |   |   |   |   |   |   |   |   |   pixel424 > 0.277451: angry (6.0/1.0)
|   |   |   |   |   |   |   |   |   |   |   |   |   |   |   |   |   |   |   |   |   |   |   |   |   |   |   |   |   pixel453 > 0.573529
|   |   |   |   |   |   |   |   |   |   |   |   |   |   |   |   |   |   |   |   |   |   |   |   |   |   |   |   |   |   pixel227 <= 0.493137
|   |   |   |   |   |   |   |   |   |   |   |   |   |   |   |   |   |   |   |   |   |   |   |   |   |   |   |   |   |   |   pixel4 <= 0.006863: angry (2.0)
|   |   |   |   |   |   |   |   |   |   |   |   |   |   |   |   |   |   |   |   |   |   |   |   |   |   |   |   |   |   |   pixel4 > 0.006863
|   |   |   |   |   |   |   |   |   |   |   |   |   |   |   |   |   |   |   |   |   |   |   |   |   |   |   |   |   |   |   |   pixel368 <= 0.29902
|   |   |   |   |   |   |   |   |   |   |   |   |   |   |   |   |   |   |   |   |   |   |   |   |   |   |   |   |   |   |   |   |   pixel368 <= 0.167647: angry (2.0/1.0)
|   |   |   |   |   |   |   |   |   |   |   |   |   |   |   |   |   |   |   |   |   |   |   |   |   |   |   |   |   |   |   |   |   pixel368 > 0.167647: neutral (21.0)
|   |   |   |   |   |   |   |   |   |   |   |   |   |   |   |   |   |   |   |   |   |   |   |   |   |   |   |   |   |   |   |   pixel368 > 0.29902
|   |   |   |   |   |   |   |   |   |   |   |   |   |   |   |   |   |   |   |   |   |   |   |   |   |   |   |   |   |   |   |   |   pixel0 <= 0.257843: sad (2.0)
|   |   |   |   |   |   |   |   |   |   |   |   |   |   |   |   |   |   |   |   |   |   |   |   |   |   |   |   |   |   |   |   |   pixel0 > 0.257843: disgust (2.0/1.0)
|   |   |   |   |   |   |   |   |   |   |   |   |   |   |   |   |   |   |   |   |   |   |   |   |   |   |   |   |   |   pixel227 > 0.493137: angry (3.0)
|   |   |   |   |   |   |   |   |   |   |   |   |   |   |   |   |   |   |   |   |   |   |   |   |   |   |   pixel490 > 0.418627
|   |   |   |   |   |   |   |   |   |   |   |   |   |   |   |   |   |   |   |   |   |   |   |   |   |   |   |   pixel0 <= 0.255882: fear (2.0)
|   |   |   |   |   |   |   |   |   |   |   |   |   |   |   |   |   |   |   |   |   |   |   |   |   |   |   |   pixel0 > 0.255882: happy (3.0/1.0)
|   |   |   |   |   |   |   |   |   |   |   |   |   |   |   |   |   |   |   |   |   |   |   |   pixel220 > 0.596078
|   |   |   |   |   |   |   |   |   |   |   |   |   |   |   |   |   |   |   |   |   |   |   |   |   pixel356 <= 0.473529
|   |   |   |   |   |   |   |   |   |   |   |   |   |   |   |   |   |   |   |   |   |   |   |   |   |   pixel356 <= 0.240196: sad (4.0/1.0)
|   |   |   |   |   |   |   |   |   |   |   |   |   |   |   |   |   |   |   |   |   |   |   |   |   |   pixel356 > 0.240196
|   |   |   |   |   |   |   |   |   |   |   |   |   |   |   |   |   |   |   |   |   |   |   |   |   |   |   pixel312 <= 0.726471: fear (7.0)
|   |   |   |   |   |   |   |   |   |   |   |   |   |   |   |   |   |   |   |   |   |   |   |   |   |   |   pixel312 > 0.726471: neutral (4.0/1.0)
|   |   |   |   |   |   |   |   |   |   |   |   |   |   |   |   |   |   |   |   |   |   |   |   |   pixel356 > 0.473529
|   |   |   |   |   |   |   |   |   |   |   |   |   |   |   |   |   |   |   |   |   |   |   |   |   |   pixel0 <= 0.478431: angry (2.0)
|   |   |   |   |   |   |   |   |   |   |   |   |   |   |   |   |   |   |   |   |   |   |   |   |   |   pixel0 > 0.478431: happy (3.0/1.0)
|   |   |   |   |   |   |   |   |   |   |   |   |   |   |   |   |   |   pixel59 > 0.737255
|   |   |   |   |   |   |   |   |   |   |   |   |   |   |   |   |   |   |   pixel155 <= 0.563725
|   |   |   |   |   |   |   |   |   |   |   |   |   |   |   |   |   |   |   |   pixel22 <= 0.130392: fear (2.0)
|   |   |   |   |   |   |   |   |   |   |   |   |   |   |   |   |   |   |   |   pixel22 > 0.130392: happy (5.0)
|   |   |   |   |   |   |   |   |   |   |   |   |   |   |   |   |   |   |   pixel155 > 0.563725: angry (3.0)
|   |   |   |   |   |   |   |   |   |   |   |   |   |   |   |   pixel467 > 0.362745
|   |   |   |   |   |   |   |   |   |   |   |   |   |   |   |   |   pixel566 <= 0.418627
|   |   |   |   |   |   |   |   |   |   |   |   |   |   |   |   |   |   pixel493 <= 0.291176
|   |   |   |   |   |   |   |   |   |   |   |   |   |   |   |   |   |   |   pixel367 <= 0.397059
|   |   |   |   |   |   |   |   |   |   |   |   |   |   |   |   |   |   |   |   pixel367 <= 0.108824: sad (3.0/1.0)
|   |   |   |   |   |   |   |   |   |   |   |   |   |   |   |   |   |   |   |   pixel367 > 0.108824
|   |   |   |   |   |   |   |   |   |   |   |   |   |   |   |   |   |   |   |   |   pixel180 <= 0.190196
|   |   |   |   |   |   |   |   |   |   |   |   |   |   |   |   |   |   |   |   |   |   pixel23 <= 0.428431: sad (2.0)
|   |   |   |   |   |   |   |   |   |   |   |   |   |   |   |   |   |   |   |   |   |   pixel23 > 0.428431: happy (2.0)
|   |   |   |   |   |   |   |   |   |   |   |   |   |   |   |   |   |   |   |   |   pixel180 > 0.190196
|   |   |   |   |   |   |   |   |   |   |   |   |   |   |   |   |   |   |   |   |   |   pixel444 <= 0.490196
|   |   |   |   |   |   |   |   |   |   |   |   |   |   |   |   |   |   |   |   |   |   |   pixel71 <= 0.616667: happy (21.0/1.0)
|   |   |   |   |   |   |   |   |   |   |   |   |   |   |   |   |   |   |   |   |   |   |   pixel71 > 0.616667: neutral (3.0/1.0)
|   |   |   |   |   |   |   |   |   |   |   |   |   |   |   |   |   |   |   |   |   |   pixel444 > 0.490196: neutral (2.0)
|   |   |   |   |   |   |   |   |   |   |   |   |   |   |   |   |   |   |   pixel367 > 0.397059
|   |   |   |   |   |   |   |   |   |   |   |   |   |   |   |   |   |   |   |   pixel192 <= 0.107843: angry (2.0/1.0)
|   |   |   |   |   |   |   |   |   |   |   |   |   |   |   |   |   |   |   |   pixel192 > 0.107843: neutral (5.0)
|   |   |   |   |   |   |   |   |   |   |   |   |   |   |   |   |   |   pixel493 > 0.291176: angry (5.0/1.0)
|   |   |   |   |   |   |   |   |   |   |   |   |   |   |   |   |   pixel566 > 0.418627
|   |   |   |   |   |   |   |   |   |   |   |   |   |   |   |   |   |   pixel569 <= 0.539216
|   |   |   |   |   |   |   |   |   |   |   |   |   |   |   |   |   |   |   pixel0 <= 0.522549: disgust (2.0)
|   |   |   |   |   |   |   |   |   |   |   |   |   |   |   |   |   |   |   pixel0 > 0.522549: happy (2.0)
|   |   |   |   |   |   |   |   |   |   |   |   |   |   |   |   |   |   pixel569 > 0.539216: fear (3.0/1.0)
|   |   |   |   |   |   |   |   |   |   |   |   |   |   pixel432 > 0.935294
|   |   |   |   |   |   |   |   |   |   |   |   |   |   |   pixel466 <= 0.229412: angry (4.0)
|   |   |   |   |   |   |   |   |   |   |   |   |   |   |   pixel466 > 0.229412: sad (5.0/1.0)
|   |   |   |   |   |   |   |   |   pixel567 > 0.540196
|   |   |   |   |   |   |   |   |   |   pixel0 <= 0.87451
|   |   |   |   |   |   |   |   |   |   |   pixel504 <= 0.07549: angry (7.0)
|   |   |   |   |   |   |   |   |   |   |   pixel504 > 0.07549
|   |   |   |   |   |   |   |   |   |   |   |   pixel200 <= 0.106863
|   |   |   |   |   |   |   |   |   |   |   |   |   pixel384 <= 0.484314: angry (3.0)
|   |   |   |   |   |   |   |   |   |   |   |   |   pixel384 > 0.484314: fear (2.0/1.0)
|   |   |   |   |   |   |   |   |   |   |   |   pixel200 > 0.106863
|   |   |   |   |   |   |   |   |   |   |   |   |   pixel481 <= 0.207843
|   |   |   |   |   |   |   |   |   |   |   |   |   |   pixel312 <= 0.437255: sad (7.0)
|   |   |   |   |   |   |   |   |   |   |   |   |   |   pixel312 > 0.437255: fear (3.0/1.0)
|   |   |   |   |   |   |   |   |   |   |   |   |   pixel481 > 0.207843
|   |   |   |   |   |   |   |   |   |   |   |   |   |   pixel225 <= 0.168627: sad (5.0/1.0)
|   |   |   |   |   |   |   |   |   |   |   |   |   |   pixel225 > 0.168627: happy (16.0)
|   |   |   |   |   |   |   |   |   |   pixel0 > 0.87451: neutral (2.0)
|   |   |   |   |   |   |   |   pixel544 > 0.734314
|   |   |   |   |   |   |   |   |   pixel504 <= 0.316667
|   |   |   |   |   |   |   |   |   |   pixel312 <= 0.101961: angry (2.0)
|   |   |   |   |   |   |   |   |   |   pixel312 > 0.101961: happy (6.0/1.0)
|   |   |   |   |   |   |   |   |   pixel504 > 0.316667
|   |   |   |   |   |   |   |   |   |   pixel131 <= 0.192157: suprise (5.0/1.0)
|   |   |   |   |   |   |   |   |   |   pixel131 > 0.192157: neutral (2.0)
|   |   |   |   |   |   pixel119 > 0.92451
|   |   |   |   |   |   |   pixel47 <= 0.95098
|   |   |   |   |   |   |   |   pixel37 <= 0.255882: sad (2.0)
|   |   |   |   |   |   |   |   pixel37 > 0.255882
|   |   |   |   |   |   |   |   |   pixel244 <= 0.237255: fear (6.0)
|   |   |   |   |   |   |   |   |   pixel244 > 0.237255: happy (4.0/1.0)
|   |   |   |   |   |   |   pixel47 > 0.95098: angry (2.0)
|   |   |   |   |   pixel554 > 0.940196
|   |   |   |   |   |   pixel563 <= 0.292157: neutral (8.0)
|   |   |   |   |   |   pixel563 > 0.292157
|   |   |   |   |   |   |   pixel0 <= 0.87549: happy (4.0)
|   |   |   |   |   |   |   pixel0 > 0.87549: disgust (2.0/1.0)
|   |   |   |   pixel368 > 0.32549
|   |   |   |   |   pixel550 <= 0.962745
|   |   |   |   |   |   pixel351 <= 0.729412
|   |   |   |   |   |   |   pixel560 <= 0.065686
|   |   |   |   |   |   |   |   pixel551 <= 0.928431
|   |   |   |   |   |   |   |   |   pixel192 <= 0.771569
|   |   |   |   |   |   |   |   |   |   pixel453 <= 0.484314
|   |   |   |   |   |   |   |   |   |   |   pixel48 <= 0.683333
|   |   |   |   |   |   |   |   |   |   |   |   pixel204 <= 0.069608: fear (2.0/1.0)
|   |   |   |   |   |   |   |   |   |   |   |   pixel204 > 0.069608
|   |   |   |   |   |   |   |   |   |   |   |   |   pixel544 <= 0.566667
|   |   |   |   |   |   |   |   |   |   |   |   |   |   pixel173 <= 0.106863
|   |   |   |   |   |   |   |   |   |   |   |   |   |   |   pixel467 <= 0.496078: angry (4.0/1.0)
|   |   |   |   |   |   |   |   |   |   |   |   |   |   |   pixel467 > 0.496078: sad (2.0)
|   |   |   |   |   |   |   |   |   |   |   |   |   |   pixel173 > 0.106863
|   |   |   |   |   |   |   |   |   |   |   |   |   |   |   pixel560 <= 0.023529
|   |   |   |   |   |   |   |   |   |   |   |   |   |   |   |   pixel23 <= 0.205882
|   |   |   |   |   |   |   |   |   |   |   |   |   |   |   |   |   pixel312 <= 0.164706: sad (7.0)
|   |   |   |   |   |   |   |   |   |   |   |   |   |   |   |   |   pixel312 > 0.164706: angry (2.0)
|   |   |   |   |   |   |   |   |   |   |   |   |   |   |   |   pixel23 > 0.205882: neutral (4.0)
|   |   |   |   |   |   |   |   |   |   |   |   |   |   |   pixel560 > 0.023529
|   |   |   |   |   |   |   |   |   |   |   |   |   |   |   |   pixel559 <= 0.032353
|   |   |   |   |   |   |   |   |   |   |   |   |   |   |   |   |   pixel156 <= 0.401961: sad (4.0)
|   |   |   |   |   |   |   |   |   |   |   |   |   |   |   |   |   pixel156 > 0.401961: happy (5.0/1.0)
|   |   |   |   |   |   |   |   |   |   |   |   |   |   |   |   pixel559 > 0.032353: sad (14.0)
|   |   |   |   |   |   |   |   |   |   |   |   |   pixel544 > 0.566667: neutral (3.0)
|   |   |   |   |   |   |   |   |   |   |   pixel48 > 0.683333: fear (2.0)
|   |   |   |   |   |   |   |   |   |   pixel453 > 0.484314
|   |   |   |   |   |   |   |   |   |   |   pixel558 <= 0.035294: sad (6.0/1.0)
|   |   |   |   |   |   |   |   |   |   |   pixel558 > 0.035294
|   |   |   |   |   |   |   |   |   |   |   |   pixel0 <= 0.177451: disgust (4.0)
|   |   |   |   |   |   |   |   |   |   |   |   pixel0 > 0.177451: happy (3.0/1.0)
|   |   |   |   |   |   |   |   |   pixel192 > 0.771569
|   |   |   |   |   |   |   |   |   |   pixel22 <= 0.12451: fear (2.0/1.0)
|   |   |   |   |   |   |   |   |   |   pixel22 > 0.12451: disgust (2.0)
|   |   |   |   |   |   |   |   pixel551 > 0.928431: angry (6.0)
|   |   |   |   |   |   |   pixel560 > 0.065686
|   |   |   |   |   |   |   |   pixel367 <= 0.27549
|   |   |   |   |   |   |   |   |   pixel416 <= 0.523529
|   |   |   |   |   |   |   |   |   |   pixel22 <= 0.347059
|   |   |   |   |   |   |   |   |   |   |   pixel59 <= 0.272549
|   |   |   |   |   |   |   |   |   |   |   |   pixel0 <= 0.183333
|   |   |   |   |   |   |   |   |   |   |   |   |   pixel0 <= 0.090196: fear (2.0)
|   |   |   |   |   |   |   |   |   |   |   |   |   pixel0 > 0.090196: angry (2.0)
|   |   |   |   |   |   |   |   |   |   |   |   pixel0 > 0.183333
|   |   |   |   |   |   |   |   |   |   |   |   |   pixel24 <= 0.252941: suprise (2.0)
|   |   |   |   |   |   |   |   |   |   |   |   |   pixel24 > 0.252941: sad (2.0)
|   |   |   |   |   |   |   |   |   |   |   pixel59 > 0.272549
|   |   |   |   |   |   |   |   |   |   |   |   pixel156 <= 0.228431: fear (2.0/1.0)
|   |   |   |   |   |   |   |   |   |   |   |   pixel156 > 0.228431
|   |   |   |   |   |   |   |   |   |   |   |   |   pixel558 <= 0.066667: sad (4.0/1.0)
|   |   |   |   |   |   |   |   |   |   |   |   |   pixel558 > 0.066667
|   |   |   |   |   |   |   |   |   |   |   |   |   |   pixel225 <= 0.141176: angry (2.0/1.0)
|   |   |   |   |   |   |   |   |   |   |   |   |   |   pixel225 > 0.141176
|   |   |   |   |   |   |   |   |   |   |   |   |   |   |   pixel192 <= 0.139216
|   |   |   |   |   |   |   |   |   |   |   |   |   |   |   |   pixel4 <= 0.095098: happy (2.0)
|   |   |   |   |   |   |   |   |   |   |   |   |   |   |   |   pixel4 > 0.095098: angry (3.0)
|   |   |   |   |   |   |   |   |   |   |   |   |   |   |   pixel192 > 0.139216: happy (13.0)
|   |   |   |   |   |   |   |   |   |   pixel22 > 0.347059
|   |   |   |   |   |   |   |   |   |   |   pixel558 <= 0.487255
|   |   |   |   |   |   |   |   |   |   |   |   pixel466 <= 0.331373: sad (13.0)
|   |   |   |   |   |   |   |   |   |   |   |   pixel466 > 0.331373: happy (4.0/1.0)
|   |   |   |   |   |   |   |   |   |   |   pixel558 > 0.487255: neutral (2.0)
|   |   |   |   |   |   |   |   |   pixel416 > 0.523529
|   |   |   |   |   |   |   |   |   |   pixel0 <= 0.448039: suprise (2.0)
|   |   |   |   |   |   |   |   |   |   pixel0 > 0.448039: fear (2.0)
|   |   |   |   |   |   |   |   pixel367 > 0.27549
|   |   |   |   |   |   |   |   |   pixel312 <= 0.019608
|   |   |   |   |   |   |   |   |   |   pixel200 <= 0.385294
|   |   |   |   |   |   |   |   |   |   |   pixel415 <= 0.321569
|   |   |   |   |   |   |   |   |   |   |   |   pixel155 <= 0.55098: sad (6.0)
|   |   |   |   |   |   |   |   |   |   |   |   pixel155 > 0.55098: neutral (2.0)
|   |   |   |   |   |   |   |   |   |   |   pixel415 > 0.321569
|   |   |   |   |   |   |   |   |   |   |   |   pixel535 <= 0.418627: fear (12.0/1.0)
|   |   |   |   |   |   |   |   |   |   |   |   pixel535 > 0.418627: sad (4.0)
|   |   |   |   |   |   |   |   |   |   pixel200 > 0.385294
|   |   |   |   |   |   |   |   |   |   |   pixel155 <= 0.451961: neutral (4.0)
|   |   |   |   |   |   |   |   |   |   |   pixel155 > 0.451961: happy (3.0)
|   |   |   |   |   |   |   |   |   pixel312 > 0.019608
|   |   |   |   |   |   |   |   |   |   pixel490 <= 0.181373
|   |   |   |   |   |   |   |   |   |   |   pixel504 <= 0.020588
|   |   |   |   |   |   |   |   |   |   |   |   pixel559 <= 0.353922: neutral (2.0)
|   |   |   |   |   |   |   |   |   |   |   |   pixel559 > 0.353922: angry (5.0)
|   |   |   |   |   |   |   |   |   |   |   pixel504 > 0.020588
|   |   |   |   |   |   |   |   |   |   |   |   pixel547 <= 0.004902: suprise (5.0)
|   |   |   |   |   |   |   |   |   |   |   |   pixel547 > 0.004902
|   |   |   |   |   |   |   |   |   |   |   |   |   pixel37 <= 0.623529
|   |   |   |   |   |   |   |   |   |   |   |   |   |   pixel312 <= 0.219608
|   |   |   |   |   |   |   |   |   |   |   |   |   |   |   pixel225 <= 0.57549
|   |   |   |   |   |   |   |   |   |   |   |   |   |   |   |   pixel560 <= 0.288235
|   |   |   |   |   |   |   |   |   |   |   |   |   |   |   |   |   pixel504 <= 0.1: neutral (6.0)
|   |   |   |   |   |   |   |   |   |   |   |   |   |   |   |   |   pixel504 > 0.1
|   |   |   |   |   |   |   |   |   |   |   |   |   |   |   |   |   |   pixel368 <= 0.360784: neutral (5.0/1.0)
|   |   |   |   |   |   |   |   |   |   |   |   |   |   |   |   |   |   pixel368 > 0.360784
|   |   |   |   |   |   |   |   |   |   |   |   |   |   |   |   |   |   |   pixel220 <= 0.311765: suprise (5.0/1.0)
|   |   |   |   |   |   |   |   |   |   |   |   |   |   |   |   |   |   |   pixel220 > 0.311765: sad (7.0)
|   |   |   |   |   |   |   |   |   |   |   |   |   |   |   |   pixel560 > 0.288235
|   |   |   |   |   |   |   |   |   |   |   |   |   |   |   |   |   pixel294 <= 0.643137
|   |   |   |   |   |   |   |   |   |   |   |   |   |   |   |   |   |   pixel552 <= 0.459804: sad (11.0)
|   |   |   |   |   |   |   |   |   |   |   |   |   |   |   |   |   |   pixel552 > 0.459804: suprise (4.0/1.0)
|   |   |   |   |   |   |   |   |   |   |   |   |   |   |   |   |   pixel294 > 0.643137: happy (2.0)
|   |   |   |   |   |   |   |   |   |   |   |   |   |   |   pixel225 > 0.57549: happy (3.0/1.0)
|   |   |   |   |   |   |   |   |   |   |   |   |   |   pixel312 > 0.219608
|   |   |   |   |   |   |   |   |   |   |   |   |   |   |   pixel444 <= 0.630392
|   |   |   |   |   |   |   |   |   |   |   |   |   |   |   |   pixel416 <= 0.465686
|   |   |   |   |   |   |   |   |   |   |   |   |   |   |   |   |   pixel563 <= 0.079412: sad (4.0)
|   |   |   |   |   |   |   |   |   |   |   |   |   |   |   |   |   pixel563 > 0.079412
|   |   |   |   |   |   |   |   |   |   |   |   |   |   |   |   |   |   pixel493 <= 0.234314
|   |   |   |   |   |   |   |   |   |   |   |   |   |   |   |   |   |   |   pixel48 <= 0.108824: fear (7.0/1.0)
|   |   |   |   |   |   |   |   |   |   |   |   |   |   |   |   |   |   |   pixel48 > 0.108824
|   |   |   |   |   |   |   |   |   |   |   |   |   |   |   |   |   |   |   |   pixel453 <= 0.610784
|   |   |   |   |   |   |   |   |   |   |   |   |   |   |   |   |   |   |   |   |   pixel490 <= 0.067647
|   |   |   |   |   |   |   |   |   |   |   |   |   |   |   |   |   |   |   |   |   |   pixel491 <= 0.057843: happy (3.0/1.0)
|   |   |   |   |   |   |   |   |   |   |   |   |   |   |   |   |   |   |   |   |   |   pixel491 > 0.057843: fear (3.0)
|   |   |   |   |   |   |   |   |   |   |   |   |   |   |   |   |   |   |   |   |   pixel490 > 0.067647
|   |   |   |   |   |   |   |   |   |   |   |   |   |   |   |   |   |   |   |   |   |   pixel200 <= 0.458824
|   |   |   |   |   |   |   |   |   |   |   |   |   |   |   |   |   |   |   |   |   |   |   pixel244 <= 0.361765
|   |   |   |   |   |   |   |   |   |   |   |   |   |   |   |   |   |   |   |   |   |   |   |   pixel173 <= 0.168627: happy (2.0)
|   |   |   |   |   |   |   |   |   |   |   |   |   |   |   |   |   |   |   |   |   |   |   |   pixel173 > 0.168627
|   |   |   |   |   |   |   |   |   |   |   |   |   |   |   |   |   |   |   |   |   |   |   |   |   pixel384 <= 0.336275: suprise (2.0)
|   |   |   |   |   |   |   |   |   |   |   |   |   |   |   |   |   |   |   |   |   |   |   |   |   pixel384 > 0.336275: neutral (6.0)
|   |   |   |   |   |   |   |   |   |   |   |   |   |   |   |   |   |   |   |   |   |   |   pixel244 > 0.361765
|   |   |   |   |   |   |   |   |   |   |   |   |   |   |   |   |   |   |   |   |   |   |   |   pixel252 <= 0.391176
|   |   |   |   |   |   |   |   |   |   |   |   |   |   |   |   |   |   |   |   |   |   |   |   |   pixel173 <= 0.342157: neutral (2.0)
|   |   |   |   |   |   |   |   |   |   |   |   |   |   |   |   |   |   |   |   |   |   |   |   |   pixel173 > 0.342157: angry (3.0)
|   |   |   |   |   |   |   |   |   |   |   |   |   |   |   |   |   |   |   |   |   |   |   |   pixel252 > 0.391176
|   |   |   |   |   |   |   |   |   |   |   |   |   |   |   |   |   |   |   |   |   |   |   |   |   pixel131 <= 0.392157: suprise (9.0)
|   |   |   |   |   |   |   |   |   |   |   |   |   |   |   |   |   |   |   |   |   |   |   |   |   pixel131 > 0.392157: angry (4.0/1.0)
|   |   |   |   |   |   |   |   |   |   |   |   |   |   |   |   |   |   |   |   |   |   pixel200 > 0.458824
|   |   |   |   |   |   |   |   |   |   |   |   |   |   |   |   |   |   |   |   |   |   |   pixel37 <= 0.323529: fear (3.0/1.0)
|   |   |   |   |   |   |   |   |   |   |   |   |   |   |   |   |   |   |   |   |   |   |   pixel37 > 0.323529: angry (4.0/1.0)
|   |   |   |   |   |   |   |   |   |   |   |   |   |   |   |   |   |   |   |   pixel453 > 0.610784
|   |   |   |   |   |   |   |   |   |   |   |   |   |   |   |   |   |   |   |   |   pixel292 <= 0.405882: sad (2.0)
|   |   |   |   |   |   |   |   |   |   |   |   |   |   |   |   |   |   |   |   |   pixel292 > 0.405882
|   |   |   |   |   |   |   |   |   |   |   |   |   |   |   |   |   |   |   |   |   |   pixel4 <= 0.393137: angry (5.0/1.0)
|   |   |   |   |   |   |   |   |   |   |   |   |   |   |   |   |   |   |   |   |   |   pixel4 > 0.393137: fear (4.0)
|   |   |   |   |   |   |   |   |   |   |   |   |   |   |   |   |   |   pixel493 > 0.234314
|   |   |   |   |   |   |   |   |   |   |   |   |   |   |   |   |   |   |   pixel155 <= 0.35: sad (5.0/1.0)
|   |   |   |   |   |   |   |   |   |   |   |   |   |   |   |   |   |   |   pixel155 > 0.35: fear (7.0/1.0)
|   |   |   |   |   |   |   |   |   |   |   |   |   |   |   |   pixel416 > 0.465686
|   |   |   |   |   |   |   |   |   |   |   |   |   |   |   |   |   pixel468 <= 0.104902: fear (4.0)
|   |   |   |   |   |   |   |   |   |   |   |   |   |   |   |   |   pixel468 > 0.104902
|   |   |   |   |   |   |   |   |   |   |   |   |   |   |   |   |   |   pixel376 <= 0.477451
|   |   |   |   |   |   |   |   |   |   |   |   |   |   |   |   |   |   |   pixel225 <= 0.518627
|   |   |   |   |   |   |   |   |   |   |   |   |   |   |   |   |   |   |   |   pixel383 <= 0.756863: sad (12.0)
|   |   |   |   |   |   |   |   |   |   |   |   |   |   |   |   |   |   |   |   pixel383 > 0.756863: suprise (4.0/1.0)
|   |   |   |   |   |   |   |   |   |   |   |   |   |   |   |   |   |   |   pixel225 > 0.518627
|   |   |   |   |   |   |   |   |   |   |   |   |   |   |   |   |   |   |   |   pixel1 <= 0.479412: fear (2.0)
|   |   |   |   |   |   |   |   |   |   |   |   |   |   |   |   |   |   |   |   pixel1 > 0.479412: suprise (3.0/1.0)
|   |   |   |   |   |   |   |   |   |   |   |   |   |   |   |   |   |   pixel376 > 0.477451
|   |   |   |   |   |   |   |   |   |   |   |   |   |   |   |   |   |   |   pixel48 <= 0.569608: suprise (9.0)
|   |   |   |   |   |   |   |   |   |   |   |   |   |   |   |   |   |   |   pixel48 > 0.569608: fear (3.0/1.0)
|   |   |   |   |   |   |   |   |   |   |   |   |   |   |   pixel444 > 0.630392: sad (8.0/1.0)
|   |   |   |   |   |   |   |   |   |   |   |   |   pixel37 > 0.623529
|   |   |   |   |   |   |   |   |   |   |   |   |   |   pixel491 <= 0.155882
|   |   |   |   |   |   |   |   |   |   |   |   |   |   |   pixel356 <= 0.406863
|   |   |   |   |   |   |   |   |   |   |   |   |   |   |   |   pixel343 <= 0.507843: neutral (4.0/1.0)
|   |   |   |   |   |   |   |   |   |   |   |   |   |   |   |   pixel343 > 0.507843
|   |   |   |   |   |   |   |   |   |   |   |   |   |   |   |   |   pixel179 <= 0.32549: sad (5.0)
|   |   |   |   |   |   |   |   |   |   |   |   |   |   |   |   |   pixel179 > 0.32549: fear (3.0)
|   |   |   |   |   |   |   |   |   |   |   |   |   |   |   pixel356 > 0.406863
|   |   |   |   |   |   |   |   |   |   |   |   |   |   |   |   pixel156 <= 0.585294
|   |   |   |   |   |   |   |   |   |   |   |   |   |   |   |   |   pixel156 <= 0.406863
|   |   |   |   |   |   |   |   |   |   |   |   |   |   |   |   |   |   pixel23 <= 0.446078: disgust (3.0)
|   |   |   |   |   |   |   |   |   |   |   |   |   |   |   |   |   |   pixel23 > 0.446078: sad (2.0)
|   |   |   |   |   |   |   |   |   |   |   |   |   |   |   |   |   pixel156 > 0.406863: happy (6.0/1.0)
|   |   |   |   |   |   |   |   |   |   |   |   |   |   |   |   pixel156 > 0.585294
|   |   |   |   |   |   |   |   |   |   |   |   |   |   |   |   |   pixel550 <= 0.17549: sad (3.0)
|   |   |   |   |   |   |   |   |   |   |   |   |   |   |   |   |   pixel550 > 0.17549: angry (4.0)
|   |   |   |   |   |   |   |   |   |   |   |   |   |   pixel491 > 0.155882
|   |   |   |   |   |   |   |   |   |   |   |   |   |   |   pixel343 <= 0.357843: disgust (2.0)
|   |   |   |   |   |   |   |   |   |   |   |   |   |   |   pixel343 > 0.357843
|   |   |   |   |   |   |   |   |   |   |   |   |   |   |   |   pixel1 <= 0.516667: angry (6.0/1.0)
|   |   |   |   |   |   |   |   |   |   |   |   |   |   |   |   pixel1 > 0.516667: fear (6.0/1.0)
|   |   |   |   |   |   |   |   |   |   pixel490 > 0.181373
|   |   |   |   |   |   |   |   |   |   |   pixel415 <= 0.860784
|   |   |   |   |   |   |   |   |   |   |   |   pixel155 <= 0.685294
|   |   |   |   |   |   |   |   |   |   |   |   |   pixel490 <= 0.568627
|   |   |   |   |   |   |   |   |   |   |   |   |   |   pixel424 <= 0.480392
|   |   |   |   |   |   |   |   |   |   |   |   |   |   |   pixel203 <= 0.715686
|   |   |   |   |   |   |   |   |   |   |   |   |   |   |   |   pixel204 <= 0.638235
|   |   |   |   |   |   |   |   |   |   |   |   |   |   |   |   |   pixel467 <= 0.12549
|   |   |   |   |   |   |   |   |   |   |   |   |   |   |   |   |   |   pixel71 <= 0.111765: angry (5.0/2.0)
|   |   |   |   |   |   |   |   |   |   |   |   |   |   |   |   |   |   pixel71 > 0.111765
|   |   |   |   |   |   |   |   |   |   |   |   |   |   |   |   |   |   |   pixel469 <= 0.097059: suprise (4.0)
|   |   |   |   |   |   |   |   |   |   |   |   |   |   |   |   |   |   |   pixel469 > 0.097059
|   |   |   |   |   |   |   |   |   |   |   |   |   |   |   |   |   |   |   |   pixel192 <= 0.383333: fear (7.0/1.0)
|   |   |   |   |   |   |   |   |   |   |   |   |   |   |   |   |   |   |   |   pixel192 > 0.383333: happy (3.0)
|   |   |   |   |   |   |   |   |   |   |   |   |   |   |   |   |   pixel467 > 0.12549
|   |   |   |   |   |   |   |   |   |   |   |   |   |   |   |   |   |   pixel200 <= 0.12549
|   |   |   |   |   |   |   |   |   |   |   |   |   |   |   |   |   |   |   pixel59 <= 0.670588
|   |   |   |   |   |   |   |   |   |   |   |   |   |   |   |   |   |   |   |   pixel416 <= 0.207843: neutral (3.0/1.0)
|   |   |   |   |   |   |   |   |   |   |   |   |   |   |   |   |   |   |   |   pixel416 > 0.207843
|   |   |   |   |   |   |   |   |   |   |   |   |   |   |   |   |   |   |   |   |   pixel468 <= 0.365686
|   |   |   |   |   |   |   |   |   |   |   |   |   |   |   |   |   |   |   |   |   |   pixel317 <= 0.467647
|   |   |   |   |   |   |   |   |   |   |   |   |   |   |   |   |   |   |   |   |   |   |   pixel320 <= 0.341176: angry (2.0)
|   |   |   |   |   |   |   |   |   |   |   |   |   |   |   |   |   |   |   |   |   |   |   pixel320 > 0.341176
|   |   |   |   |   |   |   |   |   |   |   |   |   |   |   |   |   |   |   |   |   |   |   |   pixel481 <= 0.285294: sad (14.0)
|   |   |   |   |   |   |   |   |   |   |   |   |   |   |   |   |   |   |   |   |   |   |   |   pixel481 > 0.285294: fear (4.0/1.0)
|   |   |   |   |   |   |   |   |   |   |   |   |   |   |   |   |   |   |   |   |   |   pixel317 > 0.467647
|   |   |   |   |   |   |   |   |   |   |   |   |   |   |   |   |   |   |   |   |   |   |   pixel200 <= 0.114706
|   |   |   |   |   |   |   |   |   |   |   |   |   |   |   |   |   |   |   |   |   |   |   |   pixel200 <= 0.110784
|   |   |   |   |   |   |   |   |   |   |   |   |   |   |   |   |   |   |   |   |   |   |   |   |   pixel228 <= 0.52549: angry (12.0)
|   |   |   |   |   |   |   |   |   |   |   |   |   |   |   |   |   |   |   |   |   |   |   |   |   pixel228 > 0.52549: sad (2.0)
|   |   |   |   |   |   |   |   |   |   |   |   |   |   |   |   |   |   |   |   |   |   |   |   pixel200 > 0.110784: sad (3.0)
|   |   |   |   |   |   |   |   |   |   |   |   |   |   |   |   |   |   |   |   |   |   |   pixel200 > 0.114706
|   |   |   |   |   |   |   |   |   |   |   |   |   |   |   |   |   |   |   |   |   |   |   |   pixel376 <= 0.371569: angry (2.0)
|   |   |   |   |   |   |   |   |   |   |   |   |   |   |   |   |   |   |   |   |   |   |   |   pixel376 > 0.371569: fear (3.0)
|   |   |   |   |   |   |   |   |   |   |   |   |   |   |   |   |   |   |   |   |   pixel468 > 0.365686
|   |   |   |   |   |   |   |   |   |   |   |   |   |   |   |   |   |   |   |   |   |   pixel1 <= 0.457843
|   |   |   |   |   |   |   |   |   |   |   |   |   |   |   |   |   |   |   |   |   |   |   pixel4 <= 0.209804: angry (2.0)
|   |   |   |   |   |   |   |   |   |   |   |   |   |   |   |   |   |   |   |   |   |   |   pixel4 > 0.209804: neutral (2.0)
|   |   |   |   |   |   |   |   |   |   |   |   |   |   |   |   |   |   |   |   |   |   pixel1 > 0.457843: fear (2.0)
|   |   |   |   |   |   |   |   |   |   |   |   |   |   |   |   |   |   |   pixel59 > 0.670588: happy (2.0)
|   |   |   |   |   |   |   |   |   |   |   |   |   |   |   |   |   |   pixel200 > 0.12549
|   |   |   |   |   |   |   |   |   |   |   |   |   |   |   |   |   |   |   pixel292 <= 0.87549
|   |   |   |   |   |   |   |   |   |   |   |   |   |   |   |   |   |   |   |   pixel560 <= 0.382353
|   |   |   |   |   |   |   |   |   |   |   |   |   |   |   |   |   |   |   |   |   pixel383 <= 0.822549
|   |   |   |   |   |   |   |   |   |   |   |   |   |   |   |   |   |   |   |   |   |   pixel563 <= 0.09902
|   |   |   |   |   |   |   |   |   |   |   |   |   |   |   |   |   |   |   |   |   |   |   pixel119 <= 0.495098
|   |   |   |   |   |   |   |   |   |   |   |   |   |   |   |   |   |   |   |   |   |   |   |   pixel37 <= 0.083333: fear (2.0)
|   |   |   |   |   |   |   |   |   |   |   |   |   |   |   |   |   |   |   |   |   |   |   |   pixel37 > 0.083333
|   |   |   |   |   |   |   |   |   |   |   |   |   |   |   |   |   |   |   |   |   |   |   |   |   pixel383 <= 0.086275
|   |   |   |   |   |   |   |   |   |   |   |   |   |   |   |   |   |   |   |   |   |   |   |   |   |   pixel400 <= 0.260784: happy (4.0)
|   |   |   |   |   |   |   |   |   |   |   |   |   |   |   |   |   |   |   |   |   |   |   |   |   |   pixel400 > 0.260784: sad (3.0)
|   |   |   |   |   |   |   |   |   |   |   |   |   |   |   |   |   |   |   |   |   |   |   |   |   pixel383 > 0.086275: sad (9.0)
|   |   |   |   |   |   |   |   |   |   |   |   |   |   |   |   |   |   |   |   |   |   |   pixel119 > 0.495098: angry (3.0)
|   |   |   |   |   |   |   |   |   |   |   |   |   |   |   |   |   |   |   |   |   |   pixel563 > 0.09902
|   |   |   |   |   |   |   |   |   |   |   |   |   |   |   |   |   |   |   |   |   |   |   pixel491 <= 0.380392
|   |   |   |   |   |   |   |   |   |   |   |   |   |   |   |   |   |   |   |   |   |   |   |   pixel535 <= 0.396078
|   |   |   |   |   |   |   |   |   |   |   |   |   |   |   |   |   |   |   |   |   |   |   |   |   pixel179 <= 0.17549
|   |   |   |   |   |   |   |   |   |   |   |   |   |   |   |   |   |   |   |   |   |   |   |   |   |   pixel368 <= 0.40098
|   |   |   |   |   |   |   |   |   |   |   |   |   |   |   |   |   |   |   |   |   |   |   |   |   |   |   pixel23 <= 0.242157: sad (2.0)
|   |   |   |   |   |   |   |   |   |   |   |   |   |   |   |   |   |   |   |   |   |   |   |   |   |   |   pixel23 > 0.242157: suprise (2.0)
|   |   |   |   |   |   |   |   |   |   |   |   |   |   |   |   |   |   |   |   |   |   |   |   |   |   pixel368 > 0.40098: angry (4.0)
|   |   |   |   |   |   |   |   |   |   |   |   |   |   |   |   |   |   |   |   |   |   |   |   |   pixel179 > 0.17549
|   |   |   |   |   |   |   |   |   |   |   |   |   |   |   |   |   |   |   |   |   |   |   |   |   |   pixel544 <= 0.067647
|   |   |   |   |   |   |   |   |   |   |   |   |   |   |   |   |   |   |   |   |   |   |   |   |   |   |   pixel48 <= 0.111765: suprise (3.0/1.0)
|   |   |   |   |   |   |   |   |   |   |   |   |   |   |   |   |   |   |   |   |   |   |   |   |   |   |   pixel48 > 0.111765
|   |   |   |   |   |   |   |   |   |   |   |   |   |   |   |   |   |   |   |   |   |   |   |   |   |   |   |   pixel131 <= 0.47451: angry (5.0)
|   |   |   |   |   |   |   |   |   |   |   |   |   |   |   |   |   |   |   |   |   |   |   |   |   |   |   |   pixel131 > 0.47451: neutral (2.0)
|   |   |   |   |   |   |   |   |   |   |   |   |   |   |   |   |   |   |   |   |   |   |   |   |   |   pixel544 > 0.067647
|   |   |   |   |   |   |   |   |   |   |   |   |   |   |   |   |   |   |   |   |   |   |   |   |   |   |   pixel492 <= 0.282353
|   |   |   |   |   |   |   |   |   |   |   |   |   |   |   |   |   |   |   |   |   |   |   |   |   |   |   |   pixel173 <= 0.603922
|   |   |   |   |   |   |   |   |   |   |   |   |   |   |   |   |   |   |   |   |   |   |   |   |   |   |   |   |   pixel469 <= 0.148039
|   |   |   |   |   |   |   |   |   |   |   |   |   |   |   |   |   |   |   |   |   |   |   |   |   |   |   |   |   |   pixel491 <= 0.212745
|   |   |   |   |   |   |   |   |   |   |   |   |   |   |   |   |   |   |   |   |   |   |   |   |   |   |   |   |   |   |   pixel4 <= 0.114706: neutral (2.0)
|   |   |   |   |   |   |   |   |   |   |   |   |   |   |   |   |   |   |   |   |   |   |   |   |   |   |   |   |   |   |   pixel4 > 0.114706: happy (2.0)
|   |   |   |   |   |   |   |   |   |   |   |   |   |   |   |   |   |   |   |   |   |   |   |   |   |   |   |   |   |   pixel491 > 0.212745
|   |   |   |   |   |   |   |   |   |   |   |   |   |   |   |   |   |   |   |   |   |   |   |   |   |   |   |   |   |   |   pixel466 <= 0.270588
|   |   |   |   |   |   |   |   |   |   |   |   |   |   |   |   |   |   |   |   |   |   |   |   |   |   |   |   |   |   |   |   pixel368 <= 0.378431: suprise (2.0)
|   |   |   |   |   |   |   |   |   |   |   |   |   |   |   |   |   |   |   |   |   |   |   |   |   |   |   |   |   |   |   |   pixel368 > 0.378431: angry (4.0)
|   |   |   |   |   |   |   |   |   |   |   |   |   |   |   |   |   |   |   |   |   |   |   |   |   |   |   |   |   |   |   pixel466 > 0.270588: fear (4.0)
|   |   |   |   |   |   |   |   |   |   |   |   |   |   |   |   |   |   |   |   |   |   |   |   |   |   |   |   |   pixel469 > 0.148039
|   |   |   |   |   |   |   |   |   |   |   |   |   |   |   |   |   |   |   |   |   |   |   |   |   |   |   |   |   |   pixel292 <= 0.173529
|   |   |   |   |   |   |   |   |   |   |   |   |   |   |   |   |   |   |   |   |   |   |   |   |   |   |   |   |   |   |   pixel204 <= 0.30098: happy (3.0/1.0)
|   |   |   |   |   |   |   |   |   |   |   |   |   |   |   |   |   |   |   |   |   |   |   |   |   |   |   |   |   |   |   pixel204 > 0.30098: sad (5.0)
|   |   |   |   |   |   |   |   |   |   |   |   |   |   |   |   |   |   |   |   |   |   |   |   |   |   |   |   |   |   pixel292 > 0.173529
|   |   |   |   |   |   |   |   |   |   |   |   |   |   |   |   |   |   |   |   |   |   |   |   |   |   |   |   |   |   |   pixel560 <= 0.12549
|   |   |   |   |   |   |   |   |   |   |   |   |   |   |   |   |   |   |   |   |   |   |   |   |   |   |   |   |   |   |   |   pixel1 <= 0.288235: neutral (5.0/1.0)
|   |   |   |   |   |   |   |   |   |   |   |   |   |   |   |   |   |   |   |   |   |   |   |   |   |   |   |   |   |   |   |   pixel1 > 0.288235
|   |   |   |   |   |   |   |   |   |   |   |   |   |   |   |   |   |   |   |   |   |   |   |   |   |   |   |   |   |   |   |   |   pixel424 <= 0.427451
|   |   |   |   |   |   |   |   |   |   |   |   |   |   |   |   |   |   |   |   |   |   |   |   |   |   |   |   |   |   |   |   |   |   pixel179 <= 0.516667: happy (4.0)
|   |   |   |   |   |   |   |   |   |   |   |   |   |   |   |   |   |   |   |   |   |   |   |   |   |   |   |   |   |   |   |   |   |   pixel179 > 0.516667: suprise (2.0)
|   |   |   |   |   |   |   |   |   |   |   |   |   |   |   |   |   |   |   |   |   |   |   |   |   |   |   |   |   |   |   |   |   pixel424 > 0.427451: angry (2.0)
|   |   |   |   |   |   |   |   |   |   |   |   |   |   |   |   |   |   |   |   |   |   |   |   |   |   |   |   |   |   |   pixel560 > 0.12549
|   |   |   |   |   |   |   |   |   |   |   |   |   |   |   |   |   |   |   |   |   |   |   |   |   |   |   |   |   |   |   |   pixel204 <= 0.505882
|   |   |   |   |   |   |   |   |   |   |   |   |   |   |   |   |   |   |   |   |   |   |   |   |   |   |   |   |   |   |   |   |   pixel469 <= 0.457843
|   |   |   |   |   |   |   |   |   |   |   |   |   |   |   |   |   |   |   |   |   |   |   |   |   |   |   |   |   |   |   |   |   |   pixel181 <= 0.45098
|   |   |   |   |   |   |   |   |   |   |   |   |   |   |   |   |   |   |   |   |   |   |   |   |   |   |   |   |   |   |   |   |   |   |   pixel343 <= 0.493137
|   |   |   |   |   |   |   |   |   |   |   |   |   |   |   |   |   |   |   |   |   |   |   |   |   |   |   |   |   |   |   |   |   |   |   |   pixel432 <= 0.414706
|   |   |   |   |   |   |   |   |   |   |   |   |   |   |   |   |   |   |   |   |   |   |   |   |   |   |   |   |   |   |   |   |   |   |   |   |   pixel181 <= 0.322549
|   |   |   |   |   |   |   |   |   |   |   |   |   |   |   |   |   |   |   |   |   |   |   |   |   |   |   |   |   |   |   |   |   |   |   |   |   |   pixel563 <= 0.267647
|   |   |   |   |   |   |   |   |   |   |   |   |   |   |   |   |   |   |   |   |   |   |   |   |   |   |   |   |   |   |   |   |   |   |   |   |   |   |   pixel554 <= 0.140196: fear (5.0/1.0)
|   |   |   |   |   |   |   |   |   |   |   |   |   |   |   |   |   |   |   |   |   |   |   |   |   |   |   |   |   |   |   |   |   |   |   |   |   |   |   pixel554 > 0.140196: neutral (12.0)
|   |   |   |   |   |   |   |   |   |   |   |   |   |   |   |   |   |   |   |   |   |   |   |   |   |   |   |   |   |   |   |   |   |   |   |   |   |   pixel563 > 0.267647
|   |   |   |   |   |   |   |   |   |   |   |   |   |   |   |   |   |   |   |   |   |   |   |   |   |   |   |   |   |   |   |   |   |   |   |   |   |   |   pixel4 <= 0.276471: fear (10.0/1.0)
|   |   |   |   |   |   |   |   |   |   |   |   |   |   |   |   |   |   |   |   |   |   |   |   |   |   |   |   |   |   |   |   |   |   |   |   |   |   |   pixel4 > 0.276471: sad (4.0)
|   |   |   |   |   |   |   |   |   |   |   |   |   |   |   |   |   |   |   |   |   |   |   |   |   |   |   |   |   |   |   |   |   |   |   |   |   pixel181 > 0.322549
|   |   |   |   |   |   |   |   |   |   |   |   |   |   |   |   |   |   |   |   |   |   |   |   |   |   |   |   |   |   |   |   |   |   |   |   |   |   pixel225 <= 0.210784: neutral (3.0)
|   |   |   |   |   |   |   |   |   |   |   |   |   |   |   |   |   |   |   |   |   |   |   |   |   |   |   |   |   |   |   |   |   |   |   |   |   |   pixel225 > 0.210784
|   |   |   |   |   |   |   |   |   |   |   |   |   |   |   |   |   |   |   |   |   |   |   |   |   |   |   |   |   |   |   |   |   |   |   |   |   |   |   pixel490 <= 0.308824
|   |   |   |   |   |   |   |   |   |   |   |   |   |   |   |   |   |   |   |   |   |   |   |   |   |   |   |   |   |   |   |   |   |   |   |   |   |   |   |   pixel155 <= 0.327451: sad (5.0/1.0)
|   |   |   |   |   |   |   |   |   |   |   |   |   |   |   |   |   |   |   |   |   |   |   |   |   |   |   |   |   |   |   |   |   |   |   |   |   |   |   |   pixel155 > 0.327451: happy (5.0/1.0)
|   |   |   |   |   |   |   |   |   |   |   |   |   |   |   |   |   |   |   |   |   |   |   |   |   |   |   |   |   |   |   |   |   |   |   |   |   |   |   pixel490 > 0.308824: fear (2.0)
|   |   |   |   |   |   |   |   |   |   |   |   |   |   |   |   |   |   |   |   |   |   |   |   |   |   |   |   |   |   |   |   |   |   |   |   pixel432 > 0.414706
|   |   |   |   |   |   |   |   |   |   |   |   |   |   |   |   |   |   |   |   |   |   |   |   |   |   |   |   |   |   |   |   |   |   |   |   |   pixel493 <= 0.181373: fear (2.0)
|   |   |   |   |   |   |   |   |   |   |   |   |   |   |   |   |   |   |   |   |   |   |   |   |   |   |   |   |   |   |   |   |   |   |   |   |   pixel493 > 0.181373
|   |   |   |   |   |   |   |   |   |   |   |   |   |   |   |   |   |   |   |   |   |   |   |   |   |   |   |   |   |   |   |   |   |   |   |   |   |   pixel554 <= 0.205882: angry (4.0/1.0)
|   |   |   |   |   |   |   |   |   |   |   |   |   |   |   |   |   |   |   |   |   |   |   |   |   |   |   |   |   |   |   |   |   |   |   |   |   |   pixel554 > 0.205882
|   |   |   |   |   |   |   |   |   |   |   |   |   |   |   |   |   |   |   |   |   |   |   |   |   |   |   |   |   |   |   |   |   |   |   |   |   |   |   pixel491 <= 0.308824: neutral (24.0/3.0)
|   |   |   |   |   |   |   |   |   |   |   |   |   |   |   |   |   |   |   |   |   |   |   |   |   |   |   |   |   |   |   |   |   |   |   |   |   |   |   pixel491 > 0.308824: angry (4.0/1.0)
|   |   |   |   |   |   |   |   |   |   |   |   |   |   |   |   |   |   |   |   |   |   |   |   |   |   |   |   |   |   |   |   |   |   |   pixel343 > 0.493137
|   |   |   |   |   |   |   |   |   |   |   |   |   |   |   |   |   |   |   |   |   |   |   |   |   |   |   |   |   |   |   |   |   |   |   |   pixel468 <= 0.443137
|   |   |   |   |   |   |   |   |   |   |   |   |   |   |   |   |   |   |   |   |   |   |   |   |   |   |   |   |   |   |   |   |   |   |   |   |   pixel343 <= 0.5: sad (3.0)
|   |   |   |   |   |   |   |   |   |   |   |   |   |   |   |   |   |   |   |   |   |   |   |   |   |   |   |   |   |   |   |   |   |   |   |   |   pixel343 > 0.5: neutral (23.0/1.0)
|   |   |   |   |   |   |   |   |   |   |   |   |   |   |   |   |   |   |   |   |   |   |   |   |   |   |   |   |   |   |   |   |   |   |   |   pixel468 > 0.443137
|   |   |   |   |   |   |   |   |   |   |   |   |   |   |   |   |   |   |   |   |   |   |   |   |   |   |   |   |   |   |   |   |   |   |   |   |   pixel155 <= 0.447059: neutral (2.0)
|   |   |   |   |   |   |   |   |   |   |   |   |   |   |   |   |   |   |   |   |   |   |   |   |   |   |   |   |   |   |   |   |   |   |   |   |   pixel155 > 0.447059: sad (6.0)
|   |   |   |   |   |   |   |   |   |   |   |   |   |   |   |   |   |   |   |   |   |   |   |   |   |   |   |   |   |   |   |   |   |   pixel181 > 0.45098
|   |   |   |   |   |   |   |   |   |   |   |   |   |   |   |   |   |   |   |   |   |   |   |   |   |   |   |   |   |   |   |   |   |   |   pixel4 <= 0.545098
|   |   |   |   |   |   |   |   |   |   |   |   |   |   |   |   |   |   |   |   |   |   |   |   |   |   |   |   |   |   |   |   |   |   |   |   pixel131 <= 0.540196: angry (5.0)
|   |   |   |   |   |   |   |   |   |   |   |   |   |   |   |   |   |   |   |   |   |   |   |   |   |   |   |   |   |   |   |   |   |   |   |   pixel131 > 0.540196: neutral (5.0/1.0)
|   |   |   |   |   |   |   |   |   |   |   |   |   |   |   |   |   |   |   |   |   |   |   |   |   |   |   |   |   |   |   |   |   |   |   pixel4 > 0.545098: fear (4.0)
|   |   |   |   |   |   |   |   |   |   |   |   |   |   |   |   |   |   |   |   |   |   |   |   |   |   |   |   |   |   |   |   |   pixel469 > 0.457843: angry (5.0/1.0)
|   |   |   |   |   |   |   |   |   |   |   |   |   |   |   |   |   |   |   |   |   |   |   |   |   |   |   |   |   |   |   |   pixel204 > 0.505882
|   |   |   |   |   |   |   |   |   |   |   |   |   |   |   |   |   |   |   |   |   |   |   |   |   |   |   |   |   |   |   |   |   pixel59 <= 0.608824
|   |   |   |   |   |   |   |   |   |   |   |   |   |   |   |   |   |   |   |   |   |   |   |   |   |   |   |   |   |   |   |   |   |   pixel131 <= 0.583333: sad (10.0/1.0)
|   |   |   |   |   |   |   |   |   |   |   |   |   |   |   |   |   |   |   |   |   |   |   |   |   |   |   |   |   |   |   |   |   |   pixel131 > 0.583333: fear (2.0/1.0)
|   |   |   |   |   |   |   |   |   |   |   |   |   |   |   |   |   |   |   |   |   |   |   |   |   |   |   |   |   |   |   |   |   pixel59 > 0.608824: neutral (5.0/1.0)
|   |   |   |   |   |   |   |   |   |   |   |   |   |   |   |   |   |   |   |   |   |   |   |   |   |   |   |   pixel173 > 0.603922
|   |   |   |   |   |   |   |   |   |   |   |   |   |   |   |   |   |   |   |   |   |   |   |   |   |   |   |   |   pixel1 <= 0.335294
|   |   |   |   |   |   |   |   |   |   |   |   |   |   |   |   |   |   |   |   |   |   |   |   |   |   |   |   |   |   pixel343 <= 0.498039: angry (2.0)
|   |   |   |   |   |   |   |   |   |   |   |   |   |   |   |   |   |   |   |   |   |   |   |   |   |   |   |   |   |   pixel343 > 0.498039: sad (5.0)
|   |   |   |   |   |   |   |   |   |   |   |   |   |   |   |   |   |   |   |   |   |   |   |   |   |   |   |   |   pixel1 > 0.335294
|   |   |   |   |   |   |   |   |   |   |   |   |   |   |   |   |   |   |   |   |   |   |   |   |   |   |   |   |   |   pixel558 <= 0.247059: happy (4.0/1.0)
|   |   |   |   |   |   |   |   |   |   |   |   |   |   |   |   |   |   |   |   |   |   |   |   |   |   |   |   |   |   pixel558 > 0.247059: fear (6.0)
|   |   |   |   |   |   |   |   |   |   |   |   |   |   |   |   |   |   |   |   |   |   |   |   |   |   |   pixel492 > 0.282353
|   |   |   |   |   |   |   |   |   |   |   |   |   |   |   |   |   |   |   |   |   |   |   |   |   |   |   |   pixel204 <= 0.445098: fear (7.0/1.0)
|   |   |   |   |   |   |   |   |   |   |   |   |   |   |   |   |   |   |   |   |   |   |   |   |   |   |   |   pixel204 > 0.445098: sad (3.0/1.0)
|   |   |   |   |   |   |   |   |   |   |   |   |   |   |   |   |   |   |   |   |   |   |   |   pixel535 > 0.396078
|   |   |   |   |   |   |   |   |   |   |   |   |   |   |   |   |   |   |   |   |   |   |   |   |   pixel522 <= 0.320588
|   |   |   |   |   |   |   |   |   |   |   |   |   |   |   |   |   |   |   |   |   |   |   |   |   |   pixel252 <= 0.502941
|   |   |   |   |   |   |   |   |   |   |   |   |   |   |   |   |   |   |   |   |   |   |   |   |   |   |   pixel156 <= 0.345098: fear (3.0/1.0)
|   |   |   |   |   |   |   |   |   |   |   |   |   |   |   |   |   |   |   |   |   |   |   |   |   |   |   pixel156 > 0.345098: neutral (7.0)
|   |   |   |   |   |   |   |   |   |   |   |   |   |   |   |   |   |   |   |   |   |   |   |   |   |   pixel252 > 0.502941: sad (5.0)
|   |   |   |   |   |   |   |   |   |   |   |   |   |   |   |   |   |   |   |   |   |   |   |   |   pixel522 > 0.320588
|   |   |   |   |   |   |   |   |   |   |   |   |   |   |   |   |   |   |   |   |   |   |   |   |   |   pixel0 <= 0.335294: sad (4.0)
|   |   |   |   |   |   |   |   |   |   |   |   |   |   |   |   |   |   |   |   |   |   |   |   |   |   pixel0 > 0.335294: suprise (6.0/1.0)
|   |   |   |   |   |   |   |   |   |   |   |   |   |   |   |   |   |   |   |   |   |   |   pixel491 > 0.380392
|   |   |   |   |   |   |   |   |   |   |   |   |   |   |   |   |   |   |   |   |   |   |   |   pixel344 <= 0.498039: happy (5.0)
|   |   |   |   |   |   |   |   |   |   |   |   |   |   |   |   |   |   |   |   |   |   |   |   pixel344 > 0.498039: angry (4.0/1.0)
|   |   |   |   |   |   |   |   |   |   |   |   |   |   |   |   |   |   |   |   |   pixel383 > 0.822549
|   |   |   |   |   |   |   |   |   |   |   |   |   |   |   |   |   |   |   |   |   |   pixel344 <= 0.480392: sad (5.0)
|   |   |   |   |   |   |   |   |   |   |   |   |   |   |   |   |   |   |   |   |   |   pixel344 > 0.480392
|   |   |   |   |   |   |   |   |   |   |   |   |   |   |   |   |   |   |   |   |   |   |   pixel173 <= 0.292157: angry (2.0/1.0)
|   |   |   |   |   |   |   |   |   |   |   |   |   |   |   |   |   |   |   |   |   |   |   pixel173 > 0.292157: happy (2.0)
|   |   |   |   |   |   |   |   |   |   |   |   |   |   |   |   |   |   |   |   pixel560 > 0.382353
|   |   |   |   |   |   |   |   |   |   |   |   |   |   |   |   |   |   |   |   |   pixel504 <= 0.052941
|   |   |   |   |   |   |   |   |   |   |   |   |   |   |   |   |   |   |   |   |   |   pixel547 <= 0.096078: fear (5.0)
|   |   |   |   |   |   |   |   |   |   |   |   |   |   |   |   |   |   |   |   |   |   pixel547 > 0.096078: sad (3.0)
|   |   |   |   |   |   |   |   |   |   |   |   |   |   |   |   |   |   |   |   |   pixel504 > 0.052941
|   |   |   |   |   |   |   |   |   |   |   |   |   |   |   |   |   |   |   |   |   |   pixel228 <= 0.207843
|   |   |   |   |   |   |   |   |   |   |   |   |   |   |   |   |   |   |   |   |   |   |   pixel567 <= 0.368627
|   |   |   |   |   |   |   |   |   |   |   |   |   |   |   |   |   |   |   |   |   |   |   |   pixel481 <= 0.572549
|   |   |   |   |   |   |   |   |   |   |   |   |   |   |   |   |   |   |   |   |   |   |   |   |   pixel173 <= 0.638235
|   |   |   |   |   |   |   |   |   |   |   |   |   |   |   |   |   |   |   |   |   |   |   |   |   |   pixel227 <= 0.157843: neutral (3.0/1.0)
|   |   |   |   |   |   |   |   |   |   |   |   |   |   |   |   |   |   |   |   |   |   |   |   |   |   pixel227 > 0.157843: sad (5.0)
|   |   |   |   |   |   |   |   |   |   |   |   |   |   |   |   |   |   |   |   |   |   |   |   |   pixel173 > 0.638235: neutral (2.0)
|   |   |   |   |   |   |   |   |   |   |   |   |   |   |   |   |   |   |   |   |   |   |   |   pixel481 > 0.572549: suprise (2.0)
|   |   |   |   |   |   |   |   |   |   |   |   |   |   |   |   |   |   |   |   |   |   |   pixel567 > 0.368627: fear (3.0)
|   |   |   |   |   |   |   |   |   |   |   |   |   |   |   |   |   |   |   |   |   |   pixel228 > 0.207843
|   |   |   |   |   |   |   |   |   |   |   |   |   |   |   |   |   |   |   |   |   |   |   pixel391 <= 0.545098
|   |   |   |   |   |   |   |   |   |   |   |   |   |   |   |   |   |   |   |   |   |   |   |   pixel343 <= 0.65
|   |   |   |   |   |   |   |   |   |   |   |   |   |   |   |   |   |   |   |   |   |   |   |   |   pixel220 <= 0.254902
|   |   |   |   |   |   |   |   |   |   |   |   |   |   |   |   |   |   |   |   |   |   |   |   |   |   pixel455 <= 0.420588: sad (8.0/1.0)
|   |   |   |   |   |   |   |   |   |   |   |   |   |   |   |   |   |   |   |   |   |   |   |   |   |   pixel455 > 0.420588: neutral (4.0/1.0)
|   |   |   |   |   |   |   |   |   |   |   |   |   |   |   |   |   |   |   |   |   |   |   |   |   pixel220 > 0.254902
|   |   |   |   |   |   |   |   |   |   |   |   |   |   |   |   |   |   |   |   |   |   |   |   |   |   pixel252 <= 0.684314
|   |   |   |   |   |   |   |   |   |   |   |   |   |   |   |   |   |   |   |   |   |   |   |   |   |   |   pixel173 <= 0.248039
|   |   |   |   |   |   |   |   |   |   |   |   |   |   |   |   |   |   |   |   |   |   |   |   |   |   |   |   pixel559 <= 0.391176: suprise (2.0)
|   |   |   |   |   |   |   |   |   |   |   |   |   |   |   |   |   |   |   |   |   |   |   |   |   |   |   |   pixel559 > 0.391176
|   |   |   |   |   |   |   |   |   |   |   |   |   |   |   |   |   |   |   |   |   |   |   |   |   |   |   |   |   pixel320 <= 0.407843
|   |   |   |   |   |   |   |   |   |   |   |   |   |   |   |   |   |   |   |   |   |   |   |   |   |   |   |   |   |   pixel181 <= 0.15098: disgust (2.0/1.0)
|   |   |   |   |   |   |   |   |   |   |   |   |   |   |   |   |   |   |   |   |   |   |   |   |   |   |   |   |   |   pixel181 > 0.15098: happy (5.0)
|   |   |   |   |   |   |   |   |   |   |   |   |   |   |   |   |   |   |   |   |   |   |   |   |   |   |   |   |   pixel320 > 0.407843
|   |   |   |   |   |   |   |   |   |   |   |   |   |   |   |   |   |   |   |   |   |   |   |   |   |   |   |   |   |   pixel492 <= 0.247059: fear (4.0)
|   |   |   |   |   |   |   |   |   |   |   |   |   |   |   |   |   |   |   |   |   |   |   |   |   |   |   |   |   |   pixel492 > 0.247059: neutral (4.0)
|   |   |   |   |   |   |   |   |   |   |   |   |   |   |   |   |   |   |   |   |   |   |   |   |   |   |   pixel173 > 0.248039
|   |   |   |   |   |   |   |   |   |   |   |   |   |   |   |   |   |   |   |   |   |   |   |   |   |   |   |   pixel312 <= 0.120588: neutral (5.0/1.0)
|   |   |   |   |   |   |   |   |   |   |   |   |   |   |   |   |   |   |   |   |   |   |   |   |   |   |   |   pixel312 > 0.120588
|   |   |   |   |   |   |   |   |   |   |   |   |   |   |   |   |   |   |   |   |   |   |   |   |   |   |   |   |   pixel559 <= 0.39902
|   |   |   |   |   |   |   |   |   |   |   |   |   |   |   |   |   |   |   |   |   |   |   |   |   |   |   |   |   |   pixel493 <= 0.233333: angry (5.0)
|   |   |   |   |   |   |   |   |   |   |   |   |   |   |   |   |   |   |   |   |   |   |   |   |   |   |   |   |   |   pixel493 > 0.233333
|   |   |   |   |   |   |   |   |   |   |   |   |   |   |   |   |   |   |   |   |   |   |   |   |   |   |   |   |   |   |   pixel552 <= 0.384314: disgust (4.0/1.0)
|   |   |   |   |   |   |   |   |   |   |   |   |   |   |   |   |   |   |   |   |   |   |   |   |   |   |   |   |   |   |   pixel552 > 0.384314: fear (4.0/1.0)
|   |   |   |   |   |   |   |   |   |   |   |   |   |   |   |   |   |   |   |   |   |   |   |   |   |   |   |   |   pixel559 > 0.39902
|   |   |   |   |   |   |   |   |   |   |   |   |   |   |   |   |   |   |   |   |   |   |   |   |   |   |   |   |   |   pixel312 <= 0.832353
|   |   |   |   |   |   |   |   |   |   |   |   |   |   |   |   |   |   |   |   |   |   |   |   |   |   |   |   |   |   |   pixel551 <= 0.086275: happy (6.0/1.0)
|   |   |   |   |   |   |   |   |   |   |   |   |   |   |   |   |   |   |   |   |   |   |   |   |   |   |   |   |   |   |   pixel551 > 0.086275
|   |   |   |   |   |   |   |   |   |   |   |   |   |   |   |   |   |   |   |   |   |   |   |   |   |   |   |   |   |   |   |   pixel416 <= 0.457843
|   |   |   |   |   |   |   |   |   |   |   |   |   |   |   |   |   |   |   |   |   |   |   |   |   |   |   |   |   |   |   |   |   pixel444 <= 0.160784: angry (4.0)
|   |   |   |   |   |   |   |   |   |   |   |   |   |   |   |   |   |   |   |   |   |   |   |   |   |   |   |   |   |   |   |   |   pixel444 > 0.160784
|   |   |   |   |   |   |   |   |   |   |   |   |   |   |   |   |   |   |   |   |   |   |   |   |   |   |   |   |   |   |   |   |   |   pixel535 <= 0.743137
|   |   |   |   |   |   |   |   |   |   |   |   |   |   |   |   |   |   |   |   |   |   |   |   |   |   |   |   |   |   |   |   |   |   |   pixel466 <= 0.27549
|   |   |   |   |   |   |   |   |   |   |   |   |   |   |   |   |   |   |   |   |   |   |   |   |   |   |   |   |   |   |   |   |   |   |   |   pixel23 <= 0.262745: sad (3.0)
|   |   |   |   |   |   |   |   |   |   |   |   |   |   |   |   |   |   |   |   |   |   |   |   |   |   |   |   |   |   |   |   |   |   |   |   pixel23 > 0.262745: angry (4.0/1.0)
|   |   |   |   |   |   |   |   |   |   |   |   |   |   |   |   |   |   |   |   |   |   |   |   |   |   |   |   |   |   |   |   |   |   |   pixel466 > 0.27549
|   |   |   |   |   |   |   |   |   |   |   |   |   |   |   |   |   |   |   |   |   |   |   |   |   |   |   |   |   |   |   |   |   |   |   |   pixel424 <= 0.345098
|   |   |   |   |   |   |   |   |   |   |   |   |   |   |   |   |   |   |   |   |   |   |   |   |   |   |   |   |   |   |   |   |   |   |   |   |   pixel554 <= 0.783333: happy (11.0)
|   |   |   |   |   |   |   |   |   |   |   |   |   |   |   |   |   |   |   |   |   |   |   |   |   |   |   |   |   |   |   |   |   |   |   |   |   pixel554 > 0.783333: sad (2.0)
|   |   |   |   |   |   |   |   |   |   |   |   |   |   |   |   |   |   |   |   |   |   |   |   |   |   |   |   |   |   |   |   |   |   |   |   pixel424 > 0.345098: sad (5.0)
|   |   |   |   |   |   |   |   |   |   |   |   |   |   |   |   |   |   |   |   |   |   |   |   |   |   |   |   |   |   |   |   |   |   pixel535 > 0.743137: angry (2.0/1.0)
|   |   |   |   |   |   |   |   |   |   |   |   |   |   |   |   |   |   |   |   |   |   |   |   |   |   |   |   |   |   |   |   pixel416 > 0.457843
|   |   |   |   |   |   |   |   |   |   |   |   |   |   |   |   |   |   |   |   |   |   |   |   |   |   |   |   |   |   |   |   |   pixel173 <= 0.570588: angry (12.0)
|   |   |   |   |   |   |   |   |   |   |   |   |   |   |   |   |   |   |   |   |   |   |   |   |   |   |   |   |   |   |   |   |   pixel173 > 0.570588: happy (3.0/1.0)
|   |   |   |   |   |   |   |   |   |   |   |   |   |   |   |   |   |   |   |   |   |   |   |   |   |   |   |   |   |   pixel312 > 0.832353
|   |   |   |   |   |   |   |   |   |   |   |   |   |   |   |   |   |   |   |   |   |   |   |   |   |   |   |   |   |   |   pixel0 <= 0.302941: happy (2.0)
|   |   |   |   |   |   |   |   |   |   |   |   |   |   |   |   |   |   |   |   |   |   |   |   |   |   |   |   |   |   |   pixel0 > 0.302941: neutral (2.0)
|   |   |   |   |   |   |   |   |   |   |   |   |   |   |   |   |   |   |   |   |   |   |   |   |   |   pixel252 > 0.684314: neutral (4.0)
