<?xml version="1.0"?>
<!-- DTD for the XMLBIF 0.3 format -->
<!DOCTYPE BIF [
	<!ELEMENT BIF ( NETWORK )*>
	      <!ATTLIST BIF VERSION CDATA #REQUIRED>
	<!ELEMENT NETWORK ( NAME, ( PROPERTY | VARIABLE | DEFINITION )* )>
	<!ELEMENT NAME (#PCDATA)>
	<!ELEMENT VARIABLE ( NAME, ( OUTCOME |  PROPERTY )* ) >
	      <!ATTLIST VARIABLE TYPE (nature|decision|utility) "nature">
	<!ELEMENT OUTCOME (#PCDATA)>
	<!ELEMENT DEFINITION ( FOR | GIVEN | TABLE | PROPERTY )* >
	<!ELEMENT FOR (#PCDATA)>
	<!ELEMENT GIVEN (#PCDATA)>
	<!ELEMENT TABLE (#PCDATA)>
	<!ELEMENT PROPERTY (#PCDATA)>
]>


<BIF VERSION="0.3">
<NETWORK>
<NAME>faces-weka.filters.supervised.attribute.Discretize-Rfirst-last-precision6-weka.filters.unsupervised.attribute.ReplaceMissingValues</NAME>
<VARIABLE TYPE="nature">
<NAME>emotion</NAME>
<OUTCOME>angry</OUTCOME>
<OUTCOME>disgust</OUTCOME>
<OUTCOME>fear</OUTCOME>
<OUTCOME>happy</OUTCOME>
<OUTCOME>neutral</OUTCOME>
<OUTCOME>sad</OUTCOME>
<OUTCOME>suprise</OUTCOME>
</VARIABLE>
<VARIABLE TYPE="nature">
<NAME>pixel0</NAME>
<OUTCOME>&apos;\&apos;(-inf-0.080392]\&apos;&apos;</OUTCOME>
<OUTCOME>&apos;\&apos;(0.080392-0.460784]\&apos;&apos;</OUTCOME>
<OUTCOME>&apos;\&apos;(0.460784-0.947059]\&apos;&apos;</OUTCOME>
<OUTCOME>&apos;\&apos;(0.947059-0.994118]\&apos;&apos;</OUTCOME>
<OUTCOME>&apos;\&apos;(0.994118-inf)\&apos;&apos;</OUTCOME>
</VARIABLE>
<VARIABLE TYPE="nature">
<NAME>pixel1</NAME>
<OUTCOME>&apos;\&apos;(-inf-0.060784]\&apos;&apos;</OUTCOME>
<OUTCOME>&apos;\&apos;(0.060784-0.35098]\&apos;&apos;</OUTCOME>
<OUTCOME>&apos;\&apos;(0.35098-0.95098]\&apos;&apos;</OUTCOME>
<OUTCOME>&apos;\&apos;(0.95098-inf)\&apos;&apos;</OUTCOME>
</VARIABLE>
<VARIABLE TYPE="nature">
<NAME>pixel2</NAME>
<OUTCOME>&apos;\&apos;(-inf-0.252941]\&apos;&apos;</OUTCOME>
<OUTCOME>&apos;\&apos;(0.252941-0.966667]\&apos;&apos;</OUTCOME>
<OUTCOME>&apos;\&apos;(0.966667-inf)\&apos;&apos;</OUTCOME>
</VARIABLE>
<VARIABLE TYPE="nature">
<NAME>pixel3</NAME>
<OUTCOME>&apos;\&apos;(-inf-0.103922]\&apos;&apos;</OUTCOME>
<OUTCOME>&apos;\&apos;(0.103922-0.276471]\&apos;&apos;</OUTCOME>
<OUTCOME>&apos;\&apos;(0.276471-0.778431]\&apos;&apos;</OUTCOME>
<OUTCOME>&apos;\&apos;(0.778431-0.990196]\&apos;&apos;</OUTCOME>
<OUTCOME>&apos;\&apos;(0.990196-inf)\&apos;&apos;</OUTCOME>
</VARIABLE>
<VARIABLE TYPE="nature">
<NAME>pixel4</NAME>
<OUTCOME>&apos;\&apos;(-inf-0.201961]\&apos;&apos;</OUTCOME>
<OUTCOME>&apos;\&apos;(0.201961-0.762745]\&apos;&apos;</OUTCOME>
<OUTCOME>&apos;\&apos;(0.762745-0.986275]\&apos;&apos;</OUTCOME>
<OUTCOME>&apos;\&apos;(0.986275-inf)\&apos;&apos;</OUTCOME>
</VARIABLE>
<VARIABLE TYPE="nature">
<NAME>pixel5</NAME>
<OUTCOME>&apos;\&apos;(-inf-0.170588]\&apos;&apos;</OUTCOME>
<OUTCOME>&apos;\&apos;(0.170588-0.558824]\&apos;&apos;</OUTCOME>
<OUTCOME>&apos;\&apos;(0.558824-0.962745]\&apos;&apos;</OUTCOME>
<OUTCOME>&apos;\&apos;(0.962745-inf)\&apos;&apos;</OUTCOME>
</VARIABLE>
<VARIABLE TYPE="nature">
<NAME>pixel6</NAME>
<OUTCOME>&apos;\&apos;(-inf-0.158824]\&apos;&apos;</OUTCOME>
<OUTCOME>&apos;\&apos;(0.158824-0.554902]\&apos;&apos;</OUTCOME>
<OUTCOME>&apos;\&apos;(0.554902-0.994118]\&apos;&apos;</OUTCOME>
<OUTCOME>&apos;\&apos;(0.994118-inf)\&apos;&apos;</OUTCOME>
</VARIABLE>
<VARIABLE TYPE="nature">
<NAME>pixel7</NAME>
<OUTCOME>&apos;\&apos;(-inf-0.092157]\&apos;&apos;</OUTCOME>
<OUTCOME>&apos;\&apos;(0.092157-0.382353]\&apos;&apos;</OUTCOME>
<OUTCOME>&apos;\&apos;(0.382353-0.994118]\&apos;&apos;</OUTCOME>
<OUTCOME>&apos;\&apos;(0.994118-inf)\&apos;&apos;</OUTCOME>
</VARIABLE>
<VARIABLE TYPE="nature">
<NAME>pixel8</NAME>
<OUTCOME>&apos;\&apos;(-inf-0.072549]\&apos;&apos;</OUTCOME>
<OUTCOME>&apos;\&apos;(0.072549-0.401961]\&apos;&apos;</OUTCOME>
<OUTCOME>&apos;\&apos;(0.401961-0.994118]\&apos;&apos;</OUTCOME>
<OUTCOME>&apos;\&apos;(0.994118-inf)\&apos;&apos;</OUTCOME>
</VARIABLE>
<VARIABLE TYPE="nature">
<NAME>pixel9</NAME>
<OUTCOME>&apos;\&apos;(-inf-0.092157]\&apos;&apos;</OUTCOME>
<OUTCOME>&apos;\&apos;(0.092157-0.42549]\&apos;&apos;</OUTCOME>
<OUTCOME>&apos;\&apos;(0.42549-inf)\&apos;&apos;</OUTCOME>
</VARIABLE>
<VARIABLE TYPE="nature">
<NAME>pixel10</NAME>
<OUTCOME>&apos;\&apos;(-inf-0.115686]\&apos;&apos;</OUTCOME>
<OUTCOME>&apos;\&apos;(0.115686-0.456863]\&apos;&apos;</OUTCOME>
<OUTCOME>&apos;\&apos;(0.456863-inf)\&apos;&apos;</OUTCOME>
</VARIABLE>
<VARIABLE TYPE="nature">
<NAME>pixel11</NAME>
<OUTCOME>&apos;\&apos;(-inf-0.127451]\&apos;&apos;</OUTCOME>
<OUTCOME>&apos;\&apos;(0.127451-0.370588]\&apos;&apos;</OUTCOME>
<OUTCOME>&apos;\&apos;(0.370588-inf)\&apos;&apos;</OUTCOME>
</VARIABLE>
<VARIABLE TYPE="nature">
<NAME>pixel12</NAME>
<OUTCOME>&apos;\&apos;(-inf-0.107843]\&apos;&apos;</OUTCOME>
<OUTCOME>&apos;\&apos;(0.107843-0.535294]\&apos;&apos;</OUTCOME>
<OUTCOME>&apos;\&apos;(0.535294-inf)\&apos;&apos;</OUTCOME>
</VARIABLE>
<VARIABLE TYPE="nature">
<NAME>pixel13</NAME>
<OUTCOME>&apos;\&apos;(-inf-0.147059]\&apos;&apos;</OUTCOME>
<OUTCOME>&apos;\&apos;(0.147059-0.519608]\&apos;&apos;</OUTCOME>
<OUTCOME>&apos;\&apos;(0.519608-inf)\&apos;&apos;</OUTCOME>
</VARIABLE>
<VARIABLE TYPE="nature">
<NAME>pixel14</NAME>
<OUTCOME>&apos;\&apos;(-inf-0.398039]\&apos;&apos;</OUTCOME>
<OUTCOME>&apos;\&apos;(0.398039-inf)\&apos;&apos;</OUTCOME>
</VARIABLE>
<VARIABLE TYPE="nature">
<NAME>pixel15</NAME>
<OUTCOME>&apos;\&apos;(-inf-0.15098]\&apos;&apos;</OUTCOME>
<OUTCOME>&apos;\&apos;(0.15098-0.503922]\&apos;&apos;</OUTCOME>
<OUTCOME>&apos;\&apos;(0.503922-inf)\&apos;&apos;</OUTCOME>
</VARIABLE>
<VARIABLE TYPE="nature">
<NAME>pixel16</NAME>
<OUTCOME>&apos;\&apos;(-inf-0.405882]\&apos;&apos;</OUTCOME>
<OUTCOME>&apos;\&apos;(0.405882-0.723529]\&apos;&apos;</OUTCOME>
<OUTCOME>&apos;\&apos;(0.723529-inf)\&apos;&apos;</OUTCOME>
</VARIABLE>
<VARIABLE TYPE="nature">
<NAME>pixel17</NAME>
<OUTCOME>&apos;\&apos;(-inf-0.37451]\&apos;&apos;</OUTCOME>
<OUTCOME>&apos;\&apos;(0.37451-0.727451]\&apos;&apos;</OUTCOME>
<OUTCOME>&apos;\&apos;(0.727451-inf)\&apos;&apos;</OUTCOME>
</VARIABLE>
<VARIABLE TYPE="nature">
<NAME>pixel18</NAME>
<OUTCOME>&apos;\&apos;(-inf-0.433333]\&apos;&apos;</OUTCOME>
<OUTCOME>&apos;\&apos;(0.433333-0.621569]\&apos;&apos;</OUTCOME>
<OUTCOME>&apos;\&apos;(0.621569-inf)\&apos;&apos;</OUTCOME>
</VARIABLE>
<VARIABLE TYPE="nature">
<NAME>pixel19</NAME>
<OUTCOME>&apos;\&apos;(-inf-0.496078]\&apos;&apos;</OUTCOME>
<OUTCOME>&apos;\&apos;(0.496078-0.656863]\&apos;&apos;</OUTCOME>
<OUTCOME>&apos;\&apos;(0.656863-inf)\&apos;&apos;</OUTCOME>
</VARIABLE>
<VARIABLE TYPE="nature">
<NAME>pixel20</NAME>
<OUTCOME>&apos;\&apos;(-inf-0.429412]\&apos;&apos;</OUTCOME>
<OUTCOME>&apos;\&apos;(0.429412-0.62549]\&apos;&apos;</OUTCOME>
<OUTCOME>&apos;\&apos;(0.62549-inf)\&apos;&apos;</OUTCOME>
</VARIABLE>
<VARIABLE TYPE="nature">
<NAME>pixel21</NAME>
<OUTCOME>&apos;\&apos;(-inf-0.460784]\&apos;&apos;</OUTCOME>
<OUTCOME>&apos;\&apos;(0.460784-0.645098]\&apos;&apos;</OUTCOME>
<OUTCOME>&apos;\&apos;(0.645098-inf)\&apos;&apos;</OUTCOME>
</VARIABLE>
<VARIABLE TYPE="nature">
<NAME>pixel22</NAME>
<OUTCOME>&apos;\&apos;(-inf-0.484314]\&apos;&apos;</OUTCOME>
<OUTCOME>&apos;\&apos;(0.484314-0.711765]\&apos;&apos;</OUTCOME>
<OUTCOME>&apos;\&apos;(0.711765-inf)\&apos;&apos;</OUTCOME>
</VARIABLE>
<VARIABLE TYPE="nature">
<NAME>pixel23</NAME>
<OUTCOME>&apos;\&apos;(-inf-0.484314]\&apos;&apos;</OUTCOME>
<OUTCOME>&apos;\&apos;(0.484314-0.711765]\&apos;&apos;</OUTCOME>
<OUTCOME>&apos;\&apos;(0.711765-inf)\&apos;&apos;</OUTCOME>
</VARIABLE>
<VARIABLE TYPE="nature">
<NAME>pixel24</NAME>
<OUTCOME>&apos;\&apos;(-inf-0.084314]\&apos;&apos;</OUTCOME>
<OUTCOME>&apos;\&apos;(0.084314-0.488235]\&apos;&apos;</OUTCOME>
<OUTCOME>&apos;\&apos;(0.488235-0.660784]\&apos;&apos;</OUTCOME>
<OUTCOME>&apos;\&apos;(0.660784-inf)\&apos;&apos;</OUTCOME>
</VARIABLE>
<VARIABLE TYPE="nature">
<NAME>pixel25</NAME>
<OUTCOME>&apos;\&apos;(-inf-0.480392]\&apos;&apos;</OUTCOME>
<OUTCOME>&apos;\&apos;(0.480392-0.727451]\&apos;&apos;</OUTCOME>
<OUTCOME>&apos;\&apos;(0.727451-inf)\&apos;&apos;</OUTCOME>
</VARIABLE>
<VARIABLE TYPE="nature">
<NAME>pixel26</NAME>
<OUTCOME>&apos;\&apos;(-inf-0.452941]\&apos;&apos;</OUTCOME>
<OUTCOME>&apos;\&apos;(0.452941-inf)\&apos;&apos;</OUTCOME>
</VARIABLE>
<VARIABLE TYPE="nature">
<NAME>pixel27</NAME>
<OUTCOME>&apos;\&apos;(-inf-0.5]\&apos;&apos;</OUTCOME>
<OUTCOME>&apos;\&apos;(0.5-inf)\&apos;&apos;</OUTCOME>
</VARIABLE>
<VARIABLE TYPE="nature">
<NAME>pixel28</NAME>
<OUTCOME>&apos;\&apos;(-inf-0.468627]\&apos;&apos;</OUTCOME>
<OUTCOME>&apos;\&apos;(0.468627-0.684314]\&apos;&apos;</OUTCOME>
<OUTCOME>&apos;\&apos;(0.684314-inf)\&apos;&apos;</OUTCOME>
</VARIABLE>
<VARIABLE TYPE="nature">
<NAME>pixel29</NAME>
<OUTCOME>&apos;\&apos;(-inf-0.484314]\&apos;&apos;</OUTCOME>
<OUTCOME>&apos;\&apos;(0.484314-inf)\&apos;&apos;</OUTCOME>
</VARIABLE>
<VARIABLE TYPE="nature">
<NAME>pixel30</NAME>
<OUTCOME>&apos;\&apos;(-inf-0.594118]\&apos;&apos;</OUTCOME>
<OUTCOME>&apos;\&apos;(0.594118-inf)\&apos;&apos;</OUTCOME>
</VARIABLE>
<VARIABLE TYPE="nature">
<NAME>pixel31</NAME>
<OUTCOME>&apos;\&apos;(-inf-0.198039]\&apos;&apos;</OUTCOME>
<OUTCOME>&apos;\&apos;(0.198039-0.598039]\&apos;&apos;</OUTCOME>
<OUTCOME>&apos;\&apos;(0.598039-inf)\&apos;&apos;</OUTCOME>
</VARIABLE>
<VARIABLE TYPE="nature">
<NAME>pixel32</NAME>
<OUTCOME>&apos;\&apos;(-inf-0.021569]\&apos;&apos;</OUTCOME>
<OUTCOME>&apos;\&apos;(0.021569-0.562745]\&apos;&apos;</OUTCOME>
<OUTCOME>&apos;\&apos;(0.562745-inf)\&apos;&apos;</OUTCOME>
</VARIABLE>
<VARIABLE TYPE="nature">
<NAME>pixel33</NAME>
<OUTCOME>&apos;\&apos;(-inf-0.021569]\&apos;&apos;</OUTCOME>
<OUTCOME>&apos;\&apos;(0.021569-0.488235]\&apos;&apos;</OUTCOME>
<OUTCOME>&apos;\&apos;(0.488235-inf)\&apos;&apos;</OUTCOME>
</VARIABLE>
<VARIABLE TYPE="nature">
<NAME>pixel34</NAME>
<OUTCOME>&apos;\&apos;(-inf-0.460784]\&apos;&apos;</OUTCOME>
<OUTCOME>&apos;\&apos;(0.460784-inf)\&apos;&apos;</OUTCOME>
</VARIABLE>
<VARIABLE TYPE="nature">
<NAME>pixel35</NAME>
<OUTCOME>&apos;\&apos;(-inf-0.503922]\&apos;&apos;</OUTCOME>
<OUTCOME>&apos;\&apos;(0.503922-inf)\&apos;&apos;</OUTCOME>
</VARIABLE>
<VARIABLE TYPE="nature">
<NAME>pixel36</NAME>
<OUTCOME>&apos;\&apos;(-inf-0.033333]\&apos;&apos;</OUTCOME>
<OUTCOME>&apos;\&apos;(0.033333-0.421569]\&apos;&apos;</OUTCOME>
<OUTCOME>&apos;\&apos;(0.421569-inf)\&apos;&apos;</OUTCOME>
</VARIABLE>
<VARIABLE TYPE="nature">
<NAME>pixel37</NAME>
<OUTCOME>&apos;\&apos;(-inf-0.033333]\&apos;&apos;</OUTCOME>
<OUTCOME>&apos;\&apos;(0.033333-0.456863]\&apos;&apos;</OUTCOME>
<OUTCOME>&apos;\&apos;(0.456863-inf)\&apos;&apos;</OUTCOME>
</VARIABLE>
<VARIABLE TYPE="nature">
<NAME>pixel38</NAME>
<OUTCOME>&apos;\&apos;(-inf-0.033333]\&apos;&apos;</OUTCOME>
<OUTCOME>&apos;\&apos;(0.033333-0.401961]\&apos;&apos;</OUTCOME>
<OUTCOME>&apos;\&apos;(0.401961-0.982353]\&apos;&apos;</OUTCOME>
<OUTCOME>&apos;\&apos;(0.982353-inf)\&apos;&apos;</OUTCOME>
</VARIABLE>
<VARIABLE TYPE="nature">
<NAME>pixel39</NAME>
<OUTCOME>&apos;\&apos;(-inf-0.343137]\&apos;&apos;</OUTCOME>
<OUTCOME>&apos;\&apos;(0.343137-0.97451]\&apos;&apos;</OUTCOME>
<OUTCOME>&apos;\&apos;(0.97451-inf)\&apos;&apos;</OUTCOME>
</VARIABLE>
<VARIABLE TYPE="nature">
<NAME>pixel40</NAME>
<OUTCOME>&apos;\&apos;(-inf-0.366667]\&apos;&apos;</OUTCOME>
<OUTCOME>&apos;\&apos;(0.366667-0.978431]\&apos;&apos;</OUTCOME>
<OUTCOME>&apos;\&apos;(0.978431-inf)\&apos;&apos;</OUTCOME>
</VARIABLE>
<VARIABLE TYPE="nature">
<NAME>pixel41</NAME>
<OUTCOME>&apos;\&apos;(-inf-0.143137]\&apos;&apos;</OUTCOME>
<OUTCOME>&apos;\&apos;(0.143137-0.539216]\&apos;&apos;</OUTCOME>
<OUTCOME>&apos;\&apos;(0.539216-0.978431]\&apos;&apos;</OUTCOME>
<OUTCOME>&apos;\&apos;(0.978431-inf)\&apos;&apos;</OUTCOME>
</VARIABLE>
<VARIABLE TYPE="nature">
<NAME>pixel42</NAME>
<OUTCOME>&apos;\&apos;(-inf-0.24902]\&apos;&apos;</OUTCOME>
<OUTCOME>&apos;\&apos;(0.24902-0.55098]\&apos;&apos;</OUTCOME>
<OUTCOME>&apos;\&apos;(0.55098-0.97451]\&apos;&apos;</OUTCOME>
<OUTCOME>&apos;\&apos;(0.97451-inf)\&apos;&apos;</OUTCOME>
</VARIABLE>
<VARIABLE TYPE="nature">
<NAME>pixel43</NAME>
<OUTCOME>&apos;\&apos;(-inf-0.252941]\&apos;&apos;</OUTCOME>
<OUTCOME>&apos;\&apos;(0.252941-0.966667]\&apos;&apos;</OUTCOME>
<OUTCOME>&apos;\&apos;(0.966667-inf)\&apos;&apos;</OUTCOME>
</VARIABLE>
<VARIABLE TYPE="nature">
<NAME>pixel44</NAME>
<OUTCOME>&apos;\&apos;(-inf-0.131373]\&apos;&apos;</OUTCOME>
<OUTCOME>&apos;\&apos;(0.131373-0.547059]\&apos;&apos;</OUTCOME>
<OUTCOME>&apos;\&apos;(0.547059-0.966667]\&apos;&apos;</OUTCOME>
<OUTCOME>&apos;\&apos;(0.966667-inf)\&apos;&apos;</OUTCOME>
</VARIABLE>
<VARIABLE TYPE="nature">
<NAME>pixel45</NAME>
<OUTCOME>&apos;\&apos;(-inf-0.021569]\&apos;&apos;</OUTCOME>
<OUTCOME>&apos;\&apos;(0.021569-0.570588]\&apos;&apos;</OUTCOME>
<OUTCOME>&apos;\&apos;(0.570588-0.970588]\&apos;&apos;</OUTCOME>
<OUTCOME>&apos;\&apos;(0.970588-inf)\&apos;&apos;</OUTCOME>
</VARIABLE>
<VARIABLE TYPE="nature">
<NAME>pixel46</NAME>
<OUTCOME>&apos;\&apos;(-inf-0.017647]\&apos;&apos;</OUTCOME>
<OUTCOME>&apos;\&apos;(0.017647-0.7]\&apos;&apos;</OUTCOME>
<OUTCOME>&apos;\&apos;(0.7-0.970588]\&apos;&apos;</OUTCOME>
<OUTCOME>&apos;\&apos;(0.970588-inf)\&apos;&apos;</OUTCOME>
</VARIABLE>
<VARIABLE TYPE="nature">
<NAME>pixel47</NAME>
<OUTCOME>&apos;\&apos;(-inf-0.029412]\&apos;&apos;</OUTCOME>
<OUTCOME>&apos;\&apos;(0.029412-0.594118]\&apos;&apos;</OUTCOME>
<OUTCOME>&apos;\&apos;(0.594118-0.970588]\&apos;&apos;</OUTCOME>
<OUTCOME>&apos;\&apos;(0.970588-inf)\&apos;&apos;</OUTCOME>
</VARIABLE>
<VARIABLE TYPE="nature">
<NAME>pixel48</NAME>
<OUTCOME>&apos;\&apos;(-inf-0.072549]\&apos;&apos;</OUTCOME>
<OUTCOME>&apos;\&apos;(0.072549-0.307843]\&apos;&apos;</OUTCOME>
<OUTCOME>&apos;\&apos;(0.307843-0.935294]\&apos;&apos;</OUTCOME>
<OUTCOME>&apos;\&apos;(0.935294-0.994118]\&apos;&apos;</OUTCOME>
<OUTCOME>&apos;\&apos;(0.994118-inf)\&apos;&apos;</OUTCOME>
</VARIABLE>
<VARIABLE TYPE="nature">
<NAME>pixel49</NAME>
<OUTCOME>&apos;\&apos;(-inf-0.029412]\&apos;&apos;</OUTCOME>
<OUTCOME>&apos;\&apos;(0.029412-0.311765]\&apos;&apos;</OUTCOME>
<OUTCOME>&apos;\&apos;(0.311765-0.958824]\&apos;&apos;</OUTCOME>
<OUTCOME>&apos;\&apos;(0.958824-inf)\&apos;&apos;</OUTCOME>
</VARIABLE>
<VARIABLE TYPE="nature">
<NAME>pixel50</NAME>
<OUTCOME>&apos;\&apos;(-inf-0.076471]\&apos;&apos;</OUTCOME>
<OUTCOME>&apos;\&apos;(0.076471-0.256863]\&apos;&apos;</OUTCOME>
<OUTCOME>&apos;\&apos;(0.256863-0.966667]\&apos;&apos;</OUTCOME>
<OUTCOME>&apos;\&apos;(0.966667-inf)\&apos;&apos;</OUTCOME>
</VARIABLE>
<VARIABLE TYPE="nature">
<NAME>pixel51</NAME>
<OUTCOME>&apos;\&apos;(-inf-0.194118]\&apos;&apos;</OUTCOME>
<OUTCOME>&apos;\&apos;(0.194118-0.77451]\&apos;&apos;</OUTCOME>
<OUTCOME>&apos;\&apos;(0.77451-0.970588]\&apos;&apos;</OUTCOME>
<OUTCOME>&apos;\&apos;(0.970588-inf)\&apos;&apos;</OUTCOME>
</VARIABLE>
<VARIABLE TYPE="nature">
<NAME>pixel52</NAME>
<OUTCOME>&apos;\&apos;(-inf-0.103922]\&apos;&apos;</OUTCOME>
<OUTCOME>&apos;\&apos;(0.103922-0.609804]\&apos;&apos;</OUTCOME>
<OUTCOME>&apos;\&apos;(0.609804-0.95098]\&apos;&apos;</OUTCOME>
<OUTCOME>&apos;\&apos;(0.95098-inf)\&apos;&apos;</OUTCOME>
</VARIABLE>
<VARIABLE TYPE="nature">
<NAME>pixel53</NAME>
<OUTCOME>&apos;\&apos;(-inf-0.154902]\&apos;&apos;</OUTCOME>
<OUTCOME>&apos;\&apos;(0.154902-0.586275]\&apos;&apos;</OUTCOME>
<OUTCOME>&apos;\&apos;(0.586275-0.97451]\&apos;&apos;</OUTCOME>
<OUTCOME>&apos;\&apos;(0.97451-inf)\&apos;&apos;</OUTCOME>
</VARIABLE>
<VARIABLE TYPE="nature">
<NAME>pixel54</NAME>
<OUTCOME>&apos;\&apos;(-inf-0.154902]\&apos;&apos;</OUTCOME>
<OUTCOME>&apos;\&apos;(0.154902-0.562745]\&apos;&apos;</OUTCOME>
<OUTCOME>&apos;\&apos;(0.562745-0.986275]\&apos;&apos;</OUTCOME>
<OUTCOME>&apos;\&apos;(0.986275-inf)\&apos;&apos;</OUTCOME>
</VARIABLE>
<VARIABLE TYPE="nature">
<NAME>pixel55</NAME>
<OUTCOME>&apos;\&apos;(-inf-0.045098]\&apos;&apos;</OUTCOME>
<OUTCOME>&apos;\&apos;(0.045098-0.527451]\&apos;&apos;</OUTCOME>
<OUTCOME>&apos;\&apos;(0.527451-inf)\&apos;&apos;</OUTCOME>
</VARIABLE>
<VARIABLE TYPE="nature">
<NAME>pixel56</NAME>
<OUTCOME>&apos;\&apos;(-inf-0.072549]\&apos;&apos;</OUTCOME>
<OUTCOME>&apos;\&apos;(0.072549-0.464706]\&apos;&apos;</OUTCOME>
<OUTCOME>&apos;\&apos;(0.464706-0.962745]\&apos;&apos;</OUTCOME>
<OUTCOME>&apos;\&apos;(0.962745-inf)\&apos;&apos;</OUTCOME>
</VARIABLE>
<VARIABLE TYPE="nature">
<NAME>pixel57</NAME>
<OUTCOME>&apos;\&apos;(-inf-0.139216]\&apos;&apos;</OUTCOME>
<OUTCOME>&apos;\&apos;(0.139216-0.476471]\&apos;&apos;</OUTCOME>
<OUTCOME>&apos;\&apos;(0.476471-inf)\&apos;&apos;</OUTCOME>
</VARIABLE>
<VARIABLE TYPE="nature">
<NAME>pixel58</NAME>
<OUTCOME>&apos;\&apos;(-inf-0.127451]\&apos;&apos;</OUTCOME>
<OUTCOME>&apos;\&apos;(0.127451-0.386275]\&apos;&apos;</OUTCOME>
<OUTCOME>&apos;\&apos;(0.386275-inf)\&apos;&apos;</OUTCOME>
</VARIABLE>
<VARIABLE TYPE="nature">
<NAME>pixel59</NAME>
<OUTCOME>&apos;\&apos;(-inf-0.068627]\&apos;&apos;</OUTCOME>
<OUTCOME>&apos;\&apos;(0.068627-0.366667]\&apos;&apos;</OUTCOME>
<OUTCOME>&apos;\&apos;(0.366667-0.77451]\&apos;&apos;</OUTCOME>
<OUTCOME>&apos;\&apos;(0.77451-inf)\&apos;&apos;</OUTCOME>
</VARIABLE>
<VARIABLE TYPE="nature">
<NAME>pixel60</NAME>
<OUTCOME>&apos;\&apos;(-inf-0.092157]\&apos;&apos;</OUTCOME>
<OUTCOME>&apos;\&apos;(0.092157-0.503922]\&apos;&apos;</OUTCOME>
<OUTCOME>&apos;\&apos;(0.503922-inf)\&apos;&apos;</OUTCOME>
</VARIABLE>
<VARIABLE TYPE="nature">
<NAME>pixel61</NAME>
<OUTCOME>&apos;\&apos;(-inf-0.394118]\&apos;&apos;</OUTCOME>
<OUTCOME>&apos;\&apos;(0.394118-inf)\&apos;&apos;</OUTCOME>
</VARIABLE>
<VARIABLE TYPE="nature">
<NAME>pixel62</NAME>
<OUTCOME>&apos;\&apos;(-inf-0.170588]\&apos;&apos;</OUTCOME>
<OUTCOME>&apos;\&apos;(0.170588-0.5]\&apos;&apos;</OUTCOME>
<OUTCOME>&apos;\&apos;(0.5-0.680392]\&apos;&apos;</OUTCOME>
<OUTCOME>&apos;\&apos;(0.680392-inf)\&apos;&apos;</OUTCOME>
</VARIABLE>
<VARIABLE TYPE="nature">
<NAME>pixel63</NAME>
<OUTCOME>&apos;\&apos;(-inf-0.17451]\&apos;&apos;</OUTCOME>
<OUTCOME>&apos;\&apos;(0.17451-0.515686]\&apos;&apos;</OUTCOME>
<OUTCOME>&apos;\&apos;(0.515686-0.727451]\&apos;&apos;</OUTCOME>
<OUTCOME>&apos;\&apos;(0.727451-inf)\&apos;&apos;</OUTCOME>
</VARIABLE>
<VARIABLE TYPE="nature">
<NAME>pixel64</NAME>
<OUTCOME>&apos;\&apos;(-inf-0.452941]\&apos;&apos;</OUTCOME>
<OUTCOME>&apos;\&apos;(0.452941-0.743137]\&apos;&apos;</OUTCOME>
<OUTCOME>&apos;\&apos;(0.743137-inf)\&apos;&apos;</OUTCOME>
</VARIABLE>
<VARIABLE TYPE="nature">
<NAME>pixel65</NAME>
<OUTCOME>&apos;\&apos;(-inf-0.366667]\&apos;&apos;</OUTCOME>
<OUTCOME>&apos;\&apos;(0.366667-0.735294]\&apos;&apos;</OUTCOME>
<OUTCOME>&apos;\&apos;(0.735294-inf)\&apos;&apos;</OUTCOME>
</VARIABLE>
<VARIABLE TYPE="nature">
<NAME>pixel66</NAME>
<OUTCOME>&apos;\&apos;(-inf-0.398039]\&apos;&apos;</OUTCOME>
<OUTCOME>&apos;\&apos;(0.398039-0.743137]\&apos;&apos;</OUTCOME>
<OUTCOME>&apos;\&apos;(0.743137-inf)\&apos;&apos;</OUTCOME>
</VARIABLE>
<VARIABLE TYPE="nature">
<NAME>pixel67</NAME>
<OUTCOME>&apos;\&apos;(-inf-0.17451]\&apos;&apos;</OUTCOME>
<OUTCOME>&apos;\&apos;(0.17451-0.523529]\&apos;&apos;</OUTCOME>
<OUTCOME>&apos;\&apos;(0.523529-0.707843]\&apos;&apos;</OUTCOME>
<OUTCOME>&apos;\&apos;(0.707843-inf)\&apos;&apos;</OUTCOME>
</VARIABLE>
<VARIABLE TYPE="nature">
<NAME>pixel68</NAME>
<OUTCOME>&apos;\&apos;(-inf-0.221569]\&apos;&apos;</OUTCOME>
<OUTCOME>&apos;\&apos;(0.221569-0.578431]\&apos;&apos;</OUTCOME>
<OUTCOME>&apos;\&apos;(0.578431-0.7]\&apos;&apos;</OUTCOME>
<OUTCOME>&apos;\&apos;(0.7-inf)\&apos;&apos;</OUTCOME>
</VARIABLE>
<VARIABLE TYPE="nature">
<NAME>pixel69</NAME>
<OUTCOME>&apos;\&apos;(-inf-0.182353]\&apos;&apos;</OUTCOME>
<OUTCOME>&apos;\&apos;(0.182353-0.554902]\&apos;&apos;</OUTCOME>
<OUTCOME>&apos;\&apos;(0.554902-0.711765]\&apos;&apos;</OUTCOME>
<OUTCOME>&apos;\&apos;(0.711765-inf)\&apos;&apos;</OUTCOME>
</VARIABLE>
<VARIABLE TYPE="nature">
<NAME>pixel70</NAME>
<OUTCOME>&apos;\&apos;(-inf-0.213725]\&apos;&apos;</OUTCOME>
<OUTCOME>&apos;\&apos;(0.213725-0.562745]\&apos;&apos;</OUTCOME>
<OUTCOME>&apos;\&apos;(0.562745-0.707843]\&apos;&apos;</OUTCOME>
<OUTCOME>&apos;\&apos;(0.707843-inf)\&apos;&apos;</OUTCOME>
</VARIABLE>
<VARIABLE TYPE="nature">
<NAME>pixel71</NAME>
<OUTCOME>&apos;\&apos;(-inf-0.547059]\&apos;&apos;</OUTCOME>
<OUTCOME>&apos;\&apos;(0.547059-inf)\&apos;&apos;</OUTCOME>
</VARIABLE>
<VARIABLE TYPE="nature">
<NAME>pixel72</NAME>
<OUTCOME>&apos;\&apos;(-inf-0.523529]\&apos;&apos;</OUTCOME>
<OUTCOME>&apos;\&apos;(0.523529-0.696078]\&apos;&apos;</OUTCOME>
<OUTCOME>&apos;\&apos;(0.696078-inf)\&apos;&apos;</OUTCOME>
</VARIABLE>
<VARIABLE TYPE="nature">
<NAME>pixel73</NAME>
<OUTCOME>&apos;\&apos;(-inf-0.535294]\&apos;&apos;</OUTCOME>
<OUTCOME>&apos;\&apos;(0.535294-0.723529]\&apos;&apos;</OUTCOME>
<OUTCOME>&apos;\&apos;(0.723529-inf)\&apos;&apos;</OUTCOME>
</VARIABLE>
<VARIABLE TYPE="nature">
<NAME>pixel74</NAME>
<OUTCOME>&apos;\&apos;(-inf-0.507843]\&apos;&apos;</OUTCOME>
<OUTCOME>&apos;\&apos;(0.507843-0.731373]\&apos;&apos;</OUTCOME>
<OUTCOME>&apos;\&apos;(0.731373-inf)\&apos;&apos;</OUTCOME>
</VARIABLE>
<VARIABLE TYPE="nature">
<NAME>pixel75</NAME>
<OUTCOME>&apos;\&apos;(-inf-0.531373]\&apos;&apos;</OUTCOME>
<OUTCOME>&apos;\&apos;(0.531373-inf)\&apos;&apos;</OUTCOME>
</VARIABLE>
<VARIABLE TYPE="nature">
<NAME>pixel76</NAME>
<OUTCOME>&apos;\&apos;(-inf-0.366667]\&apos;&apos;</OUTCOME>
<OUTCOME>&apos;\&apos;(0.366667-0.55098]\&apos;&apos;</OUTCOME>
<OUTCOME>&apos;\&apos;(0.55098-inf)\&apos;&apos;</OUTCOME>
</VARIABLE>
<VARIABLE TYPE="nature">
<NAME>pixel77</NAME>
<OUTCOME>&apos;\&apos;(-inf-0.347059]\&apos;&apos;</OUTCOME>
<OUTCOME>&apos;\&apos;(0.347059-0.633333]\&apos;&apos;</OUTCOME>
<OUTCOME>&apos;\&apos;(0.633333-inf)\&apos;&apos;</OUTCOME>
</VARIABLE>
<VARIABLE TYPE="nature">
<NAME>pixel78</NAME>
<OUTCOME>&apos;\&apos;(-inf-0.147059]\&apos;&apos;</OUTCOME>
<OUTCOME>&apos;\&apos;(0.147059-0.590196]\&apos;&apos;</OUTCOME>
<OUTCOME>&apos;\&apos;(0.590196-inf)\&apos;&apos;</OUTCOME>
</VARIABLE>
<VARIABLE TYPE="nature">
<NAME>pixel79</NAME>
<OUTCOME>&apos;\&apos;(-inf-0.260784]\&apos;&apos;</OUTCOME>
<OUTCOME>&apos;\&apos;(0.260784-0.598039]\&apos;&apos;</OUTCOME>
<OUTCOME>&apos;\&apos;(0.598039-inf)\&apos;&apos;</OUTCOME>
</VARIABLE>
<VARIABLE TYPE="nature">
<NAME>pixel80</NAME>
<OUTCOME>&apos;\&apos;(-inf-0.44902]\&apos;&apos;</OUTCOME>
<OUTCOME>&apos;\&apos;(0.44902-inf)\&apos;&apos;</OUTCOME>
</VARIABLE>
<VARIABLE TYPE="nature">
<NAME>pixel81</NAME>
<OUTCOME>&apos;\&apos;(-inf-0.503922]\&apos;&apos;</OUTCOME>
<OUTCOME>&apos;\&apos;(0.503922-inf)\&apos;&apos;</OUTCOME>
</VARIABLE>
<VARIABLE TYPE="nature">
<NAME>pixel82</NAME>
<OUTCOME>&apos;\&apos;(-inf-0.492157]\&apos;&apos;</OUTCOME>
<OUTCOME>&apos;\&apos;(0.492157-inf)\&apos;&apos;</OUTCOME>
</VARIABLE>
<VARIABLE TYPE="nature">
<NAME>pixel83</NAME>
<OUTCOME>&apos;\&apos;(-inf-0.445098]\&apos;&apos;</OUTCOME>
<OUTCOME>&apos;\&apos;(0.445098-inf)\&apos;&apos;</OUTCOME>
</VARIABLE>
<VARIABLE TYPE="nature">
<NAME>pixel84</NAME>
<OUTCOME>&apos;\&apos;(-inf-0.456863]\&apos;&apos;</OUTCOME>
<OUTCOME>&apos;\&apos;(0.456863-inf)\&apos;&apos;</OUTCOME>
</VARIABLE>
<VARIABLE TYPE="nature">
<NAME>pixel85</NAME>
<OUTCOME>&apos;\&apos;(-inf-0.009804]\&apos;&apos;</OUTCOME>
<OUTCOME>&apos;\&apos;(0.009804-0.401961]\&apos;&apos;</OUTCOME>
<OUTCOME>&apos;\&apos;(0.401961-inf)\&apos;&apos;</OUTCOME>
</VARIABLE>
<VARIABLE TYPE="nature">
<NAME>pixel86</NAME>
<OUTCOME>&apos;\&apos;(-inf-0.029412]\&apos;&apos;</OUTCOME>
<OUTCOME>&apos;\&apos;(0.029412-0.433333]\&apos;&apos;</OUTCOME>
<OUTCOME>&apos;\&apos;(0.433333-inf)\&apos;&apos;</OUTCOME>
</VARIABLE>
<VARIABLE TYPE="nature">
<NAME>pixel87</NAME>
<OUTCOME>&apos;\&apos;(-inf-0.041176]\&apos;&apos;</OUTCOME>
<OUTCOME>&apos;\&apos;(0.041176-0.554902]\&apos;&apos;</OUTCOME>
<OUTCOME>&apos;\&apos;(0.554902-0.978431]\&apos;&apos;</OUTCOME>
<OUTCOME>&apos;\&apos;(0.978431-inf)\&apos;&apos;</OUTCOME>
</VARIABLE>
<VARIABLE TYPE="nature">
<NAME>pixel88</NAME>
<OUTCOME>&apos;\&apos;(-inf-0.311765]\&apos;&apos;</OUTCOME>
<OUTCOME>&apos;\&apos;(0.311765-0.978431]\&apos;&apos;</OUTCOME>
<OUTCOME>&apos;\&apos;(0.978431-inf)\&apos;&apos;</OUTCOME>
</VARIABLE>
<VARIABLE TYPE="nature">
<NAME>pixel89</NAME>
<OUTCOME>&apos;\&apos;(-inf-0.347059]\&apos;&apos;</OUTCOME>
<OUTCOME>&apos;\&apos;(0.347059-0.97451]\&apos;&apos;</OUTCOME>
<OUTCOME>&apos;\&apos;(0.97451-inf)\&apos;&apos;</OUTCOME>
</VARIABLE>
<VARIABLE TYPE="nature">
<NAME>pixel90</NAME>
<OUTCOME>&apos;\&apos;(-inf-0.158824]\&apos;&apos;</OUTCOME>
<OUTCOME>&apos;\&apos;(0.158824-0.535294]\&apos;&apos;</OUTCOME>
<OUTCOME>&apos;\&apos;(0.535294-0.970588]\&apos;&apos;</OUTCOME>
<OUTCOME>&apos;\&apos;(0.970588-inf)\&apos;&apos;</OUTCOME>
</VARIABLE>
<VARIABLE TYPE="nature">
<NAME>pixel91</NAME>
<OUTCOME>&apos;\&apos;(-inf-0.021569]\&apos;&apos;</OUTCOME>
<OUTCOME>&apos;\&apos;(0.021569-0.256863]\&apos;&apos;</OUTCOME>
<OUTCOME>&apos;\&apos;(0.256863-0.970588]\&apos;&apos;</OUTCOME>
<OUTCOME>&apos;\&apos;(0.970588-inf)\&apos;&apos;</OUTCOME>
</VARIABLE>
<VARIABLE TYPE="nature">
<NAME>pixel92</NAME>
<OUTCOME>&apos;\&apos;(-inf-0.198039]\&apos;&apos;</OUTCOME>
<OUTCOME>&apos;\&apos;(0.198039-0.970588]\&apos;&apos;</OUTCOME>
<OUTCOME>&apos;\&apos;(0.970588-inf)\&apos;&apos;</OUTCOME>
</VARIABLE>
<VARIABLE TYPE="nature">
<NAME>pixel93</NAME>
<OUTCOME>&apos;\&apos;(-inf-0.17451]\&apos;&apos;</OUTCOME>
<OUTCOME>&apos;\&apos;(0.17451-0.703922]\&apos;&apos;</OUTCOME>
<OUTCOME>&apos;\&apos;(0.703922-0.970588]\&apos;&apos;</OUTCOME>
<OUTCOME>&apos;\&apos;(0.970588-inf)\&apos;&apos;</OUTCOME>
</VARIABLE>
<VARIABLE TYPE="nature">
<NAME>pixel94</NAME>
<OUTCOME>&apos;\&apos;(-inf-0.092157]\&apos;&apos;</OUTCOME>
<OUTCOME>&apos;\&apos;(0.092157-0.688235]\&apos;&apos;</OUTCOME>
<OUTCOME>&apos;\&apos;(0.688235-0.970588]\&apos;&apos;</OUTCOME>
<OUTCOME>&apos;\&apos;(0.970588-inf)\&apos;&apos;</OUTCOME>
</VARIABLE>
<VARIABLE TYPE="nature">
<NAME>pixel95</NAME>
<OUTCOME>&apos;\&apos;(-inf-0.017647]\&apos;&apos;</OUTCOME>
<OUTCOME>&apos;\&apos;(0.017647-0.629412]\&apos;&apos;</OUTCOME>
<OUTCOME>&apos;\&apos;(0.629412-0.966667]\&apos;&apos;</OUTCOME>
<OUTCOME>&apos;\&apos;(0.966667-inf)\&apos;&apos;</OUTCOME>
</VARIABLE>
<VARIABLE TYPE="nature">
<NAME>pixel96</NAME>
<OUTCOME>&apos;\&apos;(-inf-0.013725]\&apos;&apos;</OUTCOME>
<OUTCOME>&apos;\&apos;(0.013725-0.347059]\&apos;&apos;</OUTCOME>
<OUTCOME>&apos;\&apos;(0.347059-0.95098]\&apos;&apos;</OUTCOME>
<OUTCOME>&apos;\&apos;(0.95098-inf)\&apos;&apos;</OUTCOME>
</VARIABLE>
<VARIABLE TYPE="nature">
<NAME>pixel97</NAME>
<OUTCOME>&apos;\&apos;(-inf-0.107843]\&apos;&apos;</OUTCOME>
<OUTCOME>&apos;\&apos;(0.107843-0.62549]\&apos;&apos;</OUTCOME>
<OUTCOME>&apos;\&apos;(0.62549-0.95098]\&apos;&apos;</OUTCOME>
<OUTCOME>&apos;\&apos;(0.95098-inf)\&apos;&apos;</OUTCOME>
</VARIABLE>
<VARIABLE TYPE="nature">
<NAME>pixel98</NAME>
<OUTCOME>&apos;\&apos;(-inf-0.072549]\&apos;&apos;</OUTCOME>
<OUTCOME>&apos;\&apos;(0.072549-0.24902]\&apos;&apos;</OUTCOME>
<OUTCOME>&apos;\&apos;(0.24902-0.656863]\&apos;&apos;</OUTCOME>
<OUTCOME>&apos;\&apos;(0.656863-0.939216]\&apos;&apos;</OUTCOME>
<OUTCOME>&apos;\&apos;(0.939216-inf)\&apos;&apos;</OUTCOME>
</VARIABLE>
<VARIABLE TYPE="nature">
<NAME>pixel99</NAME>
<OUTCOME>&apos;\&apos;(-inf-0.060784]\&apos;&apos;</OUTCOME>
<OUTCOME>&apos;\&apos;(0.060784-0.198039]\&apos;&apos;</OUTCOME>
<OUTCOME>&apos;\&apos;(0.198039-0.664706]\&apos;&apos;</OUTCOME>
<OUTCOME>&apos;\&apos;(0.664706-0.962745]\&apos;&apos;</OUTCOME>
<OUTCOME>&apos;\&apos;(0.962745-inf)\&apos;&apos;</OUTCOME>
</VARIABLE>
<VARIABLE TYPE="nature">
<NAME>pixel100</NAME>
<OUTCOME>&apos;\&apos;(-inf-0.080392]\&apos;&apos;</OUTCOME>
<OUTCOME>&apos;\&apos;(0.080392-0.272549]\&apos;&apos;</OUTCOME>
<OUTCOME>&apos;\&apos;(0.272549-0.943137]\&apos;&apos;</OUTCOME>
<OUTCOME>&apos;\&apos;(0.943137-inf)\&apos;&apos;</OUTCOME>
</VARIABLE>
<VARIABLE TYPE="nature">
<NAME>pixel101</NAME>
<OUTCOME>&apos;\&apos;(-inf-0.154902]\&apos;&apos;</OUTCOME>
<OUTCOME>&apos;\&apos;(0.154902-0.519608]\&apos;&apos;</OUTCOME>
<OUTCOME>&apos;\&apos;(0.519608-0.970588]\&apos;&apos;</OUTCOME>
<OUTCOME>&apos;\&apos;(0.970588-inf)\&apos;&apos;</OUTCOME>
</VARIABLE>
<VARIABLE TYPE="nature">
<NAME>pixel102</NAME>
<OUTCOME>&apos;\&apos;(-inf-0.045098]\&apos;&apos;</OUTCOME>
<OUTCOME>&apos;\&apos;(0.045098-0.535294]\&apos;&apos;</OUTCOME>
<OUTCOME>&apos;\&apos;(0.535294-0.990196]\&apos;&apos;</OUTCOME>
<OUTCOME>&apos;\&apos;(0.990196-inf)\&apos;&apos;</OUTCOME>
</VARIABLE>
<VARIABLE TYPE="nature">
<NAME>pixel103</NAME>
<OUTCOME>&apos;\&apos;(-inf-0.072549]\&apos;&apos;</OUTCOME>
<OUTCOME>&apos;\&apos;(0.072549-0.44902]\&apos;&apos;</OUTCOME>
<OUTCOME>&apos;\&apos;(0.44902-0.994118]\&apos;&apos;</OUTCOME>
<OUTCOME>&apos;\&apos;(0.994118-inf)\&apos;&apos;</OUTCOME>
</VARIABLE>
<VARIABLE TYPE="nature">
<NAME>pixel104</NAME>
<OUTCOME>&apos;\&apos;(-inf-0.084314]\&apos;&apos;</OUTCOME>
<OUTCOME>&apos;\&apos;(0.084314-0.507843]\&apos;&apos;</OUTCOME>
<OUTCOME>&apos;\&apos;(0.507843-inf)\&apos;&apos;</OUTCOME>
</VARIABLE>
<VARIABLE TYPE="nature">
<NAME>pixel105</NAME>
<OUTCOME>&apos;\&apos;(-inf-0.107843]\&apos;&apos;</OUTCOME>
<OUTCOME>&apos;\&apos;(0.107843-0.398039]\&apos;&apos;</OUTCOME>
<OUTCOME>&apos;\&apos;(0.398039-inf)\&apos;&apos;</OUTCOME>
</VARIABLE>
<VARIABLE TYPE="nature">
<NAME>pixel106</NAME>
<OUTCOME>&apos;\&apos;(-inf-0.182353]\&apos;&apos;</OUTCOME>
<OUTCOME>&apos;\&apos;(0.182353-0.484314]\&apos;&apos;</OUTCOME>
<OUTCOME>&apos;\&apos;(0.484314-inf)\&apos;&apos;</OUTCOME>
</VARIABLE>
<VARIABLE TYPE="nature">
<NAME>pixel107</NAME>
<OUTCOME>&apos;\&apos;(-inf-0.390196]\&apos;&apos;</OUTCOME>
<OUTCOME>&apos;\&apos;(0.390196-0.798039]\&apos;&apos;</OUTCOME>
<OUTCOME>&apos;\&apos;(0.798039-inf)\&apos;&apos;</OUTCOME>
</VARIABLE>
<VARIABLE TYPE="nature">
<NAME>pixel108</NAME>
<OUTCOME>&apos;\&apos;(-inf-0.186275]\&apos;&apos;</OUTCOME>
<OUTCOME>&apos;\&apos;(0.186275-0.535294]\&apos;&apos;</OUTCOME>
<OUTCOME>&apos;\&apos;(0.535294-inf)\&apos;&apos;</OUTCOME>
</VARIABLE>
<VARIABLE TYPE="nature">
<NAME>pixel109</NAME>
<OUTCOME>&apos;\&apos;(-inf-0.280392]\&apos;&apos;</OUTCOME>
<OUTCOME>&apos;\&apos;(0.280392-0.519608]\&apos;&apos;</OUTCOME>
<OUTCOME>&apos;\&apos;(0.519608-0.731373]\&apos;&apos;</OUTCOME>
<OUTCOME>&apos;\&apos;(0.731373-inf)\&apos;&apos;</OUTCOME>
</VARIABLE>
<VARIABLE TYPE="nature">
<NAME>pixel110</NAME>
<OUTCOME>&apos;\&apos;(-inf-0.339216]\&apos;&apos;</OUTCOME>
<OUTCOME>&apos;\&apos;(0.339216-0.703922]\&apos;&apos;</OUTCOME>
<OUTCOME>&apos;\&apos;(0.703922-inf)\&apos;&apos;</OUTCOME>
</VARIABLE>
<VARIABLE TYPE="nature">
<NAME>pixel111</NAME>
<OUTCOME>&apos;\&apos;(-inf-0.390196]\&apos;&apos;</OUTCOME>
<OUTCOME>&apos;\&apos;(0.390196-0.731373]\&apos;&apos;</OUTCOME>
<OUTCOME>&apos;\&apos;(0.731373-inf)\&apos;&apos;</OUTCOME>
</VARIABLE>
<VARIABLE TYPE="nature">
<NAME>pixel112</NAME>
<OUTCOME>&apos;\&apos;(-inf-0.44902]\&apos;&apos;</OUTCOME>
<OUTCOME>&apos;\&apos;(0.44902-0.727451]\&apos;&apos;</OUTCOME>
<OUTCOME>&apos;\&apos;(0.727451-inf)\&apos;&apos;</OUTCOME>
</VARIABLE>
<VARIABLE TYPE="nature">
<NAME>pixel113</NAME>
<OUTCOME>&apos;\&apos;(-inf-0.343137]\&apos;&apos;</OUTCOME>
<OUTCOME>&apos;\&apos;(0.343137-0.613725]\&apos;&apos;</OUTCOME>
<OUTCOME>&apos;\&apos;(0.613725-0.731373]\&apos;&apos;</OUTCOME>
<OUTCOME>&apos;\&apos;(0.731373-inf)\&apos;&apos;</OUTCOME>
</VARIABLE>
<VARIABLE TYPE="nature">
<NAME>pixel114</NAME>
<OUTCOME>&apos;\&apos;(-inf-0.315686]\&apos;&apos;</OUTCOME>
<OUTCOME>&apos;\&apos;(0.315686-0.594118]\&apos;&apos;</OUTCOME>
<OUTCOME>&apos;\&apos;(0.594118-0.747059]\&apos;&apos;</OUTCOME>
<OUTCOME>&apos;\&apos;(0.747059-inf)\&apos;&apos;</OUTCOME>
</VARIABLE>
<VARIABLE TYPE="nature">
<NAME>pixel115</NAME>
<OUTCOME>&apos;\&apos;(-inf-0.382353]\&apos;&apos;</OUTCOME>
<OUTCOME>&apos;\&apos;(0.382353-0.613725]\&apos;&apos;</OUTCOME>
<OUTCOME>&apos;\&apos;(0.613725-0.735294]\&apos;&apos;</OUTCOME>
<OUTCOME>&apos;\&apos;(0.735294-inf)\&apos;&apos;</OUTCOME>
</VARIABLE>
<VARIABLE TYPE="nature">
<NAME>pixel116</NAME>
<OUTCOME>&apos;\&apos;(-inf-0.217647]\&apos;&apos;</OUTCOME>
<OUTCOME>&apos;\&apos;(0.217647-0.543137]\&apos;&apos;</OUTCOME>
<OUTCOME>&apos;\&apos;(0.543137-0.743137]\&apos;&apos;</OUTCOME>
<OUTCOME>&apos;\&apos;(0.743137-inf)\&apos;&apos;</OUTCOME>
</VARIABLE>
<VARIABLE TYPE="nature">
<NAME>pixel117</NAME>
<OUTCOME>&apos;\&apos;(-inf-0.554902]\&apos;&apos;</OUTCOME>
<OUTCOME>&apos;\&apos;(0.554902-0.692157]\&apos;&apos;</OUTCOME>
<OUTCOME>&apos;\&apos;(0.692157-inf)\&apos;&apos;</OUTCOME>
</VARIABLE>
<VARIABLE TYPE="nature">
<NAME>pixel118</NAME>
<OUTCOME>&apos;\&apos;(-inf-0.55098]\&apos;&apos;</OUTCOME>
<OUTCOME>&apos;\&apos;(0.55098-0.688235]\&apos;&apos;</OUTCOME>
<OUTCOME>&apos;\&apos;(0.688235-inf)\&apos;&apos;</OUTCOME>
</VARIABLE>
<VARIABLE TYPE="nature">
<NAME>pixel119</NAME>
<OUTCOME>&apos;\&apos;(-inf-0.217647]\&apos;&apos;</OUTCOME>
<OUTCOME>&apos;\&apos;(0.217647-0.594118]\&apos;&apos;</OUTCOME>
<OUTCOME>&apos;\&apos;(0.594118-0.719608]\&apos;&apos;</OUTCOME>
<OUTCOME>&apos;\&apos;(0.719608-inf)\&apos;&apos;</OUTCOME>
</VARIABLE>
<VARIABLE TYPE="nature">
<NAME>pixel120</NAME>
<OUTCOME>&apos;\&apos;(-inf-0.198039]\&apos;&apos;</OUTCOME>
<OUTCOME>&apos;\&apos;(0.198039-0.586275]\&apos;&apos;</OUTCOME>
<OUTCOME>&apos;\&apos;(0.586275-0.743137]\&apos;&apos;</OUTCOME>
<OUTCOME>&apos;\&apos;(0.743137-inf)\&apos;&apos;</OUTCOME>
</VARIABLE>
<VARIABLE TYPE="nature">
<NAME>pixel121</NAME>
<OUTCOME>&apos;\&apos;(-inf-0.170588]\&apos;&apos;</OUTCOME>
<OUTCOME>&apos;\&apos;(0.170588-0.547059]\&apos;&apos;</OUTCOME>
<OUTCOME>&apos;\&apos;(0.547059-0.735294]\&apos;&apos;</OUTCOME>
<OUTCOME>&apos;\&apos;(0.735294-inf)\&apos;&apos;</OUTCOME>
</VARIABLE>
<VARIABLE TYPE="nature">
<NAME>pixel122</NAME>
<OUTCOME>&apos;\&apos;(-inf-0.55098]\&apos;&apos;</OUTCOME>
<OUTCOME>&apos;\&apos;(0.55098-0.735294]\&apos;&apos;</OUTCOME>
<OUTCOME>&apos;\&apos;(0.735294-inf)\&apos;&apos;</OUTCOME>
</VARIABLE>
<VARIABLE TYPE="nature">
<NAME>pixel123</NAME>
<OUTCOME>&apos;\&apos;(-inf-0.539216]\&apos;&apos;</OUTCOME>
<OUTCOME>&apos;\&apos;(0.539216-0.688235]\&apos;&apos;</OUTCOME>
<OUTCOME>&apos;\&apos;(0.688235-inf)\&apos;&apos;</OUTCOME>
</VARIABLE>
<VARIABLE TYPE="nature">
<NAME>pixel124</NAME>
<OUTCOME>&apos;\&apos;(-inf-0.315686]\&apos;&apos;</OUTCOME>
<OUTCOME>&apos;\&apos;(0.315686-0.594118]\&apos;&apos;</OUTCOME>
<OUTCOME>&apos;\&apos;(0.594118-inf)\&apos;&apos;</OUTCOME>
</VARIABLE>
<VARIABLE TYPE="nature">
<NAME>pixel125</NAME>
<OUTCOME>&apos;\&apos;(-inf-0.539216]\&apos;&apos;</OUTCOME>
<OUTCOME>&apos;\&apos;(0.539216-0.676471]\&apos;&apos;</OUTCOME>
<OUTCOME>&apos;\&apos;(0.676471-inf)\&apos;&apos;</OUTCOME>
</VARIABLE>
<VARIABLE TYPE="nature">
<NAME>pixel126</NAME>
<OUTCOME>&apos;\&apos;(-inf-0.331373]\&apos;&apos;</OUTCOME>
<OUTCOME>&apos;\&apos;(0.331373-0.519608]\&apos;&apos;</OUTCOME>
<OUTCOME>&apos;\&apos;(0.519608-0.641176]\&apos;&apos;</OUTCOME>
<OUTCOME>&apos;\&apos;(0.641176-inf)\&apos;&apos;</OUTCOME>
</VARIABLE>
<VARIABLE TYPE="nature">
<NAME>pixel127</NAME>
<OUTCOME>&apos;\&apos;(-inf-0.147059]\&apos;&apos;</OUTCOME>
<OUTCOME>&apos;\&apos;(0.147059-0.519608]\&apos;&apos;</OUTCOME>
<OUTCOME>&apos;\&apos;(0.519608-0.613725]\&apos;&apos;</OUTCOME>
<OUTCOME>&apos;\&apos;(0.613725-inf)\&apos;&apos;</OUTCOME>
</VARIABLE>
<VARIABLE TYPE="nature">
<NAME>pixel128</NAME>
<OUTCOME>&apos;\&apos;(-inf-0.496078]\&apos;&apos;</OUTCOME>
<OUTCOME>&apos;\&apos;(0.496078-inf)\&apos;&apos;</OUTCOME>
</VARIABLE>
<VARIABLE TYPE="nature">
<NAME>pixel129</NAME>
<OUTCOME>&apos;\&apos;(-inf-0.472549]\&apos;&apos;</OUTCOME>
<OUTCOME>&apos;\&apos;(0.472549-inf)\&apos;&apos;</OUTCOME>
</VARIABLE>
<VARIABLE TYPE="nature">
<NAME>pixel130</NAME>
<OUTCOME>&apos;\&apos;(-inf-0.523529]\&apos;&apos;</OUTCOME>
<OUTCOME>&apos;\&apos;(0.523529-inf)\&apos;&apos;</OUTCOME>
</VARIABLE>
<VARIABLE TYPE="nature">
<NAME>pixel131</NAME>
<OUTCOME>&apos;\&apos;(-inf-0.55098]\&apos;&apos;</OUTCOME>
<OUTCOME>&apos;\&apos;(0.55098-inf)\&apos;&apos;</OUTCOME>
</VARIABLE>
<VARIABLE TYPE="nature">
<NAME>pixel132</NAME>
<OUTCOME>&apos;\&apos;(-inf-0.052941]\&apos;&apos;</OUTCOME>
<OUTCOME>&apos;\&apos;(0.052941-0.554902]\&apos;&apos;</OUTCOME>
<OUTCOME>&apos;\&apos;(0.554902-inf)\&apos;&apos;</OUTCOME>
</VARIABLE>
<VARIABLE TYPE="nature">
<NAME>pixel133</NAME>
<OUTCOME>&apos;\&apos;(-inf-0.452941]\&apos;&apos;</OUTCOME>
<OUTCOME>&apos;\&apos;(0.452941-inf)\&apos;&apos;</OUTCOME>
</VARIABLE>
<VARIABLE TYPE="nature">
<NAME>pixel134</NAME>
<OUTCOME>&apos;\&apos;(-inf-0.464706]\&apos;&apos;</OUTCOME>
<OUTCOME>&apos;\&apos;(0.464706-inf)\&apos;&apos;</OUTCOME>
</VARIABLE>
<VARIABLE TYPE="nature">
<NAME>pixel135</NAME>
<OUTCOME>&apos;\&apos;(-inf-0.347059]\&apos;&apos;</OUTCOME>
<OUTCOME>&apos;\&apos;(0.347059-0.982353]\&apos;&apos;</OUTCOME>
<OUTCOME>&apos;\&apos;(0.982353-inf)\&apos;&apos;</OUTCOME>
</VARIABLE>
<VARIABLE TYPE="nature">
<NAME>pixel136</NAME>
<OUTCOME>&apos;\&apos;(-inf-0.480392]\&apos;&apos;</OUTCOME>
<OUTCOME>&apos;\&apos;(0.480392-0.982353]\&apos;&apos;</OUTCOME>
<OUTCOME>&apos;\&apos;(0.982353-inf)\&apos;&apos;</OUTCOME>
</VARIABLE>
<VARIABLE TYPE="nature">
<NAME>pixel137</NAME>
<OUTCOME>&apos;\&apos;(-inf-0.343137]\&apos;&apos;</OUTCOME>
<OUTCOME>&apos;\&apos;(0.343137-0.986275]\&apos;&apos;</OUTCOME>
<OUTCOME>&apos;\&apos;(0.986275-inf)\&apos;&apos;</OUTCOME>
</VARIABLE>
<VARIABLE TYPE="nature">
<NAME>pixel138</NAME>
<OUTCOME>&apos;\&apos;(-inf-0.166667]\&apos;&apos;</OUTCOME>
<OUTCOME>&apos;\&apos;(0.166667-0.523529]\&apos;&apos;</OUTCOME>
<OUTCOME>&apos;\&apos;(0.523529-0.97451]\&apos;&apos;</OUTCOME>
<OUTCOME>&apos;\&apos;(0.97451-inf)\&apos;&apos;</OUTCOME>
</VARIABLE>
<VARIABLE TYPE="nature">
<NAME>pixel139</NAME>
<OUTCOME>&apos;\&apos;(-inf-0.013725]\&apos;&apos;</OUTCOME>
<OUTCOME>&apos;\&apos;(0.013725-0.323529]\&apos;&apos;</OUTCOME>
<OUTCOME>&apos;\&apos;(0.323529-0.958824]\&apos;&apos;</OUTCOME>
<OUTCOME>&apos;\&apos;(0.958824-inf)\&apos;&apos;</OUTCOME>
</VARIABLE>
<VARIABLE TYPE="nature">
<NAME>pixel140</NAME>
<OUTCOME>&apos;\&apos;(-inf-0.315686]\&apos;&apos;</OUTCOME>
<OUTCOME>&apos;\&apos;(0.315686-0.962745]\&apos;&apos;</OUTCOME>
<OUTCOME>&apos;\&apos;(0.962745-inf)\&apos;&apos;</OUTCOME>
</VARIABLE>
<VARIABLE TYPE="nature">
<NAME>pixel141</NAME>
<OUTCOME>&apos;\&apos;(-inf-0.217647]\&apos;&apos;</OUTCOME>
<OUTCOME>&apos;\&apos;(0.217647-0.966667]\&apos;&apos;</OUTCOME>
<OUTCOME>&apos;\&apos;(0.966667-inf)\&apos;&apos;</OUTCOME>
</VARIABLE>
<VARIABLE TYPE="nature">
<NAME>pixel142</NAME>
<OUTCOME>&apos;\&apos;(-inf-0.013725]\&apos;&apos;</OUTCOME>
<OUTCOME>&apos;\&apos;(0.013725-0.684314]\&apos;&apos;</OUTCOME>
<OUTCOME>&apos;\&apos;(0.684314-0.970588]\&apos;&apos;</OUTCOME>
<OUTCOME>&apos;\&apos;(0.970588-inf)\&apos;&apos;</OUTCOME>
</VARIABLE>
<VARIABLE TYPE="nature">
<NAME>pixel143</NAME>
<OUTCOME>&apos;\&apos;(-inf-0.017647]\&apos;&apos;</OUTCOME>
<OUTCOME>&apos;\&apos;(0.017647-0.629412]\&apos;&apos;</OUTCOME>
<OUTCOME>&apos;\&apos;(0.629412-0.970588]\&apos;&apos;</OUTCOME>
<OUTCOME>&apos;\&apos;(0.970588-inf)\&apos;&apos;</OUTCOME>
</VARIABLE>
<VARIABLE TYPE="nature">
<NAME>pixel144</NAME>
<OUTCOME>&apos;\&apos;(-inf-0.068627]\&apos;&apos;</OUTCOME>
<OUTCOME>&apos;\&apos;(0.068627-0.237255]\&apos;&apos;</OUTCOME>
<OUTCOME>&apos;\&apos;(0.237255-0.668627]\&apos;&apos;</OUTCOME>
<OUTCOME>&apos;\&apos;(0.668627-0.95098]\&apos;&apos;</OUTCOME>
<OUTCOME>&apos;\&apos;(0.95098-inf)\&apos;&apos;</OUTCOME>
</VARIABLE>
<VARIABLE TYPE="nature">
<NAME>pixel145</NAME>
<OUTCOME>&apos;\&apos;(-inf-0.080392]\&apos;&apos;</OUTCOME>
<OUTCOME>&apos;\&apos;(0.080392-0.272549]\&apos;&apos;</OUTCOME>
<OUTCOME>&apos;\&apos;(0.272549-0.943137]\&apos;&apos;</OUTCOME>
<OUTCOME>&apos;\&apos;(0.943137-inf)\&apos;&apos;</OUTCOME>
</VARIABLE>
<VARIABLE TYPE="nature">
<NAME>pixel146</NAME>
<OUTCOME>&apos;\&apos;(-inf-0.084314]\&apos;&apos;</OUTCOME>
<OUTCOME>&apos;\&apos;(0.084314-0.531373]\&apos;&apos;</OUTCOME>
<OUTCOME>&apos;\&apos;(0.531373-0.962745]\&apos;&apos;</OUTCOME>
<OUTCOME>&apos;\&apos;(0.962745-inf)\&apos;&apos;</OUTCOME>
</VARIABLE>
<VARIABLE TYPE="nature">
<NAME>pixel147</NAME>
<OUTCOME>&apos;\&apos;(-inf-0.056863]\&apos;&apos;</OUTCOME>
<OUTCOME>&apos;\&apos;(0.056863-0.154902]\&apos;&apos;</OUTCOME>
<OUTCOME>&apos;\&apos;(0.154902-0.594118]\&apos;&apos;</OUTCOME>
<OUTCOME>&apos;\&apos;(0.594118-0.954902]\&apos;&apos;</OUTCOME>
<OUTCOME>&apos;\&apos;(0.954902-inf)\&apos;&apos;</OUTCOME>
</VARIABLE>
<VARIABLE TYPE="nature">
<NAME>pixel148</NAME>
<OUTCOME>&apos;\&apos;(-inf-0.115686]\&apos;&apos;</OUTCOME>
<OUTCOME>&apos;\&apos;(0.115686-0.272549]\&apos;&apos;</OUTCOME>
<OUTCOME>&apos;\&apos;(0.272549-0.95098]\&apos;&apos;</OUTCOME>
<OUTCOME>&apos;\&apos;(0.95098-inf)\&apos;&apos;</OUTCOME>
</VARIABLE>
<VARIABLE TYPE="nature">
<NAME>pixel149</NAME>
<OUTCOME>&apos;\&apos;(-inf-0.080392]\&apos;&apos;</OUTCOME>
<OUTCOME>&apos;\&apos;(0.080392-0.335294]\&apos;&apos;</OUTCOME>
<OUTCOME>&apos;\&apos;(0.335294-0.990196]\&apos;&apos;</OUTCOME>
<OUTCOME>&apos;\&apos;(0.990196-inf)\&apos;&apos;</OUTCOME>
</VARIABLE>
<VARIABLE TYPE="nature">
<NAME>pixel150</NAME>
<OUTCOME>&apos;\&apos;(-inf-0.045098]\&apos;&apos;</OUTCOME>
<OUTCOME>&apos;\&apos;(0.045098-0.311765]\&apos;&apos;</OUTCOME>
<OUTCOME>&apos;\&apos;(0.311765-0.554902]\&apos;&apos;</OUTCOME>
<OUTCOME>&apos;\&apos;(0.554902-0.994118]\&apos;&apos;</OUTCOME>
<OUTCOME>&apos;\&apos;(0.994118-inf)\&apos;&apos;</OUTCOME>
</VARIABLE>
<VARIABLE TYPE="nature">
<NAME>pixel151</NAME>
<OUTCOME>&apos;\&apos;(-inf-0.080392]\&apos;&apos;</OUTCOME>
<OUTCOME>&apos;\&apos;(0.080392-0.535294]\&apos;&apos;</OUTCOME>
<OUTCOME>&apos;\&apos;(0.535294-inf)\&apos;&apos;</OUTCOME>
</VARIABLE>
<VARIABLE TYPE="nature">
<NAME>pixel152</NAME>
<OUTCOME>&apos;\&apos;(-inf-0.1]\&apos;&apos;</OUTCOME>
<OUTCOME>&apos;\&apos;(0.1-0.496078]\&apos;&apos;</OUTCOME>
<OUTCOME>&apos;\&apos;(0.496078-inf)\&apos;&apos;</OUTCOME>
</VARIABLE>
<VARIABLE TYPE="nature">
<NAME>pixel153</NAME>
<OUTCOME>&apos;\&apos;(-inf-0.111765]\&apos;&apos;</OUTCOME>
<OUTCOME>&apos;\&apos;(0.111765-0.480392]\&apos;&apos;</OUTCOME>
<OUTCOME>&apos;\&apos;(0.480392-inf)\&apos;&apos;</OUTCOME>
</VARIABLE>
<VARIABLE TYPE="nature">
<NAME>pixel154</NAME>
<OUTCOME>&apos;\&apos;(-inf-0.060784]\&apos;&apos;</OUTCOME>
<OUTCOME>&apos;\&apos;(0.060784-0.362745]\&apos;&apos;</OUTCOME>
<OUTCOME>&apos;\&apos;(0.362745-0.676471]\&apos;&apos;</OUTCOME>
<OUTCOME>&apos;\&apos;(0.676471-inf)\&apos;&apos;</OUTCOME>
</VARIABLE>
<VARIABLE TYPE="nature">
<NAME>pixel155</NAME>
<OUTCOME>&apos;\&apos;(-inf-0.401961]\&apos;&apos;</OUTCOME>
<OUTCOME>&apos;\&apos;(0.401961-0.684314]\&apos;&apos;</OUTCOME>
<OUTCOME>&apos;\&apos;(0.684314-inf)\&apos;&apos;</OUTCOME>
</VARIABLE>
<VARIABLE TYPE="nature">
<NAME>pixel156</NAME>
<OUTCOME>&apos;\&apos;(-inf-0.311765]\&apos;&apos;</OUTCOME>
<OUTCOME>&apos;\&apos;(0.311765-0.511765]\&apos;&apos;</OUTCOME>
<OUTCOME>&apos;\&apos;(0.511765-0.739216]\&apos;&apos;</OUTCOME>
<OUTCOME>&apos;\&apos;(0.739216-inf)\&apos;&apos;</OUTCOME>
</VARIABLE>
<VARIABLE TYPE="nature">
<NAME>pixel157</NAME>
<OUTCOME>&apos;\&apos;(-inf-0.331373]\&apos;&apos;</OUTCOME>
<OUTCOME>&apos;\&apos;(0.331373-0.476471]\&apos;&apos;</OUTCOME>
<OUTCOME>&apos;\&apos;(0.476471-0.735294]\&apos;&apos;</OUTCOME>
<OUTCOME>&apos;\&apos;(0.735294-inf)\&apos;&apos;</OUTCOME>
</VARIABLE>
<VARIABLE TYPE="nature">
<NAME>pixel158</NAME>
<OUTCOME>&apos;\&apos;(-inf-0.401961]\&apos;&apos;</OUTCOME>
<OUTCOME>&apos;\&apos;(0.401961-0.758824]\&apos;&apos;</OUTCOME>
<OUTCOME>&apos;\&apos;(0.758824-inf)\&apos;&apos;</OUTCOME>
</VARIABLE>
<VARIABLE TYPE="nature">
<NAME>pixel159</NAME>
<OUTCOME>&apos;\&apos;(-inf-0.331373]\&apos;&apos;</OUTCOME>
<OUTCOME>&apos;\&apos;(0.331373-0.547059]\&apos;&apos;</OUTCOME>
<OUTCOME>&apos;\&apos;(0.547059-0.75098]\&apos;&apos;</OUTCOME>
<OUTCOME>&apos;\&apos;(0.75098-inf)\&apos;&apos;</OUTCOME>
</VARIABLE>
<VARIABLE TYPE="nature">
<NAME>pixel160</NAME>
<OUTCOME>&apos;\&apos;(-inf-0.445098]\&apos;&apos;</OUTCOME>
<OUTCOME>&apos;\&apos;(0.445098-0.711765]\&apos;&apos;</OUTCOME>
<OUTCOME>&apos;\&apos;(0.711765-inf)\&apos;&apos;</OUTCOME>
</VARIABLE>
<VARIABLE TYPE="nature">
<NAME>pixel161</NAME>
<OUTCOME>&apos;\&apos;(-inf-0.488235]\&apos;&apos;</OUTCOME>
<OUTCOME>&apos;\&apos;(0.488235-0.735294]\&apos;&apos;</OUTCOME>
<OUTCOME>&apos;\&apos;(0.735294-inf)\&apos;&apos;</OUTCOME>
</VARIABLE>
<VARIABLE TYPE="nature">
<NAME>pixel162</NAME>
<OUTCOME>&apos;\&apos;(-inf-0.37451]\&apos;&apos;</OUTCOME>
<OUTCOME>&apos;\&apos;(0.37451-0.590196]\&apos;&apos;</OUTCOME>
<OUTCOME>&apos;\&apos;(0.590196-0.77451]\&apos;&apos;</OUTCOME>
<OUTCOME>&apos;\&apos;(0.77451-inf)\&apos;&apos;</OUTCOME>
</VARIABLE>
<VARIABLE TYPE="nature">
<NAME>pixel163</NAME>
<OUTCOME>&apos;\&apos;(-inf-0.311765]\&apos;&apos;</OUTCOME>
<OUTCOME>&apos;\&apos;(0.311765-0.578431]\&apos;&apos;</OUTCOME>
<OUTCOME>&apos;\&apos;(0.578431-0.77451]\&apos;&apos;</OUTCOME>
<OUTCOME>&apos;\&apos;(0.77451-inf)\&apos;&apos;</OUTCOME>
</VARIABLE>
<VARIABLE TYPE="nature">
<NAME>pixel164</NAME>
<OUTCOME>&apos;\&apos;(-inf-0.492157]\&apos;&apos;</OUTCOME>
<OUTCOME>&apos;\&apos;(0.492157-0.696078]\&apos;&apos;</OUTCOME>
<OUTCOME>&apos;\&apos;(0.696078-inf)\&apos;&apos;</OUTCOME>
</VARIABLE>
<VARIABLE TYPE="nature">
<NAME>pixel165</NAME>
<OUTCOME>&apos;\&apos;(-inf-0.296078]\&apos;&apos;</OUTCOME>
<OUTCOME>&apos;\&apos;(0.296078-0.594118]\&apos;&apos;</OUTCOME>
<OUTCOME>&apos;\&apos;(0.594118-0.707843]\&apos;&apos;</OUTCOME>
<OUTCOME>&apos;\&apos;(0.707843-inf)\&apos;&apos;</OUTCOME>
</VARIABLE>
<VARIABLE TYPE="nature">
<NAME>pixel166</NAME>
<OUTCOME>&apos;\&apos;(-inf-0.578431]\&apos;&apos;</OUTCOME>
<OUTCOME>&apos;\&apos;(0.578431-0.7]\&apos;&apos;</OUTCOME>
<OUTCOME>&apos;\&apos;(0.7-inf)\&apos;&apos;</OUTCOME>
</VARIABLE>
<VARIABLE TYPE="nature">
<NAME>pixel167</NAME>
<OUTCOME>&apos;\&apos;(-inf-0.358824]\&apos;&apos;</OUTCOME>
<OUTCOME>&apos;\&apos;(0.358824-0.598039]\&apos;&apos;</OUTCOME>
<OUTCOME>&apos;\&apos;(0.598039-0.7]\&apos;&apos;</OUTCOME>
<OUTCOME>&apos;\&apos;(0.7-inf)\&apos;&apos;</OUTCOME>
</VARIABLE>
<VARIABLE TYPE="nature">
<NAME>pixel168</NAME>
<OUTCOME>&apos;\&apos;(-inf-0.496078]\&apos;&apos;</OUTCOME>
<OUTCOME>&apos;\&apos;(0.496078-0.609804]\&apos;&apos;</OUTCOME>
<OUTCOME>&apos;\&apos;(0.609804-0.723529]\&apos;&apos;</OUTCOME>
<OUTCOME>&apos;\&apos;(0.723529-inf)\&apos;&apos;</OUTCOME>
</VARIABLE>
<VARIABLE TYPE="nature">
<NAME>pixel169</NAME>
<OUTCOME>&apos;\&apos;(-inf-0.205882]\&apos;&apos;</OUTCOME>
<OUTCOME>&apos;\&apos;(0.205882-0.605882]\&apos;&apos;</OUTCOME>
<OUTCOME>&apos;\&apos;(0.605882-0.723529]\&apos;&apos;</OUTCOME>
<OUTCOME>&apos;\&apos;(0.723529-inf)\&apos;&apos;</OUTCOME>
</VARIABLE>
<VARIABLE TYPE="nature">
<NAME>pixel170</NAME>
<OUTCOME>&apos;\&apos;(-inf-0.198039]\&apos;&apos;</OUTCOME>
<OUTCOME>&apos;\&apos;(0.198039-0.594118]\&apos;&apos;</OUTCOME>
<OUTCOME>&apos;\&apos;(0.594118-0.798039]\&apos;&apos;</OUTCOME>
<OUTCOME>&apos;\&apos;(0.798039-inf)\&apos;&apos;</OUTCOME>
</VARIABLE>
<VARIABLE TYPE="nature">
<NAME>pixel171</NAME>
<OUTCOME>&apos;\&apos;(-inf-0.539216]\&apos;&apos;</OUTCOME>
<OUTCOME>&apos;\&apos;(0.539216-0.621569]\&apos;&apos;</OUTCOME>
<OUTCOME>&apos;\&apos;(0.621569-inf)\&apos;&apos;</OUTCOME>
</VARIABLE>
<VARIABLE TYPE="nature">
<NAME>pixel172</NAME>
<OUTCOME>&apos;\&apos;(-inf-0.507843]\&apos;&apos;</OUTCOME>
<OUTCOME>&apos;\&apos;(0.507843-0.633333]\&apos;&apos;</OUTCOME>
<OUTCOME>&apos;\&apos;(0.633333-inf)\&apos;&apos;</OUTCOME>
</VARIABLE>
<VARIABLE TYPE="nature">
<NAME>pixel173</NAME>
<OUTCOME>&apos;\&apos;(-inf-0.558824]\&apos;&apos;</OUTCOME>
<OUTCOME>&apos;\&apos;(0.558824-0.743137]\&apos;&apos;</OUTCOME>
<OUTCOME>&apos;\&apos;(0.743137-inf)\&apos;&apos;</OUTCOME>
</VARIABLE>
<VARIABLE TYPE="nature">
<NAME>pixel174</NAME>
<OUTCOME>&apos;\&apos;(-inf-0.429412]\&apos;&apos;</OUTCOME>
<OUTCOME>&apos;\&apos;(0.429412-0.562745]\&apos;&apos;</OUTCOME>
<OUTCOME>&apos;\&apos;(0.562745-0.707843]\&apos;&apos;</OUTCOME>
<OUTCOME>&apos;\&apos;(0.707843-inf)\&apos;&apos;</OUTCOME>
</VARIABLE>
<VARIABLE TYPE="nature">
<NAME>pixel175</NAME>
<OUTCOME>&apos;\&apos;(-inf-0.417647]\&apos;&apos;</OUTCOME>
<OUTCOME>&apos;\&apos;(0.417647-0.64902]\&apos;&apos;</OUTCOME>
<OUTCOME>&apos;\&apos;(0.64902-inf)\&apos;&apos;</OUTCOME>
</VARIABLE>
<VARIABLE TYPE="nature">
<NAME>pixel176</NAME>
<OUTCOME>&apos;\&apos;(-inf-0.362745]\&apos;&apos;</OUTCOME>
<OUTCOME>&apos;\&apos;(0.362745-0.605882]\&apos;&apos;</OUTCOME>
<OUTCOME>&apos;\&apos;(0.605882-inf)\&apos;&apos;</OUTCOME>
</VARIABLE>
<VARIABLE TYPE="nature">
<NAME>pixel177</NAME>
<OUTCOME>&apos;\&apos;(-inf-0.437255]\&apos;&apos;</OUTCOME>
<OUTCOME>&apos;\&apos;(0.437255-0.652941]\&apos;&apos;</OUTCOME>
<OUTCOME>&apos;\&apos;(0.652941-inf)\&apos;&apos;</OUTCOME>
</VARIABLE>
<VARIABLE TYPE="nature">
<NAME>pixel178</NAME>
<OUTCOME>&apos;\&apos;(-inf-0.162745]\&apos;&apos;</OUTCOME>
<OUTCOME>&apos;\&apos;(0.162745-0.464706]\&apos;&apos;</OUTCOME>
<OUTCOME>&apos;\&apos;(0.464706-inf)\&apos;&apos;</OUTCOME>
</VARIABLE>
<VARIABLE TYPE="nature">
<NAME>pixel179</NAME>
<OUTCOME>&apos;\&apos;(-inf-0.472549]\&apos;&apos;</OUTCOME>
<OUTCOME>&apos;\&apos;(0.472549-inf)\&apos;&apos;</OUTCOME>
</VARIABLE>
<VARIABLE TYPE="nature">
<NAME>pixel180</NAME>
<OUTCOME>&apos;\&apos;(-inf-0.558824]\&apos;&apos;</OUTCOME>
<OUTCOME>&apos;\&apos;(0.558824-inf)\&apos;&apos;</OUTCOME>
</VARIABLE>
<VARIABLE TYPE="nature">
<NAME>pixel181</NAME>
<OUTCOME>&apos;\&apos;(-inf-0.456863]\&apos;&apos;</OUTCOME>
<OUTCOME>&apos;\&apos;(0.456863-inf)\&apos;&apos;</OUTCOME>
</VARIABLE>
<VARIABLE TYPE="nature">
<NAME>pixel182</NAME>
<OUTCOME>&apos;\&apos;(-inf-0.44902]\&apos;&apos;</OUTCOME>
<OUTCOME>&apos;\&apos;(0.44902-inf)\&apos;&apos;</OUTCOME>
</VARIABLE>
<VARIABLE TYPE="nature">
<NAME>pixel183</NAME>
<OUTCOME>&apos;\&apos;(-inf-0.339216]\&apos;&apos;</OUTCOME>
<OUTCOME>&apos;\&apos;(0.339216-inf)\&apos;&apos;</OUTCOME>
</VARIABLE>
<VARIABLE TYPE="nature">
<NAME>pixel184</NAME>
<OUTCOME>&apos;\&apos;(-inf-0.35098]\&apos;&apos;</OUTCOME>
<OUTCOME>&apos;\&apos;(0.35098-0.970588]\&apos;&apos;</OUTCOME>
<OUTCOME>&apos;\&apos;(0.970588-inf)\&apos;&apos;</OUTCOME>
</VARIABLE>
<VARIABLE TYPE="nature">
<NAME>pixel185</NAME>
<OUTCOME>&apos;\&apos;(-inf-0.433333]\&apos;&apos;</OUTCOME>
<OUTCOME>&apos;\&apos;(0.433333-0.978431]\&apos;&apos;</OUTCOME>
<OUTCOME>&apos;\&apos;(0.978431-inf)\&apos;&apos;</OUTCOME>
</VARIABLE>
<VARIABLE TYPE="nature">
<NAME>pixel186</NAME>
<OUTCOME>&apos;\&apos;(-inf-0.170588]\&apos;&apos;</OUTCOME>
<OUTCOME>&apos;\&apos;(0.170588-0.441176]\&apos;&apos;</OUTCOME>
<OUTCOME>&apos;\&apos;(0.441176-0.97451]\&apos;&apos;</OUTCOME>
<OUTCOME>&apos;\&apos;(0.97451-inf)\&apos;&apos;</OUTCOME>
</VARIABLE>
<VARIABLE TYPE="nature">
<NAME>pixel187</NAME>
<OUTCOME>&apos;\&apos;(-inf-0.323529]\&apos;&apos;</OUTCOME>
<OUTCOME>&apos;\&apos;(0.323529-0.970588]\&apos;&apos;</OUTCOME>
<OUTCOME>&apos;\&apos;(0.970588-inf)\&apos;&apos;</OUTCOME>
</VARIABLE>
<VARIABLE TYPE="nature">
<NAME>pixel188</NAME>
<OUTCOME>&apos;\&apos;(-inf-0.280392]\&apos;&apos;</OUTCOME>
<OUTCOME>&apos;\&apos;(0.280392-0.970588]\&apos;&apos;</OUTCOME>
<OUTCOME>&apos;\&apos;(0.970588-inf)\&apos;&apos;</OUTCOME>
</VARIABLE>
<VARIABLE TYPE="nature">
<NAME>pixel189</NAME>
<OUTCOME>&apos;\&apos;(-inf-0.1]\&apos;&apos;</OUTCOME>
<OUTCOME>&apos;\&apos;(0.1-0.523529]\&apos;&apos;</OUTCOME>
<OUTCOME>&apos;\&apos;(0.523529-0.970588]\&apos;&apos;</OUTCOME>
<OUTCOME>&apos;\&apos;(0.970588-inf)\&apos;&apos;</OUTCOME>
</VARIABLE>
<VARIABLE TYPE="nature">
<NAME>pixel190</NAME>
<OUTCOME>&apos;\&apos;(-inf-0.005882]\&apos;&apos;</OUTCOME>
<OUTCOME>&apos;\&apos;(0.005882-0.578431]\&apos;&apos;</OUTCOME>
<OUTCOME>&apos;\&apos;(0.578431-0.970588]\&apos;&apos;</OUTCOME>
<OUTCOME>&apos;\&apos;(0.970588-inf)\&apos;&apos;</OUTCOME>
</VARIABLE>
<VARIABLE TYPE="nature">
<NAME>pixel191</NAME>
<OUTCOME>&apos;\&apos;(-inf-0.013725]\&apos;&apos;</OUTCOME>
<OUTCOME>&apos;\&apos;(0.013725-0.652941]\&apos;&apos;</OUTCOME>
<OUTCOME>&apos;\&apos;(0.652941-0.962745]\&apos;&apos;</OUTCOME>
<OUTCOME>&apos;\&apos;(0.962745-inf)\&apos;&apos;</OUTCOME>
</VARIABLE>
<VARIABLE TYPE="nature">
<NAME>pixel192</NAME>
<OUTCOME>&apos;\&apos;(-inf-0.080392]\&apos;&apos;</OUTCOME>
<OUTCOME>&apos;\&apos;(0.080392-0.539216]\&apos;&apos;</OUTCOME>
<OUTCOME>&apos;\&apos;(0.539216-0.935294]\&apos;&apos;</OUTCOME>
<OUTCOME>&apos;\&apos;(0.935294-inf)\&apos;&apos;</OUTCOME>
</VARIABLE>
<VARIABLE TYPE="nature">
<NAME>pixel193</NAME>
<OUTCOME>&apos;\&apos;(-inf-0.080392]\&apos;&apos;</OUTCOME>
<OUTCOME>&apos;\&apos;(0.080392-0.296078]\&apos;&apos;</OUTCOME>
<OUTCOME>&apos;\&apos;(0.296078-0.935294]\&apos;&apos;</OUTCOME>
<OUTCOME>&apos;\&apos;(0.935294-inf)\&apos;&apos;</OUTCOME>
</VARIABLE>
<VARIABLE TYPE="nature">
<NAME>pixel194</NAME>
<OUTCOME>&apos;\&apos;(-inf-0.135294]\&apos;&apos;</OUTCOME>
<OUTCOME>&apos;\&apos;(0.135294-0.547059]\&apos;&apos;</OUTCOME>
<OUTCOME>&apos;\&apos;(0.547059-0.95098]\&apos;&apos;</OUTCOME>
<OUTCOME>&apos;\&apos;(0.95098-inf)\&apos;&apos;</OUTCOME>
</VARIABLE>
<VARIABLE TYPE="nature">
<NAME>pixel195</NAME>
<OUTCOME>&apos;\&apos;(-inf-0.162745]\&apos;&apos;</OUTCOME>
<OUTCOME>&apos;\&apos;(0.162745-0.535294]\&apos;&apos;</OUTCOME>
<OUTCOME>&apos;\&apos;(0.535294-0.958824]\&apos;&apos;</OUTCOME>
<OUTCOME>&apos;\&apos;(0.958824-inf)\&apos;&apos;</OUTCOME>
</VARIABLE>
<VARIABLE TYPE="nature">
<NAME>pixel196</NAME>
<OUTCOME>&apos;\&apos;(-inf-0.158824]\&apos;&apos;</OUTCOME>
<OUTCOME>&apos;\&apos;(0.158824-0.523529]\&apos;&apos;</OUTCOME>
<OUTCOME>&apos;\&apos;(0.523529-0.966667]\&apos;&apos;</OUTCOME>
<OUTCOME>&apos;\&apos;(0.966667-inf)\&apos;&apos;</OUTCOME>
</VARIABLE>
<VARIABLE TYPE="nature">
<NAME>pixel197</NAME>
<OUTCOME>&apos;\&apos;(-inf-0.080392]\&apos;&apos;</OUTCOME>
<OUTCOME>&apos;\&apos;(0.080392-0.433333]\&apos;&apos;</OUTCOME>
<OUTCOME>&apos;\&apos;(0.433333-0.943137]\&apos;&apos;</OUTCOME>
<OUTCOME>&apos;\&apos;(0.943137-inf)\&apos;&apos;</OUTCOME>
</VARIABLE>
<VARIABLE TYPE="nature">
<NAME>pixel198</NAME>
<OUTCOME>&apos;\&apos;(-inf-0.080392]\&apos;&apos;</OUTCOME>
<OUTCOME>&apos;\&apos;(0.080392-0.484314]\&apos;&apos;</OUTCOME>
<OUTCOME>&apos;\&apos;(0.484314-inf)\&apos;&apos;</OUTCOME>
</VARIABLE>
<VARIABLE TYPE="nature">
<NAME>pixel199</NAME>
<OUTCOME>&apos;\&apos;(-inf-0.064706]\&apos;&apos;</OUTCOME>
<OUTCOME>&apos;\&apos;(0.064706-0.429412]\&apos;&apos;</OUTCOME>
<OUTCOME>&apos;\&apos;(0.429412-inf)\&apos;&apos;</OUTCOME>
</VARIABLE>
<VARIABLE TYPE="nature">
<NAME>pixel200</NAME>
<OUTCOME>&apos;\&apos;(-inf-0.092157]\&apos;&apos;</OUTCOME>
<OUTCOME>&apos;\&apos;(0.092157-0.378431]\&apos;&apos;</OUTCOME>
<OUTCOME>&apos;\&apos;(0.378431-inf)\&apos;&apos;</OUTCOME>
</VARIABLE>
<VARIABLE TYPE="nature">
<NAME>pixel201</NAME>
<OUTCOME>&apos;\&apos;(-inf-0.237255]\&apos;&apos;</OUTCOME>
<OUTCOME>&apos;\&apos;(0.237255-0.543137]\&apos;&apos;</OUTCOME>
<OUTCOME>&apos;\&apos;(0.543137-inf)\&apos;&apos;</OUTCOME>
</VARIABLE>
<VARIABLE TYPE="nature">
<NAME>pixel202</NAME>
<OUTCOME>&apos;\&apos;(-inf-0.366667]\&apos;&apos;</OUTCOME>
<OUTCOME>&apos;\&apos;(0.366667-0.578431]\&apos;&apos;</OUTCOME>
<OUTCOME>&apos;\&apos;(0.578431-inf)\&apos;&apos;</OUTCOME>
</VARIABLE>
<VARIABLE TYPE="nature">
<NAME>pixel203</NAME>
<OUTCOME>&apos;\&apos;(-inf-0.335294]\&apos;&apos;</OUTCOME>
<OUTCOME>&apos;\&apos;(0.335294-0.57451]\&apos;&apos;</OUTCOME>
<OUTCOME>&apos;\&apos;(0.57451-inf)\&apos;&apos;</OUTCOME>
</VARIABLE>
<VARIABLE TYPE="nature">
<NAME>pixel204</NAME>
<OUTCOME>&apos;\&apos;(-inf-0.260784]\&apos;&apos;</OUTCOME>
<OUTCOME>&apos;\&apos;(0.260784-0.554902]\&apos;&apos;</OUTCOME>
<OUTCOME>&apos;\&apos;(0.554902-0.719608]\&apos;&apos;</OUTCOME>
<OUTCOME>&apos;\&apos;(0.719608-inf)\&apos;&apos;</OUTCOME>
</VARIABLE>
<VARIABLE TYPE="nature">
<NAME>pixel205</NAME>
<OUTCOME>&apos;\&apos;(-inf-0.245098]\&apos;&apos;</OUTCOME>
<OUTCOME>&apos;\&apos;(0.245098-0.539216]\&apos;&apos;</OUTCOME>
<OUTCOME>&apos;\&apos;(0.539216-0.711765]\&apos;&apos;</OUTCOME>
<OUTCOME>&apos;\&apos;(0.711765-inf)\&apos;&apos;</OUTCOME>
</VARIABLE>
<VARIABLE TYPE="nature">
<NAME>pixel206</NAME>
<OUTCOME>&apos;\&apos;(-inf-0.284314]\&apos;&apos;</OUTCOME>
<OUTCOME>&apos;\&apos;(0.284314-0.562745]\&apos;&apos;</OUTCOME>
<OUTCOME>&apos;\&apos;(0.562745-0.786275]\&apos;&apos;</OUTCOME>
<OUTCOME>&apos;\&apos;(0.786275-inf)\&apos;&apos;</OUTCOME>
</VARIABLE>
<VARIABLE TYPE="nature">
<NAME>pixel207</NAME>
<OUTCOME>&apos;\&apos;(-inf-0.492157]\&apos;&apos;</OUTCOME>
<OUTCOME>&apos;\&apos;(0.492157-0.7]\&apos;&apos;</OUTCOME>
<OUTCOME>&apos;\&apos;(0.7-inf)\&apos;&apos;</OUTCOME>
</VARIABLE>
<VARIABLE TYPE="nature">
<NAME>pixel208</NAME>
<OUTCOME>&apos;\&apos;(-inf-0.503922]\&apos;&apos;</OUTCOME>
<OUTCOME>&apos;\&apos;(0.503922-0.719608]\&apos;&apos;</OUTCOME>
<OUTCOME>&apos;\&apos;(0.719608-inf)\&apos;&apos;</OUTCOME>
</VARIABLE>
<VARIABLE TYPE="nature">
<NAME>pixel209</NAME>
<OUTCOME>&apos;\&apos;(-inf-0.405882]\&apos;&apos;</OUTCOME>
<OUTCOME>&apos;\&apos;(0.405882-0.601961]\&apos;&apos;</OUTCOME>
<OUTCOME>&apos;\&apos;(0.601961-0.754902]\&apos;&apos;</OUTCOME>
<OUTCOME>&apos;\&apos;(0.754902-inf)\&apos;&apos;</OUTCOME>
</VARIABLE>
<VARIABLE TYPE="nature">
<NAME>pixel210</NAME>
<OUTCOME>&apos;\&apos;(-inf-0.484314]\&apos;&apos;</OUTCOME>
<OUTCOME>&apos;\&apos;(0.484314-0.7]\&apos;&apos;</OUTCOME>
<OUTCOME>&apos;\&apos;(0.7-inf)\&apos;&apos;</OUTCOME>
</VARIABLE>
<VARIABLE TYPE="nature">
<NAME>pixel211</NAME>
<OUTCOME>&apos;\&apos;(-inf-0.366667]\&apos;&apos;</OUTCOME>
<OUTCOME>&apos;\&apos;(0.366667-0.692157]\&apos;&apos;</OUTCOME>
<OUTCOME>&apos;\&apos;(0.692157-inf)\&apos;&apos;</OUTCOME>
</VARIABLE>
<VARIABLE TYPE="nature">
<NAME>pixel212</NAME>
<OUTCOME>&apos;\&apos;(-inf-0.323529]\&apos;&apos;</OUTCOME>
<OUTCOME>&apos;\&apos;(0.323529-0.684314]\&apos;&apos;</OUTCOME>
<OUTCOME>&apos;\&apos;(0.684314-inf)\&apos;&apos;</OUTCOME>
</VARIABLE>
<VARIABLE TYPE="nature">
<NAME>pixel213</NAME>
<OUTCOME>&apos;\&apos;(-inf-0.339216]\&apos;&apos;</OUTCOME>
<OUTCOME>&apos;\&apos;(0.339216-0.633333]\&apos;&apos;</OUTCOME>
<OUTCOME>&apos;\&apos;(0.633333-0.770588]\&apos;&apos;</OUTCOME>
<OUTCOME>&apos;\&apos;(0.770588-inf)\&apos;&apos;</OUTCOME>
</VARIABLE>
<VARIABLE TYPE="nature">
<NAME>pixel214</NAME>
<OUTCOME>&apos;\&apos;(-inf-0.531373]\&apos;&apos;</OUTCOME>
<OUTCOME>&apos;\&apos;(0.531373-0.668627]\&apos;&apos;</OUTCOME>
<OUTCOME>&apos;\&apos;(0.668627-0.754902]\&apos;&apos;</OUTCOME>
<OUTCOME>&apos;\&apos;(0.754902-inf)\&apos;&apos;</OUTCOME>
</VARIABLE>
<VARIABLE TYPE="nature">
<NAME>pixel215</NAME>
<OUTCOME>&apos;\&apos;(-inf-0.523529]\&apos;&apos;</OUTCOME>
<OUTCOME>&apos;\&apos;(0.523529-0.629412]\&apos;&apos;</OUTCOME>
<OUTCOME>&apos;\&apos;(0.629412-0.739216]\&apos;&apos;</OUTCOME>
<OUTCOME>&apos;\&apos;(0.739216-inf)\&apos;&apos;</OUTCOME>
</VARIABLE>
<VARIABLE TYPE="nature">
<NAME>pixel216</NAME>
<OUTCOME>&apos;\&apos;(-inf-0.503922]\&apos;&apos;</OUTCOME>
<OUTCOME>&apos;\&apos;(0.503922-0.605882]\&apos;&apos;</OUTCOME>
<OUTCOME>&apos;\&apos;(0.605882-0.723529]\&apos;&apos;</OUTCOME>
<OUTCOME>&apos;\&apos;(0.723529-inf)\&apos;&apos;</OUTCOME>
</VARIABLE>
<VARIABLE TYPE="nature">
<NAME>pixel217</NAME>
<OUTCOME>&apos;\&apos;(-inf-0.209804]\&apos;&apos;</OUTCOME>
<OUTCOME>&apos;\&apos;(0.209804-0.590196]\&apos;&apos;</OUTCOME>
<OUTCOME>&apos;\&apos;(0.590196-0.735294]\&apos;&apos;</OUTCOME>
<OUTCOME>&apos;\&apos;(0.735294-inf)\&apos;&apos;</OUTCOME>
</VARIABLE>
<VARIABLE TYPE="nature">
<NAME>pixel218</NAME>
<OUTCOME>&apos;\&apos;(-inf-0.303922]\&apos;&apos;</OUTCOME>
<OUTCOME>&apos;\&apos;(0.303922-0.601961]\&apos;&apos;</OUTCOME>
<OUTCOME>&apos;\&apos;(0.601961-0.711765]\&apos;&apos;</OUTCOME>
<OUTCOME>&apos;\&apos;(0.711765-inf)\&apos;&apos;</OUTCOME>
</VARIABLE>
<VARIABLE TYPE="nature">
<NAME>pixel219</NAME>
<OUTCOME>&apos;\&apos;(-inf-0.221569]\&apos;&apos;</OUTCOME>
<OUTCOME>&apos;\&apos;(0.221569-0.613725]\&apos;&apos;</OUTCOME>
<OUTCOME>&apos;\&apos;(0.613725-0.723529]\&apos;&apos;</OUTCOME>
<OUTCOME>&apos;\&apos;(0.723529-inf)\&apos;&apos;</OUTCOME>
</VARIABLE>
<VARIABLE TYPE="nature">
<NAME>pixel220</NAME>
<OUTCOME>&apos;\&apos;(-inf-0.354902]\&apos;&apos;</OUTCOME>
<OUTCOME>&apos;\&apos;(0.354902-0.586275]\&apos;&apos;</OUTCOME>
<OUTCOME>&apos;\&apos;(0.586275-0.739216]\&apos;&apos;</OUTCOME>
<OUTCOME>&apos;\&apos;(0.739216-inf)\&apos;&apos;</OUTCOME>
</VARIABLE>
<VARIABLE TYPE="nature">
<NAME>pixel221</NAME>
<OUTCOME>&apos;\&apos;(-inf-0.558824]\&apos;&apos;</OUTCOME>
<OUTCOME>&apos;\&apos;(0.558824-0.747059]\&apos;&apos;</OUTCOME>
<OUTCOME>&apos;\&apos;(0.747059-inf)\&apos;&apos;</OUTCOME>
</VARIABLE>
<VARIABLE TYPE="nature">
<NAME>pixel222</NAME>
<OUTCOME>&apos;\&apos;(-inf-0.468627]\&apos;&apos;</OUTCOME>
<OUTCOME>&apos;\&apos;(0.468627-0.684314]\&apos;&apos;</OUTCOME>
<OUTCOME>&apos;\&apos;(0.684314-inf)\&apos;&apos;</OUTCOME>
</VARIABLE>
<VARIABLE TYPE="nature">
<NAME>pixel223</NAME>
<OUTCOME>&apos;\&apos;(-inf-0.492157]\&apos;&apos;</OUTCOME>
<OUTCOME>&apos;\&apos;(0.492157-0.723529]\&apos;&apos;</OUTCOME>
<OUTCOME>&apos;\&apos;(0.723529-inf)\&apos;&apos;</OUTCOME>
</VARIABLE>
<VARIABLE TYPE="nature">
<NAME>pixel224</NAME>
<OUTCOME>&apos;\&apos;(-inf-0.441176]\&apos;&apos;</OUTCOME>
<OUTCOME>&apos;\&apos;(0.441176-0.684314]\&apos;&apos;</OUTCOME>
<OUTCOME>&apos;\&apos;(0.684314-inf)\&apos;&apos;</OUTCOME>
</VARIABLE>
<VARIABLE TYPE="nature">
<NAME>pixel225</NAME>
<OUTCOME>&apos;\&apos;(-inf-0.417647]\&apos;&apos;</OUTCOME>
<OUTCOME>&apos;\&apos;(0.417647-0.711765]\&apos;&apos;</OUTCOME>
<OUTCOME>&apos;\&apos;(0.711765-inf)\&apos;&apos;</OUTCOME>
</VARIABLE>
<VARIABLE TYPE="nature">
<NAME>pixel226</NAME>
<OUTCOME>&apos;\&apos;(-inf-0.378431]\&apos;&apos;</OUTCOME>
<OUTCOME>&apos;\&apos;(0.378431-0.692157]\&apos;&apos;</OUTCOME>
<OUTCOME>&apos;\&apos;(0.692157-inf)\&apos;&apos;</OUTCOME>
</VARIABLE>
<VARIABLE TYPE="nature">
<NAME>pixel227</NAME>
<OUTCOME>&apos;\&apos;(-inf-0.315686]\&apos;&apos;</OUTCOME>
<OUTCOME>&apos;\&apos;(0.315686-0.609804]\&apos;&apos;</OUTCOME>
<OUTCOME>&apos;\&apos;(0.609804-inf)\&apos;&apos;</OUTCOME>
</VARIABLE>
<VARIABLE TYPE="nature">
<NAME>pixel228</NAME>
<OUTCOME>&apos;\&apos;(-inf-0.570588]\&apos;&apos;</OUTCOME>
<OUTCOME>&apos;\&apos;(0.570588-inf)\&apos;&apos;</OUTCOME>
</VARIABLE>
<VARIABLE TYPE="nature">
<NAME>pixel229</NAME>
<OUTCOME>&apos;\&apos;(-inf-0.503922]\&apos;&apos;</OUTCOME>
<OUTCOME>&apos;\&apos;(0.503922-inf)\&apos;&apos;</OUTCOME>
</VARIABLE>
<VARIABLE TYPE="nature">
<NAME>pixel230</NAME>
<OUTCOME>&apos;\&apos;(-inf-0.484314]\&apos;&apos;</OUTCOME>
<OUTCOME>&apos;\&apos;(0.484314-inf)\&apos;&apos;</OUTCOME>
</VARIABLE>
<VARIABLE TYPE="nature">
<NAME>pixel231</NAME>
<OUTCOME>&apos;\&apos;(-inf-0.445098]\&apos;&apos;</OUTCOME>
<OUTCOME>&apos;\&apos;(0.445098-inf)\&apos;&apos;</OUTCOME>
</VARIABLE>
<VARIABLE TYPE="nature">
<NAME>pixel232</NAME>
<OUTCOME>&apos;\&apos;(-inf-0.021569]\&apos;&apos;</OUTCOME>
<OUTCOME>&apos;\&apos;(0.021569-0.347059]\&apos;&apos;</OUTCOME>
<OUTCOME>&apos;\&apos;(0.347059-0.970588]\&apos;&apos;</OUTCOME>
<OUTCOME>&apos;\&apos;(0.970588-inf)\&apos;&apos;</OUTCOME>
</VARIABLE>
<VARIABLE TYPE="nature">
<NAME>pixel233</NAME>
<OUTCOME>&apos;\&apos;(-inf-0.441176]\&apos;&apos;</OUTCOME>
<OUTCOME>&apos;\&apos;(0.441176-0.970588]\&apos;&apos;</OUTCOME>
<OUTCOME>&apos;\&apos;(0.970588-inf)\&apos;&apos;</OUTCOME>
</VARIABLE>
<VARIABLE TYPE="nature">
<NAME>pixel234</NAME>
<OUTCOME>&apos;\&apos;(-inf-0.44902]\&apos;&apos;</OUTCOME>
<OUTCOME>&apos;\&apos;(0.44902-0.978431]\&apos;&apos;</OUTCOME>
<OUTCOME>&apos;\&apos;(0.978431-inf)\&apos;&apos;</OUTCOME>
</VARIABLE>
<VARIABLE TYPE="nature">
<NAME>pixel235</NAME>
<OUTCOME>&apos;\&apos;(-inf-0.323529]\&apos;&apos;</OUTCOME>
<OUTCOME>&apos;\&apos;(0.323529-0.970588]\&apos;&apos;</OUTCOME>
<OUTCOME>&apos;\&apos;(0.970588-inf)\&apos;&apos;</OUTCOME>
</VARIABLE>
<VARIABLE TYPE="nature">
<NAME>pixel236</NAME>
<OUTCOME>&apos;\&apos;(-inf-0.292157]\&apos;&apos;</OUTCOME>
<OUTCOME>&apos;\&apos;(0.292157-0.966667]\&apos;&apos;</OUTCOME>
<OUTCOME>&apos;\&apos;(0.966667-inf)\&apos;&apos;</OUTCOME>
</VARIABLE>
<VARIABLE TYPE="nature">
<NAME>pixel237</NAME>
<OUTCOME>&apos;\&apos;(-inf-0.166667]\&apos;&apos;</OUTCOME>
<OUTCOME>&apos;\&apos;(0.166667-0.970588]\&apos;&apos;</OUTCOME>
<OUTCOME>&apos;\&apos;(0.970588-inf)\&apos;&apos;</OUTCOME>
</VARIABLE>
<VARIABLE TYPE="nature">
<NAME>pixel238</NAME>
<OUTCOME>&apos;\&apos;(-inf-0.111765]\&apos;&apos;</OUTCOME>
<OUTCOME>&apos;\&apos;(0.111765-0.578431]\&apos;&apos;</OUTCOME>
<OUTCOME>&apos;\&apos;(0.578431-0.943137]\&apos;&apos;</OUTCOME>
<OUTCOME>&apos;\&apos;(0.943137-inf)\&apos;&apos;</OUTCOME>
</VARIABLE>
<VARIABLE TYPE="nature">
<NAME>pixel239</NAME>
<OUTCOME>&apos;\&apos;(-inf-0.029412]\&apos;&apos;</OUTCOME>
<OUTCOME>&apos;\&apos;(0.029412-0.660784]\&apos;&apos;</OUTCOME>
<OUTCOME>&apos;\&apos;(0.660784-0.962745]\&apos;&apos;</OUTCOME>
<OUTCOME>&apos;\&apos;(0.962745-inf)\&apos;&apos;</OUTCOME>
</VARIABLE>
<VARIABLE TYPE="nature">
<NAME>pixel240</NAME>
<OUTCOME>&apos;\&apos;(-inf-0.009804]\&apos;&apos;</OUTCOME>
<OUTCOME>&apos;\&apos;(0.009804-0.182353]\&apos;&apos;</OUTCOME>
<OUTCOME>&apos;\&apos;(0.182353-0.5]\&apos;&apos;</OUTCOME>
<OUTCOME>&apos;\&apos;(0.5-0.935294]\&apos;&apos;</OUTCOME>
<OUTCOME>&apos;\&apos;(0.935294-0.990196]\&apos;&apos;</OUTCOME>
<OUTCOME>&apos;\&apos;(0.990196-inf)\&apos;&apos;</OUTCOME>
</VARIABLE>
<VARIABLE TYPE="nature">
<NAME>pixel241</NAME>
<OUTCOME>&apos;\&apos;(-inf-0.060784]\&apos;&apos;</OUTCOME>
<OUTCOME>&apos;\&apos;(0.060784-0.484314]\&apos;&apos;</OUTCOME>
<OUTCOME>&apos;\&apos;(0.484314-0.939216]\&apos;&apos;</OUTCOME>
<OUTCOME>&apos;\&apos;(0.939216-inf)\&apos;&apos;</OUTCOME>
</VARIABLE>
<VARIABLE TYPE="nature">
<NAME>pixel242</NAME>
<OUTCOME>&apos;\&apos;(-inf-0.131373]\&apos;&apos;</OUTCOME>
<OUTCOME>&apos;\&apos;(0.131373-0.558824]\&apos;&apos;</OUTCOME>
<OUTCOME>&apos;\&apos;(0.558824-0.990196]\&apos;&apos;</OUTCOME>
<OUTCOME>&apos;\&apos;(0.990196-inf)\&apos;&apos;</OUTCOME>
</VARIABLE>
<VARIABLE TYPE="nature">
<NAME>pixel243</NAME>
<OUTCOME>&apos;\&apos;(-inf-0.131373]\&apos;&apos;</OUTCOME>
<OUTCOME>&apos;\&apos;(0.131373-0.601961]\&apos;&apos;</OUTCOME>
<OUTCOME>&apos;\&apos;(0.601961-0.95098]\&apos;&apos;</OUTCOME>
<OUTCOME>&apos;\&apos;(0.95098-inf)\&apos;&apos;</OUTCOME>
</VARIABLE>
<VARIABLE TYPE="nature">
<NAME>pixel244</NAME>
<OUTCOME>&apos;\&apos;(-inf-0.084314]\&apos;&apos;</OUTCOME>
<OUTCOME>&apos;\&apos;(0.084314-0.535294]\&apos;&apos;</OUTCOME>
<OUTCOME>&apos;\&apos;(0.535294-0.966667]\&apos;&apos;</OUTCOME>
<OUTCOME>&apos;\&apos;(0.966667-inf)\&apos;&apos;</OUTCOME>
</VARIABLE>
<VARIABLE TYPE="nature">
<NAME>pixel245</NAME>
<OUTCOME>&apos;\&apos;(-inf-0.547059]\&apos;&apos;</OUTCOME>
<OUTCOME>&apos;\&apos;(0.547059-0.970588]\&apos;&apos;</OUTCOME>
<OUTCOME>&apos;\&apos;(0.970588-inf)\&apos;&apos;</OUTCOME>
</VARIABLE>
<VARIABLE TYPE="nature">
<NAME>pixel246</NAME>
<OUTCOME>&apos;\&apos;(-inf-0.139216]\&apos;&apos;</OUTCOME>
<OUTCOME>&apos;\&apos;(0.139216-0.523529]\&apos;&apos;</OUTCOME>
<OUTCOME>&apos;\&apos;(0.523529-inf)\&apos;&apos;</OUTCOME>
</VARIABLE>
<VARIABLE TYPE="nature">
<NAME>pixel247</NAME>
<OUTCOME>&apos;\&apos;(-inf-0.096078]\&apos;&apos;</OUTCOME>
<OUTCOME>&apos;\&apos;(0.096078-0.390196]\&apos;&apos;</OUTCOME>
<OUTCOME>&apos;\&apos;(0.390196-inf)\&apos;&apos;</OUTCOME>
</VARIABLE>
<VARIABLE TYPE="nature">
<NAME>pixel248</NAME>
<OUTCOME>&apos;\&apos;(-inf-0.154902]\&apos;&apos;</OUTCOME>
<OUTCOME>&apos;\&apos;(0.154902-0.492157]\&apos;&apos;</OUTCOME>
<OUTCOME>&apos;\&apos;(0.492157-inf)\&apos;&apos;</OUTCOME>
</VARIABLE>
<VARIABLE TYPE="nature">
<NAME>pixel249</NAME>
<OUTCOME>&apos;\&apos;(-inf-0.311765]\&apos;&apos;</OUTCOME>
<OUTCOME>&apos;\&apos;(0.311765-0.578431]\&apos;&apos;</OUTCOME>
<OUTCOME>&apos;\&apos;(0.578431-inf)\&apos;&apos;</OUTCOME>
</VARIABLE>
<VARIABLE TYPE="nature">
<NAME>pixel250</NAME>
<OUTCOME>&apos;\&apos;(-inf-0.452941]\&apos;&apos;</OUTCOME>
<OUTCOME>&apos;\&apos;(0.452941-0.672549]\&apos;&apos;</OUTCOME>
<OUTCOME>&apos;\&apos;(0.672549-inf)\&apos;&apos;</OUTCOME>
</VARIABLE>
<VARIABLE TYPE="nature">
<NAME>pixel251</NAME>
<OUTCOME>&apos;\&apos;(-inf-0.1]\&apos;&apos;</OUTCOME>
<OUTCOME>&apos;\&apos;(0.1-0.464706]\&apos;&apos;</OUTCOME>
<OUTCOME>&apos;\&apos;(0.464706-0.668627]\&apos;&apos;</OUTCOME>
<OUTCOME>&apos;\&apos;(0.668627-inf)\&apos;&apos;</OUTCOME>
</VARIABLE>
<VARIABLE TYPE="nature">
<NAME>pixel252</NAME>
<OUTCOME>&apos;\&apos;(-inf-0.296078]\&apos;&apos;</OUTCOME>
<OUTCOME>&apos;\&apos;(0.296078-0.582353]\&apos;&apos;</OUTCOME>
<OUTCOME>&apos;\&apos;(0.582353-0.7]\&apos;&apos;</OUTCOME>
<OUTCOME>&apos;\&apos;(0.7-inf)\&apos;&apos;</OUTCOME>
</VARIABLE>
<VARIABLE TYPE="nature">
<NAME>pixel253</NAME>
<OUTCOME>&apos;\&apos;(-inf-0.456863]\&apos;&apos;</OUTCOME>
<OUTCOME>&apos;\&apos;(0.456863-0.707843]\&apos;&apos;</OUTCOME>
<OUTCOME>&apos;\&apos;(0.707843-inf)\&apos;&apos;</OUTCOME>
</VARIABLE>
<VARIABLE TYPE="nature">
<NAME>pixel254</NAME>
<OUTCOME>&apos;\&apos;(-inf-0.441176]\&apos;&apos;</OUTCOME>
<OUTCOME>&apos;\&apos;(0.441176-0.656863]\&apos;&apos;</OUTCOME>
<OUTCOME>&apos;\&apos;(0.656863-inf)\&apos;&apos;</OUTCOME>
</VARIABLE>
<VARIABLE TYPE="nature">
<NAME>pixel255</NAME>
<OUTCOME>&apos;\&apos;(-inf-0.401961]\&apos;&apos;</OUTCOME>
<OUTCOME>&apos;\&apos;(0.401961-0.676471]\&apos;&apos;</OUTCOME>
<OUTCOME>&apos;\&apos;(0.676471-inf)\&apos;&apos;</OUTCOME>
</VARIABLE>
<VARIABLE TYPE="nature">
<NAME>pixel256</NAME>
<OUTCOME>&apos;\&apos;(-inf-0.44902]\&apos;&apos;</OUTCOME>
<OUTCOME>&apos;\&apos;(0.44902-0.676471]\&apos;&apos;</OUTCOME>
<OUTCOME>&apos;\&apos;(0.676471-0.766667]\&apos;&apos;</OUTCOME>
<OUTCOME>&apos;\&apos;(0.766667-inf)\&apos;&apos;</OUTCOME>
</VARIABLE>
<VARIABLE TYPE="nature">
<NAME>pixel257</NAME>
<OUTCOME>&apos;\&apos;(-inf-0.398039]\&apos;&apos;</OUTCOME>
<OUTCOME>&apos;\&apos;(0.398039-0.601961]\&apos;&apos;</OUTCOME>
<OUTCOME>&apos;\&apos;(0.601961-0.75098]\&apos;&apos;</OUTCOME>
<OUTCOME>&apos;\&apos;(0.75098-inf)\&apos;&apos;</OUTCOME>
</VARIABLE>
<VARIABLE TYPE="nature">
<NAME>pixel258</NAME>
<OUTCOME>&apos;\&apos;(-inf-0.401961]\&apos;&apos;</OUTCOME>
<OUTCOME>&apos;\&apos;(0.401961-0.672549]\&apos;&apos;</OUTCOME>
<OUTCOME>&apos;\&apos;(0.672549-0.782353]\&apos;&apos;</OUTCOME>
<OUTCOME>&apos;\&apos;(0.782353-inf)\&apos;&apos;</OUTCOME>
</VARIABLE>
<VARIABLE TYPE="nature">
<NAME>pixel259</NAME>
<OUTCOME>&apos;\&apos;(-inf-0.441176]\&apos;&apos;</OUTCOME>
<OUTCOME>&apos;\&apos;(0.441176-0.64902]\&apos;&apos;</OUTCOME>
<OUTCOME>&apos;\&apos;(0.64902-0.754902]\&apos;&apos;</OUTCOME>
<OUTCOME>&apos;\&apos;(0.754902-inf)\&apos;&apos;</OUTCOME>
</VARIABLE>
<VARIABLE TYPE="nature">
<NAME>pixel260</NAME>
<OUTCOME>&apos;\&apos;(-inf-0.484314]\&apos;&apos;</OUTCOME>
<OUTCOME>&apos;\&apos;(0.484314-0.692157]\&apos;&apos;</OUTCOME>
<OUTCOME>&apos;\&apos;(0.692157-inf)\&apos;&apos;</OUTCOME>
</VARIABLE>
<VARIABLE TYPE="nature">
<NAME>pixel261</NAME>
<OUTCOME>&apos;\&apos;(-inf-0.547059]\&apos;&apos;</OUTCOME>
<OUTCOME>&apos;\&apos;(0.547059-0.711765]\&apos;&apos;</OUTCOME>
<OUTCOME>&apos;\&apos;(0.711765-inf)\&apos;&apos;</OUTCOME>
</VARIABLE>
<VARIABLE TYPE="nature">
<NAME>pixel262</NAME>
<OUTCOME>&apos;\&apos;(-inf-0.468627]\&apos;&apos;</OUTCOME>
<OUTCOME>&apos;\&apos;(0.468627-0.641176]\&apos;&apos;</OUTCOME>
<OUTCOME>&apos;\&apos;(0.641176-0.743137]\&apos;&apos;</OUTCOME>
<OUTCOME>&apos;\&apos;(0.743137-inf)\&apos;&apos;</OUTCOME>
</VARIABLE>
<VARIABLE TYPE="nature">
<NAME>pixel263</NAME>
<OUTCOME>&apos;\&apos;(-inf-0.472549]\&apos;&apos;</OUTCOME>
<OUTCOME>&apos;\&apos;(0.472549-0.707843]\&apos;&apos;</OUTCOME>
<OUTCOME>&apos;\&apos;(0.707843-inf)\&apos;&apos;</OUTCOME>
</VARIABLE>
<VARIABLE TYPE="nature">
<NAME>pixel264</NAME>
<OUTCOME>&apos;\&apos;(-inf-0.5]\&apos;&apos;</OUTCOME>
<OUTCOME>&apos;\&apos;(0.5-0.656863]\&apos;&apos;</OUTCOME>
<OUTCOME>&apos;\&apos;(0.656863-0.735294]\&apos;&apos;</OUTCOME>
<OUTCOME>&apos;\&apos;(0.735294-inf)\&apos;&apos;</OUTCOME>
</VARIABLE>
<VARIABLE TYPE="nature">
<NAME>pixel265</NAME>
<OUTCOME>&apos;\&apos;(-inf-0.503922]\&apos;&apos;</OUTCOME>
<OUTCOME>&apos;\&apos;(0.503922-0.652941]\&apos;&apos;</OUTCOME>
<OUTCOME>&apos;\&apos;(0.652941-0.739216]\&apos;&apos;</OUTCOME>
<OUTCOME>&apos;\&apos;(0.739216-inf)\&apos;&apos;</OUTCOME>
</VARIABLE>
<VARIABLE TYPE="nature">
<NAME>pixel266</NAME>
<OUTCOME>&apos;\&apos;(-inf-0.496078]\&apos;&apos;</OUTCOME>
<OUTCOME>&apos;\&apos;(0.496078-0.641176]\&apos;&apos;</OUTCOME>
<OUTCOME>&apos;\&apos;(0.641176-0.77451]\&apos;&apos;</OUTCOME>
<OUTCOME>&apos;\&apos;(0.77451-inf)\&apos;&apos;</OUTCOME>
</VARIABLE>
<VARIABLE TYPE="nature">
<NAME>pixel267</NAME>
<OUTCOME>&apos;\&apos;(-inf-0.511765]\&apos;&apos;</OUTCOME>
<OUTCOME>&apos;\&apos;(0.511765-0.692157]\&apos;&apos;</OUTCOME>
<OUTCOME>&apos;\&apos;(0.692157-inf)\&apos;&apos;</OUTCOME>
</VARIABLE>
<VARIABLE TYPE="nature">
<NAME>pixel268</NAME>
<OUTCOME>&apos;\&apos;(-inf-0.433333]\&apos;&apos;</OUTCOME>
<OUTCOME>&apos;\&apos;(0.433333-0.652941]\&apos;&apos;</OUTCOME>
<OUTCOME>&apos;\&apos;(0.652941-inf)\&apos;&apos;</OUTCOME>
</VARIABLE>
<VARIABLE TYPE="nature">
<NAME>pixel269</NAME>
<OUTCOME>&apos;\&apos;(-inf-0.421569]\&apos;&apos;</OUTCOME>
<OUTCOME>&apos;\&apos;(0.421569-0.590196]\&apos;&apos;</OUTCOME>
<OUTCOME>&apos;\&apos;(0.590196-0.758824]\&apos;&apos;</OUTCOME>
<OUTCOME>&apos;\&apos;(0.758824-inf)\&apos;&apos;</OUTCOME>
</VARIABLE>
<VARIABLE TYPE="nature">
<NAME>pixel270</NAME>
<OUTCOME>&apos;\&apos;(-inf-0.468627]\&apos;&apos;</OUTCOME>
<OUTCOME>&apos;\&apos;(0.468627-0.672549]\&apos;&apos;</OUTCOME>
<OUTCOME>&apos;\&apos;(0.672549-inf)\&apos;&apos;</OUTCOME>
</VARIABLE>
<VARIABLE TYPE="nature">
<NAME>pixel271</NAME>
<OUTCOME>&apos;\&apos;(-inf-0.456863]\&apos;&apos;</OUTCOME>
<OUTCOME>&apos;\&apos;(0.456863-0.637255]\&apos;&apos;</OUTCOME>
<OUTCOME>&apos;\&apos;(0.637255-inf)\&apos;&apos;</OUTCOME>
</VARIABLE>
<VARIABLE TYPE="nature">
<NAME>pixel272</NAME>
<OUTCOME>&apos;\&apos;(-inf-0.335294]\&apos;&apos;</OUTCOME>
<OUTCOME>&apos;\&apos;(0.335294-0.515686]\&apos;&apos;</OUTCOME>
<OUTCOME>&apos;\&apos;(0.515686-0.715686]\&apos;&apos;</OUTCOME>
<OUTCOME>&apos;\&apos;(0.715686-inf)\&apos;&apos;</OUTCOME>
</VARIABLE>
<VARIABLE TYPE="nature">
<NAME>pixel273</NAME>
<OUTCOME>&apos;\&apos;(-inf-0.476471]\&apos;&apos;</OUTCOME>
<OUTCOME>&apos;\&apos;(0.476471-0.782353]\&apos;&apos;</OUTCOME>
<OUTCOME>&apos;\&apos;(0.782353-inf)\&apos;&apos;</OUTCOME>
</VARIABLE>
<VARIABLE TYPE="nature">
<NAME>pixel274</NAME>
<OUTCOME>&apos;\&apos;(-inf-0.421569]\&apos;&apos;</OUTCOME>
<OUTCOME>&apos;\&apos;(0.421569-0.770588]\&apos;&apos;</OUTCOME>
<OUTCOME>&apos;\&apos;(0.770588-inf)\&apos;&apos;</OUTCOME>
</VARIABLE>
<VARIABLE TYPE="nature">
<NAME>pixel275</NAME>
<OUTCOME>&apos;\&apos;(-inf-0.347059]\&apos;&apos;</OUTCOME>
<OUTCOME>&apos;\&apos;(0.347059-0.684314]\&apos;&apos;</OUTCOME>
<OUTCOME>&apos;\&apos;(0.684314-inf)\&apos;&apos;</OUTCOME>
</VARIABLE>
<VARIABLE TYPE="nature">
<NAME>pixel276</NAME>
<OUTCOME>&apos;\&apos;(-inf-0.280392]\&apos;&apos;</OUTCOME>
<OUTCOME>&apos;\&apos;(0.280392-0.570588]\&apos;&apos;</OUTCOME>
<OUTCOME>&apos;\&apos;(0.570588-inf)\&apos;&apos;</OUTCOME>
</VARIABLE>
<VARIABLE TYPE="nature">
<NAME>pixel277</NAME>
<OUTCOME>&apos;\&apos;(-inf-0.55098]\&apos;&apos;</OUTCOME>
<OUTCOME>&apos;\&apos;(0.55098-inf)\&apos;&apos;</OUTCOME>
</VARIABLE>
<VARIABLE TYPE="nature">
<NAME>pixel278</NAME>
<OUTCOME>&apos;\&apos;(-inf-0.44902]\&apos;&apos;</OUTCOME>
<OUTCOME>&apos;\&apos;(0.44902-inf)\&apos;&apos;</OUTCOME>
</VARIABLE>
<VARIABLE TYPE="nature">
<NAME>pixel279</NAME>
<OUTCOME>&apos;\&apos;(-inf-0.464706]\&apos;&apos;</OUTCOME>
<OUTCOME>&apos;\&apos;(0.464706-inf)\&apos;&apos;</OUTCOME>
</VARIABLE>
<VARIABLE TYPE="nature">
<NAME>pixel280</NAME>
<OUTCOME>&apos;\&apos;(-inf-0.303922]\&apos;&apos;</OUTCOME>
<OUTCOME>&apos;\&apos;(0.303922-inf)\&apos;&apos;</OUTCOME>
</VARIABLE>
<VARIABLE TYPE="nature">
<NAME>pixel281</NAME>
<OUTCOME>&apos;\&apos;(-inf-0.327451]\&apos;&apos;</OUTCOME>
<OUTCOME>&apos;\&apos;(0.327451-0.982353]\&apos;&apos;</OUTCOME>
<OUTCOME>&apos;\&apos;(0.982353-inf)\&apos;&apos;</OUTCOME>
</VARIABLE>
<VARIABLE TYPE="nature">
<NAME>pixel282</NAME>
<OUTCOME>&apos;\&apos;(-inf-0.343137]\&apos;&apos;</OUTCOME>
<OUTCOME>&apos;\&apos;(0.343137-0.978431]\&apos;&apos;</OUTCOME>
<OUTCOME>&apos;\&apos;(0.978431-inf)\&apos;&apos;</OUTCOME>
</VARIABLE>
<VARIABLE TYPE="nature">
<NAME>pixel283</NAME>
<OUTCOME>&apos;\&apos;(-inf-0.386275]\&apos;&apos;</OUTCOME>
<OUTCOME>&apos;\&apos;(0.386275-0.954902]\&apos;&apos;</OUTCOME>
<OUTCOME>&apos;\&apos;(0.954902-inf)\&apos;&apos;</OUTCOME>
</VARIABLE>
<VARIABLE TYPE="nature">
<NAME>pixel284</NAME>
<OUTCOME>&apos;\&apos;(-inf-0.272549]\&apos;&apos;</OUTCOME>
<OUTCOME>&apos;\&apos;(0.272549-0.970588]\&apos;&apos;</OUTCOME>
<OUTCOME>&apos;\&apos;(0.970588-inf)\&apos;&apos;</OUTCOME>
</VARIABLE>
<VARIABLE TYPE="nature">
<NAME>pixel285</NAME>
<OUTCOME>&apos;\&apos;(-inf-0.276471]\&apos;&apos;</OUTCOME>
<OUTCOME>&apos;\&apos;(0.276471-0.970588]\&apos;&apos;</OUTCOME>
<OUTCOME>&apos;\&apos;(0.970588-inf)\&apos;&apos;</OUTCOME>
</VARIABLE>
<VARIABLE TYPE="nature">
<NAME>pixel286</NAME>
<OUTCOME>&apos;\&apos;(-inf-0.052941]\&apos;&apos;</OUTCOME>
<OUTCOME>&apos;\&apos;(0.052941-0.605882]\&apos;&apos;</OUTCOME>
<OUTCOME>&apos;\&apos;(0.605882-0.958824]\&apos;&apos;</OUTCOME>
<OUTCOME>&apos;\&apos;(0.958824-inf)\&apos;&apos;</OUTCOME>
</VARIABLE>
<VARIABLE TYPE="nature">
<NAME>pixel287</NAME>
<OUTCOME>&apos;\&apos;(-inf-0.131373]\&apos;&apos;</OUTCOME>
<OUTCOME>&apos;\&apos;(0.131373-0.668627]\&apos;&apos;</OUTCOME>
<OUTCOME>&apos;\&apos;(0.668627-0.970588]\&apos;&apos;</OUTCOME>
<OUTCOME>&apos;\&apos;(0.970588-inf)\&apos;&apos;</OUTCOME>
</VARIABLE>
<VARIABLE TYPE="nature">
<NAME>pixel288</NAME>
<OUTCOME>&apos;\&apos;(-inf-0.084314]\&apos;&apos;</OUTCOME>
<OUTCOME>&apos;\&apos;(0.084314-0.523529]\&apos;&apos;</OUTCOME>
<OUTCOME>&apos;\&apos;(0.523529-0.939216]\&apos;&apos;</OUTCOME>
<OUTCOME>&apos;\&apos;(0.939216-inf)\&apos;&apos;</OUTCOME>
</VARIABLE>
<VARIABLE TYPE="nature">
<NAME>pixel289</NAME>
<OUTCOME>&apos;\&apos;(-inf-0.060784]\&apos;&apos;</OUTCOME>
<OUTCOME>&apos;\&apos;(0.060784-0.198039]\&apos;&apos;</OUTCOME>
<OUTCOME>&apos;\&apos;(0.198039-0.770588]\&apos;&apos;</OUTCOME>
<OUTCOME>&apos;\&apos;(0.770588-0.990196]\&apos;&apos;</OUTCOME>
<OUTCOME>&apos;\&apos;(0.990196-inf)\&apos;&apos;</OUTCOME>
</VARIABLE>
<VARIABLE TYPE="nature">
<NAME>pixel290</NAME>
<OUTCOME>&apos;\&apos;(-inf-0.139216]\&apos;&apos;</OUTCOME>
<OUTCOME>&apos;\&apos;(0.139216-0.539216]\&apos;&apos;</OUTCOME>
<OUTCOME>&apos;\&apos;(0.539216-0.935294]\&apos;&apos;</OUTCOME>
<OUTCOME>&apos;\&apos;(0.935294-inf)\&apos;&apos;</OUTCOME>
</VARIABLE>
<VARIABLE TYPE="nature">
<NAME>pixel291</NAME>
<OUTCOME>&apos;\&apos;(-inf-0.076471]\&apos;&apos;</OUTCOME>
<OUTCOME>&apos;\&apos;(0.076471-0.319608]\&apos;&apos;</OUTCOME>
<OUTCOME>&apos;\&apos;(0.319608-0.962745]\&apos;&apos;</OUTCOME>
<OUTCOME>&apos;\&apos;(0.962745-inf)\&apos;&apos;</OUTCOME>
</VARIABLE>
<VARIABLE TYPE="nature">
<NAME>pixel292</NAME>
<OUTCOME>&apos;\&apos;(-inf-0.127451]\&apos;&apos;</OUTCOME>
<OUTCOME>&apos;\&apos;(0.127451-0.527451]\&apos;&apos;</OUTCOME>
<OUTCOME>&apos;\&apos;(0.527451-0.990196]\&apos;&apos;</OUTCOME>
<OUTCOME>&apos;\&apos;(0.990196-inf)\&apos;&apos;</OUTCOME>
</VARIABLE>
<VARIABLE TYPE="nature">
<NAME>pixel293</NAME>
<OUTCOME>&apos;\&apos;(-inf-0.5]\&apos;&apos;</OUTCOME>
<OUTCOME>&apos;\&apos;(0.5-0.990196]\&apos;&apos;</OUTCOME>
<OUTCOME>&apos;\&apos;(0.990196-inf)\&apos;&apos;</OUTCOME>
</VARIABLE>
<VARIABLE TYPE="nature">
<NAME>pixel294</NAME>
<OUTCOME>&apos;\&apos;(-inf-0.037255]\&apos;&apos;</OUTCOME>
<OUTCOME>&apos;\&apos;(0.037255-0.484314]\&apos;&apos;</OUTCOME>
<OUTCOME>&apos;\&apos;(0.484314-0.778431]\&apos;&apos;</OUTCOME>
<OUTCOME>&apos;\&apos;(0.778431-inf)\&apos;&apos;</OUTCOME>
</VARIABLE>
<VARIABLE TYPE="nature">
<NAME>pixel295</NAME>
<OUTCOME>&apos;\&apos;(-inf-0.072549]\&apos;&apos;</OUTCOME>
<OUTCOME>&apos;\&apos;(0.072549-0.378431]\&apos;&apos;</OUTCOME>
<OUTCOME>&apos;\&apos;(0.378431-inf)\&apos;&apos;</OUTCOME>
</VARIABLE>
<VARIABLE TYPE="nature">
<NAME>pixel296</NAME>
<OUTCOME>&apos;\&apos;(-inf-0.460784]\&apos;&apos;</OUTCOME>
<OUTCOME>&apos;\&apos;(0.460784-inf)\&apos;&apos;</OUTCOME>
</VARIABLE>
<VARIABLE TYPE="nature">
<NAME>pixel297</NAME>
<OUTCOME>&apos;\&apos;(-inf-0.358824]\&apos;&apos;</OUTCOME>
<OUTCOME>&apos;\&apos;(0.358824-0.488235]\&apos;&apos;</OUTCOME>
<OUTCOME>&apos;\&apos;(0.488235-inf)\&apos;&apos;</OUTCOME>
</VARIABLE>
<VARIABLE TYPE="nature">
<NAME>pixel298</NAME>
<OUTCOME>&apos;\&apos;(-inf-0.323529]\&apos;&apos;</OUTCOME>
<OUTCOME>&apos;\&apos;(0.323529-0.511765]\&apos;&apos;</OUTCOME>
<OUTCOME>&apos;\&apos;(0.511765-0.684314]\&apos;&apos;</OUTCOME>
<OUTCOME>&apos;\&apos;(0.684314-inf)\&apos;&apos;</OUTCOME>
</VARIABLE>
<VARIABLE TYPE="nature">
<NAME>pixel299</NAME>
<OUTCOME>&apos;\&apos;(-inf-0.307843]\&apos;&apos;</OUTCOME>
<OUTCOME>&apos;\&apos;(0.307843-0.5]\&apos;&apos;</OUTCOME>
<OUTCOME>&apos;\&apos;(0.5-0.703922]\&apos;&apos;</OUTCOME>
<OUTCOME>&apos;\&apos;(0.703922-inf)\&apos;&apos;</OUTCOME>
</VARIABLE>
<VARIABLE TYPE="nature">
<NAME>pixel300</NAME>
<OUTCOME>&apos;\&apos;(-inf-0.394118]\&apos;&apos;</OUTCOME>
<OUTCOME>&apos;\&apos;(0.394118-0.723529]\&apos;&apos;</OUTCOME>
<OUTCOME>&apos;\&apos;(0.723529-inf)\&apos;&apos;</OUTCOME>
</VARIABLE>
<VARIABLE TYPE="nature">
<NAME>pixel301</NAME>
<OUTCOME>&apos;\&apos;(-inf-0.292157]\&apos;&apos;</OUTCOME>
<OUTCOME>&apos;\&apos;(0.292157-0.531373]\&apos;&apos;</OUTCOME>
<OUTCOME>&apos;\&apos;(0.531373-0.711765]\&apos;&apos;</OUTCOME>
<OUTCOME>&apos;\&apos;(0.711765-inf)\&apos;&apos;</OUTCOME>
</VARIABLE>
<VARIABLE TYPE="nature">
<NAME>pixel302</NAME>
<OUTCOME>&apos;\&apos;(-inf-0.511765]\&apos;&apos;</OUTCOME>
<OUTCOME>&apos;\&apos;(0.511765-0.758824]\&apos;&apos;</OUTCOME>
<OUTCOME>&apos;\&apos;(0.758824-inf)\&apos;&apos;</OUTCOME>
</VARIABLE>
<VARIABLE TYPE="nature">
<NAME>pixel303</NAME>
<OUTCOME>&apos;\&apos;(-inf-0.527451]\&apos;&apos;</OUTCOME>
<OUTCOME>&apos;\&apos;(0.527451-0.77451]\&apos;&apos;</OUTCOME>
<OUTCOME>&apos;\&apos;(0.77451-inf)\&apos;&apos;</OUTCOME>
</VARIABLE>
<VARIABLE TYPE="nature">
<NAME>pixel304</NAME>
<OUTCOME>&apos;\&apos;(-inf-0.44902]\&apos;&apos;</OUTCOME>
<OUTCOME>&apos;\&apos;(0.44902-0.688235]\&apos;&apos;</OUTCOME>
<OUTCOME>&apos;\&apos;(0.688235-inf)\&apos;&apos;</OUTCOME>
</VARIABLE>
<VARIABLE TYPE="nature">
<NAME>pixel305</NAME>
<OUTCOME>&apos;\&apos;(-inf-0.515686]\&apos;&apos;</OUTCOME>
<OUTCOME>&apos;\&apos;(0.515686-0.723529]\&apos;&apos;</OUTCOME>
<OUTCOME>&apos;\&apos;(0.723529-inf)\&apos;&apos;</OUTCOME>
</VARIABLE>
<VARIABLE TYPE="nature">
<NAME>pixel306</NAME>
<OUTCOME>&apos;\&apos;(-inf-0.452941]\&apos;&apos;</OUTCOME>
<OUTCOME>&apos;\&apos;(0.452941-0.688235]\&apos;&apos;</OUTCOME>
<OUTCOME>&apos;\&apos;(0.688235-inf)\&apos;&apos;</OUTCOME>
</VARIABLE>
<VARIABLE TYPE="nature">
<NAME>pixel307</NAME>
<OUTCOME>&apos;\&apos;(-inf-0.413725]\&apos;&apos;</OUTCOME>
<OUTCOME>&apos;\&apos;(0.413725-0.605882]\&apos;&apos;</OUTCOME>
<OUTCOME>&apos;\&apos;(0.605882-0.727451]\&apos;&apos;</OUTCOME>
<OUTCOME>&apos;\&apos;(0.727451-inf)\&apos;&apos;</OUTCOME>
</VARIABLE>
<VARIABLE TYPE="nature">
<NAME>pixel308</NAME>
<OUTCOME>&apos;\&apos;(-inf-0.452941]\&apos;&apos;</OUTCOME>
<OUTCOME>&apos;\&apos;(0.452941-0.613725]\&apos;&apos;</OUTCOME>
<OUTCOME>&apos;\&apos;(0.613725-0.735294]\&apos;&apos;</OUTCOME>
<OUTCOME>&apos;\&apos;(0.735294-inf)\&apos;&apos;</OUTCOME>
</VARIABLE>
<VARIABLE TYPE="nature">
<NAME>pixel309</NAME>
<OUTCOME>&apos;\&apos;(-inf-0.535294]\&apos;&apos;</OUTCOME>
<OUTCOME>&apos;\&apos;(0.535294-0.605882]\&apos;&apos;</OUTCOME>
<OUTCOME>&apos;\&apos;(0.605882-0.75098]\&apos;&apos;</OUTCOME>
<OUTCOME>&apos;\&apos;(0.75098-inf)\&apos;&apos;</OUTCOME>
</VARIABLE>
<VARIABLE TYPE="nature">
<NAME>pixel310</NAME>
<OUTCOME>&apos;\&apos;(-inf-0.515686]\&apos;&apos;</OUTCOME>
<OUTCOME>&apos;\&apos;(0.515686-0.601961]\&apos;&apos;</OUTCOME>
<OUTCOME>&apos;\&apos;(0.601961-0.758824]\&apos;&apos;</OUTCOME>
<OUTCOME>&apos;\&apos;(0.758824-inf)\&apos;&apos;</OUTCOME>
</VARIABLE>
<VARIABLE TYPE="nature">
<NAME>pixel311</NAME>
<OUTCOME>&apos;\&apos;(-inf-0.503922]\&apos;&apos;</OUTCOME>
<OUTCOME>&apos;\&apos;(0.503922-0.652941]\&apos;&apos;</OUTCOME>
<OUTCOME>&apos;\&apos;(0.652941-0.731373]\&apos;&apos;</OUTCOME>
<OUTCOME>&apos;\&apos;(0.731373-inf)\&apos;&apos;</OUTCOME>
</VARIABLE>
<VARIABLE TYPE="nature">
<NAME>pixel312</NAME>
<OUTCOME>&apos;\&apos;(-inf-0.492157]\&apos;&apos;</OUTCOME>
<OUTCOME>&apos;\&apos;(0.492157-0.617647]\&apos;&apos;</OUTCOME>
<OUTCOME>&apos;\&apos;(0.617647-0.747059]\&apos;&apos;</OUTCOME>
<OUTCOME>&apos;\&apos;(0.747059-inf)\&apos;&apos;</OUTCOME>
</VARIABLE>
<VARIABLE TYPE="nature">
<NAME>pixel313</NAME>
<OUTCOME>&apos;\&apos;(-inf-0.547059]\&apos;&apos;</OUTCOME>
<OUTCOME>&apos;\&apos;(0.547059-0.735294]\&apos;&apos;</OUTCOME>
<OUTCOME>&apos;\&apos;(0.735294-inf)\&apos;&apos;</OUTCOME>
</VARIABLE>
<VARIABLE TYPE="nature">
<NAME>pixel314</NAME>
<OUTCOME>&apos;\&apos;(-inf-0.484314]\&apos;&apos;</OUTCOME>
<OUTCOME>&apos;\&apos;(0.484314-0.652941]\&apos;&apos;</OUTCOME>
<OUTCOME>&apos;\&apos;(0.652941-0.735294]\&apos;&apos;</OUTCOME>
<OUTCOME>&apos;\&apos;(0.735294-inf)\&apos;&apos;</OUTCOME>
</VARIABLE>
<VARIABLE TYPE="nature">
<NAME>pixel315</NAME>
<OUTCOME>&apos;\&apos;(-inf-0.460784]\&apos;&apos;</OUTCOME>
<OUTCOME>&apos;\&apos;(0.460784-0.656863]\&apos;&apos;</OUTCOME>
<OUTCOME>&apos;\&apos;(0.656863-0.758824]\&apos;&apos;</OUTCOME>
<OUTCOME>&apos;\&apos;(0.758824-inf)\&apos;&apos;</OUTCOME>
</VARIABLE>
<VARIABLE TYPE="nature">
<NAME>pixel316</NAME>
<OUTCOME>&apos;\&apos;(-inf-0.55098]\&apos;&apos;</OUTCOME>
<OUTCOME>&apos;\&apos;(0.55098-0.739216]\&apos;&apos;</OUTCOME>
<OUTCOME>&apos;\&apos;(0.739216-inf)\&apos;&apos;</OUTCOME>
</VARIABLE>
<VARIABLE TYPE="nature">
<NAME>pixel317</NAME>
<OUTCOME>&apos;\&apos;(-inf-0.55098]\&apos;&apos;</OUTCOME>
<OUTCOME>&apos;\&apos;(0.55098-0.723529]\&apos;&apos;</OUTCOME>
<OUTCOME>&apos;\&apos;(0.723529-inf)\&apos;&apos;</OUTCOME>
</VARIABLE>
<VARIABLE TYPE="nature">
<NAME>pixel318</NAME>
<OUTCOME>&apos;\&apos;(-inf-0.37451]\&apos;&apos;</OUTCOME>
<OUTCOME>&apos;\&apos;(0.37451-0.672549]\&apos;&apos;</OUTCOME>
<OUTCOME>&apos;\&apos;(0.672549-inf)\&apos;&apos;</OUTCOME>
</VARIABLE>
<VARIABLE TYPE="nature">
<NAME>pixel319</NAME>
<OUTCOME>&apos;\&apos;(-inf-0.366667]\&apos;&apos;</OUTCOME>
<OUTCOME>&apos;\&apos;(0.366667-0.664706]\&apos;&apos;</OUTCOME>
<OUTCOME>&apos;\&apos;(0.664706-inf)\&apos;&apos;</OUTCOME>
</VARIABLE>
<VARIABLE TYPE="nature">
<NAME>pixel320</NAME>
<OUTCOME>&apos;\&apos;(-inf-0.44902]\&apos;&apos;</OUTCOME>
<OUTCOME>&apos;\&apos;(0.44902-0.711765]\&apos;&apos;</OUTCOME>
<OUTCOME>&apos;\&apos;(0.711765-inf)\&apos;&apos;</OUTCOME>
</VARIABLE>
<VARIABLE TYPE="nature">
<NAME>pixel321</NAME>
<OUTCOME>&apos;\&apos;(-inf-0.472549]\&apos;&apos;</OUTCOME>
<OUTCOME>&apos;\&apos;(0.472549-0.711765]\&apos;&apos;</OUTCOME>
<OUTCOME>&apos;\&apos;(0.711765-inf)\&apos;&apos;</OUTCOME>
</VARIABLE>
<VARIABLE TYPE="nature">
<NAME>pixel322</NAME>
<OUTCOME>&apos;\&apos;(-inf-0.445098]\&apos;&apos;</OUTCOME>
<OUTCOME>&apos;\&apos;(0.445098-0.696078]\&apos;&apos;</OUTCOME>
<OUTCOME>&apos;\&apos;(0.696078-inf)\&apos;&apos;</OUTCOME>
</VARIABLE>
<VARIABLE TYPE="nature">
<NAME>pixel323</NAME>
<OUTCOME>&apos;\&apos;(-inf-0.445098]\&apos;&apos;</OUTCOME>
<OUTCOME>&apos;\&apos;(0.445098-0.696078]\&apos;&apos;</OUTCOME>
<OUTCOME>&apos;\&apos;(0.696078-inf)\&apos;&apos;</OUTCOME>
</VARIABLE>
<VARIABLE TYPE="nature">
<NAME>pixel324</NAME>
<OUTCOME>&apos;\&apos;(-inf-0.296078]\&apos;&apos;</OUTCOME>
<OUTCOME>&apos;\&apos;(0.296078-0.511765]\&apos;&apos;</OUTCOME>
<OUTCOME>&apos;\&apos;(0.511765-inf)\&apos;&apos;</OUTCOME>
</VARIABLE>
<VARIABLE TYPE="nature">
<NAME>pixel325</NAME>
<OUTCOME>&apos;\&apos;(-inf-0.288235]\&apos;&apos;</OUTCOME>
<OUTCOME>&apos;\&apos;(0.288235-0.55098]\&apos;&apos;</OUTCOME>
<OUTCOME>&apos;\&apos;(0.55098-inf)\&apos;&apos;</OUTCOME>
</VARIABLE>
<VARIABLE TYPE="nature">
<NAME>pixel326</NAME>
<OUTCOME>&apos;\&apos;(-inf-0.433333]\&apos;&apos;</OUTCOME>
<OUTCOME>&apos;\&apos;(0.433333-inf)\&apos;&apos;</OUTCOME>
</VARIABLE>
<VARIABLE TYPE="nature">
<NAME>pixel327</NAME>
<OUTCOME>&apos;\&apos;(-inf-0.452941]\&apos;&apos;</OUTCOME>
<OUTCOME>&apos;\&apos;(0.452941-inf)\&apos;&apos;</OUTCOME>
</VARIABLE>
<VARIABLE TYPE="nature">
<NAME>pixel328</NAME>
<OUTCOME>&apos;\&apos;(-inf-0.02549]\&apos;&apos;</OUTCOME>
<OUTCOME>&apos;\&apos;(0.02549-0.303922]\&apos;&apos;</OUTCOME>
<OUTCOME>&apos;\&apos;(0.303922-0.990196]\&apos;&apos;</OUTCOME>
<OUTCOME>&apos;\&apos;(0.990196-inf)\&apos;&apos;</OUTCOME>
</VARIABLE>
<VARIABLE TYPE="nature">
<NAME>pixel329</NAME>
<OUTCOME>&apos;\&apos;(-inf-0.398039]\&apos;&apos;</OUTCOME>
<OUTCOME>&apos;\&apos;(0.398039-0.982353]\&apos;&apos;</OUTCOME>
<OUTCOME>&apos;\&apos;(0.982353-inf)\&apos;&apos;</OUTCOME>
</VARIABLE>
<VARIABLE TYPE="nature">
<NAME>pixel330</NAME>
<OUTCOME>&apos;\&apos;(-inf-0.292157]\&apos;&apos;</OUTCOME>
<OUTCOME>&apos;\&apos;(0.292157-0.978431]\&apos;&apos;</OUTCOME>
<OUTCOME>&apos;\&apos;(0.978431-inf)\&apos;&apos;</OUTCOME>
</VARIABLE>
<VARIABLE TYPE="nature">
<NAME>pixel331</NAME>
<OUTCOME>&apos;\&apos;(-inf-0.335294]\&apos;&apos;</OUTCOME>
<OUTCOME>&apos;\&apos;(0.335294-0.943137]\&apos;&apos;</OUTCOME>
<OUTCOME>&apos;\&apos;(0.943137-inf)\&apos;&apos;</OUTCOME>
</VARIABLE>
<VARIABLE TYPE="nature">
<NAME>pixel332</NAME>
<OUTCOME>&apos;\&apos;(-inf-0.276471]\&apos;&apos;</OUTCOME>
<OUTCOME>&apos;\&apos;(0.276471-0.954902]\&apos;&apos;</OUTCOME>
<OUTCOME>&apos;\&apos;(0.954902-inf)\&apos;&apos;</OUTCOME>
</VARIABLE>
<VARIABLE TYPE="nature">
<NAME>pixel333</NAME>
<OUTCOME>&apos;\&apos;(-inf-0.288235]\&apos;&apos;</OUTCOME>
<OUTCOME>&apos;\&apos;(0.288235-0.954902]\&apos;&apos;</OUTCOME>
<OUTCOME>&apos;\&apos;(0.954902-inf)\&apos;&apos;</OUTCOME>
</VARIABLE>
<VARIABLE TYPE="nature">
<NAME>pixel334</NAME>
<OUTCOME>&apos;\&apos;(-inf-0.111765]\&apos;&apos;</OUTCOME>
<OUTCOME>&apos;\&apos;(0.111765-0.594118]\&apos;&apos;</OUTCOME>
<OUTCOME>&apos;\&apos;(0.594118-0.966667]\&apos;&apos;</OUTCOME>
<OUTCOME>&apos;\&apos;(0.966667-inf)\&apos;&apos;</OUTCOME>
</VARIABLE>
<VARIABLE TYPE="nature">
<NAME>pixel335</NAME>
<OUTCOME>&apos;\&apos;(-inf-0.103922]\&apos;&apos;</OUTCOME>
<OUTCOME>&apos;\&apos;(0.103922-0.688235]\&apos;&apos;</OUTCOME>
<OUTCOME>&apos;\&apos;(0.688235-0.970588]\&apos;&apos;</OUTCOME>
<OUTCOME>&apos;\&apos;(0.970588-inf)\&apos;&apos;</OUTCOME>
</VARIABLE>
<VARIABLE TYPE="nature">
<NAME>pixel336</NAME>
<OUTCOME>&apos;\&apos;(-inf-0.072549]\&apos;&apos;</OUTCOME>
<OUTCOME>&apos;\&apos;(0.072549-0.507843]\&apos;&apos;</OUTCOME>
<OUTCOME>&apos;\&apos;(0.507843-0.935294]\&apos;&apos;</OUTCOME>
<OUTCOME>&apos;\&apos;(0.935294-inf)\&apos;&apos;</OUTCOME>
</VARIABLE>
<VARIABLE TYPE="nature">
<NAME>pixel337</NAME>
<OUTCOME>&apos;\&apos;(-inf-0.166667]\&apos;&apos;</OUTCOME>
<OUTCOME>&apos;\&apos;(0.166667-0.676471]\&apos;&apos;</OUTCOME>
<OUTCOME>&apos;\&apos;(0.676471-0.986275]\&apos;&apos;</OUTCOME>
<OUTCOME>&apos;\&apos;(0.986275-inf)\&apos;&apos;</OUTCOME>
</VARIABLE>
<VARIABLE TYPE="nature">
<NAME>pixel338</NAME>
<OUTCOME>&apos;\&apos;(-inf-0.15098]\&apos;&apos;</OUTCOME>
<OUTCOME>&apos;\&apos;(0.15098-0.55098]\&apos;&apos;</OUTCOME>
<OUTCOME>&apos;\&apos;(0.55098-0.958824]\&apos;&apos;</OUTCOME>
<OUTCOME>&apos;\&apos;(0.958824-inf)\&apos;&apos;</OUTCOME>
</VARIABLE>
<VARIABLE TYPE="nature">
<NAME>pixel339</NAME>
<OUTCOME>&apos;\&apos;(-inf-0.331373]\&apos;&apos;</OUTCOME>
<OUTCOME>&apos;\&apos;(0.331373-0.962745]\&apos;&apos;</OUTCOME>
<OUTCOME>&apos;\&apos;(0.962745-inf)\&apos;&apos;</OUTCOME>
</VARIABLE>
<VARIABLE TYPE="nature">
<NAME>pixel340</NAME>
<OUTCOME>&apos;\&apos;(-inf-0.096078]\&apos;&apos;</OUTCOME>
<OUTCOME>&apos;\&apos;(0.096078-0.519608]\&apos;&apos;</OUTCOME>
<OUTCOME>&apos;\&apos;(0.519608-0.962745]\&apos;&apos;</OUTCOME>
<OUTCOME>&apos;\&apos;(0.962745-inf)\&apos;&apos;</OUTCOME>
</VARIABLE>
<VARIABLE TYPE="nature">
<NAME>pixel341</NAME>
<OUTCOME>&apos;\&apos;(-inf-0.507843]\&apos;&apos;</OUTCOME>
<OUTCOME>&apos;\&apos;(0.507843-0.958824]\&apos;&apos;</OUTCOME>
<OUTCOME>&apos;\&apos;(0.958824-inf)\&apos;&apos;</OUTCOME>
</VARIABLE>
<VARIABLE TYPE="nature">
<NAME>pixel342</NAME>
<OUTCOME>&apos;\&apos;(-inf-0.382353]\&apos;&apos;</OUTCOME>
<OUTCOME>&apos;\&apos;(0.382353-inf)\&apos;&apos;</OUTCOME>
</VARIABLE>
<VARIABLE TYPE="nature">
<NAME>pixel343</NAME>
<OUTCOME>&apos;\&apos;(-inf-0.382353]\&apos;&apos;</OUTCOME>
<OUTCOME>&apos;\&apos;(0.382353-inf)\&apos;&apos;</OUTCOME>
</VARIABLE>
<VARIABLE TYPE="nature">
<NAME>pixel344</NAME>
<OUTCOME>&apos;\&apos;(-inf-0.421569]\&apos;&apos;</OUTCOME>
<OUTCOME>&apos;\&apos;(0.421569-inf)\&apos;&apos;</OUTCOME>
</VARIABLE>
<VARIABLE TYPE="nature">
<NAME>pixel345</NAME>
<OUTCOME>&apos;\&apos;(-inf-0.354902]\&apos;&apos;</OUTCOME>
<OUTCOME>&apos;\&apos;(0.354902-0.519608]\&apos;&apos;</OUTCOME>
<OUTCOME>&apos;\&apos;(0.519608-inf)\&apos;&apos;</OUTCOME>
</VARIABLE>
<VARIABLE TYPE="nature">
<NAME>pixel346</NAME>
<OUTCOME>&apos;\&apos;(-inf-0.382353]\&apos;&apos;</OUTCOME>
<OUTCOME>&apos;\&apos;(0.382353-0.539216]\&apos;&apos;</OUTCOME>
<OUTCOME>&apos;\&apos;(0.539216-0.688235]\&apos;&apos;</OUTCOME>
<OUTCOME>&apos;\&apos;(0.688235-inf)\&apos;&apos;</OUTCOME>
</VARIABLE>
<VARIABLE TYPE="nature">
<NAME>pixel347</NAME>
<OUTCOME>&apos;\&apos;(-inf-0.292157]\&apos;&apos;</OUTCOME>
<OUTCOME>&apos;\&apos;(0.292157-0.558824]\&apos;&apos;</OUTCOME>
<OUTCOME>&apos;\&apos;(0.558824-0.680392]\&apos;&apos;</OUTCOME>
<OUTCOME>&apos;\&apos;(0.680392-inf)\&apos;&apos;</OUTCOME>
</VARIABLE>
<VARIABLE TYPE="nature">
<NAME>pixel348</NAME>
<OUTCOME>&apos;\&apos;(-inf-0.280392]\&apos;&apos;</OUTCOME>
<OUTCOME>&apos;\&apos;(0.280392-0.507843]\&apos;&apos;</OUTCOME>
<OUTCOME>&apos;\&apos;(0.507843-0.711765]\&apos;&apos;</OUTCOME>
<OUTCOME>&apos;\&apos;(0.711765-inf)\&apos;&apos;</OUTCOME>
</VARIABLE>
<VARIABLE TYPE="nature">
<NAME>pixel349</NAME>
<OUTCOME>&apos;\&apos;(-inf-0.417647]\&apos;&apos;</OUTCOME>
<OUTCOME>&apos;\&apos;(0.417647-0.652941]\&apos;&apos;</OUTCOME>
<OUTCOME>&apos;\&apos;(0.652941-inf)\&apos;&apos;</OUTCOME>
</VARIABLE>
<VARIABLE TYPE="nature">
<NAME>pixel350</NAME>
<OUTCOME>&apos;\&apos;(-inf-0.42549]\&apos;&apos;</OUTCOME>
<OUTCOME>&apos;\&apos;(0.42549-0.672549]\&apos;&apos;</OUTCOME>
<OUTCOME>&apos;\&apos;(0.672549-inf)\&apos;&apos;</OUTCOME>
</VARIABLE>
<VARIABLE TYPE="nature">
<NAME>pixel351</NAME>
<OUTCOME>&apos;\&apos;(-inf-0.464706]\&apos;&apos;</OUTCOME>
<OUTCOME>&apos;\&apos;(0.464706-0.684314]\&apos;&apos;</OUTCOME>
<OUTCOME>&apos;\&apos;(0.684314-inf)\&apos;&apos;</OUTCOME>
</VARIABLE>
<VARIABLE TYPE="nature">
<NAME>pixel352</NAME>
<OUTCOME>&apos;\&apos;(-inf-0.429412]\&apos;&apos;</OUTCOME>
<OUTCOME>&apos;\&apos;(0.429412-0.707843]\&apos;&apos;</OUTCOME>
<OUTCOME>&apos;\&apos;(0.707843-inf)\&apos;&apos;</OUTCOME>
</VARIABLE>
<VARIABLE TYPE="nature">
<NAME>pixel353</NAME>
<OUTCOME>&apos;\&apos;(-inf-0.468627]\&apos;&apos;</OUTCOME>
<OUTCOME>&apos;\&apos;(0.468627-0.711765]\&apos;&apos;</OUTCOME>
<OUTCOME>&apos;\&apos;(0.711765-inf)\&apos;&apos;</OUTCOME>
</VARIABLE>
<VARIABLE TYPE="nature">
<NAME>pixel354</NAME>
<OUTCOME>&apos;\&apos;(-inf-0.405882]\&apos;&apos;</OUTCOME>
<OUTCOME>&apos;\&apos;(0.405882-0.594118]\&apos;&apos;</OUTCOME>
<OUTCOME>&apos;\&apos;(0.594118-0.786275]\&apos;&apos;</OUTCOME>
<OUTCOME>&apos;\&apos;(0.786275-inf)\&apos;&apos;</OUTCOME>
</VARIABLE>
<VARIABLE TYPE="nature">
<NAME>pixel355</NAME>
<OUTCOME>&apos;\&apos;(-inf-0.531373]\&apos;&apos;</OUTCOME>
<OUTCOME>&apos;\&apos;(0.531373-0.660784]\&apos;&apos;</OUTCOME>
<OUTCOME>&apos;\&apos;(0.660784-0.794118]\&apos;&apos;</OUTCOME>
<OUTCOME>&apos;\&apos;(0.794118-inf)\&apos;&apos;</OUTCOME>
</VARIABLE>
<VARIABLE TYPE="nature">
<NAME>pixel356</NAME>
<OUTCOME>&apos;\&apos;(-inf-0.42549]\&apos;&apos;</OUTCOME>
<OUTCOME>&apos;\&apos;(0.42549-0.656863]\&apos;&apos;</OUTCOME>
<OUTCOME>&apos;\&apos;(0.656863-0.735294]\&apos;&apos;</OUTCOME>
<OUTCOME>&apos;\&apos;(0.735294-inf)\&apos;&apos;</OUTCOME>
</VARIABLE>
<VARIABLE TYPE="nature">
<NAME>pixel357</NAME>
<OUTCOME>&apos;\&apos;(-inf-0.343137]\&apos;&apos;</OUTCOME>
<OUTCOME>&apos;\&apos;(0.343137-0.633333]\&apos;&apos;</OUTCOME>
<OUTCOME>&apos;\&apos;(0.633333-0.786275]\&apos;&apos;</OUTCOME>
<OUTCOME>&apos;\&apos;(0.786275-inf)\&apos;&apos;</OUTCOME>
</VARIABLE>
<VARIABLE TYPE="nature">
<NAME>pixel358</NAME>
<OUTCOME>&apos;\&apos;(-inf-0.433333]\&apos;&apos;</OUTCOME>
<OUTCOME>&apos;\&apos;(0.433333-0.656863]\&apos;&apos;</OUTCOME>
<OUTCOME>&apos;\&apos;(0.656863-0.782353]\&apos;&apos;</OUTCOME>
<OUTCOME>&apos;\&apos;(0.782353-inf)\&apos;&apos;</OUTCOME>
</VARIABLE>
<VARIABLE TYPE="nature">
<NAME>pixel359</NAME>
<OUTCOME>&apos;\&apos;(-inf-0.42549]\&apos;&apos;</OUTCOME>
<OUTCOME>&apos;\&apos;(0.42549-0.692157]\&apos;&apos;</OUTCOME>
<OUTCOME>&apos;\&apos;(0.692157-0.790196]\&apos;&apos;</OUTCOME>
<OUTCOME>&apos;\&apos;(0.790196-inf)\&apos;&apos;</OUTCOME>
</VARIABLE>
<VARIABLE TYPE="nature">
<NAME>pixel360</NAME>
<OUTCOME>&apos;\&apos;(-inf-0.496078]\&apos;&apos;</OUTCOME>
<OUTCOME>&apos;\&apos;(0.496078-0.613725]\&apos;&apos;</OUTCOME>
<OUTCOME>&apos;\&apos;(0.613725-0.739216]\&apos;&apos;</OUTCOME>
<OUTCOME>&apos;\&apos;(0.739216-inf)\&apos;&apos;</OUTCOME>
</VARIABLE>
<VARIABLE TYPE="nature">
<NAME>pixel361</NAME>
<OUTCOME>&apos;\&apos;(-inf-0.5]\&apos;&apos;</OUTCOME>
<OUTCOME>&apos;\&apos;(0.5-0.731373]\&apos;&apos;</OUTCOME>
<OUTCOME>&apos;\&apos;(0.731373-inf)\&apos;&apos;</OUTCOME>
</VARIABLE>
<VARIABLE TYPE="nature">
<NAME>pixel362</NAME>
<OUTCOME>&apos;\&apos;(-inf-0.496078]\&apos;&apos;</OUTCOME>
<OUTCOME>&apos;\&apos;(0.496078-0.688235]\&apos;&apos;</OUTCOME>
<OUTCOME>&apos;\&apos;(0.688235-0.798039]\&apos;&apos;</OUTCOME>
<OUTCOME>&apos;\&apos;(0.798039-inf)\&apos;&apos;</OUTCOME>
</VARIABLE>
<VARIABLE TYPE="nature">
<NAME>pixel363</NAME>
<OUTCOME>&apos;\&apos;(-inf-0.476471]\&apos;&apos;</OUTCOME>
<OUTCOME>&apos;\&apos;(0.476471-0.613725]\&apos;&apos;</OUTCOME>
<OUTCOME>&apos;\&apos;(0.613725-0.754902]\&apos;&apos;</OUTCOME>
<OUTCOME>&apos;\&apos;(0.754902-inf)\&apos;&apos;</OUTCOME>
</VARIABLE>
<VARIABLE TYPE="nature">
<NAME>pixel364</NAME>
<OUTCOME>&apos;\&apos;(-inf-0.464706]\&apos;&apos;</OUTCOME>
<OUTCOME>&apos;\&apos;(0.464706-0.621569]\&apos;&apos;</OUTCOME>
<OUTCOME>&apos;\&apos;(0.621569-0.75098]\&apos;&apos;</OUTCOME>
<OUTCOME>&apos;\&apos;(0.75098-inf)\&apos;&apos;</OUTCOME>
</VARIABLE>
<VARIABLE TYPE="nature">
<NAME>pixel365</NAME>
<OUTCOME>&apos;\&apos;(-inf-0.480392]\&apos;&apos;</OUTCOME>
<OUTCOME>&apos;\&apos;(0.480392-0.692157]\&apos;&apos;</OUTCOME>
<OUTCOME>&apos;\&apos;(0.692157-inf)\&apos;&apos;</OUTCOME>
</VARIABLE>
<VARIABLE TYPE="nature">
<NAME>pixel366</NAME>
<OUTCOME>&apos;\&apos;(-inf-0.507843]\&apos;&apos;</OUTCOME>
<OUTCOME>&apos;\&apos;(0.507843-0.676471]\&apos;&apos;</OUTCOME>
<OUTCOME>&apos;\&apos;(0.676471-inf)\&apos;&apos;</OUTCOME>
</VARIABLE>
<VARIABLE TYPE="nature">
<NAME>pixel367</NAME>
<OUTCOME>&apos;\&apos;(-inf-0.460784]\&apos;&apos;</OUTCOME>
<OUTCOME>&apos;\&apos;(0.460784-0.707843]\&apos;&apos;</OUTCOME>
<OUTCOME>&apos;\&apos;(0.707843-inf)\&apos;&apos;</OUTCOME>
</VARIABLE>
<VARIABLE TYPE="nature">
<NAME>pixel368</NAME>
<OUTCOME>&apos;\&apos;(-inf-0.480392]\&apos;&apos;</OUTCOME>
<OUTCOME>&apos;\&apos;(0.480392-0.707843]\&apos;&apos;</OUTCOME>
<OUTCOME>&apos;\&apos;(0.707843-inf)\&apos;&apos;</OUTCOME>
</VARIABLE>
<VARIABLE TYPE="nature">
<NAME>pixel369</NAME>
<OUTCOME>&apos;\&apos;(-inf-0.347059]\&apos;&apos;</OUTCOME>
<OUTCOME>&apos;\&apos;(0.347059-0.586275]\&apos;&apos;</OUTCOME>
<OUTCOME>&apos;\&apos;(0.586275-0.715686]\&apos;&apos;</OUTCOME>
<OUTCOME>&apos;\&apos;(0.715686-inf)\&apos;&apos;</OUTCOME>
</VARIABLE>
<VARIABLE TYPE="nature">
<NAME>pixel370</NAME>
<OUTCOME>&apos;\&apos;(-inf-0.488235]\&apos;&apos;</OUTCOME>
<OUTCOME>&apos;\&apos;(0.488235-0.7]\&apos;&apos;</OUTCOME>
<OUTCOME>&apos;\&apos;(0.7-inf)\&apos;&apos;</OUTCOME>
</VARIABLE>
