=== Run information ===

Scheme:       weka.classifiers.trees.UserClassifier 
Relation:     faces-weka.filters.unsupervised.attribute.Remove-R4-5,7-23,27-38,40-48,51-60,62-72,74-120,122-132,134-156,159-174,176-180,184-193,195-201,203-204,207-221,223-226,228,231-245,247-253,255-293,295,297-308,310-313,315-318,320-321,323-344,347-352,354-357,359-368,371-377,379-384,387-392,394-401,404-416,419-425,427-433,435-445,447-454,456,458-467,472-482,484-491,496-504,507-516,518-523,525-536,538-545,547-548,550-551,555,557-559,563-564,566-567,570,572-577
Instances:    28709
Attributes:   82
              emotion
              pixel0
              pixel1
              pixel4
              pixel22
              pixel23
              pixel24
              pixel37
              pixel47
              pixel48
              pixel59
              pixel71
              pixel119
              pixel131
              pixel155
              pixel156
              pixel173
              pixel179
              pixel180
              pixel181
              pixel192
              pixel200
              pixel203
              pixel204
              pixel220
              pixel225
              pixel227
              pixel228
              pixel244
              pixel252
              pixel292
              pixel294
              pixel307
              pixel312
              pixel317
              pixel320
              pixel343
              pixel344
              pixel351
              pixel356
              pixel367
              pixel368
              pixel376
              pixel383
              pixel384
              pixel391
              pixel400
              pixel401
              pixel415
              pixel416
              pixel424
              pixel432
              pixel444
              pixel453
              pixel455
              pixel466
              pixel467
              pixel468
              pixel469
              pixel481
              pixel490
              pixel491
              pixel492
              pixel493
              pixel503
              pixel504
              pixel515
              pixel522
              pixel535
              pixel544
              pixel547
              pixel550
              pixel551
              pixel552
              pixel554
              pixel558
              pixel559
              pixel560
              pixel563
              pixel566
              pixel567
              pixel569
Test mode:    user supplied test set:  size unknown (reading incrementally)

=== Classifier model (full training set) ===


Split on emotion AND emotion (In Set): N1 Classified by weka.classifiers.trees.J48
Split on emotion AND emotion (Not in Set)
|   Split on emotion AND emotion (In Set): N3 Classified by weka.classifiers.trees.J48
|   Split on emotion AND emotion (Not in Set): N4 Classified by weka.classifiers.trees.J48

N1 {
J48 pruned tree
------------------
: disgust (436.0)

Number of Leaves  : 	1

Size of the tree : 	1

}

N3 {
J48 pruned tree
------------------
: suprise (3171.0)

Number of Leaves  : 	1

Size of the tree : 	1

}

N4 {
J48 pruned tree
------------------

pixel468 <= 0.444118
|   pixel71 <= 0.986275
|   |   pixel468 <= 0.14902
|   |   |   pixel567 <= 0.134314
|   |   |   |   pixel376 <= 0.003922: angry (12.0/4.0)
|   |   |   |   pixel376 > 0.003922
|   |   |   |   |   pixel192 <= 0.00098
|   |   |   |   |   |   pixel504 <= 0.032353: neutral (9.0/1.0)
|   |   |   |   |   |   pixel504 > 0.032353: sad (4.0/1.0)
|   |   |   |   |   pixel192 > 0.00098
|   |   |   |   |   |   pixel453 <= 0.002941
|   |   |   |   |   |   |   pixel567 <= 0.026471: sad (13.0/1.0)
|   |   |   |   |   |   |   pixel567 > 0.026471: angry (4.0)
|   |   |   |   |   |   pixel453 > 0.002941
|   |   |   |   |   |   |   pixel444 <= 0.022549
|   |   |   |   |   |   |   |   pixel252 <= 0.832353
|   |   |   |   |   |   |   |   |   pixel550 <= 0.043137: angry (7.0)
|   |   |   |   |   |   |   |   |   pixel550 > 0.043137: sad (4.0/1.0)
|   |   |   |   |   |   |   |   pixel252 > 0.832353: fear (4.0)
|   |   |   |   |   |   |   pixel444 > 0.022549
|   |   |   |   |   |   |   |   pixel469 <= 0.013725
|   |   |   |   |   |   |   |   |   pixel492 <= 0.047059: fear (5.0)
|   |   |   |   |   |   |   |   |   pixel492 > 0.047059: angry (4.0/1.0)
|   |   |   |   |   |   |   |   pixel469 > 0.013725
|   |   |   |   |   |   |   |   |   pixel551 <= 0.7
|   |   |   |   |   |   |   |   |   |   pixel503 <= 0.681373
|   |   |   |   |   |   |   |   |   |   |   pixel23 <= 0.75
|   |   |   |   |   |   |   |   |   |   |   |   pixel203 <= 0.07549
|   |   |   |   |   |   |   |   |   |   |   |   |   pixel455 <= 0.019608: happy (3.0)
|   |   |   |   |   |   |   |   |   |   |   |   |   pixel455 > 0.019608
|   |   |   |   |   |   |   |   |   |   |   |   |   |   pixel181 <= 0.061765
|   |   |   |   |   |   |   |   |   |   |   |   |   |   |   pixel24 <= 0.308824: fear (3.0)
|   |   |   |   |   |   |   |   |   |   |   |   |   |   |   pixel24 > 0.308824: happy (2.0/1.0)
|   |   |   |   |   |   |   |   |   |   |   |   |   |   pixel181 > 0.061765: sad (6.0)
|   |   |   |   |   |   |   |   |   |   |   |   pixel203 > 0.07549
|   |   |   |   |   |   |   |   |   |   |   |   |   pixel173 <= 0.152941
|   |   |   |   |   |   |   |   |   |   |   |   |   |   pixel522 <= 0.022549: happy (3.0/1.0)
|   |   |   |   |   |   |   |   |   |   |   |   |   |   pixel522 > 0.022549
|   |   |   |   |   |   |   |   |   |   |   |   |   |   |   pixel566 <= 0.168627
|   |   |   |   |   |   |   |   |   |   |   |   |   |   |   |   pixel252 <= 0.173529: sad (5.0/1.0)
|   |   |   |   |   |   |   |   |   |   |   |   |   |   |   |   pixel252 > 0.173529
|   |   |   |   |   |   |   |   |   |   |   |   |   |   |   |   |   pixel569 <= 0.087255: angry (10.0/2.0)
|   |   |   |   |   |   |   |   |   |   |   |   |   |   |   |   |   pixel569 > 0.087255
|   |   |   |   |   |   |   |   |   |   |   |   |   |   |   |   |   |   pixel47 <= 0.368627: neutral (9.0)
|   |   |   |   |   |   |   |   |   |   |   |   |   |   |   |   |   |   pixel47 > 0.368627: angry (5.0/1.0)
|   |   |   |   |   |   |   |   |   |   |   |   |   |   |   pixel566 > 0.168627: sad (4.0)
|   |   |   |   |   |   |   |   |   |   |   |   |   pixel173 > 0.152941
|   |   |   |   |   |   |   |   |   |   |   |   |   |   pixel401 <= 0.631373
|   |   |   |   |   |   |   |   |   |   |   |   |   |   |   pixel294 <= 0.170588
|   |   |   |   |   |   |   |   |   |   |   |   |   |   |   |   pixel544 <= 0.035294: happy (2.0)
|   |   |   |   |   |   |   |   |   |   |   |   |   |   |   |   pixel544 > 0.035294: sad (10.0)
|   |   |   |   |   |   |   |   |   |   |   |   |   |   |   pixel294 > 0.170588
|   |   |   |   |   |   |   |   |   |   |   |   |   |   |   |   pixel368 <= 0.682353
|   |   |   |   |   |   |   |   |   |   |   |   |   |   |   |   |   pixel228 <= 0.709804
|   |   |   |   |   |   |   |   |   |   |   |   |   |   |   |   |   |   pixel569 <= 0.183333
|   |   |   |   |   |   |   |   |   |   |   |   |   |   |   |   |   |   |   pixel455 <= 0.404902
|   |   |   |   |   |   |   |   |   |   |   |   |   |   |   |   |   |   |   |   pixel320 <= 0.448039
|   |   |   |   |   |   |   |   |   |   |   |   |   |   |   |   |   |   |   |   |   pixel492 <= 0.360784
|   |   |   |   |   |   |   |   |   |   |   |   |   |   |   |   |   |   |   |   |   |   pixel490 <= 0.242157
|   |   |   |   |   |   |   |   |   |   |   |   |   |   |   |   |   |   |   |   |   |   |   pixel173 <= 0.636275
|   |   |   |   |   |   |   |   |   |   |   |   |   |   |   |   |   |   |   |   |   |   |   |   pixel47 <= 0.004902
|   |   |   |   |   |   |   |   |   |   |   |   |   |   |   |   |   |   |   |   |   |   |   |   |   pixel1 <= 0.014706: sad (2.0)
|   |   |   |   |   |   |   |   |   |   |   |   |   |   |   |   |   |   |   |   |   |   |   |   |   pixel1 > 0.014706: angry (2.0)
|   |   |   |   |   |   |   |   |   |   |   |   |   |   |   |   |   |   |   |   |   |   |   |   pixel47 > 0.004902: sad (29.0/2.0)
|   |   |   |   |   |   |   |   |   |   |   |   |   |   |   |   |   |   |   |   |   |   |   pixel173 > 0.636275: neutral (2.0)
|   |   |   |   |   |   |   |   |   |   |   |   |   |   |   |   |   |   |   |   |   |   pixel490 > 0.242157
|   |   |   |   |   |   |   |   |   |   |   |   |   |   |   |   |   |   |   |   |   |   |   pixel544 <= 0.120588
|   |   |   |   |   |   |   |   |   |   |   |   |   |   |   |   |   |   |   |   |   |   |   |   pixel391 <= 0.365686: happy (3.0)
|   |   |   |   |   |   |   |   |   |   |   |   |   |   |   |   |   |   |   |   |   |   |   |   pixel391 > 0.365686: neutral (4.0)
|   |   |   |   |   |   |   |   |   |   |   |   |   |   |   |   |   |   |   |   |   |   |   pixel544 > 0.120588: sad (5.0)
|   |   |   |   |   |   |   |   |   |   |   |   |   |   |   |   |   |   |   |   |   pixel492 > 0.360784: angry (2.0)
|   |   |   |   |   |   |   |   |   |   |   |   |   |   |   |   |   |   |   |   pixel320 > 0.448039
|   |   |   |   |   |   |   |   |   |   |   |   |   |   |   |   |   |   |   |   |   pixel415 <= 0.29902
|   |   |   |   |   |   |   |   |   |   |   |   |   |   |   |   |   |   |   |   |   |   pixel515 <= 0.076471: angry (4.0)
|   |   |   |   |   |   |   |   |   |   |   |   |   |   |   |   |   |   |   |   |   |   pixel515 > 0.076471
|   |   |   |   |   |   |   |   |   |   |   |   |   |   |   |   |   |   |   |   |   |   |   pixel0 <= 0.044118: angry (2.0)
|   |   |   |   |   |   |   |   |   |   |   |   |   |   |   |   |   |   |   |   |   |   |   pixel0 > 0.044118: sad (5.0)
|   |   |   |   |   |   |   |   |   |   |   |   |   |   |   |   |   |   |   |   |   pixel415 > 0.29902
|   |   |   |   |   |   |   |   |   |   |   |   |   |   |   |   |   |   |   |   |   |   pixel71 <= 0.231373
|   |   |   |   |   |   |   |   |   |   |   |   |   |   |   |   |   |   |   |   |   |   |   pixel220 <= 0.769608
|   |   |   |   |   |   |   |   |   |   |   |   |   |   |   |   |   |   |   |   |   |   |   |   pixel228 <= 0.54902: neutral (12.0/2.0)
|   |   |   |   |   |   |   |   |   |   |   |   |   |   |   |   |   |   |   |   |   |   |   |   pixel228 > 0.54902: angry (2.0/1.0)
|   |   |   |   |   |   |   |   |   |   |   |   |   |   |   |   |   |   |   |   |   |   |   pixel220 > 0.769608: sad (2.0)
|   |   |   |   |   |   |   |   |   |   |   |   |   |   |   |   |   |   |   |   |   |   pixel71 > 0.231373
|   |   |   |   |   |   |   |   |   |   |   |   |   |   |   |   |   |   |   |   |   |   |   pixel180 <= 0.408824: fear (3.0)
|   |   |   |   |   |   |   |   |   |   |   |   |   |   |   |   |   |   |   |   |   |   |   pixel180 > 0.408824: angry (3.0)
|   |   |   |   |   |   |   |   |   |   |   |   |   |   |   |   |   |   |   pixel455 > 0.404902
|   |   |   |   |   |   |   |   |   |   |   |   |   |   |   |   |   |   |   |   pixel491 <= 0.065686: angry (2.0/1.0)
|   |   |   |   |   |   |   |   |   |   |   |   |   |   |   |   |   |   |   |   pixel491 > 0.065686
|   |   |   |   |   |   |   |   |   |   |   |   |   |   |   |   |   |   |   |   |   pixel131 <= 0.544118
|   |   |   |   |   |   |   |   |   |   |   |   |   |   |   |   |   |   |   |   |   |   pixel4 <= 0.055882: fear (2.0)
|   |   |   |   |   |   |   |   |   |   |   |   |   |   |   |   |   |   |   |   |   |   pixel4 > 0.055882: neutral (6.0)
|   |   |   |   |   |   |   |   |   |   |   |   |   |   |   |   |   |   |   |   |   pixel131 > 0.544118: fear (5.0)
|   |   |   |   |   |   |   |   |   |   |   |   |   |   |   |   |   |   pixel569 > 0.183333
|   |   |   |   |   |   |   |   |   |   |   |   |   |   |   |   |   |   |   pixel320 <= 0.378431: angry (8.0/1.0)
|   |   |   |   |   |   |   |   |   |   |   |   |   |   |   |   |   |   |   pixel320 > 0.378431: sad (10.0/1.0)
|   |   |   |   |   |   |   |   |   |   |   |   |   |   |   |   |   pixel228 > 0.709804
|   |   |   |   |   |   |   |   |   |   |   |   |   |   |   |   |   |   pixel192 <= 0.379412: fear (5.0)
|   |   |   |   |   |   |   |   |   |   |   |   |   |   |   |   |   |   pixel192 > 0.379412: neutral (3.0)
|   |   |   |   |   |   |   |   |   |   |   |   |   |   |   |   pixel368 > 0.682353
|   |   |   |   |   |   |   |   |   |   |   |   |   |   |   |   |   pixel227 <= 0.505882: fear (3.0/1.0)
|   |   |   |   |   |   |   |   |   |   |   |   |   |   |   |   |   pixel227 > 0.505882: sad (14.0)
|   |   |   |   |   |   |   |   |   |   |   |   |   |   pixel401 > 0.631373
|   |   |   |   |   |   |   |   |   |   |   |   |   |   |   pixel244 <= 0.583333: fear (3.0/1.0)
|   |   |   |   |   |   |   |   |   |   |   |   |   |   |   pixel244 > 0.583333: happy (3.0)
|   |   |   |   |   |   |   |   |   |   |   pixel23 > 0.75
|   |   |   |   |   |   |   |   |   |   |   |   pixel453 <= 0.405882
|   |   |   |   |   |   |   |   |   |   |   |   |   pixel307 <= 0.395098: happy (5.0)
|   |   |   |   |   |   |   |   |   |   |   |   |   pixel307 > 0.395098: neutral (5.0)
|   |   |   |   |   |   |   |   |   |   |   |   pixel453 > 0.405882: sad (4.0)
|   |   |   |   |   |   |   |   |   |   pixel503 > 0.681373
|   |   |   |   |   |   |   |   |   |   |   pixel0 <= 0.260784: angry (2.0/1.0)
|   |   |   |   |   |   |   |   |   |   |   pixel0 > 0.260784: fear (6.0)
|   |   |   |   |   |   |   |   |   pixel551 > 0.7
|   |   |   |   |   |   |   |   |   |   pixel569 <= 0.080392: neutral (5.0/1.0)
|   |   |   |   |   |   |   |   |   |   pixel569 > 0.080392
|   |   |   |   |   |   |   |   |   |   |   pixel292 <= 0.383333: happy (7.0/1.0)
|   |   |   |   |   |   |   |   |   |   |   pixel292 > 0.383333: sad (6.0)
|   |   |   pixel567 > 0.134314
|   |   |   |   pixel469 <= 0.023529
|   |   |   |   |   pixel466 <= 0.00098
|   |   |   |   |   |   pixel181 <= 0.428431: fear (3.0/1.0)
|   |   |   |   |   |   pixel181 > 0.428431: neutral (3.0/1.0)
|   |   |   |   |   pixel466 > 0.00098
|   |   |   |   |   |   pixel228 <= 0.387255
|   |   |   |   |   |   |   pixel4 <= 0.1: sad (2.0)
|   |   |   |   |   |   |   pixel4 > 0.1
|   |   |   |   |   |   |   |   pixel391 <= 0.263725
|   |   |   |   |   |   |   |   |   pixel292 <= 0.19902: angry (2.0)
|   |   |   |   |   |   |   |   |   pixel292 > 0.19902: happy (4.0)
|   |   |   |   |   |   |   |   pixel391 > 0.263725: angry (9.0)
|   |   |   |   |   |   pixel228 > 0.387255
|   |   |   |   |   |   |   pixel292 <= 0.262745: happy (3.0/1.0)
|   |   |   |   |   |   |   pixel292 > 0.262745
|   |   |   |   |   |   |   |   pixel59 <= 0.395098: fear (6.0/1.0)
|   |   |   |   |   |   |   |   pixel59 > 0.395098
|   |   |   |   |   |   |   |   |   pixel0 <= 0.816667
|   |   |   |   |   |   |   |   |   |   pixel467 <= 0.009804: fear (8.0/1.0)
|   |   |   |   |   |   |   |   |   |   pixel467 > 0.009804
|   |   |   |   |   |   |   |   |   |   |   pixel504 <= 0.558824
|   |   |   |   |   |   |   |   |   |   |   |   pixel1 <= 0.573529: angry (10.0)
|   |   |   |   |   |   |   |   |   |   |   |   pixel1 > 0.573529: fear (2.0)
|   |   |   |   |   |   |   |   |   |   |   pixel504 > 0.558824: fear (6.0)
|   |   |   |   |   |   |   |   |   pixel0 > 0.816667: angry (8.0)
|   |   |   |   pixel469 > 0.023529
|   |   |   |   |   pixel180 <= 0.661765
|   |   |   |   |   |   pixel490 <= 0.017647
|   |   |   |   |   |   |   pixel416 <= 0: fear (4.0/1.0)
|   |   |   |   |   |   |   pixel416 > 0
|   |   |   |   |   |   |   |   pixel400 <= 0.307843: fear (3.0/1.0)
|   |   |   |   |   |   |   |   pixel400 > 0.307843: sad (8.0)
|   |   |   |   |   |   pixel490 > 0.017647
|   |   |   |   |   |   |   pixel228 <= 0.078431: angry (8.0/1.0)
|   |   |   |   |   |   |   pixel228 > 0.078431
|   |   |   |   |   |   |   |   pixel59 <= 0.803922
|   |   |   |   |   |   |   |   |   pixel544 <= 0.812745
|   |   |   |   |   |   |   |   |   |   pixel563 <= 0.17451
|   |   |   |   |   |   |   |   |   |   |   pixel344 <= 0.038235: angry (5.0)
|   |   |   |   |   |   |   |   |   |   |   pixel344 > 0.038235
|   |   |   |   |   |   |   |   |   |   |   |   pixel401 <= 0.127451
|   |   |   |   |   |   |   |   |   |   |   |   |   pixel492 <= 0.072549: neutral (2.0)
|   |   |   |   |   |   |   |   |   |   |   |   |   pixel492 > 0.072549
|   |   |   |   |   |   |   |   |   |   |   |   |   |   pixel351 <= 0.437255
|   |   |   |   |   |   |   |   |   |   |   |   |   |   |   pixel4 <= 0.538235: happy (5.0)
|   |   |   |   |   |   |   |   |   |   |   |   |   |   |   pixel4 > 0.538235: fear (3.0/1.0)
|   |   |   |   |   |   |   |   |   |   |   |   |   |   pixel351 > 0.437255: sad (2.0)
|   |   |   |   |   |   |   |   |   |   |   |   pixel401 > 0.127451
|   |   |   |   |   |   |   |   |   |   |   |   |   pixel203 <= 0.602941
|   |   |   |   |   |   |   |   |   |   |   |   |   |   pixel444 <= 0.35098
|   |   |   |   |   |   |   |   |   |   |   |   |   |   |   pixel492 <= 0.35098
|   |   |   |   |   |   |   |   |   |   |   |   |   |   |   |   pixel504 <= 0.677451
|   |   |   |   |   |   |   |   |   |   |   |   |   |   |   |   |   pixel228 <= 0.173529
|   |   |   |   |   |   |   |   |   |   |   |   |   |   |   |   |   |   pixel317 <= 0.126471: happy (2.0/1.0)
|   |   |   |   |   |   |   |   |   |   |   |   |   |   |   |   |   |   pixel317 > 0.126471
|   |   |   |   |   |   |   |   |   |   |   |   |   |   |   |   |   |   |   pixel317 <= 0.397059: fear (5.0)
|   |   |   |   |   |   |   |   |   |   |   |   |   |   |   |   |   |   |   pixel317 > 0.397059: neutral (4.0/1.0)
|   |   |   |   |   |   |   |   |   |   |   |   |   |   |   |   |   pixel228 > 0.173529
|   |   |   |   |   |   |   |   |   |   |   |   |   |   |   |   |   |   pixel37 <= 0.17549
|   |   |   |   |   |   |   |   |   |   |   |   |   |   |   |   |   |   |   pixel343 <= 0.243137: angry (7.0/1.0)
|   |   |   |   |   |   |   |   |   |   |   |   |   |   |   |   |   |   |   pixel343 > 0.243137
|   |   |   |   |   |   |   |   |   |   |   |   |   |   |   |   |   |   |   |   pixel466 <= 0.155882
|   |   |   |   |   |   |   |   |   |   |   |   |   |   |   |   |   |   |   |   |   pixel0 <= 0.271569: neutral (2.0)
|   |   |   |   |   |   |   |   |   |   |   |   |   |   |   |   |   |   |   |   |   pixel0 > 0.271569: angry (2.0)
|   |   |   |   |   |   |   |   |   |   |   |   |   |   |   |   |   |   |   |   pixel466 > 0.155882: sad (6.0)
|   |   |   |   |   |   |   |   |   |   |   |   |   |   |   |   |   |   pixel37 > 0.17549
|   |   |   |   |   |   |   |   |   |   |   |   |   |   |   |   |   |   |   pixel493 <= 0.126471
|   |   |   |   |   |   |   |   |   |   |   |   |   |   |   |   |   |   |   |   pixel294 <= 0.353922: sad (3.0)
|   |   |   |   |   |   |   |   |   |   |   |   |   |   |   |   |   |   |   |   pixel294 > 0.353922: fear (6.0/1.0)
|   |   |   |   |   |   |   |   |   |   |   |   |   |   |   |   |   |   |   pixel493 > 0.126471
|   |   |   |   |   |   |   |   |   |   |   |   |   |   |   |   |   |   |   |   pixel444 <= 0.260784
|   |   |   |   |   |   |   |   |   |   |   |   |   |   |   |   |   |   |   |   |   pixel292 <= 0.15
|   |   |   |   |   |   |   |   |   |   |   |   |   |   |   |   |   |   |   |   |   |   pixel490 <= 0.103922: sad (4.0)
|   |   |   |   |   |   |   |   |   |   |   |   |   |   |   |   |   |   |   |   |   |   pixel490 > 0.103922: neutral (5.0/1.0)
|   |   |   |   |   |   |   |   |   |   |   |   |   |   |   |   |   |   |   |   |   pixel292 > 0.15
|   |   |   |   |   |   |   |   |   |   |   |   |   |   |   |   |   |   |   |   |   |   pixel563 <= 0.145098: sad (12.0)
|   |   |   |   |   |   |   |   |   |   |   |   |   |   |   |   |   |   |   |   |   |   pixel563 > 0.145098
|   |   |   |   |   |   |   |   |   |   |   |   |   |   |   |   |   |   |   |   |   |   |   pixel156 <= 0.196078: sad (3.0)
|   |   |   |   |   |   |   |   |   |   |   |   |   |   |   |   |   |   |   |   |   |   |   pixel156 > 0.196078: angry (3.0)
|   |   |   |   |   |   |   |   |   |   |   |   |   |   |   |   |   |   |   |   pixel444 > 0.260784: neutral (3.0)
|   |   |   |   |   |   |   |   |   |   |   |   |   |   |   |   pixel504 > 0.677451
|   |   |   |   |   |   |   |   |   |   |   |   |   |   |   |   |   pixel307 <= 0.24902: angry (2.0/1.0)
|   |   |   |   |   |   |   |   |   |   |   |   |   |   |   |   |   pixel307 > 0.24902: neutral (6.0)
|   |   |   |   |   |   |   |   |   |   |   |   |   |   |   pixel492 > 0.35098
|   |   |   |   |   |   |   |   |   |   |   |   |   |   |   |   pixel180 <= 0.281373: fear (3.0/1.0)
|   |   |   |   |   |   |   |   |   |   |   |   |   |   |   |   pixel180 > 0.281373: angry (5.0)
|   |   |   |   |   |   |   |   |   |   |   |   |   |   pixel444 > 0.35098: neutral (7.0/1.0)
|   |   |   |   |   |   |   |   |   |   |   |   |   pixel203 > 0.602941: angry (6.0)
|   |   |   |   |   |   |   |   |   |   pixel563 > 0.17451
|   |   |   |   |   |   |   |   |   |   |   pixel356 <= 0.767647
|   |   |   |   |   |   |   |   |   |   |   |   pixel444 <= 0.017647: fear (7.0/1.0)
|   |   |   |   |   |   |   |   |   |   |   |   pixel444 > 0.017647
|   |   |   |   |   |   |   |   |   |   |   |   |   pixel244 <= 0.834314
|   |   |   |   |   |   |   |   |   |   |   |   |   |   pixel59 <= 0.172549
|   |   |   |   |   |   |   |   |   |   |   |   |   |   |   pixel492 <= 0.556863
|   |   |   |   |   |   |   |   |   |   |   |   |   |   |   |   pixel307 <= 0.42549
|   |   |   |   |   |   |   |   |   |   |   |   |   |   |   |   |   pixel200 <= 0.188235: happy (2.0)
|   |   |   |   |   |   |   |   |   |   |   |   |   |   |   |   |   pixel200 > 0.188235: sad (9.0)
|   |   |   |   |   |   |   |   |   |   |   |   |   |   |   |   pixel307 > 0.42549
|   |   |   |   |   |   |   |   |   |   |   |   |   |   |   |   |   pixel22 <= 0.701961: fear (5.0)
|   |   |   |   |   |   |   |   |   |   |   |   |   |   |   |   |   pixel22 > 0.701961: sad (2.0)
|   |   |   |   |   |   |   |   |   |   |   |   |   |   |   pixel492 > 0.556863: happy (4.0)
|   |   |   |   |   |   |   |   |   |   |   |   |   |   pixel59 > 0.172549
|   |   |   |   |   |   |   |   |   |   |   |   |   |   |   pixel220 <= 0.137255
|   |   |   |   |   |   |   |   |   |   |   |   |   |   |   |   pixel466 <= 0.046078
|   |   |   |   |   |   |   |   |   |   |   |   |   |   |   |   |   pixel37 <= 0.39902: happy (2.0)
|   |   |   |   |   |   |   |   |   |   |   |   |   |   |   |   |   pixel37 > 0.39902: fear (2.0/1.0)
|   |   |   |   |   |   |   |   |   |   |   |   |   |   |   |   pixel466 > 0.046078
|   |   |   |   |   |   |   |   |   |   |   |   |   |   |   |   |   pixel0 <= 0.620588
|   |   |   |   |   |   |   |   |   |   |   |   |   |   |   |   |   |   pixel131 <= 0.585294
|   |   |   |   |   |   |   |   |   |   |   |   |   |   |   |   |   |   |   pixel444 <= 0.128431
|   |   |   |   |   |   |   |   |   |   |   |   |   |   |   |   |   |   |   |   pixel200 <= 0.152941: sad (3.0)
|   |   |   |   |   |   |   |   |   |   |   |   |   |   |   |   |   |   |   |   pixel200 > 0.152941: fear (3.0/1.0)
|   |   |   |   |   |   |   |   |   |   |   |   |   |   |   |   |   |   |   pixel444 > 0.128431
|   |   |   |   |   |   |   |   |   |   |   |   |   |   |   |   |   |   |   |   pixel252 <= 0.305882: angry (3.0/1.0)
|   |   |   |   |   |   |   |   |   |   |   |   |   |   |   |   |   |   |   |   pixel252 > 0.305882: sad (13.0)
|   |   |   |   |   |   |   |   |   |   |   |   |   |   |   |   |   |   pixel131 > 0.585294: neutral (2.0)
|   |   |   |   |   |   |   |   |   |   |   |   |   |   |   |   |   pixel0 > 0.620588: fear (5.0/1.0)
|   |   |   |   |   |   |   |   |   |   |   |   |   |   |   pixel220 > 0.137255
|   |   |   |   |   |   |   |   |   |   |   |   |   |   |   |   pixel119 <= 0.762745
|   |   |   |   |   |   |   |   |   |   |   |   |   |   |   |   |   pixel156 <= 0.713725
|   |   |   |   |   |   |   |   |   |   |   |   |   |   |   |   |   |   pixel192 <= 0.022549
|   |   |   |   |   |   |   |   |   |   |   |   |   |   |   |   |   |   |   pixel560 <= 0.353922
|   |   |   |   |   |   |   |   |   |   |   |   |   |   |   |   |   |   |   |   pixel225 <= 0.093137: sad (3.0)
|   |   |   |   |   |   |   |   |   |   |   |   |   |   |   |   |   |   |   |   pixel225 > 0.093137: angry (4.0/1.0)
|   |   |   |   |   |   |   |   |   |   |   |   |   |   |   |   |   |   |   pixel560 > 0.353922: neutral (5.0)
|   |   |   |   |   |   |   |   |   |   |   |   |   |   |   |   |   |   pixel192 > 0.022549
|   |   |   |   |   |   |   |   |   |   |   |   |   |   |   |   |   |   |   pixel560 <= 0.6
|   |   |   |   |   |   |   |   |   |   |   |   |   |   |   |   |   |   |   |   pixel173 <= 0.743137
|   |   |   |   |   |   |   |   |   |   |   |   |   |   |   |   |   |   |   |   |   pixel204 <= 0.229412
|   |   |   |   |   |   |   |   |   |   |   |   |   |   |   |   |   |   |   |   |   |   pixel131 <= 0.230392: sad (3.0/1.0)
|   |   |   |   |   |   |   |   |   |   |   |   |   |   |   |   |   |   |   |   |   |   pixel131 > 0.230392
|   |   |   |   |   |   |   |   |   |   |   |   |   |   |   |   |   |   |   |   |   |   |   pixel550 <= 0.1: happy (2.0)
|   |   |   |   |   |   |   |   |   |   |   |   |   |   |   |   |   |   |   |   |   |   |   pixel550 > 0.1
|   |   |   |   |   |   |   |   |   |   |   |   |   |   |   |   |   |   |   |   |   |   |   |   pixel567 <= 0.14902: neutral (2.0/1.0)
|   |   |   |   |   |   |   |   |   |   |   |   |   |   |   |   |   |   |   |   |   |   |   |   pixel567 > 0.14902: angry (21.0)
|   |   |   |   |   |   |   |   |   |   |   |   |   |   |   |   |   |   |   |   |   pixel204 > 0.229412
|   |   |   |   |   |   |   |   |   |   |   |   |   |   |   |   |   |   |   |   |   |   pixel119 <= 0.666667
|   |   |   |   |   |   |   |   |   |   |   |   |   |   |   |   |   |   |   |   |   |   |   pixel225 <= 0.109804: sad (7.0/1.0)
|   |   |   |   |   |   |   |   |   |   |   |   |   |   |   |   |   |   |   |   |   |   |   pixel225 > 0.109804
|   |   |   |   |   |   |   |   |   |   |   |   |   |   |   |   |   |   |   |   |   |   |   |   pixel383 <= 0.072549
|   |   |   |   |   |   |   |   |   |   |   |   |   |   |   |   |   |   |   |   |   |   |   |   |   pixel294 <= 0.488235: sad (7.0)
|   |   |   |   |   |   |   |   |   |   |   |   |   |   |   |   |   |   |   |   |   |   |   |   |   pixel294 > 0.488235
|   |   |   |   |   |   |   |   |   |   |   |   |   |   |   |   |   |   |   |   |   |   |   |   |   |   pixel383 <= 0.042157
|   |   |   |   |   |   |   |   |   |   |   |   |   |   |   |   |   |   |   |   |   |   |   |   |   |   |   pixel0 <= 0.356863: angry (2.0)
|   |   |   |   |   |   |   |   |   |   |   |   |   |   |   |   |   |   |   |   |   |   |   |   |   |   |   pixel0 > 0.356863: neutral (2.0)
|   |   |   |   |   |   |   |   |   |   |   |   |   |   |   |   |   |   |   |   |   |   |   |   |   |   pixel383 > 0.042157: fear (2.0)
|   |   |   |   |   |   |   |   |   |   |   |   |   |   |   |   |   |   |   |   |   |   |   |   pixel383 > 0.072549
|   |   |   |   |   |   |   |   |   |   |   |   |   |   |   |   |   |   |   |   |   |   |   |   |   pixel432 <= 0.072549
|   |   |   |   |   |   |   |   |   |   |   |   |   |   |   |   |   |   |   |   |   |   |   |   |   |   pixel453 <= 0.310784: angry (7.0)
|   |   |   |   |   |   |   |   |   |   |   |   |   |   |   |   |   |   |   |   |   |   |   |   |   |   pixel453 > 0.310784: fear (6.0/1.0)
|   |   |   |   |   |   |   |   |   |   |   |   |   |   |   |   |   |   |   |   |   |   |   |   |   pixel432 > 0.072549
|   |   |   |   |   |   |   |   |   |   |   |   |   |   |   |   |   |   |   |   |   |   |   |   |   |   pixel317 <= 0.270588
|   |   |   |   |   |   |   |   |   |   |   |   |   |   |   |   |   |   |   |   |   |   |   |   |   |   |   pixel225 <= 0.210784: angry (2.0)
|   |   |   |   |   |   |   |   |   |   |   |   |   |   |   |   |   |   |   |   |   |   |   |   |   |   |   pixel225 > 0.210784: happy (8.0)
|   |   |   |   |   |   |   |   |   |   |   |   |   |   |   |   |   |   |   |   |   |   |   |   |   |   pixel317 > 0.270588
|   |   |   |   |   |   |   |   |   |   |   |   |   |   |   |   |   |   |   |   |   |   |   |   |   |   |   pixel466 <= 0.401961
|   |   |   |   |   |   |   |   |   |   |   |   |   |   |   |   |   |   |   |   |   |   |   |   |   |   |   |   pixel356 <= 0.720588
|   |   |   |   |   |   |   |   |   |   |   |   |   |   |   |   |   |   |   |   |   |   |   |   |   |   |   |   |   pixel343 <= 0.339216
|   |   |   |   |   |   |   |   |   |   |   |   |   |   |   |   |   |   |   |   |   |   |   |   |   |   |   |   |   |   pixel320 <= 0.3
|   |   |   |   |   |   |   |   |   |   |   |   |   |   |   |   |   |   |   |   |   |   |   |   |   |   |   |   |   |   |   pixel179 <= 0.358824: happy (6.0)
|   |   |   |   |   |   |   |   |   |   |   |   |   |   |   |   |   |   |   |   |   |   |   |   |   |   |   |   |   |   |   pixel179 > 0.358824
|   |   |   |   |   |   |   |   |   |   |   |   |   |   |   |   |   |   |   |   |   |   |   |   |   |   |   |   |   |   |   |   pixel0 <= 0.485294: angry (4.0)
|   |   |   |   |   |   |   |   |   |   |   |   |   |   |   |   |   |   |   |   |   |   |   |   |   |   |   |   |   |   |   |   pixel0 > 0.485294: happy (2.0/1.0)
|   |   |   |   |   |   |   |   |   |   |   |   |   |   |   |   |   |   |   |   |   |   |   |   |   |   |   |   |   |   pixel320 > 0.3
|   |   |   |   |   |   |   |   |   |   |   |   |   |   |   |   |   |   |   |   |   |   |   |   |   |   |   |   |   |   |   pixel228 <= 0.612745: sad (9.0/1.0)
|   |   |   |   |   |   |   |   |   |   |   |   |   |   |   |   |   |   |   |   |   |   |   |   |   |   |   |   |   |   |   pixel228 > 0.612745: happy (2.0)
|   |   |   |   |   |   |   |   |   |   |   |   |   |   |   |   |   |   |   |   |   |   |   |   |   |   |   |   |   pixel343 > 0.339216
|   |   |   |   |   |   |   |   |   |   |   |   |   |   |   |   |   |   |   |   |   |   |   |   |   |   |   |   |   |   pixel415 <= 0.281373
|   |   |   |   |   |   |   |   |   |   |   |   |   |   |   |   |   |   |   |   |   |   |   |   |   |   |   |   |   |   |   pixel294 <= 0.522549
|   |   |   |   |   |   |   |   |   |   |   |   |   |   |   |   |   |   |   |   |   |   |   |   |   |   |   |   |   |   |   |   pixel356 <= 0.345098: happy (2.0)
|   |   |   |   |   |   |   |   |   |   |   |   |   |   |   |   |   |   |   |   |   |   |   |   |   |   |   |   |   |   |   |   pixel356 > 0.345098: fear (6.0)
|   |   |   |   |   |   |   |   |   |   |   |   |   |   |   |   |   |   |   |   |   |   |   |   |   |   |   |   |   |   |   pixel294 > 0.522549: happy (7.0/1.0)
|   |   |   |   |   |   |   |   |   |   |   |   |   |   |   |   |   |   |   |   |   |   |   |   |   |   |   |   |   |   pixel415 > 0.281373
|   |   |   |   |   |   |   |   |   |   |   |   |   |   |   |   |   |   |   |   |   |   |   |   |   |   |   |   |   |   |   pixel466 <= 0.339216
|   |   |   |   |   |   |   |   |   |   |   |   |   |   |   |   |   |   |   |   |   |   |   |   |   |   |   |   |   |   |   |   pixel503 <= 0.451961
|   |   |   |   |   |   |   |   |   |   |   |   |   |   |   |   |   |   |   |   |   |   |   |   |   |   |   |   |   |   |   |   |   pixel225 <= 0.397059
|   |   |   |   |   |   |   |   |   |   |   |   |   |   |   |   |   |   |   |   |   |   |   |   |   |   |   |   |   |   |   |   |   |   pixel384 <= 0.161765: sad (3.0)
|   |   |   |   |   |   |   |   |   |   |   |   |   |   |   |   |   |   |   |   |   |   |   |   |   |   |   |   |   |   |   |   |   |   pixel384 > 0.161765
|   |   |   |   |   |   |   |   |   |   |   |   |   |   |   |   |   |   |   |   |   |   |   |   |   |   |   |   |   |   |   |   |   |   |   pixel559 <= 0.442157
|   |   |   |   |   |   |   |   |   |   |   |   |   |   |   |   |   |   |   |   |   |   |   |   |   |   |   |   |   |   |   |   |   |   |   |   pixel504 <= 0.408824: angry (16.0)
|   |   |   |   |   |   |   |   |   |   |   |   |   |   |   |   |   |   |   |   |   |   |   |   |   |   |   |   |   |   |   |   |   |   |   |   pixel504 > 0.408824
|   |   |   |   |   |   |   |   |   |   |   |   |   |   |   |   |   |   |   |   |   |   |   |   |   |   |   |   |   |   |   |   |   |   |   |   |   pixel131 <= 0.576471: fear (6.0/1.0)
|   |   |   |   |   |   |   |   |   |   |   |   |   |   |   |   |   |   |   |   |   |   |   |   |   |   |   |   |   |   |   |   |   |   |   |   |   pixel131 > 0.576471: angry (6.0)
|   |   |   |   |   |   |   |   |   |   |   |   |   |   |   |   |   |   |   |   |   |   |   |   |   |   |   |   |   |   |   |   |   |   |   pixel559 > 0.442157
|   |   |   |   |   |   |   |   |   |   |   |   |   |   |   |   |   |   |   |   |   |   |   |   |   |   |   |   |   |   |   |   |   |   |   |   pixel0 <= 0.285294: fear (2.0)
|   |   |   |   |   |   |   |   |   |   |   |   |   |   |   |   |   |   |   |   |   |   |   |   |   |   |   |   |   |   |   |   |   |   |   |   pixel0 > 0.285294: sad (2.0)
|   |   |   |   |   |   |   |   |   |   |   |   |   |   |   |   |   |   |   |   |   |   |   |   |   |   |   |   |   |   |   |   |   pixel225 > 0.397059
|   |   |   |   |   |   |   |   |   |   |   |   |   |   |   |   |   |   |   |   |   |   |   |   |   |   |   |   |   |   |   |   |   |   pixel343 <= 0.615686
|   |   |   |   |   |   |   |   |   |   |   |   |   |   |   |   |   |   |   |   |   |   |   |   |   |   |   |   |   |   |   |   |   |   |   pixel173 <= 0.506863: sad (8.0/1.0)
|   |   |   |   |   |   |   |   |   |   |   |   |   |   |   |   |   |   |   |   |   |   |   |   |   |   |   |   |   |   |   |   |   |   |   pixel173 > 0.506863
|   |   |   |   |   |   |   |   |   |   |   |   |   |   |   |   |   |   |   |   |   |   |   |   |   |   |   |   |   |   |   |   |   |   |   |   pixel37 <= 0.363725: happy (2.0)
|   |   |   |   |   |   |   |   |   |   |   |   |   |   |   |   |   |   |   |   |   |   |   |   |   |   |   |   |   |   |   |   |   |   |   |   pixel37 > 0.363725: fear (4.0)
|   |   |   |   |   |   |   |   |   |   |   |   |   |   |   |   |   |   |   |   |   |   |   |   |   |   |   |   |   |   |   |   |   |   pixel343 > 0.615686: angry (2.0)
|   |   |   |   |   |   |   |   |   |   |   |   |   |   |   |   |   |   |   |   |   |   |   |   |   |   |   |   |   |   |   |   pixel503 > 0.451961
|   |   |   |   |   |   |   |   |   |   |   |   |   |   |   |   |   |   |   |   |   |   |   |   |   |   |   |   |   |   |   |   |   pixel320 <= 0.390196: angry (7.0/1.0)
|   |   |   |   |   |   |   |   |   |   |   |   |   |   |   |   |   |   |   |   |   |   |   |   |   |   |   |   |   |   |   |   |   pixel320 > 0.390196
|   |   |   |   |   |   |   |   |   |   |   |   |   |   |   |   |   |   |   |   |   |   |   |   |   |   |   |   |   |   |   |   |   |   pixel181 <= 0.623529
|   |   |   |   |   |   |   |   |   |   |   |   |   |   |   |   |   |   |   |   |   |   |   |   |   |   |   |   |   |   |   |   |   |   |   pixel22 <= 0.271569: sad (3.0)
|   |   |   |   |   |   |   |   |   |   |   |   |   |   |   |   |   |   |   |   |   |   |   |   |   |   |   |   |   |   |   |   |   |   |   pixel22 > 0.271569
|   |   |   |   |   |   |   |   |   |   |   |   |   |   |   |   |   |   |   |   |   |   |   |   |   |   |   |   |   |   |   |   |   |   |   |   pixel22 <= 0.634314: happy (12.0/1.0)
|   |   |   |   |   |   |   |   |   |   |   |   |   |   |   |   |   |   |   |   |   |   |   |   |   |   |   |   |   |   |   |   |   |   |   |   pixel22 > 0.634314: angry (2.0/1.0)
|   |   |   |   |   |   |   |   |   |   |   |   |   |   |   |   |   |   |   |   |   |   |   |   |   |   |   |   |   |   |   |   |   |   pixel181 > 0.623529: angry (3.0)
|   |   |   |   |   |   |   |   |   |   |   |   |   |   |   |   |   |   |   |   |   |   |   |   |   |   |   |   |   |   |   pixel466 > 0.339216: happy (4.0)
|   |   |   |   |   |   |   |   |   |   |   |   |   |   |   |   |   |   |   |   |   |   |   |   |   |   |   |   pixel356 > 0.720588: fear (4.0)
|   |   |   |   |   |   |   |   |   |   |   |   |   |   |   |   |   |   |   |   |   |   |   |   |   |   |   pixel466 > 0.401961
|   |   |   |   |   |   |   |   |   |   |   |   |   |   |   |   |   |   |   |   |   |   |   |   |   |   |   |   pixel0 <= 0.427451: neutral (3.0/1.0)
|   |   |   |   |   |   |   |   |   |   |   |   |   |   |   |   |   |   |   |   |   |   |   |   |   |   |   |   pixel0 > 0.427451: angry (3.0/1.0)
|   |   |   |   |   |   |   |   |   |   |   |   |   |   |   |   |   |   |   |   |   |   pixel119 > 0.666667
|   |   |   |   |   |   |   |   |   |   |   |   |   |   |   |   |   |   |   |   |   |   |   pixel344 <= 0.303922: fear (4.0)
|   |   |   |   |   |   |   |   |   |   |   |   |   |   |   |   |   |   |   |   |   |   |   pixel344 > 0.303922: angry (10.0/1.0)
|   |   |   |   |   |   |   |   |   |   |   |   |   |   |   |   |   |   |   |   pixel173 > 0.743137
|   |   |   |   |   |   |   |   |   |   |   |   |   |   |   |   |   |   |   |   |   pixel294 <= 0.670588: sad (4.0)
|   |   |   |   |   |   |   |   |   |   |   |   |   |   |   |   |   |   |   |   |   pixel294 > 0.670588
|   |   |   |   |   |   |   |   |   |   |   |   |   |   |   |   |   |   |   |   |   |   pixel23 <= 0.147059: neutral (2.0)
|   |   |   |   |   |   |   |   |   |   |   |   |   |   |   |   |   |   |   |   |   |   pixel23 > 0.147059: fear (2.0)
|   |   |   |   |   |   |   |   |   |   |   |   |   |   |   |   |   |   |   pixel560 > 0.6
|   |   |   |   |   |   |   |   |   |   |   |   |   |   |   |   |   |   |   |   pixel522 <= 0.153922: neutral (2.0)
|   |   |   |   |   |   |   |   |   |   |   |   |   |   |   |   |   |   |   |   pixel522 > 0.153922
|   |   |   |   |   |   |   |   |   |   |   |   |   |   |   |   |   |   |   |   |   pixel466 <= 0.363725
|   |   |   |   |   |   |   |   |   |   |   |   |   |   |   |   |   |   |   |   |   |   pixel503 <= 0.159804: angry (2.0)
|   |   |   |   |   |   |   |   |   |   |   |   |   |   |   |   |   |   |   |   |   |   pixel503 > 0.159804
|   |   |   |   |   |   |   |   |   |   |   |   |   |   |   |   |   |   |   |   |   |   |   pixel493 <= 0.156863: fear (4.0/1.0)
|   |   |   |   |   |   |   |   |   |   |   |   |   |   |   |   |   |   |   |   |   |   |   pixel493 > 0.156863: sad (13.0/1.0)
|   |   |   |   |   |   |   |   |   |   |   |   |   |   |   |   |   |   |   |   |   pixel466 > 0.363725
|   |   |   |   |   |   |   |   |   |   |   |   |   |   |   |   |   |   |   |   |   |   pixel59 <= 0.443137: fear (4.0)
|   |   |   |   |   |   |   |   |   |   |   |   |   |   |   |   |   |   |   |   |   |   pixel59 > 0.443137: angry (5.0/1.0)
|   |   |   |   |   |   |   |   |   |   |   |   |   |   |   |   |   pixel156 > 0.713725: angry (11.0/1.0)
|   |   |   |   |   |   |   |   |   |   |   |   |   |   |   |   pixel119 > 0.762745
|   |   |   |   |   |   |   |   |   |   |   |   |   |   |   |   |   pixel320 <= 0.253922: fear (4.0/1.0)
|   |   |   |   |   |   |   |   |   |   |   |   |   |   |   |   |   pixel320 > 0.253922
|   |   |   |   |   |   |   |   |   |   |   |   |   |   |   |   |   |   pixel415 <= 0.518627
|   |   |   |   |   |   |   |   |   |   |   |   |   |   |   |   |   |   |   pixel432 <= 0.192157: sad (5.0)
|   |   |   |   |   |   |   |   |   |   |   |   |   |   |   |   |   |   |   pixel432 > 0.192157
|   |   |   |   |   |   |   |   |   |   |   |   |   |   |   |   |   |   |   |   pixel547 <= 0.761765: happy (10.0)
|   |   |   |   |   |   |   |   |   |   |   |   |   |   |   |   |   |   |   |   pixel547 > 0.761765: sad (2.0)
|   |   |   |   |   |   |   |   |   |   |   |   |   |   |   |   |   |   pixel415 > 0.518627: fear (4.0/1.0)
|   |   |   |   |   |   |   |   |   |   |   |   |   pixel244 > 0.834314
|   |   |   |   |   |   |   |   |   |   |   |   |   |   pixel204 <= 0.408824: sad (4.0/1.0)
|   |   |   |   |   |   |   |   |   |   |   |   |   |   pixel204 > 0.408824
|   |   |   |   |   |   |   |   |   |   |   |   |   |   |   pixel432 <= 0.429412: neutral (2.0)
|   |   |   |   |   |   |   |   |   |   |   |   |   |   |   pixel432 > 0.429412: happy (6.0)
|   |   |   |   |   |   |   |   |   |   |   pixel356 > 0.767647
|   |   |   |   |   |   |   |   |   |   |   |   pixel466 <= 0.064706: fear (3.0)
|   |   |   |   |   |   |   |   |   |   |   |   pixel466 > 0.064706
|   |   |   |   |   |   |   |   |   |   |   |   |   pixel228 <= 0.709804: sad (11.0/1.0)
|   |   |   |   |   |   |   |   |   |   |   |   |   pixel228 > 0.709804: fear (2.0/1.0)
|   |   |   |   |   |   |   |   |   pixel544 > 0.812745
|   |   |   |   |   |   |   |   |   |   pixel179 <= 0.45098: fear (8.0/1.0)
|   |   |   |   |   |   |   |   |   |   pixel179 > 0.45098
|   |   |   |   |   |   |   |   |   |   |   pixel59 <= 0.67451: sad (3.0)
|   |   |   |   |   |   |   |   |   |   |   pixel59 > 0.67451: happy (2.0)
|   |   |   |   |   |   |   |   pixel59 > 0.803922
|   |   |   |   |   |   |   |   |   pixel469 <= 0.032353: angry (2.0)
|   |   |   |   |   |   |   |   |   pixel469 > 0.032353
|   |   |   |   |   |   |   |   |   |   pixel252 <= 0.855882
|   |   |   |   |   |   |   |   |   |   |   pixel131 <= 0.821569
|   |   |   |   |   |   |   |   |   |   |   |   pixel131 <= 0.784314: neutral (9.0/1.0)
|   |   |   |   |   |   |   |   |   |   |   |   pixel131 > 0.784314: happy (4.0)
|   |   |   |   |   |   |   |   |   |   |   pixel131 > 0.821569: fear (5.0/1.0)
|   |   |   |   |   |   |   |   |   |   pixel252 > 0.855882: sad (2.0)
|   |   |   |   |   pixel180 > 0.661765
|   |   |   |   |   |   pixel552 <= 0.018627: fear (10.0/1.0)
|   |   |   |   |   |   pixel552 > 0.018627
|   |   |   |   |   |   |   pixel228 <= 0.332353: sad (4.0/1.0)
|   |   |   |   |   |   |   pixel228 > 0.332353
|   |   |   |   |   |   |   |   pixel468 <= 0.017647: angry (7.0/1.0)
|   |   |   |   |   |   |   |   pixel468 > 0.017647
|   |   |   |   |   |   |   |   |   pixel343 <= 0.891176
|   |   |   |   |   |   |   |   |   |   pixel204 <= 0.643137
|   |   |   |   |   |   |   |   |   |   |   pixel415 <= 0.594118
|   |   |   |   |   |   |   |   |   |   |   |   pixel351 <= 0.731373: fear (6.0)
|   |   |   |   |   |   |   |   |   |   |   |   pixel351 > 0.731373: angry (3.0)
|   |   |   |   |   |   |   |   |   |   |   pixel415 > 0.594118: angry (6.0)
|   |   |   |   |   |   |   |   |   |   pixel204 > 0.643137
|   |   |   |   |   |   |   |   |   |   |   pixel383 <= 0.352941
|   |   |   |   |   |   |   |   |   |   |   |   pixel228 <= 0.897059
|   |   |   |   |   |   |   |   |   |   |   |   |   pixel156 <= 0.617647
|   |   |   |   |   |   |   |   |   |   |   |   |   |   pixel0 <= 0.168627: happy (2.0)
|   |   |   |   |   |   |   |   |   |   |   |   |   |   pixel0 > 0.168627: fear (3.0)
|   |   |   |   |   |   |   |   |   |   |   |   |   pixel156 > 0.617647
|   |   |   |   |   |   |   |   |   |   |   |   |   |   pixel192 <= 0.668627
|   |   |   |   |   |   |   |   |   |   |   |   |   |   |   pixel376 <= 0.75
|   |   |   |   |   |   |   |   |   |   |   |   |   |   |   |   pixel59 <= 0.784314
|   |   |   |   |   |   |   |   |   |   |   |   |   |   |   |   |   pixel155 <= 0.776471
|   |   |   |   |   |   |   |   |   |   |   |   |   |   |   |   |   |   pixel228 <= 0.822549: angry (15.0/1.0)
|   |   |   |   |   |   |   |   |   |   |   |   |   |   |   |   |   |   pixel228 > 0.822549: sad (2.0)
|   |   |   |   |   |   |   |   |   |   |   |   |   |   |   |   |   pixel155 > 0.776471: sad (4.0)
|   |   |   |   |   |   |   |   |   |   |   |   |   |   |   |   pixel59 > 0.784314
|   |   |   |   |   |   |   |   |   |   |   |   |   |   |   |   |   pixel204 <= 0.773529: happy (4.0)
|   |   |   |   |   |   |   |   |   |   |   |   |   |   |   |   |   pixel204 > 0.773529: angry (3.0)
|   |   |   |   |   |   |   |   |   |   |   |   |   |   |   pixel376 > 0.75: sad (5.0/1.0)
|   |   |   |   |   |   |   |   |   |   |   |   |   |   pixel192 > 0.668627: fear (4.0/1.0)
|   |   |   |   |   |   |   |   |   |   |   |   pixel228 > 0.897059: fear (4.0)
|   |   |   |   |   |   |   |   |   |   |   pixel383 > 0.352941
|   |   |   |   |   |   |   |   |   |   |   |   pixel551 <= 0.961765
|   |   |   |   |   |   |   |   |   |   |   |   |   pixel467 <= 0.044118
|   |   |   |   |   |   |   |   |   |   |   |   |   |   pixel376 <= 0.585294: happy (3.0)
|   |   |   |   |   |   |   |   |   |   |   |   |   |   pixel376 > 0.585294
|   |   |   |   |   |   |   |   |   |   |   |   |   |   |   pixel23 <= 0.630392: neutral (2.0)
|   |   |   |   |   |   |   |   |   |   |   |   |   |   |   pixel23 > 0.630392: angry (2.0)
|   |   |   |   |   |   |   |   |   |   |   |   |   pixel467 > 0.044118
|   |   |   |   |   |   |   |   |   |   |   |   |   |   pixel200 <= 0.840196
|   |   |   |   |   |   |   |   |   |   |   |   |   |   |   pixel550 <= 0.918627
|   |   |   |   |   |   |   |   |   |   |   |   |   |   |   |   pixel181 <= 0.848039
|   |   |   |   |   |   |   |   |   |   |   |   |   |   |   |   |   pixel228 <= 0.586275: sad (3.0/1.0)
|   |   |   |   |   |   |   |   |   |   |   |   |   |   |   |   |   pixel228 > 0.586275
|   |   |   |   |   |   |   |   |   |   |   |   |   |   |   |   |   |   pixel307 <= 0.844118
|   |   |   |   |   |   |   |   |   |   |   |   |   |   |   |   |   |   |   pixel466 <= 0.103922
|   |   |   |   |   |   |   |   |   |   |   |   |   |   |   |   |   |   |   |   pixel515 <= 0.469608: happy (11.0/1.0)
|   |   |   |   |   |   |   |   |   |   |   |   |   |   |   |   |   |   |   |   pixel515 > 0.469608: fear (3.0)
|   |   |   |   |   |   |   |   |   |   |   |   |   |   |   |   |   |   |   pixel466 > 0.103922
|   |   |   |   |   |   |   |   |   |   |   |   |   |   |   |   |   |   |   |   pixel220 <= 0.246078: happy (4.0)
|   |   |   |   |   |   |   |   |   |   |   |   |   |   |   |   |   |   |   |   pixel220 > 0.246078
|   |   |   |   |   |   |   |   |   |   |   |   |   |   |   |   |   |   |   |   |   pixel119 <= 0.20098: angry (4.0)
|   |   |   |   |   |   |   |   |   |   |   |   |   |   |   |   |   |   |   |   |   pixel119 > 0.20098
|   |   |   |   |   |   |   |   |   |   |   |   |   |   |   |   |   |   |   |   |   |   pixel4 <= 0.767647
|   |   |   |   |   |   |   |   |   |   |   |   |   |   |   |   |   |   |   |   |   |   |   pixel551 <= 0.931373
|   |   |   |   |   |   |   |   |   |   |   |   |   |   |   |   |   |   |   |   |   |   |   |   pixel552 <= 0.647059: fear (20.0/1.0)
|   |   |   |   |   |   |   |   |   |   |   |   |   |   |   |   |   |   |   |   |   |   |   |   pixel552 > 0.647059
|   |   |   |   |   |   |   |   |   |   |   |   |   |   |   |   |   |   |   |   |   |   |   |   |   pixel192 <= 0.389216: happy (4.0/1.0)
|   |   |   |   |   |   |   |   |   |   |   |   |   |   |   |   |   |   |   |   |   |   |   |   |   pixel192 > 0.389216: fear (8.0/1.0)
|   |   |   |   |   |   |   |   |   |   |   |   |   |   |   |   |   |   |   |   |   |   |   pixel551 > 0.931373: angry (2.0)
|   |   |   |   |   |   |   |   |   |   |   |   |   |   |   |   |   |   |   |   |   |   pixel4 > 0.767647: angry (3.0)
|   |   |   |   |   |   |   |   |   |   |   |   |   |   |   |   |   |   pixel307 > 0.844118
|   |   |   |   |   |   |   |   |   |   |   |   |   |   |   |   |   |   |   pixel368 <= 0.443137: sad (3.0/1.0)
|   |   |   |   |   |   |   |   |   |   |   |   |   |   |   |   |   |   |   pixel368 > 0.443137: happy (7.0)
|   |   |   |   |   |   |   |   |   |   |   |   |   |   |   |   pixel181 > 0.848039
|   |   |   |   |   |   |   |   |   |   |   |   |   |   |   |   |   pixel22 <= 0.685294: happy (2.0)
|   |   |   |   |   |   |   |   |   |   |   |   |   |   |   |   |   pixel22 > 0.685294: sad (3.0)
|   |   |   |   |   |   |   |   |   |   |   |   |   |   |   pixel550 > 0.918627: fear (8.0)
|   |   |   |   |   |   |   |   |   |   |   |   |   |   pixel200 > 0.840196
|   |   |   |   |   |   |   |   |   |   |   |   |   |   |   pixel490 <= 0.253922: fear (4.0)
|   |   |   |   |   |   |   |   |   |   |   |   |   |   |   pixel490 > 0.253922
|   |   |   |   |   |   |   |   |   |   |   |   |   |   |   |   pixel4 <= 0.917647: neutral (2.0)
|   |   |   |   |   |   |   |   |   |   |   |   |   |   |   |   pixel4 > 0.917647: angry (2.0)
|   |   |   |   |   |   |   |   |   |   |   |   pixel551 > 0.961765: sad (4.0/1.0)
|   |   |   |   |   |   |   |   |   pixel343 > 0.891176
|   |   |   |   |   |   |   |   |   |   pixel432 <= 0.732353: sad (4.0)
|   |   |   |   |   |   |   |   |   |   pixel432 > 0.732353: happy (3.0)
|   |   pixel468 > 0.14902
|   |   |   pixel415 <= 0.465686
|   |   |   |   pixel444 <= 0.608824
|   |   |   |   |   pixel560 <= 0.366667
|   |   |   |   |   |   pixel204 <= 0.843137
|   |   |   |   |   |   |   pixel469 <= 0.153922
|   |   |   |   |   |   |   |   pixel203 <= 0.762745
|   |   |   |   |   |   |   |   |   pixel220 <= 0.661765
|   |   |   |   |   |   |   |   |   |   pixel192 <= 0.856863
|   |   |   |   |   |   |   |   |   |   |   pixel294 <= 0.09902: happy (4.0/1.0)
|   |   |   |   |   |   |   |   |   |   |   pixel294 > 0.09902
|   |   |   |   |   |   |   |   |   |   |   |   pixel203 <= 0.534314
|   |   |   |   |   |   |   |   |   |   |   |   |   pixel204 <= 0.056863: fear (3.0/1.0)
|   |   |   |   |   |   |   |   |   |   |   |   |   pixel204 > 0.056863
|   |   |   |   |   |   |   |   |   |   |   |   |   |   pixel192 <= 0.726471
|   |   |   |   |   |   |   |   |   |   |   |   |   |   |   pixel344 <= 0.383333
|   |   |   |   |   |   |   |   |   |   |   |   |   |   |   |   pixel203 <= 0.387255
|   |   |   |   |   |   |   |   |   |   |   |   |   |   |   |   |   pixel351 <= 0.387255
|   |   |   |   |   |   |   |   |   |   |   |   |   |   |   |   |   |   pixel22 <= 0.314706
|   |   |   |   |   |   |   |   |   |   |   |   |   |   |   |   |   |   |   pixel204 <= 0.182353
|   |   |   |   |   |   |   |   |   |   |   |   |   |   |   |   |   |   |   |   pixel554 <= 0.136275: angry (4.0/1.0)
|   |   |   |   |   |   |   |   |   |   |   |   |   |   |   |   |   |   |   |   pixel554 > 0.136275: neutral (5.0)
|   |   |   |   |   |   |   |   |   |   |   |   |   |   |   |   |   |   |   pixel204 > 0.182353
|   |   |   |   |   |   |   |   |   |   |   |   |   |   |   |   |   |   |   |   pixel200 <= 0.1: neutral (4.0/1.0)
|   |   |   |   |   |   |   |   |   |   |   |   |   |   |   |   |   |   |   |   pixel200 > 0.1
|   |   |   |   |   |   |   |   |   |   |   |   |   |   |   |   |   |   |   |   |   pixel563 <= 0.195098: sad (13.0/1.0)
|   |   |   |   |   |   |   |   |   |   |   |   |   |   |   |   |   |   |   |   |   pixel563 > 0.195098
|   |   |   |   |   |   |   |   |   |   |   |   |   |   |   |   |   |   |   |   |   |   pixel22 <= 0.095098: sad (4.0/1.0)
|   |   |   |   |   |   |   |   |   |   |   |   |   |   |   |   |   |   |   |   |   |   pixel22 > 0.095098: fear (4.0)
|   |   |   |   |   |   |   |   |   |   |   |   |   |   |   |   |   |   pixel22 > 0.314706
|   |   |   |   |   |   |   |   |   |   |   |   |   |   |   |   |   |   |   pixel228 <= 0.311765: angry (7.0)
|   |   |   |   |   |   |   |   |   |   |   |   |   |   |   |   |   |   |   pixel228 > 0.311765
|   |   |   |   |   |   |   |   |   |   |   |   |   |   |   |   |   |   |   |   pixel228 <= 0.347059: neutral (4.0)
|   |   |   |   |   |   |   |   |   |   |   |   |   |   |   |   |   |   |   |   pixel228 > 0.347059: angry (2.0/1.0)
|   |   |   |   |   |   |   |   |   |   |   |   |   |   |   |   |   pixel351 > 0.387255: sad (13.0)
|   |   |   |   |   |   |   |   |   |   |   |   |   |   |   |   pixel203 > 0.387255
|   |   |   |   |   |   |   |   |   |   |   |   |   |   |   |   |   pixel181 <= 0.487255: angry (6.0)
|   |   |   |   |   |   |   |   |   |   |   |   |   |   |   |   |   pixel181 > 0.487255: fear (2.0/1.0)
|   |   |   |   |   |   |   |   |   |   |   |   |   |   |   pixel344 > 0.383333
|   |   |   |   |   |   |   |   |   |   |   |   |   |   |   |   pixel356 <= 0.459804
|   |   |   |   |   |   |   |   |   |   |   |   |   |   |   |   |   pixel563 <= 0.428431: sad (18.0/2.0)
|   |   |   |   |   |   |   |   |   |   |   |   |   |   |   |   |   pixel563 > 0.428431: fear (2.0/1.0)
|   |   |   |   |   |   |   |   |   |   |   |   |   |   |   |   pixel356 > 0.459804
|   |   |   |   |   |   |   |   |   |   |   |   |   |   |   |   |   pixel0 <= 0.253922: angry (2.0/1.0)
|   |   |   |   |   |   |   |   |   |   |   |   |   |   |   |   |   pixel0 > 0.253922: fear (5.0)
|   |   |   |   |   |   |   |   |   |   |   |   |   |   pixel192 > 0.726471: neutral (3.0/1.0)
|   |   |   |   |   |   |   |   |   |   |   |   pixel203 > 0.534314
|   |   |   |   |   |   |   |   |   |   |   |   |   pixel351 <= 0.321569: happy (6.0/1.0)
|   |   |   |   |   |   |   |   |   |   |   |   |   pixel351 > 0.321569
|   |   |   |   |   |   |   |   |   |   |   |   |   |   pixel368 <= 0.396078: angry (5.0/1.0)
|   |   |   |   |   |   |   |   |   |   |   |   |   |   pixel368 > 0.396078: sad (7.0)
|   |   |   |   |   |   |   |   |   |   pixel192 > 0.856863: angry (6.0/1.0)
|   |   |   |   |   |   |   |   |   pixel220 > 0.661765
|   |   |   |   |   |   |   |   |   |   pixel155 <= 0.497059: happy (3.0/1.0)
|   |   |   |   |   |   |   |   |   |   pixel155 > 0.497059: fear (4.0)
|   |   |   |   |   |   |   |   pixel203 > 0.762745: fear (4.0)
|   |   |   |   |   |   |   pixel469 > 0.153922
|   |   |   |   |   |   |   |   pixel490 <= 0.178431
|   |   |   |   |   |   |   |   |   pixel466 <= 0.382353
|   |   |   |   |   |   |   |   |   |   pixel467 <= 0.101961
|   |   |   |   |   |   |   |   |   |   |   pixel292 <= 0.161765
|   |   |   |   |   |   |   |   |   |   |   |   pixel1 <= 0.013725: neutral (2.0)
|   |   |   |   |   |   |   |   |   |   |   |   pixel1 > 0.013725
|   |   |   |   |   |   |   |   |   |   |   |   |   pixel24 <= 0.020588: angry (3.0/1.0)
|   |   |   |   |   |   |   |   |   |   |   |   |   pixel24 > 0.020588: sad (6.0)
|   |   |   |   |   |   |   |   |   |   |   pixel292 > 0.161765
|   |   |   |   |   |   |   |   |   |   |   |   pixel376 <= 0.243137: sad (4.0/1.0)
|   |   |   |   |   |   |   |   |   |   |   |   pixel376 > 0.243137: fear (9.0)
|   |   |   |   |   |   |   |   |   |   pixel467 > 0.101961
|   |   |   |   |   |   |   |   |   |   |   pixel558 <= 0.521569
|   |   |   |   |   |   |   |   |   |   |   |   pixel424 <= 0.134314
|   |   |   |   |   |   |   |   |   |   |   |   |   pixel515 <= 0.12451
|   |   |   |   |   |   |   |   |   |   |   |   |   |   pixel504 <= 0.266667
|   |   |   |   |   |   |   |   |   |   |   |   |   |   |   pixel48 <= 0.295098: angry (4.0/1.0)
|   |   |   |   |   |   |   |   |   |   |   |   |   |   |   pixel48 > 0.295098: sad (6.0)
|   |   |   |   |   |   |   |   |   |   |   |   |   |   pixel504 > 0.266667: happy (2.0)
|   |   |   |   |   |   |   |   |   |   |   |   |   pixel515 > 0.12451
|   |   |   |   |   |   |   |   |   |   |   |   |   |   pixel544 <= 0.286275: happy (8.0)
|   |   |   |   |   |   |   |   |   |   |   |   |   |   pixel544 > 0.286275: angry (3.0)
|   |   |   |   |   |   |   |   |   |   |   |   pixel424 > 0.134314
|   |   |   |   |   |   |   |   |   |   |   |   |   pixel59 <= 0.711765
|   |   |   |   |   |   |   |   |   |   |   |   |   |   pixel566 <= 0.02549
|   |   |   |   |   |   |   |   |   |   |   |   |   |   |   pixel307 <= 0.317647
|   |   |   |   |   |   |   |   |   |   |   |   |   |   |   |   pixel131 <= 0.25098: sad (3.0)
|   |   |   |   |   |   |   |   |   |   |   |   |   |   |   |   pixel131 > 0.25098: angry (2.0/1.0)
|   |   |   |   |   |   |   |   |   |   |   |   |   |   |   pixel307 > 0.317647: fear (8.0/1.0)
|   |   |   |   |   |   |   |   |   |   |   |   |   |   pixel566 > 0.02549
|   |   |   |   |   |   |   |   |   |   |   |   |   |   |   pixel244 <= 0.381373
|   |   |   |   |   |   |   |   |   |   |   |   |   |   |   |   pixel320 <= 0.569608
|   |   |   |   |   |   |   |   |   |   |   |   |   |   |   |   |   pixel48 <= 0.00098
|   |   |   |   |   |   |   |   |   |   |   |   |   |   |   |   |   |   pixel444 <= 0.160784: sad (3.0)
|   |   |   |   |   |   |   |   |   |   |   |   |   |   |   |   |   |   pixel444 > 0.160784
|   |   |   |   |   |   |   |   |   |   |   |   |   |   |   |   |   |   |   pixel424 <= 0.333333: happy (4.0/1.0)
|   |   |   |   |   |   |   |   |   |   |   |   |   |   |   |   |   |   |   pixel424 > 0.333333: angry (7.0/1.0)
|   |   |   |   |   |   |   |   |   |   |   |   |   |   |   |   |   pixel48 > 0.00098
|   |   |   |   |   |   |   |   |   |   |   |   |   |   |   |   |   |   pixel1 <= 0.018627
|   |   |   |   |   |   |   |   |   |   |   |   |   |   |   |   |   |   |   pixel200 <= 0.307843: neutral (12.0/1.0)
|   |   |   |   |   |   |   |   |   |   |   |   |   |   |   |   |   |   |   pixel200 > 0.307843: happy (3.0/1.0)
|   |   |   |   |   |   |   |   |   |   |   |   |   |   |   |   |   |   pixel1 > 0.018627
|   |   |   |   |   |   |   |   |   |   |   |   |   |   |   |   |   |   |   pixel376 <= 0.208824
|   |   |   |   |   |   |   |   |   |   |   |   |   |   |   |   |   |   |   |   pixel220 <= 0.085294: sad (2.0)
|   |   |   |   |   |   |   |   |   |   |   |   |   |   |   |   |   |   |   |   pixel220 > 0.085294
|   |   |   |   |   |   |   |   |   |   |   |   |   |   |   |   |   |   |   |   |   pixel560 <= 0.087255
|   |   |   |   |   |   |   |   |   |   |   |   |   |   |   |   |   |   |   |   |   |   pixel469 <= 0.192157: fear (5.0/1.0)
|   |   |   |   |   |   |   |   |   |   |   |   |   |   |   |   |   |   |   |   |   |   pixel469 > 0.192157: angry (4.0)
|   |   |   |   |   |   |   |   |   |   |   |   |   |   |   |   |   |   |   |   |   pixel560 > 0.087255
|   |   |   |   |   |   |   |   |   |   |   |   |   |   |   |   |   |   |   |   |   |   pixel467 <= 0.201961
|   |   |   |   |   |   |   |   |   |   |   |   |   |   |   |   |   |   |   |   |   |   |   pixel203 <= 0.162745: happy (2.0)
|   |   |   |   |   |   |   |   |   |   |   |   |   |   |   |   |   |   |   |   |   |   |   pixel203 > 0.162745: neutral (6.0)
|   |   |   |   |   |   |   |   |   |   |   |   |   |   |   |   |   |   |   |   |   |   pixel467 > 0.201961: happy (7.0/1.0)
|   |   |   |   |   |   |   |   |   |   |   |   |   |   |   |   |   |   |   pixel376 > 0.208824
|   |   |   |   |   |   |   |   |   |   |   |   |   |   |   |   |   |   |   |   pixel252 <= 0.229412
|   |   |   |   |   |   |   |   |   |   |   |   |   |   |   |   |   |   |   |   |   pixel552 <= 0.006863: neutral (2.0)
|   |   |   |   |   |   |   |   |   |   |   |   |   |   |   |   |   |   |   |   |   pixel552 > 0.006863
|   |   |   |   |   |   |   |   |   |   |   |   |   |   |   |   |   |   |   |   |   |   pixel383 <= 0.265686: sad (18.0/1.0)
|   |   |   |   |   |   |   |   |   |   |   |   |   |   |   |   |   |   |   |   |   |   pixel383 > 0.265686
|   |   |   |   |   |   |   |   |   |   |   |   |   |   |   |   |   |   |   |   |   |   |   pixel466 <= 0.210784
|   |   |   |   |   |   |   |   |   |   |   |   |   |   |   |   |   |   |   |   |   |   |   |   pixel220 <= 0.160784: fear (4.0)
|   |   |   |   |   |   |   |   |   |   |   |   |   |   |   |   |   |   |   |   |   |   |   |   pixel220 > 0.160784: sad (5.0)
|   |   |   |   |   |   |   |   |   |   |   |   |   |   |   |   |   |   |   |   |   |   |   pixel466 > 0.210784: angry (6.0/1.0)
|   |   |   |   |   |   |   |   |   |   |   |   |   |   |   |   |   |   |   |   pixel252 > 0.229412
|   |   |   |   |   |   |   |   |   |   |   |   |   |   |   |   |   |   |   |   |   pixel244 <= 0.342157
|   |   |   |   |   |   |   |   |   |   |   |   |   |   |   |   |   |   |   |   |   |   pixel567 <= 0.104902: fear (4.0/1.0)
|   |   |   |   |   |   |   |   |   |   |   |   |   |   |   |   |   |   |   |   |   |   pixel567 > 0.104902
|   |   |   |   |   |   |   |   |   |   |   |   |   |   |   |   |   |   |   |   |   |   |   pixel515 <= 0.380392
|   |   |   |   |   |   |   |   |   |   |   |   |   |   |   |   |   |   |   |   |   |   |   |   pixel432 <= 0.311765
|   |   |   |   |   |   |   |   |   |   |   |   |   |   |   |   |   |   |   |   |   |   |   |   |   pixel368 <= 0.045098
|   |   |   |   |   |   |   |   |   |   |   |   |   |   |   |   |   |   |   |   |   |   |   |   |   |   pixel0 <= 0.041176: neutral (2.0)
|   |   |   |   |   |   |   |   |   |   |   |   |   |   |   |   |   |   |   |   |   |   |   |   |   |   pixel0 > 0.041176: fear (2.0)
|   |   |   |   |   |   |   |   |   |   |   |   |   |   |   |   |   |   |   |   |   |   |   |   |   pixel368 > 0.045098
|   |   |   |   |   |   |   |   |   |   |   |   |   |   |   |   |   |   |   |   |   |   |   |   |   |   pixel416 <= 0.083333
|   |   |   |   |   |   |   |   |   |   |   |   |   |   |   |   |   |   |   |   |   |   |   |   |   |   |   pixel1 <= 0.162745: angry (7.0/1.0)
|   |   |   |   |   |   |   |   |   |   |   |   |   |   |   |   |   |   |   |   |   |   |   |   |   |   |   pixel1 > 0.162745: sad (3.0)
|   |   |   |   |   |   |   |   |   |   |   |   |   |   |   |   |   |   |   |   |   |   |   |   |   |   pixel416 > 0.083333
|   |   |   |   |   |   |   |   |   |   |   |   |   |   |   |   |   |   |   |   |   |   |   |   |   |   |   pixel535 <= 0.041176
|   |   |   |   |   |   |   |   |   |   |   |   |   |   |   |   |   |   |   |   |   |   |   |   |   |   |   |   pixel181 <= 0.272549: happy (4.0/1.0)
|   |   |   |   |   |   |   |   |   |   |   |   |   |   |   |   |   |   |   |   |   |   |   |   |   |   |   |   pixel181 > 0.272549: sad (9.0)
|   |   |   |   |   |   |   |   |   |   |   |   |   |   |   |   |   |   |   |   |   |   |   |   |   |   |   pixel535 > 0.041176
|   |   |   |   |   |   |   |   |   |   |   |   |   |   |   |   |   |   |   |   |   |   |   |   |   |   |   |   pixel368 <= 0.431373
|   |   |   |   |   |   |   |   |   |   |   |   |   |   |   |   |   |   |   |   |   |   |   |   |   |   |   |   |   pixel566 <= 0.121569: neutral (5.0)
|   |   |   |   |   |   |   |   |   |   |   |   |   |   |   |   |   |   |   |   |   |   |   |   |   |   |   |   |   pixel566 > 0.121569
|   |   |   |   |   |   |   |   |   |   |   |   |   |   |   |   |   |   |   |   |   |   |   |   |   |   |   |   |   |   pixel550 <= 0.818627
|   |   |   |   |   |   |   |   |   |   |   |   |   |   |   |   |   |   |   |   |   |   |   |   |   |   |   |   |   |   |   pixel560 <= 0.256863
|   |   |   |   |   |   |   |   |   |   |   |   |   |   |   |   |   |   |   |   |   |   |   |   |   |   |   |   |   |   |   |   pixel155 <= 0.378431
|   |   |   |   |   |   |   |   |   |   |   |   |   |   |   |   |   |   |   |   |   |   |   |   |   |   |   |   |   |   |   |   |   pixel155 <= 0.205882
|   |   |   |   |   |   |   |   |   |   |   |   |   |   |   |   |   |   |   |   |   |   |   |   |   |   |   |   |   |   |   |   |   |   pixel522 <= 0.221569: neutral (4.0/1.0)
|   |   |   |   |   |   |   |   |   |   |   |   |   |   |   |   |   |   |   |   |   |   |   |   |   |   |   |   |   |   |   |   |   |   pixel522 > 0.221569: angry (5.0)
|   |   |   |   |   |   |   |   |   |   |   |   |   |   |   |   |   |   |   |   |   |   |   |   |   |   |   |   |   |   |   |   |   pixel155 > 0.205882
|   |   |   |   |   |   |   |   |   |   |   |   |   |   |   |   |   |   |   |   |   |   |   |   |   |   |   |   |   |   |   |   |   |   pixel119 <= 0.836275: sad (14.0/1.0)
|   |   |   |   |   |   |   |   |   |   |   |   |   |   |   |   |   |   |   |   |   |   |   |   |   |   |   |   |   |   |   |   |   |   pixel119 > 0.836275: angry (2.0)
|   |   |   |   |   |   |   |   |   |   |   |   |   |   |   |   |   |   |   |   |   |   |   |   |   |   |   |   |   |   |   |   pixel155 > 0.378431
|   |   |   |   |   |   |   |   |   |   |   |   |   |   |   |   |   |   |   |   |   |   |   |   |   |   |   |   |   |   |   |   |   pixel227 <= 0.216667: sad (2.0)
|   |   |   |   |   |   |   |   |   |   |   |   |   |   |   |   |   |   |   |   |   |   |   |   |   |   |   |   |   |   |   |   |   pixel227 > 0.216667
|   |   |   |   |   |   |   |   |   |   |   |   |   |   |   |   |   |   |   |   |   |   |   |   |   |   |   |   |   |   |   |   |   |   pixel225 <= 0.232353
|   |   |   |   |   |   |   |   |   |   |   |   |   |   |   |   |   |   |   |   |   |   |   |   |   |   |   |   |   |   |   |   |   |   |   pixel491 <= 0.147059: angry (2.0)
|   |   |   |   |   |   |   |   |   |   |   |   |   |   |   |   |   |   |   |   |   |   |   |   |   |   |   |   |   |   |   |   |   |   |   pixel491 > 0.147059: neutral (7.0)
|   |   |   |   |   |   |   |   |   |   |   |   |   |   |   |   |   |   |   |   |   |   |   |   |   |   |   |   |   |   |   |   |   |   pixel225 > 0.232353: happy (4.0/1.0)
|   |   |   |   |   |   |   |   |   |   |   |   |   |   |   |   |   |   |   |   |   |   |   |   |   |   |   |   |   |   |   pixel560 > 0.256863
|   |   |   |   |   |   |   |   |   |   |   |   |   |   |   |   |   |   |   |   |   |   |   |   |   |   |   |   |   |   |   |   pixel401 <= 0.252941: happy (2.0)
|   |   |   |   |   |   |   |   |   |   |   |   |   |   |   |   |   |   |   |   |   |   |   |   |   |   |   |   |   |   |   |   pixel401 > 0.252941: sad (9.0)
|   |   |   |   |   |   |   |   |   |   |   |   |   |   |   |   |   |   |   |   |   |   |   |   |   |   |   |   |   |   pixel550 > 0.818627: happy (4.0/1.0)
|   |   |   |   |   |   |   |   |   |   |   |   |   |   |   |   |   |   |   |   |   |   |   |   |   |   |   |   pixel368 > 0.431373
|   |   |   |   |   |   |   |   |   |   |   |   |   |   |   |   |   |   |   |   |   |   |   |   |   |   |   |   |   pixel71 <= 0.296078: angry (3.0/1.0)
|   |   |   |   |   |   |   |   |   |   |   |   |   |   |   |   |   |   |   |   |   |   |   |   |   |   |   |   |   pixel71 > 0.296078: fear (2.0)
|   |   |   |   |   |   |   |   |   |   |   |   |   |   |   |   |   |   |   |   |   |   |   |   pixel432 > 0.311765
|   |   |   |   |   |   |   |   |   |   |   |   |   |   |   |   |   |   |   |   |   |   |   |   |   pixel455 <= 0.158824
|   |   |   |   |   |   |   |   |   |   |   |   |   |   |   |   |   |   |   |   |   |   |   |   |   |   pixel131 <= 0.344118: happy (2.0)
|   |   |   |   |   |   |   |   |   |   |   |   |   |   |   |   |   |   |   |   |   |   |   |   |   |   pixel131 > 0.344118: angry (3.0)
|   |   |   |   |   |   |   |   |   |   |   |   |   |   |   |   |   |   |   |   |   |   |   |   |   pixel455 > 0.158824
|   |   |   |   |   |   |   |   |   |   |   |   |   |   |   |   |   |   |   |   |   |   |   |   |   |   pixel491 <= 0.244118
|   |   |   |   |   |   |   |   |   |   |   |   |   |   |   |   |   |   |   |   |   |   |   |   |   |   |   pixel173 <= 0.246078
|   |   |   |   |   |   |   |   |   |   |   |   |   |   |   |   |   |   |   |   |   |   |   |   |   |   |   |   pixel220 <= 0.259804
|   |   |   |   |   |   |   |   |   |   |   |   |   |   |   |   |   |   |   |   |   |   |   |   |   |   |   |   |   pixel156 <= 0.232353: angry (3.0/1.0)
|   |   |   |   |   |   |   |   |   |   |   |   |   |   |   |   |   |   |   |   |   |   |   |   |   |   |   |   |   pixel156 > 0.232353: neutral (16.0)
|   |   |   |   |   |   |   |   |   |   |   |   |   |   |   |   |   |   |   |   |   |   |   |   |   |   |   |   pixel220 > 0.259804: angry (2.0/1.0)
|   |   |   |   |   |   |   |   |   |   |   |   |   |   |   |   |   |   |   |   |   |   |   |   |   |   |   pixel173 > 0.246078
|   |   |   |   |   |   |   |   |   |   |   |   |   |   |   |   |   |   |   |   |   |   |   |   |   |   |   |   pixel416 <= 0.329412: angry (7.0)
|   |   |   |   |   |   |   |   |   |   |   |   |   |   |   |   |   |   |   |   |   |   |   |   |   |   |   |   pixel416 > 0.329412: neutral (2.0)
|   |   |   |   |   |   |   |   |   |   |   |   |   |   |   |   |   |   |   |   |   |   |   |   |   |   pixel491 > 0.244118
|   |   |   |   |   |   |   |   |   |   |   |   |   |   |   |   |   |   |   |   |   |   |   |   |   |   |   pixel228 <= 0.346078: sad (3.0)
|   |   |   |   |   |   |   |   |   |   |   |   |   |   |   |   |   |   |   |   |   |   |   |   |   |   |   pixel228 > 0.346078: angry (3.0)
|   |   |   |   |   |   |   |   |   |   |   |   |   |   |   |   |   |   |   |   |   |   |   pixel515 > 0.380392
|   |   |   |   |   |   |   |   |   |   |   |   |   |   |   |   |   |   |   |   |   |   |   |   pixel173 <= 0.293137: neutral (8.0/1.0)
|   |   |   |   |   |   |   |   |   |   |   |   |   |   |   |   |   |   |   |   |   |   |   |   pixel173 > 0.293137: fear (3.0/1.0)
|   |   |   |   |   |   |   |   |   |   |   |   |   |   |   |   |   |   |   |   |   pixel244 > 0.342157
|   |   |   |   |   |   |   |   |   |   |   |   |   |   |   |   |   |   |   |   |   |   pixel252 <= 0.276471: neutral (2.0)
|   |   |   |   |   |   |   |   |   |   |   |   |   |   |   |   |   |   |   |   |   |   pixel252 > 0.276471: sad (11.0/1.0)
|   |   |   |   |   |   |   |   |   |   |   |   |   |   |   |   pixel320 > 0.569608
|   |   |   |   |   |   |   |   |   |   |   |   |   |   |   |   |   pixel317 <= 0.40098: sad (10.0)
|   |   |   |   |   |   |   |   |   |   |   |   |   |   |   |   |   pixel317 > 0.40098: happy (2.0)
|   |   |   |   |   |   |   |   |   |   |   |   |   |   |   pixel244 > 0.381373
|   |   |   |   |   |   |   |   |   |   |   |   |   |   |   |   pixel547 <= 0.720588
|   |   |   |   |   |   |   |   |   |   |   |   |   |   |   |   |   pixel551 <= 0.84902
|   |   |   |   |   |   |   |   |   |   |   |   |   |   |   |   |   |   pixel204 <= 0.27451
|   |   |   |   |   |   |   |   |   |   |   |   |   |   |   |   |   |   |   pixel550 <= 0.385294: angry (11.0/1.0)
|   |   |   |   |   |   |   |   |   |   |   |   |   |   |   |   |   |   |   pixel550 > 0.385294: sad (3.0/1.0)
|   |   |   |   |   |   |   |   |   |   |   |   |   |   |   |   |   |   pixel204 > 0.27451
|   |   |   |   |   |   |   |   |   |   |   |   |   |   |   |   |   |   |   pixel504 <= 0.839216
|   |   |   |   |   |   |   |   |   |   |   |   |   |   |   |   |   |   |   |   pixel503 <= 0.133333
|   |   |   |   |   |   |   |   |   |   |   |   |   |   |   |   |   |   |   |   |   pixel503 <= 0.054902: fear (3.0)
|   |   |   |   |   |   |   |   |   |   |   |   |   |   |   |   |   |   |   |   |   pixel503 > 0.054902: sad (14.0/1.0)
|   |   |   |   |   |   |   |   |   |   |   |   |   |   |   |   |   |   |   |   pixel503 > 0.133333
|   |   |   |   |   |   |   |   |   |   |   |   |   |   |   |   |   |   |   |   |   pixel544 <= 0.140196
|   |   |   |   |   |   |   |   |   |   |   |   |   |   |   |   |   |   |   |   |   |   pixel0 <= 0.272549: angry (2.0)
|   |   |   |   |   |   |   |   |   |   |   |   |   |   |   |   |   |   |   |   |   |   pixel0 > 0.272549: happy (3.0)
|   |   |   |   |   |   |   |   |   |   |   |   |   |   |   |   |   |   |   |   |   pixel544 > 0.140196
|   |   |   |   |   |   |   |   |   |   |   |   |   |   |   |   |   |   |   |   |   |   pixel367 <= 0.452941
|   |   |   |   |   |   |   |   |   |   |   |   |   |   |   |   |   |   |   |   |   |   |   pixel558 <= 0.056863: fear (3.0)
|   |   |   |   |   |   |   |   |   |   |   |   |   |   |   |   |   |   |   |   |   |   |   pixel558 > 0.056863
|   |   |   |   |   |   |   |   |   |   |   |   |   |   |   |   |   |   |   |   |   |   |   |   pixel569 <= 0.504902
|   |   |   |   |   |   |   |   |   |   |   |   |   |   |   |   |   |   |   |   |   |   |   |   |   pixel504 <= 0.429412
|   |   |   |   |   |   |   |   |   |   |   |   |   |   |   |   |   |   |   |   |   |   |   |   |   |   pixel312 <= 0.240196: sad (5.0)
|   |   |   |   |   |   |   |   |   |   |   |   |   |   |   |   |   |   |   |   |   |   |   |   |   |   pixel312 > 0.240196
|   |   |   |   |   |   |   |   |   |   |   |   |   |   |   |   |   |   |   |   |   |   |   |   |   |   |   pixel535 <= 0.079412: sad (2.0)
|   |   |   |   |   |   |   |   |   |   |   |   |   |   |   |   |   |   |   |   |   |   |   |   |   |   |   pixel535 > 0.079412: angry (5.0)
|   |   |   |   |   |   |   |   |   |   |   |   |   |   |   |   |   |   |   |   |   |   |   |   |   pixel504 > 0.429412: sad (9.0)
|   |   |   |   |   |   |   |   |   |   |   |   |   |   |   |   |   |   |   |   |   |   |   |   pixel569 > 0.504902: fear (3.0/1.0)
|   |   |   |   |   |   |   |   |   |   |   |   |   |   |   |   |   |   |   |   |   |   pixel367 > 0.452941
|   |   |   |   |   |   |   |   |   |   |   |   |   |   |   |   |   |   |   |   |   |   |   pixel59 <= 0.559804
|   |   |   |   |   |   |   |   |   |   |   |   |   |   |   |   |   |   |   |   |   |   |   |   pixel22 <= 0.17451: fear (3.0)
|   |   |   |   |   |   |   |   |   |   |   |   |   |   |   |   |   |   |   |   |   |   |   |   pixel22 > 0.17451: happy (2.0)
|   |   |   |   |   |   |   |   |   |   |   |   |   |   |   |   |   |   |   |   |   |   |   pixel59 > 0.559804: angry (5.0)
|   |   |   |   |   |   |   |   |   |   |   |   |   |   |   |   |   |   |   pixel504 > 0.839216: fear (4.0)
|   |   |   |   |   |   |   |   |   |   |   |   |   |   |   |   |   pixel551 > 0.84902: happy (3.0/1.0)
|   |   |   |   |   |   |   |   |   |   |   |   |   |   |   |   pixel547 > 0.720588: happy (5.0/1.0)
|   |   |   |   |   |   |   |   |   |   |   |   |   pixel59 > 0.711765
|   |   |   |   |   |   |   |   |   |   |   |   |   |   pixel563 <= 0.043137: neutral (3.0)
|   |   |   |   |   |   |   |   |   |   |   |   |   |   pixel563 > 0.043137
|   |   |   |   |   |   |   |   |   |   |   |   |   |   |   pixel131 <= 0.412745: happy (3.0)
|   |   |   |   |   |   |   |   |   |   |   |   |   |   |   pixel131 > 0.412745
|   |   |   |   |   |   |   |   |   |   |   |   |   |   |   |   pixel204 <= 0.623529
|   |   |   |   |   |   |   |   |   |   |   |   |   |   |   |   |   pixel416 <= 0.202941: angry (9.0)
|   |   |   |   |   |   |   |   |   |   |   |   |   |   |   |   |   pixel416 > 0.202941: fear (2.0)
|   |   |   |   |   |   |   |   |   |   |   |   |   |   |   |   pixel204 > 0.623529: fear (4.0)
|   |   |   |   |   |   |   |   |   |   |   pixel558 > 0.521569
|   |   |   |   |   |   |   |   |   |   |   |   pixel504 <= 0.912745
|   |   |   |   |   |   |   |   |   |   |   |   |   pixel416 <= 0.255882
|   |   |   |   |   |   |   |   |   |   |   |   |   |   pixel415 <= 0.064706: fear (3.0/1.0)
|   |   |   |   |   |   |   |   |   |   |   |   |   |   pixel415 > 0.064706
|   |   |   |   |   |   |   |   |   |   |   |   |   |   |   pixel467 <= 0.27549: neutral (7.0)
|   |   |   |   |   |   |   |   |   |   |   |   |   |   |   pixel467 > 0.27549: angry (2.0/1.0)
|   |   |   |   |   |   |   |   |   |   |   |   |   pixel416 > 0.255882: fear (6.0)
|   |   |   |   |   |   |   |   |   |   |   |   pixel504 > 0.912745: happy (2.0)
|   |   |   |   |   |   |   |   |   pixel466 > 0.382353
|   |   |   |   |   |   |   |   |   |   pixel1 <= 0.49902
|   |   |   |   |   |   |   |   |   |   |   pixel155 <= 0.536275
|   |   |   |   |   |   |   |   |   |   |   |   pixel391 <= 0.396078: happy (9.0/1.0)
|   |   |   |   |   |   |   |   |   |   |   |   pixel391 > 0.396078: angry (2.0/1.0)
|   |   |   |   |   |   |   |   |   |   |   pixel155 > 0.536275: sad (4.0/1.0)
|   |   |   |   |   |   |   |   |   |   pixel1 > 0.49902: angry (5.0)
|   |   |   |   |   |   |   |   pixel490 > 0.178431
|   |   |   |   |   |   |   |   |   pixel444 <= 0.157843
|   |   |   |   |   |   |   |   |   |   pixel552 <= 0.837255
|   |   |   |   |   |   |   |   |   |   |   pixel181 <= 0.132353: sad (12.0/2.0)
|   |   |   |   |   |   |   |   |   |   |   pixel181 > 0.132353
|   |   |   |   |   |   |   |   |   |   |   |   pixel307 <= 0.848039
|   |   |   |   |   |   |   |   |   |   |   |   |   pixel179 <= 0.695098
|   |   |   |   |   |   |   |   |   |   |   |   |   |   pixel320 <= 0.685294
|   |   |   |   |   |   |   |   |   |   |   |   |   |   |   pixel356 <= 0.093137
|   |   |   |   |   |   |   |   |   |   |   |   |   |   |   |   pixel294 <= 0.287255: fear (2.0)
|   |   |   |   |   |   |   |   |   |   |   |   |   |   |   |   pixel294 > 0.287255: sad (5.0)
|   |   |   |   |   |   |   |   |   |   |   |   |   |   |   pixel356 > 0.093137
|   |   |   |   |   |   |   |   |   |   |   |   |   |   |   |   pixel200 <= 0.295098
|   |   |   |   |   |   |   |   |   |   |   |   |   |   |   |   |   pixel155 <= 0.552941
|   |   |   |   |   |   |   |   |   |   |   |   |   |   |   |   |   |   pixel466 <= 0.180392
|   |   |   |   |   |   |   |   |   |   |   |   |   |   |   |   |   |   |   pixel131 <= 0.42451: angry (7.0/2.0)
|   |   |   |   |   |   |   |   |   |   |   |   |   |   |   |   |   |   |   pixel131 > 0.42451
|   |   |   |   |   |   |   |   |   |   |   |   |   |   |   |   |   |   |   |   pixel0 <= 0.191176: neutral (2.0)
|   |   |   |   |   |   |   |   |   |   |   |   |   |   |   |   |   |   |   |   pixel0 > 0.191176: fear (2.0)
|   |   |   |   |   |   |   |   |   |   |   |   |   |   |   |   |   |   pixel466 > 0.180392
|   |   |   |   |   |   |   |   |   |   |   |   |   |   |   |   |   |   |   pixel504 <= 0.718627
|   |   |   |   |   |   |   |   |   |   |   |   |   |   |   |   |   |   |   |   pixel544 <= 0.163725
|   |   |   |   |   |   |   |   |   |   |   |   |   |   |   |   |   |   |   |   |   pixel522 <= 0.092157: angry (4.0/1.0)
|   |   |   |   |   |   |   |   |   |   |   |   |   |   |   |   |   |   |   |   |   pixel522 > 0.092157: happy (5.0/1.0)
|   |   |   |   |   |   |   |   |   |   |   |   |   |   |   |   |   |   |   |   pixel544 > 0.163725
|   |   |   |   |   |   |   |   |   |   |   |   |   |   |   |   |   |   |   |   |   pixel320 <= 0.504902
|   |   |   |   |   |   |   |   |   |   |   |   |   |   |   |   |   |   |   |   |   |   pixel550 <= 0.056863: neutral (3.0)
|   |   |   |   |   |   |   |   |   |   |   |   |   |   |   |   |   |   |   |   |   |   pixel550 > 0.056863
|   |   |   |   |   |   |   |   |   |   |   |   |   |   |   |   |   |   |   |   |   |   |   pixel391 <= 0.408824
|   |   |   |   |   |   |   |   |   |   |   |   |   |   |   |   |   |   |   |   |   |   |   |   pixel551 <= 0.097059: angry (3.0/1.0)
|   |   |   |   |   |   |   |   |   |   |   |   |   |   |   |   |   |   |   |   |   |   |   |   pixel551 > 0.097059: sad (22.0/2.0)
|   |   |   |   |   |   |   |   |   |   |   |   |   |   |   |   |   |   |   |   |   |   |   pixel391 > 0.408824: angry (4.0/1.0)
|   |   |   |   |   |   |   |   |   |   |   |   |   |   |   |   |   |   |   |   |   pixel320 > 0.504902: neutral (6.0)
|   |   |   |   |   |   |   |   |   |   |   |   |   |   |   |   |   |   |   pixel504 > 0.718627
|   |   |   |   |   |   |   |   |   |   |   |   |   |   |   |   |   |   |   |   pixel22 <= 0.420588: angry (3.0)
|   |   |   |   |   |   |   |   |   |   |   |   |   |   |   |   |   |   |   |   pixel22 > 0.420588: happy (3.0)
|   |   |   |   |   |   |   |   |   |   |   |   |   |   |   |   |   pixel155 > 0.552941: angry (7.0)
|   |   |   |   |   |   |   |   |   |   |   |   |   |   |   |   pixel200 > 0.295098
|   |   |   |   |   |   |   |   |   |   |   |   |   |   |   |   |   pixel469 <= 0.329412
|   |   |   |   |   |   |   |   |   |   |   |   |   |   |   |   |   |   pixel220 <= 0.434314
|   |   |   |   |   |   |   |   |   |   |   |   |   |   |   |   |   |   |   pixel504 <= 0.155882: angry (5.0/1.0)
|   |   |   |   |   |   |   |   |   |   |   |   |   |   |   |   |   |   |   pixel504 > 0.155882: happy (9.0)
|   |   |   |   |   |   |   |   |   |   |   |   |   |   |   |   |   |   pixel220 > 0.434314: angry (6.0)
|   |   |   |   |   |   |   |   |   |   |   |   |   |   |   |   |   pixel469 > 0.329412
|   |   |   |   |   |   |   |   |   |   |   |   |   |   |   |   |   |   pixel173 <= 0.333333: fear (5.0)
|   |   |   |   |   |   |   |   |   |   |   |   |   |   |   |   |   |   pixel173 > 0.333333
|   |   |   |   |   |   |   |   |   |   |   |   |   |   |   |   |   |   |   pixel22 <= 0.602941: sad (2.0)
|   |   |   |   |   |   |   |   |   |   |   |   |   |   |   |   |   |   |   pixel22 > 0.602941: angry (2.0/1.0)
|   |   |   |   |   |   |   |   |   |   |   |   |   |   pixel320 > 0.685294
|   |   |   |   |   |   |   |   |   |   |   |   |   |   |   pixel401 <= 0.561765: happy (7.0)
|   |   |   |   |   |   |   |   |   |   |   |   |   |   |   pixel401 > 0.561765: fear (2.0/1.0)
|   |   |   |   |   |   |   |   |   |   |   |   |   pixel179 > 0.695098
|   |   |   |   |   |   |   |   |   |   |   |   |   |   pixel179 <= 0.810784: angry (15.0/1.0)
|   |   |   |   |   |   |   |   |   |   |   |   |   |   pixel179 > 0.810784: neutral (2.0/1.0)
|   |   |   |   |   |   |   |   |   |   |   |   pixel307 > 0.848039: happy (6.0/1.0)
|   |   |   |   |   |   |   |   |   |   pixel552 > 0.837255: neutral (5.0)
|   |   |   |   |   |   |   |   |   pixel444 > 0.157843
|   |   |   |   |   |   |   |   |   |   pixel504 <= 0.421569
|   |   |   |   |   |   |   |   |   |   |   pixel294 <= 0.753922
|   |   |   |   |   |   |   |   |   |   |   |   pixel225 <= 0.058824
|   |   |   |   |   |   |   |   |   |   |   |   |   pixel481 <= 0.284314
|   |   |   |   |   |   |   |   |   |   |   |   |   |   pixel384 <= 0.541176: neutral (16.0/1.0)
|   |   |   |   |   |   |   |   |   |   |   |   |   |   pixel384 > 0.541176: angry (2.0/1.0)
|   |   |   |   |   |   |   |   |   |   |   |   |   pixel481 > 0.284314: sad (3.0/1.0)
|   |   |   |   |   |   |   |   |   |   |   |   pixel225 > 0.058824
|   |   |   |   |   |   |   |   |   |   |   |   |   pixel200 <= 0.623529
|   |   |   |   |   |   |   |   |   |   |   |   |   |   pixel292 <= 0.69902
|   |   |   |   |   |   |   |   |   |   |   |   |   |   |   pixel391 <= 0.365686
|   |   |   |   |   |   |   |   |   |   |   |   |   |   |   |   pixel320 <= 0.105882
|   |   |   |   |   |   |   |   |   |   |   |   |   |   |   |   |   pixel424 <= 0.415686
|   |   |   |   |   |   |   |   |   |   |   |   |   |   |   |   |   |   pixel492 <= 0.259804: happy (2.0)
|   |   |   |   |   |   |   |   |   |   |   |   |   |   |   |   |   |   pixel492 > 0.259804: fear (5.0)
|   |   |   |   |   |   |   |   |   |   |   |   |   |   |   |   |   pixel424 > 0.415686: angry (7.0/1.0)
|   |   |   |   |   |   |   |   |   |   |   |   |   |   |   |   pixel320 > 0.105882
|   |   |   |   |   |   |   |   |   |   |   |   |   |   |   |   |   pixel227 <= 0.770588
|   |   |   |   |   |   |   |   |   |   |   |   |   |   |   |   |   |   pixel37 <= 0.236275
|   |   |   |   |   |   |   |   |   |   |   |   |   |   |   |   |   |   |   pixel492 <= 0.165686
|   |   |   |   |   |   |   |   |   |   |   |   |   |   |   |   |   |   |   |   pixel0 <= 0.568627: neutral (6.0/1.0)
|   |   |   |   |   |   |   |   |   |   |   |   |   |   |   |   |   |   |   |   pixel0 > 0.568627: sad (2.0)
|   |   |   |   |   |   |   |   |   |   |   |   |   |   |   |   |   |   |   pixel492 > 0.165686
|   |   |   |   |   |   |   |   |   |   |   |   |   |   |   |   |   |   |   |   pixel37 <= 0.035294
|   |   |   |   |   |   |   |   |   |   |   |   |   |   |   |   |   |   |   |   |   pixel22 <= 0.037255: sad (4.0/1.0)
|   |   |   |   |   |   |   |   |   |   |   |   |   |   |   |   |   |   |   |   |   pixel22 > 0.037255
|   |   |   |   |   |   |   |   |   |   |   |   |   |   |   |   |   |   |   |   |   |   pixel490 <= 0.290196: neutral (7.0)
|   |   |   |   |   |   |   |   |   |   |   |   |   |   |   |   |   |   |   |   |   |   pixel490 > 0.290196: happy (3.0/1.0)
|   |   |   |   |   |   |   |   |   |   |   |   |   |   |   |   |   |   |   |   pixel37 > 0.035294
|   |   |   |   |   |   |   |   |   |   |   |   |   |   |   |   |   |   |   |   |   pixel343 <= 0.147059
|   |   |   |   |   |   |   |   |   |   |   |   |   |   |   |   |   |   |   |   |   |   pixel0 <= 0.053922: angry (2.0)
|   |   |   |   |   |   |   |   |   |   |   |   |   |   |   |   |   |   |   |   |   |   pixel0 > 0.053922: sad (4.0)
|   |   |   |   |   |   |   |   |   |   |   |   |   |   |   |   |   |   |   |   |   pixel343 > 0.147059
|   |   |   |   |   |   |   |   |   |   |   |   |   |   |   |   |   |   |   |   |   |   pixel504 <= 0.390196
|   |   |   |   |   |   |   |   |   |   |   |   |   |   |   |   |   |   |   |   |   |   |   pixel119 <= 0.45
|   |   |   |   |   |   |   |   |   |   |   |   |   |   |   |   |   |   |   |   |   |   |   |   pixel367 <= 0.234314: happy (11.0/1.0)
|   |   |   |   |   |   |   |   |   |   |   |   |   |   |   |   |   |   |   |   |   |   |   |   pixel367 > 0.234314
|   |   |   |   |   |   |   |   |   |   |   |   |   |   |   |   |   |   |   |   |   |   |   |   |   pixel312 <= 0.451961
|   |   |   |   |   |   |   |   |   |   |   |   |   |   |   |   |   |   |   |   |   |   |   |   |   |   pixel317 <= 0.255882
|   |   |   |   |   |   |   |   |   |   |   |   |   |   |   |   |   |   |   |   |   |   |   |   |   |   |   pixel203 <= 0.366667
|   |   |   |   |   |   |   |   |   |   |   |   |   |   |   |   |   |   |   |   |   |   |   |   |   |   |   |   pixel343 <= 0.247059: angry (2.0)
|   |   |   |   |   |   |   |   |   |   |   |   |   |   |   |   |   |   |   |   |   |   |   |   |   |   |   |   pixel343 > 0.247059: sad (8.0/1.0)
|   |   |   |   |   |   |   |   |   |   |   |   |   |   |   |   |   |   |   |   |   |   |   |   |   |   |   pixel203 > 0.366667: happy (2.0)
|   |   |   |   |   |   |   |   |   |   |   |   |   |   |   |   |   |   |   |   |   |   |   |   |   |   pixel317 > 0.255882
|   |   |   |   |   |   |   |   |   |   |   |   |   |   |   |   |   |   |   |   |   |   |   |   |   |   |   pixel444 <= 0.176471: angry (4.0/1.0)
|   |   |   |   |   |   |   |   |   |   |   |   |   |   |   |   |   |   |   |   |   |   |   |   |   |   |   pixel444 > 0.176471
|   |   |   |   |   |   |   |   |   |   |   |   |   |   |   |   |   |   |   |   |   |   |   |   |   |   |   |   pixel307 <= 0.10098: angry (3.0)
|   |   |   |   |   |   |   |   |   |   |   |   |   |   |   |   |   |   |   |   |   |   |   |   |   |   |   |   pixel307 > 0.10098
|   |   |   |   |   |   |   |   |   |   |   |   |   |   |   |   |   |   |   |   |   |   |   |   |   |   |   |   |   pixel4 <= 0.342157
|   |   |   |   |   |   |   |   |   |   |   |   |   |   |   |   |   |   |   |   |   |   |   |   |   |   |   |   |   |   pixel551 <= 0.243137
|   |   |   |   |   |   |   |   |   |   |   |   |   |   |   |   |   |   |   |   |   |   |   |   |   |   |   |   |   |   |   pixel551 <= 0.046078: happy (9.0/1.0)
|   |   |   |   |   |   |   |   |   |   |   |   |   |   |   |   |   |   |   |   |   |   |   |   |   |   |   |   |   |   |   pixel551 > 0.046078
|   |   |   |   |   |   |   |   |   |   |   |   |   |   |   |   |   |   |   |   |   |   |   |   |   |   |   |   |   |   |   |   pixel384 <= 0.176471: neutral (9.0/1.0)
|   |   |   |   |   |   |   |   |   |   |   |   |   |   |   |   |   |   |   |   |   |   |   |   |   |   |   |   |   |   |   |   pixel384 > 0.176471
|   |   |   |   |   |   |   |   |   |   |   |   |   |   |   |   |   |   |   |   |   |   |   |   |   |   |   |   |   |   |   |   |   pixel292 <= 0.284314: happy (4.0/1.0)
|   |   |   |   |   |   |   |   |   |   |   |   |   |   |   |   |   |   |   |   |   |   |   |   |   |   |   |   |   |   |   |   |   pixel292 > 0.284314: neutral (4.0/1.0)
|   |   |   |   |   |   |   |   |   |   |   |   |   |   |   |   |   |   |   |   |   |   |   |   |   |   |   |   |   |   pixel551 > 0.243137: happy (10.0)
|   |   |   |   |   |   |   |   |   |   |   |   |   |   |   |   |   |   |   |   |   |   |   |   |   |   |   |   |   pixel4 > 0.342157
|   |   |   |   |   |   |   |   |   |   |   |   |   |   |   |   |   |   |   |   |   |   |   |   |   |   |   |   |   |   pixel48 <= 0.177451: neutral (4.0)
|   |   |   |   |   |   |   |   |   |   |   |   |   |   |   |   |   |   |   |   |   |   |   |   |   |   |   |   |   |   pixel48 > 0.177451: angry (3.0)
|   |   |   |   |   |   |   |   |   |   |   |   |   |   |   |   |   |   |   |   |   |   |   |   |   pixel312 > 0.451961
|   |   |   |   |   |   |   |   |   |   |   |   |   |   |   |   |   |   |   |   |   |   |   |   |   |   pixel515 <= 0.214706: neutral (2.0)
|   |   |   |   |   |   |   |   |   |   |   |   |   |   |   |   |   |   |   |   |   |   |   |   |   |   pixel515 > 0.214706: sad (6.0/1.0)
|   |   |   |   |   |   |   |   |   |   |   |   |   |   |   |   |   |   |   |   |   |   |   pixel119 > 0.45
|   |   |   |   |   |   |   |   |   |   |   |   |   |   |   |   |   |   |   |   |   |   |   |   pixel391 <= 0.283333: happy (18.0)
|   |   |   |   |   |   |   |   |   |   |   |   |   |   |   |   |   |   |   |   |   |   |   |   pixel391 > 0.283333
|   |   |   |   |   |   |   |   |   |   |   |   |   |   |   |   |   |   |   |   |   |   |   |   |   pixel155 <= 0.326471: happy (5.0/1.0)
|   |   |   |   |   |   |   |   |   |   |   |   |   |   |   |   |   |   |   |   |   |   |   |   |   pixel155 > 0.326471: neutral (3.0/1.0)
|   |   |   |   |   |   |   |   |   |   |   |   |   |   |   |   |   |   |   |   |   |   pixel504 > 0.390196: angry (3.0)
|   |   |   |   |   |   |   |   |   |   |   |   |   |   |   |   |   |   pixel37 > 0.236275
|   |   |   |   |   |   |   |   |   |   |   |   |   |   |   |   |   |   |   pixel492 <= 0.263725
|   |   |   |   |   |   |   |   |   |   |   |   |   |   |   |   |   |   |   |   pixel490 <= 0.180392: happy (4.0)
|   |   |   |   |   |   |   |   |   |   |   |   |   |   |   |   |   |   |   |   pixel490 > 0.180392
|   |   |   |   |   |   |   |   |   |   |   |   |   |   |   |   |   |   |   |   |   pixel312 <= 0.844118
|   |   |   |   |   |   |   |   |   |   |   |   |   |   |   |   |   |   |   |   |   |   pixel491 <= 0.289216
|   |   |   |   |   |   |   |   |   |   |   |   |   |   |   |   |   |   |   |   |   |   |   pixel566 <= 0.641176
|   |   |   |   |   |   |   |   |   |   |   |   |   |   |   |   |   |   |   |   |   |   |   |   pixel119 <= 0.738235
|   |   |   |   |   |   |   |   |   |   |   |   |   |   |   |   |   |   |   |   |   |   |   |   |   pixel220 <= 0.32451
|   |   |   |   |   |   |   |   |   |   |   |   |   |   |   |   |   |   |   |   |   |   |   |   |   |   pixel47 <= 0.365686
|   |   |   |   |   |   |   |   |   |   |   |   |   |   |   |   |   |   |   |   |   |   |   |   |   |   |   pixel492 <= 0.24902
|   |   |   |   |   |   |   |   |   |   |   |   |   |   |   |   |   |   |   |   |   |   |   |   |   |   |   |   pixel367 <= 0.138235: happy (3.0/1.0)
|   |   |   |   |   |   |   |   |   |   |   |   |   |   |   |   |   |   |   |   |   |   |   |   |   |   |   |   pixel367 > 0.138235
|   |   |   |   |   |   |   |   |   |   |   |   |   |   |   |   |   |   |   |   |   |   |   |   |   |   |   |   |   pixel552 <= 0.407843
|   |   |   |   |   |   |   |   |   |   |   |   |   |   |   |   |   |   |   |   |   |   |   |   |   |   |   |   |   |   pixel225 <= 0.557843
|   |   |   |   |   |   |   |   |   |   |   |   |   |   |   |   |   |   |   |   |   |   |   |   |   |   |   |   |   |   |   pixel490 <= 0.282353
|   |   |   |   |   |   |   |   |   |   |   |   |   |   |   |   |   |   |   |   |   |   |   |   |   |   |   |   |   |   |   |   pixel468 <= 0.314706
|   |   |   |   |   |   |   |   |   |   |   |   |   |   |   |   |   |   |   |   |   |   |   |   |   |   |   |   |   |   |   |   |   pixel4 <= 0.404902
|   |   |   |   |   |   |   |   |   |   |   |   |   |   |   |   |   |   |   |   |   |   |   |   |   |   |   |   |   |   |   |   |   |   pixel491 <= 0.194118
|   |   |   |   |   |   |   |   |   |   |   |   |   |   |   |   |   |   |   |   |   |   |   |   |   |   |   |   |   |   |   |   |   |   |   pixel383 <= 0.47549: neutral (3.0/1.0)
|   |   |   |   |   |   |   |   |   |   |   |   |   |   |   |   |   |   |   |   |   |   |   |   |   |   |   |   |   |   |   |   |   |   |   pixel383 > 0.47549: sad (4.0)
|   |   |   |   |   |   |   |   |   |   |   |   |   |   |   |   |   |   |   |   |   |   |   |   |   |   |   |   |   |   |   |   |   |   pixel491 > 0.194118: sad (13.0)
|   |   |   |   |   |   |   |   |   |   |   |   |   |   |   |   |   |   |   |   |   |   |   |   |   |   |   |   |   |   |   |   |   pixel4 > 0.404902: neutral (2.0)
|   |   |   |   |   |   |   |   |   |   |   |   |   |   |   |   |   |   |   |   |   |   |   |   |   |   |   |   |   |   |   |   pixel468 > 0.314706: neutral (5.0)
|   |   |   |   |   |   |   |   |   |   |   |   |   |   |   |   |   |   |   |   |   |   |   |   |   |   |   |   |   |   |   pixel490 > 0.282353
|   |   |   |   |   |   |   |   |   |   |   |   |   |   |   |   |   |   |   |   |   |   |   |   |   |   |   |   |   |   |   |   pixel503 <= 0.162745: happy (3.0)
|   |   |   |   |   |   |   |   |   |   |   |   |   |   |   |   |   |   |   |   |   |   |   |   |   |   |   |   |   |   |   |   pixel503 > 0.162745: sad (6.0)
|   |   |   |   |   |   |   |   |   |   |   |   |   |   |   |   |   |   |   |   |   |   |   |   |   |   |   |   |   |   pixel225 > 0.557843: fear (2.0)
|   |   |   |   |   |   |   |   |   |   |   |   |   |   |   |   |   |   |   |   |   |   |   |   |   |   |   |   |   pixel552 > 0.407843: fear (2.0)
|   |   |   |   |   |   |   |   |   |   |   |   |   |   |   |   |   |   |   |   |   |   |   |   |   |   |   pixel492 > 0.24902
|   |   |   |   |   |   |   |   |   |   |   |   |   |   |   |   |   |   |   |   |   |   |   |   |   |   |   |   pixel71 <= 0.157843: neutral (3.0)
|   |   |   |   |   |   |   |   |   |   |   |   |   |   |   |   |   |   |   |   |   |   |   |   |   |   |   |   pixel71 > 0.157843: fear (3.0)
|   |   |   |   |   |   |   |   |   |   |   |   |   |   |   |   |   |   |   |   |   |   |   |   |   |   pixel47 > 0.365686
|   |   |   |   |   |   |   |   |   |   |   |   |   |   |   |   |   |   |   |   |   |   |   |   |   |   |   pixel544 <= 0.555882
|   |   |   |   |   |   |   |   |   |   |   |   |   |   |   |   |   |   |   |   |   |   |   |   |   |   |   |   pixel490 <= 0.278431
|   |   |   |   |   |   |   |   |   |   |   |   |   |   |   |   |   |   |   |   |   |   |   |   |   |   |   |   |   pixel244 <= 0.237255: neutral (17.0)
|   |   |   |   |   |   |   |   |   |   |   |   |   |   |   |   |   |   |   |   |   |   |   |   |   |   |   |   |   pixel244 > 0.237255
|   |   |   |   |   |   |   |   |   |   |   |   |   |   |   |   |   |   |   |   |   |   |   |   |   |   |   |   |   |   pixel416 <= 0.201961: sad (4.0)
|   |   |   |   |   |   |   |   |   |   |   |   |   |   |   |   |   |   |   |   |   |   |   |   |   |   |   |   |   |   pixel416 > 0.201961
|   |   |   |   |   |   |   |   |   |   |   |   |   |   |   |   |   |   |   |   |   |   |   |   |   |   |   |   |   |   |   pixel391 <= 0.292157: sad (3.0/1.0)
|   |   |   |   |   |   |   |   |   |   |   |   |   |   |   |   |   |   |   |   |   |   |   |   |   |   |   |   |   |   |   pixel391 > 0.292157: neutral (8.0)
|   |   |   |   |   |   |   |   |   |   |   |   |   |   |   |   |   |   |   |   |   |   |   |   |   |   |   |   pixel490 > 0.278431
|   |   |   |   |   |   |   |   |   |   |   |   |   |   |   |   |   |   |   |   |   |   |   |   |   |   |   |   |   pixel569 <= 0.237255: angry (4.0/1.0)
|   |   |   |   |   |   |   |   |   |   |   |   |   |   |   |   |   |   |   |   |   |   |   |   |   |   |   |   |   pixel569 > 0.237255: neutral (3.0)
|   |   |   |   |   |   |   |   |   |   |   |   |   |   |   |   |   |   |   |   |   |   |   |   |   |   |   pixel544 > 0.555882: fear (2.0)
|   |   |   |   |   |   |   |   |   |   |   |   |   |   |   |   |   |   |   |   |   |   |   |   |   pixel220 > 0.32451
|   |   |   |   |   |   |   |   |   |   |   |   |   |   |   |   |   |   |   |   |   |   |   |   |   |   pixel416 <= 0.273529
|   |   |   |   |   |   |   |   |   |   |   |   |   |   |   |   |   |   |   |   |   |   |   |   |   |   |   pixel317 <= 0.502941
|   |   |   |   |   |   |   |   |   |   |   |   |   |   |   |   |   |   |   |   |   |   |   |   |   |   |   |   pixel244 <= 0.482353: angry (8.0)
|   |   |   |   |   |   |   |   |   |   |   |   |   |   |   |   |   |   |   |   |   |   |   |   |   |   |   |   pixel244 > 0.482353: happy (2.0)
|   |   |   |   |   |   |   |   |   |   |   |   |   |   |   |   |   |   |   |   |   |   |   |   |   |   |   pixel317 > 0.502941: sad (2.0)
|   |   |   |   |   |   |   |   |   |   |   |   |   |   |   |   |   |   |   |   |   |   |   |   |   |   pixel416 > 0.273529
|   |   |   |   |   |   |   |   |   |   |   |   |   |   |   |   |   |   |   |   |   |   |   |   |   |   |   pixel225 <= 0.222549: angry (3.0)
|   |   |   |   |   |   |   |   |   |   |   |   |   |   |   |   |   |   |   |   |   |   |   |   |   |   |   pixel225 > 0.222549
|   |   |   |   |   |   |   |   |   |   |   |   |   |   |   |   |   |   |   |   |   |   |   |   |   |   |   |   pixel455 <= 0.178431: fear (5.0/1.0)
|   |   |   |   |   |   |   |   |   |   |   |   |   |   |   |   |   |   |   |   |   |   |   |   |   |   |   |   pixel455 > 0.178431
|   |   |   |   |   |   |   |   |   |   |   |   |   |   |   |   |   |   |   |   |   |   |   |   |   |   |   |   |   pixel416 <= 0.330392: neutral (6.0)
|   |   |   |   |   |   |   |   |   |   |   |   |   |   |   |   |   |   |   |   |   |   |   |   |   |   |   |   |   pixel416 > 0.330392: sad (5.0/1.0)
|   |   |   |   |   |   |   |   |   |   |   |   |   |   |   |   |   |   |   |   |   |   |   |   pixel119 > 0.738235
|   |   |   |   |   |   |   |   |   |   |   |   |   |   |   |   |   |   |   |   |   |   |   |   |   pixel552 <= 0.144118: sad (6.0)
|   |   |   |   |   |   |   |   |   |   |   |   |   |   |   |   |   |   |   |   |   |   |   |   |   pixel552 > 0.144118
|   |   |   |   |   |   |   |   |   |   |   |   |   |   |   |   |   |   |   |   |   |   |   |   |   |   pixel0 <= 0.452941: fear (4.0)
|   |   |   |   |   |   |   |   |   |   |   |   |   |   |   |   |   |   |   |   |   |   |   |   |   |   pixel0 > 0.452941: happy (2.0)
|   |   |   |   |   |   |   |   |   |   |   |   |   |   |   |   |   |   |   |   |   |   |   pixel566 > 0.641176: angry (4.0)
|   |   |   |   |   |   |   |   |   |   |   |   |   |   |   |   |   |   |   |   |   |   pixel491 > 0.289216
|   |   |   |   |   |   |   |   |   |   |   |   |   |   |   |   |   |   |   |   |   |   |   pixel569 <= 0.117647: happy (2.0)
|   |   |   |   |   |   |   |   |   |   |   |   |   |   |   |   |   |   |   |   |   |   |   pixel569 > 0.117647
|   |   |   |   |   |   |   |   |   |   |   |   |   |   |   |   |   |   |   |   |   |   |   |   pixel0 <= 0.664706: sad (11.0)
|   |   |   |   |   |   |   |   |   |   |   |   |   |   |   |   |   |   |   |   |   |   |   |   pixel0 > 0.664706: angry (2.0)
|   |   |   |   |   |   |   |   |   |   |   |   |   |   |   |   |   |   |   |   |   pixel312 > 0.844118: happy (5.0/1.0)
|   |   |   |   |   |   |   |   |   |   |   |   |   |   |   |   |   |   |   pixel492 > 0.263725
|   |   |   |   |   |   |   |   |   |   |   |   |   |   |   |   |   |   |   |   pixel551 <= 0.907843
|   |   |   |   |   |   |   |   |   |   |   |   |   |   |   |   |   |   |   |   |   pixel317 <= 0.410784
|   |   |   |   |   |   |   |   |   |   |   |   |   |   |   |   |   |   |   |   |   |   pixel569 <= 0.787255
|   |   |   |   |   |   |   |   |   |   |   |   |   |   |   |   |   |   |   |   |   |   |   pixel203 <= 0.140196
|   |   |   |   |   |   |   |   |   |   |   |   |   |   |   |   |   |   |   |   |   |   |   |   pixel294 <= 0.235294: sad (4.0)
|   |   |   |   |   |   |   |   |   |   |   |   |   |   |   |   |   |   |   |   |   |   |   |   pixel294 > 0.235294: angry (9.0/1.0)
|   |   |   |   |   |   |   |   |   |   |   |   |   |   |   |   |   |   |   |   |   |   |   pixel203 > 0.140196
|   |   |   |   |   |   |   |   |   |   |   |   |   |   |   |   |   |   |   |   |   |   |   |   pixel181 <= 0.557843
|   |   |   |   |   |   |   |   |   |   |   |   |   |   |   |   |   |   |   |   |   |   |   |   |   pixel344 <= 0.515686
|   |   |   |   |   |   |   |   |   |   |   |   |   |   |   |   |   |   |   |   |   |   |   |   |   |   pixel424 <= 0.311765
|   |   |   |   |   |   |   |   |   |   |   |   |   |   |   |   |   |   |   |   |   |   |   |   |   |   |   pixel203 <= 0.202941
|   |   |   |   |   |   |   |   |   |   |   |   |   |   |   |   |   |   |   |   |   |   |   |   |   |   |   |   pixel225 <= 0.113725: angry (3.0)
|   |   |   |   |   |   |   |   |   |   |   |   |   |   |   |   |   |   |   |   |   |   |   |   |   |   |   |   pixel225 > 0.113725
|   |   |   |   |   |   |   |   |   |   |   |   |   |   |   |   |   |   |   |   |   |   |   |   |   |   |   |   |   pixel444 <= 0.270588: happy (2.0)
|   |   |   |   |   |   |   |   |   |   |   |   |   |   |   |   |   |   |   |   |   |   |   |   |   |   |   |   |   pixel444 > 0.270588: sad (6.0/1.0)
|   |   |   |   |   |   |   |   |   |   |   |   |   |   |   |   |   |   |   |   |   |   |   |   |   |   |   pixel203 > 0.202941
|   |   |   |   |   |   |   |   |   |   |   |   |   |   |   |   |   |   |   |   |   |   |   |   |   |   |   |   pixel566 <= 0.308824
|   |   |   |   |   |   |   |   |   |   |   |   |   |   |   |   |   |   |   |   |   |   |   |   |   |   |   |   |   pixel552 <= 0.164706
|   |   |   |   |   |   |   |   |   |   |   |   |   |   |   |   |   |   |   |   |   |   |   |   |   |   |   |   |   |   pixel566 <= 0.245098
|   |   |   |   |   |   |   |   |   |   |   |   |   |   |   |   |   |   |   |   |   |   |   |   |   |   |   |   |   |   |   pixel481 <= 0.068627: neutral (3.0/1.0)
|   |   |   |   |   |   |   |   |   |   |   |   |   |   |   |   |   |   |   |   |   |   |   |   |   |   |   |   |   |   |   pixel481 > 0.068627: happy (8.0)
