<?xml version="1.0"?>
<!-- DTD for the XMLBIF 0.3 format -->
<!DOCTYPE BIF [
	<!ELEMENT BIF ( NETWORK )*>
	      <!ATTLIST BIF VERSION CDATA #REQUIRED>
	<!ELEMENT NETWORK ( NAME, ( PROPERTY | VARIABLE | DEFINITION )* )>
	<!ELEMENT NAME (#PCDATA)>
	<!ELEMENT VARIABLE ( NAME, ( OUTCOME |  PROPERTY )* ) >
	      <!ATTLIST VARIABLE TYPE (nature|decision|utility) "nature">
	<!ELEMENT OUTCOME (#PCDATA)>
	<!ELEMENT DEFINITION ( FOR | GIVEN | TABLE | PROPERTY )* >
	<!ELEMENT FOR (#PCDATA)>
	<!ELEMENT GIVEN (#PCDATA)>
	<!ELEMENT TABLE (#PCDATA)>
	<!ELEMENT PROPERTY (#PCDATA)>
]>


<BIF VERSION="0.3">
<NETWORK>
<NAME>faces-weka.filters.supervised.attribute.Discretize-Rfirst-last-precision6-weka.filters.unsupervised.attribute.ReplaceMissingValues</NAME>
<VARIABLE TYPE="nature">
<NAME>emotion</NAME>
<OUTCOME>angry</OUTCOME>
<OUTCOME>disgust</OUTCOME>
<OUTCOME>fear</OUTCOME>
<OUTCOME>happy</OUTCOME>
<OUTCOME>neutral</OUTCOME>
<OUTCOME>sad</OUTCOME>
<OUTCOME>surprise</OUTCOME>
</VARIABLE>
<VARIABLE TYPE="nature">
<NAME>pixel0</NAME>
<OUTCOME>&apos;\&apos;(-inf-0.448039]\&apos;&apos;</OUTCOME>
<OUTCOME>&apos;\&apos;(0.448039-0.685294]\&apos;&apos;</OUTCOME>
<OUTCOME>&apos;\&apos;(0.685294-0.789216]\&apos;&apos;</OUTCOME>
<OUTCOME>&apos;\&apos;(0.789216-inf)\&apos;&apos;</OUTCOME>
</VARIABLE>
<VARIABLE TYPE="nature">
<NAME>pixel1</NAME>
<OUTCOME>&apos;\&apos;(-inf-0.288725]\&apos;&apos;</OUTCOME>
<OUTCOME>&apos;\&apos;(0.288725-0.52451]\&apos;&apos;</OUTCOME>
<OUTCOME>&apos;\&apos;(0.52451-0.620098]\&apos;&apos;</OUTCOME>
<OUTCOME>&apos;\&apos;(0.620098-0.764216]\&apos;&apos;</OUTCOME>
<OUTCOME>&apos;\&apos;(0.764216-inf)\&apos;&apos;</OUTCOME>
</VARIABLE>
<VARIABLE TYPE="nature">
<NAME>pixel2</NAME>
<OUTCOME>&apos;\&apos;(-inf-0.230882]\&apos;&apos;</OUTCOME>
<OUTCOME>&apos;\&apos;(0.230882-0.40098]\&apos;&apos;</OUTCOME>
<OUTCOME>&apos;\&apos;(0.40098-0.661765]\&apos;&apos;</OUTCOME>
<OUTCOME>&apos;\&apos;(0.661765-0.757353]\&apos;&apos;</OUTCOME>
<OUTCOME>&apos;\&apos;(0.757353-inf)\&apos;&apos;</OUTCOME>
</VARIABLE>
<VARIABLE TYPE="nature">
<NAME>pixel3</NAME>
<OUTCOME>&apos;\&apos;(-inf-0.42598]\&apos;&apos;</OUTCOME>
<OUTCOME>&apos;\&apos;(0.42598-0.648039]\&apos;&apos;</OUTCOME>
<OUTCOME>&apos;\&apos;(0.648039-0.786275]\&apos;&apos;</OUTCOME>
<OUTCOME>&apos;\&apos;(0.786275-inf)\&apos;&apos;</OUTCOME>
</VARIABLE>
<VARIABLE TYPE="nature">
<NAME>pixel4</NAME>
<OUTCOME>&apos;\&apos;(-inf-0.408824]\&apos;&apos;</OUTCOME>
<OUTCOME>&apos;\&apos;(0.408824-0.696569]\&apos;&apos;</OUTCOME>
<OUTCOME>&apos;\&apos;(0.696569-0.783333]\&apos;&apos;</OUTCOME>
<OUTCOME>&apos;\&apos;(0.783333-inf)\&apos;&apos;</OUTCOME>
</VARIABLE>
<VARIABLE TYPE="nature">
<NAME>pixel5</NAME>
<OUTCOME>&apos;\&apos;(-inf-0.179412]\&apos;&apos;</OUTCOME>
<OUTCOME>&apos;\&apos;(0.179412-0.473529]\&apos;&apos;</OUTCOME>
<OUTCOME>&apos;\&apos;(0.473529-0.70049]\&apos;&apos;</OUTCOME>
<OUTCOME>&apos;\&apos;(0.70049-inf)\&apos;&apos;</OUTCOME>
</VARIABLE>
<VARIABLE TYPE="nature">
<NAME>pixel6</NAME>
<OUTCOME>&apos;\&apos;(-inf-0.378431]\&apos;&apos;</OUTCOME>
<OUTCOME>&apos;\&apos;(0.378431-0.656863]\&apos;&apos;</OUTCOME>
<OUTCOME>&apos;\&apos;(0.656863-0.779412]\&apos;&apos;</OUTCOME>
<OUTCOME>&apos;\&apos;(0.779412-inf)\&apos;&apos;</OUTCOME>
</VARIABLE>
<VARIABLE TYPE="nature">
<NAME>pixel7</NAME>
<OUTCOME>&apos;\&apos;(-inf-0.230392]\&apos;&apos;</OUTCOME>
<OUTCOME>&apos;\&apos;(0.230392-0.482353]\&apos;&apos;</OUTCOME>
<OUTCOME>&apos;\&apos;(0.482353-0.684314]\&apos;&apos;</OUTCOME>
<OUTCOME>&apos;\&apos;(0.684314-0.794608]\&apos;&apos;</OUTCOME>
<OUTCOME>&apos;\&apos;(0.794608-inf)\&apos;&apos;</OUTCOME>
</VARIABLE>
<VARIABLE TYPE="nature">
<NAME>pixel8</NAME>
<OUTCOME>&apos;\&apos;(-inf-0.47402]\&apos;&apos;</OUTCOME>
<OUTCOME>&apos;\&apos;(0.47402-0.7]\&apos;&apos;</OUTCOME>
<OUTCOME>&apos;\&apos;(0.7-0.796078]\&apos;&apos;</OUTCOME>
<OUTCOME>&apos;\&apos;(0.796078-inf)\&apos;&apos;</OUTCOME>
</VARIABLE>
<VARIABLE TYPE="nature">
<NAME>pixel9</NAME>
<OUTCOME>&apos;\&apos;(-inf-0.293137]\&apos;&apos;</OUTCOME>
<OUTCOME>&apos;\&apos;(0.293137-0.631863]\&apos;&apos;</OUTCOME>
<OUTCOME>&apos;\&apos;(0.631863-inf)\&apos;&apos;</OUTCOME>
</VARIABLE>
<VARIABLE TYPE="nature">
<NAME>pixel10</NAME>
<OUTCOME>&apos;\&apos;(-inf-0.170588]\&apos;&apos;</OUTCOME>
<OUTCOME>&apos;\&apos;(0.170588-0.601471]\&apos;&apos;</OUTCOME>
<OUTCOME>&apos;\&apos;(0.601471-inf)\&apos;&apos;</OUTCOME>
</VARIABLE>
<VARIABLE TYPE="nature">
<NAME>pixel11</NAME>
<OUTCOME>&apos;\&apos;(-inf-0.107353]\&apos;&apos;</OUTCOME>
<OUTCOME>&apos;\&apos;(0.107353-0.492157]\&apos;&apos;</OUTCOME>
<OUTCOME>&apos;\&apos;(0.492157-0.663235]\&apos;&apos;</OUTCOME>
<OUTCOME>&apos;\&apos;(0.663235-inf)\&apos;&apos;</OUTCOME>
</VARIABLE>
<VARIABLE TYPE="nature">
<NAME>pixel12</NAME>
<OUTCOME>&apos;\&apos;(-inf-0.505392]\&apos;&apos;</OUTCOME>
<OUTCOME>&apos;\&apos;(0.505392-inf)\&apos;&apos;</OUTCOME>
</VARIABLE>
<VARIABLE TYPE="nature">
<NAME>pixel13</NAME>
<OUTCOME>&apos;\&apos;(-inf-0.108824]\&apos;&apos;</OUTCOME>
<OUTCOME>&apos;\&apos;(0.108824-0.564706]\&apos;&apos;</OUTCOME>
<OUTCOME>&apos;\&apos;(0.564706-inf)\&apos;&apos;</OUTCOME>
</VARIABLE>
<VARIABLE TYPE="nature">
<NAME>pixel14</NAME>
<OUTCOME>&apos;\&apos;(-inf-0.152451]\&apos;&apos;</OUTCOME>
<OUTCOME>&apos;\&apos;(0.152451-0.585294]\&apos;&apos;</OUTCOME>
<OUTCOME>&apos;\&apos;(0.585294-inf)\&apos;&apos;</OUTCOME>
</VARIABLE>
<VARIABLE TYPE="nature">
<NAME>pixel15</NAME>
<OUTCOME>&apos;\&apos;(-inf-0.197059]\&apos;&apos;</OUTCOME>
<OUTCOME>&apos;\&apos;(0.197059-0.584314]\&apos;&apos;</OUTCOME>
<OUTCOME>&apos;\&apos;(0.584314-0.704902]\&apos;&apos;</OUTCOME>
<OUTCOME>&apos;\&apos;(0.704902-inf)\&apos;&apos;</OUTCOME>
</VARIABLE>
<VARIABLE TYPE="nature">
<NAME>pixel16</NAME>
<OUTCOME>&apos;\&apos;(-inf-0.318627]\&apos;&apos;</OUTCOME>
<OUTCOME>&apos;\&apos;(0.318627-0.589216]\&apos;&apos;</OUTCOME>
<OUTCOME>&apos;\&apos;(0.589216-0.706863]\&apos;&apos;</OUTCOME>
<OUTCOME>&apos;\&apos;(0.706863-inf)\&apos;&apos;</OUTCOME>
</VARIABLE>
<VARIABLE TYPE="nature">
<NAME>pixel17</NAME>
<OUTCOME>&apos;\&apos;(-inf-0.530392]\&apos;&apos;</OUTCOME>
<OUTCOME>&apos;\&apos;(0.530392-0.65049]\&apos;&apos;</OUTCOME>
<OUTCOME>&apos;\&apos;(0.65049-inf)\&apos;&apos;</OUTCOME>
</VARIABLE>
<VARIABLE TYPE="nature">
<NAME>pixel18</NAME>
<OUTCOME>&apos;\&apos;(-inf-0.567157]\&apos;&apos;</OUTCOME>
<OUTCOME>&apos;\&apos;(0.567157-0.716667]\&apos;&apos;</OUTCOME>
<OUTCOME>&apos;\&apos;(0.716667-inf)\&apos;&apos;</OUTCOME>
</VARIABLE>
<VARIABLE TYPE="nature">
<NAME>pixel19</NAME>
<OUTCOME>&apos;\&apos;(-inf-0.159314]\&apos;&apos;</OUTCOME>
<OUTCOME>&apos;\&apos;(0.159314-0.548529]\&apos;&apos;</OUTCOME>
<OUTCOME>&apos;\&apos;(0.548529-inf)\&apos;&apos;</OUTCOME>
</VARIABLE>
<VARIABLE TYPE="nature">
<NAME>pixel20</NAME>
<OUTCOME>&apos;\&apos;(-inf-0.017157]\&apos;&apos;</OUTCOME>
<OUTCOME>&apos;\&apos;(0.017157-0.733824]\&apos;&apos;</OUTCOME>
<OUTCOME>&apos;\&apos;(0.733824-0.972059]\&apos;&apos;</OUTCOME>
<OUTCOME>&apos;\&apos;(0.972059-inf)\&apos;&apos;</OUTCOME>
</VARIABLE>
<VARIABLE TYPE="nature">
<NAME>pixel21</NAME>
<OUTCOME>&apos;\&apos;(-inf-0.027941]\&apos;&apos;</OUTCOME>
<OUTCOME>&apos;\&apos;(0.027941-0.677941]\&apos;&apos;</OUTCOME>
<OUTCOME>&apos;\&apos;(0.677941-0.986765]\&apos;&apos;</OUTCOME>
<OUTCOME>&apos;\&apos;(0.986765-inf)\&apos;&apos;</OUTCOME>
</VARIABLE>
<VARIABLE TYPE="nature">
<NAME>pixel22</NAME>
<OUTCOME>&apos;\&apos;(-inf-0.606863]\&apos;&apos;</OUTCOME>
<OUTCOME>&apos;\&apos;(0.606863-0.976961]\&apos;&apos;</OUTCOME>
<OUTCOME>&apos;\&apos;(0.976961-inf)\&apos;&apos;</OUTCOME>
</VARIABLE>
<VARIABLE TYPE="nature">
<NAME>pixel23</NAME>
<OUTCOME>&apos;\&apos;(-inf-0.584314]\&apos;&apos;</OUTCOME>
<OUTCOME>&apos;\&apos;(0.584314-0.957353]\&apos;&apos;</OUTCOME>
<OUTCOME>&apos;\&apos;(0.957353-inf)\&apos;&apos;</OUTCOME>
</VARIABLE>
<VARIABLE TYPE="nature">
<NAME>pixel24</NAME>
<OUTCOME>&apos;\&apos;(-inf-0.585294]\&apos;&apos;</OUTCOME>
<OUTCOME>&apos;\&apos;(0.585294-0.985784]\&apos;&apos;</OUTCOME>
<OUTCOME>&apos;\&apos;(0.985784-inf)\&apos;&apos;</OUTCOME>
</VARIABLE>
<VARIABLE TYPE="nature">
<NAME>pixel25</NAME>
<OUTCOME>&apos;\&apos;(-inf-0.026961]\&apos;&apos;</OUTCOME>
<OUTCOME>&apos;\&apos;(0.026961-0.305392]\&apos;&apos;</OUTCOME>
<OUTCOME>&apos;\&apos;(0.305392-0.661765]\&apos;&apos;</OUTCOME>
<OUTCOME>&apos;\&apos;(0.661765-0.957353]\&apos;&apos;</OUTCOME>
<OUTCOME>&apos;\&apos;(0.957353-inf)\&apos;&apos;</OUTCOME>
</VARIABLE>
<VARIABLE TYPE="nature">
<NAME>pixel26</NAME>
<OUTCOME>&apos;\&apos;(-inf-0.630882]\&apos;&apos;</OUTCOME>
<OUTCOME>&apos;\&apos;(0.630882-0.970588]\&apos;&apos;</OUTCOME>
<OUTCOME>&apos;\&apos;(0.970588-inf)\&apos;&apos;</OUTCOME>
</VARIABLE>
<VARIABLE TYPE="nature">
<NAME>pixel27</NAME>
<OUTCOME>&apos;\&apos;(-inf-0.568137]\&apos;&apos;</OUTCOME>
<OUTCOME>&apos;\&apos;(0.568137-0.794608]\&apos;&apos;</OUTCOME>
<OUTCOME>&apos;\&apos;(0.794608-0.990686]\&apos;&apos;</OUTCOME>
<OUTCOME>&apos;\&apos;(0.990686-inf)\&apos;&apos;</OUTCOME>
</VARIABLE>
<VARIABLE TYPE="nature">
<NAME>pixel28</NAME>
<OUTCOME>&apos;\&apos;(-inf-0.553922]\&apos;&apos;</OUTCOME>
<OUTCOME>&apos;\&apos;(0.553922-0.74902]\&apos;&apos;</OUTCOME>
<OUTCOME>&apos;\&apos;(0.74902-0.983333]\&apos;&apos;</OUTCOME>
<OUTCOME>&apos;\&apos;(0.983333-inf)\&apos;&apos;</OUTCOME>
</VARIABLE>
<VARIABLE TYPE="nature">
<NAME>pixel29</NAME>
<OUTCOME>&apos;\&apos;(-inf-0.012255]\&apos;&apos;</OUTCOME>
<OUTCOME>&apos;\&apos;(0.012255-0.687255]\&apos;&apos;</OUTCOME>
<OUTCOME>&apos;\&apos;(0.687255-0.967647]\&apos;&apos;</OUTCOME>
<OUTCOME>&apos;\&apos;(0.967647-inf)\&apos;&apos;</OUTCOME>
</VARIABLE>
<VARIABLE TYPE="nature">
<NAME>pixel30</NAME>
<OUTCOME>&apos;\&apos;(-inf-0.133333]\&apos;&apos;</OUTCOME>
<OUTCOME>&apos;\&apos;(0.133333-0.215196]\&apos;&apos;</OUTCOME>
<OUTCOME>&apos;\&apos;(0.215196-0.420588]\&apos;&apos;</OUTCOME>
<OUTCOME>&apos;\&apos;(0.420588-0.621078]\&apos;&apos;</OUTCOME>
<OUTCOME>&apos;\&apos;(0.621078-inf)\&apos;&apos;</OUTCOME>
</VARIABLE>
<VARIABLE TYPE="nature">
<NAME>pixel31</NAME>
<OUTCOME>&apos;\&apos;(-inf-0.160784]\&apos;&apos;</OUTCOME>
<OUTCOME>&apos;\&apos;(0.160784-0.365686]\&apos;&apos;</OUTCOME>
<OUTCOME>&apos;\&apos;(0.365686-0.573529]\&apos;&apos;</OUTCOME>
<OUTCOME>&apos;\&apos;(0.573529-0.734804]\&apos;&apos;</OUTCOME>
<OUTCOME>&apos;\&apos;(0.734804-inf)\&apos;&apos;</OUTCOME>
</VARIABLE>
<VARIABLE TYPE="nature">
<NAME>pixel32</NAME>
<OUTCOME>&apos;\&apos;(-inf-0.194608]\&apos;&apos;</OUTCOME>
<OUTCOME>&apos;\&apos;(0.194608-0.286765]\&apos;&apos;</OUTCOME>
<OUTCOME>&apos;\&apos;(0.286765-0.492157]\&apos;&apos;</OUTCOME>
<OUTCOME>&apos;\&apos;(0.492157-inf)\&apos;&apos;</OUTCOME>
</VARIABLE>
<VARIABLE TYPE="nature">
<NAME>pixel33</NAME>
<OUTCOME>&apos;\&apos;(-inf-0.151961]\&apos;&apos;</OUTCOME>
<OUTCOME>&apos;\&apos;(0.151961-0.27549]\&apos;&apos;</OUTCOME>
<OUTCOME>&apos;\&apos;(0.27549-0.558824]\&apos;&apos;</OUTCOME>
<OUTCOME>&apos;\&apos;(0.558824-inf)\&apos;&apos;</OUTCOME>
</VARIABLE>
<VARIABLE TYPE="nature">
<NAME>pixel34</NAME>
<OUTCOME>&apos;\&apos;(-inf-0.161765]\&apos;&apos;</OUTCOME>
<OUTCOME>&apos;\&apos;(0.161765-0.402451]\&apos;&apos;</OUTCOME>
<OUTCOME>&apos;\&apos;(0.402451-0.571078]\&apos;&apos;</OUTCOME>
<OUTCOME>&apos;\&apos;(0.571078-inf)\&apos;&apos;</OUTCOME>
</VARIABLE>
<VARIABLE TYPE="nature">
<NAME>pixel35</NAME>
<OUTCOME>&apos;\&apos;(-inf-0.178922]\&apos;&apos;</OUTCOME>
<OUTCOME>&apos;\&apos;(0.178922-0.280882]\&apos;&apos;</OUTCOME>
<OUTCOME>&apos;\&apos;(0.280882-0.40098]\&apos;&apos;</OUTCOME>
<OUTCOME>&apos;\&apos;(0.40098-0.560294]\&apos;&apos;</OUTCOME>
<OUTCOME>&apos;\&apos;(0.560294-inf)\&apos;&apos;</OUTCOME>
</VARIABLE>
<VARIABLE TYPE="nature">
<NAME>pixel36</NAME>
<OUTCOME>&apos;\&apos;(-inf-0.177451]\&apos;&apos;</OUTCOME>
<OUTCOME>&apos;\&apos;(0.177451-0.455392]\&apos;&apos;</OUTCOME>
<OUTCOME>&apos;\&apos;(0.455392-0.542647]\&apos;&apos;</OUTCOME>
<OUTCOME>&apos;\&apos;(0.542647-inf)\&apos;&apos;</OUTCOME>
</VARIABLE>
<VARIABLE TYPE="nature">
<NAME>pixel37</NAME>
<OUTCOME>&apos;\&apos;(-inf-0.146569]\&apos;&apos;</OUTCOME>
<OUTCOME>&apos;\&apos;(0.146569-0.422059]\&apos;&apos;</OUTCOME>
<OUTCOME>&apos;\&apos;(0.422059-0.578431]\&apos;&apos;</OUTCOME>
<OUTCOME>&apos;\&apos;(0.578431-inf)\&apos;&apos;</OUTCOME>
</VARIABLE>
<VARIABLE TYPE="nature">
<NAME>pixel38</NAME>
<OUTCOME>&apos;\&apos;(-inf-0.156373]\&apos;&apos;</OUTCOME>
<OUTCOME>&apos;\&apos;(0.156373-0.394118]\&apos;&apos;</OUTCOME>
<OUTCOME>&apos;\&apos;(0.394118-0.543627]\&apos;&apos;</OUTCOME>
<OUTCOME>&apos;\&apos;(0.543627-inf)\&apos;&apos;</OUTCOME>
</VARIABLE>
<VARIABLE TYPE="nature">
<NAME>pixel39</NAME>
<OUTCOME>&apos;\&apos;(-inf-0.163235]\&apos;&apos;</OUTCOME>
<OUTCOME>&apos;\&apos;(0.163235-0.362255]\&apos;&apos;</OUTCOME>
<OUTCOME>&apos;\&apos;(0.362255-0.479902]\&apos;&apos;</OUTCOME>
<OUTCOME>&apos;\&apos;(0.479902-0.711765]\&apos;&apos;</OUTCOME>
<OUTCOME>&apos;\&apos;(0.711765-inf)\&apos;&apos;</OUTCOME>
</VARIABLE>
<VARIABLE TYPE="nature">
<NAME>pixel40</NAME>
<OUTCOME>&apos;\&apos;(-inf-0.115686]\&apos;&apos;</OUTCOME>
<OUTCOME>&apos;\&apos;(0.115686-0.337255]\&apos;&apos;</OUTCOME>
<OUTCOME>&apos;\&apos;(0.337255-inf)\&apos;&apos;</OUTCOME>
</VARIABLE>
<VARIABLE TYPE="nature">
<NAME>pixel41</NAME>
<OUTCOME>&apos;\&apos;(-inf-0.030882]\&apos;&apos;</OUTCOME>
<OUTCOME>&apos;\&apos;(0.030882-0.286275]\&apos;&apos;</OUTCOME>
<OUTCOME>&apos;\&apos;(0.286275-0.971078]\&apos;&apos;</OUTCOME>
<OUTCOME>&apos;\&apos;(0.971078-inf)\&apos;&apos;</OUTCOME>
</VARIABLE>
<VARIABLE TYPE="nature">
<NAME>pixel42</NAME>
<OUTCOME>&apos;\&apos;(-inf-0.434314]\&apos;&apos;</OUTCOME>
<OUTCOME>&apos;\&apos;(0.434314-0.981373]\&apos;&apos;</OUTCOME>
<OUTCOME>&apos;\&apos;(0.981373-inf)\&apos;&apos;</OUTCOME>
</VARIABLE>
<VARIABLE TYPE="nature">
<NAME>pixel43</NAME>
<OUTCOME>&apos;\&apos;(-inf-0.00049]\&apos;&apos;</OUTCOME>
<OUTCOME>&apos;\&apos;(0.00049-0.187255]\&apos;&apos;</OUTCOME>
<OUTCOME>&apos;\&apos;(0.187255-0.604902]\&apos;&apos;</OUTCOME>
<OUTCOME>&apos;\&apos;(0.604902-0.971569]\&apos;&apos;</OUTCOME>
<OUTCOME>&apos;\&apos;(0.971569-inf)\&apos;&apos;</OUTCOME>
</VARIABLE>
<VARIABLE TYPE="nature">
<NAME>pixel44</NAME>
<OUTCOME>&apos;\&apos;(-inf-0.155882]\&apos;&apos;</OUTCOME>
<OUTCOME>&apos;\&apos;(0.155882-0.512255]\&apos;&apos;</OUTCOME>
<OUTCOME>&apos;\&apos;(0.512255-0.962255]\&apos;&apos;</OUTCOME>
<OUTCOME>&apos;\&apos;(0.962255-inf)\&apos;&apos;</OUTCOME>
</VARIABLE>
<VARIABLE TYPE="nature">
<NAME>pixel45</NAME>
<OUTCOME>&apos;\&apos;(-inf-0.122059]\&apos;&apos;</OUTCOME>
<OUTCOME>&apos;\&apos;(0.122059-0.523529]\&apos;&apos;</OUTCOME>
<OUTCOME>&apos;\&apos;(0.523529-0.978922]\&apos;&apos;</OUTCOME>
<OUTCOME>&apos;\&apos;(0.978922-inf)\&apos;&apos;</OUTCOME>
</VARIABLE>
<VARIABLE TYPE="nature">
<NAME>pixel46</NAME>
<OUTCOME>&apos;\&apos;(-inf-0.093137]\&apos;&apos;</OUTCOME>
<OUTCOME>&apos;\&apos;(0.093137-0.542157]\&apos;&apos;</OUTCOME>
<OUTCOME>&apos;\&apos;(0.542157-inf)\&apos;&apos;</OUTCOME>
</VARIABLE>
<VARIABLE TYPE="nature">
<NAME>pixel47</NAME>
<OUTCOME>&apos;\&apos;(-inf-0.089216]\&apos;&apos;</OUTCOME>
<OUTCOME>&apos;\&apos;(0.089216-0.429412]\&apos;&apos;</OUTCOME>
<OUTCOME>&apos;\&apos;(0.429412-inf)\&apos;&apos;</OUTCOME>
</VARIABLE>
<VARIABLE TYPE="nature">
<NAME>pixel48</NAME>
<OUTCOME>&apos;\&apos;(-inf-0.10098]\&apos;&apos;</OUTCOME>
<OUTCOME>&apos;\&apos;(0.10098-0.535784]\&apos;&apos;</OUTCOME>
<OUTCOME>&apos;\&apos;(0.535784-inf)\&apos;&apos;</OUTCOME>
</VARIABLE>
<VARIABLE TYPE="nature">
<NAME>pixel49</NAME>
<OUTCOME>&apos;\&apos;(-inf-0.103431]\&apos;&apos;</OUTCOME>
<OUTCOME>&apos;\&apos;(0.103431-0.461765]\&apos;&apos;</OUTCOME>
<OUTCOME>&apos;\&apos;(0.461765-0.775]\&apos;&apos;</OUTCOME>
<OUTCOME>&apos;\&apos;(0.775-inf)\&apos;&apos;</OUTCOME>
</VARIABLE>
<VARIABLE TYPE="nature">
<NAME>pixel50</NAME>
<OUTCOME>&apos;\&apos;(-inf-0.326471]\&apos;&apos;</OUTCOME>
<OUTCOME>&apos;\&apos;(0.326471-0.578922]\&apos;&apos;</OUTCOME>
<OUTCOME>&apos;\&apos;(0.578922-0.631863]\&apos;&apos;</OUTCOME>
<OUTCOME>&apos;\&apos;(0.631863-0.77549]\&apos;&apos;</OUTCOME>
<OUTCOME>&apos;\&apos;(0.77549-inf)\&apos;&apos;</OUTCOME>
</VARIABLE>
<VARIABLE TYPE="nature">
<NAME>pixel51</NAME>
<OUTCOME>&apos;\&apos;(-inf-0.430882]\&apos;&apos;</OUTCOME>
<OUTCOME>&apos;\&apos;(0.430882-0.614706]\&apos;&apos;</OUTCOME>
<OUTCOME>&apos;\&apos;(0.614706-0.745098]\&apos;&apos;</OUTCOME>
<OUTCOME>&apos;\&apos;(0.745098-inf)\&apos;&apos;</OUTCOME>
</VARIABLE>
<VARIABLE TYPE="nature">
<NAME>pixel52</NAME>
<OUTCOME>&apos;\&apos;(-inf-0.465686]\&apos;&apos;</OUTCOME>
<OUTCOME>&apos;\&apos;(0.465686-0.638725]\&apos;&apos;</OUTCOME>
<OUTCOME>&apos;\&apos;(0.638725-0.772059]\&apos;&apos;</OUTCOME>
<OUTCOME>&apos;\&apos;(0.772059-inf)\&apos;&apos;</OUTCOME>
</VARIABLE>
<VARIABLE TYPE="nature">
<NAME>pixel53</NAME>
<OUTCOME>&apos;\&apos;(-inf-0.459804]\&apos;&apos;</OUTCOME>
<OUTCOME>&apos;\&apos;(0.459804-0.684804]\&apos;&apos;</OUTCOME>
<OUTCOME>&apos;\&apos;(0.684804-0.79902]\&apos;&apos;</OUTCOME>
<OUTCOME>&apos;\&apos;(0.79902-inf)\&apos;&apos;</OUTCOME>
</VARIABLE>
<VARIABLE TYPE="nature">
<NAME>pixel54</NAME>
<OUTCOME>&apos;\&apos;(-inf-0.385294]\&apos;&apos;</OUTCOME>
<OUTCOME>&apos;\&apos;(0.385294-0.57598]\&apos;&apos;</OUTCOME>
<OUTCOME>&apos;\&apos;(0.57598-0.768137]\&apos;&apos;</OUTCOME>
<OUTCOME>&apos;\&apos;(0.768137-inf)\&apos;&apos;</OUTCOME>
</VARIABLE>
<VARIABLE TYPE="nature">
<NAME>pixel55</NAME>
<OUTCOME>&apos;\&apos;(-inf-0.34951]\&apos;&apos;</OUTCOME>
<OUTCOME>&apos;\&apos;(0.34951-0.573529]\&apos;&apos;</OUTCOME>
<OUTCOME>&apos;\&apos;(0.573529-0.763235]\&apos;&apos;</OUTCOME>
<OUTCOME>&apos;\&apos;(0.763235-inf)\&apos;&apos;</OUTCOME>
</VARIABLE>
<VARIABLE TYPE="nature">
<NAME>pixel56</NAME>
<OUTCOME>&apos;\&apos;(-inf-0.427451]\&apos;&apos;</OUTCOME>
<OUTCOME>&apos;\&apos;(0.427451-0.610784]\&apos;&apos;</OUTCOME>
<OUTCOME>&apos;\&apos;(0.610784-0.780392]\&apos;&apos;</OUTCOME>
<OUTCOME>&apos;\&apos;(0.780392-inf)\&apos;&apos;</OUTCOME>
</VARIABLE>
<VARIABLE TYPE="nature">
<NAME>pixel57</NAME>
<OUTCOME>&apos;\&apos;(-inf-0.455882]\&apos;&apos;</OUTCOME>
<OUTCOME>&apos;\&apos;(0.455882-0.577941]\&apos;&apos;</OUTCOME>
<OUTCOME>&apos;\&apos;(0.577941-0.741667]\&apos;&apos;</OUTCOME>
<OUTCOME>&apos;\&apos;(0.741667-inf)\&apos;&apos;</OUTCOME>
</VARIABLE>
<VARIABLE TYPE="nature">
<NAME>pixel58</NAME>
<OUTCOME>&apos;\&apos;(-inf-0.414706]\&apos;&apos;</OUTCOME>
<OUTCOME>&apos;\&apos;(0.414706-0.620098]\&apos;&apos;</OUTCOME>
<OUTCOME>&apos;\&apos;(0.620098-0.767157]\&apos;&apos;</OUTCOME>
<OUTCOME>&apos;\&apos;(0.767157-inf)\&apos;&apos;</OUTCOME>
</VARIABLE>
<VARIABLE TYPE="nature">
<NAME>pixel59</NAME>
<OUTCOME>&apos;\&apos;(-inf-0.45]\&apos;&apos;</OUTCOME>
<OUTCOME>&apos;\&apos;(0.45-0.614216]\&apos;&apos;</OUTCOME>
<OUTCOME>&apos;\&apos;(0.614216-0.765686]\&apos;&apos;</OUTCOME>
<OUTCOME>&apos;\&apos;(0.765686-inf)\&apos;&apos;</OUTCOME>
</VARIABLE>
<VARIABLE TYPE="nature">
<NAME>pixel60</NAME>
<OUTCOME>&apos;\&apos;(-inf-0.242157]\&apos;&apos;</OUTCOME>
<OUTCOME>&apos;\&apos;(0.242157-0.481863]\&apos;&apos;</OUTCOME>
<OUTCOME>&apos;\&apos;(0.481863-0.67549]\&apos;&apos;</OUTCOME>
<OUTCOME>&apos;\&apos;(0.67549-0.822059]\&apos;&apos;</OUTCOME>
<OUTCOME>&apos;\&apos;(0.822059-inf)\&apos;&apos;</OUTCOME>
</VARIABLE>
<VARIABLE TYPE="nature">
<NAME>pixel61</NAME>
<OUTCOME>&apos;\&apos;(-inf-0.24951]\&apos;&apos;</OUTCOME>
<OUTCOME>&apos;\&apos;(0.24951-0.485294]\&apos;&apos;</OUTCOME>
<OUTCOME>&apos;\&apos;(0.485294-0.652941]\&apos;&apos;</OUTCOME>
<OUTCOME>&apos;\&apos;(0.652941-0.775]\&apos;&apos;</OUTCOME>
<OUTCOME>&apos;\&apos;(0.775-inf)\&apos;&apos;</OUTCOME>
</VARIABLE>
<VARIABLE TYPE="nature">
<NAME>pixel62</NAME>
<OUTCOME>&apos;\&apos;(-inf-0.448039]\&apos;&apos;</OUTCOME>
<OUTCOME>&apos;\&apos;(0.448039-0.685294]\&apos;&apos;</OUTCOME>
<OUTCOME>&apos;\&apos;(0.685294-0.789216]\&apos;&apos;</OUTCOME>
<OUTCOME>&apos;\&apos;(0.789216-inf)\&apos;&apos;</OUTCOME>
</VARIABLE>
<VARIABLE TYPE="nature">
<NAME>pixel63</NAME>
<OUTCOME>&apos;\&apos;(-inf-0.428922]\&apos;&apos;</OUTCOME>
<OUTCOME>&apos;\&apos;(0.428922-0.598039]\&apos;&apos;</OUTCOME>
<OUTCOME>&apos;\&apos;(0.598039-0.75]\&apos;&apos;</OUTCOME>
<OUTCOME>&apos;\&apos;(0.75-inf)\&apos;&apos;</OUTCOME>
</VARIABLE>
<VARIABLE TYPE="nature">
<NAME>pixel64</NAME>
<OUTCOME>&apos;\&apos;(-inf-0.385294]\&apos;&apos;</OUTCOME>
<OUTCOME>&apos;\&apos;(0.385294-0.57598]\&apos;&apos;</OUTCOME>
<OUTCOME>&apos;\&apos;(0.57598-0.768137]\&apos;&apos;</OUTCOME>
<OUTCOME>&apos;\&apos;(0.768137-inf)\&apos;&apos;</OUTCOME>
</VARIABLE>
<VARIABLE TYPE="nature">
<NAME>pixel65</NAME>
<OUTCOME>&apos;\&apos;(-inf-0.347059]\&apos;&apos;</OUTCOME>
<OUTCOME>&apos;\&apos;(0.347059-0.642157]\&apos;&apos;</OUTCOME>
<OUTCOME>&apos;\&apos;(0.642157-0.79902]\&apos;&apos;</OUTCOME>
<OUTCOME>&apos;\&apos;(0.79902-inf)\&apos;&apos;</OUTCOME>
</VARIABLE>
<VARIABLE TYPE="nature">
<NAME>pixel66</NAME>
<OUTCOME>&apos;\&apos;(-inf-0.455882]\&apos;&apos;</OUTCOME>
<OUTCOME>&apos;\&apos;(0.455882-0.577941]\&apos;&apos;</OUTCOME>
<OUTCOME>&apos;\&apos;(0.577941-0.741667]\&apos;&apos;</OUTCOME>
<OUTCOME>&apos;\&apos;(0.741667-inf)\&apos;&apos;</OUTCOME>
</VARIABLE>
<VARIABLE TYPE="nature">
<NAME>pixel67</NAME>
<OUTCOME>&apos;\&apos;(-inf-0.358824]\&apos;&apos;</OUTCOME>
<OUTCOME>&apos;\&apos;(0.358824-0.635294]\&apos;&apos;</OUTCOME>
<OUTCOME>&apos;\&apos;(0.635294-0.725]\&apos;&apos;</OUTCOME>
<OUTCOME>&apos;\&apos;(0.725-inf)\&apos;&apos;</OUTCOME>
</VARIABLE>
<VARIABLE TYPE="nature">
<NAME>pixel68</NAME>
<OUTCOME>&apos;\&apos;(-inf-0.42598]\&apos;&apos;</OUTCOME>
<OUTCOME>&apos;\&apos;(0.42598-0.648039]\&apos;&apos;</OUTCOME>
<OUTCOME>&apos;\&apos;(0.648039-0.786275]\&apos;&apos;</OUTCOME>
<OUTCOME>&apos;\&apos;(0.786275-inf)\&apos;&apos;</OUTCOME>
</VARIABLE>
<VARIABLE TYPE="nature">
<NAME>pixel69</NAME>
<OUTCOME>&apos;\&apos;(-inf-0.188235]\&apos;&apos;</OUTCOME>
<OUTCOME>&apos;\&apos;(0.188235-0.429412]\&apos;&apos;</OUTCOME>
<OUTCOME>&apos;\&apos;(0.429412-0.602941]\&apos;&apos;</OUTCOME>
<OUTCOME>&apos;\&apos;(0.602941-0.716176]\&apos;&apos;</OUTCOME>
<OUTCOME>&apos;\&apos;(0.716176-0.793627]\&apos;&apos;</OUTCOME>
<OUTCOME>&apos;\&apos;(0.793627-inf)\&apos;&apos;</OUTCOME>
</VARIABLE>
<DEFINITION>
<FOR>emotion</FOR>
<TABLE>
0.13789680812161526 0.01495812074459749 0.14266808295749386 0.25080537029620215 0.17185296115067825 0.1699374858516029 0.11188117087781009 
</TABLE>
</DEFINITION>
<DEFINITION>
<FOR>pixel0</FOR>
<GIVEN>emotion</GIVEN>
<GIVEN>pixel4</GIVEN>
<TABLE>
0.9166666666666666 0.06782945736434108 0.009689922480620155 0.005813953488372093 
0.22601668404588113 0.6832638164754953 0.08159541188738269 0.009124087591240875 
0.019201228878648235 0.3602150537634409 0.5353302611367128 0.08525345622119816 
0.01842948717948718 0.10817307692307693 0.29246794871794873 0.5809294871794872 
0.875 0.09166666666666666 0.025 0.008333333333333333 
0.19144144144144143 0.6914414414414415 0.10585585585585586 0.01126126126126126 
0.03787878787878788 0.4772727272727273 0.4166666666666667 0.06818181818181818 
0.0056179775280898875 0.12921348314606743 0.3089887640449438 0.5561797752808989 
0.8624288425047438 0.1204933586337761 0.012333965844402278 0.004743833017077799 
0.1907530454042082 0.705703211517165 0.08942414174972314 0.014119601328903655 
0.014687100893997445 0.3186462324393359 0.5804597701149425 0.08620689655172414 
0.0025303643724696357 0.061234817813765184 0.284919028340081 0.6513157894736842 
0.8699705593719332 0.11530912659470069 0.009322865554465163 0.005397448478900883 
0.2183323649041255 0.6945090063916328 0.07655432887855898 0.010604299825682742 
0.0202991452991453 0.41346153846153844 0.4775641025641026 0.08867521367521368 
0.005580357142857143 0.10230654761904762 0.3084077380952381 0.5837053571428571 
0.8955128205128206 0.09294871794871795 0.004487179487179487 0.007051282051282051 
0.181156015037594 0.7281484962406015 0.07824248120300752 0.012453007518796992 
0.011931818181818182 0.26647727272727273 0.6323863636363637 0.08920454545454545 
0.00389948006932409 0.03596187175043328 0.20753899480069324 0.7525996533795494 
0.897887323943662 0.09406438631790745 0.005533199195171026 0.0025150905432595573 
0.20767252464637806 0.6988855550792971 0.08165452207458208 0.01178739819974282 
0.014644351464435146 0.301952580195258 0.5934449093444909 0.0899581589958159 
0.00771055753262159 0.06109134045077105 0.27105575326215897 0.6601423487544484 
0.8361111111111111 0.14722222222222223 0.013888888888888888 0.002777777777777778 
0.1258570029382958 0.7419196865817825 0.11900097943192949 0.013222331047992164 
6.954102920723226E-4 0.260778859527121 0.6015299026425591 0.13699582753824757 
0.001153846153846154 0.03884615384615384 0.21192307692307694 0.7480769230769231 
</TABLE>
</DEFINITION>
<DEFINITION>
<FOR>pixel1</FOR>
<GIVEN>emotion</GIVEN>
<GIVEN>pixel6</GIVEN>
<TABLE>
0.5508412582297001 0.4059985369422092 0.03145574250182882 0.010972933430870519 7.31528895391368E-4 
0.04211443508568109 0.48591344757478944 0.31397037467325006 0.14028463549230322 0.017717107173976183 
0.008989952406134321 0.07244843997884717 0.1792702273929138 0.6171337916446324 0.12215758857747223 
0.004042037186742118 0.016976556184316895 0.041228779304769606 0.25303152789005656 0.6847210994341147 
0.34831460674157305 0.550561797752809 0.056179775280898875 0.011235955056179775 0.033707865168539325 
0.008174386920980926 0.5258855585831063 0.3460490463215259 0.11171662125340599 0.008174386920980926 
0.004149377593360996 0.029045643153526972 0.16182572614107885 0.6182572614107884 0.18672199170124482 
0.0055248618784530384 0.016574585635359115 0.049723756906077346 0.27071823204419887 0.6574585635359116 
0.5120925341745531 0.434279705573081 0.026288117770767613 0.019978969505783387 0.007360672975814932 
0.03278156442713405 0.4196689386562804 0.3463161311262577 0.18208373904576436 0.019149626744563452 
0.005790645879732739 0.04320712694877506 0.13674832962138084 0.6632516703786192 0.1510022271714922 
5.167958656330749E-4 0.006718346253229974 0.02635658914728682 0.22790697674418606 0.7385012919896641 
0.4602587800369686 0.4959950708564387 0.024029574861367836 0.0166358595194085 0.0030807147258163892 
0.04223107569721116 0.501195219123506 0.2866932270916335 0.15346613545816734 0.016414342629482073 
0.002956194571351787 0.07551733404998656 0.17387798978769148 0.6361193227626982 0.11152915882827197 
0.0017838030681412772 0.018194791295041028 0.02104887620406707 0.28719229397074564 0.671780235462005 
0.5397683397683398 0.43166023166023165 0.013127413127413128 0.010038610038610039 0.005405405405405406 
0.027857328820619632 0.476178078625358 0.3069513147617808 0.17781827649049728 0.011195001301744337 
0.002812374447569305 0.0325431900361591 0.10405785456006428 0.7139413419043793 0.14664523905182805 
0.0013256738842244808 0.004860804242156429 0.018117543084401236 0.15687140963323024 0.8188245691559877 
0.5330649798734906 0.418056354226567 0.029327199539965498 0.017826336975273145 0.0017251293847038527 
0.0268344811208739 0.5108050344336262 0.3013535977202565 0.14794585609118974 0.013061030634053668 
0.001364256480218281 0.058663028649386086 0.14415643474306503 0.6543883583447021 0.14142792178262847 
0.001841620626151013 0.015346838551258441 0.03376304481276857 0.20933087783916512 0.7397176181706568 
0.46472019464720193 0.4793187347931874 0.031630170316301706 0.012165450121654502 0.012165450121654502 
0.01579871269748391 0.42422469280280867 0.3387946167349327 0.20889409011117613 0.012287887653598596 
0.001564945226917058 0.019300991131977047 0.1444966092853417 0.6880542514345331 0.1465832029212311 
4.154549231408392E-4 0.003739094308267553 0.011217282924802658 0.15579559617781472 0.8288325716659742 
</TABLE>
</DEFINITION>
<DEFINITION>
<FOR>pixel2</FOR>
<GIVEN>emotion</GIVEN>
<GIVEN>pixel7</GIVEN>
<TABLE>
0.7259713701431493 0.20245398773006135 0.06748466257668712 0.002044989775051125 0.002044989775051125 
0.13760556383507203 0.4644808743169399 0.381023348236463 0.006458022851465474 0.010432190760059613 
0.014530190506942202 0.06490151759767517 0.7416855020988053 0.1566031643525993 0.022279625443978043 
0.00759144237405107 0.020013802622498276 0.30434782608695654 0.4451345755693582 0.22291235334713597 
0.00782122905027933 0.01452513966480447 0.09050279329608939 0.1329608938547486 0.7541899441340782 
0.6 0.12 0.2 0.04 0.04 
0.09644670050761421 0.4619289340101523 0.39086294416243655 0.025380710659898477 0.025380710659898477 
0.008403361344537815 0.08683473389355742 0.6974789915966386 0.17647058823529413 0.03081232492997199 
0.0053475935828877 0.016042780748663103 0.28342245989304815 0.34759358288770054 0.34759358288770054 
0.008547008547008548 0.008547008547008548 0.1794871794871795 0.1452991452991453 0.6581196581196581 
0.6809116809116809 0.23646723646723647 0.06552706552706553 0.014245014245014245 0.002849002849002849 
0.08232291001914487 0.4843650287172942 0.41033822590938096 0.012125079770261647 0.010848755583918315 
0.008369601606963508 0.07063943756277201 0.7435554067626381 0.136926682289923 0.04050887177770338 
0.0038064165307232192 0.021207177814029365 0.2365415986949429 0.5106035889070146 0.22784121805328983 
0.002036659877800407 0.002036659877800407 0.04276985743380855 0.14596062457569586 0.8071961982348947 
0.6676056338028169 0.2676056338028169 0.05352112676056338 0.0028169014084507044 0.008450704225352112 
0.06688632619439869 0.46095551894563425 0.4497528830313015 0.016803953871499175 0.005601317957166392 
0.0072992700729927005 0.06604949261171444 0.7682036674381343 0.13797400747730104 0.020473562399857575 
0.0033222591362126247 0.014799154334038054 0.29507701600724856 0.4714587737843552 0.21534279673814558 
0.002370791844476055 0.002370791844476055 0.08297771455666192 0.15979137031768612 0.7524893314366998 
0.7011494252873564 0.2367816091954023 0.052873563218390804 0.006896551724137931 0.0022988505747126436 
0.08155255124291322 0.5098124727431312 0.3885739206279983 0.016136066288704752 0.0039249890972525075 
0.009061677871967261 0.05583162817889506 0.7795966091786027 0.12832505115463314 0.027185033615901782 
0.0024096385542168677 0.014939759036144579 0.22698795180722892 0.5257831325301204 0.22987951807228915 
5.991611743559018E-4 0.004194128220491312 0.046135410425404436 0.11204313960455363 0.8370281605751947 
0.7386569872958257 0.20871143375680581 0.041742286751361164 0.009074410163339383 0.0018148820326678765 
0.10441924129839655 0.509581540868205 0.3664450527962456 0.01368791552600704 0.005866249511145874 
0.012838022398251844 0.07948647910406993 0.7377765637803879 0.14449603933351543 0.025402895383774923 
0.0028653295128939827 0.013180515759312322 0.2332378223495702 0.49799426934097424 0.25272206303724926 
7.880220646178094E-4 0.005516154452324665 0.07328605200945626 0.11899133175728921 0.8014184397163121 
0.6974789915966386 0.19327731092436976 0.07563025210084033 0.008403361344537815 0.025210084033613446 
0.07560627674750357 0.4693295292439372 0.41512125534950073 0.029957203994293864 0.009985734664764621 
0.009066666666666667 0.06346666666666667 0.7568 0.1488 0.021866666666666666 
0.0016675931072818232 0.008337965536409116 0.20400222345747637 0.5519733185102835 0.2340188993885492 
5.115089514066496E-4 0.0076726342710997444 0.02710997442455243 0.10281329923273658 0.8618925831202046 
</TABLE>
</DEFINITION>
<DEFINITION>
<FOR>pixel3</FOR>
<GIVEN>emotion</GIVEN>
<GIVEN>pixel0</GIVEN>
<TABLE>
0.8084832904884319 0.16666666666666666 0.020137103684661525 0.004712939160239932 
0.13783783783783785 0.675975975975976 0.17747747747747747 0.008708708708708709 
0.029496402877697843 0.17338129496402876 0.6726618705035972 0.12446043165467625 
0.007954545454545454 0.060227272727272727 0.25113636363636366 0.6806818181818182 
0.8316326530612245 0.15816326530612246 0.00510204081632653 0.00510204081632653 
0.07673267326732673 0.6905940594059405 0.22524752475247525 0.007425742574257425 
0.05625 0.10625 0.59375 0.24375 
0.043859649122807015 0.043859649122807015 0.2894736842105263 0.6228070175438597 
0.7693726937269373 0.1998769987699877 0.027675276752767528 0.003075030750307503 
0.11862864077669903 0.6914441747572816 0.17141990291262135 0.018507281553398057 
0.009402654867256638 0.1863938053097345 0.6764380530973452 0.1277654867256637 
0.0033829499323410014 0.03450608930987822 0.2861975642760487 0.6759133964817321 
0.7589605734767025 0.22192353643966548 0.016427718040621268 0.002688172043010753 
0.13623682579045257 0.689863608183509 0.16165530068195907 0.012244265344079356 
0.023932253313696614 0.23895434462444773 0.6388070692194403 0.09830633284241531 
0.008937960042060988 0.052050473186119876 0.33385909568874866 0.6051524710830705 
0.7939035486806187 0.19335759781619655 0.012283894449499545 4.5495905368516835E-4 
0.09773445732349842 0.7057428872497366 0.18993677555321392 0.006585879873551107 
0.013975155279503106 0.12991718426501034 0.7593167701863354 0.09679089026915114 
0.002553626149131767 0.02502553626149132 0.20275791624106232 0.7696629213483146 
0.7973457675753228 0.18615494978479197 0.011119081779053085 0.005380200860832138 
0.13428714859437751 0.6900100401606426 0.15938755020080322 0.01631526104417671 
0.017058823529411765 0.1864705882352941 0.678235294117647 0.11823529411764706 
0.0069124423963133645 0.04685099846390169 0.23886328725038403 0.7073732718894009 
0.7775800711743772 0.20106761565836298 0.012455516014234875 0.008896797153024912 
0.08268101761252446 0.6863992172211351 0.21771037181996086 0.013209393346379647 
0.0078125 0.12920673076923078 0.7710336538461539 0.09194711538461539 
0.004147465437788019 0.02534562211981567 0.21705069124423962 0.7534562211981567 
</TABLE>
</DEFINITION>
<DEFINITION>
<FOR>pixel4</FOR>
<GIVEN>emotion</GIVEN>
<GIVEN>pixel7</GIVEN>
<TABLE>
0.8913934426229508 0.10040983606557377 0.006147540983606557 0.0020491803278688526 
0.45974155069582506 0.5114314115308151 0.018389662027833 0.010437375745526839 
0.05135658914728682 0.7348191214470284 0.15213178294573643 0.061692506459948324 
0.014502762430939226 0.2755524861878453 0.44129834254143646 0.268646408839779 
0.010067114093959731 0.09507829977628636 0.17114093959731544 0.7237136465324385 
0.625 0.2916666666666667 0.041666666666666664 0.041666666666666664 
0.42346938775510207 0.5561224489795918 0.015306122448979591 0.00510204081632653 
0.05337078651685393 0.6882022471910112 0.17696629213483145 0.08146067415730338 
0.016129032258064516 0.3924731182795699 0.2849462365591398 0.3064516129032258 
0.008620689655172414 0.09482758620689655 0.11206896551724138 0.7844827586206896 
0.8714285714285714 0.11714285714285715 0.002857142857142857 0.008571428571428572 
0.3710089399744572 0.5791826309067688 0.03639846743295019 0.013409961685823755 
0.049229738780977896 0.7109845947756196 0.18385800401875418 0.05592766242464836 
0.008161044613710556 0.24755168661588683 0.4249183895538629 0.3193688792165397 
0.004755434782608696 0.059103260869565216 0.12160326086956522 0.8145380434782609 
0.940677966101695 0.05367231638418079 0.002824858757062147 0.002824858757062147 
0.45978905735003295 0.525708635464733 0.012195121951219513 0.0023071852340145024 
0.051103988603988605 0.7476851851851852 0.17396723646723647 0.027243589743589744 
0.005740181268882176 0.27885196374622356 0.44561933534743203 0.26978851963746225 
0.0023719165085388993 0.0706831119544592 0.1513282732447818 0.7756166982922201 
0.923963133640553 0.07142857142857142 0.002304147465437788 0.002304147465437788 
0.4349912739965096 0.5405759162303665 0.02050610820244328 0.003926701570680628 
0.04064327485380117 0.7213450292397661 0.1868421052631579 0.05116959064327485 
0.007232401157184185 0.2078109932497589 0.45564127290260364 0.3293153326904532 
0.00539568345323741 0.053357314148681056 0.07733812949640288 0.8639088729016786 
0.9218181818181819 0.07090909090909091 0.005454545454545455 0.0018181818181818182 
0.47456964006259783 0.5035211267605634 0.012910798122065728 0.008998435054773083 
0.06256830601092896 0.7609289617486339 0.14234972677595628 0.03415300546448088 
0.01548165137614679 0.2631880733944954 0.4111238532110092 0.31020642201834864 
0.01025236593059937 0.07649842271293375 0.12697160883280756 0.7862776025236593 
0.6864406779661016 0.2457627118644068 0.00847457627118644 0.059322033898305086 
0.31857142857142856 0.6357142857142857 0.03571428571428571 0.01 
0.027214514407684097 0.6632870864461046 0.23745997865528282 0.0720384204909285 
0.0027808676307007787 0.1507230255839822 0.4432703003337041 0.4032258064516129 
5.117707267144319E-4 0.028147389969293755 0.08751279426816785 0.8838280450358239 
</TABLE>
</DEFINITION>
<DEFINITION>
<FOR>pixel5</FOR>
<GIVEN>emotion</GIVEN>
<GIVEN>pixel1</GIVEN>
<TABLE>
0.28152173913043477 0.5032608695652174 0.17717391304347826 0.03804347826086957 
0.10352053646269908 0.5251466890192791 0.298826487845767 0.07250628667225482 
0.0416116248348745 0.34015852047556144 0.5092470277410832 0.10898282694848084 
0.029828109201213347 0.20171890798786654 0.48887765419615775 0.27957532861476236 
0.02543859649122807 0.1570175438596491 0.29736842105263156 0.5201754385964912 
0.08333333333333333 0.6944444444444444 0.08333333333333333 0.1388888888888889 
0.04365079365079365 0.623015873015873 0.26587301587301587 0.06746031746031746 
0.016666666666666666 0.2833333333333333 0.6055555555555555 0.09444444444444444 
0.0125 0.1625 0.5291666666666667 0.29583333333333334 
0.0058823529411764705 0.1588235294117647 0.3235294117647059 0.5117647058823529 
0.15780730897009967 0.5465116279069767 0.24086378737541528 0.054817275747508304 
0.05671806167400881 0.5225770925110133 0.3397577092511013 0.08094713656387666 
0.02689655172413793 0.30137931034482757 0.5206896551724138 0.1510344827586207 
0.017928286852589643 0.19800796812749005 0.49760956175298804 0.2864541832669323 
0.019083969465648856 0.1183206106870229 0.29171210468920394 0.5708833151581243 
0.17412451361867703 0.5963035019455253 0.18385214007782102 0.04571984435797665 
0.043204110228865014 0.5224194301728164 0.38276506305464736 0.05161139654367118 
0.025550314465408806 0.30542452830188677 0.5483490566037735 0.12067610062893082 
0.0122537241710716 0.16122056703507928 0.5427679000480539 0.2837578087457953 
0.008728179551122194 0.0968412302576891 0.32128013300083125 0.5731504571903574 
0.21200980392156862 0.5870098039215687 0.1556372549019608 0.04534313725490196 
0.03669354838709677 0.6076612903225806 0.2931451612903226 0.0625 
0.03943850267379679 0.35093582887700536 0.5127005347593583 0.09692513368983957 
0.018033946251768036 0.19413012729844414 0.5442008486562943 0.24363507779349364 
0.010141093474426807 0.09126984126984126 0.33201058201058203 0.5665784832451499 
0.26673040152963673 0.4980879541108987 0.1711281070745698 0.06405353728489484 
0.06233509234828496 0.5596965699208444 0.3070580474934037 0.07091029023746702 
0.04196217494089834 0.37174940898345155 0.47458628841607564 0.11170212765957446 
0.031635168447000823 0.22226787181594085 0.5082169268693508 0.23788003286770748 
0.022236340533672173 0.150571791613723 0.3170266836086404 0.5101651842439644 
0.15765765765765766 0.5 0.26576576576576577 0.07657657657657657 
0.0506198347107438 0.42665289256198347 0.4018595041322314 0.12086776859504132 
0.0234375 0.21986607142857142 0.5792410714285714 0.17745535714285715 
0.022859922178988325 0.17363813229571984 0.5413424124513618 0.26215953307393 
0.01259774109470026 0.07515204170286707 0.3045178105994787 0.6077324066029539 
</TABLE>
</DEFINITION>
<DEFINITION>
<FOR>pixel6</FOR>
<GIVEN>emotion</GIVEN>
<GIVEN>pixel58</GIVEN>
<TABLE>
0.43505747126436783 0.4304597701149425 0.0925287356321839 0.04195402298850575 
0.1761182108626198 0.5850638977635783 0.19129392971246006 0.04752396166134185 
0.04976744186046512 0.42930232558139536 0.3893023255813953 0.13162790697674417 
0.03961038961038961 0.19805194805194806 0.2681818181818182 0.4941558441558442 
0.33098591549295775 0.528169014084507 0.04929577464788732 0.09154929577464789 
0.07251908396946564 0.583969465648855 0.2633587786259542 0.08015267175572519 
0.05701754385964912 0.4868421052631579 0.3026315789473684 0.15350877192982457 
0.0371900826446281 0.1115702479338843 0.3925619834710744 0.45867768595041325 
0.3217005076142132 0.4612944162436548 0.1516497461928934 0.06535532994923858 
0.11787564766839378 0.5427461139896373 0.23359240069084627 0.10578583765112262 
0.047868061142397424 0.3399034593724859 0.38736926790024134 0.2248592115848753 
0.027868852459016394 0.1371584699453552 0.27377049180327867 0.5612021857923497 
0.35858585858585856 0.4696969696969697 0.1114996114996115 0.060217560217560216 
0.11180846118084611 0.6506276150627615 0.16666666666666666 0.0708972570897257 
0.03348519362186788 0.42255125284738043 0.3938496583143508 0.15011389521640092 
0.0225253807106599 0.13039340101522842 0.3131345177664975 0.5339467005076142 
0.3737864077669903 0.411738746690203 0.12842012356575463 0.08605472197705208 
0.10562913907284768 0.5910596026490066 0.20364238410596028 0.09966887417218544 
0.0312960235640648 0.3383652430044183 0.39727540500736375 0.23306332842415317 
0.022848034006376194 0.10786397449521785 0.26726886291179597 0.60201912858661 
0.35881174899866486 0.44559412550066757 0.12583444592790388 0.06975967957276369 
0.14680989583333334 0.5621744791666666 0.20540364583333334 0.08561197916666667 
0.06367521367521367 0.391025641025641 0.35341880341880344 0.1918803418803419 
0.046120058565153735 0.1705710102489019 0.2657393850658858 0.5175695461200586 
0.33699059561128525 0.4059561128526646 0.15830721003134796 0.0987460815047022 
0.06754874651810584 0.49651810584958217 0.30571030640668523 0.13022284122562675 
0.039831302717900655 0.2563261480787254 0.4053420805998126 0.2985004686035614 
0.005824372759856631 0.0846774193548387 0.2289426523297491 0.6805555555555556 
</TABLE>
</DEFINITION>
<DEFINITION>
<FOR>pixel7</FOR>
<GIVEN>emotion</GIVEN>
<GIVEN>pixel8</GIVEN>
<TABLE>
0.20800485142510614 0.4796846573681019 0.22983626440266827 0.056397816858702245 0.02607640994542147 
0.029458346531517264 0.2644916059550206 0.516629711751663 0.13968957871396895 0.04973075704783022 
0.014153846153846154 0.15076923076923077 0.4449230769230769 0.2873846153846154 0.10276923076923077 
0.019243530192435302 0.09356337093563372 0.24087591240875914 0.2966157929661579 0.34970139349701396 
0.11926605504587157 0.5779816513761468 0.21100917431192662 0.06422018348623854 0.027522935779816515 
0.020771513353115726 0.3056379821958457 0.5133531157270029 0.09198813056379822 0.06824925816023739 
0.004975124378109453 0.1044776119402985 0.39303482587064675 0.34328358208955223 0.15422885572139303 
0.012987012987012988 0.03896103896103896 0.35064935064935066 0.341991341991342 0.2554112554112554 
0.14611546685673557 0.4668567355666429 0.28011404133998574 0.0691375623663578 0.037776193870277974 
0.03172978505629478 0.2241555783009212 0.5216649607642443 0.1613783691572842 0.06107130672125555 
0.012345679012345678 0.07997852925389157 0.3784219001610306 0.37734836285560924 0.15190552871712293 
0.014392059553349877 0.052109181141439205 0.1781637717121588 0.2803970223325062 0.4749379652605459 
0.09939148073022312 0.542393509127789 0.27626774847870184 0.05233265720081136 0.029614604462474645 
0.013443983402489626 0.2179253112033195 0.5425726141078838 0.1804149377593361 0.04564315352697095 
0.0036172311739559354 0.0825386386057218 0.3870437356132851 0.38967444919434396 0.13712594541269318 
0.00588031822898651 0.04600484261501211 0.1691456243514355 0.31442407471463163 0.4645451400899343 
0.1479944674965422 0.5186721991701245 0.22821576763485477 0.06500691562932227 0.040110650069156296 
0.018816471229888193 0.23916007635669484 0.5091355331333515 0.1742568857376602 0.05863103354240524 
0.01189860320744956 0.10605276771857217 0.36575271598551473 0.363683393688567 0.15261251939989653 
0.009910335063709298 0.04011326097215668 0.1656441717791411 0.2789051439358188 0.5054270882491742 
0.15190380761523045 0.503006012024048 0.2537074148296593 0.060521042084168336 0.030861723446893786 
0.02873714737674664 0.25968890060638017 0.5001318217769576 0.1468494595307145 0.06459267070920116 
0.018846373500856654 0.1102227298686465 0.42547115933752144 0.32153055396916047 0.12392918332381496 
0.01667625071880391 0.07073030477285797 0.2213916043703278 0.2719953996549741 0.41920644048303624 
0.1029126213592233 0.4640776699029126 0.29320388349514565 0.04466019417475728 0.09514563106796116 
0.02654867256637168 0.17126496616345654 0.504424778761062 0.21499219156689225 0.0827693909422176 
0.0043343653250774 0.04148606811145511 0.3238390092879257 0.4043343653250774 0.2260061919504644 
0.0029251984956122023 0.027162557459256165 0.09653155035520268 0.2962808190555788 0.5770998746343502 
</TABLE>
</DEFINITION>
<DEFINITION>
<FOR>pixel8</FOR>
<GIVEN>emotion</GIVEN>
<GIVEN>pixel63</GIVEN>
<TABLE>
0.47597597597597596 0.3928928928928929 0.08958958958958958 0.04154154154154154 
0.19120553359683795 0.5459486166007905 0.17440711462450592 0.08843873517786562 
0.08548109965635739 0.4274054982817869 0.3071305841924399 0.1799828178694158 
0.07007575757575757 0.1710858585858586 0.2380050505050505 0.5208333333333334 
0.3782051282051282 0.4807692307692308 0.10897435897435898 0.03205128205128205 
0.16336633663366337 0.6683168316831684 0.10396039603960396 0.06435643564356436 
0.03985507246376811 0.35144927536231885 0.35144927536231885 0.2572463768115942 
0.020833333333333332 0.12083333333333333 0.2708333333333333 0.5875 
0.4695193434935522 0.36635404454865184 0.09788980070339977 0.06623681125439625 
0.18149646107178968 0.532355915065723 0.18756319514661274 0.09858442871587463 
0.07190916736753575 0.4293523969722456 0.30992430613961314 0.18881412952060556 
0.03308480894687791 0.10764212488350419 0.27353215284249766 0.5857409133271202 
0.48368055555555556 0.37881944444444443 0.08229166666666667 0.05520833333333333 
0.1926629040533607 0.5908158029758851 0.13417136993329912 0.0823499230374551 
0.054822565969062785 0.4820291173794358 0.3059599636032757 0.15718835304822565 
0.02435265104808878 0.15752157829839705 0.28822441430332923 0.529901356350185 
0.5220197418375095 0.34738041002277903 0.0785876993166287 0.05201214882308276 
0.2136437908496732 0.5339052287581699 0.15400326797385622 0.09844771241830065 
0.06259259259259259 0.4285185185185185 0.30185185185185187 0.20703703703703705 
0.04804947668886775 0.13653663177925784 0.25356803044719317 0.5618458610846813 
0.5087890625 0.3544921875 0.0732421875 0.0634765625 
0.22413793103448276 0.5388848129126926 0.15003668378576668 0.08694057226705797 
0.09439406430338004 0.4051937345424567 0.2996702390766694 0.2007419620774938 
0.05870967741935484 0.16193548387096773 0.2509677419354839 0.5283870967741936 
0.5073260073260073 0.3608058608058608 0.06776556776556776 0.0641025641025641 
0.1330188679245283 0.6047169811320755 0.13867924528301886 0.12358490566037736 
0.034735812133072405 0.412426614481409 0.3302348336594912 0.2226027397260274 
0.008960573476702509 0.08566308243727598 0.27060931899641577 0.6347670250896057 
</TABLE>
</DEFINITION>
<DEFINITION>
<FOR>pixel9</FOR>
<GIVEN>emotion</GIVEN>
<GIVEN>pixel1</GIVEN>
<TABLE>
0.7105549510337323 0.27094668117519044 0.018498367791077257 
0.1320754716981132 0.7878406708595388 0.08008385744234801 
0.025776602775941838 0.7541308658294779 0.2200925313945803 
0.004552352048558422 0.3768335862417805 0.6186140617096612 
0.006145741878841089 0.10623353819139596 0.887620719929763 
0.7714285714285715 0.2 0.02857142857142857 
0.07569721115537849 0.8645418326693227 0.05976095617529881 
0.027932960893854747 0.7206703910614525 0.25139664804469275 
0.0041841004184100415 0.39748953974895396 0.5983263598326359 
0.005917159763313609 0.15976331360946747 0.834319526627219 
0.6339434276206323 0.31114808652246256 0.05490848585690516 
0.11955922865013774 0.7972451790633609 0.08319559228650138 
0.02139406487232574 0.7032436162870945 0.2753623188405797 
0.005978477481068154 0.37664408130729377 0.6173774412116381 
0.0016366612111292963 0.06601200218221495 0.9323513366066557 
0.6338851022395326 0.3456669912366115 0.02044790652385589 
0.09039943938332165 0.8374211632796076 0.07217939733707078 
0.005112072355485647 0.7467558002359418 0.24813212740857254 
0.0016822879115597211 0.3217976447969238 0.6765200672915165 
4.158004158004158E-4 0.05197505197505198 0.9476091476091476 
0.6883435582822086 0.298159509202454 0.013496932515337423 
0.14158935054457442 0.8063735377168213 0.05203711173860428 
0.018060200668896322 0.768561872909699 0.21337792642140468 
0.006013441811107181 0.38804386275203395 0.6059426954368589 
0.0030877812086457872 0.0674900749889722 0.929422143802382 
0.6976076555023923 0.2880382775119617 0.014354066985645933 
0.12900032992411745 0.7987462883536787 0.0722533817222039 
0.019515079834417505 0.7516262566528681 0.22885866351271436 
0.006165228113440197 0.3777229757501028 0.6161117961364571 
0.0019071837253655435 0.06929434202161475 0.9287984742530198 
0.7104072398190046 0.2669683257918552 0.02262443438914027 
0.125129265770424 0.8179937952430196 0.05687693898655636 
0.01899441340782123 0.7363128491620111 0.2446927374301676 
0.0024330900243309003 0.3518248175182482 0.645742092457421 
4.34593654932638E-4 0.06040851803563668 0.9391568883094307 
</TABLE>
</DEFINITION>
<DEFINITION>
<FOR>pixel10</FOR>
<GIVEN>emotion</GIVEN>
<GIVEN>pixel15</GIVEN>
<TABLE>
0.762796504369538 0.23096129837702872 0.006242197253433208 
0.08592443998662655 0.8515546639919759 0.06252089602139753 
0.013990672884743505 0.34710193204530315 0.6389073950699533 
0.0011376564277588168 0.0701554797117937 0.9287068638604474 
0.7142857142857143 0.2571428571428571 0.02857142857142857 
0.07883817427385892 0.8838174273858921 0.03734439834024896 
0.004878048780487805 0.21951219512195122 0.775609756097561 
0.002570694087403599 0.033419023136246784 0.9640102827763496 
0.7656903765690377 0.22454672245467225 0.009762900976290097 
0.09758732445084624 0.8415556355779619 0.060857039971191934 
0.00303951367781155 0.443161094224924 0.5537993920972645 
0.0016313213703099511 0.09624796084828711 0.9021207177814029 
0.757700205338809 0.23203285420944558 0.01026694045174538 
0.0796981409902448 0.8626909626357445 0.05761089637401068 
0.006827164929931728 0.4250808480057492 0.5680919870643191 
0.002322144817394976 0.07071986489339244 0.9269579902892126 
0.8198713366690493 0.17369549678341673 0.006433166547533953 
0.09973307449648143 0.850036398932298 0.050230526571220575 
0.01303538175046555 0.4301675977653631 0.5567970204841713 
0.004001455074572572 0.1000363768643143 0.8959621680611132 
0.7933177933177933 0.19813519813519814 0.008547008547008548 
0.07349017705554207 0.8680572398738783 0.058452583070579676 
0.010503040353786623 0.3919292426755113 0.5975677169707021 
0.00431203449627597 0.05919247353978832 0.9364954919639357 
0.7837837837837838 0.21375921375921375 0.002457002457002457 
0.10395314787701318 0.8448023426061494 0.05124450951683748 
0.0060396893874029335 0.4719585849870578 0.5220017256255393 
0.0031903580290677065 0.09393831974477136 0.902871322226161 
</TABLE>
</DEFINITION>
<DEFINITION>
<FOR>pixel11</FOR>
<GIVEN>emotion</GIVEN>
<GIVEN>pixel10</GIVEN>
<TABLE>
0.46524663677130046 0.507847533632287 0.01905829596412556 0.007847533632286996 
0.02065154159394997 0.6012216404886562 0.3080279232111693 0.07009889470622455 
8.333333333333334E-4 0.02361111111111111 0.21027777777777779 0.7652777777777777 
0.2826086956521739 0.6739130434782609 0.021739130434782608 0.021739130434782608 
0.010714285714285714 0.5107142857142857 0.425 0.05357142857142857 
0.001838235294117647 0.03125 0.20772058823529413 0.7591911764705882 
0.42289156626506025 0.5602409638554217 0.01325301204819277 0.0036144578313253013 
0.010505394662123793 0.5687109596819989 0.3336172629187961 0.0871663827370812 
2.5960539979231567E-4 0.03452751817237799 0.17004153686396678 0.7951713395638629 
0.3866242038216561 0.5917197452229299 0.017197452229299363 0.0044585987261146496 
0.012988997555012226 0.5872555012224939 0.3299205378973105 0.06983496332518338 
4.761904761904762E-4 0.03349206349206349 0.17952380952380953 0.7865079365079365 
0.46352201257861636 0.5150943396226415 0.015723270440251572 0.005660377358490566 
0.012940178192617734 0.6548578701739499 0.2789563003818413 0.053245651251591 
8.389261744966443E-4 0.041666666666666664 0.18708053691275167 0.770413870246085 
0.47193500738552435 0.5014771048744461 0.022895125553914326 0.003692762186115214 
0.023647209203238175 0.5988495952279506 0.3138048572645931 0.06369833830421814 
8.060182697474476E-4 0.03895754970445997 0.2168189145620634 0.7434175174637292 
0.3375912408759124 0.6368613138686131 0.009124087591240875 0.016423357664233577 
0.005703422053231939 0.5699619771863118 0.3258555133079848 0.09847908745247148 
3.069367710251688E-4 0.024861878453038673 0.14395334561080417 0.830877839165132 
</TABLE>
</DEFINITION>
<DEFINITION>
<FOR>pixel12</FOR>
<GIVEN>emotion</GIVEN>
<GIVEN>pixel11</GIVEN>
<TABLE>
0.9979508196721312 0.0020491803278688526 
0.945084485407066 0.05491551459293395 
0.18176855895196506 0.8182314410480349 
0.00899400399733511 0.9910059960026649 
0.9375 0.0625 
0.9526315789473684 0.04736842105263158 
0.1336206896551724 0.8663793103448276 
0.002336448598130841 0.9976635514018691 
0.9974226804123711 0.002577319587628866 
0.9096153846153846 0.09038461538461538 
0.19619565217391305 0.803804347826087 
0.00800711743772242 0.9919928825622776 
0.9985590778097982 0.001440922190201729 
0.9391810517864312 0.06081894821356885 
0.18425814234016888 0.8157418576598311 
0.009782207456626061 0.9902177925433739 
0.99625 0.00375 
0.950419338924519 0.04958066107548101 
0.20468127490039842 0.7953187250996016 
0.008958195089581952 0.991041804910418 
0.9960106382978723 0.003989361702127659 
0.9358833241607044 0.06411667583929555 
0.18917748917748917 0.8108225108225108 
0.010097719869706841 0.9899022801302931 
0.995 0.005 
0.9403526970954357 0.05964730290456432 
0.2037593984962406 0.7962406015037594 
0.0070611970410221925 0.9929388029589779 
</TABLE>
</DEFINITION>
<DEFINITION>
<FOR>pixel13</FOR>
<GIVEN>emotion</GIVEN>
<GIVEN>pixel11</GIVEN>
<TABLE>
0.8404907975460123 0.1574642126789366 0.002044989775051125 
0.025719769673704415 0.9385796545105566 0.03570057581573896 
5.455537370430987E-4 0.408619749045281 0.5908346972176759 
3.33000333000333E-4 0.02097902097902098 0.9786879786879786 
0.7647058823529411 0.17647058823529413 0.058823529411764705 
0.06806282722513089 0.9162303664921466 0.015706806282722512 
0.004291845493562232 0.2532188841201717 0.7424892703862661 
0.002331002331002331 0.011655011655011656 0.986013986013986 
0.8560411311053985 0.13624678663239073 0.007712082262210797 
0.03421760861207228 0.9338715878508266 0.031910803537101115 
5.431830526887561E-4 0.38077131993481805 0.6186854970124932 
2.964719833975689E-4 0.02164245478802253 0.9780610732285799 
0.8071942446043165 0.19136690647482013 0.0014388489208633094 
0.030303030303030304 0.9418021272325908 0.02789484246437889 
3.0147723846849563E-4 0.3952366596321978 0.6044618631293337 
1.8453589223103894E-4 0.01051854585716922 0.9892969182505997 
0.8476903870162297 0.15106117353308365 0.0012484394506866417 
0.03279901356350185 0.9437731196054254 0.02342786683107275 
4.977600796416127E-4 0.4066699850671976 0.5928322548531608 
3.316749585406302E-4 0.01890547263681592 0.9807628524046434 
0.8379814077025233 0.16069057104913678 0.0013280212483399733 
0.029986244841815682 0.9444291609353508 0.025584594222833563 
0.0012981393336218088 0.4270878407615751 0.5716140199048031 
9.768804949527841E-4 0.017909475740801043 0.9811136437642461 
0.7512437810945274 0.24378109452736318 0.004975124378109453 
0.02851218247796786 0.9440124416796267 0.027475375842405392 
7.513148009015778E-4 0.3854244928625094 0.613824192336589 
3.361344537815126E-4 0.011092436974789916 0.9885714285714285 
</TABLE>
</DEFINITION>
<DEFINITION>
<FOR>pixel14</FOR>
<GIVEN>emotion</GIVEN>
<GIVEN>pixel10</GIVEN>
<TABLE>
0.7934904601571269 0.2031425364758698 0.003367003367003367 
0.04160605178935118 0.8801280186208903 0.0782659295897585 
8.335648791330926E-4 0.08419005279244235 0.9149763823284246 
0.6888888888888889 0.28888888888888886 0.022222222222222223 
0.017921146953405017 0.9139784946236559 0.06810035842293907 
0.001841620626151013 0.06077348066298342 0.9373848987108656 
0.7322074788902292 0.2617611580217129 0.006031363088057901 
0.03777335984095427 0.8863959102527691 0.07583072990627662 
7.790184367696703E-4 0.07348740586860555 0.9257335756946248 
0.7718291905672403 0.2237093690248566 0.004461440407903123 
0.03958428855265169 0.8884303836160783 0.07198532783127005 
1.5875535799333228E-4 0.09636450230195269 0.9034767423400539 
0.8086847073631215 0.1881686595342983 0.0031466331025802393 
0.03840441332484617 0.8977296838531721 0.06386590282198175 
2.797202797202797E-4 0.10097902097902098 0.8987412587412588 
0.8122690317812269 0.18551367331855137 0.0022172949002217295 
0.037715746857021094 0.8840826763264437 0.07820157681653526 
8.062348830959419E-4 0.07874227358237033 0.9204514915345338 
0.7915904936014625 0.20292504570383912 0.005484460694698354 
0.03157093952073031 0.8904526435907189 0.07797641688855078 
3.0703101013202335E-4 0.09303039607000307 0.9066625729198649 
</TABLE>
</DEFINITION>
<DEFINITION>
<FOR>pixel15</FOR>
<GIVEN>emotion</GIVEN>
<GIVEN>pixel16</GIVEN>
<TABLE>
0.4900426742532006 0.484352773826458 0.019203413940256046 0.006401137980085348 
0.03654618473895582 0.7634538152610442 0.14497991967871485 0.05502008032128514 
0.00698856416772554 0.210292249047014 0.5736975857687421 0.20902160101651843 
0.004464285714285714 0.03206168831168831 0.08563311688311688 0.8778409090909091 
0.484375 0.484375 0.015625 0.015625 
0.014423076923076924 0.7932692307692307 0.15865384615384615 0.03365384615384615 
0.004672897196261682 0.13551401869158877 0.6869158878504673 0.17289719626168223 
0.002577319587628866 0.04381443298969072 0.06443298969072164 0.8891752577319587 
0.4782934131736527 0.48727544910179643 0.01721556886227545 0.01721556886227545 
0.027188940092165898 0.7764976958525346 0.15253456221198156 0.04377880184331797 
0.008561643835616438 0.19006849315068494 0.5656392694063926 0.23573059360730594 
0.001694915254237288 0.03694915254237288 0.10203389830508475 0.8593220338983051 
0.5202060221870047 0.46473851030110935 0.009904912836767036 0.005150554675118859 
0.02861649391617846 0.8028391167192429 0.13992789544840017 0.02861649391617846 
0.005341880341880342 0.18625356125356127 0.6121794871794872 0.1962250712250712 
0.0015060240963855422 0.03765060240963856 0.09014629948364888 0.870697074010327 
0.529486099410278 0.45282224094355517 0.010530749789385004 0.007160909856781803 
0.040584415584415584 0.8237012987012987 0.10811688311688311 0.027597402597402596 
0.006447831184056272 0.23388042203985931 0.5668229777256741 0.19284876905041032 
0.0025697503671071953 0.040748898678414094 0.10535976505139501 0.8513215859030837 
0.5293321299638989 0.4481046931407942 0.013989169675090252 0.008574007220216607 
0.031287970838396115 0.8071081409477521 0.1333535844471446 0.028250303766707167 
0.003796095444685466 0.1957700650759219 0.5883947939262473 0.21203904555314534 
0.002064409578860446 0.04665565648224608 0.10528488852188274 0.8459950454170108 
0.42 0.5447058823529412 0.01764705882352941 0.01764705882352941 
0.02750611246943765 0.7646699266503667 0.16075794621026895 0.04706601466992665 
0.002508361204013378 0.2165551839464883 0.5426421404682275 0.2382943143812709 
0.0010877447425670776 0.027918781725888325 0.08448150833937636 0.8865119651921682 
</TABLE>
</DEFINITION>
<DEFINITION>
<FOR>pixel16</FOR>
<GIVEN>emotion</GIVEN>
<GIVEN>pixel18</GIVEN>
<TABLE>
0.4124850657108722 0.5433094384707288 0.033154121863799284 0.011051373954599762 
0.009286412512218964 0.29472140762463345 0.5987292277614858 0.09726295210166178 
0.001971608832807571 0.02641955835962145 0.09345425867507887 0.8781545741324921 
0.26991150442477874 0.6769911504424779 0.048672566371681415 0.004424778761061947 
0.003787878787878788 0.20075757575757575 0.6553030303030303 0.14015151515151514 
0.002631578947368421 0.002631578947368421 0.07631578947368421 0.9184210526315789 
0.43741633199464525 0.5177376171352075 0.033801874163319943 0.01104417670682731 
0.008236434108527133 0.2747093023255814 0.6031976744186046 0.11385658914728682 
0.0034898477157360407 0.017449238578680203 0.12848984771573604 0.8505710659898477 
0.4174839364220494 0.5422725735542779 0.033310787960771054 0.006932702062901589 
0.012983425414364641 0.3168508287292818 0.580939226519337 0.08922651933701657 
0.0014344262295081967 0.017008196721311476 0.10389344262295082 0.8776639344262295 
0.47880146759070524 0.48654708520179374 0.02710966163880962 0.007541785568691398 
0.006893382352941176 0.29825367647058826 0.5932904411764706 0.1015625 
0.0032165832737669764 0.015368120085775554 0.1004288777698356 0.8809864188706219 
0.4409401366010446 0.5124548011249498 0.04198473282442748 0.004620329449578144 
0.006377551020408163 0.2844387755102041 0.5922619047619048 0.116921768707483 
0.0020491803278688526 0.029098360655737704 0.09877049180327868 0.8700819672131147 
0.4102691924227318 0.5468594217347956 0.03339980059820538 0.009471585244267198 
0.013962765957446808 0.32513297872340424 0.567154255319149 0.09375 
0.0017088174982911825 0.01674641148325359 0.09398496240601503 0.8875598086124402 
</TABLE>
</DEFINITION>
<DEFINITION>
<FOR>pixel17</FOR>
<GIVEN>emotion</GIVEN>
<GIVEN>pixel15</GIVEN>
<TABLE>
0.9925093632958801 0.003745318352059925 0.003745318352059925 
0.8134403209628887 0.16549648946840523 0.02106318956870612 
0.09926715522984676 0.5323117921385743 0.3684210526315789 
0.01478953356086462 0.03830109973454683 0.9469093667045886 
0.9428571428571428 0.02857142857142857 0.02857142857142857 
0.8008298755186722 0.17842323651452283 0.02074688796680498 
0.09268292682926829 0.5707317073170731 0.33658536585365856 
0.007712082262210797 0.02313624678663239 0.9691516709511568 
0.9944211994421199 0.0041841004184100415 0.001394700139470014 
0.7904213179690314 0.1840115232265034 0.02556715880446525 
0.11246200607902736 0.5112462006079027 0.3762917933130699 
0.009461663947797716 0.037520391517128875 0.9530179445350734 
0.9958932238193019 0.0034223134839151265 6.844626967830253E-4 
0.8435486839683416 0.13565249401803792 0.020798822013620467 
0.10312612288896873 0.5673733381243262 0.329500538986705 
0.011610724086974878 0.044120751530504536 0.9442685243825206 
0.9971408148677627 0.002144388849177984 7.147962830593281E-4 
0.8650812909487988 0.11429264741567581 0.02062606163552536 
0.09621353196772191 0.5555555555555556 0.34823091247672255 
0.014914514368861403 0.034558021098581304 0.9505274645325573 
0.9953379953379954 0.003885003885003885 7.77000777000777E-4 
0.8292505457191366 0.14479747756487993 0.025951976715983507 
0.1077943615257048 0.5058043117744611 0.3864013266998342 
0.013720109760878087 0.04116032928263426 0.9451195609564876 
0.995085995085995 0.002457002457002457 0.002457002457002457 
0.8330893118594437 0.14299658369936555 0.023914104441190825 
0.16824849007765316 0.45297670405522 0.3787748058671268 
0.01240694789081886 0.025168380007089684 0.9624246721020915 
</TABLE>
</DEFINITION>
<DEFINITION>
<FOR>pixel18</FOR>
<GIVEN>emotion</GIVEN>
<GIVEN>pixel59</GIVEN>
<TABLE>
0.8178506375227687 0.11839708561020036 0.06375227686703097 
0.5977839335180055 0.30526315789473685 0.09695290858725762 
0.27265655387008947 0.39789964994165694 0.3294437961882536 
0.11588883062401678 0.14525432616675407 0.7388568432092292 
0.6774193548387096 0.1870967741935484 0.13548387096774195 
0.3989071038251366 0.4426229508196721 0.15846994535519127 
0.14027149321266968 0.5294117647058824 0.33031674208144796 
0.05466237942122187 0.1189710610932476 0.8263665594855305 
0.8088918380889184 0.1267418712674187 0.06436629064366291 
0.6010069225928257 0.29137822529893015 0.10761485210824417 
0.22272170004086636 0.4205149162239477 0.35676338373518596 
0.10108981585869974 0.14317925591882752 0.7557309282224728 
0.861673672143676 0.08750477646159725 0.050821551394726786 
0.6378544584899214 0.26477622138708573 0.09736932012299282 
0.2872456792824327 0.4298840516298403 0.282870269087727 
0.11142126075831589 0.15143056524773202 0.737148173993952 
0.908675799086758 0.0593607305936073 0.0319634703196347 
0.7041530564629025 0.21325244983667754 0.08259449370041998 
0.30749354005167956 0.42561830933923955 0.26688815060908083 
0.143184421534937 0.16151202749140894 0.695303550973654 
0.847518895826487 0.1015445284258955 0.05093657574761748 
0.6176877015200368 0.28972823583602025 0.09258406264394288 
0.2950881139857518 0.4255718035245594 0.2793400824896888 
0.14346214928533615 0.14769719428268926 0.7088406564319746 
0.8507890961262554 0.09325681492109039 0.05595408895265423 
0.6262740656851642 0.27519818799546997 0.0985277463193658 
0.2828529555446996 0.40107474352711286 0.3160723009281876 
0.10003559985760056 0.133499466002136 0.7664649341402634 
</TABLE>
</DEFINITION>
<DEFINITION>
<FOR>pixel19</FOR>
<GIVEN>emotion</GIVEN>
<GIVEN>pixel14</GIVEN>
<TABLE>
0.7256740914419695 0.2473622508792497 0.026963657678780773 
0.0481618694784839 0.7594756340837846 0.19236249643773154 
0.0019635343618513326 0.06311360448807854 0.9349228611500702 
0.5675675675675675 0.40540540540540543 0.02702702702702703 
0.08305647840531562 0.7142857142857143 0.2026578073089701 
0.001890359168241966 0.024574669187145556 0.9735349716446124 
0.6850605652759085 0.3001345895020188 0.014804845222072678 
0.04832919083126208 0.7254901960784313 0.22618061309030654 
0.0013031013812874641 0.05134219442272609 0.9473547041959864 
0.7280761386811693 0.256288239292998 0.01563562202583277 
0.042386648944025995 0.7749224634470536 0.18269088760892038 
0.0017831090938563786 0.06824444804668504 0.9299724428594586 
0.7573278800272665 0.23244717109747784 0.010224948875255624 
0.0488652627274586 0.7824575751380086 0.16867716213453282 
2.841716396703609E-4 0.07075873827791987 0.9289570900824098 
0.706020328381548 0.27912431587177483 0.014855355746677092 
0.0620072448327296 0.7502663541444705 0.18772640102279992 
0.002898550724637681 0.07509881422924901 0.9220026350461134 
0.5667311411992263 0.4158607350096712 0.017408123791102514 
0.0279491833030853 0.7372050816696915 0.23484573502722322 
0.0015817779183802593 0.052831382473900665 0.945586839607719 
</TABLE>
</DEFINITION>
<DEFINITION>
<FOR>pixel20</FOR>
<GIVEN>emotion</GIVEN>
<GIVEN>pixel21</GIVEN>
<TABLE>
0.6866028708133971 0.30861244019138756 0.0023923444976076554 0.0023923444976076554 
0.007372400756143667 0.9763705103969754 0.015311909262759925 9.45179584120983E-4 
5.714285714285715E-4 0.3102857142857143 0.6291428571428571 0.06 
0.0021008403361344537 0.014705882352941176 0.07352941176470588 0.9096638655462185 
0.8333333333333334 0.05555555555555555 0.05555555555555555 0.05555555555555555 
0.015254237288135594 0.9745762711864406 0.00847457627118644 0.001694915254237288 
0.004901960784313725 0.4166666666666667 0.5147058823529411 0.06372549019607843 
0.016129032258064516 0.016129032258064516 0.016129032258064516 0.9516129032258065 
0.6541095890410958 0.339041095890411 0.003424657534246575 0.003424657534246575 
0.005186323472915867 0.9744525547445255 0.01940069150979639 9.604302727621974E-4 
4.621072088724584E-4 0.23243992606284658 0.7111829944547134 0.05591497227356747 
0.0018315018315018315 0.0018315018315018315 0.04212454212454213 0.9542124542124543 
0.625 0.3704545454545455 0.0022727272727272726 0.0022727272727272726 
0.002677746999076639 0.9847645429362881 0.012280701754385965 2.770083102493075E-4 
3.673769287288758E-4 0.28398236590742104 0.6638501102130786 0.051800146950771495 
0.002347417840375587 0.007042253521126761 0.025821596244131457 0.9647887323943662 
0.6897435897435897 0.30512820512820515 0.002564102564102564 0.002564102564102564 
0.007511608850040972 0.9829281617044523 0.009423654739142312 1.365747063643813E-4 
5.370569280343716E-4 0.28302900107411383 0.6707841031149302 0.04564983888292159 
0.0032258064516129032 0.0032258064516129032 0.041935483870967745 0.9516129032258065 
0.6723484848484849 0.32386363636363635 0.001893939393939394 0.001893939393939394 
0.0038157150932730355 0.9789429055963821 0.017100056529112492 1.4132278123233464E-4 
5.128205128205128E-4 0.2958974358974359 0.661025641025641 0.04256410256410256 
0.004545454545454545 0.022727272727272728 0.013636363636363636 0.9590909090909091 
0.6136363636363636 0.3712121212121212 0.007575757575757576 0.007575757575757576 
0.003430079155672823 0.9786279683377309 0.017150395778364115 7.915567282321899E-4 
5.219206680584551E-4 0.22181628392484343 0.69258872651357 0.08507306889352818 
0.0016611295681063123 0.0016611295681063123 0.044850498338870434 0.9518272425249169 
</TABLE>
</DEFINITION>
<DEFINITION>
<FOR>pixel21</FOR>
<GIVEN>emotion</GIVEN>
<GIVEN>pixel25</GIVEN>
<TABLE>
0.8111111111111111 0.1814814814814815 0.003703703703703704 0.003703703703703704 
0.062099358974358976 0.9050480769230769 0.031650641025641024 0.001201923076923077 
0.014314247669773635 0.8472037283621837 0.12549933422103862 0.012982689747003996 
5.827505827505828E-4 0.2511655011655012 0.6928904428904429 0.05536130536130536 
0.0022123893805309734 0.015486725663716814 0.2323008849557522 0.75 
0.8333333333333334 0.05555555555555555 0.05555555555555555 0.05555555555555555 
0.003816793893129771 0.9580152671755725 0.03435114503816794 0.003816793893129771 
0.002890173410404624 0.8352601156069365 0.15895953757225434 0.002890173410404624 
0.005 0.245 0.675 0.075 
0.019230769230769232 0.019230769230769232 0.09615384615384616 0.8653846153846154 
0.7420634920634921 0.24206349206349206 0.011904761904761904 0.003968253968253968 
0.04228624535315985 0.9205390334572491 0.03485130111524164 0.0023234200743494425 
0.0034832172260924636 0.8432552248258391 0.1409119696010133 0.012349588347055098 
0.0013876040703052729 0.23080481036077705 0.706290471785384 0.061517113783533764 
0.0020491803278688526 0.006147540983606557 0.23565573770491804 0.7561475409836066 
0.6428571428571429 0.34 0.014285714285714285 0.002857142857142857 
0.03812922614575507 0.9423365890308039 0.01859504132231405 9.391435011269722E-4 
0.0019455252918287938 0.8841528121683764 0.11089494163424124 0.0030067209055535905 
3.7397157816005983E-4 0.2599102468212416 0.7026925953627524 0.03702318623784592 
0.002380952380952381 0.002380952380952381 0.26904761904761904 0.7261904761904762 
0.6988304093567251 0.2953216374269006 0.0029239766081871343 0.0029239766081871343 
0.0343218012081274 0.9470071389346513 0.01784733662822625 8.237232289950577E-4 
0.006627783669141039 0.8746023329798516 0.11214209968186638 0.006627783669141039 
5.482456140350877E-4 0.2571271929824561 0.712171052631579 0.030153508771929825 
0.003246753246753247 0.016233766233766232 0.2435064935064935 0.737012987012987 
0.7864321608040201 0.20351758793969849 0.007537688442211055 0.002512562814070352 
0.05891425046267736 0.9231955582973473 0.0175817396668723 3.0845157310302283E-4 
0.005909558067831449 0.8908016443987667 0.09892086330935251 0.004367934224049332 
5.040322580645161E-4 0.26764112903225806 0.7121975806451613 0.01965725806451613 
0.003816793893129771 0.019083969465648856 0.3549618320610687 0.6221374045801527 
0.5666666666666667 0.4111111111111111 0.011111111111111112 0.011111111111111112 
0.04379157427937916 0.906319290465632 0.04711751662971175 0.002771618625277162 
4.464285714285714E-4 0.778125 0.19866071428571427 0.022767857142857142 
5.518763796909492E-4 0.20695364238410596 0.7091611479028698 0.08333333333333333 
0.002008032128514056 0.002008032128514056 0.20281124497991967 0.7931726907630522 
</TABLE>
</DEFINITION>
<DEFINITION>
<FOR>pixel22</FOR>
<GIVEN>emotion</GIVEN>
<GIVEN>pixel26</GIVEN>
<TABLE>
0.930865064046324 0.068959466573083 1.7546938059308652E-4 
0.07267605633802816 0.9109859154929577 0.016338028169014085 
0.002207505518763797 0.1479028697571744 0.8498896247240618 
0.9038142620232172 0.0945273631840796 0.001658374792703151 
0.06329113924050633 0.9324894514767933 0.004219409282700422 
0.037037037037037035 0.3333333333333333 0.6296296296296297 
0.91802336717104 0.08178509864010726 1.915341888527102E-4 
0.056842105263157895 0.9292631578947368 0.013894736842105264 
0.001652892561983471 0.17355371900826447 0.824793388429752 
0.9468683700765612 0.05303938751037727 9.224241306152569E-5 
0.07131120604666448 0.918501478803812 0.010187315149523497 
0.0056925996204933585 0.1650853889943074 0.8292220113851992 
0.9355011374280744 0.06382978723404255 6.690753378830456E-4 
0.07563025210084033 0.916955017301038 0.007414730598121601 
0.0026246719160104987 0.11286089238845144 0.884514435695538 
0.9364992472971123 0.06336389763240728 1.368550704803613E-4 
0.06953790937640197 0.9210408254822791 0.009421265141318977 
0.004329004329004329 0.14285714285714285 0.8528138528138528 
0.908883826879271 0.09035687167805619 7.593014426727411E-4 
0.058823529411764705 0.9285321605277626 0.012644310060472787 
0.0015082956259426848 0.10105580693815988 0.8974358974358975 
</TABLE>
</DEFINITION>
<DEFINITION>
<FOR>pixel23</FOR>
<GIVEN>emotion</GIVEN>
<GIVEN>pixel25</GIVEN>
<TABLE>
0.9925650557620818 0.0037174721189591076 0.0037174721189591076 
0.9919839679358717 0.007615230460921844 4.008016032064128E-4 
0.7482517482517482 0.2500832500832501 0.001665001665001665 
0.046064139941690965 0.9078717201166181 0.046064139941690965 
0.019955654101995565 0.08647450110864745 0.893569844789357 
0.8823529411764706 0.058823529411764705 0.058823529411764705 
0.9923371647509579 0.0038314176245210726 0.0038314176245210726 
0.6753623188405797 0.3217391304347826 0.002898550724637681 
0.02512562814070352 0.8994974874371859 0.07537688442211055 
0.0196078431372549 0.09803921568627451 0.8823529411764706 
0.9920318725099602 0.00398406374501992 0.00398406374501992 
0.9907019990702 0.008833100883310088 4.6490004649000463E-4 
0.7104846373139057 0.28856509344314224 9.502692429521698E-4 
0.034706154558074964 0.933364183248496 0.031929662193428965 
0.002053388090349076 0.06365503080082136 0.9342915811088296 
0.994269340974212 0.0028653295128939827 0.0028653295128939827 
0.9947398083787338 0.00507232763479241 1.8786398647379298E-4 
0.7739253493720148 0.22554395895984433 5.306916681408102E-4 
0.03778526000748223 0.9401421623643846 0.022072577628133184 
0.002386634844868735 0.10739856801909307 0.8902147971360382 
0.9882697947214076 0.008797653958944282 0.002932551319648094 
0.9895633067838506 0.010162043394671794 2.7464982147761604E-4 
0.752850702731371 0.24423229912490055 0.002916998143728454 
0.04004388370817334 0.9418540866703237 0.018102029621503018 
0.003257328990228013 0.10097719869706841 0.8957654723127035 
0.9899244332493703 0.007556675062972292 0.0025188916876574307 
0.9919777846343721 0.007713668620796051 3.08546744831842E-4 
0.756360832690825 0.24184014392187098 0.001799023387304035 
0.04387291981845688 0.9425113464447806 0.01361573373676248 
0.019157088122605363 0.1111111111111111 0.8697318007662835 
0.9775280898876404 0.011235955056179775 0.011235955056179775 
0.9900166389351082 0.009428729894620078 5.546311702717693E-4 
0.6971862438588655 0.3005806163465833 0.0022331397945511387 
0.03368304803975704 0.9370513528437328 0.029265599116510214 
0.002012072434607646 0.08249496981891348 0.9154929577464789 
</TABLE>
</DEFINITION>
<DEFINITION>
<FOR>pixel24</FOR>
<GIVEN>emotion</GIVEN>
<GIVEN>pixel25</GIVEN>
<TABLE>
0.9925650557620818 0.0037174721189591076 0.0037174721189591076 
0.995190380761523 0.004408817635270541 4.008016032064128E-4 
0.7915417915417915 0.20812520812520813 3.33000333000333E-4 
0.08338192419825073 0.9102040816326531 0.00641399416909621 
0.011086474501108648 0.31263858093126384 0.6762749445676275 
0.8823529411764706 0.058823529411764705 0.058823529411764705 
0.9923371647509579 0.0038314176245210726 0.0038314176245210726 
0.7333333333333333 0.263768115942029 0.002898550724637681 
0.04522613065326633 0.9396984924623115 0.01507537688442211 
0.0196078431372549 0.21568627450980393 0.7647058823529411 
0.9920318725099602 0.00398406374501992 0.00398406374501992 
0.99814039981404 0.001394700139470014 4.6490004649000463E-4 
0.7789040228064619 0.22077922077922077 3.167564143173899E-4 
0.05969458583988894 0.929662193428968 0.01064322073114299 
0.002053388090349076 0.3470225872689938 0.6509240246406571 
0.994269340974212 0.0028653295128939827 0.0028653295128939827 
0.9973699041893669 0.0024422318241593085 1.8786398647379298E-4 
0.8103661772510171 0.18945692552626925 1.768972227136034E-4 
0.07444818555929666 0.918443696221474 0.00710811821922933 
0.002386634844868735 0.3269689737470167 0.6706443914081146 
0.9941348973607038 0.002932551319648094 0.002932551319648094 
0.9961549024993134 0.0035704476792090085 2.7464982147761604E-4 
0.8217979315831344 0.1779368867674357 2.6518164942985947E-4 
0.08283049917718047 0.9089413055403182 0.008228195282501372 
0.003257328990228013 0.32247557003257327 0.6742671009771987 
0.9899244332493703 0.007556675062972292 0.0025188916876574307 
0.9932119716136995 0.0064794816414686825 3.08546744831842E-4 
0.8062194808532511 0.19352351580570548 2.5700334104343357E-4 
0.06505295007564296 0.9304084720121029 0.0045385779122541605 
0.019157088122605363 0.46360153256704983 0.5172413793103449 
0.9775280898876404 0.011235955056179775 0.011235955056179775 
0.9977814753189129 0.0016638935108153079 5.546311702717693E-4 
0.7927646270656543 0.205895489057615 0.0013398838767306833 
0.05797901711761458 0.9370513528437328 0.004969630038652678 
0.002012072434607646 0.323943661971831 0.6740442655935613 
</TABLE>
</DEFINITION>
<DEFINITION>
<FOR>pixel25</FOR>
<GIVEN>emotion</GIVEN>
<GIVEN>pixel43</GIVEN>
<TABLE>
0.6533333333333333 0.25333333333333335 0.013333333333333334 0.06666666666666667 0.013333333333333334 
0.07746126936531735 0.5812093953023488 0.25537231384307846 0.07546226886556721 0.010494752623688156 
0.014139173828666482 0.2974771278070419 0.5065151095092875 0.15719434433046853 0.024674244524535625 
0.006925945657964837 0.12093766648907832 0.3319126265316995 0.4864144912093767 0.053809270111880664 
0.007832898172323759 0.0391644908616188 0.1122715404699739 0.21148825065274152 0.6292428198433421 
0.5384615384615384 0.07692307692307693 0.23076923076923078 0.07692307692307693 0.07692307692307693 
0.027237354085603113 0.5719844357976653 0.2840466926070039 0.10505836575875487 0.011673151750972763 
0.007407407407407408 0.2691358024691358 0.5604938271604938 0.1506172839506173 0.012345679012345678 
0.005649717514124294 0.02824858757062147 0.24293785310734464 0.5819209039548022 0.14124293785310735 
0.03225806451612903 0.03225806451612903 0.03225806451612903 0.2903225806451613 0.6129032258064516 
0.7721518987341772 0.11392405063291139 0.08860759493670886 0.012658227848101266 0.012658227848101266 
0.07726514730405781 0.5397443023902168 0.27515286270150086 0.09505280711506392 0.012784880489160644 
0.012305168170631665 0.2671588733934919 0.5121684440798469 0.1873120043751709 0.021055509980858627 
0.0030959752321981426 0.0800530738611234 0.3206545776205219 0.5329500221141088 0.06324635117204777 
0.0023752969121140144 0.035629453681710214 0.14014251781472684 0.23990498812351543 0.5819477434679335 
0.6363636363636364 0.2727272727272727 0.030303030303030304 0.030303030303030304 0.030303030303030304 
0.06625097427903351 0.6414653156664069 0.2377240841777085 0.04858404780462458 0.0059755780722265525 
0.008747220163083765 0.36100815418828763 0.5092661230541141 0.1140103780578206 0.006968124536693847 
0.003261191817373258 0.11769937740883486 0.3608064037948414 0.4805810850874592 0.03765194189149126 
0.0117096018735363 0.0351288056206089 0.20374707259953162 0.22716627634660422 0.522248243559719 
0.5268817204301075 0.3548387096774194 0.03225806451612903 0.07526881720430108 0.010752688172043012 
0.07171193164479707 0.599023497101007 0.25480622520598106 0.06805004577357339 0.00640830027464144 
0.0111693640300889 0.3243674492819695 0.5117392295418282 0.14246637793480738 0.010257579211306132 
0.0038230475150191155 0.11414527580557073 0.3478973238667395 0.4909885308574549 0.04314582195521573 
0.009836065573770493 0.04918032786885246 0.1737704918032787 0.23278688524590163 0.5344262295081967 
0.503448275862069 0.35172413793103446 0.10344827586206896 0.020689655172413793 0.020689655172413793 
0.09762532981530343 0.5793441387108933 0.25367508480964945 0.06370147003392386 0.005653976630229929 
0.010164897221594759 0.31375649423989155 0.5197650779308787 0.14750395301558616 0.008809577592048791 
0.008144020574367767 0.10672953279039862 0.37591084440634376 0.473639091298757 0.03557651093013288 
0.013333333333333334 0.07555555555555556 0.12 0.24444444444444444 0.5466666666666666 
0.5428571428571428 0.2571428571428571 0.08571428571428572 0.08571428571428572 0.02857142857142857 
0.051890941072999124 0.5989445910290238 0.23834652594547054 0.09762532981530343 0.013192612137203167 
0.002364066193853428 0.3198243836541709 0.4718000675447484 0.18743667679837892 0.018574805808848363 
0.002701242571582928 0.08157752566180443 0.2771474878444084 0.571042679632631 0.0675310642895732 
0.002150537634408602 0.03655913978494624 0.12258064516129032 0.1870967741935484 0.6516129032258065 
</TABLE>
</DEFINITION>
<DEFINITION>
<FOR>pixel26</FOR>
<GIVEN>emotion</GIVEN>
<GIVEN>pixel27</GIVEN>
<TABLE>
0.9774053850498965 0.022029749576350968 5.64865373752589E-4 
0.340691685062546 0.6571008094186902 0.002207505518763797 
0.04939626783754116 0.8199780461031834 0.13062568605927552 
0.0028653295128939827 0.054441260744985676 0.9426934097421203 
0.9791304347826087 0.019130434782608695 0.0017391304347826088 
0.16923076923076924 0.8256410256410256 0.005128205128205128 
0.08641975308641975 0.7777777777777778 0.13580246913580246 
0.05263157894736842 0.15789473684210525 0.7894736842105263 
0.9652820830750155 0.03451126265757388 2.0665426741062204E-4 
0.31099353321575546 0.6884185773074663 5.878894767783657E-4 
0.014107883817427386 0.8506224066390041 0.13526970954356846 
0.010893246187363835 0.02832244008714597 0.9607843137254902 
0.981133929448757 0.018571288198879828 2.9478235236317184E-4 
0.35649153278332607 0.6396005210594876 0.0039079461571862786 
0.02130406714009038 0.8799225306649451 0.0987734021949645 
0.007792207792207792 0.04935064935064935 0.9428571428571428 
0.980854407772539 0.018431204457779682 7.14387769681383E-4 
0.36505948653725734 0.6343143393863494 6.261740763932373E-4 
0.024777006937561942 0.8592666005946482 0.1159563924677899 
0.0036363636363636364 0.05454545454545454 0.9418181818181818 
0.9728653590915795 0.02669222828491373 4.424126235068574E-4 
0.36270822138635145 0.6367544331004836 5.373455131649651E-4 
0.03604531410916581 0.88259526261586 0.08135942327497425 
0.006369426751592357 0.044585987261146494 0.9490445859872612 
0.9764963104673408 0.02323039081716316 2.7329871549603714E-4 
0.2940185341196293 0.7034540859309183 0.002527379949452401 
0.028073572120038724 0.8315585672797676 0.1403678606001936 
0.0017953321364452424 0.07360861759425494 0.9245960502692998 
</TABLE>
</DEFINITION>
<DEFINITION>
<FOR>pixel27</FOR>
<GIVEN>emotion</GIVEN>
<GIVEN>pixel28</GIVEN>
<TABLE>
0.9608927890118275 0.03414727203357497 0.0047691720717283476 1.9076688286913393E-4 
0.1978827361563518 0.745114006514658 0.05456026058631922 0.0024429967426710096 
0.029693486590038315 0.24808429118773948 0.7155172413793104 0.006704980842911878 
0.002380952380952381 0.016666666666666666 0.1738095238095238 0.8071428571428572 
0.9506802721088435 0.04591836734693878 0.0017006802721088435 0.0017006802721088435 
0.06707317073170732 0.8841463414634146 0.042682926829268296 0.006097560975609756 
0.05319148936170213 0.24468085106382978 0.6702127659574468 0.031914893617021274 
0.03571428571428571 0.03571428571428571 0.39285714285714285 0.5357142857142857 
0.9513479359730412 0.04654591406908172 0.0018955349620893007 2.1061499578770007E-4 
0.1965034965034965 0.7601398601398601 0.04265734265734266 6.993006993006993E-4 
0.02613941018766756 0.2593833780160858 0.7057640750670241 0.00871313672922252 
0.0055762081784386614 0.013011152416356878 0.15427509293680297 0.8271375464684015 
0.9687562387702137 0.03004591734877221 0.0010980235575963266 9.982032341784787E-5 
0.2145 0.7465 0.0375 0.0015 
0.02153361344537815 0.26733193277310924 0.7032563025210085 0.007878151260504201 
0.006048387096774193 0.0020161290322580645 0.25201612903225806 0.7399193548387096 
0.9688315453754711 0.029138880835024646 0.0018846042331110468 1.4496955639315743E-4 
0.19738651994497936 0.7640990371389271 0.03782668500687758 6.87757909215956E-4 
0.024451939291736932 0.23861720067453626 0.7209106239460371 0.016020236087689713 
0.002890173410404624 0.008670520231213872 0.2514450867052023 0.7369942196531792 
0.9609281437125748 0.03637724550898203 0.0025449101796407186 1.497005988023952E-4 
0.20301204819277108 0.7620481927710844 0.03433734939759036 6.024096385542169E-4 
0.020193861066235864 0.2851373182552504 0.6873990306946688 0.007269789983844911 
0.00510204081632653 0.00510204081632653 0.23979591836734693 0.75 
0.96016713091922 0.037047353760445684 0.0025069637883008357 2.785515320334262E-4 
0.19331983805668015 0.7682186234817814 0.03744939271255061 0.0010121457489878543 
0.017826825127334467 0.2470288624787776 0.7224108658743633 0.012733446519524618 
0.0014619883040935672 0.007309941520467836 0.20029239766081872 0.7909356725146199 
</TABLE>
</DEFINITION>
<DEFINITION>
<FOR>pixel28</FOR>
<GIVEN>emotion</GIVEN>
<GIVEN>pixel45</GIVEN>
<TABLE>
0.9129353233830846 0.04228855721393035 0.0406301824212272 0.0041459369817578775 
0.7843781597573306 0.11097067745197169 0.07457027300303337 0.03008088978766431 
0.4010212097407698 0.28476040848389633 0.26433621366849963 0.04988216810683425 
0.0752212389380531 0.05752212389380531 0.11946902654867257 0.7477876106194691 
0.9468085106382979 0.010638297872340425 0.031914893617021274 0.010638297872340425 
0.795045045045045 0.10135135135135136 0.07882882882882883 0.024774774774774775 
0.44753086419753085 0.3611111111111111 0.1697530864197531 0.021604938271604937 
0.08333333333333333 0.08333333333333333 0.08333333333333333 0.75 
0.8658119658119658 0.04358974358974359 0.07777777777777778 0.01282051282051282 
0.7297225186766275 0.1347385272145144 0.10965848452508005 0.025880469583778015 
0.3309716599190283 0.29048582995951416 0.317476383265857 0.06106612685560054 
0.05828220858895705 0.03987730061349693 0.15030674846625766 0.7515337423312883 
0.9164546225614928 0.047073791348600506 0.03265479219677693 0.003816793893129771 
0.8360267483978824 0.09626636946224575 0.058651434940094734 0.009055447199777097 
0.4074157303370787 0.2640449438202247 0.2995505617977528 0.02898876404494382 
0.09953703703703703 0.05324074074074074 0.16898148148148148 0.6782407407407407 
0.8964354527938343 0.049614643545279384 0.0476878612716763 0.006262042389210019 
0.8070003910833008 0.11243644896362925 0.0651153695737192 0.015447790379350802 
0.3595641646489104 0.31113801452784506 0.2909604519774011 0.03833736884584342 
0.08796296296296297 0.023148148148148147 0.1527777777777778 0.7361111111111112 
0.9111479028697572 0.05573951434878587 0.02924944812362031 0.003863134657836645 
0.8108165882855921 0.1254809747755451 0.057503206498503635 0.006199230440359128 
0.3885329916720051 0.3065342729019859 0.2828315182575272 0.022101217168481742 
0.1419753086419753 0.09259259259259259 0.2037037037037037 0.5617283950617284 
0.8624678663239075 0.05012853470437018 0.07326478149100257 0.014138817480719794 
0.7251481237656353 0.11882817643186307 0.10697827518104015 0.04904542462146149 
0.31633574007220217 0.26398916967509023 0.328971119133574 0.09070397111913357 
0.03676470588235294 0.007352941176470588 0.1642156862745098 0.7916666666666666 
</TABLE>
</DEFINITION>
<DEFINITION>
<FOR>pixel29</FOR>
<GIVEN>emotion</GIVEN>
<GIVEN>pixel21</GIVEN>
<TABLE>
0.6100478468899522 0.38516746411483255 0.0023923444976076554 0.0023923444976076554 
0.0017013232514177694 0.9657844990548204 0.031947069943289226 5.671077504725897E-4 
5.714285714285715E-4 0.15142857142857144 0.7685714285714286 0.07942857142857143 
0.0021008403361344537 0.0021008403361344537 0.04411764705882353 0.9516806722689075 
0.6111111111111112 0.2777777777777778 0.05555555555555555 0.05555555555555555 
0.005084745762711864 0.964406779661017 0.0288135593220339 0.001694915254237288 
0.004901960784313725 0.11274509803921569 0.7990196078431373 0.08333333333333333 
0.016129032258064516 0.016129032258064516 0.04838709677419355 0.9193548387096774 
0.613013698630137 0.3801369863013699 0.003424657534246575 0.003424657534246575 
0.004033807145601229 0.9556281213983865 0.040145985401459854 1.920860545524395E-4 
4.621072088724584E-4 0.13170055452865065 0.8008317929759704 0.06700554528650647 
0.0018315018315018315 0.009157509157509158 0.04212454212454213 0.9468864468864469 
0.4431818181818182 0.5522727272727272 0.0022727272727272726 0.0022727272727272726 
0.0017543859649122807 0.969067405355494 0.029085872576177285 9.233610341643582E-5 
3.673769287288758E-4 0.1216017634092579 0.8218221895664952 0.056208670095518 
0.002347417840375587 0.002347417840375587 0.05868544600938967 0.9366197183098591 
0.5564102564102564 0.43846153846153846 0.002564102564102564 0.002564102564102564 
0.00204862059546572 0.9684512428298279 0.02881726304288446 6.828735318219066E-4 
5.370569280343716E-4 0.11224489795918367 0.8211600429645542 0.06605800214822771 
0.0032258064516129032 0.0032258064516129032 0.054838709677419356 0.9387096774193548 
0.5473484848484849 0.44507575757575757 0.005681818181818182 0.001893939393939394 
0.0018371961560203504 0.9656585641605426 0.032362916902204636 1.4132278123233464E-4 
5.128205128205128E-4 0.14 0.8076923076923077 0.05179487179487179 
0.004545454545454545 0.013636363636363636 0.05 0.9318181818181818 
0.5075757575757576 0.4772727272727273 0.007575757575757576 0.007575757575757576 
7.915567282321899E-4 0.9548812664907652 0.04353562005277045 7.915567282321899E-4 
5.219206680584551E-4 0.1080375782881002 0.7886221294363257 0.10281837160751565 
0.0016611295681063123 0.0016611295681063123 0.03820598006644518 0.9584717607973422 
</TABLE>
</DEFINITION>
<DEFINITION>
<FOR>pixel30</FOR>
<GIVEN>emotion</GIVEN>
<GIVEN>pixel31</GIVEN>
<TABLE>
0.6183206106870229 0.22748091603053436 0.09618320610687023 0.04732824427480916 0.010687022900763359 
0.042673521850899745 0.18560411311053984 0.6596401028277635 0.0961439588688946 0.015938303341902313 
0.003203987184051264 0.01245995016019936 0.2823068707725169 0.6468494126023496 0.05517977928088288 
5.763688760806917E-4 0.002881844380403458 0.03054755043227666 0.43170028818443806 0.5342939481268012 
0.0012515644555694619 0.0012515644555694619 0.011264080100125156 0.06382978723404255 0.9224030037546934 
0.3939393939393939 0.45454545454545453 0.09090909090909091 0.030303030303030304 0.030303030303030304 
0.03414634146341464 0.1024390243902439 0.775609756097561 0.08292682926829269 0.004878048780487805 
0.010238907849829351 0.0034129692832764505 0.2150170648464164 0.6928327645051194 0.07849829351535836 
0.003663003663003663 0.003663003663003663 0.01098901098901099 0.3772893772893773 0.6043956043956044 
0.012658227848101266 0.012658227848101266 0.012658227848101266 0.012658227848101266 0.9493670886075949 
0.6077795786061588 0.22204213938411668 0.1280388978930308 0.04051863857374392 0.0016207455429497568 
0.035254616675993285 0.1684387241186346 0.6787912702853945 0.10240626748740907 0.01510912143256855 
0.003083247687564234 0.01473107228502912 0.2620760534429599 0.6416581020897568 0.07845152449468996 
0.004734350341925302 0.003682272488164124 0.03314045239347712 0.3961073119410836 0.5623356128353498 
0.0010070493454179255 0.0030211480362537764 0.011077542799597181 0.06948640483383686 0.9154078549848943 
0.5167785234899329 0.3422818791946309 0.10961968680089486 0.029082774049217 0.0022371364653243847 
0.021295876755777075 0.1617580425917535 0.6864521975532397 0.12097870412324423 0.0095151789759855 
0.0013706677109849227 0.004112003132954768 0.23242608184844332 0.6910123360093988 0.07107891129821813 
2.3446658851113716E-4 0.0011723329425556857 0.015240328253223915 0.3819460726846424 0.6014067995310668 
4.1649312786339027E-4 4.1649312786339027E-4 0.0012494793835901709 0.03123698458975427 0.9666805497709288 
0.48985507246376814 0.3565217391304348 0.11304347826086956 0.02608695652173913 0.014492753623188406 
0.012211668928086838 0.13432835820895522 0.7765716870194482 0.07191316146540028 0.004975124378109453 
7.79423226812159E-4 0.004936347103143674 0.26994024421927776 0.6783580150688491 0.04598597038191738 
3.969829297340214E-4 3.969829297340214E-4 0.014688368400158794 0.39023421992854307 0.5942834458118301 
0.0030959752321981426 0.0010319917440660474 0.0030959752321981426 0.04231166150670795 0.9504643962848297 
0.5761589403973509 0.28211920529801326 0.11788079470198676 0.01456953642384106 0.009271523178807948 
0.04379297864639884 0.16539992761491132 0.7003257328990228 0.08070937386898298 0.009771986970684038 
0.0036465638148667602 0.012622720897615708 0.30434782608695654 0.6330995792426367 0.04628330995792426 
0.0015932023366967605 5.310674455655868E-4 0.040892193308550186 0.40626659585767394 0.5507169410515136 
0.0012239902080783353 0.0036719706242350062 0.01835985312117503 0.06731946144430845 0.9094247246022031 
0.6174863387978142 0.28087431693989073 0.08852459016393442 0.007650273224043716 0.00546448087431694 
0.07858428314337132 0.20695860827834434 0.5920815836832634 0.10857828434313137 0.013797240551889621 
0.007415858528237307 0.013120365088419851 0.29492298916143755 0.5892755276668569 0.09526525955504848 
0.002352941176470588 0.007058823529411765 0.04470588235294118 0.37254901960784315 0.5733333333333334 
0.0011918951132300357 0.003575685339690107 0.013110846245530394 0.07747318235995232 0.9046483909415971 
</TABLE>
</DEFINITION>
<DEFINITION>
<FOR>pixel31</FOR>
<GIVEN>emotion</GIVEN>
<GIVEN>pixel39</GIVEN>
<TABLE>
0.6591211717709721 0.2862849533954727 0.041278295605858856 0.011984021304926764 0.0013315579227696406 
0.06463478717813978 0.6815554387808723 0.22438255386232264 0.026799789805570153 0.002627430373095113 
0.004626569729015202 0.20687376074025116 0.7038995373430271 0.07336417713152676 0.011235955056179775 
0.007386563489271896 0.03833978192050651 0.4322898346816743 0.46113260640168835 0.06085121350685895 
0.00964630225080386 0.011789924973204717 0.06109324758842444 0.27116827438370844 0.6463022508038585 
0.4222222222222222 0.4666666666666667 0.06666666666666667 0.022222222222222223 0.022222222222222223 
0.05527638190954774 0.7788944723618091 0.15577889447236182 0.005025125628140704 0.005025125628140704 
0.005917159763313609 0.14792899408284024 0.7041420118343196 0.13609467455621302 0.005917159763313609 
0.0029154518950437317 0.008746355685131196 0.3935860058309038 0.5568513119533528 0.037900874635568516 
0.007874015748031496 0.007874015748031496 0.03937007874015748 0.44881889763779526 0.49606299212598426 
0.6564774381368268 0.2867540029112082 0.050946142649199416 0.004366812227074236 0.001455604075691412 
0.06948304613674264 0.6498054474708171 0.26181211784324626 0.017231795441912175 0.0016675931072818232 
0.011438892233594221 0.1872366044551475 0.7013847080072245 0.08488862131246237 0.015051173991571343 
0.006659656501927795 0.0318962495618647 0.4013319313003856 0.48475289169295477 0.07535927094286715 
0.0024650780608052587 0.015612161051766639 0.08463434675431389 0.2818405916187346 0.6154478225143796 
0.591182364729459 0.3627254509018036 0.03406813627254509 0.006012024048096192 0.006012024048096192 
0.059020510673922146 0.645039765592298 0.274173294265383 0.018836333193804938 0.0029300962745918793 
0.002668699961875715 0.14449104079298514 0.7605794891345787 0.08501715592832634 0.0072436141822340835 
4.8084628946946624E-4 0.01618849174547203 0.37970828658438854 0.5233210450392691 0.08030133034140087 
3.7355248412401944E-4 0.0018677624206200972 0.02652222637280538 0.27231976092641014 0.6989166977960404 
0.5826972010178118 0.37404580152671757 0.03307888040712468 0.007633587786259542 0.002544529262086514 
0.04604380867232901 0.7362539114886008 0.20607957085382209 0.011175681716584712 4.470272686633885E-4 
0.003386550556361877 0.1717464925012095 0.7687469762941461 0.05370101596516691 0.0024189646831156266 
0.0012693577050012694 0.014470677837014471 0.43945163747143945 0.4963188626554963 0.04848946433104849 
7.955449482895784E-4 0.003977724741447892 0.04375497215592681 0.33810660302307083 0.6133651551312649 
0.6787048567870486 0.29265255292652553 0.0186799501867995 0.008717310087173101 0.0012453300124533001 
0.06983767459418648 0.7266893167232918 0.1868629671574179 0.016232540581351453 3.7750094375235937E-4 
0.007458975634012929 0.2362008950770761 0.6877175534559921 0.06414719045251119 0.0044753853804077575 
0.0021065302437556425 0.03280168522419501 0.48660848630755343 0.4252181763466747 0.053265121877821245 
0.003009027081243731 0.01905717151454363 0.055165496489468405 0.29187562688064195 0.6308926780341023 
0.7133105802047781 0.22639362912400454 0.04436860068259386 0.012514220705346985 0.0034129692832764505 
0.12093987560469938 0.640635798203179 0.21630960608154803 0.017277125086385625 0.0048375950241879755 
0.06299911268855368 0.2777284826974268 0.554569653948536 0.08074534161490683 0.023957409050576754 
0.02110138960370561 0.10344827586206896 0.3721049922799794 0.4379825012866701 0.06536284096757591 
9.49667616334283E-4 0.02564102564102564 0.050332383665717 0.28205128205128205 0.6410256410256411 
</TABLE>
</DEFINITION>
<DEFINITION>
<FOR>pixel32</FOR>
<GIVEN>emotion</GIVEN>
<GIVEN>pixel33</GIVEN>
<TABLE>
0.8433098591549296 0.08626760563380281 0.040492957746478875 0.02992957746478873 
0.29721030042918456 0.4366952789699571 0.24356223175965666 0.022532188841201718 
0.012451577199778638 0.08605423353624793 0.6001660210293304 0.30132816823464303 
0.0024822695035460994 0.0010638297872340426 0.05638297872340425 0.9400709219858157 
0.9285714285714286 0.023809523809523808 0.023809523809523808 0.023809523809523808 
0.15476190476190477 0.6071428571428571 0.20238095238095238 0.03571428571428571 
0.007731958762886598 0.06443298969072164 0.5902061855670103 0.33762886597938147 
0.002777777777777778 0.002777777777777778 0.041666666666666664 0.9527777777777777 
0.8465703971119134 0.11371841155234658 0.023465703971119134 0.016245487364620937 
0.26643990929705214 0.42290249433106575 0.2777777777777778 0.032879818594104306 
0.02156113537117904 0.07341703056768559 0.5870633187772926 0.3179585152838428 
0.006113256113256113 0.004826254826254826 0.06402831402831403 0.925032175032175 
0.8372781065088757 0.08579881656804733 0.05029585798816568 0.026627218934911243 
0.24888392857142858 0.43191964285714285 0.29129464285714285 0.027901785714285716 
0.006339958875942426 0.04746401644962303 0.5875599725839616 0.35863605209047295 
1.3609145345672293E-4 0.0014970059880239522 0.03252585737615678 0.9658410451823626 
0.8212121212121212 0.14242424242424243 0.03333333333333333 0.0030303030303030303 
0.23868778280542988 0.5463800904977375 0.2002262443438914 0.014705882352941176 
0.008333333333333333 0.06346153846153846 0.6224358974358974 0.3057692307692308 
0.0012531328320802004 0.0017543859649122807 0.030827067669172932 0.9661654135338346 
0.8506493506493507 0.10519480519480519 0.03766233766233766 0.006493506493506494 
0.2922705314009662 0.4694041867954911 0.21980676328502416 0.018518518518518517 
0.02616782006920415 0.08931660899653979 0.6053200692041523 0.2791955017301038 
0.0041427660930529 0.003505417463352454 0.06022944550669216 0.9321223709369025 
0.8885135135135135 0.059684684684684686 0.04617117117117117 0.00563063063063063 
0.3704188481675393 0.35209424083769636 0.2395287958115183 0.03795811518324607 
0.039727126805778494 0.07664526484751204 0.5710272873194222 0.3126003210272873 
0.005662020905923345 0.008275261324041812 0.04660278745644599 0.9394599303135889 
</TABLE>
</DEFINITION>
<DEFINITION>
<FOR>pixel33</FOR>
<GIVEN>emotion</GIVEN>
<GIVEN>pixel37</GIVEN>
<TABLE>
0.6868131868131868 0.23992673992673993 0.06776556776556776 0.005494505494505495 
0.06080060422960725 0.28058912386706947 0.6242447129909365 0.034365558912386705 
0.011301989150090416 0.021247739602169982 0.722875226039783 0.2445750452079566 
0.002768987341772152 0.00435126582278481 0.12856012658227847 0.8643196202531646 
0.71875 0.21875 0.03125 0.03125 
0.057692307692307696 0.28076923076923077 0.6576923076923077 0.0038461538461538464 
0.011538461538461539 0.011538461538461539 0.6961538461538461 0.28076923076923077 
