<?xml version="1.0"?>
<!-- DTD for the XMLBIF 0.3 format -->
<!DOCTYPE BIF [
	<!ELEMENT BIF ( NETWORK )*>
	      <!ATTLIST BIF VERSION CDATA #REQUIRED>
	<!ELEMENT NETWORK ( NAME, ( PROPERTY | VARIABLE | DEFINITION )* )>
	<!ELEMENT NAME (#PCDATA)>
	<!ELEMENT VARIABLE ( NAME, ( OUTCOME |  PROPERTY )* ) >
	      <!ATTLIST VARIABLE TYPE (nature|decision|utility) "nature">
	<!ELEMENT OUTCOME (#PCDATA)>
	<!ELEMENT DEFINITION ( FOR | GIVEN | TABLE | PROPERTY )* >
	<!ELEMENT FOR (#PCDATA)>
	<!ELEMENT GIVEN (#PCDATA)>
	<!ELEMENT TABLE (#PCDATA)>
	<!ELEMENT PROPERTY (#PCDATA)>
]>


<BIF VERSION="0.3">
<NETWORK>
<NAME>faces-weka.filters.supervised.attribute.Discretize-Rfirst-last-precision6-weka.filters.unsupervised.attribute.ReplaceMissingValues</NAME>
<VARIABLE TYPE="nature">
<NAME>emotion</NAME>
<OUTCOME>angry</OUTCOME>
<OUTCOME>disgust</OUTCOME>
<OUTCOME>fear</OUTCOME>
<OUTCOME>happy</OUTCOME>
<OUTCOME>neutral</OUTCOME>
<OUTCOME>sad</OUTCOME>
<OUTCOME>surprise</OUTCOME>
</VARIABLE>
<VARIABLE TYPE="nature">
<NAME>pixel0</NAME>
<OUTCOME>&apos;\&apos;(-inf-0.448039]\&apos;&apos;</OUTCOME>
<OUTCOME>&apos;\&apos;(0.448039-0.685294]\&apos;&apos;</OUTCOME>
<OUTCOME>&apos;\&apos;(0.685294-0.789216]\&apos;&apos;</OUTCOME>
<OUTCOME>&apos;\&apos;(0.789216-inf)\&apos;&apos;</OUTCOME>
</VARIABLE>
<VARIABLE TYPE="nature">
<NAME>pixel1</NAME>
<OUTCOME>&apos;\&apos;(-inf-0.288725]\&apos;&apos;</OUTCOME>
<OUTCOME>&apos;\&apos;(0.288725-0.52451]\&apos;&apos;</OUTCOME>
<OUTCOME>&apos;\&apos;(0.52451-0.620098]\&apos;&apos;</OUTCOME>
<OUTCOME>&apos;\&apos;(0.620098-0.764216]\&apos;&apos;</OUTCOME>
<OUTCOME>&apos;\&apos;(0.764216-inf)\&apos;&apos;</OUTCOME>
</VARIABLE>
<VARIABLE TYPE="nature">
<NAME>pixel2</NAME>
<OUTCOME>&apos;\&apos;(-inf-0.230882]\&apos;&apos;</OUTCOME>
<OUTCOME>&apos;\&apos;(0.230882-0.40098]\&apos;&apos;</OUTCOME>
<OUTCOME>&apos;\&apos;(0.40098-0.661765]\&apos;&apos;</OUTCOME>
<OUTCOME>&apos;\&apos;(0.661765-0.757353]\&apos;&apos;</OUTCOME>
<OUTCOME>&apos;\&apos;(0.757353-inf)\&apos;&apos;</OUTCOME>
</VARIABLE>
<VARIABLE TYPE="nature">
<NAME>pixel3</NAME>
<OUTCOME>&apos;\&apos;(-inf-0.42598]\&apos;&apos;</OUTCOME>
<OUTCOME>&apos;\&apos;(0.42598-0.648039]\&apos;&apos;</OUTCOME>
<OUTCOME>&apos;\&apos;(0.648039-0.786275]\&apos;&apos;</OUTCOME>
<OUTCOME>&apos;\&apos;(0.786275-inf)\&apos;&apos;</OUTCOME>
</VARIABLE>
<VARIABLE TYPE="nature">
<NAME>pixel4</NAME>
<OUTCOME>&apos;\&apos;(-inf-0.408824]\&apos;&apos;</OUTCOME>
<OUTCOME>&apos;\&apos;(0.408824-0.696569]\&apos;&apos;</OUTCOME>
<OUTCOME>&apos;\&apos;(0.696569-0.783333]\&apos;&apos;</OUTCOME>
<OUTCOME>&apos;\&apos;(0.783333-inf)\&apos;&apos;</OUTCOME>
</VARIABLE>
<VARIABLE TYPE="nature">
<NAME>pixel5</NAME>
<OUTCOME>&apos;\&apos;(-inf-0.179412]\&apos;&apos;</OUTCOME>
<OUTCOME>&apos;\&apos;(0.179412-0.473529]\&apos;&apos;</OUTCOME>
<OUTCOME>&apos;\&apos;(0.473529-0.70049]\&apos;&apos;</OUTCOME>
<OUTCOME>&apos;\&apos;(0.70049-inf)\&apos;&apos;</OUTCOME>
</VARIABLE>
<VARIABLE TYPE="nature">
<NAME>pixel6</NAME>
<OUTCOME>&apos;\&apos;(-inf-0.378431]\&apos;&apos;</OUTCOME>
<OUTCOME>&apos;\&apos;(0.378431-0.656863]\&apos;&apos;</OUTCOME>
<OUTCOME>&apos;\&apos;(0.656863-0.779412]\&apos;&apos;</OUTCOME>
<OUTCOME>&apos;\&apos;(0.779412-inf)\&apos;&apos;</OUTCOME>
</VARIABLE>
<VARIABLE TYPE="nature">
<NAME>pixel7</NAME>
<OUTCOME>&apos;\&apos;(-inf-0.230392]\&apos;&apos;</OUTCOME>
<OUTCOME>&apos;\&apos;(0.230392-0.482353]\&apos;&apos;</OUTCOME>
<OUTCOME>&apos;\&apos;(0.482353-0.684314]\&apos;&apos;</OUTCOME>
<OUTCOME>&apos;\&apos;(0.684314-0.794608]\&apos;&apos;</OUTCOME>
<OUTCOME>&apos;\&apos;(0.794608-inf)\&apos;&apos;</OUTCOME>
</VARIABLE>
<VARIABLE TYPE="nature">
<NAME>pixel8</NAME>
<OUTCOME>&apos;\&apos;(-inf-0.47402]\&apos;&apos;</OUTCOME>
<OUTCOME>&apos;\&apos;(0.47402-0.7]\&apos;&apos;</OUTCOME>
<OUTCOME>&apos;\&apos;(0.7-0.796078]\&apos;&apos;</OUTCOME>
<OUTCOME>&apos;\&apos;(0.796078-inf)\&apos;&apos;</OUTCOME>
</VARIABLE>
<VARIABLE TYPE="nature">
<NAME>pixel9</NAME>
<OUTCOME>&apos;\&apos;(-inf-0.293137]\&apos;&apos;</OUTCOME>
<OUTCOME>&apos;\&apos;(0.293137-0.631863]\&apos;&apos;</OUTCOME>
<OUTCOME>&apos;\&apos;(0.631863-inf)\&apos;&apos;</OUTCOME>
</VARIABLE>
<VARIABLE TYPE="nature">
<NAME>pixel10</NAME>
<OUTCOME>&apos;\&apos;(-inf-0.170588]\&apos;&apos;</OUTCOME>
<OUTCOME>&apos;\&apos;(0.170588-0.601471]\&apos;&apos;</OUTCOME>
<OUTCOME>&apos;\&apos;(0.601471-inf)\&apos;&apos;</OUTCOME>
</VARIABLE>
<VARIABLE TYPE="nature">
<NAME>pixel11</NAME>
<OUTCOME>&apos;\&apos;(-inf-0.107353]\&apos;&apos;</OUTCOME>
<OUTCOME>&apos;\&apos;(0.107353-0.492157]\&apos;&apos;</OUTCOME>
<OUTCOME>&apos;\&apos;(0.492157-0.663235]\&apos;&apos;</OUTCOME>
<OUTCOME>&apos;\&apos;(0.663235-inf)\&apos;&apos;</OUTCOME>
</VARIABLE>
<VARIABLE TYPE="nature">
<NAME>pixel12</NAME>
<OUTCOME>&apos;\&apos;(-inf-0.505392]\&apos;&apos;</OUTCOME>
<OUTCOME>&apos;\&apos;(0.505392-inf)\&apos;&apos;</OUTCOME>
</VARIABLE>
<VARIABLE TYPE="nature">
<NAME>pixel13</NAME>
<OUTCOME>&apos;\&apos;(-inf-0.108824]\&apos;&apos;</OUTCOME>
<OUTCOME>&apos;\&apos;(0.108824-0.564706]\&apos;&apos;</OUTCOME>
<OUTCOME>&apos;\&apos;(0.564706-inf)\&apos;&apos;</OUTCOME>
</VARIABLE>
<VARIABLE TYPE="nature">
<NAME>pixel14</NAME>
<OUTCOME>&apos;\&apos;(-inf-0.152451]\&apos;&apos;</OUTCOME>
<OUTCOME>&apos;\&apos;(0.152451-0.585294]\&apos;&apos;</OUTCOME>
<OUTCOME>&apos;\&apos;(0.585294-inf)\&apos;&apos;</OUTCOME>
</VARIABLE>
<VARIABLE TYPE="nature">
<NAME>pixel15</NAME>
<OUTCOME>&apos;\&apos;(-inf-0.197059]\&apos;&apos;</OUTCOME>
<OUTCOME>&apos;\&apos;(0.197059-0.584314]\&apos;&apos;</OUTCOME>
<OUTCOME>&apos;\&apos;(0.584314-0.704902]\&apos;&apos;</OUTCOME>
<OUTCOME>&apos;\&apos;(0.704902-inf)\&apos;&apos;</OUTCOME>
</VARIABLE>
<VARIABLE TYPE="nature">
<NAME>pixel16</NAME>
<OUTCOME>&apos;\&apos;(-inf-0.318627]\&apos;&apos;</OUTCOME>
<OUTCOME>&apos;\&apos;(0.318627-0.589216]\&apos;&apos;</OUTCOME>
<OUTCOME>&apos;\&apos;(0.589216-0.706863]\&apos;&apos;</OUTCOME>
<OUTCOME>&apos;\&apos;(0.706863-inf)\&apos;&apos;</OUTCOME>
</VARIABLE>
<VARIABLE TYPE="nature">
<NAME>pixel17</NAME>
<OUTCOME>&apos;\&apos;(-inf-0.530392]\&apos;&apos;</OUTCOME>
<OUTCOME>&apos;\&apos;(0.530392-0.65049]\&apos;&apos;</OUTCOME>
<OUTCOME>&apos;\&apos;(0.65049-inf)\&apos;&apos;</OUTCOME>
</VARIABLE>
<VARIABLE TYPE="nature">
<NAME>pixel18</NAME>
<OUTCOME>&apos;\&apos;(-inf-0.567157]\&apos;&apos;</OUTCOME>
<OUTCOME>&apos;\&apos;(0.567157-0.716667]\&apos;&apos;</OUTCOME>
<OUTCOME>&apos;\&apos;(0.716667-inf)\&apos;&apos;</OUTCOME>
</VARIABLE>
<VARIABLE TYPE="nature">
<NAME>pixel19</NAME>
<OUTCOME>&apos;\&apos;(-inf-0.159314]\&apos;&apos;</OUTCOME>
<OUTCOME>&apos;\&apos;(0.159314-0.548529]\&apos;&apos;</OUTCOME>
<OUTCOME>&apos;\&apos;(0.548529-inf)\&apos;&apos;</OUTCOME>
</VARIABLE>
<VARIABLE TYPE="nature">
<NAME>pixel20</NAME>
<OUTCOME>&apos;\&apos;(-inf-0.017157]\&apos;&apos;</OUTCOME>
<OUTCOME>&apos;\&apos;(0.017157-0.733824]\&apos;&apos;</OUTCOME>
<OUTCOME>&apos;\&apos;(0.733824-0.972059]\&apos;&apos;</OUTCOME>
<OUTCOME>&apos;\&apos;(0.972059-inf)\&apos;&apos;</OUTCOME>
</VARIABLE>
<VARIABLE TYPE="nature">
<NAME>pixel21</NAME>
<OUTCOME>&apos;\&apos;(-inf-0.027941]\&apos;&apos;</OUTCOME>
<OUTCOME>&apos;\&apos;(0.027941-0.677941]\&apos;&apos;</OUTCOME>
<OUTCOME>&apos;\&apos;(0.677941-0.986765]\&apos;&apos;</OUTCOME>
<OUTCOME>&apos;\&apos;(0.986765-inf)\&apos;&apos;</OUTCOME>
</VARIABLE>
<VARIABLE TYPE="nature">
<NAME>pixel22</NAME>
<OUTCOME>&apos;\&apos;(-inf-0.606863]\&apos;&apos;</OUTCOME>
<OUTCOME>&apos;\&apos;(0.606863-0.976961]\&apos;&apos;</OUTCOME>
<OUTCOME>&apos;\&apos;(0.976961-inf)\&apos;&apos;</OUTCOME>
</VARIABLE>
<VARIABLE TYPE="nature">
<NAME>pixel23</NAME>
<OUTCOME>&apos;\&apos;(-inf-0.584314]\&apos;&apos;</OUTCOME>
<OUTCOME>&apos;\&apos;(0.584314-0.957353]\&apos;&apos;</OUTCOME>
<OUTCOME>&apos;\&apos;(0.957353-inf)\&apos;&apos;</OUTCOME>
</VARIABLE>
<VARIABLE TYPE="nature">
<NAME>pixel24</NAME>
<OUTCOME>&apos;\&apos;(-inf-0.585294]\&apos;&apos;</OUTCOME>
<OUTCOME>&apos;\&apos;(0.585294-0.985784]\&apos;&apos;</OUTCOME>
<OUTCOME>&apos;\&apos;(0.985784-inf)\&apos;&apos;</OUTCOME>
</VARIABLE>
<VARIABLE TYPE="nature">
<NAME>pixel25</NAME>
<OUTCOME>&apos;\&apos;(-inf-0.026961]\&apos;&apos;</OUTCOME>
<OUTCOME>&apos;\&apos;(0.026961-0.305392]\&apos;&apos;</OUTCOME>
<OUTCOME>&apos;\&apos;(0.305392-0.661765]\&apos;&apos;</OUTCOME>
<OUTCOME>&apos;\&apos;(0.661765-0.957353]\&apos;&apos;</OUTCOME>
<OUTCOME>&apos;\&apos;(0.957353-inf)\&apos;&apos;</OUTCOME>
</VARIABLE>
<VARIABLE TYPE="nature">
<NAME>pixel26</NAME>
<OUTCOME>&apos;\&apos;(-inf-0.630882]\&apos;&apos;</OUTCOME>
<OUTCOME>&apos;\&apos;(0.630882-0.970588]\&apos;&apos;</OUTCOME>
<OUTCOME>&apos;\&apos;(0.970588-inf)\&apos;&apos;</OUTCOME>
</VARIABLE>
<VARIABLE TYPE="nature">
<NAME>pixel27</NAME>
<OUTCOME>&apos;\&apos;(-inf-0.568137]\&apos;&apos;</OUTCOME>
<OUTCOME>&apos;\&apos;(0.568137-0.794608]\&apos;&apos;</OUTCOME>
<OUTCOME>&apos;\&apos;(0.794608-0.990686]\&apos;&apos;</OUTCOME>
<OUTCOME>&apos;\&apos;(0.990686-inf)\&apos;&apos;</OUTCOME>
</VARIABLE>
<VARIABLE TYPE="nature">
<NAME>pixel28</NAME>
<OUTCOME>&apos;\&apos;(-inf-0.553922]\&apos;&apos;</OUTCOME>
<OUTCOME>&apos;\&apos;(0.553922-0.74902]\&apos;&apos;</OUTCOME>
<OUTCOME>&apos;\&apos;(0.74902-0.983333]\&apos;&apos;</OUTCOME>
<OUTCOME>&apos;\&apos;(0.983333-inf)\&apos;&apos;</OUTCOME>
</VARIABLE>
<VARIABLE TYPE="nature">
<NAME>pixel29</NAME>
<OUTCOME>&apos;\&apos;(-inf-0.012255]\&apos;&apos;</OUTCOME>
<OUTCOME>&apos;\&apos;(0.012255-0.687255]\&apos;&apos;</OUTCOME>
<OUTCOME>&apos;\&apos;(0.687255-0.967647]\&apos;&apos;</OUTCOME>
<OUTCOME>&apos;\&apos;(0.967647-inf)\&apos;&apos;</OUTCOME>
</VARIABLE>
<VARIABLE TYPE="nature">
<NAME>pixel30</NAME>
<OUTCOME>&apos;\&apos;(-inf-0.133333]\&apos;&apos;</OUTCOME>
<OUTCOME>&apos;\&apos;(0.133333-0.215196]\&apos;&apos;</OUTCOME>
<OUTCOME>&apos;\&apos;(0.215196-0.420588]\&apos;&apos;</OUTCOME>
<OUTCOME>&apos;\&apos;(0.420588-0.621078]\&apos;&apos;</OUTCOME>
<OUTCOME>&apos;\&apos;(0.621078-inf)\&apos;&apos;</OUTCOME>
</VARIABLE>
<VARIABLE TYPE="nature">
<NAME>pixel31</NAME>
<OUTCOME>&apos;\&apos;(-inf-0.160784]\&apos;&apos;</OUTCOME>
<OUTCOME>&apos;\&apos;(0.160784-0.365686]\&apos;&apos;</OUTCOME>
<OUTCOME>&apos;\&apos;(0.365686-0.573529]\&apos;&apos;</OUTCOME>
<OUTCOME>&apos;\&apos;(0.573529-0.734804]\&apos;&apos;</OUTCOME>
<OUTCOME>&apos;\&apos;(0.734804-inf)\&apos;&apos;</OUTCOME>
</VARIABLE>
<VARIABLE TYPE="nature">
<NAME>pixel32</NAME>
<OUTCOME>&apos;\&apos;(-inf-0.194608]\&apos;&apos;</OUTCOME>
<OUTCOME>&apos;\&apos;(0.194608-0.286765]\&apos;&apos;</OUTCOME>
<OUTCOME>&apos;\&apos;(0.286765-0.492157]\&apos;&apos;</OUTCOME>
<OUTCOME>&apos;\&apos;(0.492157-inf)\&apos;&apos;</OUTCOME>
</VARIABLE>
<VARIABLE TYPE="nature">
<NAME>pixel33</NAME>
<OUTCOME>&apos;\&apos;(-inf-0.151961]\&apos;&apos;</OUTCOME>
<OUTCOME>&apos;\&apos;(0.151961-0.27549]\&apos;&apos;</OUTCOME>
<OUTCOME>&apos;\&apos;(0.27549-0.558824]\&apos;&apos;</OUTCOME>
<OUTCOME>&apos;\&apos;(0.558824-inf)\&apos;&apos;</OUTCOME>
</VARIABLE>
<VARIABLE TYPE="nature">
<NAME>pixel34</NAME>
<OUTCOME>&apos;\&apos;(-inf-0.161765]\&apos;&apos;</OUTCOME>
<OUTCOME>&apos;\&apos;(0.161765-0.402451]\&apos;&apos;</OUTCOME>
<OUTCOME>&apos;\&apos;(0.402451-0.571078]\&apos;&apos;</OUTCOME>
<OUTCOME>&apos;\&apos;(0.571078-inf)\&apos;&apos;</OUTCOME>
</VARIABLE>
<VARIABLE TYPE="nature">
<NAME>pixel35</NAME>
<OUTCOME>&apos;\&apos;(-inf-0.178922]\&apos;&apos;</OUTCOME>
<OUTCOME>&apos;\&apos;(0.178922-0.280882]\&apos;&apos;</OUTCOME>
<OUTCOME>&apos;\&apos;(0.280882-0.40098]\&apos;&apos;</OUTCOME>
<OUTCOME>&apos;\&apos;(0.40098-0.560294]\&apos;&apos;</OUTCOME>
<OUTCOME>&apos;\&apos;(0.560294-inf)\&apos;&apos;</OUTCOME>
</VARIABLE>
<VARIABLE TYPE="nature">
<NAME>pixel36</NAME>
<OUTCOME>&apos;\&apos;(-inf-0.177451]\&apos;&apos;</OUTCOME>
<OUTCOME>&apos;\&apos;(0.177451-0.455392]\&apos;&apos;</OUTCOME>
<OUTCOME>&apos;\&apos;(0.455392-0.542647]\&apos;&apos;</OUTCOME>
<OUTCOME>&apos;\&apos;(0.542647-inf)\&apos;&apos;</OUTCOME>
</VARIABLE>
<VARIABLE TYPE="nature">
<NAME>pixel37</NAME>
<OUTCOME>&apos;\&apos;(-inf-0.146569]\&apos;&apos;</OUTCOME>
<OUTCOME>&apos;\&apos;(0.146569-0.422059]\&apos;&apos;</OUTCOME>
<OUTCOME>&apos;\&apos;(0.422059-0.578431]\&apos;&apos;</OUTCOME>
<OUTCOME>&apos;\&apos;(0.578431-inf)\&apos;&apos;</OUTCOME>
</VARIABLE>
<VARIABLE TYPE="nature">
<NAME>pixel38</NAME>
<OUTCOME>&apos;\&apos;(-inf-0.156373]\&apos;&apos;</OUTCOME>
<OUTCOME>&apos;\&apos;(0.156373-0.394118]\&apos;&apos;</OUTCOME>
<OUTCOME>&apos;\&apos;(0.394118-0.543627]\&apos;&apos;</OUTCOME>
<OUTCOME>&apos;\&apos;(0.543627-inf)\&apos;&apos;</OUTCOME>
</VARIABLE>
<VARIABLE TYPE="nature">
<NAME>pixel39</NAME>
<OUTCOME>&apos;\&apos;(-inf-0.163235]\&apos;&apos;</OUTCOME>
<OUTCOME>&apos;\&apos;(0.163235-0.362255]\&apos;&apos;</OUTCOME>
<OUTCOME>&apos;\&apos;(0.362255-0.479902]\&apos;&apos;</OUTCOME>
<OUTCOME>&apos;\&apos;(0.479902-0.711765]\&apos;&apos;</OUTCOME>
<OUTCOME>&apos;\&apos;(0.711765-inf)\&apos;&apos;</OUTCOME>
</VARIABLE>
<VARIABLE TYPE="nature">
<NAME>pixel40</NAME>
<OUTCOME>&apos;\&apos;(-inf-0.115686]\&apos;&apos;</OUTCOME>
<OUTCOME>&apos;\&apos;(0.115686-0.337255]\&apos;&apos;</OUTCOME>
<OUTCOME>&apos;\&apos;(0.337255-inf)\&apos;&apos;</OUTCOME>
</VARIABLE>
<VARIABLE TYPE="nature">
<NAME>pixel41</NAME>
<OUTCOME>&apos;\&apos;(-inf-0.030882]\&apos;&apos;</OUTCOME>
<OUTCOME>&apos;\&apos;(0.030882-0.286275]\&apos;&apos;</OUTCOME>
<OUTCOME>&apos;\&apos;(0.286275-0.971078]\&apos;&apos;</OUTCOME>
<OUTCOME>&apos;\&apos;(0.971078-inf)\&apos;&apos;</OUTCOME>
</VARIABLE>
<VARIABLE TYPE="nature">
<NAME>pixel42</NAME>
<OUTCOME>&apos;\&apos;(-inf-0.434314]\&apos;&apos;</OUTCOME>
<OUTCOME>&apos;\&apos;(0.434314-0.981373]\&apos;&apos;</OUTCOME>
<OUTCOME>&apos;\&apos;(0.981373-inf)\&apos;&apos;</OUTCOME>
</VARIABLE>
<VARIABLE TYPE="nature">
<NAME>pixel43</NAME>
<OUTCOME>&apos;\&apos;(-inf-0.00049]\&apos;&apos;</OUTCOME>
<OUTCOME>&apos;\&apos;(0.00049-0.187255]\&apos;&apos;</OUTCOME>
<OUTCOME>&apos;\&apos;(0.187255-0.604902]\&apos;&apos;</OUTCOME>
<OUTCOME>&apos;\&apos;(0.604902-0.971569]\&apos;&apos;</OUTCOME>
<OUTCOME>&apos;\&apos;(0.971569-inf)\&apos;&apos;</OUTCOME>
</VARIABLE>
<VARIABLE TYPE="nature">
<NAME>pixel44</NAME>
<OUTCOME>&apos;\&apos;(-inf-0.155882]\&apos;&apos;</OUTCOME>
<OUTCOME>&apos;\&apos;(0.155882-0.512255]\&apos;&apos;</OUTCOME>
<OUTCOME>&apos;\&apos;(0.512255-0.962255]\&apos;&apos;</OUTCOME>
<OUTCOME>&apos;\&apos;(0.962255-inf)\&apos;&apos;</OUTCOME>
</VARIABLE>
<VARIABLE TYPE="nature">
<NAME>pixel45</NAME>
<OUTCOME>&apos;\&apos;(-inf-0.122059]\&apos;&apos;</OUTCOME>
<OUTCOME>&apos;\&apos;(0.122059-0.523529]\&apos;&apos;</OUTCOME>
<OUTCOME>&apos;\&apos;(0.523529-0.978922]\&apos;&apos;</OUTCOME>
<OUTCOME>&apos;\&apos;(0.978922-inf)\&apos;&apos;</OUTCOME>
</VARIABLE>
<VARIABLE TYPE="nature">
<NAME>pixel46</NAME>
<OUTCOME>&apos;\&apos;(-inf-0.093137]\&apos;&apos;</OUTCOME>
<OUTCOME>&apos;\&apos;(0.093137-0.542157]\&apos;&apos;</OUTCOME>
<OUTCOME>&apos;\&apos;(0.542157-inf)\&apos;&apos;</OUTCOME>
</VARIABLE>
<VARIABLE TYPE="nature">
<NAME>pixel47</NAME>
<OUTCOME>&apos;\&apos;(-inf-0.089216]\&apos;&apos;</OUTCOME>
<OUTCOME>&apos;\&apos;(0.089216-0.429412]\&apos;&apos;</OUTCOME>
<OUTCOME>&apos;\&apos;(0.429412-inf)\&apos;&apos;</OUTCOME>
</VARIABLE>
<VARIABLE TYPE="nature">
<NAME>pixel48</NAME>
<OUTCOME>&apos;\&apos;(-inf-0.10098]\&apos;&apos;</OUTCOME>
<OUTCOME>&apos;\&apos;(0.10098-0.535784]\&apos;&apos;</OUTCOME>
<OUTCOME>&apos;\&apos;(0.535784-inf)\&apos;&apos;</OUTCOME>
</VARIABLE>
<VARIABLE TYPE="nature">
<NAME>pixel49</NAME>
<OUTCOME>&apos;\&apos;(-inf-0.103431]\&apos;&apos;</OUTCOME>
<OUTCOME>&apos;\&apos;(0.103431-0.461765]\&apos;&apos;</OUTCOME>
<OUTCOME>&apos;\&apos;(0.461765-0.775]\&apos;&apos;</OUTCOME>
<OUTCOME>&apos;\&apos;(0.775-inf)\&apos;&apos;</OUTCOME>
</VARIABLE>
<VARIABLE TYPE="nature">
<NAME>pixel50</NAME>
<OUTCOME>&apos;\&apos;(-inf-0.326471]\&apos;&apos;</OUTCOME>
<OUTCOME>&apos;\&apos;(0.326471-0.578922]\&apos;&apos;</OUTCOME>
<OUTCOME>&apos;\&apos;(0.578922-0.631863]\&apos;&apos;</OUTCOME>
<OUTCOME>&apos;\&apos;(0.631863-0.77549]\&apos;&apos;</OUTCOME>
<OUTCOME>&apos;\&apos;(0.77549-inf)\&apos;&apos;</OUTCOME>
</VARIABLE>
<VARIABLE TYPE="nature">
<NAME>pixel51</NAME>
<OUTCOME>&apos;\&apos;(-inf-0.430882]\&apos;&apos;</OUTCOME>
<OUTCOME>&apos;\&apos;(0.430882-0.614706]\&apos;&apos;</OUTCOME>
<OUTCOME>&apos;\&apos;(0.614706-0.745098]\&apos;&apos;</OUTCOME>
<OUTCOME>&apos;\&apos;(0.745098-inf)\&apos;&apos;</OUTCOME>
</VARIABLE>
<VARIABLE TYPE="nature">
<NAME>pixel52</NAME>
<OUTCOME>&apos;\&apos;(-inf-0.465686]\&apos;&apos;</OUTCOME>
<OUTCOME>&apos;\&apos;(0.465686-0.638725]\&apos;&apos;</OUTCOME>
<OUTCOME>&apos;\&apos;(0.638725-0.772059]\&apos;&apos;</OUTCOME>
<OUTCOME>&apos;\&apos;(0.772059-inf)\&apos;&apos;</OUTCOME>
</VARIABLE>
<VARIABLE TYPE="nature">
<NAME>pixel53</NAME>
<OUTCOME>&apos;\&apos;(-inf-0.459804]\&apos;&apos;</OUTCOME>
<OUTCOME>&apos;\&apos;(0.459804-0.684804]\&apos;&apos;</OUTCOME>
<OUTCOME>&apos;\&apos;(0.684804-0.79902]\&apos;&apos;</OUTCOME>
<OUTCOME>&apos;\&apos;(0.79902-inf)\&apos;&apos;</OUTCOME>
</VARIABLE>
<VARIABLE TYPE="nature">
<NAME>pixel54</NAME>
<OUTCOME>&apos;\&apos;(-inf-0.385294]\&apos;&apos;</OUTCOME>
<OUTCOME>&apos;\&apos;(0.385294-0.57598]\&apos;&apos;</OUTCOME>
<OUTCOME>&apos;\&apos;(0.57598-0.768137]\&apos;&apos;</OUTCOME>
<OUTCOME>&apos;\&apos;(0.768137-inf)\&apos;&apos;</OUTCOME>
</VARIABLE>
<VARIABLE TYPE="nature">
<NAME>pixel55</NAME>
<OUTCOME>&apos;\&apos;(-inf-0.34951]\&apos;&apos;</OUTCOME>
<OUTCOME>&apos;\&apos;(0.34951-0.573529]\&apos;&apos;</OUTCOME>
<OUTCOME>&apos;\&apos;(0.573529-0.763235]\&apos;&apos;</OUTCOME>
<OUTCOME>&apos;\&apos;(0.763235-inf)\&apos;&apos;</OUTCOME>
</VARIABLE>
<VARIABLE TYPE="nature">
<NAME>pixel56</NAME>
<OUTCOME>&apos;\&apos;(-inf-0.427451]\&apos;&apos;</OUTCOME>
<OUTCOME>&apos;\&apos;(0.427451-0.610784]\&apos;&apos;</OUTCOME>
<OUTCOME>&apos;\&apos;(0.610784-0.780392]\&apos;&apos;</OUTCOME>
<OUTCOME>&apos;\&apos;(0.780392-inf)\&apos;&apos;</OUTCOME>
</VARIABLE>
<VARIABLE TYPE="nature">
<NAME>pixel57</NAME>
<OUTCOME>&apos;\&apos;(-inf-0.455882]\&apos;&apos;</OUTCOME>
<OUTCOME>&apos;\&apos;(0.455882-0.577941]\&apos;&apos;</OUTCOME>
<OUTCOME>&apos;\&apos;(0.577941-0.741667]\&apos;&apos;</OUTCOME>
<OUTCOME>&apos;\&apos;(0.741667-inf)\&apos;&apos;</OUTCOME>
</VARIABLE>
<VARIABLE TYPE="nature">
<NAME>pixel58</NAME>
<OUTCOME>&apos;\&apos;(-inf-0.414706]\&apos;&apos;</OUTCOME>
<OUTCOME>&apos;\&apos;(0.414706-0.620098]\&apos;&apos;</OUTCOME>
<OUTCOME>&apos;\&apos;(0.620098-0.767157]\&apos;&apos;</OUTCOME>
<OUTCOME>&apos;\&apos;(0.767157-inf)\&apos;&apos;</OUTCOME>
</VARIABLE>
<VARIABLE TYPE="nature">
<NAME>pixel59</NAME>
<OUTCOME>&apos;\&apos;(-inf-0.45]\&apos;&apos;</OUTCOME>
<OUTCOME>&apos;\&apos;(0.45-0.614216]\&apos;&apos;</OUTCOME>
<OUTCOME>&apos;\&apos;(0.614216-0.765686]\&apos;&apos;</OUTCOME>
<OUTCOME>&apos;\&apos;(0.765686-inf)\&apos;&apos;</OUTCOME>
</VARIABLE>
<VARIABLE TYPE="nature">
<NAME>pixel60</NAME>
<OUTCOME>&apos;\&apos;(-inf-0.242157]\&apos;&apos;</OUTCOME>
<OUTCOME>&apos;\&apos;(0.242157-0.481863]\&apos;&apos;</OUTCOME>
<OUTCOME>&apos;\&apos;(0.481863-0.67549]\&apos;&apos;</OUTCOME>
<OUTCOME>&apos;\&apos;(0.67549-0.822059]\&apos;&apos;</OUTCOME>
<OUTCOME>&apos;\&apos;(0.822059-inf)\&apos;&apos;</OUTCOME>
</VARIABLE>
<VARIABLE TYPE="nature">
<NAME>pixel61</NAME>
<OUTCOME>&apos;\&apos;(-inf-0.24951]\&apos;&apos;</OUTCOME>
<OUTCOME>&apos;\&apos;(0.24951-0.485294]\&apos;&apos;</OUTCOME>
<OUTCOME>&apos;\&apos;(0.485294-0.652941]\&apos;&apos;</OUTCOME>
<OUTCOME>&apos;\&apos;(0.652941-0.775]\&apos;&apos;</OUTCOME>
<OUTCOME>&apos;\&apos;(0.775-inf)\&apos;&apos;</OUTCOME>
</VARIABLE>
<VARIABLE TYPE="nature">
<NAME>pixel62</NAME>
<OUTCOME>&apos;\&apos;(-inf-0.448039]\&apos;&apos;</OUTCOME>
<OUTCOME>&apos;\&apos;(0.448039-0.685294]\&apos;&apos;</OUTCOME>
<OUTCOME>&apos;\&apos;(0.685294-0.789216]\&apos;&apos;</OUTCOME>
<OUTCOME>&apos;\&apos;(0.789216-inf)\&apos;&apos;</OUTCOME>
</VARIABLE>
<VARIABLE TYPE="nature">
<NAME>pixel63</NAME>
<OUTCOME>&apos;\&apos;(-inf-0.428922]\&apos;&apos;</OUTCOME>
<OUTCOME>&apos;\&apos;(0.428922-0.598039]\&apos;&apos;</OUTCOME>
<OUTCOME>&apos;\&apos;(0.598039-0.75]\&apos;&apos;</OUTCOME>
<OUTCOME>&apos;\&apos;(0.75-inf)\&apos;&apos;</OUTCOME>
</VARIABLE>
<VARIABLE TYPE="nature">
<NAME>pixel64</NAME>
<OUTCOME>&apos;\&apos;(-inf-0.385294]\&apos;&apos;</OUTCOME>
<OUTCOME>&apos;\&apos;(0.385294-0.57598]\&apos;&apos;</OUTCOME>
<OUTCOME>&apos;\&apos;(0.57598-0.768137]\&apos;&apos;</OUTCOME>
<OUTCOME>&apos;\&apos;(0.768137-inf)\&apos;&apos;</OUTCOME>
</VARIABLE>
<VARIABLE TYPE="nature">
<NAME>pixel65</NAME>
<OUTCOME>&apos;\&apos;(-inf-0.347059]\&apos;&apos;</OUTCOME>
<OUTCOME>&apos;\&apos;(0.347059-0.642157]\&apos;&apos;</OUTCOME>
<OUTCOME>&apos;\&apos;(0.642157-0.79902]\&apos;&apos;</OUTCOME>
<OUTCOME>&apos;\&apos;(0.79902-inf)\&apos;&apos;</OUTCOME>
</VARIABLE>
<VARIABLE TYPE="nature">
<NAME>pixel66</NAME>
<OUTCOME>&apos;\&apos;(-inf-0.455882]\&apos;&apos;</OUTCOME>
<OUTCOME>&apos;\&apos;(0.455882-0.577941]\&apos;&apos;</OUTCOME>
<OUTCOME>&apos;\&apos;(0.577941-0.741667]\&apos;&apos;</OUTCOME>
<OUTCOME>&apos;\&apos;(0.741667-inf)\&apos;&apos;</OUTCOME>
</VARIABLE>
<VARIABLE TYPE="nature">
<NAME>pixel67</NAME>
<OUTCOME>&apos;\&apos;(-inf-0.358824]\&apos;&apos;</OUTCOME>
<OUTCOME>&apos;\&apos;(0.358824-0.635294]\&apos;&apos;</OUTCOME>
<OUTCOME>&apos;\&apos;(0.635294-0.725]\&apos;&apos;</OUTCOME>
<OUTCOME>&apos;\&apos;(0.725-inf)\&apos;&apos;</OUTCOME>
</VARIABLE>
<VARIABLE TYPE="nature">
<NAME>pixel68</NAME>
<OUTCOME>&apos;\&apos;(-inf-0.42598]\&apos;&apos;</OUTCOME>
<OUTCOME>&apos;\&apos;(0.42598-0.648039]\&apos;&apos;</OUTCOME>
<OUTCOME>&apos;\&apos;(0.648039-0.786275]\&apos;&apos;</OUTCOME>
<OUTCOME>&apos;\&apos;(0.786275-inf)\&apos;&apos;</OUTCOME>
</VARIABLE>
<VARIABLE TYPE="nature">
<NAME>pixel69</NAME>
<OUTCOME>&apos;\&apos;(-inf-0.188235]\&apos;&apos;</OUTCOME>
<OUTCOME>&apos;\&apos;(0.188235-0.429412]\&apos;&apos;</OUTCOME>
<OUTCOME>&apos;\&apos;(0.429412-0.602941]\&apos;&apos;</OUTCOME>
<OUTCOME>&apos;\&apos;(0.602941-0.716176]\&apos;&apos;</OUTCOME>
<OUTCOME>&apos;\&apos;(0.716176-0.793627]\&apos;&apos;</OUTCOME>
<OUTCOME>&apos;\&apos;(0.793627-inf)\&apos;&apos;</OUTCOME>
</VARIABLE>
<DEFINITION>
<FOR>emotion</FOR>
<TABLE>
0.13789680812161526 0.01495812074459749 0.14266808295749386 0.25080537029620215 0.17185296115067825 0.1699374858516029 0.11188117087781009 
</TABLE>
</DEFINITION>
<DEFINITION>
<FOR>pixel0</FOR>
<GIVEN>pixel62</GIVEN>
<TABLE>
0.9997697267424009 7.675775253300584E-5 7.675775253300584E-5 7.675775253300584E-5 
4.2951636457349025E-5 0.9998711450906279 4.2951636457349025E-5 4.2951636457349025E-5 
8.813678829543451E-5 8.813678829543451E-5 0.9997355896351137 8.813678829543451E-5 
1.0224948875255624E-4 1.0224948875255624E-4 1.0224948875255624E-4 0.9996932515337423 
</TABLE>
</DEFINITION>
<DEFINITION>
<FOR>pixel1</FOR>
<GIVEN>pixel6</GIVEN>
<GIVEN>pixel65</GIVEN>
<TABLE>
0.6376676021203617 0.343311506080449 0.01153726223885251 0.004677268475210477 0.002806361085126286 
0.4175506268081003 0.5435551269688204 0.02925104468016715 0.008678881388621022 9.643201542912247E-4 
0.42124542124542125 0.4652014652014652 0.057387057387057384 0.052503052503052504 0.003663003663003663 
0.44272445820433437 0.3993808049535604 0.04643962848297214 0.07120743034055728 0.04024767801857585 
0.06500445235975066 0.651528643514396 0.20273078064707628 0.07272187592757495 0.008014247551202136 
0.02874820795291632 0.5074322794838905 0.3267939334490304 0.12970648155134687 0.007319097562815966 
0.02435223066432885 0.3212546269238262 0.35047730372102087 0.28112215078901226 0.022793687901811806 
0.028522039757994815 0.3777009507346586 0.24632670700086431 0.2601555747623163 0.08729472774416594 
0.0035842293906810036 0.12066905615292713 0.1875746714456392 0.5770609318996416 0.1111111111111111 
0.0036757593344940993 0.0632617527568195 0.195976010833817 0.661443219191333 0.07564325788353647 
0.0031134173461823574 0.03869532987398073 0.1229058561897702 0.6865826538176427 0.148702742772424 
0.004646360351058337 0.03975219411461022 0.09447599380485286 0.6045431078988126 0.25658234383066597 
0.006036217303822937 0.026156941649899398 0.05432595573440644 0.2515090543259557 0.6619718309859155 
0.001347103726986978 0.018410417602155366 0.04714863044454423 0.27705433318365513 0.6560395150426583 
0.001144950767117014 0.008014655369819098 0.022670025188916875 0.2777650561025876 0.6904053125715595 
9.347541596560105E-4 0.007664984109179286 0.011030099083940923 0.13479154982239672 0.845578612824827 
</TABLE>
</DEFINITION>
<DEFINITION>
<FOR>pixel2</FOR>
<GIVEN>pixel7</GIVEN>
<GIVEN>pixel3</GIVEN>
<TABLE>
0.7713707637835103 0.20485584218512898 0.019726858877086494 0.0035407182599898838 5.058168942842691E-4 
0.34439834024896265 0.36929460580912865 0.26141078838174275 0.012448132780082987 0.012448132780082987 
0.373134328358209 0.22388059701492538 0.34328358208955223 0.014925373134328358 0.04477611940298507 
0.2 0.36 0.28 0.12 0.04 
0.1287641368033792 0.6176590816187492 0.24894399781986648 0.0031339419539446792 0.0014988418040604986 
0.03977406448576135 0.2981878088962109 0.6483878559661097 0.010590727229936456 0.003059543421981643 
0.0189328743545611 0.23580034423407917 0.5628227194492255 0.12908777969018934 0.05335628227194492 
0.03910614525139665 0.25139664804469275 0.329608938547486 0.19553072625698323 0.18435754189944134 
0.0404138376980278 0.2033624312964759 0.6986744261235047 0.046880051729712255 0.01066925315227934 
0.00509502628386575 0.05216336433481601 0.8461787302871007 0.08807116862110796 0.008491710473109584 
0.003153247845280639 0.024595333193188986 0.6245532898885853 0.3104898044986336 0.037208324574311544 
0.003821656050955414 0.0267515923566879 0.3452229299363057 0.3375796178343949 0.28662420382165604 
0.0297339593114241 0.11424100156494522 0.5367762128325508 0.23943661971830985 0.07981220657276995 
0.0033567287152883735 0.018004272200183094 0.4403417760146475 0.42142203234665854 0.11687519072322246 
0.0010908524232507402 0.007947639083683964 0.1750038959015116 0.599501324606514 0.21645628798503974 
0.0014584346135148275 0.0014584346135148275 0.11618862421001458 0.3787068546426835 0.5021876519202723 
0.02422145328719723 0.058823529411764705 0.34256055363321797 0.15570934256055363 0.4186851211072664 
0.00776914539400666 0.01220865704772475 0.18312985571587126 0.29411764705882354 0.5027746947835738 
3.495281370150297E-4 0.002446696959105208 0.06885704299196085 0.2093673540720028 0.7189793778399162 
1.8446781036709093E-4 0.002398081534772182 0.018262313226342003 0.058107360265633644 0.9210477771628851 
</TABLE>
</DEFINITION>
<DEFINITION>
<FOR>pixel3</FOR>
<GIVEN>pixel68</GIVEN>
<TABLE>
0.999774707119255 7.509762691498949E-5 7.509762691498949E-5 7.509762691498949E-5 
4.759185227489054E-5 0.9998572244431754 4.759185227489054E-5 4.759185227489054E-5 
6.820351930159596E-5 6.820351930159596E-5 0.9997953894420952 6.820351930159596E-5 
1.1839924224484963E-4 1.1839924224484963E-4 1.1839924224484963E-4 0.9996448022732655 
</TABLE>
</DEFINITION>
<DEFINITION>
<FOR>pixel4</FOR>
<GIVEN>pixel61</GIVEN>
<GIVEN>pixel56</GIVEN>
<TABLE>
0.9209944751381215 0.06795580110497237 0.0060773480662983425 0.004972375690607734 
0.7507552870090635 0.22507552870090636 0.004531722054380665 0.019637462235649546 
0.6405405405405405 0.3162162162162162 0.024324324324324326 0.01891891891891892 
0.5648148148148148 0.26851851851851855 0.1388888888888889 0.027777777777777776 
0.606612685560054 0.3785425101214575 0.010121457489878543 0.004723346828609987 
0.41098209966134497 0.5614417029511369 0.01717464925012095 0.010401548137397194 
0.2908496732026144 0.6493930905695612 0.04341736694677871 0.016339869281045753 
0.26785714285714285 0.5376984126984127 0.09325396825396826 0.10119047619047619 
0.0857250755287009 0.8266616314199395 0.05929003021148036 0.028323262839879154 
0.04486445208094693 0.8974799541809851 0.04677357770141275 0.010882016036655211 
0.03576864535768645 0.8540334855403349 0.09178082191780822 0.018417047184170473 
0.0467877094972067 0.6277932960893855 0.22835195530726257 0.09706703910614525 
0.046296296296296294 0.4081196581196581 0.41381766381766383 0.13176638176638178 
0.02132288946910357 0.4773716275021758 0.39730200174064406 0.10400348128807659 
0.005870561282932417 0.4222508591065292 0.47723367697594504 0.09464490263459335 
0.011823436678928009 0.24093536521282186 0.4753021544929059 0.2719390436153442 
0.025059665871121718 0.12529832935560858 0.21837708830548927 0.6312649164677804 
0.008637236084452975 0.09692898272552783 0.2715930902111324 0.6228406909788867 
0.005501618122977346 0.07216828478964402 0.23333333333333334 0.6889967637540453 
0.004138449962377728 0.035490343616754454 0.12327564584900928 0.8370955605718585 
</TABLE>
</DEFINITION>
<DEFINITION>
<FOR>pixel5</FOR>
<GIVEN>pixel1</GIVEN>
<GIVEN>pixel69</GIVEN>
<TABLE>
0.4583333333333333 0.46085858585858586 0.06186868686868687 0.01893939393939394 
0.2296573875802998 0.6536402569593148 0.09582441113490364 0.0208779443254818 
0.12993762993762994 0.5145530145530145 0.30665280665280664 0.04885654885654886 
0.10076045627376426 0.5114068441064639 0.32129277566539927 0.06653992395437262 
0.09854014598540146 0.3686131386861314 0.3467153284671533 0.18613138686131386 
0.10245901639344263 0.36475409836065575 0.3155737704918033 0.21721311475409835 
0.22134831460674156 0.553932584269663 0.1853932584269663 0.03932584269662921 
0.06638777737359039 0.6978901418697708 0.2158966897053474 0.01982539105129138 
0.037250996015936254 0.5296812749003984 0.4037848605577689 0.029282868525896413 
0.03737864077669903 0.34805825242718447 0.49466019417475726 0.11990291262135923 
0.02854122621564482 0.29704016913319237 0.459830866807611 0.21458773784355178 
0.02631578947368421 0.2819548872180451 0.31203007518796994 0.37969924812030076 
0.1443661971830986 0.41901408450704225 0.3626760563380282 0.07394366197183098 
0.06004036326942482 0.44954591321897075 0.4162462159434914 0.07416750756811302 
0.025379382522239664 0.3424908424908425 0.5711669283097854 0.06096284667713239 
0.01744186046511628 0.2571556350626118 0.5943649373881932 0.1310375670840787 
0.012585812356979404 0.16819221967963388 0.49084668192219677 0.32837528604118993 
0.02280701754385965 0.156140350877193 0.4368421052631579 0.38421052631578945 
0.08793969849246232 0.3793969849246231 0.3492462311557789 0.18341708542713567 
0.036463536463536464 0.3031968031968032 0.48301698301698304 0.1773226773226773 
0.020603228547153782 0.21346644010195412 0.5949447748513169 0.1709855564995752 
0.0156567710451403 0.15758438389589263 0.5719804798698658 0.25477836518910124 
0.011934156378600824 0.12139917695473251 0.4777777777777778 0.3888888888888889 
0.012013729977116704 0.12528604118993136 0.34839816933638446 0.5143020594965675 
0.10775862068965517 0.21120689655172414 0.3922413793103448 0.28879310344827586 
0.03714859437751004 0.22791164658634538 0.33433734939759036 0.4006024096385542 
0.01670258620689655 0.1320043103448276 0.3776939655172414 0.4735991379310345 
0.012601626016260163 0.11829268292682926 0.3548780487804878 0.5142276422764228 
0.007630522088353414 0.08313253012048193 0.3281124497991968 0.5811244979919679 
0.007932166301969365 0.06920131291028446 0.22948577680525165 0.6933807439824945 
</TABLE>
</DEFINITION>
<DEFINITION>
<FOR>pixel6</FOR>
<GIVEN>emotion</GIVEN>
<GIVEN>pixel58</GIVEN>
<TABLE>
0.43505747126436783 0.4304597701149425 0.0925287356321839 0.04195402298850575 
0.1761182108626198 0.5850638977635783 0.19129392971246006 0.04752396166134185 
0.04976744186046512 0.42930232558139536 0.3893023255813953 0.13162790697674417 
0.03961038961038961 0.19805194805194806 0.2681818181818182 0.4941558441558442 
0.33098591549295775 0.528169014084507 0.04929577464788732 0.09154929577464789 
0.07251908396946564 0.583969465648855 0.2633587786259542 0.08015267175572519 
0.05701754385964912 0.4868421052631579 0.3026315789473684 0.15350877192982457 
0.0371900826446281 0.1115702479338843 0.3925619834710744 0.45867768595041325 
0.3217005076142132 0.4612944162436548 0.1516497461928934 0.06535532994923858 
0.11787564766839378 0.5427461139896373 0.23359240069084627 0.10578583765112262 
0.047868061142397424 0.3399034593724859 0.38736926790024134 0.2248592115848753 
0.027868852459016394 0.1371584699453552 0.27377049180327867 0.5612021857923497 
0.35858585858585856 0.4696969696969697 0.1114996114996115 0.060217560217560216 
0.11180846118084611 0.6506276150627615 0.16666666666666666 0.0708972570897257 
0.03348519362186788 0.42255125284738043 0.3938496583143508 0.15011389521640092 
0.0225253807106599 0.13039340101522842 0.3131345177664975 0.5339467005076142 
0.3737864077669903 0.411738746690203 0.12842012356575463 0.08605472197705208 
0.10562913907284768 0.5910596026490066 0.20364238410596028 0.09966887417218544 
0.0312960235640648 0.3383652430044183 0.39727540500736375 0.23306332842415317 
0.022848034006376194 0.10786397449521785 0.26726886291179597 0.60201912858661 
0.35881174899866486 0.44559412550066757 0.12583444592790388 0.06975967957276369 
0.14680989583333334 0.5621744791666666 0.20540364583333334 0.08561197916666667 
0.06367521367521367 0.391025641025641 0.35341880341880344 0.1918803418803419 
0.046120058565153735 0.1705710102489019 0.2657393850658858 0.5175695461200586 
0.33699059561128525 0.4059561128526646 0.15830721003134796 0.0987460815047022 
0.06754874651810584 0.49651810584958217 0.30571030640668523 0.13022284122562675 
0.039831302717900655 0.2563261480787254 0.4053420805998126 0.2985004686035614 
0.005824372759856631 0.0846774193548387 0.2289426523297491 0.6805555555555556 
</TABLE>
</DEFINITION>
<DEFINITION>
<FOR>pixel7</FOR>
<GIVEN>pixel4</GIVEN>
<GIVEN>pixel0</GIVEN>
<TABLE>
0.25692727982307795 0.6370495641992975 0.09587615454663719 0.0071549369064654615 0.0029920645245219203 
0.10569105691056911 0.5307781649245064 0.31010452961672474 0.03832752613240418 0.015098722415795587 
0.07042253521126761 0.5774647887323944 0.15492957746478872 0.1267605633802817 0.07042253521126761 
0.07317073170731707 0.4634146341463415 0.3170731707317073 0.12195121951219512 0.024390243902439025 
0.021988713757540378 0.568398521113057 0.34890056431212296 0.043782837127845885 0.016929363689433742 
0.004136561689923336 0.19210192488003972 0.6792234294854117 0.10892945783464784 0.015608626109977387 
0.007852193995381063 0.08083140877598152 0.5113163972286374 0.33672055427251735 0.06327944572748267 
0.02356902356902357 0.09764309764309764 0.4006734006734007 0.265993265993266 0.21212121212121213 
0.006622516556291391 0.08609271523178808 0.4304635761589404 0.39072847682119205 0.08609271523178808 
8.653014133256418E-4 0.03374675511970003 0.521776752235362 0.37986732044995675 0.06374387078165561 
1.7155601303825698E-4 0.014925373134328358 0.275690512952479 0.6126265225596157 0.09658603534053868 
0.003045685279187817 0.019289340101522844 0.18375634517766498 0.4639593908629442 0.3299492385786802 
0.014925373134328358 0.04477611940298507 0.2537313432835821 0.2537313432835821 0.43283582089552236 
0.0059594755661501785 0.025029797377830752 0.25387365911799764 0.4064362336114422 0.30870083432657924 
9.099181073703367E-4 0.006369426751592357 0.10221413406126782 0.5304822565969063 0.36002426448286323 
3.540658562492624E-4 0.004838900035406586 0.04779889059365042 0.20830874542664934 0.7386993980880444 
</TABLE>
</DEFINITION>
<DEFINITION>
<FOR>pixel8</FOR>
<GIVEN>pixel7</GIVEN>
<GIVEN>pixel56</GIVEN>
<TABLE>
0.822237017310253 0.13648468708388814 0.02596537949400799 0.015312916111850865 
0.45353982300884954 0.3827433628318584 0.06415929203539823 0.09955752212389381 
0.3588709677419355 0.40725806451612906 0.14112903225806453 0.09274193548387097 
0.25961538461538464 0.20192307692307693 0.14423076923076922 0.3942307692307692 
0.6413139329805997 0.28681657848324515 0.04343033509700176 0.028439153439153438 
0.41928864569083446 0.4831281349749202 0.06817145462836298 0.029411764705882353 
0.22266473569876902 0.5340333091962346 0.16980448950036206 0.07349746560463433 
0.15 0.30454545454545456 0.24696969696969698 0.29848484848484846 
0.24051026757934038 0.5553827006845052 0.1434349719975109 0.06067205973864343 
0.17626262626262626 0.6166666666666667 0.15404040404040403 0.05303030303030303 
0.09001802613789996 0.5568949977467328 0.2610410094637224 0.09204596665164488 
0.04484153742414026 0.31726230613621037 0.3246797033041133 0.3132164531355361 
0.109375 0.35444078947368424 0.29523026315789475 0.24095394736842105 
0.0952109464082098 0.35860889395667045 0.34720638540478904 0.19897377423033066 
0.04615689381933439 0.35479397781299526 0.3698494453248811 0.22919968304278923 
0.02403846153846154 0.18017399267399267 0.34455128205128205 0.45123626373626374 
0.09587020648967552 0.1902654867256637 0.16666666666666666 0.5471976401179941 
0.08194774346793349 0.19121140142517815 0.17458432304038005 0.5522565320665083 
0.04275427542754275 0.18316831683168316 0.23627362736273627 0.5378037803780378 
0.026720223541739436 0.09657701711491443 0.17237163814180928 0.7043311212015368 
</TABLE>
</DEFINITION>
<DEFINITION>
<FOR>pixel9</FOR>
<GIVEN>pixel1</GIVEN>
<GIVEN>pixel34</GIVEN>
<TABLE>
0.7834960070984915 0.20496894409937888 0.011535048802129548 
0.6902469652574299 0.30096274591879446 0.008790288823775638 
0.5672676837725381 0.39528432732316227 0.03744798890429958 
0.5155875299760192 0.3908872901678657 0.09352517985611511 
0.1980115990057995 0.7348798674399337 0.06710853355426678 
0.15855292541313087 0.8019949382164657 0.03945213637040346 
0.07094663667961562 0.8671028419546105 0.06195052136577387 
0.061635220125786164 0.7635220125786164 0.17484276729559747 
0.06728538283062645 0.6705336426914154 0.26218097447795824 
0.02054538662682107 0.7788569293985805 0.20059768397459843 
0.011108240764660295 0.785585120123999 0.20330663911134073 
0.012603528988116673 0.6658264314007922 0.3215700396110911 
0.017214397496087636 0.433489827856025 0.5492957746478874 
0.009237085186452275 0.477933629832364 0.5128292849811837 
0.0029131870266071083 0.4173625946785784 0.5797242182948146 
0.0017377355968453416 0.2722898008287662 0.7259724635743885 
0.010351966873706004 0.17598343685300208 0.8136645962732919 
0.003599712023038157 0.12742980561555076 0.8689704823614111 
4.192872117400419E-4 0.08679245283018867 0.9127882599580712 
0.0012127745586848133 0.04352513138391052 0.9552620940574047 
</TABLE>
</DEFINITION>
<DEFINITION>
<FOR>pixel10</FOR>
<GIVEN>pixel14</GIVEN>
<GIVEN>pixel15</GIVEN>
<TABLE>
0.9603577471597776 0.03940053178631859 2.4172105390379503E-4 
0.6630824372759857 0.33640552995391704 5.120327700972862E-4 
0.39622641509433965 0.5849056603773585 0.018867924528301886 
0.3577981651376147 0.5963302752293578 0.045871559633027525 
0.42919153553988065 0.5670103092783505 0.0037981551817688553 
0.03340583347275668 0.9529306787128436 0.013663487814399643 
0.005400734499891985 0.7800820911643983 0.21451717433570966 
0.0023485204321277596 0.5584781587599812 0.439173320807891 
0.09565217391304348 0.5826086956521739 0.3217391304347826 
0.004893964110929853 0.46166394779771613 0.533442088091354 
1.6911889058007779E-4 0.12159648232707593 0.878234398782344 
1.7965147613629558E-4 0.015629678423857717 0.9841906701000059 
</TABLE>
</DEFINITION>
<DEFINITION>
<FOR>pixel11</FOR>
<GIVEN>pixel13</GIVEN>
<GIVEN>pixel15</GIVEN>
<TABLE>
0.8873407643312102 0.11186305732484077 3.980891719745223E-4 3.980891719745223E-4 
0.6300813008130082 0.36720867208672087 0.0013550135501355014 0.0013550135501355014 
0.5340909090909091 0.4431818181818182 0.011363636363636364 0.011363636363636364 
0.546875 0.359375 0.046875 0.046875 
0.11055718475073313 0.8765395894428153 0.012023460410557185 8.797653958944282E-4 
0.009574338333943163 0.823088181485547 0.16447127698499817 0.0028662031955116476 
0.004908376963350785 0.4839659685863874 0.4964005235602094 0.014725130890052356 
0.0025201612903225806 0.4309475806451613 0.4430443548387097 0.12348790322580645 
0.005681818181818182 0.3352272727272727 0.3693181818181818 0.2897727272727273 
6.5359477124183E-4 0.07864923747276688 0.6677559912854031 0.2529411764705882 
1.3227513227513228E-4 0.01044973544973545 0.4630952380952381 0.5263227513227513 
5.9199621122424815E-5 0.0033743784039782145 0.06482358512905517 0.9317428368458441 
</TABLE>
</DEFINITION>
<DEFINITION>
<FOR>pixel12</FOR>
<GIVEN>pixel11</GIVEN>
<GIVEN>pixel10</GIVEN>
<TABLE>
0.9996600951733514 3.399048266485384E-4 
0.9973544973544973 0.0026455026455026454 
0.5 0.5 
0.9981182795698925 0.001881720430107527 
0.9557871569135163 0.04421284308648369 
0.3321078431372549 0.6678921568627451 
0.9017857142857143 0.09821428571428571 
0.28373405299313054 0.7162659470068695 
0.00805047867711053 0.9919495213228895 
0.5833333333333334 0.4166666666666667 
0.0762061403508772 0.9237938596491229 
0.0011849562081401338 0.9988150437918598 
</TABLE>
</DEFINITION>
<DEFINITION>
<FOR>pixel13</FOR>
<GIVEN>pixel10</GIVEN>
<GIVEN>pixel15</GIVEN>
<TABLE>
0.4919371727748691 0.49109947643979057 0.016963350785340316 
0.20861797162375198 0.7393589069889648 0.05202312138728324 
0.3707865168539326 0.5280898876404494 0.10112359550561797 
0.14893617021276595 0.7872340425531915 0.06382978723404255 
0.12470588235294118 0.8164705882352942 0.058823529411764705 
0.01790996611628032 0.7857258107890066 0.19636422309471308 
0.010174089984173637 0.4799909563644585 0.5098349536513679 
0.0297029702970297 0.4759075907590759 0.49438943894389437 
0.06666666666666667 0.5111111111111111 0.4222222222222222 
0.0057049714751426246 0.3105134474327628 0.6837815810920945 
0.001454192922927775 0.14299563742123123 0.855550169655841 
6.330935251798561E-4 0.07050359712230216 0.928863309352518 
</TABLE>
</DEFINITION>
<DEFINITION>
<FOR>pixel14</FOR>
<GIVEN>pixel19</GIVEN>
<GIVEN>pixel15</GIVEN>
<TABLE>
0.8493785035339995 0.1479405313185474 0.002680965147453083 
0.6260697827518104 0.36537195523370636 0.008558262014483212 
0.44881889763779526 0.49606299212598426 0.05511811023622047 
0.4246575342465753 0.4794520547945205 0.0958904109589041 
0.3369041242635244 0.6411355115158007 0.02196036422067488 
0.056920100826543175 0.9080837094788674 0.03499618969458937 
0.026960024790827392 0.8109699411217849 0.16207003408738765 
0.03867403314917127 0.6511444356748224 0.31018153117600633 
0.184 0.312 0.504 
0.00985691573926868 0.5993640699523053 0.3907790143084261 
0.002041649652919559 0.2652783449026814 0.732680005444399 
0.0016480081832130477 0.0721145649826675 0.9262374268341195 
</TABLE>
</DEFINITION>
<DEFINITION>
<FOR>pixel15</FOR>
<GIVEN>pixel16</GIVEN>
<GIVEN>pixel18</GIVEN>
<TABLE>
0.5128520128520129 0.4686259686259686 0.01219051219051219 0.006331506331506332 
0.1893939393939394 0.5833333333333334 0.08333333333333333 0.14393939393939395 
0.075 0.675 0.075 0.175 
0.040210064273397086 0.88893243455087 0.054162094372158645 0.016695406803574227 
0.007906085289889795 0.5479156684235745 0.3787733588883565 0.0654048873981792 
0.00819672131147541 0.3469945355191257 0.28688524590163933 0.35792349726775957 
0.035108958837772396 0.6089588377723971 0.2627118644067797 0.09322033898305085 
0.003260869565217391 0.18562801932367148 0.6795893719806764 0.13152173913043477 
0.0015212981744421906 0.09685598377281947 0.31085192697768765 0.5907707910750507 
0.03723404255319149 0.4521276595744681 0.12234042553191489 0.3882978723404255 
0.009103641456582634 0.12955182072829133 0.39985994397759106 0.46148459383753504 
8.97021887334051E-4 0.024339193876330583 0.06775505322329865 0.9070087310130367 
</TABLE>
</DEFINITION>
<DEFINITION>
<FOR>pixel16</FOR>
<GIVEN>pixel18</GIVEN>
<GIVEN>pixel59</GIVEN>
<TABLE>
0.5802217036172695 0.38866199922209255 0.025962660443407233 0.0051536367172306495 
0.28085164090046105 0.677379983726607 0.03376729048006509 0.00800108489286683 
0.34788967822816547 0.597367321353949 0.04659423318010865 0.00814876723777685 
0.46020942408376964 0.474869109947644 0.04554973821989529 0.0193717277486911 
0.009499136442141624 0.2823834196891192 0.5328151986183074 0.17530224525043178 
0.006570713391739674 0.3113266583229036 0.5785356695869838 0.10356695869837297 
0.005110497237569061 0.28273480662983425 0.6197513812154696 0.09240331491712707 
0.02603305785123967 0.33264462809917356 0.5483471074380165 0.09297520661157024 
0.004807692307692308 0.03365384615384615 0.11057692307692307 0.8509615384615384 
0.004456327985739751 0.031194295900178252 0.11675579322638147 0.8475935828877005 
0.0013466717968449403 0.01596767987687572 0.13562908811081184 0.8470565602154675 
0.002056597564988483 0.018673905890095426 0.08777558407370846 0.8914939124712077 
</TABLE>
</DEFINITION>
<DEFINITION>
<FOR>pixel17</FOR>
<GIVEN>pixel15</GIVEN>
<GIVEN>pixel16</GIVEN>
<TABLE>
0.9978001833180569 0.0016498625114573786 5.499541704857929E-4 
0.9963570127504554 0.0018214936247723133 0.0018214936247723133 
0.9322033898305084 0.05084745762711865 0.01694915254237288 
0.8285714285714286 0.14285714285714285 0.02857142857142857 
0.9798538415958917 0.012838238198696426 0.0073079202054118116 
0.846601235914213 0.14198473282442747 0.011414031261359505 
0.5132227700582699 0.4235768713581354 0.0632003585835948 
0.5036927621861153 0.2673559822747415 0.22895125553914328 
0.45454545454545453 0.3986013986013986 0.14685314685314685 
0.23769457299116534 0.6289440471182163 0.13336137989061841 
0.060864178411026794 0.5713179495121573 0.3678178720768159 
0.09206716850028952 0.2472495657209033 0.6606832657788072 
0.22580645161290322 0.1827956989247312 0.5913978494623656 
0.14424635332252836 0.1507293354943274 0.7050243111831442 
0.022737022737022737 0.12140712140712141 0.8558558558558559 
0.004465689666016731 0.019435184602805206 0.9760991257311781 
</TABLE>
</DEFINITION>
<DEFINITION>
<FOR>pixel18</FOR>
<GIVEN>pixel59</GIVEN>
<GIVEN>pixel6</GIVEN>
<TABLE>
0.9273189326556543 0.04650571791613723 0.026175349428208386 
0.8523566155593413 0.1084611016467916 0.039182282793867124 
0.7662492546213476 0.13774597495527727 0.09600477042337507 
0.7233134073441503 0.14602903501280956 0.13065755764304013 
0.7950953678474114 0.14332425068119892 0.061580381471389646 
0.6551624548736462 0.28693140794223826 0.057906137184115525 
0.47257171615500754 0.3688978359335682 0.15853044791142426 
0.46455026455026455 0.2253968253968254 0.3100529100529101 
0.485972850678733 0.35203619909502265 0.16199095022624435 
0.3014848289218851 0.5008392511297611 0.1976759199483538 
0.22643736300792447 0.39538020569887034 0.37818243129320517 
0.23372902169463775 0.2566516577977896 0.5096193205075726 
0.28942807625649913 0.2651646447140381 0.44540727902946275 
0.15282954930532022 0.2727888851236869 0.5743815655709928 
0.10403146509341199 0.16027531956735497 0.735693215339233 
0.09691350184173758 0.08217960116855075 0.8209068969897116 
</TABLE>
</DEFINITION>
<DEFINITION>
<FOR>pixel19</FOR>
<GIVEN>pixel17</GIVEN>
<GIVEN>pixel15</GIVEN>
<TABLE>
0.6752840441297546 0.3064383336077721 0.01827762226247324 
0.08363274556409264 0.8686639765629318 0.047703277872975514 
0.09398814563928874 0.8357324301439458 0.07027942421676546 
0.18454935622317598 0.630901287553648 0.18454935622317598 
0.058823529411764705 0.29411764705882354 0.6470588235294118 
9.545020680878142E-4 0.41520839961819916 0.583837098313713 
0.0026469031233456856 0.3675666137286042 0.6297864831480501 
0.03281027104136947 0.6262482168330956 0.340941512125535 
0.2 0.2 0.6 
0.006134969325153374 0.07975460122699386 0.9141104294478528 
2.595380223202699E-4 0.040747469504282374 0.9589929924733973 
3.888240848747431E-4 0.03782702882852858 0.9617841470865967 
</TABLE>
</DEFINITION>
<DEFINITION>
<FOR>pixel20</FOR>
<GIVEN>pixel21</GIVEN>
<GIVEN>pixel29</GIVEN>
<TABLE>
0.8669421487603306 0.13140495867768595 8.264462809917355E-4 8.264462809917355E-4 
0.4249492900608519 0.5730223123732252 0.0010141987829614604 0.0010141987829614604 
0.16666666666666666 0.5 0.16666666666666666 0.16666666666666666 
0.25 0.25 0.25 0.25 
0.1125 0.8625 0.0125 0.0125 
0.0046784532671629445 0.982552729528536 0.012484491315136476 2.8432588916459887E-4 
0.0038109756097560975 0.9275914634146342 0.0663109756097561 0.0022865853658536584 
0.08333333333333333 0.75 0.08333333333333333 0.08333333333333333 
0.25 0.25 0.25 0.25 
6.289308176100629E-4 0.5452830188679245 0.4358490566037736 0.018238993710691823 
9.910802775024777E-5 0.24588701684836473 0.724777006937562 0.02923686818632309 
0.0011467889908256881 0.09288990825688073 0.46674311926605505 0.43922018348623854 
0.25 0.25 0.25 0.25 
0.1 0.1 0.1 0.7 
0.008333333333333333 0.008333333333333333 0.175 0.8083333333333333 
4.0064102564102563E-4 0.005208333333333333 0.03485576923076923 0.9595352564102564 
</TABLE>
</DEFINITION>
<DEFINITION>
<FOR>pixel21</FOR>
<GIVEN>pixel29</GIVEN>
<GIVEN>pixel25</GIVEN>
<TABLE>
0.9751184834123223 0.022511848341232227 0.001184834123222749 0.001184834123222749 
0.8924418604651163 0.10174418604651163 0.0029069767441860465 0.0029069767441860465 
0.8061224489795918 0.17346938775510204 0.01020408163265306 0.01020408163265306 
0.08333333333333333 0.75 0.08333333333333333 0.08333333333333333 
0.25 0.25 0.25 0.25 
0.4988095238095238 0.49642857142857144 0.0035714285714285713 0.0011904761904761906 
0.029670452015141395 0.963983522600757 0.006290358494767312 5.5666889334224006E-5 
0.0016286644951140066 0.962961017127246 0.035357780813281496 5.253756435851634E-5 
8.818342151675485E-4 0.7674897119341564 0.2295708406819518 0.00205761316872428 
0.02631578947368421 0.39473684210526316 0.5526315789473685 0.02631578947368421 
0.15 0.45 0.35 0.05 
0.0018248175182481751 0.41058394160583944 0.5748175182481752 0.012773722627737226 
3.861003861003861E-4 0.25135135135135134 0.740926640926641 0.007335907335907336 
1.2422360248447205E-4 0.052795031055900624 0.9414906832298137 0.0055900621118012426 
0.0030864197530864196 0.009259259259259259 0.8364197530864198 0.15123456790123457 
0.25 0.25 0.25 0.25 
0.018518518518518517 0.09259259259259259 0.6851851851851852 0.2037037037037037 
0.0030120481927710845 0.015060240963855422 0.48493975903614456 0.49698795180722893 
0.0011160714285714285 0.0011160714285714285 0.40513392857142855 0.5926339285714286 
4.757373929590866E-4 4.757373929590866E-4 0.14795432921027593 0.8510941960038059 
</TABLE>
</DEFINITION>
<DEFINITION>
<FOR>pixel22</FOR>
<GIVEN>emotion</GIVEN>
<GIVEN>pixel21</GIVEN>
<TABLE>
0.8992805755395683 0.09352517985611511 0.007194244604316547 
0.7587445641898279 0.2127056154282473 0.02854982038192475 
0.4968553459119497 0.444253859348199 0.05889079473985134 
0.37684210526315787 0.28842105263157897 0.33473684210526317 
0.4117647058823529 0.5294117647058824 0.058823529411764705 
0.7249575551782682 0.266553480475382 0.008488964346349746 
0.5467980295566502 0.42857142857142855 0.024630541871921183 
0.2786885245901639 0.5737704918032787 0.14754098360655737 
0.8625429553264605 0.12714776632302405 0.010309278350515464 
0.6822286263208454 0.28530259365994237 0.032468780019212294 
0.4359685621821544 0.49976883957466484 0.06426259824318077 
0.3394495412844037 0.25137614678899084 0.4091743119266055 
0.8405466970387244 0.15261958997722094 0.00683371298405467 
0.7809585372610582 0.19844861021331608 0.020592852525625635 
0.5435501653803748 0.40610069827269385 0.05034913634693128 
0.4258823529411765 0.32235294117647056 0.25176470588235295 
0.8406169665809768 0.14652956298200515 0.012853470437017995 
0.7754405135910395 0.2001092746892501 0.024450211719710423 
0.5368081676518001 0.42074153680816767 0.04245029554003224 
0.4627831715210356 0.2297734627831715 0.3074433656957929 
0.8747628083491461 0.11954459203036052 0.0056925996204933585 
0.7580212014134275 0.22742049469964665 0.014558303886925795 
0.5536172396100565 0.41405849153412005 0.0323242688558235 
0.4429223744292237 0.3242009132420091 0.2328767123287671 
0.8625954198473282 0.1297709923664122 0.007633587786259542 
0.6885721826339404 0.2610187384534178 0.05040907891264186 
0.40052219321148824 0.5028720626631854 0.09660574412532637 
0.35108153078202997 0.24126455906821964 0.40765391014975044 
</TABLE>
</DEFINITION>
<DEFINITION>
<FOR>pixel23</FOR>
<GIVEN>emotion</GIVEN>
<GIVEN>pixel43</GIVEN>
<TABLE>
0.9178082191780822 0.0684931506849315 0.0136986301369863 
0.8609304652326163 0.12056028014007003 0.018509254627313655 
0.7126213592233009 0.2565880721220527 0.030790568654646324 
0.35786666666666667 0.5818666666666666 0.06026666666666667 
0.12860892388451445 0.2755905511811024 0.5958005249343832 
0.8181818181818182 0.09090909090909091 0.09090909090909091 
0.8196078431372549 0.16862745098039217 0.011764705882352941 
0.6774193548387096 0.3052109181141439 0.017369727047146403 
0.12 0.7028571428571428 0.17714285714285713 
0.034482758620689655 0.2413793103448276 0.7241379310344828 
0.948051948051948 0.03896103896103896 0.012987012987012988 
0.8252643294379521 0.14858096828046743 0.02615470228158041 
0.6476060191518468 0.3253077975376197 0.027086183310533515 
0.315626383355467 0.6193005754758742 0.0650730411686587 
0.15035799522673032 0.28878281622911695 0.5608591885441527 
0.9354838709677419 0.03225806451612903 0.03225806451612903 
0.9001819599688069 0.09331946971666233 0.006498570314530803 
0.7822927480349993 0.2077710218003856 0.009936230164615156 
0.3722930881044201 0.5894393355087512 0.03826757638682884 
0.22823529411764706 0.26588235294117646 0.5058823529411764 
0.8901098901098901 0.0989010989010989 0.01098901098901099 
0.8644274809160305 0.12610687022900763 0.009465648854961832 
0.7450399087799315 0.24469783352337515 0.010262257696693273 
0.3395297977036632 0.6161837069436851 0.04428649535265172 
0.17491749174917492 0.2871287128712871 0.5379537953795379 
0.916083916083916 0.06293706293706294 0.02097902097902098 
0.8694832138815541 0.12184081478687288 0.00867597133157299 
0.7482485875706215 0.2424858757062147 0.009265536723163843 
0.3667953667953668 0.5984555984555985 0.03474903474903475 
0.18385650224215247 0.3004484304932735 0.515695067264574 
0.8787878787878788 0.09090909090909091 0.030303030303030304 
0.8220264317180617 0.15770925110132158 0.02026431718061674 
0.6721865495099696 0.3024670496789456 0.025346400811084826 
0.26230394808004326 0.6700919415900487 0.06760411032990805 
0.12742980561555076 0.24406047516198703 0.6285097192224622 
</TABLE>
</DEFINITION>
<DEFINITION>
<FOR>pixel24</FOR>
<GIVEN>pixel25</GIVEN>
<GIVEN>pixel23</GIVEN>
<TABLE>
0.9988172678888232 5.913660555884093E-4 5.913660555884093E-4 
0.42857142857142855 0.42857142857142855 0.14285714285714285 
0.3333333333333333 0.3333333333333333 0.3333333333333333 
0.9971213817367663 0.0028253105176182097 5.3307745615437925E-5 
0.9432624113475178 0.04964539007092199 0.0070921985815602835 
0.3333333333333333 0.3333333333333333 0.3333333333333333 
0.8850155137798869 0.11480197116262092 1.825150574922431E-4 
0.5561928661050367 0.44362789030292166 1.792435920415845E-4 
0.8709677419354839 0.0967741935483871 0.03225806451612903 
0.16561844863731656 0.8197064989517819 0.014675052410901468 
0.06297098310957125 0.9312256388046773 0.005803378085751407 
0.1661631419939577 0.8006042296072508 0.03323262839879154 
0.06666666666666667 0.4666666666666667 0.4666666666666667 
0.013824884792626729 0.5391705069124424 0.4470046082949309 
0.0031404217137729925 0.3189771197846568 0.6778824585015703 
</TABLE>
</DEFINITION>
<DEFINITION>
<FOR>pixel25</FOR>
<GIVEN>pixel23</GIVEN>
<GIVEN>pixel41</GIVEN>
<TABLE>
0.4217328865485878 0.46290090952608903 0.11345141215892772 0.0014360938247965534 4.786979415988511E-4 
0.036431226765799254 0.6982556476980268 0.26028024020589074 0.004861309694023448 1.7157563625965112E-4 
0.009393680614859094 0.3147736976942784 0.6546541417591802 0.02089382294335326 2.846569883290635E-4 
0.036734693877551024 0.22448979591836735 0.6163265306122448 0.09387755102040816 0.02857142857142857 
0.033112582781456956 0.0728476821192053 0.32450331125827814 0.5629139072847682 0.006622516556291391 
3.4352456200618345E-4 0.022329096530401923 0.4757815183785641 0.49708004122294747 0.004465819306080384 
7.165890361877464E-5 0.004371193120745253 0.29301325689716945 0.6945897527767825 0.007954138301683985 
0.0020964360587002098 0.010482180293501049 0.11949685534591195 0.6729559748427673 0.1949685534591195 
0.047619047619047616 0.047619047619047616 0.14285714285714285 0.23809523809523808 0.5238095238095238 
0.003236245954692557 0.003236245954692557 0.04854368932038835 0.2621359223300971 0.6828478964401294 
9.407337723424271E-4 9.407337723424271E-4 0.010348071495766699 0.20037629350893696 0.7873941674506115 
8.271298593879239E-4 8.271298593879239E-4 0.0024813895781637717 0.02729528535980149 0.9685690653432589 
</TABLE>
</DEFINITION>
<DEFINITION>
<FOR>pixel26</FOR>
<GIVEN>pixel22</GIVEN>
<GIVEN>pixel44</GIVEN>
<TABLE>
0.9835083930499656 0.01639344262295082 9.816432708353784E-5 
0.982141814998541 0.01779982491975489 5.8360081704114384E-5 
0.9649547954142977 0.034765588591667444 2.796159940348588E-4 
0.9463537300922046 0.05280804694048617 8.382229673093043E-4 
0.2093433230498017 0.7672983693256942 0.023358307624504186 
0.2055624888571938 0.7732216081297915 0.0212159030130148 
0.14231052244297276 0.8375275938189846 0.020161883738042678 
0.1650273224043716 0.726775956284153 0.10819672131147541 
0.0035335689045936395 0.07420494699646643 0.9222614840989399 
0.0036900369003690036 0.06519065190651907 0.931119311193112 
0.003870967741935484 0.07096774193548387 0.9251612903225807 
0.00398406374501992 0.027888446215139442 0.9681274900398407 
</TABLE>
</DEFINITION>
<DEFINITION>
<FOR>pixel27</FOR>
<GIVEN>pixel26</GIVEN>
<GIVEN>pixel22</GIVEN>
<TABLE>
0.9303678580746152 0.06551004435168276 0.00393947299765197 1.826245760500913E-4 
0.6456664238892935 0.3412235979606701 0.012745812090313183 3.641660597232338E-4 
0.7 0.1 0.1 0.1 
0.1486784140969163 0.5715859030837004 0.2566079295154185 0.023127753303964757 
0.05798616696155702 0.4956570693260415 0.4390381212803603 0.007318642432041177 
0.12666666666666668 0.3 0.5666666666666667 0.006666666666666667 
0.16666666666666666 0.16666666666666666 0.5 0.16666666666666666 
0.007352941176470588 0.007352941176470588 0.6004901960784313 0.38480392156862747 
0.0036525974025974025 0.004464285714285714 0.2171266233766234 0.7747564935064936 
</TABLE>
</DEFINITION>
<DEFINITION>
<FOR>pixel28</FOR>
<GIVEN>pixel27</GIVEN>
<GIVEN>pixel22</GIVEN>
<TABLE>
0.9565059500530756 0.03930387172467736 0.004050505614838818 1.396726074082351E-4 
0.8378702962369896 0.14531625300240192 0.016413130504403524 4.0032025620496394E-4 
0.8055555555555556 0.1388888888888889 0.027777777777777776 0.027777777777777776 
0.15402374670184696 0.6711741424802111 0.17315303430079157 0.0016490765171503958 
0.11416103603603604 0.662865990990991 0.22086148648648649 0.0021114864864864866 
0.39655172413793105 0.46551724137931033 0.1206896551724138 0.017241379310344827 
0.04381443298969072 0.07474226804123711 0.7963917525773195 0.08505154639175258 
0.00853658536585366 0.05348432055749129 0.8945993031358885 0.04337979094076655 
0.024115755627009645 0.03054662379421222 0.5 0.4453376205787781 
0.03333333333333333 0.03333333333333333 0.03333333333333333 0.9 
0.004 0.012 0.084 0.9 
5.230125523012552E-4 0.0015690376569037657 0.028765690376569036 0.9691422594142259 
</TABLE>
</DEFINITION>
<DEFINITION>
<FOR>pixel29</FOR>
<GIVEN>pixel25</GIVEN>
<GIVEN>pixel23</GIVEN>
<TABLE>
0.49704491725768324 0.4946808510638298 0.0076832151300236405 5.91016548463357E-4 
0.125 0.125 0.625 0.125 
0.25 0.25 0.25 0.25 
0.018176972281449894 0.9531449893390191 0.026705756929637527 0.00197228144989339 
0.007042253521126761 0.5704225352112676 0.31690140845070425 0.1056338028169014 
0.25 0.25 0.25 0.25 
0.005657622581822606 0.9161090156953401 0.07221073123251004 0.00602263049032729 
5.376344086021505E-4 0.7112903225806452 0.2492831541218638 0.03888888888888889 
0.03125 0.15625 0.34375 0.46875 
0.014644351464435146 0.6129707112970711 0.34518828451882844 0.027196652719665274 
2.598302442404296E-4 0.2685778624631907 0.6744327039667417 0.056729603325827126 
0.0030120481927710845 0.02108433734939759 0.2921686746987952 0.6837349397590361 
0.0625 0.5625 0.3125 0.0625 
0.0045871559633027525 0.022935779816513763 0.463302752293578 0.5091743119266054 
4.484304932735426E-4 0.01031390134529148 0.09730941704035874 0.8919282511210762 
</TABLE>
</DEFINITION>
<DEFINITION>
<FOR>pixel30</FOR>
<GIVEN>emotion</GIVEN>
<TABLE>
0.06247633472169633 0.06903950523791492 0.277293954310236 0.35731414868105515 0.23387605704909756 
0.02433371958285052 0.04055619930475087 0.2607184241019699 0.3719582850521437 0.30243337195828507 
0.05526412101988532 0.05941197999268025 0.2594851775039649 0.35366597535683786 0.27217274612663167 
0.019643228985909627 0.0369959047685153 0.19539112931213992 0.38238356354549874 0.3655861733879364 
0.020155980958168743 0.04426212903879267 0.28674161855565683 0.3847867922617239 0.26405347918565786 
0.05828126600430196 0.07323568575233022 0.32746082146881084 0.3387278500460924 0.20229437672846462 
0.11028153678643646 0.09846010265982268 0.25649401151034373 0.27329289158500547 0.2614714574583917 
</TABLE>
</DEFINITION>
<DEFINITION>
<FOR>pixel31</FOR>
<GIVEN>pixel30</GIVEN>
<GIVEN>pixel34</GIVEN>
<TABLE>
0.8338687471317118 0.14915098669114274 0.014226709499770536 0.002294630564479119 4.589261128958238E-4 
0.69593147751606 0.2505353319057816 0.04068522483940043 0.006423982869379015 0.006423982869379015 
0.46987951807228917 0.39759036144578314 0.03614457831325301 0.08433734939759036 0.012048192771084338 
0.6923076923076923 0.07692307692307693 0.07692307692307693 0.07692307692307693 0.07692307692307693 
0.31392174704276615 0.6087352138307552 0.07006369426751592 0.006369426751592357 9.099181073703367E-4 
0.2909005186232909 0.6633663366336634 0.03818953323903819 0.004243281471004243 0.0033003300330033004 
0.4676258992805755 0.3669064748201439 0.1079136690647482 0.050359712230215826 0.007194244604316547 
0.4146341463414634 0.21951219512195122 0.2682926829268293 0.07317073170731707 0.024390243902439025 
0.028901734104046242 0.5414258188824663 0.32947976878612717 0.08670520231213873 0.01348747591522158 
0.019902779051637166 0.6235898376593598 0.33467852884527194 0.01880216454186921 0.003026689901861873 
0.03614457831325301 0.4822366388631449 0.4606116774791474 0.019462465245597776 0.0015446400988569664 
0.1291139240506329 0.4177215189873418 0.34177215189873417 0.09873417721518987 0.012658227848101266 
0.06329113924050633 0.0379746835443038 0.34177215189873417 0.3924050632911392 0.16455696202531644 
0.005356407086938607 0.05315203955500618 0.6670786979810466 0.24433456942727647 0.030078285949732178 
0.0030490317264112075 0.051668726823238566 0.6936135146271116 0.23741244334569428 0.014256283477544294 
0.006729939603106126 0.07851596203623813 0.5620362381363244 0.3363244176013805 0.01639344262295082 
0.047619047619047616 0.047619047619047616 0.14285714285714285 0.23809523809523808 0.5238095238095238 
0.016042780748663103 0.026737967914438502 0.10160427807486631 0.33689839572192515 0.5187165775401069 
0.0034891835310537334 0.009071877180739707 0.0718771807397069 0.586880669923238 0.3286810886252617 
0.0010528532322594231 0.008352635642591423 0.08078893802203972 0.4968765354109637 0.41292903769214573 
</TABLE>
</DEFINITION>
<DEFINITION>
<FOR>pixel32</FOR>
<GIVEN>pixel33</GIVEN>
<GIVEN>pixel34</GIVEN>
<TABLE>
0.9575208913649025 0.031337047353760444 0.009052924791086351 0.0020891364902506965 
0.8281972265023112 0.13482280431432975 0.030046224961479198 0.006933744221879815 
0.7548543689320388 0.1383495145631068 0.08980582524271845 0.01699029126213592 
0.6656626506024096 0.12951807228915663 0.12951807228915663 0.07530120481927711 
0.5439121756487026 0.37025948103792417 0.08083832335329341 0.00499001996007984 
0.25889453621346886 0.5270012706480305 0.20616264294790343 0.007941550190597205 
0.1540816326530612 0.37857142857142856 0.4357142857142857 0.03163265306122449 
0.16789667896678967 0.27490774907749077 0.4114391143911439 0.14575645756457564 
0.15961199294532627 0.1984126984126984 0.5105820105820106 0.13139329805996472 
0.01825448260963491 0.11870814430762584 0.7222942320155541 0.14074314106718513 
0.00512123745819398 0.03208612040133779 0.6075459866220736 0.3552466555183946 
0.003942921517085993 0.027975966954562524 0.3813368381524596 0.5867442733758919 
0.060126582278481014 0.028481012658227847 0.17405063291139242 0.7373417721518988 
0.00794314381270903 0.012123745819397994 0.16346153846153846 0.8164715719063546 
0.0024760647078243643 0.0024760647078243643 0.05529877847474414 0.9397490921096071 
2.100546141996919E-4 7.70200252065537E-4 0.01729449656910797 0.9817252485646268 
</TABLE>
</DEFINITION>
<DEFINITION>
<FOR>pixel33</FOR>
<GIVEN>emotion</GIVEN>
<GIVEN>pixel31</GIVEN>
<TABLE>
0.4908256880733945 0.25535168195718655 0.21865443425076453 0.035168195718654434 
0.0787037037037037 0.27314814814814814 0.5601851851851852 0.08796296296296297 
0.0202991452991453 0.06445868945868946 0.6299857549857549 0.28525641025641024 
0.0132641291810842 0.025951557093425604 0.2946943483275663 0.6660899653979239 
0.018796992481203006 0.011278195488721804 0.12907268170426064 0.8408521303258145 
0.34375 0.40625 0.15625 0.09375 
0.07352941176470588 0.22058823529411764 0.6029411764705882 0.10294117647058823 
0.03767123287671233 0.07191780821917808 0.523972602739726 0.3664383561643836 
0.01838235294117647 0.01838235294117647 0.34191176470588236 0.6213235294117647 
0.01282051282051282 0.01282051282051282 0.19230769230769232 0.782051282051282 
0.48214285714285715 0.25487012987012986 0.2418831168831169 0.021103896103896104 
0.0767077267637178 0.26819708846584545 0.5638297872340425 0.09126539753639418 
0.02433173406442769 0.06065798492117889 0.59184372858122 0.3231665524331734 
0.01631578947368421 0.026842105263157896 0.3194736842105263 0.6373684210526316 
0.019153225806451613 0.019153225806451613 0.17641129032258066 0.7852822580645161 
0.3295964125560538 0.2982062780269058 0.3116591928251121 0.06053811659192825 
0.05666364460562103 0.22348141432456936 0.6151405258386219 0.10471441523118767 
0.009204857030943987 0.04014884449667058 0.599882491186839 0.3507638072855464 
0.0025797373358348967 0.01149155722326454 0.24085365853658536 0.7450750469043153 
0.00375 0.007083333333333333 0.10458333333333333 0.8845833333333334 
0.4622093023255814 0.311046511627907 0.17732558139534885 0.04941860465116279 
0.05384615384615385 0.25384615384615383 0.6221719457013575 0.07013574660633484 
0.009615384615384616 0.0433991683991684 0.6411122661122661 0.3058731808731809 
0.004368546465448769 0.014694201747418586 0.27124702144559176 0.7096902303415409 
0.005165289256198347 0.013429752066115703 0.0981404958677686 0.8832644628099173 
0.5318302387267905 0.2453580901856764 0.20822281167108753 0.014588859416445624 
0.11477190441708907 0.27335264301230994 0.5311368573497466 0.08073859522085446 
0.012065095398428732 0.06705948372615039 0.6641414141414141 0.25673400673400676 
0.0037194473963868225 0.03028692879914984 0.28746014877789583 0.6785334750265675 
0.003676470588235294 0.00857843137254902 0.11397058823529412 0.8737745098039216 
0.41466083150984684 0.25711159737417943 0.2811816192560175 0.047045951859956234 
0.18307322929171668 0.17346938775510204 0.5084033613445378 0.13505402160864347 
0.08732876712328767 0.08732876712328767 0.5017123287671232 0.3236301369863014 
0.030612244897959183 0.05729984301412873 0.2566718995290424 0.6554160125588697 
0.015513126491646777 0.017899761336515514 0.21837708830548927 0.7482100238663485 
</TABLE>
</DEFINITION>
<DEFINITION>
<FOR>pixel34</FOR>
<GIVEN>pixel30</GIVEN>
<TABLE>
0.7978723404255319 0.16984592809977989 0.028980190755685985 0.003301540719002201 
0.32358156028368795 0.6255910165484634 0.0398936170212766 0.010933806146572104 
0.03424657534246575 0.7247639313738529 0.21498869530522677 0.02600079797845458 
0.003672869735553379 0.11865817825661117 0.5940744368266405 0.2835945151811949 
0.0010710685483870967 0.011529737903225807 0.09003276209677419 0.8973664314516129 
</TABLE>
</DEFINITION>
<DEFINITION>
<FOR>pixel35</FOR>
<GIVEN>pixel32</GIVEN>
<GIVEN>pixel34</GIVEN>
<TABLE>
0.8142385667138142 0.14097123998114097 0.03536067892503536 0.008958038661008957 4.714757190004715E-4 
0.5892255892255892 0.2996632996632997 0.07166907166907167 0.03222703222703223 0.007215007215007215 
0.5559772296015181 0.25616698292220114 0.1347248576850095 0.028462998102466792 0.024667931688804556 
0.4896142433234421 0.2403560830860534 0.10979228486646884 0.09792284866468842 0.06231454005934718 
0.30261136712749614 0.49615975422427033 0.1490015360983103 0.03840245775729647 0.013824884792626729 
0.09686128923388458 0.5740803239959501 0.27100911238609515 0.05096186297671279 0.007087411407357408 
0.08655126498002663 0.4167776298268975 0.3581890812250333 0.11318242343541944 0.02529960053262317 
0.1048158640226629 0.3031161473087819 0.31444759206798867 0.17280453257790368 0.1048158640226629 
0.1083676268861454 0.22908093278463648 0.39094650205761317 0.24279835390946503 0.02880658436213992 
0.016866228917213854 0.12269859662675421 0.5081756147804816 0.32509334363332043 0.02716621604222995 
0.006502343868138515 0.04067745350068048 0.3155905035536065 0.5781037350672917 0.05912596401028278 
0.0137524557956778 0.03732809430255403 0.2644400785854617 0.4986247544204322 0.18585461689587426 
0.043478260869565216 0.08951406649616368 0.17135549872122763 0.329923273657289 0.3657289002557545 
0.005773321178972957 0.024004861744150716 0.09571558796718323 0.46520814342145245 0.40929808568824066 
9.856532690833424E-4 0.004271164166027817 0.029679115102398422 0.40619866389223525 0.5588654035702552 
6.37644194539447E-4 0.001565126659324097 0.007941568604718566 0.12422468262709409 0.8656309779143239 
</TABLE>
</DEFINITION>
<DEFINITION>
<FOR>pixel36</FOR>
<GIVEN>emotion</GIVEN>
<GIVEN>pixel35</GIVEN>
<TABLE>
0.46286472148541113 0.4496021220159151 0.038461538461538464 0.04907161803713528 
0.13709677419354838 0.6831797235023042 0.09101382488479262 0.08870967741935484 
0.07016248153618906 0.6580502215657311 0.17208271787296897 0.09970457902511078 
0.023681858802502235 0.3739946380697051 0.2855227882037534 0.31680071492403933 
0.006240822320117474 0.092143906020558 0.1119676945668135 0.789647577092511 
0.16666666666666666 0.6428571428571429 0.11904761904761904 0.07142857142857142 
0.056818181818181816 0.7386363636363636 0.03409090909090909 0.17045454545454544 
0.05357142857142857 0.6488095238095238 0.17261904761904762 0.125 
0.015463917525773196 0.37628865979381443 0.19072164948453607 0.4175257731958763 
0.007772020725388601 0.06476683937823834 0.08031088082901554 0.8471502590673575 
0.5515625 0.3796875 0.0328125 0.0359375 
0.15954773869346733 0.6670854271356784 0.08417085427135679 0.08919597989949749 
0.07409972299168975 0.5754847645429363 0.16966759002770082 0.18074792243767313 
0.02850678733031674 0.3199095022624434 0.25746606334841626 0.3941176470588235 
0.009288917360666239 0.11050608584240872 0.09449071108263933 0.7857142857142857 
0.489010989010989 0.4084249084249084 0.056776556776556776 0.045787545787545784 
0.14010282776349614 0.7287917737789203 0.07583547557840617 0.055269922879177376 
0.024736842105263158 0.6857894736842105 0.18052631578947367 0.10894736842105263 
0.007203179334326876 0.29135618479880776 0.3012916045702931 0.40014903129657226 
0.0040435025097601785 0.0481037367540435 0.07738427216954824 0.870468488566648 
0.5389908256880734 0.3876146788990826 0.05733944954128441 0.016055045871559634 
0.13945578231292516 0.6904761904761905 0.1145124716553288 0.05555555555555555 
0.04359823399558499 0.6561810154525386 0.1661147902869757 0.13410596026490065 
0.017883211678832115 0.3551094890510949 0.2740875912408759 0.3529197080291971 
0.004728720756595321 0.07789945246391239 0.093827775012444 0.8235440517670483 
0.6197604790419161 0.33033932135728544 0.0249500998003992 0.0249500998003992 
0.19439728353140917 0.6612903225806451 0.07555178268251274 0.06876061120543293 
0.059955995599559955 0.6661166116611661 0.14906490649064907 0.12486248624862487 
0.025349008082292433 0.3714180749448935 0.28839088905216753 0.3148420279206466 
0.01144538914323087 0.10366252452583388 0.11020274689339438 0.7746893394375409 
0.44527896995708155 0.3594420600858369 0.10622317596566523 0.0890557939914163 
0.13922155688622753 0.5763473053892215 0.1781437125748503 0.1062874251497006 
0.11538461538461539 0.5021978021978022 0.15494505494505495 0.22747252747252747 
0.05048661800486618 0.2767639902676399 0.23905109489051096 0.43369829683698297 
0.021397379912663755 0.10873362445414847 0.08777292576419214 0.7820960698689956 
</TABLE>
</DEFINITION>
<DEFINITION>
<FOR>pixel37</FOR>
<GIVEN>pixel33</GIVEN>
<GIVEN>pixel31</GIVEN>
<TABLE>
0.7424065420560748 0.2213785046728972 0.026285046728971962 0.009929906542056074 
0.6823630136986302 0.288527397260274 0.023116438356164382 0.0059931506849315065 
0.6129807692307693 0.3581730769230769 0.021634615384615384 0.007211538461538462 
0.4112903225806452 0.5080645161290323 0.056451612903225805 0.024193548387096774 
0.7580645161290323 0.20967741935483872 0.016129032258064516 0.016129032258064516 
0.16800804828973842 0.727364185110664 0.07142857142857142 0.03319919517102616 
0.08349206349206349 0.8777777777777778 0.028253968253968254 0.010476190476190476 
0.11140350877192982 0.8078947368421052 0.06403508771929825 0.016666666666666666 
0.09872611464968153 0.7866242038216561 0.09235668789808917 0.022292993630573247 
0.2692307692307692 0.6282051282051282 0.0641025641025641 0.038461538461538464 
0.053964757709251104 0.5429515418502202 0.2918502202643172 0.11123348017621146 
0.011704764527678326 0.6275130817956486 0.2961993941063068 0.06458275957036629 
0.00523265174690066 0.37747544678795686 0.5238286910320399 0.09346321043310256 
0.006603275224511358 0.28129952456418383 0.5338087691494982 0.17828843106180667 
0.003289473684210526 0.3300438596491228 0.45285087719298245 0.2138157894736842 
0.022388059701492536 0.05223880597014925 0.21641791044776118 0.7089552238805971 
0.0042158516020236085 0.06492411467116357 0.33136593591905567 0.5994940978077572 
0.0014290250873293109 0.028421721181327405 0.2697681803747221 0.7003810733566211 
3.122398001665279E-4 0.02092006661115737 0.15081182348043298 0.8279558701082431 
5.149330587023687E-4 0.013903192584963954 0.09251630621352558 0.8930655681428081 
</TABLE>
</DEFINITION>
<DEFINITION>
<FOR>pixel38</FOR>
<GIVEN>pixel36</GIVEN>
<GIVEN>pixel37</GIVEN>
<TABLE>
0.8735294117647059 0.11823529411764706 0.00411764705882353 0.00411764705882353 
0.5810975609756097 0.3957317073170732 0.021341463414634148 0.001829268292682927 
0.44142259414225943 0.50418410041841 0.0397489539748954 0.014644351464435146 
0.36824324324324326 0.40202702702702703 0.15878378378378377 0.07094594594594594 
0.2165551839464883 0.6847826086956522 0.08277591973244147 0.01588628762541806 
0.03139235492176669 0.7505446623093682 0.20687264804911865 0.011190334719746484 
0.007405840033855269 0.4428692340245451 0.5008463817181549 0.04887854422344477 
0.013051305130513051 0.28397839783978396 0.4972997299729973 0.20567056705670567 
0.030864197530864196 0.3765432098765432 0.5370370370370371 0.05555555555555555 
0.004062038404726735 0.17466765140324964 0.6916543574593796 0.129615952732644 
7.743933918430562E-4 0.04723799690242643 0.7405782137325762 0.21140939597315436 
0.0014705882352941176 0.029901960784313727 0.46225490196078434 0.5063725490196078 
0.03211009174311927 0.14220183486238533 0.3532110091743119 0.4724770642201835 
0.002459592410400562 0.06430077301475755 0.3236120871398454 0.6096275474349965 
0.0010385756676557863 0.01231454005934718 0.18353115727002967 0.8031157270029674 
3.022974607013301E-4 0.004534461910519952 0.03041112454655381 0.9647521160822249 
</TABLE>
</DEFINITION>
<DEFINITION>
<FOR>pixel39</FOR>
<GIVEN>pixel31</GIVEN>
<GIVEN>pixel37</GIVEN>
<TABLE>
0.8900067069081153 0.09859154929577464 0.006036217303822937 0.00335345405767941 0.002012072434607646 
0.6656269494697442 0.30630068621335 0.01933873986275733 0.008109794135995009 6.238303181534623E-4 
0.46472019464720193 0.35279805352798055 0.10948905109489052 0.0705596107055961 0.0024330900243309003 
0.29554655870445345 0.3117408906882591 0.15789473684210525 0.1902834008097166 0.044534412955465584 
0.3501303214596003 0.5377932232841007 0.07732406602953953 0.03214596003475239 0.0026064291920069507 
0.08103916246607212 0.772004652966266 0.12498384386713196 0.021067597259919867 9.047434406100556E-4 
0.04547162720781661 0.5858699736941 0.2829763246899662 0.08004509582863585 0.005636978579481398 
0.03357903357903358 0.4152334152334152 0.294021294021294 0.20884520884520885 0.04832104832104832 
0.13347921225382933 0.35667396061269147 0.3435448577680525 0.15536105032822758 0.010940919037199124 
0.009260818319582422 0.2668799461188752 0.5015995958915642 0.2129988213503957 0.009260818319582422 
0.0030160453613222345 0.09856436240801061 0.42864036675111594 0.4643503438291712 0.0054288816503800215 
0.0016085790884718498 0.05093833780160858 0.2232350312779267 0.672207327971403 0.05201072386058981 
0.11711711711711711 0.11711711711711711 0.2072072072072072 0.5315315315315315 0.02702702702702703 
0.0031705770450221942 0.06404565630944832 0.16930881420418517 0.7032339885859227 0.060240963855421686 
0.001996007984031936 0.017964071856287425 0.08582834331337326 0.8129455374964357 0.08126603934987169 
0.0010415461173475292 0.004744821201249855 0.027195926397407706 0.734521467422752 0.2324962388612429 
0.013333333333333334 0.09333333333333334 0.12 0.36 0.41333333333333333 
0.0022471910112359553 0.020224719101123594 0.056179775280898875 0.4202247191011236 0.501123595505618 
0.005213764337851929 0.0031282586027111575 0.017726798748696558 0.36392075078206465 0.6100104275286757 
1.8508236165093466E-4 5.55247084952804E-4 0.0090690357208958 0.1538034425319267 0.8363871923005738 
</TABLE>
</DEFINITION>
<DEFINITION>
<FOR>pixel40</FOR>
<GIVEN>pixel46</GIVEN>
<GIVEN>pixel49</GIVEN>
<TABLE>
0.8979854264894985 0.09129875696528075 0.010715816545220747 
0.8687537627934979 0.12582781456953643 0.005418422636965683 
0.8620689655172413 0.09578544061302682 0.0421455938697318 
0.6774193548387096 0.22580645161290322 0.0967741935483871 
0.300794551645857 0.4733257661748014 0.22587968217934165 
0.10525986615798362 0.6076052285946588 0.2871349052473576 
0.06334407946327437 0.38015160756295197 0.5565043129737737 
0.10785340314136126 0.48900523560209425 0.4031413612565445 
0.03296703296703297 0.01098901098901099 0.9560439560439561 
7.189072609633358E-4 0.02372393961179008 0.9755571531272466 
0.0012746494713953662 0.019569618354952387 0.9791557321736523 
0.0016576417283677754 0.03127417394187203 0.9670681843297602 
</TABLE>
</DEFINITION>
<DEFINITION>
<FOR>pixel41</FOR>
<GIVEN>pixel48</GIVEN>
<GIVEN>pixel47</GIVEN>
<TABLE>
0.3645877829987185 0.6093549765057668 0.02584365655702691 2.1358393848782572E-4 
0.15302325581395348 0.8079069767441861 0.038604651162790694 4.6511627906976747E-4 
0.36538461538461536 0.4807692307692308 0.09615384615384616 0.057692307692307696 
0.024305555555555556 0.6307870370370371 0.33912037037037035 0.005787037037037037 
0.005119144695116426 0.6021110809096675 0.3912748029355803 0.0014949714596357705 
0.007325552520486714 0.23603178544822448 0.7560218524956543 6.208095356344674E-4 
0.03125 0.09375 0.78125 0.09375 
0.0031982942430703624 0.022388059701492536 0.8603411513859275 0.1140724946695096 
1.612036539494895E-4 0.01735626007522837 0.8875335840945728 0.09494895217624932 
</TABLE>
</DEFINITION>
<DEFINITION>
<FOR>pixel42</FOR>
<GIVEN>pixel28</GIVEN>
<GIVEN>pixel14</GIVEN>
<TABLE>
0.9485861182519281 0.05121613604904093 1.9774569903104609E-4 
0.8204395490206265 0.17846937185015846 0.0010910791292149426 
0.4799494085261513 0.5153634402202217 0.004687151253626962 
0.5984405458089669 0.38791423001949316 0.01364522417153996 
0.46156077748767044 0.5364084711343197 0.0020307513780098638 
0.17087967644084934 0.8236602628918099 0.005460060667340748 
0.5190713101160862 0.4626865671641791 0.01824212271973466 
0.38236344162799 0.5994287754373439 0.01820778293466619 
0.1453426692128156 0.8374708253766179 0.01718650541056652 
0.3945945945945946 0.31891891891891894 0.2864864864864865 
0.26133076181292186 0.35776277724204436 0.3809064609450338 
0.1111111111111111 0.46421267893660534 0.42467620995228356 
</TABLE>
</DEFINITION>
<DEFINITION>
<FOR>pixel43</FOR>
<GIVEN>pixel41</GIVEN>
<GIVEN>pixel48</GIVEN>
<TABLE>
0.21050072921730675 0.7802625182304327 0.008264462809917356 4.861448711716091E-4 4.861448711716091E-4 
0.005128205128205128 0.9179487179487179 0.06666666666666667 0.005128205128205128 0.005128205128205128 
0.3333333333333333 0.1111111111111111 0.1111111111111111 0.3333333333333333 0.1111111111111111 
0.0010829542993285683 0.9120641108945202 0.08425384448776262 0.0023824994585228505 2.1659085986571366E-4 
6.353643814727746E-5 0.5290679204523795 0.465531482305102 0.005146451489929474 1.9060931444183239E-4 
0.0028653295128939827 0.35816618911174786 0.5358166189111748 0.10028653295128939 0.0028653295128939827 
0.004739336492890996 0.26066350710900477 0.4976303317535545 0.23222748815165878 0.004739336492890996 
6.657346381732241E-5 0.024965048931495905 0.8451501231609081 0.12549097929565275 0.004327275148125957 
5.7633565788715346E-5 0.003976716039421359 0.31254682727220334 0.66307417439917 0.020344648723416518 
0.14285714285714285 0.14285714285714285 0.14285714285714285 0.42857142857142855 0.14285714285714285 
0.022222222222222223 0.022222222222222223 0.1111111111111111 0.24444444444444444 0.6 
5.321979776476849E-4 5.321979776476849E-4 0.0015965939329430547 0.05055880787653007 0.9467802022352315 
</TABLE>
</DEFINITION>
<DEFINITION>
<FOR>pixel44</FOR>
<GIVEN>pixel43</GIVEN>
<GIVEN>pixel48</GIVEN>
<TABLE>
0.9931818181818182 0.0022727272727272726 0.0022727272727272726 0.0022727272727272726 
0.25 0.25 0.25 0.25 
0.5 0.16666666666666666 0.16666666666666666 0.16666666666666666 
0.884366485013624 0.10814032697547683 0.007322888283378746 1.7029972752043596E-4 
0.6691060571943256 0.3241387074983112 0.006642648052240486 1.1258725512272011E-4 
0.8112244897959183 0.17857142857142858 0.00510204081632653 0.00510204081632653 
0.083984375 0.595703125 0.314453125 0.005859375 
0.038572854291417165 0.8068363273453094 0.1534431137724551 0.0011477045908183632 
0.03010331314570716 0.5249376558603491 0.4447809048806555 1.7812611328820805E-4 
0.015625 0.078125 0.734375 0.171875 
0.0015166835187057635 0.050050556117290194 0.8255813953488372 0.12285136501516683 
0.00146073208455061 0.04133012545110844 0.9196597353497165 0.037549407114624504 
0.25 0.25 0.25 0.25 
0.010416666666666666 0.010416666666666666 0.052083333333333336 0.9270833333333334 
4.6860356138706655E-4 0.0014058106841611997 0.03608247422680412 0.9620431115276477 
</TABLE>
</DEFINITION>
<DEFINITION>
<FOR>pixel45</FOR>
<GIVEN>pixel42</GIVEN>
<GIVEN>pixel44</GIVEN>
<TABLE>
0.4930342143003483 0.4938537185003073 0.01300962917434952 1.024380249948781E-4 
0.2098413140311804 0.7623190423162584 0.027770044543429843 6.959910913140311E-5 
0.19331315354980738 0.7450467804072647 0.0612272977435333 4.127682993946065E-4 
0.18568464730290457 0.7085062240663901 0.10062240663900415 0.005186721991701245 
0.012178148921363952 0.383785664578984 0.5876826722338204 0.016353514265831592 
0.0016899504281207751 0.32480847228481297 0.662798557908968 0.010703019378098243 
8.389261744966443E-4 0.19136838180462343 0.7972595078299777 0.010533184190902312 
0.002336448598130841 0.1690031152647975 0.6658878504672897 0.16277258566978192 
0.009433962264150943 0.009433962264150943 0.04716981132075472 0.9339622641509434 
0.0031645569620253164 0.028481012658227847 0.03481012658227848 0.9335443037974683 
0.0032679738562091504 0.0032679738562091504 0.03594771241830065 0.9575163398692811 
0.0016233766233766235 0.0016233766233766235 0.01461038961038961 0.9821428571428571 
</TABLE>
</DEFINITION>
<DEFINITION>
<FOR>pixel46</FOR>
<GIVEN>pixel13</GIVEN>
<GIVEN>pixel11</GIVEN>
<TABLE>
0.5798198198198198 0.36936936936936937 0.05081081081081081 
0.4094616639477977 0.5008156606851549 0.08972267536704731 
0.6 0.2 0.2 
0.6 0.2 0.2 
0.22603978300180833 0.6311030741410488 0.14285714285714285 
0.08571124926935544 0.7492959243317924 0.1649928263988522 
0.04812000779271381 0.7085525034093123 0.2433274887979739 
0.07374631268436578 0.5929203539823009 0.3333333333333333 
0.2 0.2 0.6 
0.02702702702702703 0.46306306306306305 0.5099099099099099 
0.015922330097087378 0.47831715210355985 0.5057605177993527 
0.01294854030292895 0.273639447656362 0.713412012040709 
</TABLE>
</DEFINITION>
<DEFINITION>
<FOR>pixel47</FOR>
<GIVEN>pixel40</GIVEN>
<GIVEN>pixel46</GIVEN>
<TABLE>
0.7668517049960349 0.21649484536082475 0.016653449643140365 
0.5563557796182931 0.4310406913935902 0.012603528988116673 
0.5428571428571428 0.37142857142857144 0.08571428571428572 
0.08609271523178808 0.6909492273730684 0.2229580573951435 
0.0548760109618341 0.8909163825947464 0.054207606443419556 
0.22357019064124783 0.6464471403812825 0.12998266897746968 
0.02127659574468085 0.06382978723404255 0.9148936170212766 
0.0030274197733760055 0.49779430845082606 0.49917827177579793 
0.003655442308519331 0.14436846858469876 0.8519760891067819 
</TABLE>
</DEFINITION>
<DEFINITION>
<FOR>pixel48</FOR>
<GIVEN>pixel47</GIVEN>
<GIVEN>pixel46</GIVEN>
<TABLE>
0.8762325739544373 0.11662699761985719 0.007140428425705543 
0.7984173261141191 0.19866722199083714 0.0029154518950437317 
0.8025751072961373 0.18454935622317598 0.012875536480686695 
0.24581497797356827 0.6916299559471366 0.06255506607929516 
0.07805335042650757 0.8906365563828214 0.03131009319067107 
0.07667646273043013 0.8616083355597115 0.061715201709858405 
0.014492753623188406 0.2463768115942029 0.7391304347826086 
0.001360132990781321 0.46803687471663896 0.5306029922925797 
0.0019608829000955304 0.24661873397355322 0.7514203831263513 
</TABLE>
</DEFINITION>
<DEFINITION>
<FOR>pixel49</FOR>
<GIVEN>emotion</GIVEN>
<GIVEN>pixel46</GIVEN>
<TABLE>
0.5523076923076923 0.35846153846153844 0.08461538461538462 0.004615384615384616 
0.0356186395286556 0.5455275843599358 0.3912694161756829 0.027584359935725764 
0.005922165820642978 0.05668358714043993 0.5812182741116751 0.35617597292724196 
0.5416666666666666 0.375 0.041666666666666664 0.041666666666666664 
0.02558139534883721 0.4627906976744186 0.47674418604651164 0.03488372093023256 
0.002403846153846154 0.016826923076923076 0.53125 0.4495192307692308 
0.46078431372549017 0.45294117647058824 0.07254901960784314 0.013725490196078431 
0.02138073158165894 0.520607934054611 0.4242658423493045 0.03374549201442555 
0.0013116474291710388 0.05220356768100735 0.5459076600209863 0.40057712486883523 
0.5417536534446764 0.3893528183716075 0.06576200417536535 0.003131524008350731 
0.026274915868495986 0.539606523427388 0.40706704633704377 0.027051514367072222 
0.004712041884816754 0.055671902268760905 0.5708551483420593 0.368760907504363 
0.5537280701754386 0.3848684210526316 0.047149122807017545 0.01425438596491228 
0.032899366643209006 0.5955313159746657 0.3464109781843772 0.025158339197748066 
0.006394640682095006 0.07582216808769793 0.5392813641900122 0.37850182704019486 
0.611578947368421 0.3336842105263158 0.049473684210526316 0.005263157894736842 
0.041132699462587845 0.5810252170318313 0.35159156676312525 0.02625051674245556 
0.0017579105976896032 0.06052235057759919 0.6205424409844299 0.31717729784028126 
0.41946308724832215 0.5067114093959731 0.06375838926174497 0.010067114093959731 
0.022817460317460316 0.45337301587301587 0.44742063492063494 0.0763888888888889 
0.004174694926140013 0.05748233782915864 0.47045600513808605 0.4678869621066153 
</TABLE>
</DEFINITION>
<DEFINITION>
<FOR>pixel50</FOR>
<GIVEN>pixel52</GIVEN>
<GIVEN>pixel56</GIVEN>
<TABLE>
0.5183605534172475 0.4380526370539894 0.017164256735670447 0.022781649849162592 0.003640902943930095 
0.15901328273244783 0.7616698292220114 0.03757115749525617 0.03529411764705882 0.0064516129032258064 
0.17525773195876287 0.5945017182130584 0.09965635738831616 0.1134020618556701 0.01718213058419244 
0.21568627450980393 0.4117647058823529 0.13725490196078433 0.13725490196078433 0.09803921568627451 
0.09104820198928845 0.5516449885233359 0.1369548584544759 0.17980107115531752 0.04055087987758225 
0.02912403013606207 0.6714269650286743 0.1928483076577083 0.099966265602159 0.0066344315753963795 
0.02812982998454405 0.35208655332302935 0.3230293663060278 0.27666151468315303 0.02009273570324575 
0.04424778761061947 0.2743362831858407 0.13274336283185842 0.2920353982300885 0.25663716814159293 
0.026737967914438502 0.1443850267379679 0.09090909090909091 0.48663101604278075 0.25133689839572193 
0.017780502759043533 0.16983445738810546 0.17841814837522993 0.5413856529736358 0.09258123850398528 
0.005551645945734616 0.07561185393697709 0.10954726718273516 0.749941355852686 0.05934787708186723 
0.006463527239150508 0.08956602031394276 0.050784856879039705 0.6103416435826408 0.24284395198522624 
0.02564102564102564 0.07692307692307693 0.02564102564102564 0.23076923076923078 0.6410256410256411 
0.05116279069767442 0.07906976744186046 0.03255813953488372 0.3116279069767442 0.5255813953488372 
0.0017599436818021823 0.03625483984512495 0.020767335445265753 0.4544174586413235 0.48680042238648363 
0.0016697145583207441 0.014709390156635128 0.008984654528106862 0.1425618191937664 0.8320744215631709 
</TABLE>
</DEFINITION>
<DEFINITION>
<FOR>pixel51</FOR>
<GIVEN>pixel50</GIVEN>
<GIVEN>pixel53</GIVEN>
<TABLE>
0.951036866359447 0.045122887864823345 0.0032642089093701996 5.76036866359447E-4 
0.625 0.33026315789473687 0.038157894736842106 0.006578947368421052 
0.5232558139534884 0.22093023255813954 0.1511627906976744 0.10465116279069768 
0.14705882352941177 0.2647058823529412 0.3235294117647059 0.2647058823529412 
0.6509339559706471 0.32671781187458304 0.018512341561040695 0.003835890593729153 
0.1436635944700461 0.7653225806451613 0.08421658986175115 0.0067972350230414745 
0.09642147117296222 0.39065606361829025 0.4105367793240557 0.10238568588469185 
0.13805970149253732 0.27238805970149255 0.31716417910447764 0.27238805970149255 
0.23820754716981132 0.5636792452830188 0.1721698113207547 0.025943396226415096 
0.01994535519125683 0.6095628415300547 0.3680327868852459 0.002459016393442623 
0.015592515592515593 0.21725571725571727 0.6559251559251559 0.11122661122661123 
0.019736842105263157 0.08552631578947369 0.3618421052631579 0.5328947368421053 
0.19288389513108614 0.42134831460674155 0.32397003745318353 0.06179775280898876 
0.009365443425076453 0.24675076452599387 0.694762996941896 0.04912079510703364 
0.0011822871883061048 0.0456792777300086 0.6452063628546861 0.30793207222699914 
0.0029069767441860465 0.03197674418604651 0.21104651162790697 0.7540697674418605 
0.09482758620689655 0.2672413793103448 0.3017241379310345 0.33620689655172414 
0.00778816199376947 0.13862928348909656 0.440809968847352 0.4127725856697819 
3.4674063800277393E-4 0.013522884882108182 0.17233009708737865 0.8138002773925104 
3.051261187957689E-4 0.003966639544344996 0.026342554922701385 0.9693856794141579 
</TABLE>
</DEFINITION>
<DEFINITION>
<FOR>pixel52</FOR>
<GIVEN>pixel56</GIVEN>
<GIVEN>pixel8</GIVEN>
<TABLE>
0.9301916308173641 0.06120453656628862 0.007235041063746578 0.001368791552600704 
0.8293506493506494 0.14623376623376624 0.021558441558441558 0.002857142857142857 
0.7662671232876712 0.19434931506849315 0.03339041095890411 0.0059931506849315065 
0.7594059405940594 0.200990099009901 0.026732673267326732 0.01287128712871287 
0.2648827420324714 0.6509320505111245 0.0724594107035478 0.011725796752856284 
0.1798635824436536 0.71426453143535 0.09919928825622776 0.0066725978647686835 
0.14964964964964966 0.6211211211211212 0.20270270270270271 0.026526526526526525 
0.18509984639016897 0.5138248847926268 0.24193548387096775 0.05913978494623656 
0.030054644808743168 0.26721311475409837 0.601639344262295 0.10109289617486339 
0.010440569068379991 0.18483249196879303 0.7041073887104177 0.10061955025240936 
0.013238679969301611 0.12682271680736762 0.7004988488104374 0.15943975441289332 
0.022097819681791395 0.1393635827931644 0.5595167943429582 0.279021803182086 
0.013565891472868217 0.02131782945736434 0.14922480620155038 0.8158914728682171 
0.006794564348521183 0.015587529976019185 0.1211031175059952 0.8565147881694645 
0.003579295154185022 0.005781938325991189 0.08177312775330396 0.9088656387665198 
0.0018131101813110182 0.005718270571827057 0.056485355648535567 0.9359832635983264 
</TABLE>
</DEFINITION>
<DEFINITION>
<FOR>pixel53</FOR>
<GIVEN>pixel52</GIVEN>
<GIVEN>pixel50</GIVEN>
<TABLE>
0.9229502196193266 0.0722913616398243 0.0031112737920937043 0.0016471449487554905 
0.7621646912039926 0.22535870243293823 0.010761072988147224 0.0017155333749220212 
0.6233333333333333 0.33666666666666667 0.03 0.01 
0.5994318181818182 0.34375 0.048295454545454544 0.008522727272727272 
0.46774193548387094 0.3709677419354839 0.14516129032258066 0.016129032258064516 
0.3143459915611814 0.6265822784810127 0.052742616033755275 0.006329113924050633 
0.13495293818366827 0.8235817858051386 0.03701348257440855 0.004451793436784533 
0.07413676371022343 0.8561272850372377 0.06398104265402843 0.005754908598510494 
0.10964912280701754 0.7246588693957114 0.1564327485380117 0.009259259259259259 
0.22815533980582525 0.4320388349514563 0.2087378640776699 0.13106796116504854 
0.11607142857142858 0.5446428571428571 0.2767857142857143 0.0625 
0.031432748538011694 0.5387426900584795 0.3969298245614035 0.03289473684210526 
0.00963718820861678 0.5753968253968254 0.39512471655328796 0.01984126984126984 
0.00774986638161411 0.312756101906289 0.6469802244788883 0.032513807233208625 
0.023770491803278688 0.23688524590163934 0.5942622950819673 0.14508196721311475 
0.07894736842105263 0.18421052631578946 0.34210526315789475 0.39473684210526316 
0.016233766233766232 0.07467532467532467 0.3344155844155844 0.5746753246753247 
0.005555555555555556 0.08333333333333333 0.37222222222222223 0.5388888888888889 
0.003481012658227848 0.03575949367088608 0.5389240506329114 0.4218354430379747 
9.177373602536292E-4 0.020106791256465875 0.17578841982312698 0.8031870515601535 
</TABLE>
</DEFINITION>
<DEFINITION>
<FOR>pixel54</FOR>
<GIVEN>pixel64</GIVEN>
<TABLE>
0.9996871088861077 1.0429703796412182E-4 1.0429703796412182E-4 1.0429703796412182E-4 
6.838074398249453E-5 0.9997948577680525 6.838074398249453E-5 6.838074398249453E-5 
4.742033383915023E-5 4.742033383915023E-5 0.9998577389984825 4.742033383915023E-5 
8.239947264337508E-5 8.239947264337508E-5 8.239947264337508E-5 0.9997528015820699 
</TABLE>
</DEFINITION>
<DEFINITION>
<FOR>pixel55</FOR>
<GIVEN>pixel50</GIVEN>
<GIVEN>pixel56</GIVEN>
<TABLE>
0.9093578700078309 0.08476898981989037 0.0052858261550509005 5.873140172278779E-4 
0.552924791086351 0.3774373259052925 0.06267409470752089 0.006963788300835654 
0.463302752293578 0.3623853211009174 0.16972477064220184 0.0045871559633027525 
0.29545454545454547 0.29545454545454547 0.25 0.1590909090909091 
0.3984280532043531 0.5781942765014108 0.023176138653768642 2.0153164046755341E-4 
0.07362185686653772 0.8040377176015474 0.12101063829787234 0.0013297872340425532 
0.07178841309823678 0.517632241813602 0.3900083963056255 0.020570948782535684 
0.06287425149700598 0.344311377245509 0.38023952095808383 0.2125748502994012 
0.17403314917127072 0.5939226519337016 0.2292817679558011 0.0027624309392265192 
0.010890151515151516 0.4881628787878788 0.4947916666666667 0.00615530303030303 
0.0122336227308603 0.27032359905288084 0.7028413575374901 0.014601420678768745 
0.04736842105263158 0.2578947368421053 0.48947368421052634 0.20526315789473684 
0.12093862815884476 0.43862815884476536 0.40613718411552346 0.03429602888086643 
0.015010351966873706 0.2924430641821946 0.6640786749482401 0.028467908902691512 
0.0014394580863674852 0.06121930567315834 0.8678238780694327 0.06951735817104149 
0.006014434643143544 0.054931836407377706 0.5240577385725742 0.41499599037690454 
0.11875 0.25625 0.34375 0.28125 
0.008823529411764706 0.15 0.5088235294117647 0.3323529411764706 
0.0022603978300180833 0.018535262206148283 0.4832730560578662 0.49593128390596747 
2.787585950566809E-4 0.005668091432819178 0.10918044973053335 0.8848727002415908 
</TABLE>
</DEFINITION>
<DEFINITION>
<FOR>pixel56</FOR>
<GIVEN>emotion</GIVEN>
<GIVEN>pixel61</GIVEN>
<TABLE>
0.6241496598639455 0.18197278911564627 0.15816326530612246 0.03571428571428571 
0.36316989737742306 0.3814139110604333 0.19897377423033066 0.056442417331812995 
0.15617232808616405 0.3152444076222038 0.427920463960232 0.10066280033140017 
0.07977059436913451 0.16944734098018768 0.48957247132429615 0.26120959332638166 
0.0625 0.07357594936708861 0.23971518987341772 0.6242088607594937 
0.7666666666666667 0.1 0.1 0.03333333333333333 
0.3858695652173913 0.4945652173913043 0.07065217391304347 0.04891304347826087 
0.19747899159663865 0.23109243697478993 0.41596638655462187 0.15546218487394958 
0.04455445544554455 0.16336633663366337 0.4504950495049505 0.3415841584158416 
0.06696428571428571 0.09375 0.21875 0.6205357142857143 
0.5335195530726257 0.2709497206703911 0.14804469273743018 0.04748603351955307 
0.37609970674486803 0.3526392961876833 0.23240469208211142 0.038856304985337244 
0.1751131221719457 0.33076923076923076 0.4004524886877828 0.09366515837104072 
0.10974499089253188 0.1662112932604736 0.4722222222222222 0.2518214936247723 
0.058061420345489445 0.07149712092130518 0.24712092130518235 0.6233205374280231 
0.5537313432835821 0.2671641791044776 0.14477611940298507 0.034328358208955224 
0.32813494589433484 0.40451941438574157 0.22310630171865053 0.044239338001273075 
0.12448036951501154 0.30184757505773674 0.45658198614318707 0.11709006928406467 
0.06420765027322405 0.130327868852459 0.49808743169398906 0.3073770491803279 
0.05 0.06755725190839694 0.21259541984732824 0.6698473282442748 
0.6702586206896551 0.1875 0.11853448275862069 0.023706896551724137 
0.4478623566214807 0.3623566214807091 0.15172054223149115 0.038060479666319084 
0.17195767195767195 0.36394557823129253 0.3934240362811791 0.07067271352985639 
0.1181592039800995 0.16625207296849087 0.48383084577114427 0.23175787728026534 
0.08619281045751634 0.09763071895424837 0.24142156862745098 0.5747549019607843 
0.6378865979381443 0.22809278350515463 0.08634020618556701 0.04768041237113402 
0.4776559865092749 0.32166947723440137 0.1564080944350759 0.04426644182124789 
0.2431948424068768 0.3556590257879656 0.35207736389684813 0.049068767908309455 
0.16869158878504673 0.19953271028037384 0.444392523364486 0.18738317757009346 
0.11719670200235571 0.12426383981154299 0.26325088339222613 0.49528857479387517 
0.7236842105263158 0.19736842105263158 0.06578947368421052 0.013157894736842105 
0.40674603174603174 0.33134920634920634 0.20436507936507936 0.057539682539682536 
0.131496062992126 0.33937007874015745 0.43700787401574803 0.09212598425196851 
0.062246963562753034 0.13815789473684212 0.49544534412955465 0.3041497975708502 
0.032467532467532464 0.05920550038197097 0.2410236822001528 0.6673032849503437 
</TABLE>
</DEFINITION>
<DEFINITION>
<FOR>pixel57</FOR>
<GIVEN>pixel66</GIVEN>
<TABLE>
0.9997895622895623 7.014590347923682E-5 7.014590347923682E-5 7.014590347923682E-5 
9.871668311944718E-5 0.9997038499506417 9.871668311944718E-5 9.871668311944718E-5 
5.594092638174088E-5 5.594092638174088E-5 0.9998321772208548 5.594092638174088E-5 
6.590220113351786E-5 6.590220113351786E-5 6.590220113351786E-5 0.9998022933965994 
</TABLE>
</DEFINITION>
<DEFINITION>
<FOR>pixel58</FOR>
<GIVEN>pixel51</GIVEN>
<GIVEN>pixel53</GIVEN>
<TABLE>
0.8523704520396913 0.13550165380374862 0.01091510474090408 0.0012127894156560089 
0.6444805194805194 0.31764069264069267 0.035173160173160176 0.0027056277056277055 
0.5535714285714286 0.3273809523809524 0.1130952380952381 0.005952380952380952 
0.4807692307692308 0.28846153846153844 0.17307692307692307 0.057692307692307696 
0.3203125 0.5904017857142857 0.07924107142857142 0.010044642857142858 
0.12804645849200305 0.7607578065498858 0.10576923076923077 0.0054265041888804265 
0.1577490774907749 0.5747232472324724 0.2444649446494465 0.023062730627306273 
0.26063829787234044 0.3882978723404255 0.2393617021276596 0.11170212765957446 
0.13970588235294118 0.36519607843137253 0.3897058823529412 0.1053921568627451 
0.025730411686586987 0.3713479415670651 0.5801792828685259 0.022742363877822046 
0.014160931709899417 0.2028851244044468 0.7290894653255691 0.0538644785600847 
