<?xml version="1.0"?>
<!-- DTD for the XMLBIF 0.3 format -->
<!DOCTYPE BIF [
	<!ELEMENT BIF ( NETWORK )*>
	      <!ATTLIST BIF VERSION CDATA #REQUIRED>
	<!ELEMENT NETWORK ( NAME, ( PROPERTY | VARIABLE | DEFINITION )* )>
	<!ELEMENT NAME (#PCDATA)>
	<!ELEMENT VARIABLE ( NAME, ( OUTCOME |  PROPERTY )* ) >
	      <!ATTLIST VARIABLE TYPE (nature|decision|utility) "nature">
	<!ELEMENT OUTCOME (#PCDATA)>
	<!ELEMENT DEFINITION ( FOR | GIVEN | TABLE | PROPERTY )* >
	<!ELEMENT FOR (#PCDATA)>
	<!ELEMENT GIVEN (#PCDATA)>
	<!ELEMENT TABLE (#PCDATA)>
	<!ELEMENT PROPERTY (#PCDATA)>
]>


<BIF VERSION="0.3">
<NETWORK>
<NAME>faces-weka.filters.supervised.attribute.Discretize-Rfirst-last-precision6-weka.filters.unsupervised.attribute.ReplaceMissingValues</NAME>
<VARIABLE TYPE="nature">
<NAME>emotion</NAME>
<OUTCOME>angry</OUTCOME>
<OUTCOME>disgust</OUTCOME>
<OUTCOME>fear</OUTCOME>
<OUTCOME>happy</OUTCOME>
<OUTCOME>neutral</OUTCOME>
<OUTCOME>sad</OUTCOME>
<OUTCOME>surprise</OUTCOME>
</VARIABLE>
<VARIABLE TYPE="nature">
<NAME>pixel0</NAME>
<OUTCOME>&apos;\&apos;(-inf-0.448039]\&apos;&apos;</OUTCOME>
<OUTCOME>&apos;\&apos;(0.448039-0.685294]\&apos;&apos;</OUTCOME>
<OUTCOME>&apos;\&apos;(0.685294-0.789216]\&apos;&apos;</OUTCOME>
<OUTCOME>&apos;\&apos;(0.789216-inf)\&apos;&apos;</OUTCOME>
</VARIABLE>
<VARIABLE TYPE="nature">
<NAME>pixel1</NAME>
<OUTCOME>&apos;\&apos;(-inf-0.288725]\&apos;&apos;</OUTCOME>
<OUTCOME>&apos;\&apos;(0.288725-0.52451]\&apos;&apos;</OUTCOME>
<OUTCOME>&apos;\&apos;(0.52451-0.620098]\&apos;&apos;</OUTCOME>
<OUTCOME>&apos;\&apos;(0.620098-0.764216]\&apos;&apos;</OUTCOME>
<OUTCOME>&apos;\&apos;(0.764216-inf)\&apos;&apos;</OUTCOME>
</VARIABLE>
<VARIABLE TYPE="nature">
<NAME>pixel2</NAME>
<OUTCOME>&apos;\&apos;(-inf-0.230882]\&apos;&apos;</OUTCOME>
<OUTCOME>&apos;\&apos;(0.230882-0.40098]\&apos;&apos;</OUTCOME>
<OUTCOME>&apos;\&apos;(0.40098-0.661765]\&apos;&apos;</OUTCOME>
<OUTCOME>&apos;\&apos;(0.661765-0.757353]\&apos;&apos;</OUTCOME>
<OUTCOME>&apos;\&apos;(0.757353-inf)\&apos;&apos;</OUTCOME>
</VARIABLE>
<VARIABLE TYPE="nature">
<NAME>pixel3</NAME>
<OUTCOME>&apos;\&apos;(-inf-0.42598]\&apos;&apos;</OUTCOME>
<OUTCOME>&apos;\&apos;(0.42598-0.648039]\&apos;&apos;</OUTCOME>
<OUTCOME>&apos;\&apos;(0.648039-0.786275]\&apos;&apos;</OUTCOME>
<OUTCOME>&apos;\&apos;(0.786275-inf)\&apos;&apos;</OUTCOME>
</VARIABLE>
<VARIABLE TYPE="nature">
<NAME>pixel4</NAME>
<OUTCOME>&apos;\&apos;(-inf-0.408824]\&apos;&apos;</OUTCOME>
<OUTCOME>&apos;\&apos;(0.408824-0.696569]\&apos;&apos;</OUTCOME>
<OUTCOME>&apos;\&apos;(0.696569-0.783333]\&apos;&apos;</OUTCOME>
<OUTCOME>&apos;\&apos;(0.783333-inf)\&apos;&apos;</OUTCOME>
</VARIABLE>
<VARIABLE TYPE="nature">
<NAME>pixel5</NAME>
<OUTCOME>&apos;\&apos;(-inf-0.179412]\&apos;&apos;</OUTCOME>
<OUTCOME>&apos;\&apos;(0.179412-0.473529]\&apos;&apos;</OUTCOME>
<OUTCOME>&apos;\&apos;(0.473529-0.70049]\&apos;&apos;</OUTCOME>
<OUTCOME>&apos;\&apos;(0.70049-inf)\&apos;&apos;</OUTCOME>
</VARIABLE>
<VARIABLE TYPE="nature">
<NAME>pixel6</NAME>
<OUTCOME>&apos;\&apos;(-inf-0.378431]\&apos;&apos;</OUTCOME>
<OUTCOME>&apos;\&apos;(0.378431-0.656863]\&apos;&apos;</OUTCOME>
<OUTCOME>&apos;\&apos;(0.656863-0.779412]\&apos;&apos;</OUTCOME>
<OUTCOME>&apos;\&apos;(0.779412-inf)\&apos;&apos;</OUTCOME>
</VARIABLE>
<VARIABLE TYPE="nature">
<NAME>pixel7</NAME>
<OUTCOME>&apos;\&apos;(-inf-0.230392]\&apos;&apos;</OUTCOME>
<OUTCOME>&apos;\&apos;(0.230392-0.482353]\&apos;&apos;</OUTCOME>
<OUTCOME>&apos;\&apos;(0.482353-0.684314]\&apos;&apos;</OUTCOME>
<OUTCOME>&apos;\&apos;(0.684314-0.794608]\&apos;&apos;</OUTCOME>
<OUTCOME>&apos;\&apos;(0.794608-inf)\&apos;&apos;</OUTCOME>
</VARIABLE>
<VARIABLE TYPE="nature">
<NAME>pixel8</NAME>
<OUTCOME>&apos;\&apos;(-inf-0.47402]\&apos;&apos;</OUTCOME>
<OUTCOME>&apos;\&apos;(0.47402-0.7]\&apos;&apos;</OUTCOME>
<OUTCOME>&apos;\&apos;(0.7-0.796078]\&apos;&apos;</OUTCOME>
<OUTCOME>&apos;\&apos;(0.796078-inf)\&apos;&apos;</OUTCOME>
</VARIABLE>
<VARIABLE TYPE="nature">
<NAME>pixel9</NAME>
<OUTCOME>&apos;\&apos;(-inf-0.293137]\&apos;&apos;</OUTCOME>
<OUTCOME>&apos;\&apos;(0.293137-0.631863]\&apos;&apos;</OUTCOME>
<OUTCOME>&apos;\&apos;(0.631863-inf)\&apos;&apos;</OUTCOME>
</VARIABLE>
<VARIABLE TYPE="nature">
<NAME>pixel10</NAME>
<OUTCOME>&apos;\&apos;(-inf-0.170588]\&apos;&apos;</OUTCOME>
<OUTCOME>&apos;\&apos;(0.170588-0.601471]\&apos;&apos;</OUTCOME>
<OUTCOME>&apos;\&apos;(0.601471-inf)\&apos;&apos;</OUTCOME>
</VARIABLE>
<VARIABLE TYPE="nature">
<NAME>pixel11</NAME>
<OUTCOME>&apos;\&apos;(-inf-0.107353]\&apos;&apos;</OUTCOME>
<OUTCOME>&apos;\&apos;(0.107353-0.492157]\&apos;&apos;</OUTCOME>
<OUTCOME>&apos;\&apos;(0.492157-0.663235]\&apos;&apos;</OUTCOME>
<OUTCOME>&apos;\&apos;(0.663235-inf)\&apos;&apos;</OUTCOME>
</VARIABLE>
<VARIABLE TYPE="nature">
<NAME>pixel12</NAME>
<OUTCOME>&apos;\&apos;(-inf-0.505392]\&apos;&apos;</OUTCOME>
<OUTCOME>&apos;\&apos;(0.505392-inf)\&apos;&apos;</OUTCOME>
</VARIABLE>
<VARIABLE TYPE="nature">
<NAME>pixel13</NAME>
<OUTCOME>&apos;\&apos;(-inf-0.108824]\&apos;&apos;</OUTCOME>
<OUTCOME>&apos;\&apos;(0.108824-0.564706]\&apos;&apos;</OUTCOME>
<OUTCOME>&apos;\&apos;(0.564706-inf)\&apos;&apos;</OUTCOME>
</VARIABLE>
<VARIABLE TYPE="nature">
<NAME>pixel14</NAME>
<OUTCOME>&apos;\&apos;(-inf-0.152451]\&apos;&apos;</OUTCOME>
<OUTCOME>&apos;\&apos;(0.152451-0.585294]\&apos;&apos;</OUTCOME>
<OUTCOME>&apos;\&apos;(0.585294-inf)\&apos;&apos;</OUTCOME>
</VARIABLE>
<VARIABLE TYPE="nature">
<NAME>pixel15</NAME>
<OUTCOME>&apos;\&apos;(-inf-0.197059]\&apos;&apos;</OUTCOME>
<OUTCOME>&apos;\&apos;(0.197059-0.584314]\&apos;&apos;</OUTCOME>
<OUTCOME>&apos;\&apos;(0.584314-0.704902]\&apos;&apos;</OUTCOME>
<OUTCOME>&apos;\&apos;(0.704902-inf)\&apos;&apos;</OUTCOME>
</VARIABLE>
<VARIABLE TYPE="nature">
<NAME>pixel16</NAME>
<OUTCOME>&apos;\&apos;(-inf-0.318627]\&apos;&apos;</OUTCOME>
<OUTCOME>&apos;\&apos;(0.318627-0.589216]\&apos;&apos;</OUTCOME>
<OUTCOME>&apos;\&apos;(0.589216-0.706863]\&apos;&apos;</OUTCOME>
<OUTCOME>&apos;\&apos;(0.706863-inf)\&apos;&apos;</OUTCOME>
</VARIABLE>
<VARIABLE TYPE="nature">
<NAME>pixel17</NAME>
<OUTCOME>&apos;\&apos;(-inf-0.530392]\&apos;&apos;</OUTCOME>
<OUTCOME>&apos;\&apos;(0.530392-0.65049]\&apos;&apos;</OUTCOME>
<OUTCOME>&apos;\&apos;(0.65049-inf)\&apos;&apos;</OUTCOME>
</VARIABLE>
<VARIABLE TYPE="nature">
<NAME>pixel18</NAME>
<OUTCOME>&apos;\&apos;(-inf-0.567157]\&apos;&apos;</OUTCOME>
<OUTCOME>&apos;\&apos;(0.567157-0.716667]\&apos;&apos;</OUTCOME>
<OUTCOME>&apos;\&apos;(0.716667-inf)\&apos;&apos;</OUTCOME>
</VARIABLE>
<VARIABLE TYPE="nature">
<NAME>pixel19</NAME>
<OUTCOME>&apos;\&apos;(-inf-0.159314]\&apos;&apos;</OUTCOME>
<OUTCOME>&apos;\&apos;(0.159314-0.548529]\&apos;&apos;</OUTCOME>
<OUTCOME>&apos;\&apos;(0.548529-inf)\&apos;&apos;</OUTCOME>
</VARIABLE>
<VARIABLE TYPE="nature">
<NAME>pixel20</NAME>
<OUTCOME>&apos;\&apos;(-inf-0.017157]\&apos;&apos;</OUTCOME>
<OUTCOME>&apos;\&apos;(0.017157-0.733824]\&apos;&apos;</OUTCOME>
<OUTCOME>&apos;\&apos;(0.733824-0.972059]\&apos;&apos;</OUTCOME>
<OUTCOME>&apos;\&apos;(0.972059-inf)\&apos;&apos;</OUTCOME>
</VARIABLE>
<VARIABLE TYPE="nature">
<NAME>pixel21</NAME>
<OUTCOME>&apos;\&apos;(-inf-0.027941]\&apos;&apos;</OUTCOME>
<OUTCOME>&apos;\&apos;(0.027941-0.677941]\&apos;&apos;</OUTCOME>
<OUTCOME>&apos;\&apos;(0.677941-0.986765]\&apos;&apos;</OUTCOME>
<OUTCOME>&apos;\&apos;(0.986765-inf)\&apos;&apos;</OUTCOME>
</VARIABLE>
<VARIABLE TYPE="nature">
<NAME>pixel22</NAME>
<OUTCOME>&apos;\&apos;(-inf-0.606863]\&apos;&apos;</OUTCOME>
<OUTCOME>&apos;\&apos;(0.606863-0.976961]\&apos;&apos;</OUTCOME>
<OUTCOME>&apos;\&apos;(0.976961-inf)\&apos;&apos;</OUTCOME>
</VARIABLE>
<VARIABLE TYPE="nature">
<NAME>pixel23</NAME>
<OUTCOME>&apos;\&apos;(-inf-0.584314]\&apos;&apos;</OUTCOME>
<OUTCOME>&apos;\&apos;(0.584314-0.957353]\&apos;&apos;</OUTCOME>
<OUTCOME>&apos;\&apos;(0.957353-inf)\&apos;&apos;</OUTCOME>
</VARIABLE>
<VARIABLE TYPE="nature">
<NAME>pixel24</NAME>
<OUTCOME>&apos;\&apos;(-inf-0.585294]\&apos;&apos;</OUTCOME>
<OUTCOME>&apos;\&apos;(0.585294-0.985784]\&apos;&apos;</OUTCOME>
<OUTCOME>&apos;\&apos;(0.985784-inf)\&apos;&apos;</OUTCOME>
</VARIABLE>
<VARIABLE TYPE="nature">
<NAME>pixel25</NAME>
<OUTCOME>&apos;\&apos;(-inf-0.026961]\&apos;&apos;</OUTCOME>
<OUTCOME>&apos;\&apos;(0.026961-0.305392]\&apos;&apos;</OUTCOME>
<OUTCOME>&apos;\&apos;(0.305392-0.661765]\&apos;&apos;</OUTCOME>
<OUTCOME>&apos;\&apos;(0.661765-0.957353]\&apos;&apos;</OUTCOME>
<OUTCOME>&apos;\&apos;(0.957353-inf)\&apos;&apos;</OUTCOME>
</VARIABLE>
<VARIABLE TYPE="nature">
<NAME>pixel26</NAME>
<OUTCOME>&apos;\&apos;(-inf-0.630882]\&apos;&apos;</OUTCOME>
<OUTCOME>&apos;\&apos;(0.630882-0.970588]\&apos;&apos;</OUTCOME>
<OUTCOME>&apos;\&apos;(0.970588-inf)\&apos;&apos;</OUTCOME>
</VARIABLE>
<VARIABLE TYPE="nature">
<NAME>pixel27</NAME>
<OUTCOME>&apos;\&apos;(-inf-0.568137]\&apos;&apos;</OUTCOME>
<OUTCOME>&apos;\&apos;(0.568137-0.794608]\&apos;&apos;</OUTCOME>
<OUTCOME>&apos;\&apos;(0.794608-0.990686]\&apos;&apos;</OUTCOME>
<OUTCOME>&apos;\&apos;(0.990686-inf)\&apos;&apos;</OUTCOME>
</VARIABLE>
<VARIABLE TYPE="nature">
<NAME>pixel28</NAME>
<OUTCOME>&apos;\&apos;(-inf-0.553922]\&apos;&apos;</OUTCOME>
<OUTCOME>&apos;\&apos;(0.553922-0.74902]\&apos;&apos;</OUTCOME>
<OUTCOME>&apos;\&apos;(0.74902-0.983333]\&apos;&apos;</OUTCOME>
<OUTCOME>&apos;\&apos;(0.983333-inf)\&apos;&apos;</OUTCOME>
</VARIABLE>
<VARIABLE TYPE="nature">
<NAME>pixel29</NAME>
<OUTCOME>&apos;\&apos;(-inf-0.012255]\&apos;&apos;</OUTCOME>
<OUTCOME>&apos;\&apos;(0.012255-0.687255]\&apos;&apos;</OUTCOME>
<OUTCOME>&apos;\&apos;(0.687255-0.967647]\&apos;&apos;</OUTCOME>
<OUTCOME>&apos;\&apos;(0.967647-inf)\&apos;&apos;</OUTCOME>
</VARIABLE>
<VARIABLE TYPE="nature">
<NAME>pixel30</NAME>
<OUTCOME>&apos;\&apos;(-inf-0.133333]\&apos;&apos;</OUTCOME>
<OUTCOME>&apos;\&apos;(0.133333-0.215196]\&apos;&apos;</OUTCOME>
<OUTCOME>&apos;\&apos;(0.215196-0.420588]\&apos;&apos;</OUTCOME>
<OUTCOME>&apos;\&apos;(0.420588-0.621078]\&apos;&apos;</OUTCOME>
<OUTCOME>&apos;\&apos;(0.621078-inf)\&apos;&apos;</OUTCOME>
</VARIABLE>
<VARIABLE TYPE="nature">
<NAME>pixel31</NAME>
<OUTCOME>&apos;\&apos;(-inf-0.160784]\&apos;&apos;</OUTCOME>
<OUTCOME>&apos;\&apos;(0.160784-0.365686]\&apos;&apos;</OUTCOME>
<OUTCOME>&apos;\&apos;(0.365686-0.573529]\&apos;&apos;</OUTCOME>
<OUTCOME>&apos;\&apos;(0.573529-0.734804]\&apos;&apos;</OUTCOME>
<OUTCOME>&apos;\&apos;(0.734804-inf)\&apos;&apos;</OUTCOME>
</VARIABLE>
<VARIABLE TYPE="nature">
<NAME>pixel32</NAME>
<OUTCOME>&apos;\&apos;(-inf-0.194608]\&apos;&apos;</OUTCOME>
<OUTCOME>&apos;\&apos;(0.194608-0.286765]\&apos;&apos;</OUTCOME>
<OUTCOME>&apos;\&apos;(0.286765-0.492157]\&apos;&apos;</OUTCOME>
<OUTCOME>&apos;\&apos;(0.492157-inf)\&apos;&apos;</OUTCOME>
</VARIABLE>
<VARIABLE TYPE="nature">
<NAME>pixel33</NAME>
<OUTCOME>&apos;\&apos;(-inf-0.151961]\&apos;&apos;</OUTCOME>
<OUTCOME>&apos;\&apos;(0.151961-0.27549]\&apos;&apos;</OUTCOME>
<OUTCOME>&apos;\&apos;(0.27549-0.558824]\&apos;&apos;</OUTCOME>
<OUTCOME>&apos;\&apos;(0.558824-inf)\&apos;&apos;</OUTCOME>
</VARIABLE>
<VARIABLE TYPE="nature">
<NAME>pixel34</NAME>
<OUTCOME>&apos;\&apos;(-inf-0.161765]\&apos;&apos;</OUTCOME>
<OUTCOME>&apos;\&apos;(0.161765-0.402451]\&apos;&apos;</OUTCOME>
<OUTCOME>&apos;\&apos;(0.402451-0.571078]\&apos;&apos;</OUTCOME>
<OUTCOME>&apos;\&apos;(0.571078-inf)\&apos;&apos;</OUTCOME>
</VARIABLE>
<VARIABLE TYPE="nature">
<NAME>pixel35</NAME>
<OUTCOME>&apos;\&apos;(-inf-0.178922]\&apos;&apos;</OUTCOME>
<OUTCOME>&apos;\&apos;(0.178922-0.280882]\&apos;&apos;</OUTCOME>
<OUTCOME>&apos;\&apos;(0.280882-0.40098]\&apos;&apos;</OUTCOME>
<OUTCOME>&apos;\&apos;(0.40098-0.560294]\&apos;&apos;</OUTCOME>
<OUTCOME>&apos;\&apos;(0.560294-inf)\&apos;&apos;</OUTCOME>
</VARIABLE>
<VARIABLE TYPE="nature">
<NAME>pixel36</NAME>
<OUTCOME>&apos;\&apos;(-inf-0.177451]\&apos;&apos;</OUTCOME>
<OUTCOME>&apos;\&apos;(0.177451-0.455392]\&apos;&apos;</OUTCOME>
<OUTCOME>&apos;\&apos;(0.455392-0.542647]\&apos;&apos;</OUTCOME>
<OUTCOME>&apos;\&apos;(0.542647-inf)\&apos;&apos;</OUTCOME>
</VARIABLE>
<VARIABLE TYPE="nature">
<NAME>pixel37</NAME>
<OUTCOME>&apos;\&apos;(-inf-0.146569]\&apos;&apos;</OUTCOME>
<OUTCOME>&apos;\&apos;(0.146569-0.422059]\&apos;&apos;</OUTCOME>
<OUTCOME>&apos;\&apos;(0.422059-0.578431]\&apos;&apos;</OUTCOME>
<OUTCOME>&apos;\&apos;(0.578431-inf)\&apos;&apos;</OUTCOME>
</VARIABLE>
<VARIABLE TYPE="nature">
<NAME>pixel38</NAME>
<OUTCOME>&apos;\&apos;(-inf-0.156373]\&apos;&apos;</OUTCOME>
<OUTCOME>&apos;\&apos;(0.156373-0.394118]\&apos;&apos;</OUTCOME>
<OUTCOME>&apos;\&apos;(0.394118-0.543627]\&apos;&apos;</OUTCOME>
<OUTCOME>&apos;\&apos;(0.543627-inf)\&apos;&apos;</OUTCOME>
</VARIABLE>
<VARIABLE TYPE="nature">
<NAME>pixel39</NAME>
<OUTCOME>&apos;\&apos;(-inf-0.163235]\&apos;&apos;</OUTCOME>
<OUTCOME>&apos;\&apos;(0.163235-0.362255]\&apos;&apos;</OUTCOME>
<OUTCOME>&apos;\&apos;(0.362255-0.479902]\&apos;&apos;</OUTCOME>
<OUTCOME>&apos;\&apos;(0.479902-0.711765]\&apos;&apos;</OUTCOME>
<OUTCOME>&apos;\&apos;(0.711765-inf)\&apos;&apos;</OUTCOME>
</VARIABLE>
<VARIABLE TYPE="nature">
<NAME>pixel40</NAME>
<OUTCOME>&apos;\&apos;(-inf-0.115686]\&apos;&apos;</OUTCOME>
<OUTCOME>&apos;\&apos;(0.115686-0.337255]\&apos;&apos;</OUTCOME>
<OUTCOME>&apos;\&apos;(0.337255-inf)\&apos;&apos;</OUTCOME>
</VARIABLE>
<VARIABLE TYPE="nature">
<NAME>pixel41</NAME>
<OUTCOME>&apos;\&apos;(-inf-0.030882]\&apos;&apos;</OUTCOME>
<OUTCOME>&apos;\&apos;(0.030882-0.286275]\&apos;&apos;</OUTCOME>
<OUTCOME>&apos;\&apos;(0.286275-0.971078]\&apos;&apos;</OUTCOME>
<OUTCOME>&apos;\&apos;(0.971078-inf)\&apos;&apos;</OUTCOME>
</VARIABLE>
<VARIABLE TYPE="nature">
<NAME>pixel42</NAME>
<OUTCOME>&apos;\&apos;(-inf-0.434314]\&apos;&apos;</OUTCOME>
<OUTCOME>&apos;\&apos;(0.434314-0.981373]\&apos;&apos;</OUTCOME>
<OUTCOME>&apos;\&apos;(0.981373-inf)\&apos;&apos;</OUTCOME>
</VARIABLE>
<VARIABLE TYPE="nature">
<NAME>pixel43</NAME>
<OUTCOME>&apos;\&apos;(-inf-0.00049]\&apos;&apos;</OUTCOME>
<OUTCOME>&apos;\&apos;(0.00049-0.187255]\&apos;&apos;</OUTCOME>
<OUTCOME>&apos;\&apos;(0.187255-0.604902]\&apos;&apos;</OUTCOME>
<OUTCOME>&apos;\&apos;(0.604902-0.971569]\&apos;&apos;</OUTCOME>
<OUTCOME>&apos;\&apos;(0.971569-inf)\&apos;&apos;</OUTCOME>
</VARIABLE>
<VARIABLE TYPE="nature">
<NAME>pixel44</NAME>
<OUTCOME>&apos;\&apos;(-inf-0.155882]\&apos;&apos;</OUTCOME>
<OUTCOME>&apos;\&apos;(0.155882-0.512255]\&apos;&apos;</OUTCOME>
<OUTCOME>&apos;\&apos;(0.512255-0.962255]\&apos;&apos;</OUTCOME>
<OUTCOME>&apos;\&apos;(0.962255-inf)\&apos;&apos;</OUTCOME>
</VARIABLE>
<VARIABLE TYPE="nature">
<NAME>pixel45</NAME>
<OUTCOME>&apos;\&apos;(-inf-0.122059]\&apos;&apos;</OUTCOME>
<OUTCOME>&apos;\&apos;(0.122059-0.523529]\&apos;&apos;</OUTCOME>
<OUTCOME>&apos;\&apos;(0.523529-0.978922]\&apos;&apos;</OUTCOME>
<OUTCOME>&apos;\&apos;(0.978922-inf)\&apos;&apos;</OUTCOME>
</VARIABLE>
<VARIABLE TYPE="nature">
<NAME>pixel46</NAME>
<OUTCOME>&apos;\&apos;(-inf-0.093137]\&apos;&apos;</OUTCOME>
<OUTCOME>&apos;\&apos;(0.093137-0.542157]\&apos;&apos;</OUTCOME>
<OUTCOME>&apos;\&apos;(0.542157-inf)\&apos;&apos;</OUTCOME>
</VARIABLE>
<VARIABLE TYPE="nature">
<NAME>pixel47</NAME>
<OUTCOME>&apos;\&apos;(-inf-0.089216]\&apos;&apos;</OUTCOME>
<OUTCOME>&apos;\&apos;(0.089216-0.429412]\&apos;&apos;</OUTCOME>
<OUTCOME>&apos;\&apos;(0.429412-inf)\&apos;&apos;</OUTCOME>
</VARIABLE>
<VARIABLE TYPE="nature">
<NAME>pixel48</NAME>
<OUTCOME>&apos;\&apos;(-inf-0.10098]\&apos;&apos;</OUTCOME>
<OUTCOME>&apos;\&apos;(0.10098-0.535784]\&apos;&apos;</OUTCOME>
<OUTCOME>&apos;\&apos;(0.535784-inf)\&apos;&apos;</OUTCOME>
</VARIABLE>
<VARIABLE TYPE="nature">
<NAME>pixel49</NAME>
<OUTCOME>&apos;\&apos;(-inf-0.103431]\&apos;&apos;</OUTCOME>
<OUTCOME>&apos;\&apos;(0.103431-0.461765]\&apos;&apos;</OUTCOME>
<OUTCOME>&apos;\&apos;(0.461765-0.775]\&apos;&apos;</OUTCOME>
<OUTCOME>&apos;\&apos;(0.775-inf)\&apos;&apos;</OUTCOME>
</VARIABLE>
<VARIABLE TYPE="nature">
<NAME>pixel50</NAME>
<OUTCOME>&apos;\&apos;(-inf-0.326471]\&apos;&apos;</OUTCOME>
<OUTCOME>&apos;\&apos;(0.326471-0.578922]\&apos;&apos;</OUTCOME>
<OUTCOME>&apos;\&apos;(0.578922-0.631863]\&apos;&apos;</OUTCOME>
<OUTCOME>&apos;\&apos;(0.631863-0.77549]\&apos;&apos;</OUTCOME>
<OUTCOME>&apos;\&apos;(0.77549-inf)\&apos;&apos;</OUTCOME>
</VARIABLE>
<VARIABLE TYPE="nature">
<NAME>pixel51</NAME>
<OUTCOME>&apos;\&apos;(-inf-0.430882]\&apos;&apos;</OUTCOME>
<OUTCOME>&apos;\&apos;(0.430882-0.614706]\&apos;&apos;</OUTCOME>
<OUTCOME>&apos;\&apos;(0.614706-0.745098]\&apos;&apos;</OUTCOME>
<OUTCOME>&apos;\&apos;(0.745098-inf)\&apos;&apos;</OUTCOME>
</VARIABLE>
<VARIABLE TYPE="nature">
<NAME>pixel52</NAME>
<OUTCOME>&apos;\&apos;(-inf-0.465686]\&apos;&apos;</OUTCOME>
<OUTCOME>&apos;\&apos;(0.465686-0.638725]\&apos;&apos;</OUTCOME>
<OUTCOME>&apos;\&apos;(0.638725-0.772059]\&apos;&apos;</OUTCOME>
<OUTCOME>&apos;\&apos;(0.772059-inf)\&apos;&apos;</OUTCOME>
</VARIABLE>
<VARIABLE TYPE="nature">
<NAME>pixel53</NAME>
<OUTCOME>&apos;\&apos;(-inf-0.459804]\&apos;&apos;</OUTCOME>
<OUTCOME>&apos;\&apos;(0.459804-0.684804]\&apos;&apos;</OUTCOME>
<OUTCOME>&apos;\&apos;(0.684804-0.79902]\&apos;&apos;</OUTCOME>
<OUTCOME>&apos;\&apos;(0.79902-inf)\&apos;&apos;</OUTCOME>
</VARIABLE>
<VARIABLE TYPE="nature">
<NAME>pixel54</NAME>
<OUTCOME>&apos;\&apos;(-inf-0.385294]\&apos;&apos;</OUTCOME>
<OUTCOME>&apos;\&apos;(0.385294-0.57598]\&apos;&apos;</OUTCOME>
<OUTCOME>&apos;\&apos;(0.57598-0.768137]\&apos;&apos;</OUTCOME>
<OUTCOME>&apos;\&apos;(0.768137-inf)\&apos;&apos;</OUTCOME>
</VARIABLE>
<VARIABLE TYPE="nature">
<NAME>pixel55</NAME>
<OUTCOME>&apos;\&apos;(-inf-0.34951]\&apos;&apos;</OUTCOME>
<OUTCOME>&apos;\&apos;(0.34951-0.573529]\&apos;&apos;</OUTCOME>
<OUTCOME>&apos;\&apos;(0.573529-0.763235]\&apos;&apos;</OUTCOME>
<OUTCOME>&apos;\&apos;(0.763235-inf)\&apos;&apos;</OUTCOME>
</VARIABLE>
<VARIABLE TYPE="nature">
<NAME>pixel56</NAME>
<OUTCOME>&apos;\&apos;(-inf-0.427451]\&apos;&apos;</OUTCOME>
<OUTCOME>&apos;\&apos;(0.427451-0.610784]\&apos;&apos;</OUTCOME>
<OUTCOME>&apos;\&apos;(0.610784-0.780392]\&apos;&apos;</OUTCOME>
<OUTCOME>&apos;\&apos;(0.780392-inf)\&apos;&apos;</OUTCOME>
</VARIABLE>
<VARIABLE TYPE="nature">
<NAME>pixel57</NAME>
<OUTCOME>&apos;\&apos;(-inf-0.455882]\&apos;&apos;</OUTCOME>
<OUTCOME>&apos;\&apos;(0.455882-0.577941]\&apos;&apos;</OUTCOME>
<OUTCOME>&apos;\&apos;(0.577941-0.741667]\&apos;&apos;</OUTCOME>
<OUTCOME>&apos;\&apos;(0.741667-inf)\&apos;&apos;</OUTCOME>
</VARIABLE>
<VARIABLE TYPE="nature">
<NAME>pixel58</NAME>
<OUTCOME>&apos;\&apos;(-inf-0.414706]\&apos;&apos;</OUTCOME>
<OUTCOME>&apos;\&apos;(0.414706-0.620098]\&apos;&apos;</OUTCOME>
<OUTCOME>&apos;\&apos;(0.620098-0.767157]\&apos;&apos;</OUTCOME>
<OUTCOME>&apos;\&apos;(0.767157-inf)\&apos;&apos;</OUTCOME>
</VARIABLE>
<VARIABLE TYPE="nature">
<NAME>pixel59</NAME>
<OUTCOME>&apos;\&apos;(-inf-0.45]\&apos;&apos;</OUTCOME>
<OUTCOME>&apos;\&apos;(0.45-0.614216]\&apos;&apos;</OUTCOME>
<OUTCOME>&apos;\&apos;(0.614216-0.765686]\&apos;&apos;</OUTCOME>
<OUTCOME>&apos;\&apos;(0.765686-inf)\&apos;&apos;</OUTCOME>
</VARIABLE>
<VARIABLE TYPE="nature">
<NAME>pixel60</NAME>
<OUTCOME>&apos;\&apos;(-inf-0.242157]\&apos;&apos;</OUTCOME>
<OUTCOME>&apos;\&apos;(0.242157-0.481863]\&apos;&apos;</OUTCOME>
<OUTCOME>&apos;\&apos;(0.481863-0.67549]\&apos;&apos;</OUTCOME>
<OUTCOME>&apos;\&apos;(0.67549-0.822059]\&apos;&apos;</OUTCOME>
<OUTCOME>&apos;\&apos;(0.822059-inf)\&apos;&apos;</OUTCOME>
</VARIABLE>
<VARIABLE TYPE="nature">
<NAME>pixel61</NAME>
<OUTCOME>&apos;\&apos;(-inf-0.24951]\&apos;&apos;</OUTCOME>
<OUTCOME>&apos;\&apos;(0.24951-0.485294]\&apos;&apos;</OUTCOME>
<OUTCOME>&apos;\&apos;(0.485294-0.652941]\&apos;&apos;</OUTCOME>
<OUTCOME>&apos;\&apos;(0.652941-0.775]\&apos;&apos;</OUTCOME>
<OUTCOME>&apos;\&apos;(0.775-inf)\&apos;&apos;</OUTCOME>
</VARIABLE>
<VARIABLE TYPE="nature">
<NAME>pixel62</NAME>
<OUTCOME>&apos;\&apos;(-inf-0.448039]\&apos;&apos;</OUTCOME>
<OUTCOME>&apos;\&apos;(0.448039-0.685294]\&apos;&apos;</OUTCOME>
<OUTCOME>&apos;\&apos;(0.685294-0.789216]\&apos;&apos;</OUTCOME>
<OUTCOME>&apos;\&apos;(0.789216-inf)\&apos;&apos;</OUTCOME>
</VARIABLE>
<VARIABLE TYPE="nature">
<NAME>pixel63</NAME>
<OUTCOME>&apos;\&apos;(-inf-0.428922]\&apos;&apos;</OUTCOME>
<OUTCOME>&apos;\&apos;(0.428922-0.598039]\&apos;&apos;</OUTCOME>
<OUTCOME>&apos;\&apos;(0.598039-0.75]\&apos;&apos;</OUTCOME>
<OUTCOME>&apos;\&apos;(0.75-inf)\&apos;&apos;</OUTCOME>
</VARIABLE>
<VARIABLE TYPE="nature">
<NAME>pixel64</NAME>
<OUTCOME>&apos;\&apos;(-inf-0.385294]\&apos;&apos;</OUTCOME>
<OUTCOME>&apos;\&apos;(0.385294-0.57598]\&apos;&apos;</OUTCOME>
<OUTCOME>&apos;\&apos;(0.57598-0.768137]\&apos;&apos;</OUTCOME>
<OUTCOME>&apos;\&apos;(0.768137-inf)\&apos;&apos;</OUTCOME>
</VARIABLE>
<VARIABLE TYPE="nature">
<NAME>pixel65</NAME>
<OUTCOME>&apos;\&apos;(-inf-0.347059]\&apos;&apos;</OUTCOME>
<OUTCOME>&apos;\&apos;(0.347059-0.642157]\&apos;&apos;</OUTCOME>
<OUTCOME>&apos;\&apos;(0.642157-0.79902]\&apos;&apos;</OUTCOME>
<OUTCOME>&apos;\&apos;(0.79902-inf)\&apos;&apos;</OUTCOME>
</VARIABLE>
<VARIABLE TYPE="nature">
<NAME>pixel66</NAME>
<OUTCOME>&apos;\&apos;(-inf-0.455882]\&apos;&apos;</OUTCOME>
<OUTCOME>&apos;\&apos;(0.455882-0.577941]\&apos;&apos;</OUTCOME>
<OUTCOME>&apos;\&apos;(0.577941-0.741667]\&apos;&apos;</OUTCOME>
<OUTCOME>&apos;\&apos;(0.741667-inf)\&apos;&apos;</OUTCOME>
</VARIABLE>
<VARIABLE TYPE="nature">
<NAME>pixel67</NAME>
<OUTCOME>&apos;\&apos;(-inf-0.358824]\&apos;&apos;</OUTCOME>
<OUTCOME>&apos;\&apos;(0.358824-0.635294]\&apos;&apos;</OUTCOME>
<OUTCOME>&apos;\&apos;(0.635294-0.725]\&apos;&apos;</OUTCOME>
<OUTCOME>&apos;\&apos;(0.725-inf)\&apos;&apos;</OUTCOME>
</VARIABLE>
<VARIABLE TYPE="nature">
<NAME>pixel68</NAME>
<OUTCOME>&apos;\&apos;(-inf-0.42598]\&apos;&apos;</OUTCOME>
<OUTCOME>&apos;\&apos;(0.42598-0.648039]\&apos;&apos;</OUTCOME>
<OUTCOME>&apos;\&apos;(0.648039-0.786275]\&apos;&apos;</OUTCOME>
<OUTCOME>&apos;\&apos;(0.786275-inf)\&apos;&apos;</OUTCOME>
</VARIABLE>
<VARIABLE TYPE="nature">
<NAME>pixel69</NAME>
<OUTCOME>&apos;\&apos;(-inf-0.188235]\&apos;&apos;</OUTCOME>
<OUTCOME>&apos;\&apos;(0.188235-0.429412]\&apos;&apos;</OUTCOME>
<OUTCOME>&apos;\&apos;(0.429412-0.602941]\&apos;&apos;</OUTCOME>
<OUTCOME>&apos;\&apos;(0.602941-0.716176]\&apos;&apos;</OUTCOME>
<OUTCOME>&apos;\&apos;(0.716176-0.793627]\&apos;&apos;</OUTCOME>
<OUTCOME>&apos;\&apos;(0.793627-inf)\&apos;&apos;</OUTCOME>
</VARIABLE>
<DEFINITION>
<FOR>emotion</FOR>
<TABLE>
0.13789680812161526 0.01495812074459749 0.14266808295749386 0.25080537029620215 0.17185296115067825 0.1699374858516029 0.11188117087781009 
</TABLE>
</DEFINITION>
<DEFINITION>
<FOR>pixel0</FOR>
<GIVEN>pixel62</GIVEN>
<TABLE>
0.9997697267424009 7.675775253300584E-5 7.675775253300584E-5 7.675775253300584E-5 
4.2951636457349025E-5 0.9998711450906279 4.2951636457349025E-5 4.2951636457349025E-5 
8.813678829543451E-5 8.813678829543451E-5 0.9997355896351137 8.813678829543451E-5 
1.0224948875255624E-4 1.0224948875255624E-4 1.0224948875255624E-4 0.9996932515337423 
</TABLE>
</DEFINITION>
<DEFINITION>
<FOR>pixel1</FOR>
<GIVEN>pixel6</GIVEN>
<GIVEN>pixel65</GIVEN>
<GIVEN>pixel3</GIVEN>
<TABLE>
0.6572176188399477 0.32839075447012644 0.008286088094199739 0.004797208896641954 0.0013083296990841692 
0.5565891472868217 0.4108527131782946 0.023255813953488372 0.004651162790697674 0.004651162790697674 
0.6476683937823834 0.2849740932642487 0.025906735751295335 0.015544041450777202 0.025906735751295335 
0.6263736263736264 0.34065934065934067 0.01098901098901099 0.01098901098901099 0.01098901098901099 
0.44325481798715205 0.5303354746609564 0.02069950035688794 0.004996431120628123 7.137758743754461E-4 
0.37082314588427057 0.5762021189894051 0.04482477587612062 0.0057049714751426246 0.0024449877750611247 
0.47075208913649025 0.4986072423398329 0.013927576601671309 0.013927576601671309 0.002785515320334262 
0.41007194244604317 0.4676258992805755 0.03597122302158273 0.07913669064748201 0.007194244604316547 
0.46255506607929514 0.45374449339207046 0.030837004405286344 0.048458149779735685 0.004405286343612335 
0.4581673306772908 0.4262948207171315 0.06772908366533864 0.043824701195219126 0.00398406374501992 
0.3603238866396761 0.4979757085020243 0.06882591093117409 0.06072874493927125 0.012145748987854251 
0.3577981651376147 0.46788990825688076 0.08256880733944955 0.08256880733944955 0.009174311926605505 
0.5064935064935064 0.3246753246753247 0.06493506493506493 0.09090909090909091 0.012987012987012988 
0.4098360655737705 0.3442622950819672 0.08196721311475409 0.11475409836065574 0.04918032786885246 
0.38666666666666666 0.49333333333333335 0.04 0.04 0.04 
0.424 0.392 0.04 0.072 0.072 
0.0873440285204991 0.7052881758764111 0.15745692216280452 0.046939988116458706 0.0029708853238265003 
0.046420141620771044 0.6176239181746657 0.23052714398111723 0.0936270653029111 0.011801730920535013 
0.036619718309859155 0.5267605633802817 0.29014084507042254 0.1267605633802817 0.01971830985915493 
0.04 0.52 0.3333333333333333 0.06666666666666667 0.04 
0.04853848216680075 0.6175918476803433 0.24161973719495844 0.08447304907481899 0.007776883883078573 
0.020645697658306775 0.483996120271581 0.3573506997367327 0.13204932797561314 0.005958154357766385 
0.02382212811011117 0.4007411328745368 0.38274219163578616 0.1868713605082054 0.005823186871360508 
0.020785219399538105 0.40415704387990764 0.302540415704388 0.23325635103926096 0.03926096997690531 
0.05174825174825175 0.45454545454545453 0.24475524475524477 0.21958041958041957 0.02937062937062937 
0.019972131908964234 0.3088713423130516 0.3766836971667441 0.2810032512772875 0.013469577333952624 
0.017334130304841603 0.269575612671847 0.3759713090257023 0.3114166168559474 0.025702331141661684 
0.03130148270181219 0.34761120263591433 0.30807248764415157 0.2685337726523888 0.044481054365733116 
0.048458149779735685 0.42731277533039647 0.2599118942731278 0.18061674008810572 0.08370044052863436 
0.043137254901960784 0.36470588235294116 0.30980392156862746 0.20784313725490197 0.07450980392156863 
0.02535211267605634 0.3352112676056338 0.24507042253521127 0.30704225352112674 0.08732394366197183 
0.014925373134328358 0.39104477611940297 0.1880597014925373 0.30149253731343284 0.1044776119402985 
0.00411522633744856 0.1934156378600823 0.22633744855967078 0.48148148148148145 0.09465020576131687 
0.0029154518950437317 0.10204081632653061 0.17784256559766765 0.6268221574344023 0.09037900874635568 
0.014778325123152709 0.09359605911330049 0.1724137931034483 0.6157635467980296 0.10344827586206896 
0.015873015873015872 0.047619047619047616 0.14285714285714285 0.4603174603174603 0.3333333333333333 
0.017462165308498253 0.12922002328288706 0.23166472642607683 0.5483119906868452 0.07334109429569266 
0.0012981393336218088 0.059281696235395934 0.22977066205106014 0.6520986585893552 0.05755084379056685 
0.001866832607342875 0.03920348475420037 0.1537025513378967 0.7274424393279403 0.0777846919726198 
0.002457002457002457 0.04668304668304668 0.09582309582309582 0.6756756756756757 0.17936117936117937 
0.015025041736227046 0.09849749582637729 0.11519198664440734 0.5826377295492488 0.18864774624373956 
0.0021285653469561515 0.05065985525755641 0.1587909748829289 0.6790123456790124 0.10940825883354618 
0.002335669002335669 0.022355689022355688 0.0970970970970971 0.7310643977310644 0.14714714714714713 
0.0036809815950920245 0.023312883435582823 0.12147239263803682 0.6122699386503068 0.2392638036809816 
0.0196078431372549 0.13725490196078433 0.08496732026143791 0.5424836601307189 0.21568627450980393 
0.0024691358024691358 0.037037037037037035 0.1506172839506173 0.5358024691358024 0.2740740740740741 
0.004366812227074236 0.03056768558951965 0.06841339155749636 0.6564774381368268 0.24017467248908297 
0.007072135785007072 0.03253182461103253 0.09193776520509193 0.5983026874115983 0.27015558698727016 
0.008 0.04 0.088 0.2 0.664 
0.007633587786259542 0.022900763358778626 0.05343511450381679 0.37404580152671757 0.5419847328244275 
0.021897810218978103 0.0364963503649635 0.08029197080291971 0.2846715328467153 0.5766423357664233 
0.008403361344537815 0.025210084033613446 0.008403361344537815 0.12605042016806722 0.8319327731092437 
0.0030211480362537764 0.027190332326283987 0.12386706948640483 0.24471299093655588 0.6012084592145015 
0.0046801872074883 0.0234009360374415 0.0514820592823713 0.35725429017160687 0.5631825273010921 
0.0013422818791946308 0.0174496644295302 0.025503355704697986 0.3073825503355705 0.6483221476510067 
0.0019047619047619048 0.013333333333333334 0.02857142857142857 0.15428571428571428 0.8019047619047619 
0.007481296758104738 0.02743142144638404 0.05236907730673317 0.3316708229426434 0.5810473815461347 
9.478672985781991E-4 0.01042654028436019 0.035071090047393366 0.35545023696682465 0.5981042654028436 
6.191950464396285E-4 0.0043343653250774 0.017956656346749224 0.3077399380804954 0.6693498452012384 
0.002288329519450801 0.006864988558352402 0.011441647597254004 0.16094584286803967 0.8184591914569032 
0.00303951367781155 0.03951367781155015 0.03343465045592705 0.19148936170212766 0.7325227963525835 
0.00646830530401035 0.01164294954721863 0.02199223803363519 0.2056921086675291 0.7542043984476067 
6.246096189881324E-4 0.003123048094940662 0.009369144284821987 0.1967520299812617 0.7901311680199875 
3.757985719654265E-4 0.006388575723412251 0.007140172867343104 0.07027433295753475 0.9158211198797445 
</TABLE>
</DEFINITION>
<DEFINITION>
<FOR>pixel2</FOR>
<GIVEN>pixel7</GIVEN>
<GIVEN>pixel0</GIVEN>
<GIVEN>pixel3</GIVEN>
<TABLE>
0.7773174520973589 0.20455722423614708 0.015018125323666495 0.002589331952356292 5.178663904712584E-4 
0.43703703703703706 0.4222222222222222 0.1259259259259259 0.007407407407407408 0.007407407407407408 
0.5172413793103449 0.1724137931034483 0.2413793103448276 0.034482758620689655 0.034482758620689655 
0.2727272727272727 0.2727272727272727 0.2727272727272727 0.09090909090909091 0.09090909090909091 
0.46938775510204084 0.22448979591836735 0.22448979591836735 0.061224489795918366 0.02040816326530612 
0.23809523809523808 0.3142857142857143 0.4095238095238095 0.02857142857142857 0.009523809523809525 
0.3793103448275862 0.2413793103448276 0.3103448275862069 0.034482758620689655 0.034482758620689655 
0.14285714285714285 0.42857142857142855 0.14285714285714285 0.14285714285714285 0.14285714285714285 
0.42857142857142855 0.14285714285714285 0.14285714285714285 0.14285714285714285 0.14285714285714285 
0.1111111111111111 0.1111111111111111 0.5555555555555556 0.1111111111111111 0.1111111111111111 
0.058823529411764705 0.29411764705882354 0.4117647058823529 0.058823529411764705 0.17647058823529413 
0.1111111111111111 0.3333333333333333 0.3333333333333333 0.1111111111111111 0.1111111111111111 
0.2 0.2 0.2 0.2 0.2 
0.14285714285714285 0.14285714285714285 0.14285714285714285 0.14285714285714285 0.42857142857142855 
0.14285714285714285 0.14285714285714285 0.42857142857142855 0.14285714285714285 0.14285714285714285 
0.23076923076923078 0.23076923076923078 0.23076923076923078 0.23076923076923078 0.07692307692307693 
0.13706055443704507 0.6416292395849466 0.21821279231841412 0.002323060244695679 7.743534148985597E-4 
0.08058326937835764 0.4059861857252494 0.5057559478127398 0.006907137375287797 7.674597083653108E-4 
0.13043478260869565 0.42028985507246375 0.36231884057971014 0.043478260869565216 0.043478260869565216 
0.14285714285714285 0.6190476190476191 0.14285714285714285 0.047619047619047616 0.047619047619047616 
0.06651108518086347 0.4539089848308051 0.4749124854142357 0.003500583430571762 0.0011668611435239206 
0.019950997549877492 0.2544627231361568 0.7171858592929646 0.005950297514875744 0.002450122506125306 
0.0029850746268656717 0.2417910447761194 0.6059701492537314 0.12238805970149254 0.026865671641791045 
0.06666666666666667 0.24444444444444444 0.37777777777777777 0.24444444444444444 0.06666666666666667 
0.18518518518518517 0.1111111111111111 0.3333333333333333 0.18518518518518517 0.18518518518518517 
0.09473684210526316 0.11578947368421053 0.49473684210526314 0.22105263157894736 0.07368421052631578 
0.006060606060606061 0.16363636363636364 0.5757575757575758 0.18787878787878787 0.06666666666666667 
0.05660377358490566 0.20754716981132076 0.39622641509433965 0.24528301886792453 0.09433962264150944 
0.07692307692307693 0.07692307692307693 0.38461538461538464 0.23076923076923078 0.23076923076923078 
0.1111111111111111 0.3333333333333333 0.3333333333333333 0.1111111111111111 0.1111111111111111 
0.1111111111111111 0.1111111111111111 0.25925925925925924 0.1111111111111111 0.4074074074074074 
0.013333333333333334 0.17333333333333334 0.28 0.17333333333333334 0.36 
0.06976744186046512 0.2646134506599623 0.6266499057196732 0.02702702702702703 0.011942174732872407 
0.04153354632587859 0.16293929712460065 0.7358892438764644 0.054313099041533544 0.005324813631522897 
0.06329113924050633 0.26582278481012656 0.46835443037974683 0.16455696202531644 0.0379746835443038 
0.05263157894736842 0.2631578947368421 0.5789473684210527 0.05263157894736842 0.05263157894736842 
0.00895933838731909 0.14128187456926258 0.7891109579600276 0.055823569951757405 0.004824259131633356 
0.0021353634760003714 0.04261442762974654 0.8672360969269335 0.08179370531984032 0.006220406647479343 
0.003884333189469141 0.030643072939145446 0.6814846784635304 0.2619766940008632 0.0220112214069918 
0.012345679012345678 0.16049382716049382 0.43209876543209874 0.20987654320987653 0.18518518518518517 
0.061224489795918366 0.10204081632653061 0.3469387755102041 0.3877551020408163 0.10204081632653061 
0.0048 0.0528 0.6736 0.2384 0.0304 
0.0013856812933025404 0.008775981524249422 0.5824480369515012 0.37090069284064664 0.03648960739030023 
0.012552301255230125 0.012552301255230125 0.3305439330543933 0.4225941422594142 0.2217573221757322 
0.058823529411764705 0.058823529411764705 0.29411764705882354 0.29411764705882354 0.29411764705882354 
0.022222222222222223 0.06666666666666667 0.28888888888888886 0.24444444444444444 0.37777777777777777 
0.004739336492890996 0.04265402843601896 0.4597156398104265 0.27014218009478674 0.22274881516587677 
0.0021691973969631237 0.006507592190889371 0.3232104121475054 0.3232104121475054 0.34490238611713664 
0.08021390374331551 0.24064171122994651 0.5294117647058824 0.11229946524064172 0.0374331550802139 
0.050359712230215826 0.22302158273381295 0.4676258992805755 0.17985611510791366 0.07913669064748201 
0.1282051282051282 0.23076923076923078 0.48717948717948717 0.07692307692307693 0.07692307692307693 
0.14285714285714285 0.14285714285714285 0.42857142857142855 0.14285714285714285 0.14285714285714285 
0.013550135501355014 0.06775067750677506 0.5826558265582655 0.2682926829268293 0.06775067750677506 
0.0014641288433382138 0.012201073694485115 0.4485114690092728 0.43094192288921424 0.10688140556368961 
0.002583979328165375 0.024978466838931956 0.2988802756244617 0.5038759689922481 0.16968130921619293 
0.009708737864077669 0.009708737864077669 0.32038834951456313 0.22330097087378642 0.4368932038834951 
0.011494252873563218 0.05747126436781609 0.3333333333333333 0.3793103448275862 0.21839080459770116 
0.0010193679918450561 0.0050968399592252805 0.43119266055045874 0.4536187563710499 0.109072375127421 
2.244668911335578E-4 0.003367003367003367 0.14343434343434344 0.6395061728395062 0.21346801346801347 
0.0054446460980036296 0.0018148820326678765 0.16878402903811252 0.3793103448275862 0.44464609800362975 
0.09090909090909091 0.09090909090909091 0.2727272727272727 0.2727272727272727 0.2727272727272727 
0.024390243902439025 0.008130081300813009 0.3170731707317073 0.25203252032520324 0.3983739837398374 
0.001287001287001287 0.001287001287001287 0.15572715572715573 0.5315315315315315 0.31016731016731014 
7.087172218284905E-4 0.002126151665485471 0.08008504606661943 0.3890857547838412 0.5279943302622254 
0.0707070707070707 0.1111111111111111 0.37373737373737376 0.1111111111111111 0.3333333333333333 
0.10638297872340426 0.02127659574468085 0.3617021276595745 0.06382978723404255 0.44680851063829785 
0.06666666666666667 0.06666666666666667 0.6 0.06666666666666667 0.2 
0.14285714285714285 0.14285714285714285 0.42857142857142855 0.14285714285714285 0.14285714285714285 
0.007874015748031496 0.03937007874015748 0.30708661417322836 0.2283464566929134 0.41732283464566927 
0.0030581039755351682 0.021406727828746176 0.22935779816513763 0.3211009174311927 0.42507645259938837 
0.003745318352059925 0.018726591760299626 0.25842696629213485 0.24344569288389514 0.4756554307116105 
0.014084507042253521 0.07042253521126761 0.2112676056338028 0.2676056338028169 0.43661971830985913 
0.02040816326530612 0.02040816326530612 0.46938775510204084 0.10204081632653061 0.3877551020408163 
0.0029850746268656717 0.008955223880597015 0.14626865671641792 0.3253731343283582 0.5164179104477612 
9.033423667570009E-4 0.0027100271002710027 0.05871725383920506 0.23757904245709124 0.7000903342366757 
0.002398081534772182 0.016786570743405275 0.05995203836930456 0.17985611510791366 0.7410071942446043 
0.034482758620689655 0.10344827586206896 0.10344827586206896 0.10344827586206896 0.6551724137931034 
0.014492753623188406 0.014492753623188406 0.13043478260869565 0.2463768115942029 0.5942028985507246 
6.724949562878278E-4 6.724949562878278E-4 0.03833221250840619 0.183591123066577 0.7767316745124412 
2.0238818053025704E-4 6.071645415907711E-4 0.011940902651285164 0.04513256425824732 0.9421169803683465 
</TABLE>
</DEFINITION>
<DEFINITION>
<FOR>pixel3</FOR>
<GIVEN>pixel68</GIVEN>
<TABLE>
0.999774707119255 7.509762691498949E-5 7.509762691498949E-5 7.509762691498949E-5 
4.759185227489054E-5 0.9998572244431754 4.759185227489054E-5 4.759185227489054E-5 
6.820351930159596E-5 6.820351930159596E-5 0.9997953894420952 6.820351930159596E-5 
1.1839924224484963E-4 1.1839924224484963E-4 1.1839924224484963E-4 0.9996448022732655 
</TABLE>
</DEFINITION>
<DEFINITION>
<FOR>pixel4</FOR>
<GIVEN>pixel61</GIVEN>
<GIVEN>pixel60</GIVEN>
<GIVEN>pixel39</GIVEN>
<TABLE>
0.9089709762532981 0.08047493403693931 0.00395778364116095 0.006596306068601583 
0.9082278481012658 0.08755274261603375 0.0031645569620253164 0.0010548523206751054 
0.8464285714285714 0.13214285714285715 0.017857142857142856 0.0035714285714285713 
0.7318181818181818 0.2318181818181818 0.022727272727272728 0.013636363636363636 
0.6515151515151515 0.16666666666666666 0.07575757575757576 0.10606060606060606 
0.67 0.29 0.03 0.01 
0.7892857142857143 0.18214285714285713 0.010714285714285714 0.017857142857142856 
0.696078431372549 0.2647058823529412 0.00980392156862745 0.029411764705882353 
0.6328125 0.2734375 0.0546875 0.0390625 
0.4166666666666667 0.4166666666666667 0.1388888888888889 0.027777777777777776 
0.1 0.7 0.1 0.1 
0.4583333333333333 0.2916666666666667 0.20833333333333334 0.041666666666666664 
0.7 0.1 0.1 0.1 
0.05555555555555555 0.5 0.05555555555555555 0.3888888888888889 
0.375 0.375 0.125 0.125 
0.16666666666666666 0.5 0.16666666666666666 0.16666666666666666 
0.5 0.16666666666666666 0.16666666666666666 0.16666666666666666 
0.25 0.25 0.25 0.25 
0.5 0.16666666666666666 0.16666666666666666 0.16666666666666666 
0.25 0.25 0.25 0.25 
0.25 0.25 0.25 0.25 
0.25 0.25 0.25 0.25 
0.25 0.25 0.25 0.25 
0.25 0.25 0.25 0.25 
0.25 0.25 0.25 0.25 
0.6435185185185185 0.2916666666666667 0.06018518518518518 0.004629629629629629 
0.578125 0.36830357142857145 0.03794642857142857 0.015625 
0.5352941176470588 0.38235294117647056 0.052941176470588235 0.029411764705882353 
0.2784090909090909 0.4943181818181818 0.14204545454545456 0.08522727272727272 
0.34375 0.46875 0.09375 0.09375 
0.6320293398533008 0.3484107579462103 0.01589242053789731 0.003667481662591687 
0.5840494092373791 0.40628356605800214 0.00832438238453276 0.0013426423200859291 
0.3946629213483146 0.5884831460674157 0.009831460674157303 0.007022471910112359 
0.3193224592220828 0.6342534504391468 0.024466750313676285 0.021957340025094103 
0.3617886178861789 0.524390243902439 0.06097560975609756 0.052845528455284556 
0.4875 0.4625 0.0125 0.0375 
0.356353591160221 0.5994475138121547 0.03038674033149171 0.013812154696132596 
0.3089622641509434 0.6391509433962265 0.030660377358490566 0.02122641509433962 
0.21607142857142858 0.7053571428571429 0.0375 0.04107142857142857 
0.17857142857142858 0.6071428571428571 0.15 0.06428571428571428 
0.16666666666666666 0.5 0.16666666666666666 0.16666666666666666 
0.19230769230769232 0.7307692307692307 0.038461538461538464 0.038461538461538464 
0.5 0.34615384615384615 0.11538461538461539 0.038461538461538464 
0.1774193548387097 0.6612903225806451 0.11290322580645161 0.04838709677419355 
0.3235294117647059 0.3235294117647059 0.14705882352941177 0.20588235294117646 
0.25 0.25 0.25 0.25 
0.25 0.25 0.25 0.25 
0.25 0.25 0.25 0.25 
0.25 0.4166666666666667 0.25 0.08333333333333333 
0.16666666666666666 0.16666666666666666 0.16666666666666666 0.5 
0.045454545454545456 0.6818181818181818 0.13636363636363635 0.13636363636363635 
0.20454545454545456 0.4772727272727273 0.25 0.06818181818181818 
0.1 0.5666666666666667 0.1 0.23333333333333334 
0.1346153846153846 0.6730769230769231 0.1346153846153846 0.057692307692307696 
0.0625 0.4375 0.1875 0.3125 
0.09274193548387097 0.8104838709677419 0.06854838709677419 0.028225806451612902 
0.0634765625 0.8779296875 0.0458984375 0.0126953125 
0.06399132321041215 0.868763557483731 0.05314533622559653 0.014099783080260303 
0.04473684210526316 0.8061403508771929 0.11842105263157894 0.03070175438596491 
0.05238095238095238 0.6714285714285714 0.20476190476190476 0.07142857142857142 
0.08483754512635379 0.7851985559566786 0.09205776173285199 0.03790613718411552 
0.05388471177944862 0.8943191311612364 0.041353383458646614 0.010442773600668337 
0.038218793828892005 0.9112903225806451 0.0438288920056101 0.006661991584852735 
0.03187847667950364 0.8555840821566111 0.0922122379118528 0.02032520325203252 
0.03654970760233918 0.7236842105263158 0.16228070175438597 0.07748538011695906 
0.175 0.475 0.225 0.125 
0.12745098039215685 0.5588235294117647 0.24509803921568626 0.06862745098039216 
0.0783132530120482 0.6566265060240963 0.1746987951807229 0.09036144578313253 
0.07905982905982906 0.6773504273504274 0.19444444444444445 0.049145299145299144 
0.06578947368421052 0.6271929824561403 0.2149122807017544 0.09210526315789473 
0.375 0.375 0.125 0.125 
0.11538461538461539 0.34615384615384615 0.038461538461538464 0.5 
0.1875 0.3125 0.4375 0.0625 
0.03571428571428571 0.75 0.03571428571428571 0.17857142857142858 
0.041666666666666664 0.5416666666666666 0.20833333333333334 0.20833333333333334 
0.25 0.25 0.25 0.25 
0.375 0.125 0.375 0.125 
0.3 0.1 0.3 0.3 
0.16666666666666666 0.5 0.16666666666666666 0.16666666666666666 
0.125 0.625 0.125 0.125 
0.08823529411764706 0.38235294117647056 0.38235294117647056 0.14705882352941177 
0.09722222222222222 0.4305555555555556 0.2916666666666667 0.18055555555555555 
0.06756756756756757 0.47297297297297297 0.33783783783783783 0.12162162162162163 
0.04794520547945205 0.3767123287671233 0.3904109589041096 0.18493150684931506 
0.08928571428571429 0.23214285714285715 0.3392857142857143 0.3392857142857143 
0.030555555555555555 0.44722222222222224 0.38055555555555554 0.14166666666666666 
0.013992537313432836 0.49906716417910446 0.3983208955223881 0.08861940298507463 
0.01076158940397351 0.5405629139072847 0.36341059602649006 0.08526490066225166 
0.008451656524678837 0.43914807302231235 0.44590939824205544 0.10649087221095335 
0.017615176151761516 0.32113821138211385 0.44037940379403795 0.22086720867208673 
0.01893939393939394 0.32196969696969696 0.4583333333333333 0.20075757575757575 
0.016519823788546256 0.355726872246696 0.45484581497797355 0.17290748898678415 
0.015055467511885896 0.3478605388272583 0.5364500792393027 0.10063391442155309 
0.008205399682371625 0.34753838009528853 0.4989412387506617 0.14531498147167812 
0.01122754491017964 0.22080838323353294 0.5037425149700598 0.26422155688622756 
0.25 0.25 0.4166666666666667 0.08333333333333333 
0.11538461538461539 0.19230769230769232 0.19230769230769232 0.5 
0.125 0.275 0.425 0.175 
0.05434782608695652 0.25 0.25 0.44565217391304346 
0.0673076923076923 0.16346153846153846 0.4519230769230769 0.3173076923076923 
0.125 0.625 0.125 0.125 
0.125 0.375 0.375 0.125 
0.25 0.25 0.25 0.25 
0.125 0.375 0.125 0.375 
0.25 0.25 0.25 0.25 
0.07142857142857142 0.07142857142857142 0.35714285714285715 0.5 
0.0625 0.0625 0.5625 0.3125 
0.3125 0.1875 0.1875 0.3125 
0.125 0.2916666666666667 0.125 0.4583333333333333 
0.03571428571428571 0.17857142857142858 0.10714285714285714 0.6785714285714286 
0.03333333333333333 0.03333333333333333 0.03333333333333333 0.9 
0.0625 0.0875 0.1375 0.7125 
0.010869565217391304 0.14130434782608695 0.14130434782608695 0.7065217391304348 
0.01282051282051282 0.08974358974358974 0.2777777777777778 0.6196581196581197 
0.016666666666666666 0.08333333333333333 0.16111111111111112 0.7388888888888889 
0.022727272727272728 0.09415584415584416 0.17857142857142858 0.7045454545454546 
0.004477611940298508 0.06119402985074627 0.22835820895522388 0.7059701492537314 
0.008353221957040573 0.08472553699284009 0.24463007159904535 0.662291169451074 
0.005151098901098901 0.05666208791208791 0.25995879120879123 0.678228021978022 
0.002777777777777778 0.04833333333333333 0.19055555555555556 0.7583333333333333 
0.02336448598130841 0.10747663551401869 0.08878504672897196 0.780373831775701 
0.021844660194174758 0.0703883495145631 0.07524271844660194 0.8325242718446602 
0.0018315018315018315 0.031135531135531136 0.08241758241758242 0.8846153846153846 
0.004893238434163701 0.03603202846975089 0.11076512455516015 0.8483096085409253 
0.0038560411311053984 0.044130248500428446 0.0792630676949443 0.8727506426735219 
</TABLE>
</DEFINITION>
<DEFINITION>
<FOR>pixel5</FOR>
<GIVEN>pixel1</GIVEN>
<GIVEN>pixel30</GIVEN>
<GIVEN>pixel3</GIVEN>
<TABLE>
0.542 0.398 0.054 0.006 
0.29545454545454547 0.4772727272727273 0.17424242424242425 0.05303030303030303 
0.3387096774193548 0.27419354838709675 0.20967741935483872 0.1774193548387097 
0.19230769230769232 0.4230769230769231 0.34615384615384615 0.038461538461538464 
0.35852090032154343 0.5932475884244373 0.04019292604501608 0.008038585209003215 
0.18674698795180722 0.572289156626506 0.22289156626506024 0.018072289156626505 
0.17857142857142858 0.4642857142857143 0.10714285714285714 0.25 
0.35714285714285715 0.21428571428571427 0.35714285714285715 0.07142857142857142 
0.20810810810810812 0.7018018018018019 0.07837837837837838 0.011711711711711712 
0.08158995815899582 0.6464435146443515 0.25313807531380755 0.01882845188284519 
0.14516129032258066 0.44623655913978494 0.27419354838709675 0.13440860215053763 
0.10576923076923077 0.4326923076923077 0.3557692307692308 0.10576923076923077 
0.16379310344827586 0.5373563218390804 0.22701149425287356 0.07183908045977011 
0.06534090909090909 0.48579545454545453 0.3778409090909091 0.07102272727272728 
0.029411764705882353 0.37058823529411766 0.5352941176470588 0.06470588235294118 
0.019230769230769232 0.36538461538461536 0.3269230769230769 0.28846153846153844 
0.25471698113207547 0.3867924528301887 0.27358490566037735 0.08490566037735849 
0.0625 0.29464285714285715 0.49107142857142855 0.15178571428571427 
0.056818181818181816 0.375 0.23863636363636365 0.32954545454545453 
0.045454545454545456 0.3181818181818182 0.22727272727272727 0.4090909090909091 
0.25240384615384615 0.5697115384615384 0.1658653846153846 0.01201923076923077 
0.1814516129032258 0.5120967741935484 0.2701612903225806 0.036290322580645164 
0.04032258064516129 0.3467741935483871 0.49193548387096775 0.12096774193548387 
0.140625 0.140625 0.203125 0.515625 
0.14017341040462428 0.7528901734104047 0.09393063583815028 0.01300578034682081 
0.08838383838383838 0.6237373737373737 0.26515151515151514 0.022727272727272728 
0.12337662337662338 0.37012987012987014 0.35714285714285715 0.14935064935064934 
0.0625 0.3958333333333333 0.3125 0.22916666666666666 
0.07618710134656272 0.7721474131821403 0.14138908575478384 0.010276399716513111 
0.04484126984126984 0.6623015873015873 0.2757936507936508 0.017063492063492062 
0.03639846743295019 0.4731800766283525 0.4003831417624521 0.09003831417624521 
0.03977272727272727 0.4034090909090909 0.3806818181818182 0.17613636363636365 
0.060026385224274406 0.5890501319261213 0.3133245382585752 0.037598944591029027 
0.027265745007680493 0.4381720430107527 0.4980798771121352 0.03648233486943164 
0.01079136690647482 0.25539568345323743 0.5911270983213429 0.14268585131894485 
0.026515151515151516 0.2765151515151515 0.3522727272727273 0.3446969696969697 
0.04594594594594595 0.43513513513513513 0.3918918918918919 0.12702702702702703 
0.015363128491620111 0.2918994413407821 0.5628491620111732 0.12988826815642457 
0.01882845188284519 0.15690376569037656 0.5460251046025104 0.27824267782426776 
0.003289473684210526 0.11513157894736842 0.35855263157894735 0.5230263157894737 
0.19736842105263158 0.3815789473684211 0.35526315789473684 0.06578947368421052 
0.0859375 0.4140625 0.4453125 0.0546875 
0.04807692307692308 0.20192307692307693 0.5096153846153846 0.2403846153846154 
0.15625 0.03125 0.59375 0.21875 
0.13768115942028986 0.5869565217391305 0.2391304347826087 0.036231884057971016 
0.07142857142857142 0.45604395604395603 0.41208791208791207 0.06043956043956044 
0.1125 0.2375 0.4375 0.2125 
0.02631578947368421 0.2894736842105263 0.2894736842105263 0.39473684210526316 
0.06843575418994413 0.590782122905028 0.308659217877095 0.03212290502793296 
0.04375896700143472 0.4583931133428981 0.4569583931133429 0.040889526542324243 
0.023809523809523808 0.37445887445887444 0.474025974025974 0.1277056277056277 
0.1 0.35454545454545455 0.4090909090909091 0.13636363636363635 
0.06022408963585434 0.38235294117647056 0.469187675070028 0.08823529411764706 
0.017812758906379452 0.29287489643744824 0.6309030654515327 0.058409279204639605 
0.009054325955734407 0.20824949698189135 0.630784708249497 0.15191146881287726 
0.0049504950495049506 0.08415841584158416 0.5594059405940595 0.35148514851485146 
0.0375 0.3125 0.49583333333333335 0.15416666666666667 
0.019767441860465116 0.18953488372093022 0.6174418604651163 0.17325581395348838 
0.0015873015873015873 0.173015873015873 0.5317460317460317 0.29365079365079366 
0.0032258064516129032 0.06774193548387097 0.3774193548387097 0.5516129032258065 
0.18421052631578946 0.39473684210526316 0.30701754385964913 0.11403508771929824 
0.055 0.205 0.565 0.175 
0.034722222222222224 0.2013888888888889 0.5208333333333334 0.24305555555555555 
0.05172413793103448 0.08620689655172414 0.22413793103448276 0.6379310344827587 
0.1015625 0.5703125 0.2578125 0.0703125 
0.09036144578313253 0.29518072289156627 0.4879518072289157 0.12650602409638553 
0.08666666666666667 0.18 0.5533333333333333 0.18 
0.015625 0.203125 0.359375 0.421875 
0.07933579335793357 0.4446494464944649 0.3856088560885609 0.09040590405904059 
0.03188180404354588 0.32426127527216175 0.5388802488335925 0.10497667185069985 
0.02410901467505241 0.2693920335429769 0.5146750524109015 0.1918238993710692 
0.03125 0.1909722222222222 0.4756944444444444 0.3020833333333333 
0.06097560975609756 0.26422764227642276 0.524390243902439 0.15040650406504066 
0.013386396526772794 0.20513748191027498 0.6342257597684515 0.1472503617945007 
0.0069901315789473685 0.15583881578947367 0.6073190789473685 0.22985197368421054 
0.007598784194528876 0.15653495440729484 0.3966565349544073 0.439209726443769 
0.03009259259259259 0.19212962962962962 0.4791666666666667 0.2986111111111111 
0.011229314420803783 0.12825059101654845 0.5715130023640662 0.28900709219858156 
0.0037593984962406013 0.08312447786131996 0.462406015037594 0.45071010860484545 
0.002840909090909091 0.06723484848484848 0.3399621212121212 0.5899621212121212 
0.11290322580645161 0.3064516129032258 0.3387096774193548 0.24193548387096775 
0.07352941176470588 0.1323529411764706 0.39705882352941174 0.39705882352941174 
0.056451612903225805 0.1532258064516129 0.3951612903225806 0.3951612903225806 
0.09166666666666666 0.125 0.14166666666666666 0.6416666666666667 
0.1206896551724138 0.25862068965517243 0.22413793103448276 0.39655172413793105 
0.06944444444444445 0.2361111111111111 0.375 0.3194444444444444 
0.040983606557377046 0.13934426229508196 0.22131147540983606 0.5983606557377049 
0.035211267605633804 0.07746478873239436 0.14788732394366197 0.7394366197183099 
0.07661290322580645 0.35080645161290325 0.3185483870967742 0.2540322580645161 
0.02727272727272727 0.20303030303030303 0.41515151515151516 0.35454545454545455 
0.007075471698113208 0.22877358490566038 0.375 0.3891509433962264 
0.01583710407239819 0.11990950226244344 0.332579185520362 0.5316742081447964 
0.04304635761589404 0.27483443708609273 0.40728476821192056 0.27483443708609273 
0.014138817480719794 0.14267352185089974 0.44601542416452444 0.397172236503856 
0.004363001745200698 0.12827225130890052 0.4214659685863874 0.44589877835951136 
0.007413509060955519 0.09802306425041186 0.3088962108731466 0.585667215815486 
0.05223880597014925 0.12686567164179105 0.3308457711442786 0.4900497512437811 
0.002857142857142857 0.08285714285714285 0.3438095238095238 0.5704761904761905 
0.0117827868852459 0.06813524590163934 0.29559426229508196 0.6244877049180327 
0.004089219330855019 0.04795539033457249 0.20260223048327136 0.7453531598513011 
</TABLE>
</DEFINITION>
<DEFINITION>
<FOR>pixel6</FOR>
<GIVEN>pixel58</GIVEN>
<GIVEN>pixel8</GIVEN>
<GIVEN>pixel65</GIVEN>
<TABLE>
0.6402946828955798 0.314862267777066 0.03235105701473415 0.012491992312620116 
0.40607101947308133 0.5080183276059564 0.06013745704467354 0.02577319587628866 
0.20535714285714285 0.4732142857142857 0.1875 0.13392857142857142 
0.2894736842105263 0.34210526315789475 0.23684210526315788 0.13157894736842105 
0.37649402390438247 0.49734395750332006 0.09760956175298804 0.028552456839309428 
0.21417133706965572 0.6096877502001601 0.14691753402722177 0.02922337870296237 
0.1278409090909091 0.48579545454545453 0.29829545454545453 0.08806818181818182 
0.22 0.34 0.06 0.38 
0.21851851851851853 0.4703703703703704 0.2111111111111111 0.1 
0.1662162162162162 0.4527027027027027 0.2635135135135135 0.11756756756756757 
0.12589928057553956 0.29136690647482016 0.3345323741007194 0.24820143884892087 
0.09210526315789473 0.4342105263157895 0.27631578947368424 0.19736842105263158 
0.33185840707964603 0.3053097345132743 0.16371681415929204 0.19911504424778761 
0.20121951219512196 0.27439024390243905 0.22967479674796748 0.29471544715447157 
0.2070063694267516 0.23885350318471338 0.24522292993630573 0.3089171974522293 
0.11486486486486487 0.30405405405405406 0.14189189189189189 0.4391891891891892 
0.29614325068870523 0.5743801652892562 0.08677685950413223 0.04269972451790634 
0.1894941634241245 0.6891050583657587 0.09377431906614786 0.02762645914396887 
0.1291390728476821 0.5 0.24834437086092714 0.12251655629139073 
0.12962962962962962 0.5370370370370371 0.12962962962962962 0.2037037037037037 
0.17857142857142858 0.6232718894009217 0.15552995391705068 0.04262672811059908 
0.08489921421250426 0.7230953194396994 0.16176973009907755 0.030235736248718826 
0.08818770226537216 0.5299352750809061 0.308252427184466 0.07362459546925566 
0.07746478873239436 0.2746478873239437 0.21830985915492956 0.4295774647887324 
0.20085470085470086 0.45726495726495725 0.2692307692307692 0.07264957264957266 
0.11230248306997742 0.5005643340857788 0.31997742663656886 0.06715575620767494 
0.0872093023255814 0.37790697674418605 0.3825581395348837 0.15232558139534882 
0.05737704918032787 0.3360655737704918 0.20491803278688525 0.4016393442622951 
0.16911764705882354 0.2867647058823529 0.2426470588235294 0.3014705882352941 
0.11686991869918699 0.3790650406504065 0.2936991869918699 0.21036585365853658 
0.08798882681564246 0.3170391061452514 0.30027932960893855 0.2946927374301676 
0.11021505376344086 0.19623655913978494 0.2661290322580645 0.4274193548387097 
0.17164179104477612 0.5597014925373134 0.15671641791044777 0.11194029850746269 
0.13860103626943004 0.5142487046632125 0.2422279792746114 0.10492227979274611 
0.09074074074074075 0.37222222222222223 0.3537037037037037 0.18333333333333332 
0.14444444444444443 0.2777777777777778 0.4111111111111111 0.16666666666666666 
0.06690140845070422 0.5246478873239436 0.2711267605633803 0.13732394366197184 
0.03715064758009543 0.5715746421267893 0.31935923653715065 0.07191547375596455 
0.033820840950639856 0.3647166361974406 0.4963436928702011 0.10511882998171847 
0.016666666666666666 0.24333333333333335 0.3233333333333333 0.4166666666666667 
0.060810810810810814 0.41216216216216217 0.31756756756756754 0.20945945945945946 
0.038461538461538464 0.4026687598116169 0.4215070643642072 0.13736263736263737 
0.018902891030392884 0.2968865826538176 0.49184581171237957 0.19236471460340993 
0.05227272727272727 0.16136363636363638 0.42045454545454547 0.3659090909090909 
0.125 0.2403846153846154 0.14423076923076922 0.49038461538461536 
0.030864197530864196 0.2679012345679012 0.3172839506172839 0.38395061728395063 
0.03454133635334088 0.267836919592299 0.34937712344280863 0.34824462061155154 
0.051991150442477874 0.18694690265486727 0.24004424778761063 0.5210176991150443 
0.175 0.225 0.275 0.325 
0.14556962025316456 0.2848101265822785 0.1962025316455696 0.37341772151898733 
0.06637168141592921 0.16371681415929204 0.3141592920353982 0.4557522123893805 
0.09313725490196079 0.22058823529411764 0.18137254901960784 0.5049019607843137 
0.09259259259259259 0.16666666666666666 0.3148148148148148 0.42592592592592593 
0.03694581280788178 0.29310344827586204 0.3472906403940887 0.3226600985221675 
0.0249597423510467 0.2246376811594203 0.40982286634460546 0.34057971014492755 
0.03873239436619718 0.12089201877934272 0.25938967136150237 0.5809859154929577 
0.025 0.225 0.325 0.425 
0.02616279069767442 0.18895348837209303 0.4796511627906977 0.30523255813953487 
0.012481644640234948 0.15051395007342144 0.41629955947136565 0.42070484581497797 
0.007857142857142858 0.09214285714285714 0.26785714285714285 0.6321428571428571 
0.016129032258064516 0.1774193548387097 0.1774193548387097 0.6290322580645161 
0.04666666666666667 0.19333333333333333 0.22444444444444445 0.5355555555555556 
0.022502744237102086 0.11690450054884742 0.3013172338090011 0.5592755214050494 
0.019624101713653953 0.07269209508015478 0.15561083471531234 0.7520729684908789 
</TABLE>
</DEFINITION>
<DEFINITION>
<FOR>pixel7</FOR>
<GIVEN>pixel4</GIVEN>
<GIVEN>pixel0</GIVEN>
<GIVEN>pixel60</GIVEN>
<TABLE>
0.47624750499001994 0.45229540918163674 0.06187624750499002 0.005988023952095809 0.003592814371257485 
0.14457562931610604 0.7447092893740254 0.10091334372911562 0.0064602361327689905 0.003341501447983961 
0.18760757314974183 0.621342512908778 0.1738382099827883 0.01549053356282272 0.0017211703958691911 
0.18446601941747573 0.49514563106796117 0.2621359223300971 0.04854368932038835 0.009708737864077669 
0.3103448275862069 0.4482758620689655 0.1724137931034483 0.034482758620689655 0.034482758620689655 
0.061224489795918366 0.673469387755102 0.061224489795918366 0.14285714285714285 0.061224489795918366 
0.04823151125401929 0.4533762057877814 0.4340836012861736 0.028938906752411574 0.03536977491961415 
0.1571072319201995 0.5760598503740648 0.23690773067331672 0.02743142144638404 0.0024937655860349127 
0.10679611650485436 0.47572815533980584 0.32038834951456313 0.08737864077669903 0.009708737864077669 
0.17647058823529413 0.4117647058823529 0.29411764705882354 0.058823529411764705 0.058823529411764705 
0.1111111111111111 0.5555555555555556 0.1111111111111111 0.1111111111111111 0.1111111111111111 
0.058823529411764705 0.4117647058823529 0.17647058823529413 0.29411764705882354 0.058823529411764705 
0.13043478260869565 0.5652173913043478 0.043478260869565216 0.043478260869565216 0.21739130434782608 
0.034482758620689655 0.6551724137931034 0.10344827586206896 0.1724137931034483 0.034482758620689655 
0.23076923076923078 0.07692307692307693 0.5384615384615384 0.07692307692307693 0.07692307692307693 
0.14285714285714285 0.42857142857142855 0.14285714285714285 0.14285714285714285 0.14285714285714285 
0.07692307692307693 0.5384615384615384 0.23076923076923078 0.07692307692307693 0.07692307692307693 
0.42857142857142855 0.14285714285714285 0.14285714285714285 0.14285714285714285 0.14285714285714285 
0.058823529411764705 0.4117647058823529 0.17647058823529413 0.29411764705882354 0.058823529411764705 
0.058823529411764705 0.29411764705882354 0.5294117647058824 0.058823529411764705 0.058823529411764705 
0.04781704781704782 0.4261954261954262 0.3762993762993763 0.09771309771309772 0.05197505197505198 
0.01946690625935909 0.5908954776879305 0.3465109314165918 0.03024857741838874 0.01287810721772986 
0.01954120645709431 0.5887850467289719 0.32710280373831774 0.055225148683092605 0.009345794392523364 
0.034482758620689655 0.35172413793103446 0.47586206896551725 0.07586206896551724 0.06206896551724138 
0.058823529411764705 0.17647058823529413 0.29411764705882354 0.29411764705882354 0.17647058823529413 
0.028112449799196786 0.18072289156626506 0.5341365461847389 0.1566265060240964 0.10040160642570281 
0.0047943477163764825 0.2687358062074186 0.5886954327529649 0.11935402472874085 0.018420388594499116 
0.0028154594317890964 0.1739612661035748 0.7165770838665643 0.09598157153826466 0.010664619059807184 
0.009121459433509362 0.13682189150264043 0.6745079212674028 0.15602496399423907 0.023523763802208355 
0.007407407407407408 0.3925925925925926 0.362962962962963 0.1259259259259259 0.1111111111111111 
0.2 0.06666666666666667 0.3333333333333333 0.3333333333333333 0.06666666666666667 
0.020134228187919462 0.087248322147651 0.40939597315436244 0.35570469798657717 0.12751677852348994 
0.010218978102189781 0.07445255474452554 0.5007299270072992 0.36642335766423356 0.04817518248175182 
0.004048582995951417 0.08340080971659919 0.5384615384615384 0.3230769230769231 0.05101214574898785 
0.0297029702970297 0.10891089108910891 0.36633663366336633 0.24752475247524752 0.24752475247524752 
0.14285714285714285 0.14285714285714285 0.42857142857142855 0.14285714285714285 0.14285714285714285 
0.047619047619047616 0.14285714285714285 0.14285714285714285 0.23809523809523808 0.42857142857142855 
0.01818181818181818 0.12727272727272726 0.38181818181818183 0.23636363636363636 0.23636363636363636 
0.02608695652173913 0.0782608695652174 0.40869565217391307 0.30434782608695654 0.1826086956521739 
0.04201680672268908 0.1092436974789916 0.4117647058823529 0.24369747899159663 0.19327731092436976 
0.037037037037037035 0.037037037037037035 0.3333333333333333 0.4074074074074074 0.18518518518518517 
0.014084507042253521 0.1267605633802817 0.38028169014084506 0.4084507042253521 0.07042253521126761 
0.02040816326530612 0.10204081632653061 0.46938775510204084 0.30612244897959184 0.10204081632653061 
0.05263157894736842 0.05263157894736842 0.47368421052631576 0.3684210526315789 0.05263157894736842 
0.2 0.2 0.2 0.2 0.2 
0.014925373134328358 0.04477611940298507 0.2537313432835821 0.43283582089552236 0.2537313432835821 
0.003215434083601286 0.028938906752411574 0.3890675241157556 0.44694533762057875 0.13183279742765272 
0.0014917951268025858 0.02536051715564396 0.5415216310293386 0.3903530581800099 0.04127299850820487 
9.794319294809011E-4 0.05386875612144956 0.5475024485798237 0.3418217433888345 0.05582761998041136 
0.012987012987012988 0.03896103896103896 0.35064935064935066 0.24675324675324675 0.35064935064935066 
0.04 0.04 0.44 0.44 0.04 
0.005714285714285714 0.06285714285714286 0.18857142857142858 0.5085714285714286 0.2342857142857143 
6.93000693000693E-4 0.006237006237006237 0.25571725571725573 0.6077616077616078 0.1295911295911296 
2.533569799847986E-4 0.012921205979224727 0.2850266024828984 0.6275652394223461 0.07423359513554599 
0.003861003861003861 0.07335907335907337 0.28185328185328185 0.4671814671814672 0.17374517374517376 
0.14285714285714285 0.14285714285714285 0.14285714285714285 0.42857142857142855 0.14285714285714285 
0.04 0.04 0.12 0.44 0.36 
0.006622516556291391 0.019867549668874173 0.2847682119205298 0.41721854304635764 0.271523178807947 
0.001941747572815534 0.017475728155339806 0.16893203883495145 0.49902912621359224 0.312621359223301 
0.009771986970684038 0.029315960912052116 0.16612377850162866 0.41368078175895767 0.3811074918566775 
0.05263157894736842 0.15789473684210525 0.15789473684210525 0.15789473684210525 0.47368421052631576 
0.037037037037037035 0.037037037037037035 0.18518518518518517 0.25925925925925924 0.48148148148148145 
0.043478260869565216 0.043478260869565216 0.30434782608695654 0.391304347826087 0.21739130434782608 
0.1111111111111111 0.1111111111111111 0.5555555555555556 0.1111111111111111 0.1111111111111111 
0.1111111111111111 0.1111111111111111 0.1111111111111111 0.1111111111111111 0.5555555555555556 
0.034482758620689655 0.034482758620689655 0.10344827586206896 0.3103448275862069 0.5172413793103449 
0.009009009009009009 0.02702702702702703 0.17117117117117117 0.35135135135135137 0.44144144144144143 
0.0024096385542168677 0.007228915662650603 0.25301204819277107 0.4506024096385542 0.28674698795180725 
0.004366812227074236 0.06550218340611354 0.32751091703056767 0.3799126637554585 0.22270742358078602 
0.06666666666666667 0.04 0.2 0.30666666666666664 0.38666666666666666 
0.06666666666666667 0.06666666666666667 0.06666666666666667 0.2 0.6 
0.015384615384615385 0.046153846153846156 0.015384615384615385 0.3230769230769231 0.6 
0.0016260162601626016 0.008130081300813009 0.08943089430894309 0.4796747967479675 0.4211382113821138 
4.3122035360068997E-4 0.0021561017680034496 0.09702457956015524 0.5705045278137129 0.3298835705045278 
0.009900990099009901 0.036303630363036306 0.19471947194719472 0.36633663366336633 0.3927392739273927 
0.06666666666666667 0.06666666666666667 0.06666666666666667 0.4666666666666667 0.3333333333333333 
0.012345679012345678 0.012345679012345678 0.06172839506172839 0.13580246913580246 0.7777777777777778 
0.008130081300813009 0.013550135501355014 0.051490514905149054 0.17615176151761516 0.7506775067750677 
2.984183825723665E-4 0.003282602208296031 0.057594747836466724 0.28678006565204417 0.6520441659206208 
2.1381227282446012E-4 0.005772931366260423 0.04083814410947188 0.15501389779773359 0.7981612144537097 
</TABLE>
</DEFINITION>
<DEFINITION>
<FOR>pixel8</FOR>
<GIVEN>pixel7</GIVEN>
<GIVEN>pixel63</GIVEN>
<GIVEN>pixel59</GIVEN>
<TABLE>
0.9026315789473685 0.07982456140350877 0.0061403508771929825 0.011403508771929825 
0.7385321100917431 0.20642201834862386 0.04128440366972477 0.013761467889908258 
0.6272727272727273 0.2636363636363636 0.06363636363636363 0.045454545454545456 
0.5588235294117647 0.20588235294117646 0.08823529411764706 0.14705882352941177 
0.5752688172043011 0.34946236559139787 0.05913978494623656 0.016129032258064516 
0.3888888888888889 0.5 0.07142857142857142 0.03968253968253968 
0.33783783783783783 0.527027027027027 0.06756756756756757 0.06756756756756757 
0.5277777777777778 0.19444444444444445 0.08333333333333333 0.19444444444444445 
0.39705882352941174 0.39705882352941174 0.16176470588235295 0.04411764705882353 
0.21666666666666667 0.45 0.11666666666666667 0.21666666666666667 
0.19117647058823528 0.6323529411764706 0.1323529411764706 0.04411764705882353 
0.14583333333333334 0.4375 0.22916666666666666 0.1875 
0.25 0.25 0.25 0.25 
0.175 0.225 0.275 0.325 
0.07142857142857142 0.35714285714285715 0.11904761904761904 0.4523809523809524 
0.16176470588235295 0.22058823529411764 0.19117647058823528 0.4264705882352941 
0.767478152309613 0.20692883895131087 0.017166042446941324 0.008426966292134831 
0.548721071863581 0.39646772228989036 0.04080389768574909 0.014007308160779537 
0.42358803986710963 0.45348837209302323 0.08139534883720931 0.04152823920265781 
0.2789473684210526 0.39473684210526316 0.15263157894736842 0.1736842105263158 
0.4799618320610687 0.45896946564885494 0.035305343511450385 0.025763358778625955 
0.3533969010727056 0.5750893921334923 0.05184743742550656 0.01966626936829559 
0.2528846153846154 0.5855769230769231 0.12788461538461537 0.03365384615384615 
0.22289156626506024 0.42771084337349397 0.2469879518072289 0.10240963855421686 
0.28869047619047616 0.49107142857142855 0.13392857142857142 0.08630952380952381 
0.20562770562770563 0.5909090909090909 0.14502164502164502 0.05844155844155844 
0.10532150776053215 0.5931263858093127 0.24501108647450112 0.0565410199556541 
0.115625 0.403125 0.284375 0.196875 
0.23770491803278687 0.28688524590163933 0.1557377049180328 0.319672131147541 
0.044642857142857144 0.4017857142857143 0.3125 0.24107142857142858 
0.09829059829059829 0.2948717948717949 0.32905982905982906 0.2777777777777778 
0.08682634730538923 0.20658682634730538 0.26047904191616766 0.44610778443113774 
0.37034383954154726 0.5365329512893983 0.0666189111747851 0.02650429799426934 
0.328099173553719 0.5661157024793388 0.07851239669421488 0.02727272727272727 
0.19639468690702086 0.5910815939278937 0.16603415559772297 0.046489563567362426 
0.15988372093023256 0.4331395348837209 0.19476744186046513 0.21220930232558138 
0.20715474209650583 0.6530782029950083 0.10732113144758736 0.0324459234608985 
0.14921030756442227 0.7128013300083126 0.11512884455527847 0.0228595178719867 
0.1143840856924254 0.6560826319816373 0.17100229533282327 0.058530986993114 
0.09363957597173145 0.46466431095406363 0.25618374558303886 0.1855123674911661 
0.14116094986807387 0.5448548812664907 0.23350923482849603 0.08047493403693931 
0.08800623052959501 0.5630841121495327 0.29517133956386293 0.053738317757009345 
0.05733333333333333 0.6082666666666666 0.2754666666666667 0.05893333333333333 
0.030973451327433628 0.40391908975979773 0.3584070796460177 0.20670037926675094 
0.09060402684563758 0.24496644295302014 0.29194630872483224 0.3724832214765101 
0.08076923076923077 0.28846153846153844 0.31153846153846154 0.3192307692307692 
0.048051948051948054 0.2584415584415584 0.4064935064935065 0.287012987012987 
0.03806451612903226 0.16580645161290322 0.38903225806451613 0.4070967741935484 
0.25483870967741934 0.4483870967741935 0.17096774193548386 0.12580645161290321 
0.25793650793650796 0.4166666666666667 0.2261904761904762 0.0992063492063492 
0.11691542288557213 0.5348258706467661 0.26119402985074625 0.08706467661691543 
0.07446808510638298 0.4219858156028369 0.2872340425531915 0.21631205673758866 
0.12239583333333333 0.4713541666666667 0.2265625 0.1796875 
0.12679425837320574 0.43301435406698563 0.2942583732057416 0.145933014354067 
0.060767590618336885 0.4552238805970149 0.30810234541577824 0.17590618336886993 
0.04618473895582329 0.3273092369477912 0.3714859437751004 0.25502008032128515 
0.06016597510373444 0.31742738589211617 0.3755186721991701 0.24688796680497926 
0.052901023890784986 0.363481228668942 0.4283276450511945 0.1552901023890785 
0.025336091003102378 0.3634953464322647 0.43691830403309206 0.17425025853154086 
0.01879271070615034 0.27961275626423693 0.3809794988610478 0.3206150341685649 
0.06551724137931035 0.15517241379310345 0.3896551724137931 0.3896551724137931 
0.03666666666666667 0.15 0.33 0.48333333333333334 
0.04756637168141593 0.22234513274336284 0.3639380530973451 0.3661504424778761 
0.015937731653076354 0.09970348406226835 0.32802075611564124 0.5563380281690141 
0.22631578947368422 0.26842105263157895 0.1 0.4052631578947368 
0.1625 0.3375 0.1625 0.3375 
0.12962962962962962 0.3395061728395062 0.24074074074074073 0.29012345679012347 
0.0945945945945946 0.17567567567567569 0.26576576576576577 0.46396396396396394 
0.10493827160493827 0.3395061728395062 0.12962962962962962 0.42592592592592593 
0.09868421052631579 0.3223684210526316 0.21710526315789475 0.3618421052631579 
0.08333333333333333 0.33695652173913043 0.17753623188405798 0.40217391304347827 
0.0645933014354067 0.23684210526315788 0.24641148325358853 0.45215311004784686 
0.09134615384615384 0.1778846153846154 0.30288461538461536 0.42788461538461536 
0.07575757575757576 0.17676767676767677 0.30808080808080807 0.4393939393939394 
0.03571428571428571 0.22959183673469388 0.2568027210884354 0.477891156462585 
0.032231404958677684 0.15289256198347106 0.23553719008264462 0.5793388429752067 
0.04777070063694268 0.13694267515923567 0.11146496815286625 0.7038216560509554 
0.03260869565217391 0.09057971014492754 0.17753623188405798 0.6992753623188406 
0.04710144927536232 0.11473429951690821 0.19202898550724637 0.6461352657004831 
0.013468809073724008 0.05647448015122873 0.15241020793950852 0.7776465028355387 
</TABLE>
</DEFINITION>
<DEFINITION>
<FOR>pixel9</FOR>
<GIVEN>pixel1</GIVEN>
<GIVEN>pixel6</GIVEN>
<GIVEN>pixel5</GIVEN>
<TABLE>
0.8659217877094972 0.12402234636871508 0.01005586592178771 
0.7361702127659574 0.25390070921985813 0.009929078014184398 
0.58887171561051 0.3972179289026275 0.013910355486862442 
0.4098360655737705 0.48633879781420764 0.10382513661202186 
0.584 0.36 0.056 
0.45409429280397023 0.5186104218362283 0.02729528535980149 
0.4416243654822335 0.49238578680203043 0.06598984771573604 
0.2682926829268293 0.5609756097560976 0.17073170731707318 
0.2 0.2 0.6 
0.30434782608695654 0.5652173913043478 0.13043478260869565 
0.29411764705882354 0.5294117647058824 0.17647058823529413 
0.2 0.6 0.2 
0.3333333333333333 0.3333333333333333 0.3333333333333333 
0.6 0.2 0.2 
0.5555555555555556 0.3333333333333333 0.1111111111111111 
0.14285714285714285 0.7142857142857143 0.14285714285714285 
0.302491103202847 0.6583629893238434 0.03914590747330961 
0.24171071600192215 0.7328207592503604 0.025468524747717443 
0.14624505928853754 0.7997364953886693 0.05401844532279315 
0.07936507936507936 0.7671957671957672 0.15343915343915343 
0.2159709618874773 0.7277676950998185 0.056261343012704176 
0.10407706863925684 0.8558403578186823 0.0400825735420609 
0.05935842384440515 0.8676433442788583 0.07299823187673656 
0.085383502170767 0.7076700434153401 0.20694645441389292 
0.10344827586206896 0.6551724137931034 0.2413793103448276 
0.09747292418772563 0.7184115523465704 0.18411552346570398 
0.0634441087613293 0.6737160120845922 0.2628398791540785 
0.08029197080291971 0.5328467153284672 0.38686131386861317 
0.15789473684210525 0.47368421052631576 0.3684210526315789 
0.14893617021276595 0.48936170212765956 0.3617021276595745 
0.1282051282051282 0.6923076923076923 0.1794871794871795 
0.030303030303030304 0.3939393939393939 0.5757575757575758 
0.047619047619047616 0.6190476190476191 0.3333333333333333 
0.09090909090909091 0.6623376623376623 0.24675324675324675 
0.015384615384615385 0.7846153846153846 0.2 
0.02857142857142857 0.5428571428571428 0.42857142857142855 
0.08837209302325581 0.7953488372093023 0.11627906976744186 
0.022643062988884313 0.8246191848497324 0.15273775216138327 
0.007661822985468956 0.7933949801849406 0.1989431968295905 
0.013293943870014771 0.5982274741506647 0.38847858197932056 
0.09090909090909091 0.6363636363636364 0.2727272727272727 
0.023508137432188065 0.6781193490054249 0.298372513562387 
0.009556907037358819 0.6646394439617723 0.32580364900086883 
0.017114914425427872 0.5403422982885085 0.44254278728606355 
0.07692307692307693 0.6923076923076923 0.23076923076923078 
0.012987012987012988 0.5584415584415584 0.42857142857142855 
0.07317073170731707 0.43089430894308944 0.4959349593495935 
0.03529411764705882 0.5294117647058824 0.43529411764705883 
0.3333333333333333 0.1111111111111111 0.5555555555555556 
0.037037037037037035 0.25925925925925924 0.7037037037037037 
0.02857142857142857 0.4857142857142857 0.4857142857142857 
0.022222222222222223 0.24444444444444444 0.7333333333333333 
0.03225806451612903 0.4838709677419355 0.4838709677419355 
0.007838745800671893 0.5498320268756999 0.4423292273236282 
0.0024473813020068525 0.4968184043073911 0.5007342143906021 
0.001455604075691412 0.34497816593886466 0.653566229985444 
0.017964071856287425 0.46107784431137727 0.5209580838323353 
0.01004134672179563 0.44240992321323097 0.5475487300649734 
0.00205799812909261 0.36426566884939193 0.6336763330215154 
0.0035899481451934583 0.2508974870362984 0.7455125648185081 
0.014492753623188406 0.4492753623188406 0.5362318840579711 
0.015730337078651686 0.35730337078651686 0.6269662921348315 
9.319664492078285E-4 0.22460391425908668 0.7744641192917054 
0.006381039197812215 0.1959890610756609 0.7976298997265269 
0.3333333333333333 0.3333333333333333 0.3333333333333333 
0.09090909090909091 0.6363636363636364 0.2727272727272727 
0.1111111111111111 0.3333333333333333 0.5555555555555556 
0.07692307692307693 0.23076923076923078 0.6923076923076923 
0.07692307692307693 0.38461538461538464 0.5384615384615384 
0.014084507042253521 0.18309859154929578 0.8028169014084507 
0.007518796992481203 0.12781954887218044 0.8646616541353384 
0.007518796992481203 0.12781954887218044 0.8646616541353384 
0.02857142857142857 0.2571428571428571 0.7142857142857143 
0.003663003663003663 0.1794871794871795 0.8168498168498168 
0.001215066828675577 0.13487241798298907 0.8639125151883353 
0.0011614401858304297 0.08246225319396051 0.9163763066202091 
0.023622047244094488 0.2125984251968504 0.7637795275590551 
0.007583965330444204 0.10509209100758396 0.8873239436619719 
0.0018552875695732839 0.05899814471243043 0.9391465677179963 
8.942944017170453E-4 0.038454659273832945 0.96065104632445 
</TABLE>
</DEFINITION>
<DEFINITION>
<FOR>pixel10</FOR>
<GIVEN>pixel14</GIVEN>
<GIVEN>pixel15</GIVEN>
<GIVEN>pixel17</GIVEN>
<TABLE>
0.9603577471597776 0.03940053178631859 2.4172105390379503E-4 
0.3333333333333333 0.3333333333333333 0.3333333333333333 
0.3333333333333333 0.3333333333333333 0.3333333333333333 
0.659552316501822 0.3399271212909943 5.205622071837585E-4 
0.8064516129032258 0.16129032258064516 0.03225806451612903 
0.7142857142857143 0.14285714285714285 0.14285714285714285 
0.29523809523809524 0.6761904761904762 0.02857142857142857 
0.5294117647058824 0.45098039215686275 0.0196078431372549 
0.7777777777777778 0.1111111111111111 0.1111111111111111 
0.16129032258064516 0.6774193548387096 0.16129032258064516 
0.4883720930232558 0.4883720930232558 0.023255813953488372 
0.36585365853658536 0.6097560975609756 0.024390243902439025 
0.42732716385410996 0.5688622754491018 0.003810560696788242 
0.7777777777777778 0.1111111111111111 0.1111111111111111 
0.3333333333333333 0.3333333333333333 0.3333333333333333 
0.03602147060725603 0.9529198732458126 0.011058656146931384 
0.012419700214132762 0.9588865096359743 0.028693790149892935 
0.1079136690647482 0.8273381294964028 0.06474820143884892 
0.00972972972972973 0.8616216216216216 0.12864864864864864 
0.001644195988161789 0.7527129233804669 0.24564288063137127 
0.01943198804185351 0.7877428998505231 0.19282511210762332 
0.005847953216374269 0.6023391812865497 0.391812865497076 
0.01278772378516624 0.5652173913043478 0.4219948849104859 
6.357279084551812E-4 0.551176096630642 0.4481881754609027 
0.10476190476190476 0.580952380952381 0.3142857142857143 
0.09090909090909091 0.45454545454545453 0.45454545454545453 
0.2 0.6 0.2 
0.0070126227208976155 0.4165497896213184 0.576437587657784 
0.001277139208173691 0.545338441890166 0.45338441890166026 
0.014326647564469915 0.3638968481375358 0.6217765042979942 
0.006369426751592357 0.17197452229299362 0.821656050955414 
3.874467260751647E-4 0.14839209608678808 0.8512204571871368 
3.1436655139893113E-4 0.09776799748506759 0.9019176359635335 
0.02702702702702703 0.35135135135135137 0.6216216216216216 
0.003663003663003663 0.09157509157509157 0.9047619047619048 
1.8298261665141812E-4 0.013723696248856358 0.9860933211344922 
</TABLE>
</DEFINITION>
<DEFINITION>
<FOR>pixel11</FOR>
<GIVEN>pixel13</GIVEN>
<GIVEN>pixel15</GIVEN>
<GIVEN>pixel10</GIVEN>
<TABLE>
0.9034863945578231 0.09566326530612244 4.2517006802721087E-4 4.2517006802721087E-4 
0.6481481481481481 0.3395061728395062 0.006172839506172839 0.006172839506172839 
0.16666666666666666 0.5 0.16666666666666666 0.16666666666666666 
0.8175 0.1775 0.0025 0.0025 
0.41369047619047616 0.5803571428571429 0.002976190476190476 0.002976190476190476 
0.1 0.7 0.1 0.1 
0.8055555555555556 0.1388888888888889 0.027777777777777776 0.027777777777777776 
0.3541666666666667 0.6041666666666666 0.020833333333333332 0.020833333333333332 
0.25 0.5833333333333334 0.08333333333333333 0.08333333333333333 
0.7 0.1 0.1 0.1 
0.5208333333333334 0.3958333333333333 0.0625 0.020833333333333332 
0.35714285714285715 0.35714285714285715 0.07142857142857142 0.21428571428571427 
0.14948892674616696 0.846252129471891 0.0038330494037478705 4.2589437819420784E-4 
0.02586206896551724 0.9454022988505747 0.02586206896551724 0.0028735632183908046 
0.038461538461538464 0.6538461538461539 0.2692307692307692 0.038461538461538464 
0.06879432624113475 0.9170212765957447 0.01347517730496454 7.092198581560284E-4 
0.004174650971803997 0.8233643580618669 0.1703394470298385 0.0021215439364905557 
0.0026041666666666665 0.4557291666666667 0.4973958333333333 0.044270833333333336 
0.14 0.82 0.02 0.02 
0.0042333019755409216 0.5818438381937912 0.4059266227657573 0.00799623706491063 
0.0011261261261261261 0.2286036036036036 0.7376126126126126 0.03265765765765766 
0.075 0.825 0.075 0.025 
0.0013812154696132596 0.669889502762431 0.3080110497237569 0.020718232044198894 
0.0024429967426710096 0.2760586319218241 0.5333876221498371 0.18811074918566775 
0.011904761904761904 0.4880952380952381 0.39285714285714285 0.10714285714285714 
0.01282051282051282 0.24358974358974358 0.4230769230769231 0.32051282051282054 
0.045454545454545456 0.045454545454545456 0.045454545454545456 0.8636363636363636 
0.029411764705882353 0.30392156862745096 0.46078431372549017 0.20588235294117646 
2.736726874657909E-4 0.08456486042692939 0.7452107279693486 0.16995073891625614 
0.0011876484560570072 0.027315914489311165 0.3527315914489311 0.6187648456057007 
0.08333333333333333 0.08333333333333333 0.25 0.5833333333333334 
4.428697962798937E-4 0.027015057573073518 0.6851195748449955 0.28742249778565104 
1.8875047187617969E-4 0.003586258965647414 0.3686296715741789 0.6275953189882975 
0.16666666666666666 0.16666666666666666 0.5 0.16666666666666666 
0.0013297872340425532 0.041223404255319146 0.3337765957446808 0.6236702127659575 
6.195019204559534E-5 0.0016726551852310743 0.05222401189443687 0.9460413827282864 
</TABLE>
</DEFINITION>
<DEFINITION>
<FOR>pixel12</FOR>
<GIVEN>pixel11</GIVEN>
<GIVEN>pixel10</GIVEN>
<GIVEN>pixel17</GIVEN>
<TABLE>
0.9996527777777777 3.4722222222222224E-4 
0.98 0.02 
0.9375 0.0625 
0.9965986394557823 0.003401360544217687 
0.9807692307692307 0.019230769230769232 
0.9722222222222222 0.027777777777777776 
0.25 0.75 
0.75 0.25 
0.5 0.5 
0.9980673660960795 0.001932633903920486 
0.9833333333333333 0.016666666666666666 
0.9761904761904762 0.023809523809523808 
0.9737932133184642 0.026206786681535765 
0.8798530954879329 0.12014690451206715 
0.8719758064516129 0.1280241935483871 
0.5086206896551724 0.49137931034482757 
0.4253731343283582 0.5746268656716418 
0.2754385964912281 0.724561403508772 
0.8942307692307693 0.10576923076923077 
0.875 0.125 
0.75 0.25 
0.4158722592945662 0.5841277407054337 
0.11292386436340371 0.8870761356365963 
0.26019184652278177 0.7398081534772182 
0.041666666666666664 0.9583333333333334 
0.005528255528255528 0.9944717444717445 
0.007016248153618907 0.9929837518463811 
0.5833333333333334 0.4166666666666667 
0.5 0.5 
0.5 0.5 
0.12899786780383796 0.8710021321961621 
0.019927536231884056 0.980072463768116 
0.026627218934911243 0.9733727810650887 
0.005154639175257732 0.9948453608247423 
0.003468780971258672 0.9965312190287413 
8.921137147615083E-4 0.9991078862852385 
</TABLE>
</DEFINITION>
<DEFINITION>
<FOR>pixel13</FOR>
<GIVEN>pixel10</GIVEN>
<GIVEN>pixel15</GIVEN>
<GIVEN>pixel59</GIVEN>
<TABLE>
0.550197912918316 0.44296509535804246 0.006836991723641598 
0.43462897526501765 0.5406360424028268 0.024734982332155476 
0.38545953360768176 0.5829903978052127 0.03155006858710562 
0.405152224824356 0.5456674473067916 0.04918032786885246 
0.2681912681912682 0.7047817047817048 0.02702702702702703 
0.19037199124726478 0.7899343544857768 0.019693654266958426 
0.18319327731092436 0.7714285714285715 0.0453781512605042 
0.19788918205804748 0.662269129287599 0.13984168865435356 
0.2 0.6 0.2 
0.29411764705882354 0.6470588235294118 0.058823529411764705 
0.6521739130434783 0.21739130434782608 0.13043478260869565 
0.2830188679245283 0.5849056603773585 0.1320754716981132 
0.3333333333333333 0.3333333333333333 0.3333333333333333 
0.1111111111111111 0.7777777777777778 0.1111111111111111 
0.1111111111111111 0.7777777777777778 0.1111111111111111 
0.2 0.7142857142857143 0.08571428571428572 
0.12813738441215325 0.8203434610303831 0.05151915455746367 
0.08542713567839195 0.8291457286432161 0.08542713567839195 
0.16230366492146597 0.8010471204188482 0.03664921465968586 
0.12408759124087591 0.7664233576642335 0.10948905109489052 
0.028413983123816083 0.8887549509213019 0.08283106595488204 
0.010910275199478913 0.8163165608207132 0.17277316397980785 
0.014108233312276269 0.675300063171194 0.3105917035165298 
0.01942257217847769 0.6461942257217848 0.33438320209973754 
0.029508196721311476 0.580327868852459 0.3901639344262295 
0.016645326504481434 0.6261203585147247 0.35723431498079383 
0.009200968523002421 0.43631961259079904 0.5544794188861986 
0.00546448087431694 0.43637782982045276 0.5581576893052302 
0.13725490196078433 0.6078431372549019 0.2549019607843137 
0.04504504504504504 0.5855855855855856 0.36936936936936937 
0.020689655172413793 0.5586206896551724 0.4206896551724138 
0.02912621359223301 0.4153182308522114 0.5555555555555556 
0.14285714285714285 0.5238095238095238 0.3333333333333333 
0.07692307692307693 0.38461538461538464 0.5384615384615384 
0.09090909090909091 0.45454545454545453 0.45454545454545453 
0.1111111111111111 0.5555555555555556 0.3333333333333333 
0.008595988538681949 0.32951289398280803 0.66189111747851 
0.007594936708860759 0.34177215189873417 0.6506329113924051 
0.010380622837370242 0.23183391003460208 0.7577854671280276 
0.0049261083743842365 0.33004926108374383 0.6650246305418719 
0.004379562043795621 0.2875912408759124 0.708029197080292 
0.00209351011863224 0.20725750174459176 0.790648988136776 
9.545020680878142E-4 0.09640470887686924 0.902640789055043 
0.0032017075773745998 0.09711846318036287 0.8996798292422625 
0.0011806375442739079 0.1381345926800472 0.8606847697756789 
0.002288329519450801 0.15484363081617086 0.8428680396643783 
5.989219405070872E-4 0.07686164903174286 0.9225394290277501 
6.851326221004208E-4 0.051189194479788584 0.948125672898111 
</TABLE>
</DEFINITION>
<DEFINITION>
<FOR>pixel14</FOR>
<GIVEN>pixel19</GIVEN>
<GIVEN>pixel15</GIVEN>
<GIVEN>pixel17</GIVEN>
<TABLE>
0.8493785035339995 0.1479405313185474 0.002680965147453083 
0.3333333333333333 0.3333333333333333 0.3333333333333333 
0.3333333333333333 0.3333333333333333 0.3333333333333333 
0.6277227722772277 0.365016501650165 0.007260726072607261 
0.2 0.6 0.2 
0.2 0.2 0.6 
0.4690265486725664 0.4690265486725664 0.061946902654867256 
0.29411764705882354 0.6470588235294118 0.058823529411764705 
0.3333333333333333 0.3333333333333333 0.3333333333333333 
0.5555555555555556 0.3333333333333333 0.1111111111111111 
0.28 0.68 0.04 
0.1111111111111111 0.5555555555555556 0.3333333333333333 
0.3376274825550188 0.6414385399892646 0.020933977455716585 
0.14285714285714285 0.42857142857142855 0.42857142857142855 
0.3333333333333333 0.3333333333333333 0.3333333333333333 
0.06101673347330915 0.9104154736909079 0.02856779283578291 
0.008416220351951033 0.891354246365723 0.10022953328232594 
0.07317073170731707 0.4634146341463415 0.4634146341463415 
0.05156723963599596 0.8361981799797775 0.1122345803842265 
0.017745803357314148 0.8139088729016787 0.1683453237410072 
0.006289308176100629 0.5974842767295597 0.39622641509433965 
0.020134228187919462 0.8523489932885906 0.12751677852348994 
0.06575963718820861 0.6689342403628118 0.2653061224489796 
0.027818448023426062 0.5929721815519766 0.37920937042459735 
0.20353982300884957 0.30973451327433627 0.48672566371681414 
0.07692307692307693 0.38461538461538464 0.5384615384615384 
0.2 0.2 0.6 
0.012716763005780347 0.6947976878612717 0.292485549132948 
0.010342950462710943 0.6352749047359826 0.3543821448013065 
0.0066815144766146995 0.2650334075723831 0.7282850779510023 
0.011764705882352941 0.5294117647058824 0.4588235294117647 
0.002520302436292355 0.373284794175301 0.6241949033884067 
0.0018934271030565323 0.15499053286448472 0.8431160400324588 
0.06666666666666667 0.6444444444444445 0.28888888888888886 
0.029045643153526972 0.3278008298755187 0.6431535269709544 
0.0012126811803430154 0.06715943870185367 0.9316278801178033 
</TABLE>
</DEFINITION>
<DEFINITION>
<FOR>pixel15</FOR>
<GIVEN>pixel16</GIVEN>
<GIVEN>pixel18</GIVEN>
<TABLE>
0.5128520128520129 0.4686259686259686 0.01219051219051219 0.006331506331506332 
0.1893939393939394 0.5833333333333334 0.08333333333333333 0.14393939393939395 
0.075 0.675 0.075 0.175 
0.040210064273397086 0.88893243455087 0.054162094372158645 0.016695406803574227 
0.007906085289889795 0.5479156684235745 0.3787733588883565 0.0654048873981792 
0.00819672131147541 0.3469945355191257 0.28688524590163933 0.35792349726775957 
0.035108958837772396 0.6089588377723971 0.2627118644067797 0.09322033898305085 
0.003260869565217391 0.18562801932367148 0.6795893719806764 0.13152173913043477 
0.0015212981744421906 0.09685598377281947 0.31085192697768765 0.5907707910750507 
0.03723404255319149 0.4521276595744681 0.12234042553191489 0.3882978723404255 
0.009103641456582634 0.12955182072829133 0.39985994397759106 0.46148459383753504 
8.97021887334051E-4 0.024339193876330583 0.06775505322329865 0.9070087310130367 
</TABLE>
</DEFINITION>
<DEFINITION>
<FOR>pixel16</FOR>
<GIVEN>pixel18</GIVEN>
<GIVEN>pixel59</GIVEN>
<GIVEN>pixel9</GIVEN>
<TABLE>
0.6973905723905723 0.2857744107744108 0.013888888888888888 0.002946127946127946 
0.5198675496688742 0.4550365981178111 0.022133147438131752 0.0029627047751829907 
0.6101928374655647 0.32552800734618914 0.050045913682277315 0.014233241505968778 
0.35181451612903225 0.6300403225806451 0.01310483870967742 0.005040322580645161 
0.24597747385358004 0.7194288012872083 0.029967819790828642 0.004625905068382945 
0.3533145275035261 0.5606488011283498 0.06276445698166432 0.0232722143864598 
0.33095238095238094 0.6404761904761904 0.02619047619047619 0.002380952380952381 
0.2917298937784522 0.6619878603945372 0.03755690440060698 0.008725341426403643 
0.43670886075949367 0.4873417721518987 0.0661680092059839 0.009781357882623706 
0.5220588235294118 0.4338235294117647 0.03676470588235294 0.007352941176470588 
0.42132867132867136 0.5332167832167832 0.03671328671328671 0.008741258741258742 
0.47024793388429753 0.45041322314049587 0.05206611570247934 0.02727272727272727 
0.00684931506849315 0.3356164383561644 0.4589041095890411 0.19863013698630136 
0.004901960784313725 0.2957516339869281 0.5702614379084967 0.12908496732026145 
0.022058823529411766 0.2426470588235294 0.49754901960784315 0.23774509803921567 
0.015789473684210527 0.3631578947368421 0.531578947368421 0.08947368421052632 
0.006126295947219604 0.3426013195098963 0.5688030160226202 0.0824693685202639 
0.007847533632286996 0.22533632286995517 0.6087443946188341 0.15807174887892378 
0.003205128205128205 0.46474358974358976 0.5032051282051282 0.028846153846153848 
0.0039608574091332715 0.30638397017707364 0.6311742777260019 0.05848089468779124 
0.00794251134644478 0.22276853252647505 0.6138426626323752 0.15544629349470498 
0.02 0.4066666666666667 0.46 0.11333333333333333 
0.018849206349206348 0.2708333333333333 0.6498015873015873 0.060515873015873016 
0.03385826771653543 0.3724409448818898 0.4763779527559055 0.1173228346456693 
0.036585365853658534 0.012195121951219513 0.13414634146341464 0.8170731707317073 
0.003816793893129771 0.03435114503816794 0.1183206106870229 0.8435114503816794 
0.003472222222222222 0.04513888888888889 0.10069444444444445 0.8506944444444444 
0.013157894736842105 0.09210526315789473 0.17105263157894737 0.7236842105263158 
0.01059322033898305 0.023305084745762712 0.11652542372881355 0.8495762711864406 
0.001718213058419244 0.03264604810996564 0.11168384879725086 0.8539518900343642 
0.01875 0.03125 0.14375 0.80625 
0.0015182186234817814 0.021761133603238867 0.1887651821862348 0.7879554655870445 
9.77198697068404E-4 0.012052117263843648 0.1013029315960912 0.8856677524429968 
0.005263157894736842 0.03684210526315789 0.22631578947368422 0.7315789473684211 
0.0029840848806366046 0.014920424403183023 0.15417771883289125 0.8279177718832891 
0.0018977450323732976 0.019758874748827863 0.06262558606831882 0.91571779415048 
</TABLE>
</DEFINITION>
<DEFINITION>
<FOR>pixel17</FOR>
<GIVEN>pixel15</GIVEN>
<GIVEN>pixel16</GIVEN>
<GIVEN>pixel18</GIVEN>
<TABLE>
0.9977896481856695 0.0016577638607478357 5.525879535826119E-4 
0.9259259259259259 0.037037037037037035 0.037037037037037035 
0.6 0.2 0.2 
0.996116504854369 0.001941747572815534 0.001941747572815534 
0.9428571428571428 0.02857142857142857 0.02857142857142857 
0.6 0.2 0.2 
0.8709677419354839 0.0967741935483871 0.03225806451612903 
0.9310344827586207 0.034482758620689655 0.034482758620689655 
0.6 0.2 0.2 
0.5555555555555556 0.3333333333333333 0.1111111111111111 
0.7333333333333333 0.2 0.06666666666666667 
0.8823529411764706 0.058823529411764705 0.058823529411764705 
0.9798427736343479 0.013102197137673856 0.00705502922797823 
0.9746835443037974 0.012658227848101266 0.012658227848101266 
0.8620689655172413 0.034482758620689655 0.10344827586206896 
0.8698756942607776 0.11892797319932999 0.011196332539892445 
0.7291393621668851 0.25731760594145914 0.013543031891655745 
0.8604651162790697 0.13178294573643412 0.007751937984496124 
0.39801980198019804 0.44554455445544555 0.15643564356435644 
0.5100714749837557 0.45419103313840153 0.03573749187784275 
0.8341968911917098 0.11917098445595854 0.046632124352331605 
0.26436781609195403 0.10344827586206896 0.632183908045977 
0.3582887700534759 0.37967914438502676 0.2620320855614973 
0.6185819070904646 0.25183374083129584 0.1295843520782396 
0.45038167938931295 0.40458015267175573 0.1450381679389313 
0.38461538461538464 0.38461538461538464 0.23076923076923078 
0.6 0.2 0.2 
0.1774891774891775 0.5873015873015873 0.2352092352092352 
0.23436512950094757 0.6740366392924826 0.0915982312065698 
0.6822429906542056 0.21495327102803738 0.102803738317757 
0.0867579908675799 0.3515981735159817 0.5616438356164384 
0.03961627287262391 0.5967312133593888 0.3636525137679872 
0.24878048780487805 0.4146341463414634 0.33658536585365856 
0.04 0.28 0.68 
0.02268760907504363 0.13089005235602094 0.8464223385689355 
0.12951541850220263 0.30572687224669604 0.5647577092511014 
0.18840579710144928 0.21739130434782608 0.5942028985507246 
0.23809523809523808 0.047619047619047616 0.7142857142857143 
0.5555555555555556 0.3333333333333333 0.1111111111111111 
0.06976744186046512 0.15348837209302327 0.7767441860465116 
0.05454545454545454 0.16363636363636364 0.7818181818181819 
0.45864661654135336 0.12781954887218044 0.41353383458646614 
0.0379746835443038 0.13924050632911392 0.8227848101265823 
0.008249312557286892 0.08340971585701192 0.9083409715857012 
0.03684661525278492 0.15681233933161953 0.8063410454155956 
0.04 0.06666666666666667 0.8933333333333333 
0.0045385779122541605 0.028744326777609682 0.9667170953101362 
0.004416902894060254 0.018920166128287955 0.9766629309776518 
</TABLE>
</DEFINITION>
<DEFINITION>
<FOR>pixel18</FOR>
<GIVEN>pixel59</GIVEN>
<GIVEN>pixel6</GIVEN>
<GIVEN>pixel53</GIVEN>
<TABLE>
0.9434868606951116 0.03701610624470189 0.01949703306018649 
0.8161559888579387 0.11420612813370473 0.06963788300835655 
0.3548387096774194 0.3548387096774194 0.2903225806451613 
0.6 0.2 0.2 
0.8672632363907532 0.09719115088242605 0.03554561272682078 
0.8189730200174065 0.13664055700609226 0.044386422976501305 
0.6699029126213593 0.22330097087378642 0.10679611650485436 
0.4117647058823529 0.29411764705882354 0.29411764705882354 
0.8001850138760407 0.11933395004625347 0.08048103607770583 
0.6868475991649269 0.18580375782881003 0.12734864300626306 
0.7523809523809524 0.10476190476190476 0.14285714285714285 
0.7142857142857143 0.23809523809523808 0.047619047619047616 
0.7573221757322176 0.13249651324965134 0.1101813110181311 
0.6913183279742765 0.17041800643086816 0.1382636655948553 
0.6494845360824743 0.13402061855670103 0.21649484536082475 
0.5272727272727272 0.23636363636363636 0.23636363636363636 
0.8449111470113085 0.1050080775444265 0.050080775444264945 
0.7870452528837621 0.16237799467613132 0.050576752440106475 
0.5061728395061729 0.20987654320987653 0.2839506172839506 
0.6470588235294118 0.058823529411764705 0.29411764705882354 
0.6768027801911382 0.263249348392702 0.05994787141615986 
0.655668202764977 0.296221198156682 0.04811059907834101 
0.5753846153846154 0.2246153846153846 0.2 
0.5151515151515151 0.21212121212121213 0.2727272727272727 
0.5172413793103449 0.2567049808429119 0.2260536398467433 
0.45454545454545453 0.4198473282442748 0.12560721721027066 
0.5175097276264592 0.22957198443579765 0.2529182879377432 
0.5135135135135135 0.13513513513513514 0.35135135135135137 
0.3464052287581699 0.3333333333333333 0.3202614379084967 
0.4608030592734226 0.23135755258126195 0.3078393881453155 
0.5401069518716578 0.17647058823529413 0.28342245989304815 
0.5164835164835165 0.12087912087912088 0.3626373626373626 
0.5824175824175825 0.23076923076923078 0.18681318681318682 
0.5249621785173979 0.3555219364599092 0.11951588502269289 
0.4212218649517685 0.38263665594855306 0.19614147909967847 
0.17647058823529413 0.3333333333333333 0.49019607843137253 
0.4249201277955272 0.3546325878594249 0.22044728434504793 
0.3412219270707559 0.5334460275295823 0.12533204539966192 
0.23624801271860096 0.4861685214626391 0.2775834658187599 
0.3161290322580645 0.2129032258064516 0.47096774193548385 
0.23308270676691728 0.3383458646616541 0.42857142857142855 
0.2696348174087044 0.45672836418209106 0.2736368184092046 
0.1990988453956632 0.373134328358209 0.42776682624612783 
0.26848249027237353 0.2529182879377432 0.4785992217898833 
0.2698412698412698 0.2698412698412698 0.4603174603174603 
0.28861154446177845 0.32293291731669266 0.38845553822152884 
0.19129782445611404 0.23330832708177043 0.5753938484621155 
0.2819277108433735 0.2289156626506024 0.4891566265060241 
0.23809523809523808 0.3333333333333333 0.42857142857142855 
0.422680412371134 0.3402061855670103 0.23711340206185566 
0.34841628959276016 0.2579185520361991 0.3936651583710407 
0.1902834008097166 0.2388663967611336 0.5708502024291497 
0.3090909090909091 0.16363636363636364 0.5272727272727272 
0.24675324675324675 0.35064935064935066 0.4025974025974026 
0.14265025343953658 0.3439536567704562 0.5133960897900073 
0.14153132250580047 0.18793503480278423 0.6705336426914154 
0.3333333333333333 0.09090909090909091 0.5757575757575758 
0.20187793427230047 0.2863849765258216 0.5117370892018779 
0.10180878552971576 0.23204134366925064 0.6661498708010336 
0.09646412633024373 0.10470305526948163 0.7988328184002746 
0.24528301886792453 0.09433962264150944 0.660377358490566 
0.16097560975609757 0.13170731707317074 0.7073170731707317 
0.1300745650372825 0.16818558409279205 0.7017398508699254 
0.0877357020414524 0.06467196509272245 0.8475923328658251 
</TABLE>
</DEFINITION>
<DEFINITION>
<FOR>pixel19</FOR>
<GIVEN>pixel17</GIVEN>
<GIVEN>pixel15</GIVEN>
<GIVEN>pixel16</GIVEN>
<TABLE>
0.7065197428833793 0.27823691460055094 0.01524334251606979 
0.4098360655737705 0.5519125683060109 0.03825136612021858 
0.40350877192982454 0.543859649122807 0.05263157894736842 
0.2903225806451613 0.4838709677419355 0.22580645161290322 
0.18194640338504936 0.7948821277453153 0.023171468869635302 
0.044389113076328666 0.9089894393406027 0.046621447583068604 
0.06538796861377506 0.8116826503923278 0.12292938099389712 
0.061224489795918366 0.7434402332361516 0.19533527696793002 
0.22388059701492538 0.7014925373134329 0.07462686567164178 
0.054673721340388004 0.8765432098765432 0.06878306878306878 
0.1189873417721519 0.7924050632911392 0.08860759493670886 
0.13043478260869565 0.8260869565217391 0.043478260869565216 
0.391304347826087 0.391304347826087 0.21739130434782608 
0.12087912087912088 0.6483516483516484 0.23076923076923078 
0.12727272727272726 0.7454545454545455 0.12727272727272726 
0.2602739726027397 0.5616438356164384 0.1780821917808219 
0.09090909090909091 0.2727272727272727 0.6363636363636364 
0.3333333333333333 0.3333333333333333 0.3333333333333333 
0.2 0.6 0.2 
0.14285714285714285 0.14285714285714285 0.7142857142857143 
