<?xml version="1.0"?>
<!-- DTD for the XMLBIF 0.3 format -->
<!DOCTYPE BIF [
	<!ELEMENT BIF ( NETWORK )*>
	      <!ATTLIST BIF VERSION CDATA #REQUIRED>
	<!ELEMENT NETWORK ( NAME, ( PROPERTY | VARIABLE | DEFINITION )* )>
	<!ELEMENT NAME (#PCDATA)>
	<!ELEMENT VARIABLE ( NAME, ( OUTCOME |  PROPERTY )* ) >
	      <!ATTLIST VARIABLE TYPE (nature|decision|utility) "nature">
	<!ELEMENT OUTCOME (#PCDATA)>
	<!ELEMENT DEFINITION ( FOR | GIVEN | TABLE | PROPERTY )* >
	<!ELEMENT FOR (#PCDATA)>
	<!ELEMENT GIVEN (#PCDATA)>
	<!ELEMENT TABLE (#PCDATA)>
	<!ELEMENT PROPERTY (#PCDATA)>
]>


<BIF VERSION="0.3">
<NETWORK>
<NAME>faces-weka.filters.supervised.attribute.Discretize-Rfirst-last-precision6-weka.filters.unsupervised.attribute.ReplaceMissingValues</NAME>
<VARIABLE TYPE="nature">
<NAME>emotion</NAME>
<OUTCOME>angry</OUTCOME>
<OUTCOME>disgust</OUTCOME>
<OUTCOME>fear</OUTCOME>
<OUTCOME>happy</OUTCOME>
<OUTCOME>neutral</OUTCOME>
<OUTCOME>sad</OUTCOME>
<OUTCOME>surprise</OUTCOME>
</VARIABLE>
<VARIABLE TYPE="nature">
<NAME>pixel0</NAME>
<OUTCOME>&apos;\&apos;(-inf-0.448039]\&apos;&apos;</OUTCOME>
<OUTCOME>&apos;\&apos;(0.448039-0.685294]\&apos;&apos;</OUTCOME>
<OUTCOME>&apos;\&apos;(0.685294-0.789216]\&apos;&apos;</OUTCOME>
<OUTCOME>&apos;\&apos;(0.789216-inf)\&apos;&apos;</OUTCOME>
</VARIABLE>
<VARIABLE TYPE="nature">
<NAME>pixel1</NAME>
<OUTCOME>&apos;\&apos;(-inf-0.288725]\&apos;&apos;</OUTCOME>
<OUTCOME>&apos;\&apos;(0.288725-0.52451]\&apos;&apos;</OUTCOME>
<OUTCOME>&apos;\&apos;(0.52451-0.620098]\&apos;&apos;</OUTCOME>
<OUTCOME>&apos;\&apos;(0.620098-0.764216]\&apos;&apos;</OUTCOME>
<OUTCOME>&apos;\&apos;(0.764216-inf)\&apos;&apos;</OUTCOME>
</VARIABLE>
<VARIABLE TYPE="nature">
<NAME>pixel2</NAME>
<OUTCOME>&apos;\&apos;(-inf-0.230882]\&apos;&apos;</OUTCOME>
<OUTCOME>&apos;\&apos;(0.230882-0.40098]\&apos;&apos;</OUTCOME>
<OUTCOME>&apos;\&apos;(0.40098-0.661765]\&apos;&apos;</OUTCOME>
<OUTCOME>&apos;\&apos;(0.661765-0.757353]\&apos;&apos;</OUTCOME>
<OUTCOME>&apos;\&apos;(0.757353-inf)\&apos;&apos;</OUTCOME>
</VARIABLE>
<VARIABLE TYPE="nature">
<NAME>pixel3</NAME>
<OUTCOME>&apos;\&apos;(-inf-0.42598]\&apos;&apos;</OUTCOME>
<OUTCOME>&apos;\&apos;(0.42598-0.648039]\&apos;&apos;</OUTCOME>
<OUTCOME>&apos;\&apos;(0.648039-0.786275]\&apos;&apos;</OUTCOME>
<OUTCOME>&apos;\&apos;(0.786275-inf)\&apos;&apos;</OUTCOME>
</VARIABLE>
<VARIABLE TYPE="nature">
<NAME>pixel4</NAME>
<OUTCOME>&apos;\&apos;(-inf-0.408824]\&apos;&apos;</OUTCOME>
<OUTCOME>&apos;\&apos;(0.408824-0.696569]\&apos;&apos;</OUTCOME>
<OUTCOME>&apos;\&apos;(0.696569-0.783333]\&apos;&apos;</OUTCOME>
<OUTCOME>&apos;\&apos;(0.783333-inf)\&apos;&apos;</OUTCOME>
</VARIABLE>
<VARIABLE TYPE="nature">
<NAME>pixel5</NAME>
<OUTCOME>&apos;\&apos;(-inf-0.179412]\&apos;&apos;</OUTCOME>
<OUTCOME>&apos;\&apos;(0.179412-0.473529]\&apos;&apos;</OUTCOME>
<OUTCOME>&apos;\&apos;(0.473529-0.70049]\&apos;&apos;</OUTCOME>
<OUTCOME>&apos;\&apos;(0.70049-inf)\&apos;&apos;</OUTCOME>
</VARIABLE>
<VARIABLE TYPE="nature">
<NAME>pixel6</NAME>
<OUTCOME>&apos;\&apos;(-inf-0.378431]\&apos;&apos;</OUTCOME>
<OUTCOME>&apos;\&apos;(0.378431-0.656863]\&apos;&apos;</OUTCOME>
<OUTCOME>&apos;\&apos;(0.656863-0.779412]\&apos;&apos;</OUTCOME>
<OUTCOME>&apos;\&apos;(0.779412-inf)\&apos;&apos;</OUTCOME>
</VARIABLE>
<VARIABLE TYPE="nature">
<NAME>pixel7</NAME>
<OUTCOME>&apos;\&apos;(-inf-0.230392]\&apos;&apos;</OUTCOME>
<OUTCOME>&apos;\&apos;(0.230392-0.482353]\&apos;&apos;</OUTCOME>
<OUTCOME>&apos;\&apos;(0.482353-0.684314]\&apos;&apos;</OUTCOME>
<OUTCOME>&apos;\&apos;(0.684314-0.794608]\&apos;&apos;</OUTCOME>
<OUTCOME>&apos;\&apos;(0.794608-inf)\&apos;&apos;</OUTCOME>
</VARIABLE>
<VARIABLE TYPE="nature">
<NAME>pixel8</NAME>
<OUTCOME>&apos;\&apos;(-inf-0.47402]\&apos;&apos;</OUTCOME>
<OUTCOME>&apos;\&apos;(0.47402-0.7]\&apos;&apos;</OUTCOME>
<OUTCOME>&apos;\&apos;(0.7-0.796078]\&apos;&apos;</OUTCOME>
<OUTCOME>&apos;\&apos;(0.796078-inf)\&apos;&apos;</OUTCOME>
</VARIABLE>
<VARIABLE TYPE="nature">
<NAME>pixel9</NAME>
<OUTCOME>&apos;\&apos;(-inf-0.293137]\&apos;&apos;</OUTCOME>
<OUTCOME>&apos;\&apos;(0.293137-0.631863]\&apos;&apos;</OUTCOME>
<OUTCOME>&apos;\&apos;(0.631863-inf)\&apos;&apos;</OUTCOME>
</VARIABLE>
<VARIABLE TYPE="nature">
<NAME>pixel10</NAME>
<OUTCOME>&apos;\&apos;(-inf-0.170588]\&apos;&apos;</OUTCOME>
<OUTCOME>&apos;\&apos;(0.170588-0.601471]\&apos;&apos;</OUTCOME>
<OUTCOME>&apos;\&apos;(0.601471-inf)\&apos;&apos;</OUTCOME>
</VARIABLE>
<VARIABLE TYPE="nature">
<NAME>pixel11</NAME>
<OUTCOME>&apos;\&apos;(-inf-0.107353]\&apos;&apos;</OUTCOME>
<OUTCOME>&apos;\&apos;(0.107353-0.492157]\&apos;&apos;</OUTCOME>
<OUTCOME>&apos;\&apos;(0.492157-0.663235]\&apos;&apos;</OUTCOME>
<OUTCOME>&apos;\&apos;(0.663235-inf)\&apos;&apos;</OUTCOME>
</VARIABLE>
<VARIABLE TYPE="nature">
<NAME>pixel12</NAME>
<OUTCOME>&apos;\&apos;(-inf-0.505392]\&apos;&apos;</OUTCOME>
<OUTCOME>&apos;\&apos;(0.505392-inf)\&apos;&apos;</OUTCOME>
</VARIABLE>
<VARIABLE TYPE="nature">
<NAME>pixel13</NAME>
<OUTCOME>&apos;\&apos;(-inf-0.108824]\&apos;&apos;</OUTCOME>
<OUTCOME>&apos;\&apos;(0.108824-0.564706]\&apos;&apos;</OUTCOME>
<OUTCOME>&apos;\&apos;(0.564706-inf)\&apos;&apos;</OUTCOME>
</VARIABLE>
<VARIABLE TYPE="nature">
<NAME>pixel14</NAME>
<OUTCOME>&apos;\&apos;(-inf-0.152451]\&apos;&apos;</OUTCOME>
<OUTCOME>&apos;\&apos;(0.152451-0.585294]\&apos;&apos;</OUTCOME>
<OUTCOME>&apos;\&apos;(0.585294-inf)\&apos;&apos;</OUTCOME>
</VARIABLE>
<VARIABLE TYPE="nature">
<NAME>pixel15</NAME>
<OUTCOME>&apos;\&apos;(-inf-0.197059]\&apos;&apos;</OUTCOME>
<OUTCOME>&apos;\&apos;(0.197059-0.584314]\&apos;&apos;</OUTCOME>
<OUTCOME>&apos;\&apos;(0.584314-0.704902]\&apos;&apos;</OUTCOME>
<OUTCOME>&apos;\&apos;(0.704902-inf)\&apos;&apos;</OUTCOME>
</VARIABLE>
<VARIABLE TYPE="nature">
<NAME>pixel16</NAME>
<OUTCOME>&apos;\&apos;(-inf-0.318627]\&apos;&apos;</OUTCOME>
<OUTCOME>&apos;\&apos;(0.318627-0.589216]\&apos;&apos;</OUTCOME>
<OUTCOME>&apos;\&apos;(0.589216-0.706863]\&apos;&apos;</OUTCOME>
<OUTCOME>&apos;\&apos;(0.706863-inf)\&apos;&apos;</OUTCOME>
</VARIABLE>
<VARIABLE TYPE="nature">
<NAME>pixel17</NAME>
<OUTCOME>&apos;\&apos;(-inf-0.530392]\&apos;&apos;</OUTCOME>
<OUTCOME>&apos;\&apos;(0.530392-0.65049]\&apos;&apos;</OUTCOME>
<OUTCOME>&apos;\&apos;(0.65049-inf)\&apos;&apos;</OUTCOME>
</VARIABLE>
<VARIABLE TYPE="nature">
<NAME>pixel18</NAME>
<OUTCOME>&apos;\&apos;(-inf-0.567157]\&apos;&apos;</OUTCOME>
<OUTCOME>&apos;\&apos;(0.567157-0.716667]\&apos;&apos;</OUTCOME>
<OUTCOME>&apos;\&apos;(0.716667-inf)\&apos;&apos;</OUTCOME>
</VARIABLE>
<VARIABLE TYPE="nature">
<NAME>pixel19</NAME>
<OUTCOME>&apos;\&apos;(-inf-0.159314]\&apos;&apos;</OUTCOME>
<OUTCOME>&apos;\&apos;(0.159314-0.548529]\&apos;&apos;</OUTCOME>
<OUTCOME>&apos;\&apos;(0.548529-inf)\&apos;&apos;</OUTCOME>
</VARIABLE>
<VARIABLE TYPE="nature">
<NAME>pixel20</NAME>
<OUTCOME>&apos;\&apos;(-inf-0.017157]\&apos;&apos;</OUTCOME>
<OUTCOME>&apos;\&apos;(0.017157-0.733824]\&apos;&apos;</OUTCOME>
<OUTCOME>&apos;\&apos;(0.733824-0.972059]\&apos;&apos;</OUTCOME>
<OUTCOME>&apos;\&apos;(0.972059-inf)\&apos;&apos;</OUTCOME>
</VARIABLE>
<VARIABLE TYPE="nature">
<NAME>pixel21</NAME>
<OUTCOME>&apos;\&apos;(-inf-0.027941]\&apos;&apos;</OUTCOME>
<OUTCOME>&apos;\&apos;(0.027941-0.677941]\&apos;&apos;</OUTCOME>
<OUTCOME>&apos;\&apos;(0.677941-0.986765]\&apos;&apos;</OUTCOME>
<OUTCOME>&apos;\&apos;(0.986765-inf)\&apos;&apos;</OUTCOME>
</VARIABLE>
<VARIABLE TYPE="nature">
<NAME>pixel22</NAME>
<OUTCOME>&apos;\&apos;(-inf-0.606863]\&apos;&apos;</OUTCOME>
<OUTCOME>&apos;\&apos;(0.606863-0.976961]\&apos;&apos;</OUTCOME>
<OUTCOME>&apos;\&apos;(0.976961-inf)\&apos;&apos;</OUTCOME>
</VARIABLE>
<VARIABLE TYPE="nature">
<NAME>pixel23</NAME>
<OUTCOME>&apos;\&apos;(-inf-0.584314]\&apos;&apos;</OUTCOME>
<OUTCOME>&apos;\&apos;(0.584314-0.957353]\&apos;&apos;</OUTCOME>
<OUTCOME>&apos;\&apos;(0.957353-inf)\&apos;&apos;</OUTCOME>
</VARIABLE>
<VARIABLE TYPE="nature">
<NAME>pixel24</NAME>
<OUTCOME>&apos;\&apos;(-inf-0.585294]\&apos;&apos;</OUTCOME>
<OUTCOME>&apos;\&apos;(0.585294-0.985784]\&apos;&apos;</OUTCOME>
<OUTCOME>&apos;\&apos;(0.985784-inf)\&apos;&apos;</OUTCOME>
</VARIABLE>
<VARIABLE TYPE="nature">
<NAME>pixel25</NAME>
<OUTCOME>&apos;\&apos;(-inf-0.026961]\&apos;&apos;</OUTCOME>
<OUTCOME>&apos;\&apos;(0.026961-0.305392]\&apos;&apos;</OUTCOME>
<OUTCOME>&apos;\&apos;(0.305392-0.661765]\&apos;&apos;</OUTCOME>
<OUTCOME>&apos;\&apos;(0.661765-0.957353]\&apos;&apos;</OUTCOME>
<OUTCOME>&apos;\&apos;(0.957353-inf)\&apos;&apos;</OUTCOME>
</VARIABLE>
<VARIABLE TYPE="nature">
<NAME>pixel26</NAME>
<OUTCOME>&apos;\&apos;(-inf-0.630882]\&apos;&apos;</OUTCOME>
<OUTCOME>&apos;\&apos;(0.630882-0.970588]\&apos;&apos;</OUTCOME>
<OUTCOME>&apos;\&apos;(0.970588-inf)\&apos;&apos;</OUTCOME>
</VARIABLE>
<VARIABLE TYPE="nature">
<NAME>pixel27</NAME>
<OUTCOME>&apos;\&apos;(-inf-0.568137]\&apos;&apos;</OUTCOME>
<OUTCOME>&apos;\&apos;(0.568137-0.794608]\&apos;&apos;</OUTCOME>
<OUTCOME>&apos;\&apos;(0.794608-0.990686]\&apos;&apos;</OUTCOME>
<OUTCOME>&apos;\&apos;(0.990686-inf)\&apos;&apos;</OUTCOME>
</VARIABLE>
<VARIABLE TYPE="nature">
<NAME>pixel28</NAME>
<OUTCOME>&apos;\&apos;(-inf-0.553922]\&apos;&apos;</OUTCOME>
<OUTCOME>&apos;\&apos;(0.553922-0.74902]\&apos;&apos;</OUTCOME>
<OUTCOME>&apos;\&apos;(0.74902-0.983333]\&apos;&apos;</OUTCOME>
<OUTCOME>&apos;\&apos;(0.983333-inf)\&apos;&apos;</OUTCOME>
</VARIABLE>
<VARIABLE TYPE="nature">
<NAME>pixel29</NAME>
<OUTCOME>&apos;\&apos;(-inf-0.012255]\&apos;&apos;</OUTCOME>
<OUTCOME>&apos;\&apos;(0.012255-0.687255]\&apos;&apos;</OUTCOME>
<OUTCOME>&apos;\&apos;(0.687255-0.967647]\&apos;&apos;</OUTCOME>
<OUTCOME>&apos;\&apos;(0.967647-inf)\&apos;&apos;</OUTCOME>
</VARIABLE>
<VARIABLE TYPE="nature">
<NAME>pixel30</NAME>
<OUTCOME>&apos;\&apos;(-inf-0.133333]\&apos;&apos;</OUTCOME>
<OUTCOME>&apos;\&apos;(0.133333-0.215196]\&apos;&apos;</OUTCOME>
<OUTCOME>&apos;\&apos;(0.215196-0.420588]\&apos;&apos;</OUTCOME>
<OUTCOME>&apos;\&apos;(0.420588-0.621078]\&apos;&apos;</OUTCOME>
<OUTCOME>&apos;\&apos;(0.621078-inf)\&apos;&apos;</OUTCOME>
</VARIABLE>
<VARIABLE TYPE="nature">
<NAME>pixel31</NAME>
<OUTCOME>&apos;\&apos;(-inf-0.160784]\&apos;&apos;</OUTCOME>
<OUTCOME>&apos;\&apos;(0.160784-0.365686]\&apos;&apos;</OUTCOME>
<OUTCOME>&apos;\&apos;(0.365686-0.573529]\&apos;&apos;</OUTCOME>
<OUTCOME>&apos;\&apos;(0.573529-0.734804]\&apos;&apos;</OUTCOME>
<OUTCOME>&apos;\&apos;(0.734804-inf)\&apos;&apos;</OUTCOME>
</VARIABLE>
<VARIABLE TYPE="nature">
<NAME>pixel32</NAME>
<OUTCOME>&apos;\&apos;(-inf-0.194608]\&apos;&apos;</OUTCOME>
<OUTCOME>&apos;\&apos;(0.194608-0.286765]\&apos;&apos;</OUTCOME>
<OUTCOME>&apos;\&apos;(0.286765-0.492157]\&apos;&apos;</OUTCOME>
<OUTCOME>&apos;\&apos;(0.492157-inf)\&apos;&apos;</OUTCOME>
</VARIABLE>
<VARIABLE TYPE="nature">
<NAME>pixel33</NAME>
<OUTCOME>&apos;\&apos;(-inf-0.151961]\&apos;&apos;</OUTCOME>
<OUTCOME>&apos;\&apos;(0.151961-0.27549]\&apos;&apos;</OUTCOME>
<OUTCOME>&apos;\&apos;(0.27549-0.558824]\&apos;&apos;</OUTCOME>
<OUTCOME>&apos;\&apos;(0.558824-inf)\&apos;&apos;</OUTCOME>
</VARIABLE>
<VARIABLE TYPE="nature">
<NAME>pixel34</NAME>
<OUTCOME>&apos;\&apos;(-inf-0.161765]\&apos;&apos;</OUTCOME>
<OUTCOME>&apos;\&apos;(0.161765-0.402451]\&apos;&apos;</OUTCOME>
<OUTCOME>&apos;\&apos;(0.402451-0.571078]\&apos;&apos;</OUTCOME>
<OUTCOME>&apos;\&apos;(0.571078-inf)\&apos;&apos;</OUTCOME>
</VARIABLE>
<VARIABLE TYPE="nature">
<NAME>pixel35</NAME>
<OUTCOME>&apos;\&apos;(-inf-0.178922]\&apos;&apos;</OUTCOME>
<OUTCOME>&apos;\&apos;(0.178922-0.280882]\&apos;&apos;</OUTCOME>
<OUTCOME>&apos;\&apos;(0.280882-0.40098]\&apos;&apos;</OUTCOME>
<OUTCOME>&apos;\&apos;(0.40098-0.560294]\&apos;&apos;</OUTCOME>
<OUTCOME>&apos;\&apos;(0.560294-inf)\&apos;&apos;</OUTCOME>
</VARIABLE>
<VARIABLE TYPE="nature">
<NAME>pixel36</NAME>
<OUTCOME>&apos;\&apos;(-inf-0.177451]\&apos;&apos;</OUTCOME>
<OUTCOME>&apos;\&apos;(0.177451-0.455392]\&apos;&apos;</OUTCOME>
<OUTCOME>&apos;\&apos;(0.455392-0.542647]\&apos;&apos;</OUTCOME>
<OUTCOME>&apos;\&apos;(0.542647-inf)\&apos;&apos;</OUTCOME>
</VARIABLE>
<VARIABLE TYPE="nature">
<NAME>pixel37</NAME>
<OUTCOME>&apos;\&apos;(-inf-0.146569]\&apos;&apos;</OUTCOME>
<OUTCOME>&apos;\&apos;(0.146569-0.422059]\&apos;&apos;</OUTCOME>
<OUTCOME>&apos;\&apos;(0.422059-0.578431]\&apos;&apos;</OUTCOME>
<OUTCOME>&apos;\&apos;(0.578431-inf)\&apos;&apos;</OUTCOME>
</VARIABLE>
<VARIABLE TYPE="nature">
<NAME>pixel38</NAME>
<OUTCOME>&apos;\&apos;(-inf-0.156373]\&apos;&apos;</OUTCOME>
<OUTCOME>&apos;\&apos;(0.156373-0.394118]\&apos;&apos;</OUTCOME>
<OUTCOME>&apos;\&apos;(0.394118-0.543627]\&apos;&apos;</OUTCOME>
<OUTCOME>&apos;\&apos;(0.543627-inf)\&apos;&apos;</OUTCOME>
</VARIABLE>
<VARIABLE TYPE="nature">
<NAME>pixel39</NAME>
<OUTCOME>&apos;\&apos;(-inf-0.163235]\&apos;&apos;</OUTCOME>
<OUTCOME>&apos;\&apos;(0.163235-0.362255]\&apos;&apos;</OUTCOME>
<OUTCOME>&apos;\&apos;(0.362255-0.479902]\&apos;&apos;</OUTCOME>
<OUTCOME>&apos;\&apos;(0.479902-0.711765]\&apos;&apos;</OUTCOME>
<OUTCOME>&apos;\&apos;(0.711765-inf)\&apos;&apos;</OUTCOME>
</VARIABLE>
<VARIABLE TYPE="nature">
<NAME>pixel40</NAME>
<OUTCOME>&apos;\&apos;(-inf-0.115686]\&apos;&apos;</OUTCOME>
<OUTCOME>&apos;\&apos;(0.115686-0.337255]\&apos;&apos;</OUTCOME>
<OUTCOME>&apos;\&apos;(0.337255-inf)\&apos;&apos;</OUTCOME>
</VARIABLE>
<VARIABLE TYPE="nature">
<NAME>pixel41</NAME>
<OUTCOME>&apos;\&apos;(-inf-0.030882]\&apos;&apos;</OUTCOME>
<OUTCOME>&apos;\&apos;(0.030882-0.286275]\&apos;&apos;</OUTCOME>
<OUTCOME>&apos;\&apos;(0.286275-0.971078]\&apos;&apos;</OUTCOME>
<OUTCOME>&apos;\&apos;(0.971078-inf)\&apos;&apos;</OUTCOME>
</VARIABLE>
<VARIABLE TYPE="nature">
<NAME>pixel42</NAME>
<OUTCOME>&apos;\&apos;(-inf-0.434314]\&apos;&apos;</OUTCOME>
<OUTCOME>&apos;\&apos;(0.434314-0.981373]\&apos;&apos;</OUTCOME>
<OUTCOME>&apos;\&apos;(0.981373-inf)\&apos;&apos;</OUTCOME>
</VARIABLE>
<VARIABLE TYPE="nature">
<NAME>pixel43</NAME>
<OUTCOME>&apos;\&apos;(-inf-0.00049]\&apos;&apos;</OUTCOME>
<OUTCOME>&apos;\&apos;(0.00049-0.187255]\&apos;&apos;</OUTCOME>
<OUTCOME>&apos;\&apos;(0.187255-0.604902]\&apos;&apos;</OUTCOME>
<OUTCOME>&apos;\&apos;(0.604902-0.971569]\&apos;&apos;</OUTCOME>
<OUTCOME>&apos;\&apos;(0.971569-inf)\&apos;&apos;</OUTCOME>
</VARIABLE>
<VARIABLE TYPE="nature">
<NAME>pixel44</NAME>
<OUTCOME>&apos;\&apos;(-inf-0.155882]\&apos;&apos;</OUTCOME>
<OUTCOME>&apos;\&apos;(0.155882-0.512255]\&apos;&apos;</OUTCOME>
<OUTCOME>&apos;\&apos;(0.512255-0.962255]\&apos;&apos;</OUTCOME>
<OUTCOME>&apos;\&apos;(0.962255-inf)\&apos;&apos;</OUTCOME>
</VARIABLE>
<VARIABLE TYPE="nature">
<NAME>pixel45</NAME>
<OUTCOME>&apos;\&apos;(-inf-0.122059]\&apos;&apos;</OUTCOME>
<OUTCOME>&apos;\&apos;(0.122059-0.523529]\&apos;&apos;</OUTCOME>
<OUTCOME>&apos;\&apos;(0.523529-0.978922]\&apos;&apos;</OUTCOME>
<OUTCOME>&apos;\&apos;(0.978922-inf)\&apos;&apos;</OUTCOME>
</VARIABLE>
<VARIABLE TYPE="nature">
<NAME>pixel46</NAME>
<OUTCOME>&apos;\&apos;(-inf-0.093137]\&apos;&apos;</OUTCOME>
<OUTCOME>&apos;\&apos;(0.093137-0.542157]\&apos;&apos;</OUTCOME>
<OUTCOME>&apos;\&apos;(0.542157-inf)\&apos;&apos;</OUTCOME>
</VARIABLE>
<VARIABLE TYPE="nature">
<NAME>pixel47</NAME>
<OUTCOME>&apos;\&apos;(-inf-0.089216]\&apos;&apos;</OUTCOME>
<OUTCOME>&apos;\&apos;(0.089216-0.429412]\&apos;&apos;</OUTCOME>
<OUTCOME>&apos;\&apos;(0.429412-inf)\&apos;&apos;</OUTCOME>
</VARIABLE>
<VARIABLE TYPE="nature">
<NAME>pixel48</NAME>
<OUTCOME>&apos;\&apos;(-inf-0.10098]\&apos;&apos;</OUTCOME>
<OUTCOME>&apos;\&apos;(0.10098-0.535784]\&apos;&apos;</OUTCOME>
<OUTCOME>&apos;\&apos;(0.535784-inf)\&apos;&apos;</OUTCOME>
</VARIABLE>
<VARIABLE TYPE="nature">
<NAME>pixel49</NAME>
<OUTCOME>&apos;\&apos;(-inf-0.103431]\&apos;&apos;</OUTCOME>
<OUTCOME>&apos;\&apos;(0.103431-0.461765]\&apos;&apos;</OUTCOME>
<OUTCOME>&apos;\&apos;(0.461765-0.775]\&apos;&apos;</OUTCOME>
<OUTCOME>&apos;\&apos;(0.775-inf)\&apos;&apos;</OUTCOME>
</VARIABLE>
<VARIABLE TYPE="nature">
<NAME>pixel50</NAME>
<OUTCOME>&apos;\&apos;(-inf-0.326471]\&apos;&apos;</OUTCOME>
<OUTCOME>&apos;\&apos;(0.326471-0.578922]\&apos;&apos;</OUTCOME>
<OUTCOME>&apos;\&apos;(0.578922-0.631863]\&apos;&apos;</OUTCOME>
<OUTCOME>&apos;\&apos;(0.631863-0.77549]\&apos;&apos;</OUTCOME>
<OUTCOME>&apos;\&apos;(0.77549-inf)\&apos;&apos;</OUTCOME>
</VARIABLE>
<VARIABLE TYPE="nature">
<NAME>pixel51</NAME>
<OUTCOME>&apos;\&apos;(-inf-0.430882]\&apos;&apos;</OUTCOME>
<OUTCOME>&apos;\&apos;(0.430882-0.614706]\&apos;&apos;</OUTCOME>
<OUTCOME>&apos;\&apos;(0.614706-0.745098]\&apos;&apos;</OUTCOME>
<OUTCOME>&apos;\&apos;(0.745098-inf)\&apos;&apos;</OUTCOME>
</VARIABLE>
<VARIABLE TYPE="nature">
<NAME>pixel52</NAME>
<OUTCOME>&apos;\&apos;(-inf-0.465686]\&apos;&apos;</OUTCOME>
<OUTCOME>&apos;\&apos;(0.465686-0.638725]\&apos;&apos;</OUTCOME>
<OUTCOME>&apos;\&apos;(0.638725-0.772059]\&apos;&apos;</OUTCOME>
<OUTCOME>&apos;\&apos;(0.772059-inf)\&apos;&apos;</OUTCOME>
</VARIABLE>
<VARIABLE TYPE="nature">
<NAME>pixel53</NAME>
<OUTCOME>&apos;\&apos;(-inf-0.459804]\&apos;&apos;</OUTCOME>
<OUTCOME>&apos;\&apos;(0.459804-0.684804]\&apos;&apos;</OUTCOME>
<OUTCOME>&apos;\&apos;(0.684804-0.79902]\&apos;&apos;</OUTCOME>
<OUTCOME>&apos;\&apos;(0.79902-inf)\&apos;&apos;</OUTCOME>
</VARIABLE>
<VARIABLE TYPE="nature">
<NAME>pixel54</NAME>
<OUTCOME>&apos;\&apos;(-inf-0.385294]\&apos;&apos;</OUTCOME>
<OUTCOME>&apos;\&apos;(0.385294-0.57598]\&apos;&apos;</OUTCOME>
<OUTCOME>&apos;\&apos;(0.57598-0.768137]\&apos;&apos;</OUTCOME>
<OUTCOME>&apos;\&apos;(0.768137-inf)\&apos;&apos;</OUTCOME>
</VARIABLE>
<VARIABLE TYPE="nature">
<NAME>pixel55</NAME>
<OUTCOME>&apos;\&apos;(-inf-0.34951]\&apos;&apos;</OUTCOME>
<OUTCOME>&apos;\&apos;(0.34951-0.573529]\&apos;&apos;</OUTCOME>
<OUTCOME>&apos;\&apos;(0.573529-0.763235]\&apos;&apos;</OUTCOME>
<OUTCOME>&apos;\&apos;(0.763235-inf)\&apos;&apos;</OUTCOME>
</VARIABLE>
<VARIABLE TYPE="nature">
<NAME>pixel56</NAME>
<OUTCOME>&apos;\&apos;(-inf-0.427451]\&apos;&apos;</OUTCOME>
<OUTCOME>&apos;\&apos;(0.427451-0.610784]\&apos;&apos;</OUTCOME>
<OUTCOME>&apos;\&apos;(0.610784-0.780392]\&apos;&apos;</OUTCOME>
<OUTCOME>&apos;\&apos;(0.780392-inf)\&apos;&apos;</OUTCOME>
</VARIABLE>
<VARIABLE TYPE="nature">
<NAME>pixel57</NAME>
<OUTCOME>&apos;\&apos;(-inf-0.455882]\&apos;&apos;</OUTCOME>
<OUTCOME>&apos;\&apos;(0.455882-0.577941]\&apos;&apos;</OUTCOME>
<OUTCOME>&apos;\&apos;(0.577941-0.741667]\&apos;&apos;</OUTCOME>
<OUTCOME>&apos;\&apos;(0.741667-inf)\&apos;&apos;</OUTCOME>
</VARIABLE>
<VARIABLE TYPE="nature">
<NAME>pixel58</NAME>
<OUTCOME>&apos;\&apos;(-inf-0.414706]\&apos;&apos;</OUTCOME>
<OUTCOME>&apos;\&apos;(0.414706-0.620098]\&apos;&apos;</OUTCOME>
<OUTCOME>&apos;\&apos;(0.620098-0.767157]\&apos;&apos;</OUTCOME>
<OUTCOME>&apos;\&apos;(0.767157-inf)\&apos;&apos;</OUTCOME>
</VARIABLE>
<VARIABLE TYPE="nature">
<NAME>pixel59</NAME>
<OUTCOME>&apos;\&apos;(-inf-0.45]\&apos;&apos;</OUTCOME>
<OUTCOME>&apos;\&apos;(0.45-0.614216]\&apos;&apos;</OUTCOME>
<OUTCOME>&apos;\&apos;(0.614216-0.765686]\&apos;&apos;</OUTCOME>
<OUTCOME>&apos;\&apos;(0.765686-inf)\&apos;&apos;</OUTCOME>
</VARIABLE>
<VARIABLE TYPE="nature">
<NAME>pixel60</NAME>
<OUTCOME>&apos;\&apos;(-inf-0.242157]\&apos;&apos;</OUTCOME>
<OUTCOME>&apos;\&apos;(0.242157-0.481863]\&apos;&apos;</OUTCOME>
<OUTCOME>&apos;\&apos;(0.481863-0.67549]\&apos;&apos;</OUTCOME>
<OUTCOME>&apos;\&apos;(0.67549-0.822059]\&apos;&apos;</OUTCOME>
<OUTCOME>&apos;\&apos;(0.822059-inf)\&apos;&apos;</OUTCOME>
</VARIABLE>
<VARIABLE TYPE="nature">
<NAME>pixel61</NAME>
<OUTCOME>&apos;\&apos;(-inf-0.24951]\&apos;&apos;</OUTCOME>
<OUTCOME>&apos;\&apos;(0.24951-0.485294]\&apos;&apos;</OUTCOME>
<OUTCOME>&apos;\&apos;(0.485294-0.652941]\&apos;&apos;</OUTCOME>
<OUTCOME>&apos;\&apos;(0.652941-0.775]\&apos;&apos;</OUTCOME>
<OUTCOME>&apos;\&apos;(0.775-inf)\&apos;&apos;</OUTCOME>
</VARIABLE>
<VARIABLE TYPE="nature">
<NAME>pixel62</NAME>
<OUTCOME>&apos;\&apos;(-inf-0.448039]\&apos;&apos;</OUTCOME>
<OUTCOME>&apos;\&apos;(0.448039-0.685294]\&apos;&apos;</OUTCOME>
<OUTCOME>&apos;\&apos;(0.685294-0.789216]\&apos;&apos;</OUTCOME>
<OUTCOME>&apos;\&apos;(0.789216-inf)\&apos;&apos;</OUTCOME>
</VARIABLE>
<VARIABLE TYPE="nature">
<NAME>pixel63</NAME>
<OUTCOME>&apos;\&apos;(-inf-0.428922]\&apos;&apos;</OUTCOME>
<OUTCOME>&apos;\&apos;(0.428922-0.598039]\&apos;&apos;</OUTCOME>
<OUTCOME>&apos;\&apos;(0.598039-0.75]\&apos;&apos;</OUTCOME>
<OUTCOME>&apos;\&apos;(0.75-inf)\&apos;&apos;</OUTCOME>
</VARIABLE>
<VARIABLE TYPE="nature">
<NAME>pixel64</NAME>
<OUTCOME>&apos;\&apos;(-inf-0.385294]\&apos;&apos;</OUTCOME>
<OUTCOME>&apos;\&apos;(0.385294-0.57598]\&apos;&apos;</OUTCOME>
<OUTCOME>&apos;\&apos;(0.57598-0.768137]\&apos;&apos;</OUTCOME>
<OUTCOME>&apos;\&apos;(0.768137-inf)\&apos;&apos;</OUTCOME>
</VARIABLE>
<VARIABLE TYPE="nature">
<NAME>pixel65</NAME>
<OUTCOME>&apos;\&apos;(-inf-0.347059]\&apos;&apos;</OUTCOME>
<OUTCOME>&apos;\&apos;(0.347059-0.642157]\&apos;&apos;</OUTCOME>
<OUTCOME>&apos;\&apos;(0.642157-0.79902]\&apos;&apos;</OUTCOME>
<OUTCOME>&apos;\&apos;(0.79902-inf)\&apos;&apos;</OUTCOME>
</VARIABLE>
<VARIABLE TYPE="nature">
<NAME>pixel66</NAME>
<OUTCOME>&apos;\&apos;(-inf-0.455882]\&apos;&apos;</OUTCOME>
<OUTCOME>&apos;\&apos;(0.455882-0.577941]\&apos;&apos;</OUTCOME>
<OUTCOME>&apos;\&apos;(0.577941-0.741667]\&apos;&apos;</OUTCOME>
<OUTCOME>&apos;\&apos;(0.741667-inf)\&apos;&apos;</OUTCOME>
</VARIABLE>
<VARIABLE TYPE="nature">
<NAME>pixel67</NAME>
<OUTCOME>&apos;\&apos;(-inf-0.358824]\&apos;&apos;</OUTCOME>
<OUTCOME>&apos;\&apos;(0.358824-0.635294]\&apos;&apos;</OUTCOME>
<OUTCOME>&apos;\&apos;(0.635294-0.725]\&apos;&apos;</OUTCOME>
<OUTCOME>&apos;\&apos;(0.725-inf)\&apos;&apos;</OUTCOME>
</VARIABLE>
<VARIABLE TYPE="nature">
<NAME>pixel68</NAME>
<OUTCOME>&apos;\&apos;(-inf-0.42598]\&apos;&apos;</OUTCOME>
<OUTCOME>&apos;\&apos;(0.42598-0.648039]\&apos;&apos;</OUTCOME>
<OUTCOME>&apos;\&apos;(0.648039-0.786275]\&apos;&apos;</OUTCOME>
<OUTCOME>&apos;\&apos;(0.786275-inf)\&apos;&apos;</OUTCOME>
</VARIABLE>
<VARIABLE TYPE="nature">
<NAME>pixel69</NAME>
<OUTCOME>&apos;\&apos;(-inf-0.188235]\&apos;&apos;</OUTCOME>
<OUTCOME>&apos;\&apos;(0.188235-0.429412]\&apos;&apos;</OUTCOME>
<OUTCOME>&apos;\&apos;(0.429412-0.602941]\&apos;&apos;</OUTCOME>
<OUTCOME>&apos;\&apos;(0.602941-0.716176]\&apos;&apos;</OUTCOME>
<OUTCOME>&apos;\&apos;(0.716176-0.793627]\&apos;&apos;</OUTCOME>
<OUTCOME>&apos;\&apos;(0.793627-inf)\&apos;&apos;</OUTCOME>
</VARIABLE>
<DEFINITION>
<FOR>emotion</FOR>
<TABLE>
0.13789680812161526 0.01495812074459749 0.14266808295749386 0.25080537029620215 0.17185296115067825 0.1699374858516029 0.11188117087781009 
</TABLE>
</DEFINITION>
<DEFINITION>
<FOR>pixel0</FOR>
<GIVEN>emotion</GIVEN>
<TABLE>
0.2942438778086342 0.41996970462004546 0.17508204998737692 0.11070436758394345 
0.22389791183294663 0.4651972157772622 0.18213457076566125 0.12877030162412992 
0.19802342606149342 0.4017813567593948 0.22022938018545632 0.17996583699365545 
0.23219491878384008 0.44766069693183397 0.18832430931556296 0.13182007496876302 
0.22234602917341978 0.3842179902755267 0.19540113452188007 0.19803484602917343 
0.28528989961073553 0.4078057775046097 0.17383732841630814 0.13306699446834666 
0.08696328562538892 0.317517112632234 0.2584007467330429 0.33711885500933414 
</TABLE>
</DEFINITION>
<DEFINITION>
<FOR>pixel1</FOR>
<GIVEN>emotion</GIVEN>
<GIVEN>pixel0</GIVEN>
<TABLE>
0.2334047109207709 0.4406852248394004 0.13576017130620985 0.1297644539614561 0.06038543897216274 
0.07595316721705193 0.29930951666166317 0.2566796757730411 0.2848994296007205 0.08315821074752326 
0.052480230050323505 0.1833213515456506 0.1746944644140906 0.3601725377426312 0.2293314162473041 
0.05561861520998865 0.1191827468785471 0.11237230419977298 0.25539160045402953 0.45743473325766176 
0.1065989847715736 0.583756345177665 0.14720812182741116 0.116751269035533 0.04568527918781726 
0.012345679012345678 0.24444444444444444 0.28888888888888886 0.33827160493827163 0.11604938271604938 
0.043478260869565216 0.19254658385093168 0.13043478260869565 0.36645962732919257 0.2670807453416149 
0.02608695652173913 0.06086956521739131 0.11304347826086956 0.1826086956521739 0.6173913043478261 
0.16902274124154887 0.3988936693300553 0.1628764597418562 0.15918869084204057 0.11001843884449908 
0.06642402183803457 0.24173491052471943 0.24355474673946012 0.31938125568698816 0.1289050652107977 
0.027086788280818133 0.12216694306246545 0.14427860696517414 0.44499723604201213 0.2614704256495301 
0.03989181879648411 0.10074374577417174 0.08181203515889114 0.2657200811359026 0.5118323191345504 
0.19856673633920574 0.5091071961779635 0.12988951925948045 0.1113765303075545 0.05106001791579576 
0.04261583759491709 0.3169068650240198 0.24469239113590577 0.30017046335037967 0.09561444289477762 
0.01950680898049319 0.13139492086860508 0.14685314685314685 0.46853146853146854 0.23371365476628633 
0.01839201261166579 0.09196006305832895 0.06883867577509196 0.3042564372044141 0.5165528113504992 
0.21691678035470668 0.4461118690313779 0.12232833105957254 0.13142337426102774 0.08321964529331514 
0.06031077166183829 0.27890439820911245 0.23465894126942322 0.30313405319989467 0.12299183565973136 
0.02638385928608381 0.1536471805483704 0.10191412312467667 0.4454216244180031 0.272633212622866 
0.030117406840224605 0.07299642674834099 0.0709545686574783 0.26901480347115875 0.5569167942827974 
0.2111868053065615 0.447830763714593 0.12585155969881678 0.1444962352097526 0.07063463607027609 
0.0740276035131744 0.32496863237139273 0.23262233375156838 0.27176913425345045 0.09661229611041405 
0.0582010582010582 0.18988830099941212 0.17225161669606115 0.37095825984714875 0.2087007642563198 
0.04834996162701458 0.12663085188027629 0.09286262471220261 0.24328472755180353 0.488871834228703 
0.16873889875666073 0.2753108348134991 0.14031971580817051 0.23623445825932504 0.17939609236234458 
0.02982885085574572 0.19706601466992665 0.2156479217603912 0.3613691931540342 0.1960880195599022 
0.021021021021021023 0.1111111111111111 0.12192192192192192 0.39579579579579577 0.35015015015015016 
0.01427913403961308 0.10363887609396591 0.07968678028558268 0.2418240442192538 0.5605711653615846 
</TABLE>
</DEFINITION>
<DEFINITION>
<FOR>pixel2</FOR>
<GIVEN>emotion</GIVEN>
<GIVEN>pixel0</GIVEN>
<TABLE>
0.2779443254817987 0.4132762312633833 0.28650963597430407 0.014989293361884369 0.007280513918629551 
0.011708195737015911 0.0849594716301411 0.7081957370159111 0.14800360252176523 0.047132993095166616 
0.002156721782890007 0.01653486700215672 0.35442127965492454 0.38317757009345793 0.2437095614665708 
0.00340522133938706 0.0056753688989784334 0.11010215664018161 0.22814982973893302 0.6526674233825198 
0.15736040609137056 0.41116751269035534 0.4010152284263959 0.025380710659898477 0.005076142131979695 
0.012345679012345678 0.10617283950617284 0.6691358024691358 0.15555555555555556 0.056790123456790124 
0.006211180124223602 0.018633540372670808 0.2546583850931677 0.32919254658385094 0.391304347826087 
0.008695652173913044 0.008695652173913044 0.11304347826086956 0.25217391304347825 0.6173913043478261 
0.21819299323909036 0.44437615242778117 0.30424093423478793 0.0215119852489244 0.011677934849416103 
0.00940248710949348 0.10100090991810737 0.6924476797088263 0.1392174704276615 0.05793145283591143 
0.007186290768380321 0.017136539524599224 0.2736318407960199 0.46379215035931454 0.238253178551686 
0.002028397565922921 0.004732927653820149 0.07505070993914807 0.17106152805949967 0.7471264367816092 
0.1436249626754255 0.44759629740220963 0.3830994326664676 0.01761719916392953 0.008062108091967751 
0.0020145668681233533 0.06121183945451728 0.7281884394855106 0.16534944986827832 0.043235704323570434 
3.68052999631947E-4 0.005520794994479205 0.27346337872653664 0.45454545454545453 0.26610231873389767 
5.254860746190226E-4 0.004729374671571204 0.06568575932737783 0.1907514450867052 0.7383079348397268 
0.21691678035470668 0.4897680763983629 0.2760345611641655 0.007730786721236926 0.009549795361527967 
0.010797998419805109 0.10244930208058994 0.7282064787990519 0.13510666315512246 0.023439557545430603 
0.0036213140196585617 0.01189860320744956 0.3098810139679255 0.446456285566477 0.22814278323848938 
0.0015313935681470138 0.005615109749872384 0.08014293006636039 0.18529862174578868 0.7274119448698315 
0.23485120114736466 0.4428110433847257 0.29939046253137325 0.014700609537468627 0.008246683399067766 
0.015809284818067756 0.11718946047678795 0.6903387703889586 0.1382685069008783 0.0383939774153074 
0.0029394473838918285 0.018224573780129337 0.28159905937683716 0.45443856554967665 0.24279835390946503 
0.0023023791250959325 0.003837298541826554 0.07290867229470453 0.17114351496546432 0.7498081350729087 
0.20781527531083482 0.4991119005328597 0.2824156305506217 0.008880994671403197 0.0017761989342806395 
0.017114914425427872 0.09242053789731051 0.6899755501222494 0.15403422982885084 0.04645476772616137 
0.0018018018018018018 0.013813813813813814 0.26966966966966965 0.4954954954954955 0.21921921921921922 
4.6061722708429296E-4 0.0032243205895900505 0.05481345002303086 0.16075541225241824 0.7807461999078765 
</TABLE>
</DEFINITION>
<DEFINITION>
<FOR>pixel3</FOR>
<GIVEN>emotion</GIVEN>
<GIVEN>pixel0</GIVEN>
<GIVEN>pixel2</GIVEN>
<TABLE>
0.9003067484662577 0.09049079754601227 0.007668711656441718 0.0015337423312883436 
0.856404958677686 0.12706611570247933 0.013429752066115703 0.0030991735537190084 
0.6681547619047619 0.28422619047619047 0.03422619047619048 0.013392857142857142 
0.39473684210526316 0.39473684210526316 0.18421052631578946 0.02631578947368421 
0.55 0.25 0.15 0.05 
0.4523809523809524 0.5 0.023809523809523808 0.023809523809523808 
0.36713286713286714 0.5559440559440559 0.06643356643356643 0.01048951048951049 
0.12828111769686706 0.743861134631668 0.12150719729043184 0.006350550381033023 
0.046370967741935484 0.4899193548387097 0.4495967741935484 0.014112903225806451 
0.08125 0.46875 0.40625 0.04375 
0.5 0.16666666666666666 0.16666666666666666 0.16666666666666666 
0.11538461538461539 0.2692307692307692 0.5769230769230769 0.038461538461538464 
0.038306451612903226 0.26814516129032256 0.6108870967741935 0.08266129032258064 
0.020522388059701493 0.14365671641791045 0.7481343283582089 0.08768656716417911 
0.02631578947368421 0.07894736842105263 0.6403508771929824 0.2543859649122807 
0.16666666666666666 0.5 0.16666666666666666 0.16666666666666666 
0.125 0.375 0.125 0.375 
0.01 0.21 0.41 0.37 
0.014705882352941176 0.04411764705882353 0.3872549019607843 0.553921568627451 
0.00865051903114187 0.03633217993079585 0.1782006920415225 0.7768166089965398 
0.9117647058823529 0.029411764705882353 0.029411764705882353 0.029411764705882353 
0.8690476190476191 0.10714285714285714 0.011904761904761904 0.011904761904761904 
0.6951219512195121 0.2804878048780488 0.012195121951219513 0.012195121951219513 
0.625 0.125 0.125 0.125 
0.25 0.25 0.25 0.25 
0.375 0.375 0.125 0.125 
0.32608695652173914 0.6304347826086957 0.021739130434782608 0.021739130434782608 
0.05474452554744526 0.7335766423357665 0.20802919708029197 0.0036496350364963502 
0.015151515151515152 0.6212121212121212 0.3484848484848485 0.015151515151515152 
0.038461538461538464 0.34615384615384615 0.5 0.11538461538461539 
0.25 0.25 0.25 0.25 
0.16666666666666666 0.5 0.16666666666666666 0.16666666666666666 
0.11363636363636363 0.20454545454545456 0.6590909090909091 0.022727272727272728 
0.05357142857142857 0.05357142857142857 0.625 0.26785714285714285 
0.045454545454545456 0.07575757575757576 0.5 0.3787878787878788 
0.25 0.25 0.25 0.25 
0.25 0.25 0.25 0.25 
0.0625 0.1875 0.0625 0.6875 
0.09375 0.03125 0.46875 0.40625 
0.04054054054054054 0.04054054054054054 0.25675675675675674 0.6621621621621622 
0.8631284916201117 0.09776536312849161 0.036312849162011177 0.002793296089385475 
0.8195592286501377 0.15013774104683195 0.026170798898071626 0.004132231404958678 
0.6526104417670683 0.3192771084337349 0.02208835341365462 0.006024096385542169 
0.34210526315789475 0.5 0.13157894736842105 0.02631578947368421 
0.5909090909090909 0.3181818181818182 0.045454545454545456 0.045454545454545456 
0.38235294117647056 0.4411764705882353 0.14705882352941177 0.029411764705882353 
0.24702380952380953 0.6458333333333334 0.09226190476190477 0.01488095238095238 
0.10454943132108487 0.7563429571303587 0.13517060367454067 0.003937007874015748 
0.10606060606060606 0.5086580086580087 0.3528138528138528 0.032467532467532464 
0.05670103092783505 0.4484536082474227 0.31443298969072164 0.18041237113402062 
0.1875 0.6875 0.0625 0.0625 
0.029411764705882353 0.4411764705882353 0.3235294117647059 0.20588235294117646 
0.014056224899598393 0.2751004016064257 0.6485943775100401 0.06224899598393574 
0.0011876484560570072 0.14370546318289787 0.7779097387173397 0.07719714964370546 
0.020737327188940093 0.1313364055299539 0.5460829493087558 0.30184331797235026 
0.16666666666666666 0.5 0.16666666666666666 0.16666666666666666 
0.1 0.1 0.1 0.7 
0.02631578947368421 0.13157894736842105 0.35964912280701755 0.4824561403508772 
0.00390625 0.02734375 0.52734375 0.44140625 
0.002707581227436823 0.026173285198555957 0.22472924187725632 0.7463898916967509 
0.8987603305785123 0.08884297520661157 0.010330578512396695 0.002066115702479339 
0.855525965379494 0.12450066577896138 0.013981358189081226 0.005992010652463382 
0.6026438569206843 0.37558320373250387 0.020995334370139968 7.776049766718507E-4 
0.5645161290322581 0.4032258064516129 0.016129032258064516 0.016129032258064516 
0.5 0.3 0.16666666666666666 0.03333333333333333 
0.1875 0.5625 0.1875 0.0625 
0.32914572864321606 0.5753768844221105 0.0829145728643216 0.01256281407035176 
0.14227988090174393 0.7407486176095278 0.11165461505742237 0.005316886431305828 
0.058878504672897194 0.569158878504673 0.3467289719626168 0.025233644859813085 
0.06028368794326241 0.4432624113475177 0.4078014184397163 0.08865248226950355 
0.25 0.25 0.25 0.25 
0.16666666666666666 0.3888888888888889 0.3888888888888889 0.05555555555555555 
0.0388739946380697 0.403485254691689 0.5053619302949062 0.05227882037533512 
0.016962843295638127 0.20920840064620355 0.7084006462035541 0.0654281098546042 
0.02066115702479339 0.11707988980716254 0.6570247933884298 0.20523415977961432 
0.25 0.25 0.25 0.25 
0.08333333333333333 0.08333333333333333 0.4166666666666667 0.4166666666666667 
0.0234375 0.1171875 0.5234375 0.3359375 
0.01366120218579235 0.07377049180327869 0.5710382513661202 0.34153005464480873 
0.0078125 0.04190340909090909 0.25355113636363635 0.6967329545454546 
0.9104166666666667 0.07708333333333334 0.010416666666666666 0.0020833333333333333 
0.8805555555555555 0.11203703703703703 0.006481481481481481 9.25925925925926E-4 
0.5622950819672131 0.41475409836065574 0.021311475409836064 0.001639344262295082 
0.35 0.35 0.25 0.05 
0.4583333333333333 0.4583333333333333 0.041666666666666664 0.041666666666666664 
0.3409090909090909 0.5227272727272727 0.11363636363636363 0.022727272727272728 
0.2627551020408163 0.5994897959183674 0.125 0.012755102040816327 
0.08128612716763006 0.7590317919075145 0.15570809248554912 0.003973988439306358 
0.05232558139534884 0.5562015503875969 0.3856589147286822 0.005813953488372093 
0.05434782608695652 0.40217391304347827 0.44565217391304346 0.09782608695652174 
0.1 0.1 0.1 0.7 
0.11538461538461539 0.19230769230769232 0.5769230769230769 0.11538461538461539 
0.018272425249169437 0.18438538205980065 0.7059800664451827 0.09136212624584718 
0.010392609699769052 0.09815242494226328 0.8371824480369515 0.054272517321016164 
0.015765765765765764 0.11936936936936937 0.6869369369369369 0.17792792792792791 
0.16666666666666666 0.16666666666666666 0.5 0.16666666666666666 
0.07142857142857142 0.35714285714285715 0.35714285714285715 0.21428571428571427 
0.03125 0.06875 0.38125 0.51875 
0.00273224043715847 0.03551912568306011 0.24316939890710382 0.7185792349726776 
7.002801120448179E-4 0.01610644257703081 0.17016806722689076 0.8130252100840336 
0.9285714285714286 0.05319148936170213 0.010638297872340425 0.007598784194528876 
0.8489499192245558 0.1429725363489499 0.004038772213247173 0.004038772213247173 
0.6336515513126492 0.33770883054892603 0.02028639618138425 0.008353221957040573 
0.4318181818181818 0.4772727272727273 0.06818181818181818 0.022727272727272728 
0.5769230769230769 0.2692307692307692 0.11538461538461539 0.038461538461538464 
0.4393939393939394 0.3787878787878788 0.13636363636363635 0.045454545454545456 
0.30425531914893617 0.5851063829787234 0.08297872340425531 0.027659574468085105 
0.10493827160493827 0.7519970951343501 0.1310820624546115 0.011982570806100218 
0.09205776173285199 0.5577617328519856 0.33393501805054154 0.016245487364620937 
0.17307692307692307 0.46794871794871795 0.28846153846153844 0.07051282051282051 
0.375 0.125 0.375 0.125 
0.08823529411764706 0.38235294117647056 0.4411764705882353 0.08823529411764706 
0.01037344398340249 0.2883817427385892 0.6161825726141079 0.08506224066390042 
0.019329896907216496 0.1481958762886598 0.7332474226804123 0.09922680412371133 
0.016826923076923076 0.12740384615384615 0.65625 0.19951923076923078 
0.16666666666666666 0.16666666666666666 0.16666666666666666 0.5 
0.125 0.125 0.375 0.375 
0.05102040816326531 0.09183673469387756 0.29591836734693877 0.5612244897959183 
0.01327433628318584 0.0752212389380531 0.38495575221238937 0.5265486725663717 
0.003061224489795918 0.03775510204081633 0.1989795918367347 0.7602040816326531 
0.925 0.058333333333333334 0.008333333333333333 0.008333333333333333 
0.8204225352112676 0.16549295774647887 0.0035211267605633804 0.01056338028169014 
0.5740740740740741 0.36419753086419754 0.043209876543209874 0.018518518518518517 
0.375 0.375 0.125 0.125 
0.25 0.25 0.25 0.25 
0.5 0.39473684210526316 0.07894736842105263 0.02631578947368421 
0.296875 0.5677083333333334 0.11979166666666667 0.015625 
0.05586987270155587 0.7687411598302687 0.16902404526166903 0.006364922206506365 
0.009433962264150943 0.5251572327044025 0.4308176100628931 0.03459119496855346 
0.15306122448979592 0.29591836734693877 0.47959183673469385 0.07142857142857142 
0.5 0.16666666666666666 0.16666666666666666 0.16666666666666666 
0.11538461538461539 0.19230769230769232 0.2692307692307692 0.4230769230769231 
0.011061946902654867 0.2588495575221239 0.6969026548672567 0.033185840707964605 
0.006038647342995169 0.08091787439613526 0.8297101449275363 0.08333333333333333 
0.002717391304347826 0.07880434782608696 0.7527173913043478 0.16576086956521738 
0.25 0.25 0.25 0.25 
0.3 0.1 0.1 0.5 
0.00819672131147541 0.09016393442622951 0.38524590163934425 0.5163934426229508 
0.002840909090909091 0.06534090909090909 0.3835227272727273 0.5482954545454546 
0.004122497055359246 0.013545347467608953 0.17137809187279152 0.8109540636042403 
</TABLE>
</DEFINITION>
<DEFINITION>
<FOR>pixel4</FOR>
<GIVEN>emotion</GIVEN>
<GIVEN>pixel0</GIVEN>
<GIVEN>pixel2</GIVEN>
<TABLE>
0.7837423312883436 0.200920245398773 0.004601226993865031 0.010736196319018405 
0.6580578512396694 0.33161157024793386 0.005165289256198347 0.005165289256198347 
0.3913690476190476 0.5639880952380952 0.025297619047619048 0.019345238095238096 
0.18421052631578946 0.7105263157894737 0.07894736842105263 0.02631578947368421 
0.25 0.65 0.05 0.05 
0.023809523809523808 0.6904761904761905 0.21428571428571427 0.07142857142857142 
0.045454545454545456 0.8286713286713286 0.10139860139860139 0.024475524475524476 
0.03429297205757832 0.823454699407282 0.11558001693480102 0.026672311600338696 
0.02217741935483871 0.6633064516129032 0.2399193548387097 0.07459677419354839 
0.01875 0.53125 0.26875 0.18125 
0.16666666666666666 0.5 0.16666666666666666 0.16666666666666666 
0.038461538461538464 0.2692307692307692 0.34615384615384615 0.34615384615384615 
0.018145161290322582 0.2399193548387097 0.5181451612903226 0.22379032258064516 
0.009328358208955223 0.2332089552238806 0.542910447761194 0.21455223880597016 
0.008771929824561403 0.18421052631578946 0.41812865497076024 0.3888888888888889 
0.16666666666666666 0.16666666666666666 0.16666666666666666 0.5 
0.125 0.125 0.125 0.625 
0.01 0.03 0.23 0.73 
0.004901960784313725 0.06372549019607843 0.1323529411764706 0.7990196078431373 
0.015570934256055362 0.03633217993079585 0.10899653979238755 0.8391003460207612 
0.8529411764705882 0.08823529411764706 0.029411764705882353 0.029411764705882353 
0.5357142857142857 0.4166666666666667 0.03571428571428571 0.011904761904761904 
0.35365853658536583 0.5975609756097561 0.036585365853658534 0.012195121951219513 
0.625 0.125 0.125 0.125 
0.25 0.25 0.25 0.25 
0.625 0.125 0.125 0.125 
0.021739130434782608 0.8043478260869565 0.06521739130434782 0.10869565217391304 
0.025547445255474453 0.7992700729927007 0.13503649635036497 0.040145985401459854 
0.015151515151515152 0.7121212121212122 0.19696969696969696 0.07575757575757576 
0.038461538461538464 0.2692307692307692 0.5 0.19230769230769232 
0.25 0.25 0.25 0.25 
0.16666666666666666 0.16666666666666666 0.5 0.16666666666666666 
0.022727272727272728 0.1590909090909091 0.38636363636363635 0.4318181818181818 
0.017857142857142856 0.30357142857142855 0.375 0.30357142857142855 
0.045454545454545456 0.3787878787878788 0.25757575757575757 0.3181818181818182 
0.25 0.25 0.25 0.25 
0.25 0.25 0.25 0.25 
0.0625 0.0625 0.1875 0.6875 
0.03125 0.09375 0.03125 0.84375 
0.013513513513513514 0.04054054054054054 0.0945945945945946 0.8513513513513513 
0.7793296089385475 0.20391061452513967 0.013966480446927373 0.002793296089385475 
0.59366391184573 0.38980716253443526 0.012396694214876033 0.004132231404958678 
0.38755020080321284 0.6044176706827309 0.006024096385542169 0.002008032128514056 
0.07894736842105263 0.7105263157894737 0.13157894736842105 0.07894736842105263 
0.3181818181818182 0.4090909090909091 0.22727272727272727 0.045454545454545456 
0.20588235294117646 0.5588235294117647 0.08823529411764706 0.14705882352941177 
0.0744047619047619 0.7708333333333334 0.12202380952380952 0.03273809523809524 
0.0310586176727909 0.8184601924759405 0.12554680664916884 0.024934383202099737 
0.04112554112554113 0.6515151515151515 0.2532467532467532 0.05411255411255411 
0.04639175257731959 0.5309278350515464 0.28350515463917525 0.13917525773195877 
0.0625 0.3125 0.3125 0.3125 
0.08823529411764706 0.20588235294117646 0.38235294117647056 0.3235294117647059 
0.018072289156626505 0.19879518072289157 0.5321285140562249 0.25100401606425704 
0.0011876484560570072 0.15795724465558195 0.5427553444180523 0.2980997624703088 
0.0069124423963133645 0.1912442396313364 0.3986175115207373 0.4032258064516129 
0.16666666666666666 0.16666666666666666 0.16666666666666666 0.5 
0.1 0.1 0.3 0.5 
0.008771929824561403 0.008771929824561403 0.14912280701754385 0.8333333333333334 
0.00390625 0.05859375 0.14453125 0.79296875 
0.004512635379061372 0.033393501805054154 0.07310469314079422 0.8889891696750902 
0.8285123966942148 0.15082644628099173 0.01859504132231405 0.002066115702479339 
0.6051930758988016 0.3801597869507324 0.012649800266311585 0.0019973368841544607 
0.34136858475894244 0.6306376360808709 0.019440124416796267 0.008553654743390357 
0.3709677419354839 0.5 0.11290322580645161 0.016129032258064516 
0.16666666666666666 0.7 0.03333333333333333 0.1 
0.3125 0.5625 0.0625 0.0625 
0.09296482412060302 0.7713567839195979 0.10301507537688442 0.032663316582914576 
0.035942152275627394 0.7811569544874521 0.15589111016588686 0.0270097830710336 
0.017757009345794394 0.6046728971962617 0.29813084112149535 0.0794392523364486 
0.031914893617021274 0.5283687943262412 0.25177304964539005 0.1879432624113475 
0.25 0.25 0.25 0.25 
0.05555555555555555 0.05555555555555555 0.2777777777777778 0.6111111111111112 
0.00938337801608579 0.22117962466487937 0.5160857908847185 0.25335120643431636 
0.007269789983844911 0.21890145395799676 0.5145395799676898 0.2592891760904685 
0.006887052341597796 0.128099173553719 0.4366391184573003 0.4283746556473829 
0.25 0.25 0.25 0.25 
0.08333333333333333 0.25 0.25 0.4166666666666667 
0.0078125 0.0859375 0.1171875 0.7890625 
0.00819672131147541 0.040983606557377046 0.1830601092896175 0.76775956284153 
0.006392045454545455 0.033380681818181816 0.11860795454545454 0.8416193181818182 
0.8645833333333334 0.12708333333333333 0.00625 0.0020833333333333333 
0.687962962962963 0.30092592592592593 0.010185185185185186 9.25925925925926E-4 
0.37540983606557377 0.5983606557377049 0.014754098360655738 0.011475409836065573 
0.35 0.55 0.05 0.05 
0.2916666666666667 0.5416666666666666 0.041666666666666664 0.125 
0.06818181818181818 0.7954545454545454 0.11363636363636363 0.022727272727272728 
0.07908163265306123 0.8443877551020408 0.058673469387755105 0.017857142857142856 
0.03359826589595376 0.8471820809248555 0.10296242774566473 0.01625722543352601 
0.03294573643410853 0.6492248062015504 0.27325581395348836 0.044573643410852716 
0.05434782608695652 0.6195652173913043 0.20652173913043478 0.11956521739130435 
0.3 0.3 0.1 0.3 
0.038461538461538464 0.038461538461538464 0.6538461538461539 0.2692307692307692 
0.0049833887043189366 0.18106312292358803 0.6627906976744186 0.1511627906976744 
0.0011547344110854503 0.1766743648960739 0.5946882217090069 0.22748267898383373 
0.006756756756756757 0.15990990990990991 0.4166666666666667 0.4166666666666667 
0.16666666666666666 0.16666666666666666 0.16666666666666666 0.5 
0.07142857142857142 0.07142857142857142 0.21428571428571427 0.6428571428571429 
0.00625 0.04375 0.16875 0.78125 
0.01366120218579235 0.03551912568306011 0.10109289617486339 0.8497267759562842 
0.004901960784313725 0.024509803921568627 0.06512605042016807 0.9054621848739496 
0.8465045592705167 0.1474164133738602 0.004559270516717325 0.001519756838905775 
0.6954765751211631 0.29967689822294025 8.077544426494346E-4 0.004038772213247173 
0.41408114558472553 0.5572792362768496 0.02028639618138425 0.008353221957040573 
0.3409090909090909 0.5681818181818182 0.022727272727272728 0.06818181818181818 
0.34615384615384615 0.5 0.11538461538461539 0.038461538461538464 
0.16666666666666666 0.7121212121212122 0.045454545454545456 0.07575757575757576 
0.07872340425531915 0.8148936170212766 0.07872340425531915 0.027659574468085105 
0.03594771241830065 0.8536673928830791 0.0896877269426289 0.020697167755991286 
0.052346570397111915 0.6949458483754513 0.2184115523465704 0.03429602888086643 
0.09615384615384616 0.6346153846153846 0.1858974358974359 0.08333333333333333 
0.125 0.625 0.125 0.125 
0.029411764705882353 0.2647058823529412 0.5 0.20588235294117646 
0.002074688796680498 0.33402489626556015 0.495850622406639 0.16804979253112035 
0.00902061855670103 0.18943298969072164 0.5476804123711341 0.2538659793814433 
0.01201923076923077 0.15144230769230768 0.41586538461538464 0.4206730769230769 
0.16666666666666666 0.16666666666666666 0.5 0.16666666666666666 
0.125 0.125 0.375 0.375 
0.030612244897959183 0.07142857142857142 0.17346938775510204 0.7244897959183674 
0.004424778761061947 0.09292035398230089 0.17256637168141592 0.7300884955752213 
0.003061224489795918 0.02959183673469388 0.07244897959183673 0.8948979591836734 
0.725 0.25833333333333336 0.008333333333333333 0.008333333333333333 
0.5880281690140845 0.40492957746478875 0.0035211267605633804 0.0035211267605633804 
0.30246913580246915 0.6728395061728395 0.006172839506172839 0.018518518518518517 
0.125 0.625 0.125 0.125 
0.25 0.25 0.25 0.25 
0.13157894736842105 0.5 0.23684210526315788 0.13157894736842105 
0.057291666666666664 0.828125 0.078125 0.036458333333333336 
0.02333804809052334 0.78995756718529 0.16478076379066478 0.021923620933521924 
0.015723270440251572 0.5817610062893082 0.3050314465408805 0.09748427672955975 
0.030612244897959183 0.3979591836734694 0.25510204081632654 0.3163265306122449 
0.16666666666666666 0.16666666666666666 0.5 0.16666666666666666 
0.038461538461538464 0.11538461538461539 0.5769230769230769 0.2692307692307692 
0.0022123893805309734 0.1747787610619469 0.5376106194690266 0.2853982300884956 
0.006038647342995169 0.15338164251207728 0.532608695652174 0.3079710144927536 
0.002717391304347826 0.10054347826086957 0.453804347826087 0.4429347826086957 
0.25 0.25 0.25 0.25 
0.1 0.1 0.1 0.7 
0.00819672131147541 0.040983606557377046 0.2540983606557377 0.6967213114754098 
0.002840909090909091 0.008522727272727272 0.16761363636363635 0.8210227272727273 
5.889281507656066E-4 0.012367491166077738 0.06419316843345112 0.9228504122497055 
</TABLE>
</DEFINITION>
<DEFINITION>
<FOR>pixel5</FOR>
<GIVEN>emotion</GIVEN>
<GIVEN>pixel1</GIVEN>
<GIVEN>pixel3</GIVEN>
<TABLE>
0.39889705882352944 0.49816176470588236 0.08272058823529412 0.02022058823529412 
0.10964912280701754 0.5745614035087719 0.27631578947368424 0.039473684210526314 
0.18269230769230768 0.375 0.3557692307692308 0.08653846153846154 
0.017857142857142856 0.44642857142857145 0.375 0.16071428571428573 
0.14494163424124515 0.6313229571984436 0.1857976653696498 0.037937743190661476 
0.08144329896907217 0.5247422680412371 0.35360824742268043 0.04020618556701031 
0.05555555555555555 0.25163398692810457 0.4934640522875817 0.19934640522875818 
0.05319148936170213 0.22340425531914893 0.32978723404255317 0.39361702127659576 
0.07923497267759563 0.45081967213114754 0.39617486338797814 0.07377049180327869 
0.038028169014084505 0.33380281690140845 0.5619718309859155 0.06619718309859154 
0.02 0.2885714285714286 0.4828571428571429 0.20857142857142857 
0.03 0.15 0.61 0.21 
0.11146496815286625 0.3089171974522293 0.4299363057324841 0.14968152866242038 
0.021303258145363407 0.23182957393483708 0.5350877192982456 0.21177944862155387 
0.010294117647058823 0.14558823529411766 0.49558823529411766 0.34852941176470587 
0.015151515151515152 0.10606060606060606 0.35858585858585856 0.5202020202020202 
0.08227848101265822 0.23417721518987342 0.3227848101265823 0.36075949367088606 
0.020491803278688523 0.24180327868852458 0.2827868852459016 0.45491803278688525 
0.02972972972972973 0.13783783783783785 0.3324324324324324 0.5 
0.007894736842105263 0.09210526315789473 0.26052631578947366 0.6394736842105263 
0.11538461538461539 0.6538461538461539 0.11538461538461539 0.11538461538461539 
0.125 0.625 0.125 0.125 
0.125 0.375 0.125 0.375 
0.16666666666666666 0.5 0.16666666666666666 0.16666666666666666 
0.043859649122807015 0.7456140350877193 0.18421052631578946 0.02631578947368421 
0.0673076923076923 0.625 0.25961538461538464 0.04807692307692308 
0.02631578947368421 0.18421052631578946 0.5526315789473685 0.23684210526315788 
0.125 0.375 0.125 0.375 
0.027777777777777776 0.4722222222222222 0.4722222222222222 0.027777777777777776 
0.03409090909090909 0.3068181818181818 0.5568181818181818 0.10227272727272728 
0.019230769230769232 0.17307692307692307 0.7115384615384616 0.09615384615384616 
0.0625 0.0625 0.5625 0.3125 
0.10714285714285714 0.4642857142857143 0.32142857142857145 0.10714285714285714 
0.01 0.17 0.65 0.17 
0.010416666666666666 0.09375 0.4479166666666667 0.4479166666666667 
0.03571428571428571 0.10714285714285714 0.4642857142857143 0.39285714285714285 
0.05 0.25 0.35 0.35 
0.020833333333333332 0.0625 0.4791666666666667 0.4375 
0.023809523809523808 0.023809523809523808 0.30952380952380953 0.6428571428571429 
0.013888888888888888 0.2916666666666667 0.20833333333333334 0.4861111111111111 
0.22569444444444445 0.5798611111111112 0.16319444444444445 0.03125 
0.12234042553191489 0.5372340425531915 0.2925531914893617 0.047872340425531915 
0.07777777777777778 0.5 0.32222222222222224 0.1 
0.0625 0.3958333333333333 0.3541666666666667 0.1875 
0.1015625 0.6703125 0.2078125 0.0203125 
0.044715447154471545 0.5271002710027101 0.37533875338753386 0.052845528455284556 
0.015060240963855422 0.29819277108433734 0.49096385542168675 0.19578313253012047 
0.025423728813559324 0.2966101694915254 0.3983050847457627 0.2796610169491525 
0.04044117647058824 0.4007352941176471 0.4522058823529412 0.10661764705882353 
0.02727272727272727 0.3025974025974026 0.5467532467532468 0.12337662337662338 
0.022292993630573247 0.2515923566878981 0.5254777070063694 0.20063694267515925 
0.02830188679245283 0.1792452830188679 0.46226415094339623 0.330188679245283 
0.05136986301369863 0.3253424657534247 0.4417808219178082 0.1815068493150685 
0.020474137931034482 0.20150862068965517 0.5420258620689655 0.23599137931034483 
0.00967741935483871 0.16881720430107527 0.510752688172043 0.310752688172043 
0.013440860215053764 0.1639784946236559 0.3897849462365591 0.4327956989247312 
0.06914893617021277 0.21808510638297873 0.34574468085106386 0.3670212765957447 
0.028645833333333332 0.1171875 0.3463541666666667 0.5078125 
0.0049504950495049506 0.13036303630363036 0.3118811881188119 0.5528052805280528 
0.016467065868263474 0.08233532934131736 0.22604790419161677 0.6751497005988024 
0.22305389221556887 0.6601796407185628 0.08832335329341318 0.02844311377245509 
0.07954545454545454 0.48863636363636365 0.38257575757575757 0.04924242424242424 
0.078125 0.421875 0.359375 0.140625 
0.1590909090909091 0.4318181818181818 0.20454545454545456 0.20454545454545456 
0.0744047619047619 0.6672619047619047 0.22916666666666666 0.029166666666666667 
0.02592954990215264 0.47211350293542076 0.4642857142857143 0.03767123287671233 
0.01141552511415525 0.2899543378995434 0.5639269406392694 0.13470319634703196 
0.03787878787878788 0.20454545454545456 0.4621212121212121 0.29545454545454547 
0.060546875 0.525390625 0.337890625 0.076171875 
0.023076923076923078 0.293006993006993 0.6062937062937063 0.07762237762237763 
0.005928853754940711 0.17193675889328064 0.6146245059288538 0.2075098814229249 
0.009259259259259259 0.046296296296296294 0.4351851851851852 0.5092592592592593 
0.045454545454545456 0.3225108225108225 0.43506493506493504 0.19696969696969696 
0.013772455089820359 0.19221556886227545 0.6161676646706586 0.17784431137724552 
0.005528255528255528 0.10012285012285012 0.5497542997542998 0.34459459459459457 
0.0024154589371980675 0.09903381642512077 0.3309178743961353 0.5676328502415459 
0.025510204081632654 0.2602040816326531 0.37244897959183676 0.34183673469387754 
0.00909090909090909 0.11454545454545455 0.4527272727272727 0.42363636363636364 
0.008254716981132075 0.09316037735849056 0.3408018867924528 0.5577830188679245 
0.00849514563106796 0.05218446601941747 0.20024271844660194 0.7390776699029126 
0.28189300411522633 0.6316872427983539 0.08024691358024691 0.006172839506172839 
0.10952380952380952 0.6142857142857143 0.21428571428571427 0.06190476190476191 
0.13829787234042554 0.35106382978723405 0.4148936170212766 0.09574468085106383 
0.07894736842105263 0.34210526315789475 0.18421052631578946 0.39473684210526316 
0.05460385438972163 0.797644539614561 0.14025695931477516 0.007494646680942184 
0.021616541353383457 0.581766917293233 0.3693609022556391 0.02725563909774436 
0.0377906976744186 0.34011627906976744 0.4622093023255814 0.15988372093023256 
0.04666666666666667 0.19333333333333333 0.31333333333333335 0.44666666666666666 
0.11870503597122302 0.5215827338129496 0.34172661870503596 0.017985611510791366 
0.01918158567774936 0.3593350383631714 0.5613810741687979 0.06010230179028133 
0.03254437869822485 0.26331360946745563 0.5355029585798816 0.16863905325443787 
0.02727272727272727 0.11818181818181818 0.5 0.35454545454545455 
0.06690140845070422 0.30633802816901406 0.4894366197183099 0.13732394366197184 
0.01778242677824268 0.23326359832635984 0.6202928870292888 0.12866108786610878 
0.012908777969018933 0.15920826161790017 0.5602409638554217 0.2676419965576592 
0.00684931506849315 0.13013698630136986 0.363013698630137 0.5 
0.038461538461538464 0.21428571428571427 0.3901098901098901 0.35714285714285715 
0.0024509803921568627 0.11519607843137254 0.38480392156862747 0.49754901960784315 
0.013043478260869565 0.1 0.36086956521739133 0.5260869565217391 
0.009 0.055 0.279 0.657 
0.3615916955017301 0.5415224913494809 0.08131487889273356 0.015570934256055362 
0.1598639455782313 0.5068027210884354 0.282312925170068 0.05102040816326531 
0.13076923076923078 0.36153846153846153 0.25384615384615383 0.25384615384615383 
0.16071428571428573 0.26785714285714285 0.3392857142857143 0.23214285714285715 
0.09808612440191387 0.6658692185007975 0.20972886762360446 0.02631578947368421 
0.04820261437908497 0.5629084967320261 0.352124183006536 0.03676470588235294 
0.017241379310344827 0.3522167487684729 0.4605911330049261 0.16995073891625614 
0.01875 0.20625 0.33125 0.44375 
0.07225433526011561 0.430635838150289 0.41329479768786126 0.0838150289017341 
0.04468599033816425 0.40700483091787437 0.4915458937198068 0.05676328502415459 
0.012077294685990338 0.2922705314009662 0.5289855072463768 0.16666666666666666 
0.0603448275862069 0.21551724137931033 0.31896551724137934 0.4051724137931034 
0.09027777777777778 0.31712962962962965 0.45601851851851855 0.13657407407407407 
0.023185483870967742 0.23084677419354838 0.5776209677419355 0.16834677419354838 
0.01742627345844504 0.20241286863270777 0.5053619302949062 0.27479892761394104 
0.018115942028985508 0.09782608695652174 0.33695652173913043 0.5471014492753623 
0.10396039603960396 0.2623762376237624 0.3118811881188119 0.3217821782178218 
0.015432098765432098 0.1574074074074074 0.404320987654321 0.4228395061728395 
0.015555555555555555 0.16666666666666666 0.3488888888888889 0.4688888888888889 
0.00819672131147541 0.1 0.24754098360655738 0.6442622950819672 
0.2980769230769231 0.5865384615384616 0.08653846153846154 0.028846153846153848 
0.017857142857142856 0.5178571428571429 0.4107142857142857 0.05357142857142857 
0.057692307692307696 0.3269230769230769 0.36538461538461536 0.25 
0.13636363636363635 0.3181818181818182 0.5 0.045454545454545456 
0.05172413793103448 0.7413793103448276 0.1781609195402299 0.028735632183908046 
0.06609195402298851 0.45689655172413796 0.4281609195402299 0.04885057471264368 
0.05859375 0.26171875 0.59765625 0.08203125 
0.024752475247524754 0.30198019801980197 0.29207920792079206 0.3811881188118812 
0.08536585365853659 0.35365853658536583 0.5 0.06097560975609756 
0.0291005291005291 0.29894179894179895 0.6428571428571429 0.0291005291005291 
0.009868421052631578 0.14802631578947367 0.6217105263157895 0.22039473684210525 
0.020833333333333332 0.09027777777777778 0.3402777777777778 0.5486111111111112 
0.03333333333333333 0.4066666666666667 0.42 0.14 
0.03720238095238095 0.1949404761904762 0.6235119047619048 0.14434523809523808 
0.017857142857142856 0.15357142857142858 0.544047619047619 0.2845238095238095 
0.012315270935960592 0.0960591133004926 0.43596059113300495 0.45566502463054187 
0.06716417910447761 0.23134328358208955 0.30597014925373134 0.39552238805970147 
0.020114942528735632 0.07183908045977011 0.3994252873563218 0.5086206896551724 
0.00909090909090909 0.07922077922077922 0.35974025974025975 0.551948051948052 
0.00847457627118644 0.05555555555555555 0.23258003766478344 0.7033898305084746 
</TABLE>
</DEFINITION>
<DEFINITION>
<FOR>pixel6</FOR>
<GIVEN>emotion</GIVEN>
<GIVEN>pixel1</GIVEN>
<GIVEN>pixel4</GIVEN>
<TABLE>
0.9034653465346535 0.08663366336633663 0.007425742574257425 0.0024752475247524753 
0.7581521739130435 0.20380434782608695 0.029891304347826088 0.008152173913043478 
0.7236842105263158 0.19736842105263158 0.039473684210526314 0.039473684210526314 
0.6785714285714286 0.27380952380952384 0.03571428571428571 0.011904761904761904 
0.3204022988505747 0.6221264367816092 0.05316091954022988 0.004310344827586207 
0.18610223642172524 0.7579872204472844 0.050319488817891375 0.005591054313099041 
0.20921985815602837 0.6985815602836879 0.0673758865248227 0.024822695035460994 
0.25595238095238093 0.5773809523809523 0.125 0.041666666666666664 
0.014563106796116505 0.7233009708737864 0.21844660194174756 0.043689320388349516 
0.02759381898454746 0.7560706401766004 0.19315673289183222 0.023178807947019868 
0.05905511811023622 0.6338582677165354 0.2952755905511811 0.011811023622047244 
0.01875 0.55625 0.29375 0.13125 
0.04375 0.40625 0.44375 0.10625 
0.0029296875 0.2705078125 0.6083984375 0.1181640625 
0.01141552511415525 0.2534246575342466 0.5776255707762558 0.15753424657534246 
0.008152173913043478 0.08967391304347826 0.6059782608695652 0.296195652173913 
0.01020408163265306 0.19387755102040816 0.15306122448979592 0.6428571428571429 
0.0033112582781456954 0.076158940397351 0.2947019867549669 0.6258278145695364 
0.0037313432835820895 0.018656716417910446 0.2947761194029851 0.6828358208955224 
0.002066115702479339 0.03512396694214876 0.10537190082644628 0.8574380165289256 
0.8333333333333334 0.05555555555555555 0.05555555555555555 0.05555555555555555 
0.6428571428571429 0.21428571428571427 0.07142857142857142 0.07142857142857142 
0.625 0.125 0.125 0.125 
0.625 0.125 0.125 0.125 
0.2361111111111111 0.6527777777777778 0.06944444444444445 0.041666666666666664 
0.18243243243243243 0.8040540540540541 0.006756756756756757 0.006756756756756757 
0.15 0.65 0.15 0.05 
0.20833333333333334 0.7083333333333334 0.041666666666666664 0.041666666666666664 
0.05 0.65 0.15 0.15 
0.044642857142857144 0.7053571428571429 0.22321428571428573 0.026785714285714284 
0.03125 0.71875 0.15625 0.09375 
0.03571428571428571 0.5357142857142857 0.32142857142857145 0.10714285714285714 
0.0625 0.3125 0.4375 0.1875 
0.007575757575757576 0.14393939393939395 0.6893939393939394 0.1590909090909091 
0.017857142857142856 0.23214285714285715 0.625 0.125 
0.020833333333333332 0.14583333333333334 0.3958333333333333 0.4375 
0.1 0.1 0.3 0.5 
0.05555555555555555 0.05555555555555555 0.2777777777777778 0.6111111111111112 
0.03125 0.03125 0.21875 0.71875 
0.011627906976744186 0.011627906976744186 0.26744186046511625 0.7093023255813954 
0.8701923076923077 0.1201923076923077 0.004807692307692308 0.004807692307692308 
0.775 0.20357142857142857 0.017857142857142856 0.0035714285714285713 
0.6833333333333333 0.21666666666666667 0.08333333333333333 0.016666666666666666 
0.7727272727272727 0.13636363636363635 0.07575757575757576 0.015151515151515152 
0.34558823529411764 0.6151960784313726 0.022058823529411766 0.01715686274509804 
0.19461077844311378 0.7594810379241517 0.04291417165668663 0.0029940119760479044 
0.19747899159663865 0.6848739495798319 0.10504201680672269 0.012605042016806723 
0.18333333333333332 0.6722222222222223 0.12777777777777777 0.016666666666666666 
0.05357142857142857 0.7321428571428571 0.17261904761904762 0.041666666666666664 
0.015815085158150853 0.818734793187348 0.14720194647201945 0.01824817518248175 
0.011363636363636364 0.6022727272727273 0.3522727272727273 0.03409090909090909 
0.014423076923076924 0.5528846153846154 0.32211538461538464 0.11057692307692307 
0.017857142857142856 0.20833333333333334 0.5892857142857143 0.18452380952380953 
0.004752851711026616 0.3108365019011407 0.5807984790874525 0.10361216730038023 
0.004615384615384616 0.1646153846153846 0.6661538461538462 0.1646153846153846 
0.01687116564417178 0.14570552147239263 0.5352760736196319 0.30214723926380366 
0.025423728813559324 0.07627118644067797 0.3474576271186441 0.5508474576271186 
0.00211864406779661 0.0614406779661017 0.22245762711864406 0.7139830508474576 
0.002702702702702703 0.01891891891891892 0.26216216216216215 0.7162162162162162 
0.0056433408577878106 0.019187358916478554 0.11173814898419865 0.863431151241535 
0.8011811023622047 0.18700787401574803 0.001968503937007874 0.00984251968503937 
0.6590909090909091 0.3207070707070707 0.017676767676767676 0.0025252525252525255 
0.5833333333333334 0.39285714285714285 0.011904761904761904 0.011904761904761904 
0.6346153846153846 0.25 0.09615384615384616 0.019230769230769232 
0.3280922431865828 0.6236897274633124 0.040880503144654086 0.007337526205450734 
0.16179861644888546 0.7851652574942352 0.04650269023827825 0.0065334358186010764 
0.10085836909871244 0.7360515021459227 0.13090128755364808 0.032188841201716736 
0.09926470588235294 0.6139705882352942 0.23161764705882354 0.05514705882352941 
0.04330708661417323 0.8149606299212598 0.12992125984251968 0.011811023622047244 
0.014631043256997456 0.7678117048346056 0.20674300254452926 0.010814249363867684 
0.006024096385542169 0.5642570281124498 0.38353413654618473 0.04618473895582329 
0.021551724137931036 0.46120689655172414 0.4353448275862069 0.08189655172413793 
0.04128440366972477 0.4724770642201835 0.3623853211009174 0.12385321100917432 
0.008296460176991151 0.2959070796460177 0.5647123893805309 0.13108407079646017 
0.0024793388429752068 0.17768595041322313 0.6553719008264463 0.16446280991735537 
0.0031982942430703624 0.12046908315565032 0.5085287846481876 0.3678038379530917 
0.008333333333333333 0.175 0.20833333333333334 0.6083333333333333 
0.005747126436781609 0.07471264367816093 0.28544061302681994 0.6340996168582376 
0.00530035335689046 0.026501766784452298 0.22791519434628976 0.7402826855123675 
8.264462809917355E-4 0.0256198347107438 0.09504132231404959 0.8785123966942149 
0.8908629441624365 0.09898477157360407 0.007614213197969543 0.0025380710659898475 
0.8221476510067114 0.1644295302013423 0.010067114093959731 0.003355704697986577 
0.7205882352941176 0.22058823529411764 0.04411764705882353 0.014705882352941176 
0.8382352941176471 0.10294117647058823 0.014705882352941176 0.04411764705882353 
0.37905604719764013 0.5973451327433629 0.022123893805309734 0.0014749262536873156 
0.15990990990990991 0.8115615615615616 0.023273273273273273 0.005255255255255256 
0.17537313432835822 0.75 0.0708955223880597 0.0037313432835820895 
0.2102803738317757 0.677570093457944 0.08878504672897196 0.02336448598130841 
0.028735632183908046 0.764367816091954 0.1781609195402299 0.028735632183908046 
0.011853448275862068 0.8609913793103449 0.11530172413793104 0.011853448275862068 
0.012711864406779662 0.6228813559322034 0.3177966101694915 0.046610169491525424 
0.0058823529411764705 0.6058823529411764 0.28823529411764703 0.1 
0.014563106796116505 0.3737864077669903 0.529126213592233 0.0825242718446602 
0.005756578947368421 0.31661184210526316 0.5962171052631579 0.08141447368421052 
0.003989361702127659 0.18218085106382978 0.6928191489361702 0.12101063829787234 
0.0045045045045045045 0.13063063063063063 0.6381381381381381 0.22672672672672672 
0.008064516129032258 0.056451612903225805 0.21774193548387097 0.717741935483871 
0.006024096385542169 0.04618473895582329 0.22690763052208834 0.7208835341365462 
0.00663716814159292 0.015486725663716814 0.2721238938053097 0.7057522123893806 
0.0024875621890547263 0.007462686567164179 0.08706467661691543 0.9029850746268657 
0.9323144104803494 0.06331877729257641 0.002183406113537118 0.002183406113537118 
0.8661971830985915 0.12441314553990611 0.007042253521126761 0.002347417840375587 
0.7156862745098039 0.2647058823529412 0.00980392156862745 0.00980392156862745 
0.8472222222222222 0.09722222222222222 0.013888888888888888 0.041666666666666664 
0.37672811059907835 0.5910138248847926 0.021889400921658985 0.010368663594470046 
0.18351383874849578 0.7683513838748496 0.04271961492178099 0.005415162454873646 
0.11824324324324324 0.7668918918918919 0.09121621621621621 0.02364864864864865 
0.2889908256880734 0.6284403669724771 0.06880733944954129 0.013761467889908258 
0.06967213114754098 0.7336065573770492 0.15163934426229508 0.045081967213114756 
0.021 0.801 0.161 0.017 
0.03488372093023256 0.6782945736434108 0.25193798449612403 0.03488372093023256 
0.034653465346534656 0.5792079207920792 0.28217821782178215 0.10396039603960396 
0.03900709219858156 0.35815602836879434 0.5070921985815603 0.09574468085106383 
0.007614213197969543 0.30710659898477155 0.5795262267343486 0.10575296108291032 
0.013618677042801557 0.17704280155642024 0.6750972762645915 0.13424124513618677 
0.014957264957264958 0.1517094017094017 0.5705128205128205 0.26282051282051283 
0.019736842105263157 0.046052631578947366 0.29605263157894735 0.6381578947368421 
0.0024271844660194173 0.0412621359223301 0.23058252427184467 0.7257281553398058 
0.0035714285714285713 0.08214285714285714 0.275 0.6392857142857142 
0.0013477088948787063 0.014824797843665768 0.1307277628032345 0.8530997304582211 
0.8589743589743589 0.08974358974358974 0.038461538461538464 0.01282051282051282 
0.8255813953488372 0.1511627906976744 0.011627906976744186 0.011627906976744186 
0.75 0.15 0.05 0.05 
0.82 0.14 0.02 0.02 
0.3723404255319149 0.6063829787234043 0.010638297872340425 0.010638297872340425 
0.15753424657534246 0.7922374429223744 0.04337899543378995 0.00684931506849315 
0.24157303370786518 0.6910112359550562 0.05056179775280899 0.016853932584269662 
0.1962962962962963 0.7444444444444445 0.040740740740740744 0.018518518518518517 
0.06818181818181818 0.5681818181818182 0.3409090909090909 0.022727272727272728 
0.00684931506849315 0.7602739726027398 0.20776255707762556 0.02511415525114155 
0.014285714285714285 0.49047619047619045 0.43333333333333335 0.06190476190476191 
0.032407407407407406 0.5601851851851852 0.38425925925925924 0.023148148148148147 
0.010416666666666666 0.23958333333333334 0.5520833333333334 0.19791666666666666 
0.001483679525222552 0.28041543026706234 0.6483679525222552 0.06973293768545995 
0.00865051903114187 0.13667820069204153 0.6695501730103807 0.185121107266436 
0.001388888888888889 0.09583333333333334 0.6180555555555556 0.2847222222222222 
0.015625 0.015625 0.203125 0.765625 
0.0071090047393364926 0.02132701421800948 0.1966824644549763 0.7748815165876777 
0.002136752136752137 0.00641025641025641 0.15598290598290598 0.8354700854700855 
0.0022058823529411764 0.008088235294117648 0.08455882352941177 0.9051470588235294 
</TABLE>
</DEFINITION>
<DEFINITION>
<FOR>pixel7</FOR>
<GIVEN>emotion</GIVEN>
<GIVEN>pixel2</GIVEN>
<GIVEN>pixel4</GIVEN>
<TABLE>
0.6427184466019418 0.32427184466019415 0.02524271844660194 0.005825242718446602 0.001941747572815534 
0.1393939393939394 0.6121212121212121 0.18787878787878787 0.030303030303030304 0.030303030303030304 
0.2 0.4666666666666667 0.06666666666666667 0.2 0.06666666666666667 
0.06666666666666667 0.3333333333333333 0.2 0.2 0.2 
0.12404287901990811 0.8131699846860643 0.04747320061255743 0.013782542113323124 0.0015313935681470138 
0.03350970017636684 0.6860670194003528 0.25220458553791886 0.019400352733686066 0.008818342151675485 
0.022222222222222223 0.3333333333333333 0.37777777777777777 0.2 0.06666666666666667 
0.037037037037037035 0.1111111111111111 0.48148148148148145 0.1111111111111111 0.25925925925925924 
0.07042253521126761 0.6112676056338028 0.29014084507042254 0.01971830985915493 0.008450704225352112 
0.0036779730281977932 0.21454842664487128 0.7221087045361667 0.05435226808336739 0.0053126277073968125 
0.0017513134851138354 0.0297723292469352 0.5936952714535902 0.3239929947460595 0.050788091068301226 
0.0038314176245210726 0.0421455938697318 0.3486590038314176 0.4559386973180077 0.14942528735632185 
0.04 0.12 0.6 0.04 0.2 
0.00202020202020202 0.022222222222222223 0.591919191919192 0.34949494949494947 0.03434343434343434 
0.0022675736961451248 0.0022675736961451248 0.2471655328798186 0.7097505668934241 0.03854875283446712 
0.0031545741324921135 0.0031545741324921135 0.22397476340694006 0.5078864353312302 0.2618296529968454 
0.047619047619047616 0.5238095238095238 0.047619047619047616 0.23809523809523808 0.14285714285714285 
0.00546448087431694 0.03825136612021858 0.2459016393442623 0.4426229508196721 0.2677595628415301 
0.00398406374501992 0.00398406374501992 0.035856573705179286 0.5298804780876494 0.4262948207171315 
0.0015408320493066256 0.007704160246533128 0.026194144838212634 0.16486902927580893 0.7996918335901386 
0.35135135135135137 0.5135135135135135 0.08108108108108109 0.02702702702702703 0.02702702702702703 
0.42857142857142855 0.14285714285714285 0.14285714285714285 0.14285714285714285 0.14285714285714285 
0.2 0.2 0.2 0.2 0.2 
0.2 0.2 0.2 0.2 0.2 
0.02040816326530612 0.7959183673469388 0.14285714285714285 0.02040816326530612 0.02040816326530612 
0.04 0.7066666666666667 0.22666666666666666 0.013333333333333334 0.013333333333333334 
0.09090909090909091 0.09090909090909091 0.45454545454545453 0.2727272727272727 0.09090909090909091 
0.1111111111111111 0.1111111111111111 0.5555555555555556 0.1111111111111111 0.1111111111111111 
0.07692307692307693 0.5897435897435898 0.23076923076923078 0.07692307692307693 0.02564102564102564 
0.010830324909747292 0.19855595667870035 0.6823104693140795 0.10469314079422383 0.0036101083032490976 
0.01639344262295082 0.01639344262295082 0.6721311475409836 0.2459016393442623 0.04918032786885246 
0.023255813953488372 0.023255813953488372 0.3023255813953488 0.20930232558139536 0.4418604651162791 
0.1111111111111111 0.5555555555555556 0.1111111111111111 0.1111111111111111 0.1111111111111111 
0.014492753623188406 0.014492753623188406 0.5652173913043478 0.391304347826087 0.014492753623188406 
0.02702702702702703 0.02702702702702703 0.4594594594594595 0.4594594594594595 0.02702702702702703 
0.0196078431372549 0.0196078431372549 0.17647058823529413 0.45098039215686275 0.3333333333333333 
0.14285714285714285 0.14285714285714285 0.42857142857142855 0.14285714285714285 0.14285714285714285 
0.02702702702702703 0.08108108108108109 0.08108108108108109 0.5135135135135135 0.2972972972972973 
0.02564102564102564 0.07692307692307693 0.07692307692307693 0.5384615384615384 0.28205128205128205 
0.01098901098901099 0.01098901098901099 0.054945054945054944 0.2967032967032967 0.6263736263736264 
0.7647058823529411 0.2179930795847751 0.010380622837370242 0.0034602076124567475 0.0034602076124567475 
0.1919191919191919 0.5555555555555556 0.21212121212121213 0.030303030303030304 0.010101010101010102 
0.06666666666666667 0.6 0.06666666666666667 0.2 0.06666666666666667 
0.06666666666666667 0.3333333333333333 0.2 0.2 0.2 
0.15835140997830802 0.7830802603036876 0.05422993492407809 0.0021691973969631237 0.0021691973969631237 
0.016333938294010888 0.6515426497277677 0.29219600725952816 0.034482758620689655 0.0054446460980036296 
0.014925373134328358 0.5522388059701493 0.2537313432835821 0.16417910447761194 0.014925373134328358 
0.0967741935483871 0.16129032258064516 0.3548387096774194 0.3548387096774194 0.03225806451612903 
0.04 0.5636363636363636 0.36727272727272725 0.025454545454545455 0.0036363636363636364 
0.005719313682358117 0.20721513418389792 0.7237131544214694 0.05939287285525737 0.003959524857017158 
0.0017452006980802793 0.019197207678883072 0.6928446771378709 0.26352530541012215 0.02268760907504363 
0.0035842293906810036 0.03225806451612903 0.2903225806451613 0.5197132616487455 0.15412186379928317 
0.12 0.12 0.6 0.12 0.04 
0.006289308176100629 0.027253668763102725 0.5052410901467506 0.4339622641509434 0.027253668763102725 
0.0016207455429497568 0.004862236628849271 0.18962722852512157 0.7309562398703403 0.07293354943273905 
0.002070393374741201 0.006211180124223602 0.08074534161490683 0.5817805383022774 0.32919254658385094 
0.04 0.12 0.28 0.28 0.28 
0.004291845493562232 0.055793991416309016 0.2532188841201717 0.40772532188841204 0.27896995708154504 
0.0031746031746031746 0.0031746031746031746 0.06666666666666667 0.5365079365079365 0.3904761904761905 
8.410428931875525E-4 0.002523128679562658 0.031118587047939444 0.12699747687132043 0.8385197645079899 
0.5550122249388753 0.3740831295843521 0.061124694376528114 0.007334963325183374 0.0024449877750611247 
0.12941176470588237 0.6 0.17647058823529413 0.03529411764705882 0.058823529411764705 
0.07692307692307693 0.07692307692307693 0.23076923076923078 0.5384615384615384 0.07692307692307693 
0.2 0.2 0.2 0.2 0.2 
0.0958904109589041 0.8440463645943098 0.05795574288724974 0.001053740779768177 0.001053740779768177 
0.0056625141562853904 0.6693091732729332 0.29784824462061155 0.02378255945639864 0.0033975084937712344 
0.014492753623188406 0.10144927536231885 0.5942028985507246 0.2753623188405797 0.014492753623188406 
0.030303030303030304 0.09090909090909091 0.45454545454545453 0.3333333333333333 0.09090909090909091 
0.024311183144246355 0.6726094003241491 0.293354943273906 0.008103727714748784 0.0016207455429497568 
0.001072731173567904 0.19716798970178073 0.7215189873417721 0.07316026603733104 0.007080025745548166 
8.628127696289905E-4 0.025021570319240724 0.5893011216566005 0.3425366695427092 0.04227782571182054 
0.002331002331002331 0.011655011655011656 0.21212121212121213 0.5524475524475524 0.22144522144522144 
0.01818181818181818 0.34545454545454546 0.38181818181818183 0.2 0.05454545454545454 
0.0010362694300518134 0.03212435233160622 0.5170984455958549 0.40932642487046633 0.04041450777202073 
9.699321047526673E-4 0.002909796314258002 0.21435499515033948 0.7303588748787585 0.05140640155189137 
0.001451378809869376 0.001451378809869376 0.05370101596516691 0.5878084179970973 0.3555878084179971 
0.10344827586206896 0.3793103448275862 0.3103448275862069 0.10344827586206896 0.10344827586206896 
0.003215434083601286 0.022508038585209004 0.20257234726688103 0.5369774919614148 0.2347266881028939 
0.0017953321364452424 0.0017953321364452424 0.059245960502693 0.5439856373429084 0.39317773788150806 
6.43915003219575E-4 6.43915003219575E-4 0.008370895041854474 0.15647134578235672 0.8338699291693497 
0.6784869976359338 0.2907801418439716 0.02127659574468085 0.0070921985815602835 0.002364066193853428 
0.18811881188118812 0.6237623762376238 0.1485148514851485 0.0297029702970297 0.009900990099009901 
0.09090909090909091 0.09090909090909091 0.6363636363636364 0.09090909090909091 0.09090909090909091 
0.1111111111111111 0.3333333333333333 0.3333333333333333 0.1111111111111111 0.1111111111111111 
0.11969111969111969 0.8558558558558559 0.021879021879021878 0.001287001287001287 0.001287001287001287 
0.01669195751138088 0.7359635811836115 0.21699544764795145 0.02276176024279211 0.007587253414264037 
0.01818181818181818 0.34545454545454546 0.45454545454545453 0.16363636363636364 0.01818181818181818 
0.04 0.12 0.36 0.36 0.12 
0.06422018348623854 0.6085626911314985 0.30275229357798167 0.01529051987767584 0.009174311926605505 
0.0010611956137247967 0.23664662186062965 0.7148921117792714 0.04138662893526707 0.006013441811107181 
0.0013869625520110957 0.02912621359223301 0.6310679611650486 0.31484049930651875 0.023578363384188627 
0.0037174721189591076 0.01858736059479554 0.35315985130111527 0.4646840148698885 0.15985130111524162 
0.0967741935483871 0.22580645161290322 0.4838709677419355 0.16129032258064516 0.03225806451612903 
0.001949317738791423 0.04483430799220273 0.48148148148148145 0.4269005847953216 0.04483430799220273 
0.0014388489208633094 0.012949640287769784 0.1971223021582734 0.7438848920863309 0.04460431654676259 
0.001876172607879925 0.001876172607879925 0.08067542213883677 0.6622889305816135 0.25328330206378985 
0.043478260869565216 0.30434782608695654 0.13043478260869565 0.21739130434782608 0.30434782608695654 
0.005649717514124294 0.01694915254237288 0.2542372881355932 0.4576271186440678 0.2655367231638418 
0.0033444816053511705 0.0033444816053511705 0.06354515050167224 0.6521739130434783 0.27759197324414714 
6.697923643670462E-4 6.697923643670462E-4 0.01942397856664434 0.1332886805090422 0.8459477561955794 
0.670753064798599 0.3064798598949212 0.01926444833625219 0.0017513134851138354 0.0017513134851138354 
0.152317880794702 0.6026490066225165 0.2052980132450331 0.033112582781456956 0.006622516556291391 
0.2727272727272727 0.2727272727272727 0.2727272727272727 0.09090909090909091 0.09090909090909091 
0.1111111111111111 0.1111111111111111 0.5555555555555556 0.1111111111111111 0.1111111111111111 
0.11875693673695893 0.8268590455049944 0.05216426193118757 0.0011098779134295228 0.0011098779134295228 
0.011764705882352941 0.7019607843137254 0.2627450980392157 0.0196078431372549 0.00392156862745098 
0.01694915254237288 0.288135593220339 0.5254237288135594 0.11864406779661017 0.05084745762711865 
0.034482758620689655 0.2413793103448276 0.5172413793103449 0.10344827586206896 0.10344827586206896 
0.03325942350332594 0.6274944567627494 0.31263858093126384 0.019955654101995565 0.0066518847006651885 
0.003013056578506863 0.2105791764312019 0.7268162035487111 0.050552393706059594 0.009039169735520589 
0.0019193857965451055 0.028790786948176585 0.6391554702495201 0.28982725527831094 0.04030710172744722 
0.004608294930875576 0.059907834101382486 0.271889400921659 0.45622119815668205 0.2073732718894009 
0.09433962264150944 0.20754716981132076 0.4339622641509434 0.24528301886792453 0.018867924528301886 
0.0017271157167530224 0.039723661485319514 0.5993091537132987 0.33678756476683935 0.022452504317789293 
0.0017035775127768314 0.0017035775127768314 0.23339011925042588 0.696763202725724 0.06643952299829642 
0.0025974025974025974 0.007792207792207792 0.06493506493506493 0.6623376623376623 0.2623376623376623 
0.030303030303030304 0.09090909090909091 0.3333333333333333 0.21212121212121213 0.3333333333333333 
0.004878048780487805 0.05365853658536585 0.1902439024390244 0.47317073170731705 0.2780487804878049 
0.0036101083032490976 0.0036101083032490976 0.07581227436823104 0.5523465703971119 0.36462093862815886 
9.372071227741331E-4 0.0028116213683223993 0.023430178069353328 0.17525773195876287 0.7975632614807873 
0.6631578947368421 0.30526315789473685 0.010526315789473684 0.010526315789473684 0.010526315789473684 
0.32075471698113206 0.32075471698113206 0.2830188679245283 0.05660377358490566 0.018867924528301886 
0.06666666666666667 0.6 0.2 0.06666666666666667 0.06666666666666667 
0.5555555555555556 0.1111111111111111 0.1111111111111111 0.1111111111111111 0.1111111111111111 
0.09392265193370165 0.7348066298342542 0.16022099447513813 0.0055248618784530384 0.0055248618784530384 
0.025089605734767026 0.6630824372759857 0.26881720430107525 0.03942652329749104 0.0035842293906810036 
0.030303030303030304 0.2727272727272727 0.45454545454545453 0.030303030303030304 0.21212121212121213 
0.043478260869565216 0.21739130434782608 0.13043478260869565 0.21739130434782608 0.391304347826087 
0.03529411764705882 0.6470588235294118 0.27058823529411763 0.03529411764705882 0.011764705882352941 
0.005339435545385202 0.17620137299771166 0.7543859649122807 0.057208237986270026 0.006864988558352402 
0.0019646365422396855 0.0137524557956778 0.6660117878192534 0.28487229862475444 0.03339882121807466 
0.004016064257028112 0.004016064257028112 0.285140562248996 0.5903614457831325 0.11646586345381527 
0.07692307692307693 0.5384615384615384 0.07692307692307693 0.23076923076923078 0.07692307692307693 
0.003115264797507788 0.03426791277258567 0.4766355140186916 0.4392523364485981 0.04672897196261682 
0.001669449081803005 0.005008347245409015 0.1352253756260434 0.8063439065108514 0.05175292153589316 
0.0017331022530329288 0.005199306759098787 0.08145580589254767 0.6395147313691508 0.2720970537261698 
0.14285714285714285 0.42857142857142855 0.14285714285714285 0.14285714285714285 0.14285714285714285 
0.010101010101010102 0.050505050505050504 0.15151515151515152 0.45454545454545453 0.3333333333333333 
0.0033003300330033004 0.0033003300330033004 0.036303630363036306 0.5643564356435643 0.3927392739273927 
0.0017016449234259785 5.672149744753262E-4 0.009642654566080544 0.11741349971639252 0.8706749858196257 
</TABLE>
</DEFINITION>
<DEFINITION>
<FOR>pixel8</FOR>
<GIVEN>emotion</GIVEN>
<GIVEN>pixel7</GIVEN>
<GIVEN>pixel6</GIVEN>
<TABLE>
0.8055555555555556 0.1388888888888889 0.04365079365079365 0.011904761904761904 
0.6609195402298851 0.22413793103448276 0.06321839080459771 0.05172413793103448 
0.34 0.38 0.06 0.22 
0.4583333333333333 0.125 0.041666666666666664 0.375 
0.6048689138576779 0.29775280898876405 0.06928838951310862 0.028089887640449437 
0.38333333333333336 0.4715686274509804 0.09705882352941177 0.04803921568627451 
0.18027210884353742 0.47278911564625853 0.2755102040816326 0.07142857142857142 
0.1534090909090909 0.3352272727272727 0.17613636363636365 0.3352272727272727 
0.24728260869565216 0.5081521739130435 0.13858695652173914 0.10597826086956522 
0.13606770833333334 0.607421875 0.19075520833333334 0.06575520833333333 
0.07142857142857142 0.47278911564625853 0.336734693877551 0.11904761904761904 
0.059006211180124224 0.30124223602484473 0.2639751552795031 0.37577639751552794 
0.1417910447761194 0.3805970149253731 0.21641791044776118 0.26119402985074625 
0.08333333333333333 0.3391472868217054 0.31589147286821706 0.2616279069767442 
0.05043859649122807 0.31359649122807015 0.3925438596491228 0.24342105263157895 
0.031073446327683617 0.211864406779661 0.2796610169491525 0.4774011299435028 
0.18085106382978725 0.18085106382978725 0.09574468085106383 0.5425531914893617 
0.05188679245283019 0.25943396226415094 0.22169811320754718 0.4669811320754717 
0.03125 0.19196428571428573 0.24553571428571427 0.53125 
0.02925531914893617 0.1196808510638298 0.15691489361702127 0.6941489361702128 
0.7 0.1 0.1 0.1 
0.5833333333333334 0.25 0.08333333333333333 0.08333333333333333 
0.16666666666666666 0.5 0.16666666666666666 0.16666666666666666 
0.125 0.375 0.125 0.375 
0.29545454545454547 0.5227272727272727 0.1590909090909091 0.022727272727272728 
0.33035714285714285 0.5982142857142857 0.044642857142857144 0.026785714285714284 
0.34615384615384615 0.4230769230769231 0.11538461538461539 0.11538461538461539 
0.2692307692307692 0.19230769230769232 0.34615384615384615 0.19230769230769232 
0.25 0.5357142857142857 0.03571428571428571 0.17857142857142858 
0.05 0.6388888888888888 0.17222222222222222 0.1388888888888889 
0.0603448275862069 0.35344827586206895 0.33620689655172414 0.25 
0.06818181818181818 0.11363636363636363 0.25 0.5681818181818182 
0.21428571428571427 0.21428571428571427 0.07142857142857142 0.5 
0.016129032258064516 0.24193548387096775 0.5645161290322581 0.1774193548387097 
0.046875 0.140625 0.421875 0.390625 
0.05172413793103448 0.1206896551724138 0.15517241379310345 0.6724137931034483 
0.125 0.125 0.375 0.375 
0.0625 0.3125 0.0625 0.5625 
0.022727272727272728 0.25 0.20454545454545456 0.5227272727272727 
0.05 0.15 0.35 0.45 
0.7727272727272727 0.17272727272727273 0.045454545454545456 0.00909090909090909 
0.55 0.29285714285714287 0.05 0.10714285714285714 
0.453125 0.265625 0.078125 0.203125 
0.3541666666666667 0.3958333333333333 0.1875 0.0625 
0.617816091954023 0.28448275862068967 0.05459770114942529 0.04310344827586207 
0.45 0.45 0.06891891891891892 0.031081081081081083 
0.25 0.5316901408450704 0.17253521126760563 0.045774647887323945 
0.18932038834951456 0.3737864077669903 0.16019417475728157 0.2766990291262136 
0.26129032258064516 0.3967741935483871 0.19032258064516128 0.15161290322580645 
0.15324858757062146 0.5939265536723164 0.1843220338983051 0.06850282485875706 
0.06968215158924206 0.5244498777506112 0.30440097799511 0.10146699266503667 
0.09030837004405286 0.30616740088105726 0.30616740088105726 0.2973568281938326 
0.18253968253968253 0.3888888888888889 0.1349206349206349 0.29365079365079366 
0.07088122605363985 0.3045977011494253 0.3850574712643678 0.23946360153256704 
0.03879310344827586 0.2629310344827586 0.46120689655172414 0.23706896551724138 
0.025691699604743084 0.16798418972332016 0.3300395256916996 0.4762845849802372 
0.18055555555555555 0.18055555555555555 0.1527777777777778 0.4861111111111111 
0.046762589928057555 0.13309352517985612 0.24100719424460432 0.579136690647482 
0.02763819095477387 0.11809045226130653 0.24874371859296482 0.6055276381909548 
0.025815217391304348 0.11548913043478261 0.1480978260869565 0.7105978260869565 
0.8622448979591837 0.07653061224489796 0.025510204081632654 0.03571428571428571 
0.5416666666666666 0.4083333333333333 0.008333333333333333 0.041666666666666664 
0.22727272727272727 0.5 0.045454545454545456 0.22727272727272727 
0.32142857142857145 0.32142857142857145 0.25 0.10714285714285714 
0.6419902912621359 0.2803398058252427 0.04975728155339806 0.027912621359223302 
0.414906103286385 0.49002347417840375 0.0698356807511737 0.02523474178403756 
0.18786127167630057 0.5578034682080925 0.16473988439306358 0.08959537572254335 
0.22674418604651161 0.3313953488372093 0.21511627906976744 0.22674418604651161 
0.268018018018018 0.5022522522522522 0.1463963963963964 0.08333333333333333 
0.13978849966953075 0.6672174487772637 0.14573694646397886 0.0472571050892267 
0.06844850065189048 0.5508474576271186 0.2953063885267275 0.08539765319426336 
0.05929487179487179 0.296474358974359 0.3541666666666667 0.2900641025641026 
0.12264150943396226 0.3867924528301887 0.27358490566037735 0.2169811320754717 
0.05449330783938815 0.39101338432122373 0.36615678776290633 0.18833652007648183 
0.03526645768025078 0.3675548589341693 0.3847962382445141 0.21238244514106583 
0.01901565995525727 0.1912751677852349 0.3187919463087248 0.470917225950783 
0.16176470588235295 0.16176470588235295 0.22058823529411764 0.45588235294117646 
0.0583756345177665 0.21065989847715735 0.23604060913705585 0.4949238578680203 
0.01971326164874552 0.16308243727598568 0.1953405017921147 0.6218637992831542 
0.028181818181818183 0.08454545454545455 0.18454545454545454 0.7027272727272728 
0.890625 0.078125 0.005208333333333333 0.026041666666666668 
0.6518987341772152 0.2088607594936709 0.10759493670886076 0.03164556962025317 
0.5869565217391305 0.32608695652173914 0.06521739130434782 0.021739130434782608 
0.46 0.18 0.1 0.26 
0.7231543624161074 0.22651006711409397 0.03859060402684564 0.01174496644295302 
0.4776490066225166 0.4478476821192053 0.05380794701986755 0.020695364238410598 
0.27124183006535946 0.4738562091503268 0.21895424836601307 0.03594771241830065 
0.19072164948453607 0.30412371134020616 0.27319587628865977 0.23195876288659795 
0.3366013071895425 0.5065359477124183 0.09477124183006536 0.06209150326797386 
0.1725181598062954 0.6555690072639225 0.13498789346246973 0.036924939467312345 
0.06836734693877551 0.5051020408163265 0.30918367346938774 0.11734693877551021 
0.08704453441295547 0.2773279352226721 0.31376518218623484 0.32186234817813764 
0.1590909090909091 0.29545454545454547 0.3560606060606061 0.1893939393939394 
0.1073943661971831 0.4242957746478873 0.31161971830985913 0.15669014084507044 
0.04365079365079365 0.3425925925925926 0.4087301587301587 0.20502645502645503 
0.046031746031746035 0.1634920634920635 0.2746031746031746 0.5158730158730159 
0.08333333333333333 0.15476190476190477 0.17857142857142858 0.5833333333333334 
0.13703703703703704 0.15925925925925927 0.18888888888888888 0.5148148148148148 
0.04567307692307692 0.1466346153846154 0.24278846153846154 0.5649038461538461 
0.02967032967032967 0.11098901098901098 0.14395604395604394 0.7153846153846154 
0.8419117647058824 0.09926470588235294 0.025735294117647058 0.03308823529411765 
0.6055555555555555 0.29444444444444445 0.06111111111111111 0.03888888888888889 
0.4032258064516129 0.3709677419354839 0.1774193548387097 0.04838709677419355 
0.3958333333333333 0.1875 0.14583333333333334 0.2708333333333333 
0.7281420765027322 0.21721311475409835 0.036885245901639344 0.017759562841530054 
0.44846153846153847 0.4623076923076923 0.05923076923076923 0.03 
0.2768817204301075 0.48655913978494625 0.18010752688172044 0.056451612903225805 
0.23780487804878048 0.2865853658536585 0.1524390243902439 0.3231707317073171 
0.30128205128205127 0.48504273504273504 0.12606837606837606 0.0876068376068376 
0.17838125665601703 0.6054313099041534 0.16666666666666666 0.04952076677316294 
0.12124711316397228 0.45842956120092376 0.28983833718244806 0.13048498845265588 
0.11956521739130435 0.30217391304347824 0.2717391304347826 0.3065217391304348 
0.20121951219512196 0.2621951219512195 0.29878048780487804 0.23780487804878048 
0.09628378378378379 0.40709459459459457 0.3125 0.18412162162162163 
0.06743421052631579 0.32730263157894735 0.37006578947368424 0.23519736842105263 
0.058673469387755105 0.19642857142857142 0.2729591836734694 0.4719387755102041 
0.11016949152542373 0.2457627118644068 0.17796610169491525 0.4661016949152542 
0.09782608695652174 0.31521739130434784 0.12681159420289856 0.4601449275362319 
0.05555555555555555 0.23202614379084968 0.25163398692810457 0.46078431372549017 
0.039655172413793106 0.10517241379310345 0.15 0.7051724137931035 
0.868421052631579 0.07894736842105263 0.02631578947368421 0.02631578947368421 
0.5357142857142857 0.39285714285714285 0.03571428571428571 0.03571428571428571 
0.09375 0.71875 0.15625 0.03125 
0.15625 0.53125 0.09375 0.21875 
0.6509433962264151 0.29245283018867924 0.04716981132075472 0.009433962264150943 
0.3562091503267974 0.5522875816993464 0.05555555555555555 0.03594771241830065 
0.2635135135135135 0.5337837837837838 0.12837837837837837 0.07432432432432433 
0.16447368421052633 0.34868421052631576 0.19078947368421054 0.29605263157894735 
0.25892857142857145 0.5625 0.15178571428571427 0.026785714285714284 
0.09730538922155689 0.6931137724550899 0.1661676646706587 0.04341317365269461 
0.05457227138643068 0.5 0.3407079646017699 0.10471976401179942 
0.053738317757009345 0.25 0.3901869158878505 0.3060747663551402 
0.041666666666666664 0.2916666666666667 0.2638888888888889 0.4027777777777778 
0.020348837209302327 0.34011627906976744 0.3633720930232558 0.2761627906976744 
0.011513157894736841 0.2680921052631579 0.4555921052631579 0.26480263157894735 
0.011450381679389313 0.14631043256997456 0.2989821882951654 0.5432569974554707 
0.07142857142857142 0.01020408163265306 0.05102040816326531 0.8673469387755102 
0.0291005291005291 0.10317460317460317 0.24074074074074073 0.626984126984127 
0.023605150214592276 0.08798283261802575 0.23819742489270387 0.6502145922746781 
0.0224609375 0.0791015625 0.1572265625 0.7412109375 
</TABLE>
</DEFINITION>
<DEFINITION>
<FOR>pixel9</FOR>
<GIVEN>emotion</GIVEN>
<GIVEN>pixel1</GIVEN>
<GIVEN>pixel6</GIVEN>
<TABLE>
0.7562913907284768 0.22649006622516557 0.017218543046357615 
0.4965986394557823 0.48299319727891155 0.02040816326530612 
0.47368421052631576 0.3684210526315789 0.15789473684210525 
0.42857142857142855 0.42857142857142855 0.14285714285714285 
0.21005385996409337 0.7199281867145422 0.07001795332136446 
0.10925373134328359 0.8232835820895522 0.06746268656716418 
0.1079136690647482 0.6258992805755396 0.26618705035971224 
0.13043478260869565 0.6521739130434783 0.21739130434782608 
0.022222222222222223 0.8222222222222222 0.15555555555555556 
0.032317636195752536 0.7673130193905817 0.20036934441366575 
0.01466275659824047 0.718475073313783 0.2668621700879765 
0.018867924528301886 0.5849056603773585 0.39622641509433965 
0.058823529411764705 0.5294117647058824 0.4117647058823529 
0.006185567010309278 0.4556701030927835 0.5381443298969072 
0.005988023952095809 0.3772455089820359 0.6167664670658682 
0.0031746031746031746 0.24444444444444444 0.7523809523809524 
0.3333333333333333 0.3333333333333333 0.3333333333333333 
0.015873015873015872 0.047619047619047616 0.9365079365079365 
0.004291845493562232 0.18454935622317598 0.8111587982832618 
0.008244994110718492 0.09069493521790342 0.901060070671378 
0.7575757575757576 0.21212121212121213 0.030303030303030304 
0.6 0.2 0.2 
0.3333333333333333 0.3333333333333333 0.3333333333333333 
0.3333333333333333 0.3333333333333333 0.3333333333333333 
0.13725490196078433 0.803921568627451 0.058823529411764705 
0.06666666666666667 0.8666666666666667 0.06666666666666667 
0.1111111111111111 0.7777777777777778 0.1111111111111111 
0.2 0.6 0.2 
0.14285714285714285 0.42857142857142855 0.42857142857142855 
0.023255813953488372 0.813953488372093 0.16279069767441862 
0.07317073170731707 0.4146341463414634 0.5121951219512195 
0.09090909090909091 0.6363636363636364 0.2727272727272727 
0.3333333333333333 0.3333333333333333 0.3333333333333333 
0.023255813953488372 0.4418604651162791 0.5348837209302325 
0.006622516556291391 0.4304635761589404 0.5629139072847682 
0.0196078431372549 0.2549019607843137 0.7254901960784313 
0.2 0.6 0.2 
0.2 0.2 0.6 
0.02127659574468085 0.19148936170212766 0.7872340425531915 
0.008264462809917356 0.14049586776859505 0.8512396694214877 
0.7096114519427403 0.25971370143149286 0.03067484662576687 
0.33980582524271846 0.5145631067961165 0.14563106796116504 
0.06666666666666667 0.6 0.3333333333333333 
0.3333333333333333 0.3333333333333333 0.3333333333333333 
0.2 0.7590361445783133 0.04096385542168675 
0.09498069498069497 0.8332046332046332 0.07181467181467181 
0.09090909090909091 0.5353535353535354 0.37373737373737376 
0.3333333333333333 0.2 0.4666666666666667 
0.037037037037037035 0.6296296296296297 0.3333333333333333 
0.021515434985968196 0.7623947614593077 0.21608980355472404 
0.02912621359223301 0.5469255663430421 0.42394822006472493 
0.018867924528301886 0.39622641509433965 0.5849056603773585 
0.14285714285714285 0.3333333333333333 0.5238095238095238 
0.0017761989342806395 0.5310834813499112 0.46714031971580816 
0.006036217303822937 0.3615023474178404 0.6324614352783366 
0.011286681715575621 0.2325056433408578 0.7562076749435666 
0.1111111111111111 0.3333333333333333 0.5555555555555556 
0.01639344262295082 0.11475409836065574 0.8688524590163934 
0.002932551319648094 0.1378299120234604 0.8592375366568915 
0.0020964360587002098 0.04682040531097135 0.9510831586303284 
0.7142857142857143 0.2683578104138852 0.017356475300400534 
0.4157303370786517 0.5580524344569289 0.026217228464419477 
0.38461538461538464 0.38461538461538464 0.23076923076923078 
0.42857142857142855 0.42857142857142855 0.14285714285714285 
0.1771995043370508 0.79182156133829 0.030978934324659233 
0.07086113759135684 0.8652685096917699 0.06387035271687322 
0.06713780918727916 0.696113074204947 0.23674911660777384 
0.09433962264150944 0.5471698113207547 0.3584905660377358 
0.024390243902439025 0.7073170731707317 0.2682926829268293 
0.003886729594669628 0.7823431426985008 0.21377012770682954 
0.01078582434514638 0.6671802773497689 0.3220338983050847 
0.01639344262295082 0.5081967213114754 0.47540983606557374 
0.034482758620689655 0.2413793103448276 0.7241379310344828 
0.0010362694300518134 0.41761658031088084 0.5813471502590674 
0.002110595187842972 0.31447868298860276 0.6834107218235542 
0.0037174721189591076 0.23172242874845106 0.7645600991325898 
0.14285714285714285 0.14285714285714285 0.7142857142857143 
0.009523809523809525 0.2 0.7904761904761904 
0.002398081534772182 0.09832134292565947 0.8992805755395683 
5.305039787798408E-4 0.034482758620689655 0.9649867374005305 
0.7261055634807418 0.26390870185449355 0.009985734664764621 
0.46788990825688076 0.48623853211009177 0.045871559633027525 
0.1111111111111111 0.7777777777777778 0.1111111111111111 
0.6 0.2 0.2 
0.27629233511586454 0.6898395721925134 0.0338680926916221 
0.10540688148552703 0.8503549972692518 0.04423812124522119 
0.060240963855421686 0.6626506024096386 0.27710843373493976 
0.07692307692307693 0.23076923076923078 0.6923076923076923 
0.15789473684210525 0.47368421052631576 0.3684210526315789 
0.012701100762066046 0.8289585097375106 0.15834038950042337 
0.0421455938697318 0.5478927203065134 0.4099616858237548 
0.023255813953488372 0.4883720930232558 0.4883720930232558 
0.06666666666666667 0.2 0.7333333333333333 
0.0072992700729927005 0.5620437956204379 0.4306569343065693 
0.00505902192242833 0.35694210230466555 0.6379988757729061 
0.014005602240896359 0.21568627450980393 0.7703081232492998 
0.1111111111111111 0.5555555555555556 0.3333333333333333 
0.022222222222222223 0.1111111111111111 0.8666666666666667 
0.0027247956403269754 0.11171662125340599 0.885558583106267 
0.0037735849056603774 0.05660377358490566 0.939622641509434 
0.7158234660925726 0.2766415500538213 0.007534983853606028 
0.5652173913043478 0.3565217391304348 0.0782608695652174 
0.2 0.6 0.2 
0.2 0.6 0.2 
0.2345679012345679 0.7283950617283951 0.037037037037037035 
0.09800278680910357 0.826288899210404 0.07570831398049234 
0.06870229007633588 0.7251908396946565 0.20610687022900764 
0.1111111111111111 0.7037037037037037 0.18518518518518517 
0.05660377358490566 0.6226415094339622 0.32075471698113206 
0.01809598741148702 0.7828481510621558 0.1990558615263572 
0.009404388714733543 0.6802507836990596 0.3103448275862069 
0.12280701754385964 0.5087719298245614 0.3684210526315789 
0.030303030303030304 0.2727272727272727 0.696969696969697 
0.008 0.4816 0.5104 
0.007633587786259542 0.34489937543372656 0.6474670367800138 
0.0029154518950437317 0.33527696793002915 0.6618075801749271 
0.2 0.6 0.2 
0.017543859649122806 0.2631578947368421 0.7192982456140351 
0.003194888178913738 0.09904153354632587 0.8977635782747604 
0.0024855012427506215 0.05219552609776305 0.9453189726594863 
0.7202072538860104 0.2538860103626943 0.025906735751295335 
0.6551724137931034 0.3103448275862069 0.034482758620689655 
0.2 0.6 0.2 
0.3333333333333333 0.3333333333333333 0.3333333333333333 
0.20603015075376885 0.7587939698492462 0.035175879396984924 
0.1031636863823934 0.8486932599724897 0.048143053645116916 
0.1794871794871795 0.5897435897435898 0.23076923076923078 
0.09090909090909091 0.2727272727272727 0.6363636363636364 
0.2 0.6 0.2 
0.01549053356282272 0.7762478485370051 0.2082616179001721 
